FANN_FLO_2.1
num_layers=3
learning_rate=0.700000
connection_rate=1.000000
network_type=0
learning_momentum=0.000000
training_algorithm=2
train_error_function=1
train_stop_function=1
cascade_output_change_fraction=0.010000
quickprop_decay=-0.000100
quickprop_mu=1.750000
rprop_increase_factor=1.200000
rprop_decrease_factor=0.500000
rprop_delta_min=0.000000
rprop_delta_max=50.000000
rprop_delta_zero=0.100000
cascade_output_stagnation_epochs=12
cascade_candidate_change_fraction=0.010000
cascade_candidate_stagnation_epochs=12
cascade_max_out_epochs=150
cascade_min_out_epochs=50
cascade_max_cand_epochs=150
cascade_min_cand_epochs=50
cascade_num_candidate_groups=2
bit_fail_limit=9.99999977648258209229e-03
cascade_candidate_limit=1.00000000000000000000e+03
cascade_weight_multiplier=4.00000005960464477539e-01
cascade_activation_functions_count=10
cascade_activation_functions=3 5 7 8 10 11 14 15 16 17 
cascade_activation_steepnesses_count=4
cascade_activation_steepnesses=2.50000000000000000000e-01 5.00000000000000000000e-01 7.50000000000000000000e-01 1.00000000000000000000e+00 
layer_sizes=901 465 27 
scale_included=0
neurons (num_inputs, activation_function, activation_steepness)=(0, 0, 0.00000000000000000000e+00) (0, 0, 0.00000000000000000000e+00) (0, 0, 0.00000000000000000000e+00) (0, 0, 0.00000000000000000000e+00) (0, 0, 0.00000000000000000000e+00) (0, 0, 0.00000000000000000000e+00) (0, 0, 0.00000000000000000000e+00) (0, 0, 0.00000000000000000000e+00) (0, 0, 0.00000000000000000000e+00) (0, 0, 0.00000000000000000000e+00) (0, 0, 0.00000000000000000000e+00) (0, 0, 0.00000000000000000000e+00) (0, 0, 0.00000000000000000000e+00) (0, 0, 0.00000000000000000000e+00) (0, 0, 0.00000000000000000000e+00) (0, 0, 0.00000000000000000000e+00) (0, 0, 0.00000000000000000000e+00) (0, 0, 0.00000000000000000000e+00) (0, 0, 0.00000000000000000000e+00) (0, 0, 0.00000000000000000000e+00) (0, 0, 0.00000000000000000000e+00) (0, 0, 0.00000000000000000000e+00) (0, 0, 0.00000000000000000000e+00) (0, 0, 0.00000000000000000000e+00) (0, 0, 0.00000000000000000000e+00) (0, 0, 0.00000000000000000000e+00) (0, 0, 0.00000000000000000000e+00) (0, 0, 0.00000000000000000000e+00) (0, 0, 0.00000000000000000000e+00) (0, 0, 0.00000000000000000000e+00) (0, 0, 0.00000000000000000000e+00) (0, 0, 0.00000000000000000000e+00) (0, 0, 0.00000000000000000000e+00) (0, 0, 0.00000000000000000000e+00) (0, 0, 0.00000000000000000000e+00) (0, 0, 0.00000000000000000000e+00) (0, 0, 0.00000000000000000000e+00) (0, 0, 0.00000000000000000000e+00) (0, 0, 0.00000000000000000000e+00) (0, 0, 0.00000000000000000000e+00) (0, 0, 0.00000000000000000000e+00) (0, 0, 0.00000000000000000000e+00) (0, 0, 0.00000000000000000000e+00) (0, 0, 0.00000000000000000000e+00) (0, 0, 0.00000000000000000000e+00) (0, 0, 0.00000000000000000000e+00) (0, 0, 0.00000000000000000000e+00) (0, 0, 0.00000000000000000000e+00) (0, 0, 0.00000000000000000000e+00) (0, 0, 0.00000000000000000000e+00) (0, 0, 0.00000000000000000000e+00) (0, 0, 0.00000000000000000000e+00) (0, 0, 0.00000000000000000000e+00) (0, 0, 0.00000000000000000000e+00) (0, 0, 0.00000000000000000000e+00) (0, 0, 0.00000000000000000000e+00) (0, 0, 0.00000000000000000000e+00) (0, 0, 0.00000000000000000000e+00) (0, 0, 0.00000000000000000000e+00) (0, 0, 0.00000000000000000000e+00) (0, 0, 0.00000000000000000000e+00) (0, 0, 0.00000000000000000000e+00) (0, 0, 0.00000000000000000000e+00) (0, 0, 0.00000000000000000000e+00) (0, 0, 0.00000000000000000000e+00) (0, 0, 0.00000000000000000000e+00) (0, 0, 0.00000000000000000000e+00) (0, 0, 0.00000000000000000000e+00) (0, 0, 0.00000000000000000000e+00) (0, 0, 0.00000000000000000000e+00) (0, 0, 0.00000000000000000000e+00) (0, 0, 0.00000000000000000000e+00) (0, 0, 0.00000000000000000000e+00) (0, 0, 0.00000000000000000000e+00) (0, 0, 0.00000000000000000000e+00) (0, 0, 0.00000000000000000000e+00) (0, 0, 0.00000000000000000000e+00) (0, 0, 0.00000000000000000000e+00) (0, 0, 0.00000000000000000000e+00) (0, 0, 0.00000000000000000000e+00) (0, 0, 0.00000000000000000000e+00) (0, 0, 0.00000000000000000000e+00) (0, 0, 0.00000000000000000000e+00) (0, 0, 0.00000000000000000000e+00) (0, 0, 0.00000000000000000000e+00) (0, 0, 0.00000000000000000000e+00) (0, 0, 0.00000000000000000000e+00) (0, 0, 0.00000000000000000000e+00) (0, 0, 0.00000000000000000000e+00) (0, 0, 0.00000000000000000000e+00) (0, 0, 0.00000000000000000000e+00) (0, 0, 0.00000000000000000000e+00) (0, 0, 0.00000000000000000000e+00) (0, 0, 0.00000000000000000000e+00) (0, 0, 0.00000000000000000000e+00) (0, 0, 0.00000000000000000000e+00) (0, 0, 0.00000000000000000000e+00) (0, 0, 0.00000000000000000000e+00) (0, 0, 0.00000000000000000000e+00) (0, 0, 0.00000000000000000000e+00) (0, 0, 0.00000000000000000000e+00) (0, 0, 0.00000000000000000000e+00) (0, 0, 0.00000000000000000000e+00) (0, 0, 0.00000000000000000000e+00) (0, 0, 0.00000000000000000000e+00) (0, 0, 0.00000000000000000000e+00) (0, 0, 0.00000000000000000000e+00) (0, 0, 0.00000000000000000000e+00) (0, 0, 0.00000000000000000000e+00) (0, 0, 0.00000000000000000000e+00) (0, 0, 0.00000000000000000000e+00) (0, 0, 0.00000000000000000000e+00) (0, 0, 0.00000000000000000000e+00) (0, 0, 0.00000000000000000000e+00) (0, 0, 0.00000000000000000000e+00) (0, 0, 0.00000000000000000000e+00) (0, 0, 0.00000000000000000000e+00) (0, 0, 0.00000000000000000000e+00) (0, 0, 0.00000000000000000000e+00) (0, 0, 0.00000000000000000000e+00) (0, 0, 0.00000000000000000000e+00) (0, 0, 0.00000000000000000000e+00) (0, 0, 0.00000000000000000000e+00) (0, 0, 0.00000000000000000000e+00) (0, 0, 0.00000000000000000000e+00) (0, 0, 0.00000000000000000000e+00) (0, 0, 0.00000000000000000000e+00) (0, 0, 0.00000000000000000000e+00) (0, 0, 0.00000000000000000000e+00) (0, 0, 0.00000000000000000000e+00) (0, 0, 0.00000000000000000000e+00) (0, 0, 0.00000000000000000000e+00) (0, 0, 0.00000000000000000000e+00) (0, 0, 0.00000000000000000000e+00) (0, 0, 0.00000000000000000000e+00) (0, 0, 0.00000000000000000000e+00) (0, 0, 0.00000000000000000000e+00) (0, 0, 0.00000000000000000000e+00) (0, 0, 0.00000000000000000000e+00) (0, 0, 0.00000000000000000000e+00) (0, 0, 0.00000000000000000000e+00) (0, 0, 0.00000000000000000000e+00) (0, 0, 0.00000000000000000000e+00) (0, 0, 0.00000000000000000000e+00) (0, 0, 0.00000000000000000000e+00) (0, 0, 0.00000000000000000000e+00) (0, 0, 0.00000000000000000000e+00) (0, 0, 0.00000000000000000000e+00) (0, 0, 0.00000000000000000000e+00) (0, 0, 0.00000000000000000000e+00) (0, 0, 0.00000000000000000000e+00) (0, 0, 0.00000000000000000000e+00) (0, 0, 0.00000000000000000000e+00) (0, 0, 0.00000000000000000000e+00) (0, 0, 0.00000000000000000000e+00) (0, 0, 0.00000000000000000000e+00) (0, 0, 0.00000000000000000000e+00) (0, 0, 0.00000000000000000000e+00) (0, 0, 0.00000000000000000000e+00) (0, 0, 0.00000000000000000000e+00) (0, 0, 0.00000000000000000000e+00) (0, 0, 0.00000000000000000000e+00) (0, 0, 0.00000000000000000000e+00) (0, 0, 0.00000000000000000000e+00) (0, 0, 0.00000000000000000000e+00) (0, 0, 0.00000000000000000000e+00) (0, 0, 0.00000000000000000000e+00) (0, 0, 0.00000000000000000000e+00) (0, 0, 0.00000000000000000000e+00) (0, 0, 0.00000000000000000000e+00) (0, 0, 0.00000000000000000000e+00) (0, 0, 0.00000000000000000000e+00) (0, 0, 0.00000000000000000000e+00) (0, 0, 0.00000000000000000000e+00) (0, 0, 0.00000000000000000000e+00) (0, 0, 0.00000000000000000000e+00) (0, 0, 0.00000000000000000000e+00) (0, 0, 0.00000000000000000000e+00) (0, 0, 0.00000000000000000000e+00) (0, 0, 0.00000000000000000000e+00) (0, 0, 0.00000000000000000000e+00) (0, 0, 0.00000000000000000000e+00) (0, 0, 0.00000000000000000000e+00) (0, 0, 0.00000000000000000000e+00) (0, 0, 0.00000000000000000000e+00) (0, 0, 0.00000000000000000000e+00) (0, 0, 0.00000000000000000000e+00) (0, 0, 0.00000000000000000000e+00) (0, 0, 0.00000000000000000000e+00) (0, 0, 0.00000000000000000000e+00) (0, 0, 0.00000000000000000000e+00) (0, 0, 0.00000000000000000000e+00) (0, 0, 0.00000000000000000000e+00) (0, 0, 0.00000000000000000000e+00) (0, 0, 0.00000000000000000000e+00) (0, 0, 0.00000000000000000000e+00) (0, 0, 0.00000000000000000000e+00) (0, 0, 0.00000000000000000000e+00) (0, 0, 0.00000000000000000000e+00) (0, 0, 0.00000000000000000000e+00) (0, 0, 0.00000000000000000000e+00) (0, 0, 0.00000000000000000000e+00) (0, 0, 0.00000000000000000000e+00) (0, 0, 0.00000000000000000000e+00) (0, 0, 0.00000000000000000000e+00) (0, 0, 0.00000000000000000000e+00) (0, 0, 0.00000000000000000000e+00) (0, 0, 0.00000000000000000000e+00) (0, 0, 0.00000000000000000000e+00) (0, 0, 0.00000000000000000000e+00) (0, 0, 0.00000000000000000000e+00) (0, 0, 0.00000000000000000000e+00) (0, 0, 0.00000000000000000000e+00) (0, 0, 0.00000000000000000000e+00) (0, 0, 0.00000000000000000000e+00) (0, 0, 0.00000000000000000000e+00) (0, 0, 0.00000000000000000000e+00) (0, 0, 0.00000000000000000000e+00) (0, 0, 0.00000000000000000000e+00) (0, 0, 0.00000000000000000000e+00) (0, 0, 0.00000000000000000000e+00) (0, 0, 0.00000000000000000000e+00) (0, 0, 0.00000000000000000000e+00) (0, 0, 0.00000000000000000000e+00) (0, 0, 0.00000000000000000000e+00) (0, 0, 0.00000000000000000000e+00) (0, 0, 0.00000000000000000000e+00) (0, 0, 0.00000000000000000000e+00) (0, 0, 0.00000000000000000000e+00) (0, 0, 0.00000000000000000000e+00) (0, 0, 0.00000000000000000000e+00) (0, 0, 0.00000000000000000000e+00) (0, 0, 0.00000000000000000000e+00) (0, 0, 0.00000000000000000000e+00) (0, 0, 0.00000000000000000000e+00) (0, 0, 0.00000000000000000000e+00) (0, 0, 0.00000000000000000000e+00) (0, 0, 0.00000000000000000000e+00) (0, 0, 0.00000000000000000000e+00) (0, 0, 0.00000000000000000000e+00) (0, 0, 0.00000000000000000000e+00) (0, 0, 0.00000000000000000000e+00) (0, 0, 0.00000000000000000000e+00) (0, 0, 0.00000000000000000000e+00) (0, 0, 0.00000000000000000000e+00) (0, 0, 0.00000000000000000000e+00) (0, 0, 0.00000000000000000000e+00) (0, 0, 0.00000000000000000000e+00) (0, 0, 0.00000000000000000000e+00) (0, 0, 0.00000000000000000000e+00) (0, 0, 0.00000000000000000000e+00) (0, 0, 0.00000000000000000000e+00) (0, 0, 0.00000000000000000000e+00) (0, 0, 0.00000000000000000000e+00) (0, 0, 0.00000000000000000000e+00) (0, 0, 0.00000000000000000000e+00) (0, 0, 0.00000000000000000000e+00) (0, 0, 0.00000000000000000000e+00) (0, 0, 0.00000000000000000000e+00) (0, 0, 0.00000000000000000000e+00) (0, 0, 0.00000000000000000000e+00) (0, 0, 0.00000000000000000000e+00) (0, 0, 0.00000000000000000000e+00) (0, 0, 0.00000000000000000000e+00) (0, 0, 0.00000000000000000000e+00) (0, 0, 0.00000000000000000000e+00) (0, 0, 0.00000000000000000000e+00) (0, 0, 0.00000000000000000000e+00) (0, 0, 0.00000000000000000000e+00) (0, 0, 0.00000000000000000000e+00) (0, 0, 0.00000000000000000000e+00) (0, 0, 0.00000000000000000000e+00) (0, 0, 0.00000000000000000000e+00) (0, 0, 0.00000000000000000000e+00) (0, 0, 0.00000000000000000000e+00) (0, 0, 0.00000000000000000000e+00) (0, 0, 0.00000000000000000000e+00) (0, 0, 0.00000000000000000000e+00) (0, 0, 0.00000000000000000000e+00) (0, 0, 0.00000000000000000000e+00) (0, 0, 0.00000000000000000000e+00) (0, 0, 0.00000000000000000000e+00) (0, 0, 0.00000000000000000000e+00) (0, 0, 0.00000000000000000000e+00) (0, 0, 0.00000000000000000000e+00) (0, 0, 0.00000000000000000000e+00) (0, 0, 0.00000000000000000000e+00) (0, 0, 0.00000000000000000000e+00) (0, 0, 0.00000000000000000000e+00) (0, 0, 0.00000000000000000000e+00) (0, 0, 0.00000000000000000000e+00) (0, 0, 0.00000000000000000000e+00) (0, 0, 0.00000000000000000000e+00) (0, 0, 0.00000000000000000000e+00) (0, 0, 0.00000000000000000000e+00) (0, 0, 0.00000000000000000000e+00) (0, 0, 0.00000000000000000000e+00) (0, 0, 0.00000000000000000000e+00) (0, 0, 0.00000000000000000000e+00) (0, 0, 0.00000000000000000000e+00) (0, 0, 0.00000000000000000000e+00) (0, 0, 0.00000000000000000000e+00) (0, 0, 0.00000000000000000000e+00) (0, 0, 0.00000000000000000000e+00) (0, 0, 0.00000000000000000000e+00) (0, 0, 0.00000000000000000000e+00) (0, 0, 0.00000000000000000000e+00) (0, 0, 0.00000000000000000000e+00) (0, 0, 0.00000000000000000000e+00) (0, 0, 0.00000000000000000000e+00) (0, 0, 0.00000000000000000000e+00) (0, 0, 0.00000000000000000000e+00) (0, 0, 0.00000000000000000000e+00) (0, 0, 0.00000000000000000000e+00) (0, 0, 0.00000000000000000000e+00) (0, 0, 0.00000000000000000000e+00) (0, 0, 0.00000000000000000000e+00) (0, 0, 0.00000000000000000000e+00) (0, 0, 0.00000000000000000000e+00) (0, 0, 0.00000000000000000000e+00) (0, 0, 0.00000000000000000000e+00) (0, 0, 0.00000000000000000000e+00) (0, 0, 0.00000000000000000000e+00) (0, 0, 0.00000000000000000000e+00) (0, 0, 0.00000000000000000000e+00) (0, 0, 0.00000000000000000000e+00) (0, 0, 0.00000000000000000000e+00) (0, 0, 0.00000000000000000000e+00) (0, 0, 0.00000000000000000000e+00) (0, 0, 0.00000000000000000000e+00) (0, 0, 0.00000000000000000000e+00) (0, 0, 0.00000000000000000000e+00) (0, 0, 0.00000000000000000000e+00) (0, 0, 0.00000000000000000000e+00) (0, 0, 0.00000000000000000000e+00) (0, 0, 0.00000000000000000000e+00) (0, 0, 0.00000000000000000000e+00) (0, 0, 0.00000000000000000000e+00) (0, 0, 0.00000000000000000000e+00) (0, 0, 0.00000000000000000000e+00) (0, 0, 0.00000000000000000000e+00) (0, 0, 0.00000000000000000000e+00) (0, 0, 0.00000000000000000000e+00) (0, 0, 0.00000000000000000000e+00) (0, 0, 0.00000000000000000000e+00) (0, 0, 0.00000000000000000000e+00) (0, 0, 0.00000000000000000000e+00) (0, 0, 0.00000000000000000000e+00) (0, 0, 0.00000000000000000000e+00) (0, 0, 0.00000000000000000000e+00) (0, 0, 0.00000000000000000000e+00) (0, 0, 0.00000000000000000000e+00) (0, 0, 0.00000000000000000000e+00) (0, 0, 0.00000000000000000000e+00) (0, 0, 0.00000000000000000000e+00) (0, 0, 0.00000000000000000000e+00) (0, 0, 0.00000000000000000000e+00) (0, 0, 0.00000000000000000000e+00) (0, 0, 0.00000000000000000000e+00) (0, 0, 0.00000000000000000000e+00) (0, 0, 0.00000000000000000000e+00) (0, 0, 0.00000000000000000000e+00) (0, 0, 0.00000000000000000000e+00) (0, 0, 0.00000000000000000000e+00) (0, 0, 0.00000000000000000000e+00) (0, 0, 0.00000000000000000000e+00) (0, 0, 0.00000000000000000000e+00) (0, 0, 0.00000000000000000000e+00) (0, 0, 0.00000000000000000000e+00) (0, 0, 0.00000000000000000000e+00) (0, 0, 0.00000000000000000000e+00) (0, 0, 0.00000000000000000000e+00) (0, 0, 0.00000000000000000000e+00) (0, 0, 0.00000000000000000000e+00) (0, 0, 0.00000000000000000000e+00) (0, 0, 0.00000000000000000000e+00) (0, 0, 0.00000000000000000000e+00) (0, 0, 0.00000000000000000000e+00) (0, 0, 0.00000000000000000000e+00) (0, 0, 0.00000000000000000000e+00) (0, 0, 0.00000000000000000000e+00) (0, 0, 0.00000000000000000000e+00) (0, 0, 0.00000000000000000000e+00) (0, 0, 0.00000000000000000000e+00) (0, 0, 0.00000000000000000000e+00) (0, 0, 0.00000000000000000000e+00) (0, 0, 0.00000000000000000000e+00) (0, 0, 0.00000000000000000000e+00) (0, 0, 0.00000000000000000000e+00) (0, 0, 0.00000000000000000000e+00) (0, 0, 0.00000000000000000000e+00) (0, 0, 0.00000000000000000000e+00) (0, 0, 0.00000000000000000000e+00) (0, 0, 0.00000000000000000000e+00) (0, 0, 0.00000000000000000000e+00) (0, 0, 0.00000000000000000000e+00) (0, 0, 0.00000000000000000000e+00) (0, 0, 0.00000000000000000000e+00) (0, 0, 0.00000000000000000000e+00) (0, 0, 0.00000000000000000000e+00) (0, 0, 0.00000000000000000000e+00) (0, 0, 0.00000000000000000000e+00) (0, 0, 0.00000000000000000000e+00) (0, 0, 0.00000000000000000000e+00) (0, 0, 0.00000000000000000000e+00) (0, 0, 0.00000000000000000000e+00) (0, 0, 0.00000000000000000000e+00) (0, 0, 0.00000000000000000000e+00) (0, 0, 0.00000000000000000000e+00) (0, 0, 0.00000000000000000000e+00) (0, 0, 0.00000000000000000000e+00) (0, 0, 0.00000000000000000000e+00) (0, 0, 0.00000000000000000000e+00) (0, 0, 0.00000000000000000000e+00) (0, 0, 0.00000000000000000000e+00) (0, 0, 0.00000000000000000000e+00) (0, 0, 0.00000000000000000000e+00) (0, 0, 0.00000000000000000000e+00) (0, 0, 0.00000000000000000000e+00) (0, 0, 0.00000000000000000000e+00) (0, 0, 0.00000000000000000000e+00) (0, 0, 0.00000000000000000000e+00) (0, 0, 0.00000000000000000000e+00) (0, 0, 0.00000000000000000000e+00) (0, 0, 0.00000000000000000000e+00) (0, 0, 0.00000000000000000000e+00) (0, 0, 0.00000000000000000000e+00) (0, 0, 0.00000000000000000000e+00) (0, 0, 0.00000000000000000000e+00) (0, 0, 0.00000000000000000000e+00) (0, 0, 0.00000000000000000000e+00) (0, 0, 0.00000000000000000000e+00) (0, 0, 0.00000000000000000000e+00) (0, 0, 0.00000000000000000000e+00) (0, 0, 0.00000000000000000000e+00) (0, 0, 0.00000000000000000000e+00) (0, 0, 0.00000000000000000000e+00) (0, 0, 0.00000000000000000000e+00) (0, 0, 0.00000000000000000000e+00) (0, 0, 0.00000000000000000000e+00) (0, 0, 0.00000000000000000000e+00) (0, 0, 0.00000000000000000000e+00) (0, 0, 0.00000000000000000000e+00) (0, 0, 0.00000000000000000000e+00) (0, 0, 0.00000000000000000000e+00) (0, 0, 0.00000000000000000000e+00) (0, 0, 0.00000000000000000000e+00) (0, 0, 0.00000000000000000000e+00) (0, 0, 0.00000000000000000000e+00) (0, 0, 0.00000000000000000000e+00) (0, 0, 0.00000000000000000000e+00) (0, 0, 0.00000000000000000000e+00) (0, 0, 0.00000000000000000000e+00) (0, 0, 0.00000000000000000000e+00) (0, 0, 0.00000000000000000000e+00) (0, 0, 0.00000000000000000000e+00) (0, 0, 0.00000000000000000000e+00) (0, 0, 0.00000000000000000000e+00) (0, 0, 0.00000000000000000000e+00) (0, 0, 0.00000000000000000000e+00) (0, 0, 0.00000000000000000000e+00) (0, 0, 0.00000000000000000000e+00) (0, 0, 0.00000000000000000000e+00) (0, 0, 0.00000000000000000000e+00) (0, 0, 0.00000000000000000000e+00) (0, 0, 0.00000000000000000000e+00) (0, 0, 0.00000000000000000000e+00) (0, 0, 0.00000000000000000000e+00) (0, 0, 0.00000000000000000000e+00) (0, 0, 0.00000000000000000000e+00) (0, 0, 0.00000000000000000000e+00) (0, 0, 0.00000000000000000000e+00) (0, 0, 0.00000000000000000000e+00) (0, 0, 0.00000000000000000000e+00) (0, 0, 0.00000000000000000000e+00) (0, 0, 0.00000000000000000000e+00) (0, 0, 0.00000000000000000000e+00) (0, 0, 0.00000000000000000000e+00) (0, 0, 0.00000000000000000000e+00) (0, 0, 0.00000000000000000000e+00) (0, 0, 0.00000000000000000000e+00) (0, 0, 0.00000000000000000000e+00) (0, 0, 0.00000000000000000000e+00) (0, 0, 0.00000000000000000000e+00) (0, 0, 0.00000000000000000000e+00) (0, 0, 0.00000000000000000000e+00) (0, 0, 0.00000000000000000000e+00) (0, 0, 0.00000000000000000000e+00) (0, 0, 0.00000000000000000000e+00) (0, 0, 0.00000000000000000000e+00) (0, 0, 0.00000000000000000000e+00) (0, 0, 0.00000000000000000000e+00) (0, 0, 0.00000000000000000000e+00) (0, 0, 0.00000000000000000000e+00) (0, 0, 0.00000000000000000000e+00) (0, 0, 0.00000000000000000000e+00) (0, 0, 0.00000000000000000000e+00) (0, 0, 0.00000000000000000000e+00) (0, 0, 0.00000000000000000000e+00) (0, 0, 0.00000000000000000000e+00) (0, 0, 0.00000000000000000000e+00) (0, 0, 0.00000000000000000000e+00) (0, 0, 0.00000000000000000000e+00) (0, 0, 0.00000000000000000000e+00) (0, 0, 0.00000000000000000000e+00) (0, 0, 0.00000000000000000000e+00) (0, 0, 0.00000000000000000000e+00) (0, 0, 0.00000000000000000000e+00) (0, 0, 0.00000000000000000000e+00) (0, 0, 0.00000000000000000000e+00) (0, 0, 0.00000000000000000000e+00) (0, 0, 0.00000000000000000000e+00) (0, 0, 0.00000000000000000000e+00) (0, 0, 0.00000000000000000000e+00) (0, 0, 0.00000000000000000000e+00) (0, 0, 0.00000000000000000000e+00) (0, 0, 0.00000000000000000000e+00) (0, 0, 0.00000000000000000000e+00) (0, 0, 0.00000000000000000000e+00) (0, 0, 0.00000000000000000000e+00) (0, 0, 0.00000000000000000000e+00) (0, 0, 0.00000000000000000000e+00) (0, 0, 0.00000000000000000000e+00) (0, 0, 0.00000000000000000000e+00) (0, 0, 0.00000000000000000000e+00) (0, 0, 0.00000000000000000000e+00) (0, 0, 0.00000000000000000000e+00) (0, 0, 0.00000000000000000000e+00) (0, 0, 0.00000000000000000000e+00) (0, 0, 0.00000000000000000000e+00) (0, 0, 0.00000000000000000000e+00) (0, 0, 0.00000000000000000000e+00) (0, 0, 0.00000000000000000000e+00) (0, 0, 0.00000000000000000000e+00) (0, 0, 0.00000000000000000000e+00) (0, 0, 0.00000000000000000000e+00) (0, 0, 0.00000000000000000000e+00) (0, 0, 0.00000000000000000000e+00) (0, 0, 0.00000000000000000000e+00) (0, 0, 0.00000000000000000000e+00) (0, 0, 0.00000000000000000000e+00) (0, 0, 0.00000000000000000000e+00) (0, 0, 0.00000000000000000000e+00) (0, 0, 0.00000000000000000000e+00) (0, 0, 0.00000000000000000000e+00) (0, 0, 0.00000000000000000000e+00) (0, 0, 0.00000000000000000000e+00) (0, 0, 0.00000000000000000000e+00) (0, 0, 0.00000000000000000000e+00) (0, 0, 0.00000000000000000000e+00) (0, 0, 0.00000000000000000000e+00) (0, 0, 0.00000000000000000000e+00) (0, 0, 0.00000000000000000000e+00) (0, 0, 0.00000000000000000000e+00) (0, 0, 0.00000000000000000000e+00) (0, 0, 0.00000000000000000000e+00) (0, 0, 0.00000000000000000000e+00) (0, 0, 0.00000000000000000000e+00) (0, 0, 0.00000000000000000000e+00) (0, 0, 0.00000000000000000000e+00) (0, 0, 0.00000000000000000000e+00) (0, 0, 0.00000000000000000000e+00) (0, 0, 0.00000000000000000000e+00) (0, 0, 0.00000000000000000000e+00) (0, 0, 0.00000000000000000000e+00) (0, 0, 0.00000000000000000000e+00) (0, 0, 0.00000000000000000000e+00) (0, 0, 0.00000000000000000000e+00) (0, 0, 0.00000000000000000000e+00) (0, 0, 0.00000000000000000000e+00) (0, 0, 0.00000000000000000000e+00) (0, 0, 0.00000000000000000000e+00) (0, 0, 0.00000000000000000000e+00) (0, 0, 0.00000000000000000000e+00) (0, 0, 0.00000000000000000000e+00) (0, 0, 0.00000000000000000000e+00) (0, 0, 0.00000000000000000000e+00) (0, 0, 0.00000000000000000000e+00) (0, 0, 0.00000000000000000000e+00) (0, 0, 0.00000000000000000000e+00) (0, 0, 0.00000000000000000000e+00) (0, 0, 0.00000000000000000000e+00) (0, 0, 0.00000000000000000000e+00) (0, 0, 0.00000000000000000000e+00) (0, 0, 0.00000000000000000000e+00) (0, 0, 0.00000000000000000000e+00) (0, 0, 0.00000000000000000000e+00) (0, 0, 0.00000000000000000000e+00) (0, 0, 0.00000000000000000000e+00) (0, 0, 0.00000000000000000000e+00) (0, 0, 0.00000000000000000000e+00) (0, 0, 0.00000000000000000000e+00) (0, 0, 0.00000000000000000000e+00) (0, 0, 0.00000000000000000000e+00) (0, 0, 0.00000000000000000000e+00) (0, 0, 0.00000000000000000000e+00) (0, 0, 0.00000000000000000000e+00) (0, 0, 0.00000000000000000000e+00) (0, 0, 0.00000000000000000000e+00) (0, 0, 0.00000000000000000000e+00) (0, 0, 0.00000000000000000000e+00) (0, 0, 0.00000000000000000000e+00) (0, 0, 0.00000000000000000000e+00) (0, 0, 0.00000000000000000000e+00) (0, 0, 0.00000000000000000000e+00) (0, 0, 0.00000000000000000000e+00) (0, 0, 0.00000000000000000000e+00) (0, 0, 0.00000000000000000000e+00) (0, 0, 0.00000000000000000000e+00) (0, 0, 0.00000000000000000000e+00) (0, 0, 0.00000000000000000000e+00) (0, 0, 0.00000000000000000000e+00) (0, 0, 0.00000000000000000000e+00) (0, 0, 0.00000000000000000000e+00) (0, 0, 0.00000000000000000000e+00) (0, 0, 0.00000000000000000000e+00) (0, 0, 0.00000000000000000000e+00) (0, 0, 0.00000000000000000000e+00) (0, 0, 0.00000000000000000000e+00) (0, 0, 0.00000000000000000000e+00) (0, 0, 0.00000000000000000000e+00) (0, 0, 0.00000000000000000000e+00) (0, 0, 0.00000000000000000000e+00) (0, 0, 0.00000000000000000000e+00) (0, 0, 0.00000000000000000000e+00) (0, 0, 0.00000000000000000000e+00) (0, 0, 0.00000000000000000000e+00) (0, 0, 0.00000000000000000000e+00) (0, 0, 0.00000000000000000000e+00) (0, 0, 0.00000000000000000000e+00) (0, 0, 0.00000000000000000000e+00) (0, 0, 0.00000000000000000000e+00) (0, 0, 0.00000000000000000000e+00) (0, 0, 0.00000000000000000000e+00) (0, 0, 0.00000000000000000000e+00) (0, 0, 0.00000000000000000000e+00) (0, 0, 0.00000000000000000000e+00) (0, 0, 0.00000000000000000000e+00) (0, 0, 0.00000000000000000000e+00) (0, 0, 0.00000000000000000000e+00) (0, 0, 0.00000000000000000000e+00) (0, 0, 0.00000000000000000000e+00) (0, 0, 0.00000000000000000000e+00) (0, 0, 0.00000000000000000000e+00) (0, 0, 0.00000000000000000000e+00) (0, 0, 0.00000000000000000000e+00) (0, 0, 0.00000000000000000000e+00) (0, 0, 0.00000000000000000000e+00) (0, 0, 0.00000000000000000000e+00) (0, 0, 0.00000000000000000000e+00) (0, 0, 0.00000000000000000000e+00) (0, 0, 0.00000000000000000000e+00) (0, 0, 0.00000000000000000000e+00) (0, 0, 0.00000000000000000000e+00) (0, 0, 0.00000000000000000000e+00) (0, 0, 0.00000000000000000000e+00) (0, 0, 0.00000000000000000000e+00) (0, 0, 0.00000000000000000000e+00) (0, 0, 0.00000000000000000000e+00) (0, 0, 0.00000000000000000000e+00) (0, 0, 0.00000000000000000000e+00) (0, 0, 0.00000000000000000000e+00) (0, 0, 0.00000000000000000000e+00) (0, 0, 0.00000000000000000000e+00) (0, 0, 0.00000000000000000000e+00) (0, 0, 0.00000000000000000000e+00) (0, 0, 0.00000000000000000000e+00) (0, 0, 0.00000000000000000000e+00) (0, 0, 0.00000000000000000000e+00) (0, 0, 0.00000000000000000000e+00) (0, 0, 0.00000000000000000000e+00) (0, 0, 0.00000000000000000000e+00) (0, 0, 0.00000000000000000000e+00) (0, 0, 0.00000000000000000000e+00) (0, 0, 0.00000000000000000000e+00) (0, 0, 0.00000000000000000000e+00) (0, 0, 0.00000000000000000000e+00) (0, 0, 0.00000000000000000000e+00) (0, 0, 0.00000000000000000000e+00) (0, 0, 0.00000000000000000000e+00) (0, 0, 0.00000000000000000000e+00) (0, 0, 0.00000000000000000000e+00) (0, 0, 0.00000000000000000000e+00) (0, 0, 0.00000000000000000000e+00) (0, 0, 0.00000000000000000000e+00) (0, 0, 0.00000000000000000000e+00) (0, 0, 0.00000000000000000000e+00) (0, 0, 0.00000000000000000000e+00) (0, 0, 0.00000000000000000000e+00) (0, 0, 0.00000000000000000000e+00) (0, 0, 0.00000000000000000000e+00) (0, 0, 0.00000000000000000000e+00) (0, 0, 0.00000000000000000000e+00) (0, 0, 0.00000000000000000000e+00) (0, 0, 0.00000000000000000000e+00) (0, 0, 0.00000000000000000000e+00) (0, 0, 0.00000000000000000000e+00) (0, 0, 0.00000000000000000000e+00) (0, 0, 0.00000000000000000000e+00) (0, 0, 0.00000000000000000000e+00) (0, 0, 0.00000000000000000000e+00) (0, 0, 0.00000000000000000000e+00) (0, 0, 0.00000000000000000000e+00) (0, 0, 0.00000000000000000000e+00) (0, 0, 0.00000000000000000000e+00) (0, 0, 0.00000000000000000000e+00) (0, 0, 0.00000000000000000000e+00) (0, 0, 0.00000000000000000000e+00) (0, 0, 0.00000000000000000000e+00) (0, 0, 0.00000000000000000000e+00) (0, 0, 0.00000000000000000000e+00) (0, 0, 0.00000000000000000000e+00) (0, 0, 0.00000000000000000000e+00) (0, 0, 0.00000000000000000000e+00) (0, 0, 0.00000000000000000000e+00) (0, 0, 0.00000000000000000000e+00) (0, 0, 0.00000000000000000000e+00) (0, 0, 0.00000000000000000000e+00) (0, 0, 0.00000000000000000000e+00) (0, 0, 0.00000000000000000000e+00) (0, 0, 0.00000000000000000000e+00) (0, 0, 0.00000000000000000000e+00) (0, 0, 0.00000000000000000000e+00) (0, 0, 0.00000000000000000000e+00) (0, 0, 0.00000000000000000000e+00) (0, 0, 0.00000000000000000000e+00) (0, 0, 0.00000000000000000000e+00) (0, 0, 0.00000000000000000000e+00) (0, 0, 0.00000000000000000000e+00) (0, 0, 0.00000000000000000000e+00) (0, 0, 0.00000000000000000000e+00) (0, 0, 0.00000000000000000000e+00) (0, 0, 0.00000000000000000000e+00) (0, 0, 0.00000000000000000000e+00) (0, 0, 0.00000000000000000000e+00) (0, 0, 0.00000000000000000000e+00) (0, 0, 0.00000000000000000000e+00) (0, 0, 0.00000000000000000000e+00) (0, 0, 0.00000000000000000000e+00) (0, 0, 0.00000000000000000000e+00) (0, 0, 0.00000000000000000000e+00) (0, 0, 0.00000000000000000000e+00) (0, 0, 0.00000000000000000000e+00) (0, 0, 0.00000000000000000000e+00) (0, 0, 0.00000000000000000000e+00) (0, 0, 0.00000000000000000000e+00) (0, 0, 0.00000000000000000000e+00) (0, 0, 0.00000000000000000000e+00) (0, 0, 0.00000000000000000000e+00) (0, 0, 0.00000000000000000000e+00) (0, 0, 0.00000000000000000000e+00) (0, 0, 0.00000000000000000000e+00) (0, 0, 0.00000000000000000000e+00) (0, 0, 0.00000000000000000000e+00) (0, 0, 0.00000000000000000000e+00) (0, 0, 0.00000000000000000000e+00) (0, 0, 0.00000000000000000000e+00) (0, 0, 0.00000000000000000000e+00) (0, 0, 0.00000000000000000000e+00) (0, 0, 0.00000000000000000000e+00) (0, 0, 0.00000000000000000000e+00) (0, 0, 0.00000000000000000000e+00) (0, 0, 0.00000000000000000000e+00) (0, 0, 0.00000000000000000000e+00) (0, 0, 0.00000000000000000000e+00) (0, 0, 0.00000000000000000000e+00) (0, 0, 0.00000000000000000000e+00) (0, 0, 0.00000000000000000000e+00) (0, 0, 0.00000000000000000000e+00) (0, 0, 0.00000000000000000000e+00) (0, 0, 0.00000000000000000000e+00) (0, 0, 0.00000000000000000000e+00) (0, 0, 0.00000000000000000000e+00) (0, 0, 0.00000000000000000000e+00) (0, 0, 0.00000000000000000000e+00) (0, 0, 0.00000000000000000000e+00) (0, 0, 0.00000000000000000000e+00) (0, 0, 0.00000000000000000000e+00) (0, 0, 0.00000000000000000000e+00) (0, 0, 0.00000000000000000000e+00) (0, 0, 0.00000000000000000000e+00) (0, 0, 0.00000000000000000000e+00) (0, 0, 0.00000000000000000000e+00) (0, 0, 0.00000000000000000000e+00) (0, 0, 0.00000000000000000000e+00) (0, 0, 0.00000000000000000000e+00) (0, 0, 0.00000000000000000000e+00) (0, 0, 0.00000000000000000000e+00) (0, 0, 0.00000000000000000000e+00) (0, 0, 0.00000000000000000000e+00) (0, 0, 0.00000000000000000000e+00) (0, 0, 0.00000000000000000000e+00) (0, 0, 0.00000000000000000000e+00) (0, 0, 0.00000000000000000000e+00) (0, 0, 0.00000000000000000000e+00) (0, 0, 0.00000000000000000000e+00) (0, 0, 0.00000000000000000000e+00) (0, 0, 0.00000000000000000000e+00) (0, 0, 0.00000000000000000000e+00) (0, 0, 0.00000000000000000000e+00) (0, 0, 0.00000000000000000000e+00) (0, 0, 0.00000000000000000000e+00) (0, 0, 0.00000000000000000000e+00) (0, 0, 0.00000000000000000000e+00) (0, 0, 0.00000000000000000000e+00) (0, 0, 0.00000000000000000000e+00) (0, 0, 0.00000000000000000000e+00) (0, 0, 0.00000000000000000000e+00) (0, 0, 0.00000000000000000000e+00) (0, 0, 0.00000000000000000000e+00) (0, 0, 0.00000000000000000000e+00) (0, 0, 0.00000000000000000000e+00) (0, 0, 0.00000000000000000000e+00) (0, 0, 0.00000000000000000000e+00) (0, 0, 0.00000000000000000000e+00) (0, 0, 0.00000000000000000000e+00) (0, 0, 0.00000000000000000000e+00) (0, 0, 0.00000000000000000000e+00) (0, 0, 0.00000000000000000000e+00) (0, 0, 0.00000000000000000000e+00) (0, 0, 0.00000000000000000000e+00) (0, 0, 0.00000000000000000000e+00) (0, 0, 0.00000000000000000000e+00) (0, 0, 0.00000000000000000000e+00) (0, 0, 0.00000000000000000000e+00) (0, 0, 0.00000000000000000000e+00) (0, 0, 0.00000000000000000000e+00) (0, 0, 0.00000000000000000000e+00) (0, 0, 0.00000000000000000000e+00) (0, 0, 0.00000000000000000000e+00) (0, 0, 0.00000000000000000000e+00) (0, 0, 0.00000000000000000000e+00) (0, 0, 0.00000000000000000000e+00) (0, 0, 0.00000000000000000000e+00) (0, 0, 0.00000000000000000000e+00) (0, 0, 0.00000000000000000000e+00) (0, 0, 0.00000000000000000000e+00) (0, 0, 0.00000000000000000000e+00) (0, 0, 0.00000000000000000000e+00) (0, 0, 0.00000000000000000000e+00) (0, 0, 0.00000000000000000000e+00) (0, 0, 0.00000000000000000000e+00) (0, 0, 0.00000000000000000000e+00) (0, 0, 0.00000000000000000000e+00) (0, 0, 0.00000000000000000000e+00) (0, 0, 0.00000000000000000000e+00) (0, 0, 0.00000000000000000000e+00) (0, 0, 0.00000000000000000000e+00) (0, 0, 0.00000000000000000000e+00) (0, 0, 0.00000000000000000000e+00) (0, 0, 0.00000000000000000000e+00) (0, 0, 0.00000000000000000000e+00) (0, 0, 0.00000000000000000000e+00) (0, 0, 0.00000000000000000000e+00) (0, 0, 0.00000000000000000000e+00) (0, 0, 0.00000000000000000000e+00) (0, 0, 0.00000000000000000000e+00) (0, 0, 0.00000000000000000000e+00) (0, 0, 0.00000000000000000000e+00) (0, 0, 0.00000000000000000000e+00) (0, 0, 0.00000000000000000000e+00) (0, 0, 0.00000000000000000000e+00) (0, 0, 0.00000000000000000000e+00) (0, 0, 0.00000000000000000000e+00) (0, 0, 0.00000000000000000000e+00) (0, 0, 0.00000000000000000000e+00) (0, 0, 0.00000000000000000000e+00) (0, 0, 0.00000000000000000000e+00) (0, 0, 0.00000000000000000000e+00) (0, 0, 0.00000000000000000000e+00) (0, 0, 0.00000000000000000000e+00) (0, 0, 0.00000000000000000000e+00) (0, 0, 0.00000000000000000000e+00) (0, 0, 0.00000000000000000000e+00) (0, 0, 0.00000000000000000000e+00) (0, 0, 0.00000000000000000000e+00) (0, 0, 0.00000000000000000000e+00) (0, 0, 0.00000000000000000000e+00) (0, 0, 0.00000000000000000000e+00) (0, 0, 0.00000000000000000000e+00) (0, 0, 0.00000000000000000000e+00) (0, 0, 0.00000000000000000000e+00) (0, 0, 0.00000000000000000000e+00) (0, 0, 0.00000000000000000000e+00) (0, 0, 0.00000000000000000000e+00) (0, 0, 0.00000000000000000000e+00) (0, 0, 0.00000000000000000000e+00) (0, 0, 0.00000000000000000000e+00) (0, 0, 0.00000000000000000000e+00) (0, 0, 0.00000000000000000000e+00) (0, 0, 0.00000000000000000000e+00) (0, 0, 0.00000000000000000000e+00) (0, 0, 0.00000000000000000000e+00) (0, 0, 0.00000000000000000000e+00) (0, 0, 0.00000000000000000000e+00) (0, 0, 0.00000000000000000000e+00) (0, 0, 0.00000000000000000000e+00) (0, 0, 0.00000000000000000000e+00) (0, 0, 0.00000000000000000000e+00) (0, 0, 0.00000000000000000000e+00) (0, 0, 0.00000000000000000000e+00) (901, 5, 1.00000000000000000000e+00) (901, 5, 1.00000000000000000000e+00) (901, 5, 1.00000000000000000000e+00) (901, 5, 1.00000000000000000000e+00) (901, 5, 1.00000000000000000000e+00) (901, 5, 1.00000000000000000000e+00) (901, 5, 1.00000000000000000000e+00) (901, 5, 1.00000000000000000000e+00) (901, 5, 1.00000000000000000000e+00) (901, 5, 1.00000000000000000000e+00) (901, 5, 1.00000000000000000000e+00) (901, 5, 1.00000000000000000000e+00) (901, 5, 1.00000000000000000000e+00) (901, 5, 1.00000000000000000000e+00) (901, 5, 1.00000000000000000000e+00) (901, 5, 1.00000000000000000000e+00) (901, 5, 1.00000000000000000000e+00) (901, 5, 1.00000000000000000000e+00) (901, 5, 1.00000000000000000000e+00) (901, 5, 1.00000000000000000000e+00) (901, 5, 1.00000000000000000000e+00) (901, 5, 1.00000000000000000000e+00) (901, 5, 1.00000000000000000000e+00) (901, 5, 1.00000000000000000000e+00) (901, 5, 1.00000000000000000000e+00) (901, 5, 1.00000000000000000000e+00) (901, 5, 1.00000000000000000000e+00) (901, 5, 1.00000000000000000000e+00) (901, 5, 1.00000000000000000000e+00) (901, 5, 1.00000000000000000000e+00) (901, 5, 1.00000000000000000000e+00) (901, 5, 1.00000000000000000000e+00) (901, 5, 1.00000000000000000000e+00) (901, 5, 1.00000000000000000000e+00) (901, 5, 1.00000000000000000000e+00) (901, 5, 1.00000000000000000000e+00) (901, 5, 1.00000000000000000000e+00) (901, 5, 1.00000000000000000000e+00) (901, 5, 1.00000000000000000000e+00) (901, 5, 1.00000000000000000000e+00) (901, 5, 1.00000000000000000000e+00) (901, 5, 1.00000000000000000000e+00) (901, 5, 1.00000000000000000000e+00) (901, 5, 1.00000000000000000000e+00) (901, 5, 1.00000000000000000000e+00) (901, 5, 1.00000000000000000000e+00) (901, 5, 1.00000000000000000000e+00) (901, 5, 1.00000000000000000000e+00) (901, 5, 1.00000000000000000000e+00) (901, 5, 1.00000000000000000000e+00) (901, 5, 1.00000000000000000000e+00) (901, 5, 1.00000000000000000000e+00) (901, 5, 1.00000000000000000000e+00) (901, 5, 1.00000000000000000000e+00) (901, 5, 1.00000000000000000000e+00) (901, 5, 1.00000000000000000000e+00) (901, 5, 1.00000000000000000000e+00) (901, 5, 1.00000000000000000000e+00) (901, 5, 1.00000000000000000000e+00) (901, 5, 1.00000000000000000000e+00) (901, 5, 1.00000000000000000000e+00) (901, 5, 1.00000000000000000000e+00) (901, 5, 1.00000000000000000000e+00) (901, 5, 1.00000000000000000000e+00) (901, 5, 1.00000000000000000000e+00) (901, 5, 1.00000000000000000000e+00) (901, 5, 1.00000000000000000000e+00) (901, 5, 1.00000000000000000000e+00) (901, 5, 1.00000000000000000000e+00) (901, 5, 1.00000000000000000000e+00) (901, 5, 1.00000000000000000000e+00) (901, 5, 1.00000000000000000000e+00) (901, 5, 1.00000000000000000000e+00) (901, 5, 1.00000000000000000000e+00) (901, 5, 1.00000000000000000000e+00) (901, 5, 1.00000000000000000000e+00) (901, 5, 1.00000000000000000000e+00) (901, 5, 1.00000000000000000000e+00) (901, 5, 1.00000000000000000000e+00) (901, 5, 1.00000000000000000000e+00) (901, 5, 1.00000000000000000000e+00) (901, 5, 1.00000000000000000000e+00) (901, 5, 1.00000000000000000000e+00) (901, 5, 1.00000000000000000000e+00) (901, 5, 1.00000000000000000000e+00) (901, 5, 1.00000000000000000000e+00) (901, 5, 1.00000000000000000000e+00) (901, 5, 1.00000000000000000000e+00) (901, 5, 1.00000000000000000000e+00) (901, 5, 1.00000000000000000000e+00) (901, 5, 1.00000000000000000000e+00) (901, 5, 1.00000000000000000000e+00) (901, 5, 1.00000000000000000000e+00) (901, 5, 1.00000000000000000000e+00) (901, 5, 1.00000000000000000000e+00) (901, 5, 1.00000000000000000000e+00) (901, 5, 1.00000000000000000000e+00) (901, 5, 1.00000000000000000000e+00) (901, 5, 1.00000000000000000000e+00) (901, 5, 1.00000000000000000000e+00) (901, 5, 1.00000000000000000000e+00) (901, 5, 1.00000000000000000000e+00) (901, 5, 1.00000000000000000000e+00) (901, 5, 1.00000000000000000000e+00) (901, 5, 1.00000000000000000000e+00) (901, 5, 1.00000000000000000000e+00) (901, 5, 1.00000000000000000000e+00) (901, 5, 1.00000000000000000000e+00) (901, 5, 1.00000000000000000000e+00) (901, 5, 1.00000000000000000000e+00) (901, 5, 1.00000000000000000000e+00) (901, 5, 1.00000000000000000000e+00) (901, 5, 1.00000000000000000000e+00) (901, 5, 1.00000000000000000000e+00) (901, 5, 1.00000000000000000000e+00) (901, 5, 1.00000000000000000000e+00) (901, 5, 1.00000000000000000000e+00) (901, 5, 1.00000000000000000000e+00) (901, 5, 1.00000000000000000000e+00) (901, 5, 1.00000000000000000000e+00) (901, 5, 1.00000000000000000000e+00) (901, 5, 1.00000000000000000000e+00) (901, 5, 1.00000000000000000000e+00) (901, 5, 1.00000000000000000000e+00) (901, 5, 1.00000000000000000000e+00) (901, 5, 1.00000000000000000000e+00) (901, 5, 1.00000000000000000000e+00) (901, 5, 1.00000000000000000000e+00) (901, 5, 1.00000000000000000000e+00) (901, 5, 1.00000000000000000000e+00) (901, 5, 1.00000000000000000000e+00) (901, 5, 1.00000000000000000000e+00) (901, 5, 1.00000000000000000000e+00) (901, 5, 1.00000000000000000000e+00) (901, 5, 1.00000000000000000000e+00) (901, 5, 1.00000000000000000000e+00) (901, 5, 1.00000000000000000000e+00) (901, 5, 1.00000000000000000000e+00) (901, 5, 1.00000000000000000000e+00) (901, 5, 1.00000000000000000000e+00) (901, 5, 1.00000000000000000000e+00) (901, 5, 1.00000000000000000000e+00) (901, 5, 1.00000000000000000000e+00) (901, 5, 1.00000000000000000000e+00) (901, 5, 1.00000000000000000000e+00) (901, 5, 1.00000000000000000000e+00) (901, 5, 1.00000000000000000000e+00) (901, 5, 1.00000000000000000000e+00) (901, 5, 1.00000000000000000000e+00) (901, 5, 1.00000000000000000000e+00) (901, 5, 1.00000000000000000000e+00) (901, 5, 1.00000000000000000000e+00) (901, 5, 1.00000000000000000000e+00) (901, 5, 1.00000000000000000000e+00) (901, 5, 1.00000000000000000000e+00) (901, 5, 1.00000000000000000000e+00) (901, 5, 1.00000000000000000000e+00) (901, 5, 1.00000000000000000000e+00) (901, 5, 1.00000000000000000000e+00) (901, 5, 1.00000000000000000000e+00) (901, 5, 1.00000000000000000000e+00) (901, 5, 1.00000000000000000000e+00) (901, 5, 1.00000000000000000000e+00) (901, 5, 1.00000000000000000000e+00) (901, 5, 1.00000000000000000000e+00) (901, 5, 1.00000000000000000000e+00) (901, 5, 1.00000000000000000000e+00) (901, 5, 1.00000000000000000000e+00) (901, 5, 1.00000000000000000000e+00) (901, 5, 1.00000000000000000000e+00) (901, 5, 1.00000000000000000000e+00) (901, 5, 1.00000000000000000000e+00) (901, 5, 1.00000000000000000000e+00) (901, 5, 1.00000000000000000000e+00) (901, 5, 1.00000000000000000000e+00) (901, 5, 1.00000000000000000000e+00) (901, 5, 1.00000000000000000000e+00) (901, 5, 1.00000000000000000000e+00) (901, 5, 1.00000000000000000000e+00) (901, 5, 1.00000000000000000000e+00) (901, 5, 1.00000000000000000000e+00) (901, 5, 1.00000000000000000000e+00) (901, 5, 1.00000000000000000000e+00) (901, 5, 1.00000000000000000000e+00) (901, 5, 1.00000000000000000000e+00) (901, 5, 1.00000000000000000000e+00) (901, 5, 1.00000000000000000000e+00) (901, 5, 1.00000000000000000000e+00) (901, 5, 1.00000000000000000000e+00) (901, 5, 1.00000000000000000000e+00) (901, 5, 1.00000000000000000000e+00) (901, 5, 1.00000000000000000000e+00) (901, 5, 1.00000000000000000000e+00) (901, 5, 1.00000000000000000000e+00) (901, 5, 1.00000000000000000000e+00) (901, 5, 1.00000000000000000000e+00) (901, 5, 1.00000000000000000000e+00) (901, 5, 1.00000000000000000000e+00) (901, 5, 1.00000000000000000000e+00) (901, 5, 1.00000000000000000000e+00) (901, 5, 1.00000000000000000000e+00) (901, 5, 1.00000000000000000000e+00) (901, 5, 1.00000000000000000000e+00) (901, 5, 1.00000000000000000000e+00) (901, 5, 1.00000000000000000000e+00) (901, 5, 1.00000000000000000000e+00) (901, 5, 1.00000000000000000000e+00) (901, 5, 1.00000000000000000000e+00) (901, 5, 1.00000000000000000000e+00) (901, 5, 1.00000000000000000000e+00) (901, 5, 1.00000000000000000000e+00) (901, 5, 1.00000000000000000000e+00) (901, 5, 1.00000000000000000000e+00) (901, 5, 1.00000000000000000000e+00) (901, 5, 1.00000000000000000000e+00) (901, 5, 1.00000000000000000000e+00) (901, 5, 1.00000000000000000000e+00) (901, 5, 1.00000000000000000000e+00) (901, 5, 1.00000000000000000000e+00) (901, 5, 1.00000000000000000000e+00) (901, 5, 1.00000000000000000000e+00) (901, 5, 1.00000000000000000000e+00) (901, 5, 1.00000000000000000000e+00) (901, 5, 1.00000000000000000000e+00) (901, 5, 1.00000000000000000000e+00) (901, 5, 1.00000000000000000000e+00) (901, 5, 1.00000000000000000000e+00) (901, 5, 1.00000000000000000000e+00) (901, 5, 1.00000000000000000000e+00) (901, 5, 1.00000000000000000000e+00) (901, 5, 1.00000000000000000000e+00) (901, 5, 1.00000000000000000000e+00) (901, 5, 1.00000000000000000000e+00) (901, 5, 1.00000000000000000000e+00) (901, 5, 1.00000000000000000000e+00) (901, 5, 1.00000000000000000000e+00) (901, 5, 1.00000000000000000000e+00) (901, 5, 1.00000000000000000000e+00) (901, 5, 1.00000000000000000000e+00) (901, 5, 1.00000000000000000000e+00) (901, 5, 1.00000000000000000000e+00) (901, 5, 1.00000000000000000000e+00) (901, 5, 1.00000000000000000000e+00) (901, 5, 1.00000000000000000000e+00) (901, 5, 1.00000000000000000000e+00) (901, 5, 1.00000000000000000000e+00) (901, 5, 1.00000000000000000000e+00) (901, 5, 1.00000000000000000000e+00) (901, 5, 1.00000000000000000000e+00) (901, 5, 1.00000000000000000000e+00) (901, 5, 1.00000000000000000000e+00) (901, 5, 1.00000000000000000000e+00) (901, 5, 1.00000000000000000000e+00) (901, 5, 1.00000000000000000000e+00) (901, 5, 1.00000000000000000000e+00) (901, 5, 1.00000000000000000000e+00) (901, 5, 1.00000000000000000000e+00) (901, 5, 1.00000000000000000000e+00) (901, 5, 1.00000000000000000000e+00) (901, 5, 1.00000000000000000000e+00) (901, 5, 1.00000000000000000000e+00) (901, 5, 1.00000000000000000000e+00) (901, 5, 1.00000000000000000000e+00) (901, 5, 1.00000000000000000000e+00) (901, 5, 1.00000000000000000000e+00) (901, 5, 1.00000000000000000000e+00) (901, 5, 1.00000000000000000000e+00) (901, 5, 1.00000000000000000000e+00) (901, 5, 1.00000000000000000000e+00) (901, 5, 1.00000000000000000000e+00) (901, 5, 1.00000000000000000000e+00) (901, 5, 1.00000000000000000000e+00) (901, 5, 1.00000000000000000000e+00) (901, 5, 1.00000000000000000000e+00) (901, 5, 1.00000000000000000000e+00) (901, 5, 1.00000000000000000000e+00) (901, 5, 1.00000000000000000000e+00) (901, 5, 1.00000000000000000000e+00) (901, 5, 1.00000000000000000000e+00) (901, 5, 1.00000000000000000000e+00) (901, 5, 1.00000000000000000000e+00) (901, 5, 1.00000000000000000000e+00) (901, 5, 1.00000000000000000000e+00) (901, 5, 1.00000000000000000000e+00) (901, 5, 1.00000000000000000000e+00) (901, 5, 1.00000000000000000000e+00) (901, 5, 1.00000000000000000000e+00) (901, 5, 1.00000000000000000000e+00) (901, 5, 1.00000000000000000000e+00) (901, 5, 1.00000000000000000000e+00) (901, 5, 1.00000000000000000000e+00) (901, 5, 1.00000000000000000000e+00) (901, 5, 1.00000000000000000000e+00) (901, 5, 1.00000000000000000000e+00) (901, 5, 1.00000000000000000000e+00) (901, 5, 1.00000000000000000000e+00) (901, 5, 1.00000000000000000000e+00) (901, 5, 1.00000000000000000000e+00) (901, 5, 1.00000000000000000000e+00) (901, 5, 1.00000000000000000000e+00) (901, 5, 1.00000000000000000000e+00) (901, 5, 1.00000000000000000000e+00) (901, 5, 1.00000000000000000000e+00) (901, 5, 1.00000000000000000000e+00) (901, 5, 1.00000000000000000000e+00) (901, 5, 1.00000000000000000000e+00) (901, 5, 1.00000000000000000000e+00) (901, 5, 1.00000000000000000000e+00) (901, 5, 1.00000000000000000000e+00) (901, 5, 1.00000000000000000000e+00) (901, 5, 1.00000000000000000000e+00) (901, 5, 1.00000000000000000000e+00) (901, 5, 1.00000000000000000000e+00) (901, 5, 1.00000000000000000000e+00) (901, 5, 1.00000000000000000000e+00) (901, 5, 1.00000000000000000000e+00) (901, 5, 1.00000000000000000000e+00) (901, 5, 1.00000000000000000000e+00) (901, 5, 1.00000000000000000000e+00) (901, 5, 1.00000000000000000000e+00) (901, 5, 1.00000000000000000000e+00) (901, 5, 1.00000000000000000000e+00) (901, 5, 1.00000000000000000000e+00) (901, 5, 1.00000000000000000000e+00) (901, 5, 1.00000000000000000000e+00) (901, 5, 1.00000000000000000000e+00) (901, 5, 1.00000000000000000000e+00) (901, 5, 1.00000000000000000000e+00) (901, 5, 1.00000000000000000000e+00) (901, 5, 1.00000000000000000000e+00) (901, 5, 1.00000000000000000000e+00) (901, 5, 1.00000000000000000000e+00) (901, 5, 1.00000000000000000000e+00) (901, 5, 1.00000000000000000000e+00) (901, 5, 1.00000000000000000000e+00) (901, 5, 1.00000000000000000000e+00) (901, 5, 1.00000000000000000000e+00) (901, 5, 1.00000000000000000000e+00) (901, 5, 1.00000000000000000000e+00) (901, 5, 1.00000000000000000000e+00) (901, 5, 1.00000000000000000000e+00) (901, 5, 1.00000000000000000000e+00) (901, 5, 1.00000000000000000000e+00) (901, 5, 1.00000000000000000000e+00) (901, 5, 1.00000000000000000000e+00) (901, 5, 1.00000000000000000000e+00) (901, 5, 1.00000000000000000000e+00) (901, 5, 1.00000000000000000000e+00) (901, 5, 1.00000000000000000000e+00) (901, 5, 1.00000000000000000000e+00) (901, 5, 1.00000000000000000000e+00) (901, 5, 1.00000000000000000000e+00) (901, 5, 1.00000000000000000000e+00) (901, 5, 1.00000000000000000000e+00) (901, 5, 1.00000000000000000000e+00) (901, 5, 1.00000000000000000000e+00) (901, 5, 1.00000000000000000000e+00) (901, 5, 1.00000000000000000000e+00) (901, 5, 1.00000000000000000000e+00) (901, 5, 1.00000000000000000000e+00) (901, 5, 1.00000000000000000000e+00) (901, 5, 1.00000000000000000000e+00) (901, 5, 1.00000000000000000000e+00) (901, 5, 1.00000000000000000000e+00) (901, 5, 1.00000000000000000000e+00) (901, 5, 1.00000000000000000000e+00) (901, 5, 1.00000000000000000000e+00) (901, 5, 1.00000000000000000000e+00) (901, 5, 1.00000000000000000000e+00) (901, 5, 1.00000000000000000000e+00) (901, 5, 1.00000000000000000000e+00) (901, 5, 1.00000000000000000000e+00) (901, 5, 1.00000000000000000000e+00) (901, 5, 1.00000000000000000000e+00) (901, 5, 1.00000000000000000000e+00) (901, 5, 1.00000000000000000000e+00) (901, 5, 1.00000000000000000000e+00) (901, 5, 1.00000000000000000000e+00) (901, 5, 1.00000000000000000000e+00) (901, 5, 1.00000000000000000000e+00) (901, 5, 1.00000000000000000000e+00) (901, 5, 1.00000000000000000000e+00) (901, 5, 1.00000000000000000000e+00) (901, 5, 1.00000000000000000000e+00) (901, 5, 1.00000000000000000000e+00) (901, 5, 1.00000000000000000000e+00) (901, 5, 1.00000000000000000000e+00) (901, 5, 1.00000000000000000000e+00) (901, 5, 1.00000000000000000000e+00) (901, 5, 1.00000000000000000000e+00) (901, 5, 1.00000000000000000000e+00) (901, 5, 1.00000000000000000000e+00) (901, 5, 1.00000000000000000000e+00) (901, 5, 1.00000000000000000000e+00) (901, 5, 1.00000000000000000000e+00) (901, 5, 1.00000000000000000000e+00) (901, 5, 1.00000000000000000000e+00) (901, 5, 1.00000000000000000000e+00) (901, 5, 1.00000000000000000000e+00) (901, 5, 1.00000000000000000000e+00) (901, 5, 1.00000000000000000000e+00) (901, 5, 1.00000000000000000000e+00) (901, 5, 1.00000000000000000000e+00) (901, 5, 1.00000000000000000000e+00) (901, 5, 1.00000000000000000000e+00) (901, 5, 1.00000000000000000000e+00) (901, 5, 1.00000000000000000000e+00) (901, 5, 1.00000000000000000000e+00) (901, 5, 1.00000000000000000000e+00) (901, 5, 1.00000000000000000000e+00) (901, 5, 1.00000000000000000000e+00) (901, 5, 1.00000000000000000000e+00) (901, 5, 1.00000000000000000000e+00) (901, 5, 1.00000000000000000000e+00) (901, 5, 1.00000000000000000000e+00) (901, 5, 1.00000000000000000000e+00) (901, 5, 1.00000000000000000000e+00) (901, 5, 1.00000000000000000000e+00) (901, 5, 1.00000000000000000000e+00) (901, 5, 1.00000000000000000000e+00) (901, 5, 1.00000000000000000000e+00) (901, 5, 1.00000000000000000000e+00) (901, 5, 1.00000000000000000000e+00) (901, 5, 1.00000000000000000000e+00) (901, 5, 1.00000000000000000000e+00) (901, 5, 1.00000000000000000000e+00) (901, 5, 1.00000000000000000000e+00) (901, 5, 1.00000000000000000000e+00) (901, 5, 1.00000000000000000000e+00) (901, 5, 1.00000000000000000000e+00) (901, 5, 1.00000000000000000000e+00) (901, 5, 1.00000000000000000000e+00) (901, 5, 1.00000000000000000000e+00) (901, 5, 1.00000000000000000000e+00) (901, 5, 1.00000000000000000000e+00) (901, 5, 1.00000000000000000000e+00) (901, 5, 1.00000000000000000000e+00) (901, 5, 1.00000000000000000000e+00) (901, 5, 1.00000000000000000000e+00) (901, 5, 1.00000000000000000000e+00) (901, 5, 1.00000000000000000000e+00) (901, 5, 1.00000000000000000000e+00) (901, 5, 1.00000000000000000000e+00) (901, 5, 1.00000000000000000000e+00) (901, 5, 1.00000000000000000000e+00) (901, 5, 1.00000000000000000000e+00) (901, 5, 1.00000000000000000000e+00) (901, 5, 1.00000000000000000000e+00) (901, 5, 1.00000000000000000000e+00) (901, 5, 1.00000000000000000000e+00) (901, 5, 1.00000000000000000000e+00) (901, 5, 1.00000000000000000000e+00) (901, 5, 1.00000000000000000000e+00) (901, 5, 1.00000000000000000000e+00) (901, 5, 1.00000000000000000000e+00) (901, 5, 1.00000000000000000000e+00) (901, 5, 1.00000000000000000000e+00) (901, 5, 1.00000000000000000000e+00) (901, 5, 1.00000000000000000000e+00) (901, 5, 1.00000000000000000000e+00) (901, 5, 1.00000000000000000000e+00) (901, 5, 1.00000000000000000000e+00) (901, 5, 1.00000000000000000000e+00) (901, 5, 1.00000000000000000000e+00) (0, 5, 1.00000000000000000000e+00) (465, 5, 1.00000000000000000000e+00) (465, 5, 1.00000000000000000000e+00) (465, 5, 1.00000000000000000000e+00) (465, 5, 1.00000000000000000000e+00) (465, 5, 1.00000000000000000000e+00) (465, 5, 1.00000000000000000000e+00) (465, 5, 1.00000000000000000000e+00) (465, 5, 1.00000000000000000000e+00) (465, 5, 1.00000000000000000000e+00) (465, 5, 1.00000000000000000000e+00) (465, 5, 1.00000000000000000000e+00) (465, 5, 1.00000000000000000000e+00) (465, 5, 1.00000000000000000000e+00) (465, 5, 1.00000000000000000000e+00) (465, 5, 1.00000000000000000000e+00) (465, 5, 1.00000000000000000000e+00) (465, 5, 1.00000000000000000000e+00) (465, 5, 1.00000000000000000000e+00) (465, 5, 1.00000000000000000000e+00) (465, 5, 1.00000000000000000000e+00) (465, 5, 1.00000000000000000000e+00) (465, 5, 1.00000000000000000000e+00) (465, 5, 1.00000000000000000000e+00) (465, 5, 1.00000000000000000000e+00) (465, 5, 1.00000000000000000000e+00) (465, 5, 1.00000000000000000000e+00) (0, 5, 1.00000000000000000000e+00) 
connections (connected_to_neuron, weight)=(0, 3.50438922643661499023e-01) (1, 4.37885403633117675781e-01) (2, 3.43279331922531127930e-01) (3, 2.69780933856964111328e-01) (4, 3.08127760887145996094e-01) (5, 3.14371258020401000977e-01) (6, 1.22216984629631042480e-01) (7, 1.20259419083595275879e-01) (8, -8.38725566864013671875e-02) (9, 7.50640153884887695312e-01) (10, 2.06258416175842285156e-01) (11, -7.82563313841819763184e-02) (12, -7.04563260078430175781e-02) (13, 6.50133669376373291016e-01) (14, 2.46847003698348999023e-01) (15, 6.28058016300201416016e-01) (16, 3.98202799260616302490e-03) (17, 4.28097844123840332031e-01) (18, 2.31152594089508056641e-01) (19, 4.85727488994598388672e-01) (20, 4.46512281894683837891e-01) (21, 3.41605514287948608398e-01) (22, 5.57386159896850585938e-01) (23, 1.93052273243665695190e-02) (24, 8.00233840942382812500e-01) (25, -4.95355650782585144043e-02) (26, 5.33346712589263916016e-01) (27, 1.06437634676694869995e-02) (28, 4.16799545288085937500e-01) (29, 5.02587199211120605469e-01) (30, 5.22917866706848144531e-01) (31, 6.47238492965698242188e-01) (32, 8.20472538471221923828e-01) (33, -2.02493015676736831665e-02) (34, 3.05729191750288009644e-02) (35, 2.42153853178024291992e-01) (36, 4.14121925830841064453e-01) (37, 2.72789925336837768555e-01) (38, 4.82413291931152343750e-01) (39, 4.50249373912811279297e-01) (40, 1.36983573436737060547e-01) (41, 8.08671712875366210938e-01) (42, 4.91993069648742675781e-01) (43, 1.86527252197265625000e-01) (44, 5.72358906269073486328e-01) (45, 8.58840048313140869141e-01) (46, -7.18611925840377807617e-02) (47, 6.96340978145599365234e-01) (48, 4.00491476058959960938e-01) (49, 2.79291421175003051758e-01) (50, 2.95621961355209350586e-01) (51, -3.94427329301834106445e-02) (52, 7.40896940231323242188e-01) (53, -3.34383845329284667969e-02) (54, 9.98625010251998901367e-02) (55, 6.54684305191040039062e-01) (56, 3.70260626077651977539e-02) (57, 9.93209183216094970703e-01) (58, 1.02532815933227539062e+00) (59, 5.73825597763061523438e-01) (60, 1.29349887371063232422e-01) (61, 4.21799480915069580078e-01) (62, 9.46176052093505859375e-02) (63, 6.33759796619415283203e-02) (64, 5.21550178527832031250e-01) (65, 2.45190531015396118164e-01) (66, 4.25529837608337402344e-01) (67, 4.92256432771682739258e-02) (68, 6.37980461120605468750e-01) (69, 