FANN_FLO_2.1
num_layers=3
learning_rate=0.700000
connection_rate=1.000000
network_type=0
learning_momentum=0.000000
training_algorithm=2
train_error_function=1
train_stop_function=1
cascade_output_change_fraction=0.010000
quickprop_decay=-0.000100
quickprop_mu=1.750000
rprop_increase_factor=1.200000
rprop_decrease_factor=0.500000
rprop_delta_min=0.000000
rprop_delta_max=50.000000
rprop_delta_zero=0.100000
cascade_output_stagnation_epochs=12
cascade_candidate_change_fraction=0.010000
cascade_candidate_stagnation_epochs=12
cascade_max_out_epochs=150
cascade_min_out_epochs=50
cascade_max_cand_epochs=150
cascade_min_cand_epochs=50
cascade_num_candidate_groups=2
bit_fail_limit=9.99999977648258209229e-03
cascade_candidate_limit=1.00000000000000000000e+03
cascade_weight_multiplier=4.00000005960464477539e-01
cascade_activation_functions_count=10
cascade_activation_functions=3 5 7 8 10 11 14 15 16 17 
cascade_activation_steepnesses_count=4
cascade_activation_steepnesses=2.50000000000000000000e-01 5.00000000000000000000e-01 7.50000000000000000000e-01 1.00000000000000000000e+00 
layer_sizes=11 7 2 
scale_included=0
neurons (num_inputs, activation_function, activation_steepness)=(0, 0, 0.00000000000000000000e+00) (0, 0, 0.00000000000000000000e+00) (0, 0, 0.00000000000000000000e+00) (0, 0, 0.00000000000000000000e+00) (0, 0, 0.00000000000000000000e+00) (0, 0, 0.00000000000000000000e+00) (0, 0, 0.00000000000000000000e+00) (0, 0, 0.00000000000000000000e+00) (0, 0, 0.00000000000000000000e+00) (0, 0, 0.00000000000000000000e+00) (0, 0, 0.00000000000000000000e+00) (11, 5, 1.00000000000000000000e+00) (11, 5, 1.00000000000000000000e+00) (11, 5, 1.00000000000000000000e+00) (11, 5, 1.00000000000000000000e+00) (11, 5, 1.00000000000000000000e+00) (11, 5, 1.00000000000000000000e+00) (0, 5, 1.00000000000000000000e+00) (7, 5, 1.00000000000000000000e+00) (0, 5, 1.00000000000000000000e+00) 
connections (connected_to_neuron, weight)=(0, 1.53039008378982543945e-01) (1, -6.56963558867573738098e-03) (2, 2.65332102775573730469e-01) (3, 2.91152335703372955322e-02) (4, 5.96418883651494979858e-03) (5, 7.40481913089752197266e-02) (6, -3.26360128819942474365e-02) (7, 2.31694638729095458984e-01) (8, 1.56739830970764160156e-01) (9, 1.95690393447875976562e-01) (10, -3.99899125099182128906e-01) (0, -7.22758829593658447266e-01) (1, -5.54665982723236083984e-01) (2, -4.92710232734680175781e-01) (3, -4.41909432411193847656e-01) (4, -5.46168744564056396484e-01) (5, -4.20486003160476684570e-01) (6, -4.96466249227523803711e-01) (7, -3.71555209159851074219e-01) (8, -4.08727258443832397461e-01) (9, -6.82704567909240722656e-01) (10, -8.84320557117462158203e-01) (0, 2.77420938014984130859e-01) (1, -1.22699905186891555786e-02) (2, 1.81915372610092163086e-01) (3, 3.81783425807952880859e-01) (4, 1.43538832664489746094e-01) (5, 3.54047387838363647461e-01) (6, 2.17508301138877868652e-01) (7, 2.20498189330101013184e-01) (8, 4.99873995780944824219e-01) (9, 4.23402607440948486328e-01) (10, 1.99988877773284912109e+00) (0, -1.62355482578277587891e-01) (1, 4.73618060350418090820e-01) (2, 1.40328034758567810059e-01) (3, 9.13210928440093994141e-01) (4, -2.36840963363647460938e-01) (5, 7.96382248401641845703e-01) (6, -1.85031548142433166504e-01) (7, 3.83208304643630981445e-01) (8, -3.58713507652282714844e-01) (9, 8.04210841655731201172e-01) (10, 1.68053850531578063965e-01) (0, 2.38828420639038085938e+00) (1, -2.20892935991287231445e-01) (2, 1.91383540630340576172e+00) (3, -1.43102496862411499023e-01) (4, 1.92013883590698242188e+00) (5, 8.53702332824468612671e-03) (6, 2.08566784858703613281e+00) (7, -2.96309351921081542969e-01) (8, 2.39388871192932128906e+00) (9, 4.21297177672386169434e-02) (10, 1.45038142800331115723e-01) (0, 5.66456317901611328125e-02) (1, 2.43455410003662109375e-01) (2, 2.08336129784584045410e-01) (3, 4.28434610366821289062e-01) (4, 4.37639772891998291016e-01) (5, 4.46575641632080078125e-01) (6, 3.27826768159866333008e-01) (7, 3.01626026630401611328e-01) (8, 3.30861002206802368164e-01) (9, 9.31381434202194213867e-03) (10, 2.11002779006958007812e+00) (11, 8.46895456314086914062e-01) (12, 2.45772302150726318359e-01) (13, 6.84068202972412109375e-02) (14, 8.87893915176391601562e-01) (15, 9.51747238636016845703e-01) (16, 1.74513712525367736816e-01) (17, -2.35265363007783889771e-02) 
