FANN_FLO_2.1
num_layers=3
learning_rate=0.700000
connection_rate=1.000000
network_type=0
learning_momentum=0.000000
training_algorithm=2
train_error_function=1
train_stop_function=0
cascade_output_change_fraction=0.010000
quickprop_decay=-0.000100
quickprop_mu=1.750000
rprop_increase_factor=1.200000
rprop_decrease_factor=0.500000
rprop_delta_min=0.000000
rprop_delta_max=50.000000
rprop_delta_zero=0.100000
cascade_output_stagnation_epochs=12
cascade_candidate_change_fraction=0.010000
cascade_candidate_stagnation_epochs=12
cascade_max_out_epochs=150
cascade_min_out_epochs=50
cascade_max_cand_epochs=150
cascade_min_cand_epochs=50
cascade_num_candidate_groups=2
bit_fail_limit=3.49999994039535522461e-01
cascade_candidate_limit=1.00000000000000000000e+03
cascade_weight_multiplier=4.00000005960464477539e-01
cascade_activation_functions_count=10
cascade_activation_functions=3 5 7 8 10 11 14 15 16 17 
cascade_activation_steepnesses_count=4
cascade_activation_steepnesses=2.50000000000000000000e-01 5.00000000000000000000e-01 7.50000000000000000000e-01 1.00000000000000000000e+00 
layer_sizes=289 325 2 
scale_included=0
neurons (num_inputs, activation_function, activation_steepness)=(0, 0, 0.00000000000000000000e+00) (0, 0, 0.00000000000000000000e+00) (0, 0, 0.00000000000000000000e+00) (0, 0, 0.00000000000000000000e+00) (0, 0, 0.00000000000000000000e+00) (0, 0, 0.00000000000000000000e+00) (0, 0, 0.00000000000000000000e+00) (0, 0, 0.00000000000000000000e+00) (0, 0, 0.00000000000000000000e+00) (0, 0, 0.00000000000000000000e+00) (0, 0, 0.00000000000000000000e+00) (0, 0, 0.00000000000000000000e+00) (0, 0, 0.00000000000000000000e+00) (0, 0, 0.00000000000000000000e+00) (0, 0, 0.00000000000000000000e+00) (0, 0, 0.00000000000000000000e+00) (0, 0, 0.00000000000000000000e+00) (0, 0, 0.00000000000000000000e+00) (0, 0, 0.00000000000000000000e+00) (0, 0, 0.00000000000000000000e+00) (0, 0, 0.00000000000000000000e+00) (0, 0, 0.00000000000000000000e+00) (0, 0, 0.00000000000000000000e+00) (0, 0, 0.00000000000000000000e+00) (0, 0, 0.00000000000000000000e+00) (0, 0, 0.00000000000000000000e+00) (0, 0, 0.00000000000000000000e+00) (0, 0, 0.00000000000000000000e+00) (0, 0, 0.00000000000000000000e+00) (0, 0, 0.00000000000000000000e+00) (0, 0, 0.00000000000000000000e+00) (0, 0, 0.00000000000000000000e+00) (0, 0, 0.00000000000000000000e+00) (0, 0, 0.00000000000000000000e+00) (0, 0, 0.00000000000000000000e+00) (0, 0, 0.00000000000000000000e+00) (0, 0, 0.00000000000000000000e+00) (0, 0, 0.00000000000000000000e+00) (0, 0, 0.00000000000000000000e+00) (0, 0, 0.00000000000000000000e+00) (0, 0, 0.00000000000000000000e+00) (0, 0, 0.00000000000000000000e+00) (0, 0, 0.00000000000000000000e+00) (0, 0, 0.00000000000000000000e+00) (0, 0, 0.00000000000000000000e+00) (0, 0, 0.00000000000000000000e+00) (0, 0, 0.00000000000000000000e+00) (0, 0, 0.00000000000000000000e+00) (0, 0, 0.00000000000000000000e+00) (0, 0, 0.00000000000000000000e+00) (0, 0, 0.00000000000000000000e+00) (0, 0, 0.00000000000000000000e+00) (0, 0, 0.00000000000000000000e+00) (0, 0, 0.00000000000000000000e+00) (0, 0, 0.00000000000000000000e+00) (0, 0, 0.00000000000000000000e+00) (0, 0, 0.00000000000000000000e+00) (0, 0, 0.00000000000000000000e+00) (0, 0, 0.00000000000000000000e+00) (0, 0, 0.00000000000000000000e+00) (0, 0, 0.00000000000000000000e+00) (0, 0, 0.00000000000000000000e+00) (0, 0, 0.00000000000000000000e+00) (0, 0, 0.00000000000000000000e+00) (0, 0, 0.00000000000000000000e+00) (0, 0, 0.00000000000000000000e+00) (0, 0, 0.00000000000000000000e+00) (0, 0, 0.00000000000000000000e+00) (0, 0, 0.00000000000000000000e+00) (0, 0, 0.00000000000000000000e+00) (0, 0, 0.00000000000000000000e+00) (0, 0, 0.00000000000000000000e+00) (0, 0, 0.00000000000000000000e+00) (0, 0, 0.00000000000000000000e+00) (0, 0, 0.00000000000000000000e+00) (0, 0, 0.00000000000000000000e+00) (0, 0, 0.00000000000000000000e+00) (0, 0, 0.00000000000000000000e+00) (0, 0, 0.00000000000000000000e+00) (0, 0, 0.00000000000000000000e+00) (0, 0, 0.00000000000000000000e+00) (0, 0, 0.00000000000000000000e+00) (0, 0, 0.00000000000000000000e+00) (0, 0, 0.00000000000000000000e+00) (0, 0, 0.00000000000000000000e+00) (0, 0, 0.00000000000000000000e+00) (0, 0, 0.00000000000000000000e+00) (0, 0, 0.00000000000000000000e+00) (0, 0, 0.00000000000000000000e+00) (0, 0, 0.00000000000000000000e+00) (0, 0, 0.00000000000000000000e+00) (0, 0, 0.00000000000000000000e+00) (0, 0, 0.00000000000000000000e+00) (0, 0, 0.00000000000000000000e+00) (0, 0, 0.00000000000000000000e+00) (0, 0, 0.00000000000000000000e+00) (0, 0, 0.00000000000000000000e+00) (0, 0, 0.00000000000000000000e+00) (0, 0, 0.00000000000000000000e+00) (0, 0, 0.00000000000000000000e+00) (0, 0, 0.00000000000000000000e+00) (0, 0, 0.00000000000000000000e+00) (0, 0, 0.00000000000000000000e+00) (0, 0, 0.00000000000000000000e+00) (0, 0, 0.00000000000000000000e+00) (0, 0, 0.00000000000000000000e+00) (0, 0, 0.00000000000000000000e+00) (0, 0, 0.00000000000000000000e+00) (0, 0, 0.00000000000000000000e+00) (0, 0, 0.00000000000000000000e+00) (0, 0, 0.00000000000000000000e+00) (0, 0, 0.00000000000000000000e+00) (0, 0, 0.00000000000000000000e+00) (0, 0, 0.00000000000000000000e+00) (0, 0, 0.00000000000000000000e+00) (0, 0, 0.00000000000000000000e+00) (0, 0, 0.00000000000000000000e+00) (0, 0, 0.00000000000000000000e+00) (0, 0, 0.00000000000000000000e+00) (0, 0, 0.00000000000000000000e+00) (0, 0, 0.00000000000000000000e+00) (0, 0, 0.00000000000000000000e+00) (0, 0, 0.00000000000000000000e+00) (0, 0, 0.00000000000000000000e+00) (0, 0, 0.00000000000000000000e+00) (0, 0, 0.00000000000000000000e+00) (0, 0, 0.00000000000000000000e+00) (0, 0, 0.00000000000000000000e+00) (0, 0, 0.00000000000000000000e+00) (0, 0, 0.00000000000000000000e+00) (0, 0, 0.00000000000000000000e+00) (0, 0, 0.00000000000000000000e+00) (0, 0, 0.00000000000000000000e+00) (0, 0, 0.00000000000000000000e+00) (0, 0, 0.00000000000000000000e+00) (0, 0, 0.00000000000000000000e+00) (0, 0, 0.00000000000000000000e+00) (0, 0, 0.00000000000000000000e+00) (0, 0, 0.00000000000000000000e+00) (0, 0, 0.00000000000000000000e+00) (0, 0, 0.00000000000000000000e+00) (0, 0, 0.00000000000000000000e+00) (0, 0, 0.00000000000000000000e+00) (0, 0, 0.00000000000000000000e+00) (0, 0, 0.00000000000000000000e+00) (0, 0, 0.00000000000000000000e+00) (0, 0, 0.00000000000000000000e+00) (0, 0, 0.00000000000000000000e+00) (0, 0, 0.00000000000000000000e+00) (0, 0, 0.00000000000000000000e+00) (0, 0, 0.00000000000000000000e+00) (0, 0, 0.00000000000000000000e+00) (0, 0, 0.00000000000000000000e+00) (0, 0, 0.00000000000000000000e+00) (0, 0, 0.00000000000000000000e+00) (0, 0, 0.00000000000000000000e+00) (0, 0, 0.00000000000000000000e+00) (0, 0, 0.00000000000000000000e+00) (0, 0, 0.00000000000000000000e+00) (0, 0, 0.00000000000000000000e+00) (0, 0, 0.00000000000000000000e+00) (0, 0, 0.00000000000000000000e+00) (0, 0, 0.00000000000000000000e+00) (0, 0, 0.00000000000000000000e+00) (0, 0, 0.00000000000000000000e+00) (0, 0, 0.00000000000000000000e+00) (0, 0, 0.00000000000000000000e+00) (0, 0, 0.00000000000000000000e+00) (0, 0, 0.00000000000000000000e+00) (0, 0, 0.00000000000000000000e+00) (0, 0, 0.00000000000000000000e+00) (0, 0, 0.00000000000000000000e+00) (0, 0, 0.00000000000000000000e+00) (0, 0, 0.00000000000000000000e+00) (0, 0, 0.00000000000000000000e+00) (0, 0, 0.00000000000000000000e+00) (0, 0, 0.00000000000000000000e+00) (0, 0, 0.00000000000000000000e+00) (0, 0, 0.00000000000000000000e+00) (0, 0, 0.00000000000000000000e+00) (0, 0, 0.00000000000000000000e+00) (0, 0, 0.00000000000000000000e+00) (0, 0, 0.00000000000000000000e+00) (0, 0, 0.00000000000000000000e+00) (0, 0, 0.00000000000000000000e+00) (0, 0, 0.00000000000000000000e+00) (0, 0, 0.00000000000000000000e+00) (0, 0, 0.00000000000000000000e+00) (0, 0, 0.00000000000000000000e+00) (0, 0, 0.00000000000000000000e+00) (0, 0, 0.00000000000000000000e+00) (0, 0, 0.00000000000000000000e+00) (0, 0, 0.00000000000000000000e+00) (0, 0, 0.00000000000000000000e+00) (0, 0, 0.00000000000000000000e+00) (0, 0, 0.00000000000000000000e+00) (0, 0, 0.00000000000000000000e+00) (0, 0, 0.00000000000000000000e+00) (0, 0, 0.00000000000000000000e+00) (0, 0, 0.00000000000000000000e+00) (0, 0, 0.00000000000000000000e+00) (0, 0, 0.00000000000000000000e+00) (0, 0, 0.00000000000000000000e+00) (0, 0, 0.00000000000000000000e+00) (0, 0, 0.00000000000000000000e+00) (0, 0, 0.00000000000000000000e+00) (0, 0, 0.00000000000000000000e+00) (0, 0, 0.00000000000000000000e+00) (0, 0, 0.00000000000000000000e+00) (0, 0, 0.00000000000000000000e+00) (0, 0, 0.00000000000000000000e+00) (0, 0, 0.00000000000000000000e+00) (0, 0, 0.00000000000000000000e+00) (0, 0, 0.00000000000000000000e+00) (0, 0, 0.00000000000000000000e+00) (0, 0, 0.00000000000000000000e+00) (0, 0, 0.00000000000000000000e+00) (0, 0, 0.00000000000000000000e+00) (0, 0, 0.00000000000000000000e+00) (0, 0, 0.00000000000000000000e+00) (0, 0, 0.00000000000000000000e+00) (0, 0, 0.00000000000000000000e+00) (0, 0, 0.00000000000000000000e+00) (0, 0, 0.00000000000000000000e+00) (0, 0, 0.00000000000000000000e+00) (0, 0, 0.00000000000000000000e+00) (0, 0, 0.00000000000000000000e+00) (0, 0, 0.00000000000000000000e+00) (0, 0, 0.00000000000000000000e+00) (0, 0, 0.00000000000000000000e+00) (0, 0, 0.00000000000000000000e+00) (0, 0, 0.00000000000000000000e+00) (0, 0, 0.00000000000000000000e+00) (0, 0, 0.00000000000000000000e+00) (0, 0, 0.00000000000000000000e+00) (0, 0, 0.00000000000000000000e+00) (0, 0, 0.00000000000000000000e+00) (0, 0, 0.00000000000000000000e+00) (0, 0, 0.00000000000000000000e+00) (0, 0, 0.00000000000000000000e+00) (0, 0, 0.00000000000000000000e+00) (0, 0, 0.00000000000000000000e+00) (0, 0, 0.00000000000000000000e+00) (0, 0, 0.00000000000000000000e+00) (0, 0, 0.00000000000000000000e+00) (0, 0, 0.00000000000000000000e+00) (0, 0, 0.00000000000000000000e+00) (0, 0, 0.00000000000000000000e+00) (0, 0, 0.00000000000000000000e+00) (0, 0, 0.00000000000000000000e+00) (0, 0, 0.00000000000000000000e+00) (0, 0, 0.00000000000000000000e+00) (0, 0, 0.00000000000000000000e+00) (0, 0, 0.00000000000000000000e+00) (0, 0, 0.00000000000000000000e+00) (0, 0, 0.00000000000000000000e+00) (0, 0, 0.00000000000000000000e+00) (0, 0, 0.00000000000000000000e+00) (0, 0, 0.00000000000000000000e+00) (0, 0, 0.00000000000000000000e+00) (0, 0, 0.00000000000000000000e+00) (0, 0, 0.00000000000000000000e+00) (0, 0, 0.00000000000000000000e+00) (0, 0, 0.00000000000000000000e+00) (0, 0, 0.00000000000000000000e+00) (0, 0, 0.00000000000000000000e+00) (0, 0, 0.00000000000000000000e+00) (0, 0, 0.00000000000000000000e+00) (0, 0, 0.00000000000000000000e+00) (0, 0, 0.00000000000000000000e+00) (0, 0, 0.00000000000000000000e+00) (0, 0, 0.00000000000000000000e+00) (0, 0, 0.00000000000000000000e+00) (0, 0, 0.00000000000000000000e+00) (0, 0, 0.00000000000000000000e+00) (0, 0, 0.00000000000000000000e+00) (0, 0, 0.00000000000000000000e+00) (0, 0, 0.00000000000000000000e+00) (0, 0, 0.00000000000000000000e+00) (0, 0, 0.00000000000000000000e+00) (0, 0, 0.00000000000000000000e+00) (0, 0, 0.00000000000000000000e+00) (0, 0, 0.00000000000000000000e+00) (0, 0, 0.00000000000000000000e+00) (0, 0, 0.00000000000000000000e+00) (0, 0, 0.00000000000000000000e+00) (0, 0, 0.00000000000000000000e+00) (0, 0, 0.00000000000000000000e+00) (0, 0, 0.00000000000000000000e+00) (289, 5, 5.00000000000000000000e-01) (289, 5, 5.00000000000000000000e-01) (289, 5, 5.00000000000000000000e-01) (289, 5, 5.00000000000000000000e-01) (289, 5, 5.00000000000000000000e-01) (289, 5, 5.00000000000000000000e-01) (289, 5, 5.00000000000000000000e-01) (289, 5, 5.00000000000000000000e-01) (289, 5, 5.00000000000000000000e-01) (289, 5, 5.00000000000000000000e-01) (289, 5, 5.00000000000000000000e-01) (289, 5, 5.00000000000000000000e-01) (289, 5, 5.00000000000000000000e-01) (289, 5, 5.00000000000000000000e-01) (289, 5, 5.00000000000000000000e-01) (289, 5, 5.00000000000000000000e-01) (289, 5, 5.00000000000000000000e-01) (289, 5, 5.00000000000000000000e-01) (289, 5, 5.00000000000000000000e-01) (289, 5, 5.00000000000000000000e-01) (289, 5, 5.00000000000000000000e-01) (289, 5, 5.00000000000000000000e-01) (289, 5, 5.00000000000000000000e-01) (289, 5, 5.00000000000000000000e-01) (289, 5, 5.00000000000000000000e-01) (289, 5, 5.00000000000000000000e-01) (289, 5, 5.00000000000000000000e-01) (289, 5, 5.00000000000000000000e-01) (289, 5, 5.00000000000000000000e-01) (289, 5, 5.00000000000000000000e-01) (289, 5, 5.00000000000000000000e-01) (289, 5, 5.00000000000000000000e-01) (289, 5, 5.00000000000000000000e-01) (289, 5, 5.00000000000000000000e-01) (289, 5, 5.00000000000000000000e-01) (289, 5, 5.00000000000000000000e-01) (289, 5, 5.00000000000000000000e-01) (289, 5, 5.00000000000000000000e-01) (289, 5, 5.00000000000000000000e-01) (289, 5, 5.00000000000000000000e-01) (289, 5, 5.00000000000000000000e-01) (289, 5, 5.00000000000000000000e-01) (289, 5, 5.00000000000000000000e-01) (289, 5, 5.00000000000000000000e-01) (289, 5, 5.00000000000000000000e-01) (289, 5, 5.00000000000000000000e-01) (289, 5, 5.00000000000000000000e-01) (289, 5, 5.00000000000000000000e-01) (289, 5, 5.00000000000000000000e-01) (289, 5, 5.00000000000000000000e-01) (289, 5, 5.00000000000000000000e-01) (289, 5, 5.00000000000000000000e-01) (289, 5, 5.00000000000000000000e-01) (289, 5, 5.00000000000000000000e-01) (289, 5, 5.00000000000000000000e-01) (289, 5, 5.00000000000000000000e-01) (289, 5, 5.00000000000000000000e-01) (289, 5, 5.00000000000000000000e-01) (289, 5, 5.00000000000000000000e-01) (289, 5, 5.00000000000000000000e-01) (289, 5, 5.00000000000000000000e-01) (289, 5, 5.00000000000000000000e-01) (289, 5, 5.00000000000000000000e-01) (289, 5, 5.00000000000000000000e-01) (289, 5, 5.00000000000000000000e-01) (289, 5, 5.00000000000000000000e-01) (289, 5, 5.00000000000000000000e-01) (289, 5, 5.00000000000000000000e-01) (289, 5, 5.00000000000000000000e-01) (289, 5, 5.00000000000000000000e-01) (289, 5, 5.00000000000000000000e-01) (289, 5, 5.00000000000000000000e-01) (289, 5, 5.00000000000000000000e-01) (289, 5, 5.00000000000000000000e-01) (289, 5, 5.00000000000000000000e-01) (289, 5, 5.00000000000000000000e-01) (289, 5, 5.00000000000000000000e-01) (289, 5, 5.00000000000000000000e-01) (289, 5, 5.00000000000000000000e-01) (289, 5, 5.00000000000000000000e-01) (289, 5, 5.00000000000000000000e-01) (289, 5, 5.00000000000000000000e-01) (289, 5, 5.00000000000000000000e-01) (289, 5, 5.00000000000000000000e-01) (289, 5, 5.00000000000000000000e-01) (289, 5, 5.00000000000000000000e-01) (289, 5, 5.00000000000000000000e-01) (289, 5, 5.00000000000000000000e-01) (289, 5, 5.00000000000000000000e-01) (289, 5, 5.00000000000000000000e-01) (289, 5, 5.00000000000000000000e-01) (289, 5, 5.00000000000000000000e-01) (289, 5, 5.00000000000000000000e-01) (289, 5, 5.00000000000000000000e-01) (289, 5, 5.00000000000000000000e-01) (289, 5, 5.00000000000000000000e-01) (289, 5, 5.00000000000000000000e-01) (289, 5, 5.00000000000000000000e-01) (289, 5, 5.00000000000000000000e-01) (289, 5, 5.00000000000000000000e-01) (289, 5, 5.00000000000000000000e-01) (289, 5, 5.00000000000000000000e-01) (289, 5, 5.00000000000000000000e-01) (289, 5, 5.00000000000000000000e-01) (289, 5, 5.00000000000000000000e-01) (289, 5, 5.00000000000000000000e-01) (289, 5, 5.00000000000000000000e-01) (289, 5, 5.00000000000000000000e-01) (289, 5, 5.00000000000000000000e-01) (289, 5, 5.00000000000000000000e-01) (289, 5, 5.00000000000000000000e-01) (289, 5, 5.00000000000000000000e-01) (289, 5, 5.00000000000000000000e-01) (289, 5, 5.00000000000000000000e-01) (289, 5, 5.00000000000000000000e-01) (289, 5, 5.00000000000000000000e-01) (289, 5, 5.00000000000000000000e-01) (289, 5, 5.00000000000000000000e-01) (289, 5, 5.00000000000000000000e-01) (289, 5, 5.00000000000000000000e-01) (289, 5, 5.00000000000000000000e-01) (289, 5, 5.00000000000000000000e-01) (289, 5, 5.00000000000000000000e-01) (289, 5, 5.00000000000000000000e-01) (289, 5, 5.00000000000000000000e-01) (289, 5, 5.00000000000000000000e-01) (289, 5, 5.00000000000000000000e-01) (289, 5, 5.00000000000000000000e-01) (289, 5, 5.00000000000000000000e-01) (289, 5, 5.00000000000000000000e-01) (289, 5, 5.00000000000000000000e-01) (289, 5, 5.00000000000000000000e-01) (289, 5, 5.00000000000000000000e-01) (289, 5, 5.00000000000000000000e-01) (289, 5, 5.00000000000000000000e-01) (289, 5, 5.00000000000000000000e-01) (289, 5, 5.00000000000000000000e-01) (289, 5, 5.00000000000000000000e-01) (289, 5, 5.00000000000000000000e-01) (289, 5, 5.00000000000000000000e-01) (289, 5, 5.00000000000000000000e-01) (289, 5, 5.00000000000000000000e-01) (289, 5, 5.00000000000000000000e-01) (289, 5, 5.00000000000000000000e-01) (289, 5, 5.00000000000000000000e-01) (289, 5, 5.00000000000000000000e-01) (289, 5, 5.00000000000000000000e-01) (289, 5, 5.00000000000000000000e-01) (289, 5, 5.00000000000000000000e-01) (289, 5, 5.00000000000000000000e-01) (289, 5, 5.00000000000000000000e-01) (289, 5, 5.00000000000000000000e-01) (289, 5, 5.00000000000000000000e-01) (289, 5, 5.00000000000000000000e-01) (289, 5, 5.00000000000000000000e-01) (289, 5, 5.00000000000000000000e-01) (289, 5, 5.00000000000000000000e-01) (289, 5, 5.00000000000000000000e-01) (289, 5, 5.00000000000000000000e-01) (289, 5, 5.00000000000000000000e-01) (289, 5, 5.00000000000000000000e-01) (289, 5, 5.00000000000000000000e-01) (289, 5, 5.00000000000000000000e-01) (289, 5, 5.00000000000000000000e-01) (289, 5, 5.00000000000000000000e-01) (289, 5, 5.00000000000000000000e-01) (289, 5, 5.00000000000000000000e-01) (289, 5, 5.00000000000000000000e-01) (289, 5, 5.00000000000000000000e-01) (289, 5, 5.00000000000000000000e-01) (289, 5, 5.00000000000000000000e-01) (289, 5, 5.00000000000000000000e-01) (289, 5, 5.00000000000000000000e-01) (289, 5, 5.00000000000000000000e-01) (289, 5, 5.00000000000000000000e-01) (289, 5, 5.00000000000000000000e-01) (289, 5, 5.00000000000000000000e-01) (289, 5, 5.00000000000000000000e-01) (289, 5, 5.00000000000000000000e-01) (289, 5, 5.00000000000000000000e-01) (289, 5, 5.00000000000000000000e-01) (289, 5, 5.00000000000000000000e-01) (289, 5, 5.00000000000000000000e-01) (289, 5, 5.00000000000000000000e-01) (289, 5, 5.00000000000000000000e-01) (289, 5, 5.00000000000000000000e-01) (289, 5, 5.00000000000000000000e-01) (289, 5, 5.00000000000000000000e-01) (289, 5, 5.00000000000000000000e-01) (289, 5, 5.00000000000000000000e-01) (289, 5, 5.00000000000000000000e-01) (289, 5, 5.00000000000000000000e-01) (289, 5, 5.00000000000000000000e-01) (289, 5, 5.00000000000000000000e-01) (289, 5, 5.00000000000000000000e-01) (289, 5, 5.00000000000000000000e-01) (289, 5, 5.00000000000000000000e-01) (289, 5, 5.00000000000000000000e-01) (289, 5, 5.00000000000000000000e-01) (289, 5, 5.00000000000000000000e-01) (289, 5, 5.00000000000000000000e-01) (289, 5, 5.00000000000000000000e-01) (289, 5, 5.00000000000000000000e-01) (289, 5, 5.00000000000000000000e-01) (289, 5, 5.00000000000000000000e-01) (289, 5, 5.00000000000000000000e-01) (289, 5, 5.00000000000000000000e-01) (289, 5, 5.00000000000000000000e-01) (289, 5, 5.00000000000000000000e-01) (289, 5, 5.00000000000000000000e-01) (289, 5, 5.00000000000000000000e-01) (289, 5, 5.00000000000000000000e-01) (289, 5, 5.00000000000000000000e-01) (289, 5, 5.00000000000000000000e-01) (289, 5, 5.00000000000000000000e-01) (289, 5, 5.00000000000000000000e-01) (289, 5, 5.00000000000000000000e-01) (289, 5, 5.00000000000000000000e-01) (289, 5, 5.00000000000000000000e-01) (289, 5, 5.00000000000000000000e-01) (289, 5, 5.00000000000000000000e-01) (289, 5, 5.00000000000000000000e-01) (289, 5, 5.00000000000000000000e-01) (289, 5, 5.00000000000000000000e-01) (289, 5, 5.00000000000000000000e-01) (289, 5, 5.00000000000000000000e-01) (289, 5, 5.00000000000000000000e-01) (289, 5, 5.00000000000000000000e-01) (289, 5, 5.00000000000000000000e-01) (289, 5, 5.00000000000000000000e-01) (289, 5, 5.00000000000000000000e-01) (289, 5, 5.00000000000000000000e-01) (289, 5, 5.00000000000000000000e-01) (289, 5, 5.00000000000000000000e-01) (289, 5, 5.00000000000000000000e-01) (289, 5, 5.00000000000000000000e-01) (289, 5, 5.00000000000000000000e-01) (289, 5, 5.00000000000000000000e-01) (289, 5, 5.00000000000000000000e-01) (289, 5, 5.00000000000000000000e-01) (289, 5, 5.00000000000000000000e-01) (289, 5, 5.00000000000000000000e-01) (289, 5, 5.00000000000000000000e-01) (289, 5, 5.00000000000000000000e-01) (289, 5, 5.00000000000000000000e-01) (289, 5, 5.00000000000000000000e-01) (289, 5, 5.00000000000000000000e-01) (289, 5, 5.00000000000000000000e-01) (289, 5, 5.00000000000000000000e-01) (289, 5, 5.00000000000000000000e-01) (289, 5, 5.00000000000000000000e-01) (289, 5, 5.00000000000000000000e-01) (289, 5, 5.00000000000000000000e-01) (289, 5, 5.00000000000000000000e-01) (289, 5, 5.00000000000000000000e-01) (289, 5, 5.00000000000000000000e-01) (289, 5, 5.00000000000000000000e-01) (289, 5, 5.00000000000000000000e-01) (289, 5, 5.00000000000000000000e-01) (289, 5, 5.00000000000000000000e-01) (289, 5, 5.00000000000000000000e-01) (289, 5, 5.00000000000000000000e-01) (289, 5, 5.00000000000000000000e-01) (289, 5, 5.00000000000000000000e-01) (289, 5, 5.00000000000000000000e-01) (289, 5, 5.00000000000000000000e-01) (289, 5, 5.00000000000000000000e-01) (289, 5, 5.00000000000000000000e-01) (289, 5, 5.00000000000000000000e-01) (289, 5, 5.00000000000000000000e-01) (289, 5, 5.00000000000000000000e-01) (289, 5, 5.00000000000000000000e-01) (289, 5, 5.00000000000000000000e-01) (289, 5, 5.00000000000000000000e-01) (289, 5, 5.00000000000000000000e-01) (289, 5, 5.00000000000000000000e-01) (289, 5, 5.00000000000000000000e-01) (289, 5, 5.00000000000000000000e-01) (289, 5, 5.00000000000000000000e-01) (289, 5, 5.00000000000000000000e-01) (289, 5, 5.00000000000000000000e-01) (289, 5, 5.00000000000000000000e-01) (289, 5, 5.00000000000000000000e-01) (289, 5, 5.00000000000000000000e-01) (289, 5, 5.00000000000000000000e-01) (289, 5, 5.00000000000000000000e-01) (289, 5, 5.00000000000000000000e-01) (289, 5, 5.00000000000000000000e-01) (289, 5, 5.00000000000000000000e-01) (289, 5, 5.00000000000000000000e-01) (289, 5, 5.00000000000000000000e-01) (289, 5, 5.00000000000000000000e-01) (289, 5, 5.00000000000000000000e-01) (289, 5, 5.00000000000000000000e-01) (289, 5, 5.00000000000000000000e-01) (289, 5, 5.00000000000000000000e-01) (289, 5, 5.00000000000000000000e-01) (289, 5, 5.00000000000000000000e-01) (289, 5, 5.00000000000000000000e-01) (289, 5, 5.00000000000000000000e-01) (289, 5, 5.00000000000000000000e-01) (289, 5, 5.00000000000000000000e-01) (289, 5, 5.00000000000000000000e-01) (289, 5, 5.00000000000000000000e-01) (289, 5, 5.00000000000000000000e-01) (289, 5, 5.00000000000000000000e-01) (289, 5, 5.00000000000000000000e-01) (289, 5, 5.00000000000000000000e-01) (289, 5, 5.00000000000000000000e-01) (289, 5, 5.00000000000000000000e-01) (289, 5, 5.00000000000000000000e-01) (289, 5, 5.00000000000000000000e-01) (289, 5, 5.00000000000000000000e-01) (289, 5, 5.00000000000000000000e-01) (289, 5, 5.00000000000000000000e-01) (289, 5, 5.00000000000000000000e-01) (289, 5, 5.00000000000000000000e-01) (289, 5, 5.00000000000000000000e-01) (289, 5, 5.00000000000000000000e-01) (289, 5, 5.00000000000000000000e-01) (289, 5, 5.00000000000000000000e-01) (289, 5, 5.00000000000000000000e-01) (289, 5, 5.00000000000000000000e-01) (289, 5, 5.00000000000000000000e-01) (0, 5, 0.00000000000000000000e+00) (325, 5, 5.00000000000000000000e-01) (0, 5, 0.00000000000000000000e+00) 
connections (connected_to_neuron, weight)=(0, 1.56256526708602905273e-01) (1, -2.01282069087028503418e-01) (2, -1.97434142231941223145e-01) (3, -4.11498695611953735352e-02) (4, -2.48932186514139175415e-02) (5, -2.97731775790452957153e-02) (6, -8.43564942479133605957e-02) (7, -2.17530876398086547852e-01) (8, -4.61096391081809997559e-02) (9, -9.71944928169250488281e-02) (10, -1.52169555425643920898e-01) (11, -1.84702083468437194824e-01) (12, 9.13893505930900573730e-02) (13, -1.29053592681884765625e-01) (14, -2.86269206553697586060e-02) (15, -1.89450651407241821289e-01) (16, -1.66028782725334167480e-01) (17, -7.48191848397254943848e-02) (18, -2.80974153429269790649e-02) (19, -3.38635146617889404297e-02) (20, -1.86242774128913879395e-01) (21, -7.61711001396179199219e-02) (22, -1.75844833254814147949e-01) (23, -8.62467586994171142578e-02) (24, -7.08891376852989196777e-02) (25, -1.81979373097419738770e-01) (26, -1.75611436367034912109e-01) (27, -1.52955904603004455566e-01) (28, -1.95732399821281433105e-01) (29, -1.12995721399784088135e-01) (30, 5.14593794941902160645e-02) (31, -5.94758763909339904785e-02) (32, 1.45722240209579467773e-01) (33, -1.65974780917167663574e-01) (34, -8.06257426738739013672e-02) (35, -9.91709828376770019531e-02) (36, 6.42520636320114135742e-02) (37, -1.44982233643531799316e-01) (38, 1.43298164010047912598e-01) (39, 3.81424278020858764648e-02) (40, -2.21767146140336990356e-02) (41, -2.88714040070772171021e-02) (42, -1.66559666395187377930e-01) (43, -1.50787368416786193848e-01) (44, -1.37924998998641967773e-01) (45, -1.75186574459075927734e-01) (46, -1.20238006114959716797e-01) (47, -8.39537754654884338379e-02) (48, -3.00057474523782730103e-02) (49, -1.28335416316986083984e-01) (50, -9.78172868490219116211e-02) (51, -1.96248501539230346680e-01) (52, -1.84506520628929138184e-01) (53, -5.36621063947677612305e-02) (54, -6.24952539801597595215e-02) (55, -3.53956446051597595215e-02) (56, -2.15641483664512634277e-01) (57, -2.18106687068939208984e-01) (58, -1.68351545929908752441e-01) (59, -1.91373869776725769043e-01) (60, -1.11102402210235595703e-01) (61, -1.36892169713973999023e-01) (62, -3.08497417718172073364e-02) (63, -1.85380160808563232422e-01) (64, -8.28669294714927673340e-02) (65, -9.14754793047904968262e-02) (66, -6.45511373877525329590e-02) (67, -3.86148691177368164062e-02) (68, -2.16457709670066833496e-01) (69, -1.41252979636192321777e-01) (70, -2.04724464565515518188e-02) (71, -2.18634426593780517578e-01) (72, -1.50124385952949523926e-01) (73, -1.67032092809677124023e-01) (74, -1.49421781301498413086e-01) (75, -6.80493712425231933594e-02) (76, -1.22218661010265350342e-01) (77, -4.96597811579704284668e-02) (78, -1.32003143429756164551e-01) (79, -1.32224395871162414551e-01) (80, -1.57995194196701049805e-01) (81, -2.09820434451103210449e-01) (82, -1.08472898602485656738e-01) (83, -1.22501701116561889648e-01) (84, -4.34825196862220764160e-02) (85, -1.50968149304389953613e-01) (86, -1.37897342443466186523e-01) (87, -3.91239896416664123535e-02) (88, -1.49074837565422058105e-01) (89, -8.62488746643066406250e-02) (90, -2.10497856140136718750e-01) (91, -4.01772260665893554688e-02) (92, -2.03141033649444580078e-01) (93, -2.13475991040468215942e-02) (94, -2.05557391047477722168e-01) (95, -6.60079568624496459961e-02) (96, -9.28230732679367065430e-02) (97, -5.01085147261619567871e-02) (98, -8.46228227019309997559e-02) (99, 1.50719240307807922363e-01) (100, -1.71361491084098815918e-01) (101, -8.50952640175819396973e-02) (102, -8.79151821136474609375e-02) (103, -1.01485870778560638428e-01) (104, 2.07872658967971801758e-01) (105, -2.17336967587471008301e-01) (106, -1.49535238742828369141e-01) (107, -1.34346008300781250000e-01) (108, -4.69967350363731384277e-02) (109, -6.15383796393871307373e-02) (110, -4.65704053640365600586e-02) (111, -1.84991925954818725586e-01) (112, -5.13587966561317443848e-02) (113, -1.35043308138847351074e-01) (114, -8.74936208128929138184e-02) (115, -7.48413130640983581543e-02) (116, -6.60114437341690063477e-02) (117, -2.05390959978103637695e-01) (118, -9.39652994275093078613e-02) (119, -1.95086270570755004883e-01) (120, -7.16398209333419799805e-02) (121, -8.44631567597389221191e-02) (122, -2.15263500809669494629e-01) (123, -5.47808408737182617188e-02) (124, -8.58107432723045349121e-02) (125, -2.00820878148078918457e-01) (126, -1.00788794457912445068e-01) (127, -1.58633813261985778809e-01) (128, -3.09293735772371292114e-02) (129, -1.65411606431007385254e-01) (130, -2.79145855456590652466e-02) (131, -1.82290866971015930176e-01) (132, -3.05068660527467727661e-02) (133, -9.58297625184059143066e-02) (134, -6.37767389416694641113e-02) (135, -4.26342114806175231934e-02) (136, -9.31667163968086242676e-02) (137, -1.93311974406242370605e-01) (138, -1.56980216503143310547e-01) (139, -1.20163448154926300049e-01) (140, -3.48503440618515014648e-02) (141, -1.83550611138343811035e-01) (142, -8.51553678512573242188e-02) (143, -6.62091374397277832031e-02) (144, -9.85939055681228637695e-02) (145, -1.52648985385894775391e-01) (146, -1.21050447225570678711e-01) (147, -1.44605338573455810547e-01) (148, -1.38039931654930114746e-01) (149, -1.95015743374824523926e-01) (150, -1.19691610336303710938e-01) (151, -1.89679741859436035156e-01) (152, -5.94788938760757446289e-02) (153, -1.14955097436904907227e-01) (154, -2.44605783373117446899e-02) (155, -1.25289633870124816895e-01) (156, -9.57759544253349304199e-02) (157, -1.05249367654323577881e-01) (158, -6.39234483242034912109e-02) (159, -1.06705330312252044678e-01) (160, -5.06609678268432617188e-02) (161, -7.18380212783813476562e-02) (162, -6.89961910247802734375e-02) (163, -6.11678287386894226074e-02) (164, -1.47667780518531799316e-01) (165, -1.12772919237613677979e-01) (166, -8.38020369410514831543e-02) (167, -2.08344850689172744751e-02) (168, -8.60848873853683471680e-02) (169, -2.07822415977716445923e-02) (170, -1.20997928082942962646e-01) (171, -1.00935228168964385986e-01) (172, -1.84332847595214843750e-01) (173, -1.86153292655944824219e-01) (174, -1.47144362330436706543e-01) (175, -6.29267469048500061035e-02) (176, -1.18802264332771301270e-01) (177, -4.81947958469390869141e-02) (178, -1.87532082200050354004e-01) (179, -3.68421822786331176758e-02) (180, -2.32105422765016555786e-02) (181, -8.72236862778663635254e-02) (182, -2.06521928310394287109e-01) (183, -6.26894310116767883301e-02) (184, -1.82178780436515808105e-01) (185, -2.10982501506805419922e-01) (186, -1.67979061603546142578e-01) (187, -5.79547286033630371094e-02) (188, -9.62318554520606994629e-02) (189, -2.11902514100074768066e-01) (190, -1.44660055637359619141e-01) (191, -1.26892820000648498535e-01) (192, -6.37405216693878173828e-02) (193, -1.93656235933303833008e-01) (194, -1.68060645461082458496e-01) (195, -1.91408291459083557129e-01) (196, -8.64291489124298095703e-02) (197, -3.18626686930656433105e-02) (198, -1.92242771387100219727e-01) (199, -1.52514025568962097168e-01) (200, -3.26449051499366760254e-02) (201, -9.32407006621360778809e-02) (202, -3.34492474794387817383e-02) (203, -1.96977749466896057129e-01) (204, -5.93939833343029022217e-02) (205, -1.60593599081039428711e-01) (206, -3.99044826626777648926e-02) (207, -1.58196240663528442383e-01) (208, 5.12116104364395141602e-02) (209, 3.25634479522705078125e-02) (210, -1.75038427114486694336e-01) (211, 4.80010733008384704590e-02) (212, 1.65339767932891845703e-01) (213, 7.84396827220916748047e-02) (214, -3.46883609890937805176e-02) (215, -3.68390157818794250488e-02) (216, -1.52542814612388610840e-01) (217, 5.73325902223587036133e-02) (218, -7.47937411069869995117e-02) (219, 2.11225345730781555176e-01) (220, -1.74569919705390930176e-01) (221, -1.99453786015510559082e-01) (222, -1.35667473077774047852e-01) (223, -2.18310445547103881836e-01) (224, -1.73110023140907287598e-01) (225, -8.37281122803688049316e-02) (226, -1.89718723297119140625e-01) (227, -3.95391583442687988281e-02) (228, -9.55907776951789855957e-02) (229, -1.61961495876312255859e-01) (230, -1.72053188085556030273e-01) (231, -1.08235679566860198975e-01) (232, -3.52021828293800354004e-02) (233, -1.85502424836158752441e-01) (234, -8.52134153246879577637e-02) (235, -7.45961591601371765137e-02) (236, -1.26096025109291076660e-01) (237, -1.05117894709110260010e-01) (238, -2.12792396545410156250e-01) (239, 1.45115599036216735840e-01) (240, -9.25544500350952148438e-02) (241, -1.67830809950828552246e-01) (242, -6.68833404779434204102e-02) (243, -1.47214695811271667480e-01) (244, -1.09391137957572937012e-01) (245, -8.15716981887817382812e-02) (246, -1.64053708314895629883e-01) (247, -4.19339463114738464355e-02) (248, -4.42391112446784973145e-02) (249, -2.18847453594207763672e-01) (250, -5.07086068391799926758e-02) (251, -1.98809027671813964844e-01) (252, -1.98301240801811218262e-01) (253, -1.66376084089279174805e-01) (254, 4.28805574774742126465e-02) (255, 8.85887667536735534668e-02) (256, 2.09895834326744079590e-01) (257, 7.31618404388427734375e-02) (258, -1.70950397849082946777e-01) (259, -1.05694957077503204346e-01) (260, -1.08799651265144348145e-01) (261, -1.23003579676151275635e-01) (262, 4.60693836212158203125e-02) (263, -1.24001830816268920898e-01) (264, -8.85059982538223266602e-02) (265, 1.80855974555015563965e-01) (266, 6.14020228385925292969e-02) (267, -1.94602012634277343750e-01) (268, -1.44261926412582397461e-01) (269, -1.71390384435653686523e-01) (270, 1.70513585209846496582e-01) (271, -2.16816380620002746582e-01) (272, -1.19221188127994537354e-01) (273, -1.16369761526584625244e-01) (274, -1.44031062722206115723e-01) (275, -2.08612322807312011719e-01) (276, -1.77941456437110900879e-01) (277, -8.80847647786140441895e-02) (278, -3.05462647229433059692e-02) (279, -2.02180564403533935547e-01) (280, -8.69322121143341064453e-02) (281, 1.78745150566101074219e-01) (282, 5.90104348957538604736e-02) (283, 1.74766570329666137695e-01) (284, 3.23690697550773620605e-02) (285, 8.18909928202629089355e-02) (286, 4.33553382754325866699e-02) (287, 2.22648922353982925415e-02) (288, -1.04947187006473541260e-01) (0, 9.24049466848373413086e-02) (1, -1.03430069983005523682e-01) (2, -1.93746834993362426758e-01) (3, -5.05986362695693969727e-02) (4, -7.73606896400451660156e-02) (5, -9.77486595511436462402e-02) (6, -1.19104631245136260986e-01) (7, -1.16504721343517303467e-01) (8, -5.63466399908065795898e-02) (9, -9.37066376209259033203e-02) (10, -4.07666414976119995117e-02) (11, -2.07737013697624206543e-01) (12, 9.68069583177566528320e-02) (13, -3.75830084085464477539e-02) (14, -1.06958195567131042480e-01) (15, -3.95628064870834350586e-02) (16, -1.61614075303077697754e-01) (17, -9.55705046653747558594e-02) (18, -1.97504252195358276367e-01) (19, -2.96988282352685928345e-02) (20, -1.06116764247417449951e-01) (21, -1.79684802889823913574e-01) (22, -9.66310352087020874023e-02) (23, -1.47371619939804077148e-01) (24, -1.40674367547035217285e-01) (25, -1.41864463686943054199e-01) (26, -1.35002553462982177734e-01) (27, -7.87833854556083679199e-02) (28, -1.18509136140346527100e-01) (29, -1.32737666368484497070e-01) (30, 7.62694478034973144531e-02) (31, -4.61041927337646484375e-02) (32, 2.38322857767343521118e-02) (33, -1.37477383017539978027e-01) (34, -7.67028257250785827637e-02) (35, -7.35284164547920227051e-02) (36, 2.47739646583795547485e-02) (37, -1.75807446241378784180e-01) (38, 6.99668824672698974609e-02) (39, 1.88427343964576721191e-01) (40, -4.95140776038169860840e-02) (41, -1.90799772739410400391e-01) (42, -3.93096879124641418457e-02) (43, -1.72707140445709228516e-01) (44, -2.08382770419120788574e-01) (45, -1.26267880201339721680e-01) (46, -1.92269936203956604004e-01) (47, -1.49996832013130187988e-01) (48, -2.01838374137878417969e-01) (49, -1.69774174690246582031e-01) (50, -1.59695655107498168945e-01) (51, -8.79551321268081665039e-02) (52, -1.29458978772163391113e-01) (53, -3.63266840577125549316e-02) (54, -2.15326756238937377930e-01) (55, -5.01333326101303100586e-02) (56, -1.58191144466400146484e-01) (57, -1.30329295992851257324e-01) (58, -1.08916714787483215332e-01) (59, -5.67002668976783752441e-02) (60, -4.30669486522674560547e-02) (61, -5.26472702622413635254e-02) (62, -8.28044638037681579590e-02) (63, -3.92346754670143127441e-02) (64, -1.70124650001525878906e-01) (65, -1.39507278800010681152e-01) (66, -9.27630811929702758789e-02) (67, -1.65350690484046936035e-01) (68, -9.53147262334823608398e-02) (69, -4.27962020039558410645e-02) (70, -1.96923375129699707031e-01) (71, -1.24828800559043884277e-01) (72, -2.13595971465110778809e-01) (73, -2.16233044862747192383e-01) (74, -7.75359272956848144531e-02) (75, -2.01978743076324462891e-01) (76, -1.22500918805599212646e-01) (77, -4.98058572411537170410e-02) (78, -1.31975561380386352539e-01) (79, -1.04339286684989929199e-01) (80, -1.99580028653144836426e-01) (81, -7.16712176799774169922e-02) (82, -1.72294408082962036133e-01) (83, -1.09039001166820526123e-01) (84, -8.79978984594345092773e-02) (85, -1.67621150612831115723e-01) (86, -1.39172330498695373535e-01) (87, -2.61890385299921035767e-02) (88, -7.79504403471946716309e-02) (89, -2.80890408903360366821e-02) (90, -6.28893002867698669434e-02) (91, -1.01017385721206665039e-01) (92, -6.07363022863864898682e-02) (93, -1.25693753361701965332e-01) (94, -1.20252057909965515137e-01) (95, -2.10860952734947204590e-01) (96, -4.52010333538055419922e-02) (97, -1.93015128374099731445e-01) (98, -1.56211644411087036133e-01) (99, 1.19484260678291320801e-01) (100, -2.15811342000961303711e-01) (101, -1.33135005831718444824e-01) (102, -2.53445450216531753540e-02) (103, -2.09407299757003784180e-01) (104, 1.10631972551345825195e-01) (105, -8.28804671764373779297e-02) (106, -1.91386029124259948730e-01) (107, -3.18689495325088500977e-02) (108, -1.12686321139335632324e-01) (109, -1.03361584246158599854e-01) (110, -1.16208232939243316650e-01) (111, -9.22663435339927673340e-02) (112, -1.55032798647880554199e-01) (113, -6.85026347637176513672e-02) (114, -1.81305333971977233887e-01) (115, -2.30306852608919143677e-02) (116, -2.16123789548873901367e-01) (117, -1.00477658212184906006e-01) (118, -2.92197186499834060669e-02) (119, -7.40742161870002746582e-02) (120, -1.08566686511039733887e-01) (121, -7.21090212464332580566e-02) (122, -1.55091598629951477051e-01) (123, -1.49302989244461059570e-01) (124, -1.77802771329879760742e-01) (125, -5.53436428308486938477e-02) (126, -1.40163928270339965820e-01) (127, -2.03003793954849243164e-01) (128, -2.83587668091058731079e-02) (129, -7.63755664229393005371e-02) (130, -1.03519536554813385010e-01) (131, -2.41700951009988784790e-02) (132, -1.89510568976402282715e-01) (133, -1.08864083886146545410e-01) (134, -2.13577389717102050781e-01) (135, -9.88785922527313232422e-02) (136, -1.71744540333747863770e-01) (137, -1.84963420033454895020e-01) (138, -1.10747538506984710693e-01) (139, -6.44308552145957946777e-02) (140, -6.83249905705451965332e-02) (141, -2.06955775618553161621e-01) (142, -1.36697188019752502441e-01) (143, -2.03357785940170288086e-01) (144, -5.54583966732025146484e-02) (145, -9.80025157332420349121e-02) (146, -2.06388473510742187500e-01) (147, -5.15821725130081176758e-02) (148, -1.78480163216590881348e-01) (149, -2.15608179569244384766e-01) (150, -1.05656385421752929688e-01) (151, -6.70468509197235107422e-02) (152, -6.77171871066093444824e-02) (153, -4.07479703426361083984e-02) (154, -1.96349829435348510742e-01) (155, -2.55199540406465530396e-02) (156, -7.60916098952293395996e-02) (157, -1.16513758897781372070e-01) (158, -2.08523750305175781250e-01) (159, -8.44503790140151977539e-02) (160, -1.72889322042465209961e-01) (161, -9.20432731509208679199e-02) (162, -8.86204689741134643555e-02) (163, -1.42399877309799194336e-01) (164, -1.80907353758811950684e-01) (165, -8.21978524327278137207e-02) (166, -2.12784577161073684692e-02) (167, -1.32651895284652709961e-01) (168, -4.71612513065338134766e-02) (169, -1.12025998532772064209e-01) (170, -1.77082732319831848145e-01) (171, -9.54862385988235473633e-02) (172, -9.89817529916763305664e-02) (173, -9.37799215316772460938e-02) (174, -7.88440108299255371094e-02) (175, -1.34440138936042785645e-01) (176, -1.71782433986663818359e-01) (177, -6.52324706315994262695e-02) (178, -1.66022315621376037598e-01) (179, -1.30262598395347595215e-01) (180, -6.08406364917755126953e-02) (181, -5.16786873340606689453e-02) (182, -1.77309438586235046387e-01) (183, -1.08557820320129394531e-01) (184, -7.24266618490219116211e-02) (185, -1.53659269213676452637e-01) (186, -1.14077769219875335693e-01) (187, -1.28518268465995788574e-01) (188, -5.01730144023895263672e-02) (189, -1.02601505815982818604e-01) (190, -1.92968636751174926758e-01) (191, -2.03062340617179870605e-01) (192, -1.74644768238067626953e-01) (193, -6.15890994668006896973e-02) (194, -1.25462204217910766602e-01) (195, -1.35552123188972473145e-01) (196, -1.23786948621273040771e-01) (197, -1.26740649342536926270e-01) (198, -4.82039973139762878418e-02) (199, -1.50948196649551391602e-01) (200, -2.18766644597053527832e-01) (201, -2.05286741256713867188e-01) (202, -2.64344308525323867798e-02) (203, -9.77483913302421569824e-02) (204, -7.90666416287422180176e-02) (205, -8.52784365415573120117e-02) (206, -2.12188526988029479980e-01) (207, -3.08490712195634841919e-02) (208, 1.09489113092422485352e-01) (209, 8.17891731858253479004e-02) (210, -1.41111657023429870605e-01) (211, 6.86484798789024353027e-02) (212, 5.01104891300201416016e-02) (213, 1.41578927636146545410e-01) (214, -5.99093474447727203369e-02) (215, -4.23161759972572326660e-02) (216, -3.20803448557853698730e-02) (217, 8.60128998756408691406e-02) (218, -1.50834441184997558594e-01) (219, 1.77746653556823730469e-01) (220, -3.65886017680168151855e-02) (221, -1.23803071677684783936e-01) (222, -4.53156754374504089355e-02) (223, -1.91233381628990173340e-01) (224, -1.65392175316810607910e-01) (225, -1.50777876377105712891e-01) (226, -1.06785483658313751221e-01) (227, -6.91791102290153503418e-02) (228, -5.75185194611549377441e-02) (229, -1.34989485144615173340e-01) (230, -2.00127303600311279297e-01) (231, -5.62851577997207641602e-02) (232, -1.20276205241680145264e-01) (233, -2.06561729311943054199e-01) (234, -1.34033545851707458496e-01) (235, -1.79342836141586303711e-01) (236, -7.18401521444320678711e-02) (237, -1.26222059130668640137e-01) (238, -1.90191909670829772949e-01) (239, 5.76489679515361785889e-02) (240, -6.44328966736793518066e-02) (241, -1.11303552985191345215e-01) (242, -1.33702576160430908203e-01) (243, -3.43224108219146728516e-02) (244, -1.89724639058113098145e-01) (245, -1.73611909151077270508e-01) (246, -5.66385835409164428711e-02) (247, -2.01804980635643005371e-01) (248, -1.07599012553691864014e-01) (249, -1.87473013997077941895e-01) (250, -4.40583303570747375488e-02) (251, -1.24187611043453216553e-01) (252, -9.12760794162750244141e-02) (253, -6.93740025162696838379e-02) (254, 1.44579038023948669434e-01) (255, 2.03331768512725830078e-01) (256, 3.98481413722038269043e-02) (257, 5.77935501933097839355e-02) (258, -8.58473405241966247559e-02) (259, -3.76703813672065734863e-02) (260, -9.71959307789802551270e-02) (261, -6.59746378660202026367e-02) (262, 1.66044473648071289062e-01) (263, -1.97472140192985534668e-01) (264, -5.25363460183143615723e-02) (265, 5.20109385251998901367e-02) (266, 8.31850469112396240234e-02) (267, -1.04376494884490966797e-01) (268, -9.42111313343048095703e-02) (269, -1.27006873488426208496e-01) (270, 1.73272490501403808594e-01) (271, -1.38644024729728698730e-01) (272, -2.18310415744781494141e-01) (273, -1.80430099368095397949e-01) (274, -1.52966424822807312012e-01) (275, -1.88035055994987487793e-01) (276, -1.34041994810104370117e-01) (277, -1.89604997634887695312e-01) (278, -1.69840022921562194824e-01) (279, -2.16410029679536819458e-02) (280, -1.57078012824058532715e-01) (281, 4.61016595363616943359e-02) (282, 1.14171400666236877441e-01) (283, 2.11645931005477905273e-01) (284, 1.96727663278579711914e-01) (285, 3.87504249811172485352e-02) (286, 1.94977700710296630859e-01) (287, 2.16575801372528076172e-01) (288, -1.63456037640571594238e-01) (0, 1.29130348563194274902e-01) (1, 1.98905423283576965332e-01) (2, 1.99348047375679016113e-01) (3, 8.31557288765907287598e-02) (4, 1.44949883222579956055e-01) (5, 2.18759197741746902466e-02) (6, 5.06193786859512329102e-02) (7, 1.76960825920104980469e-01) (8, 8.50609615445137023926e-02) (9, 1.66242897510528564453e-01) (10, 1.02749697864055633545e-01) (11, 1.78054094314575195312e-01) (12, -1.20484642684459686279e-01) (13, 1.84105694293975830078e-01) (14, 1.79743692278861999512e-01) (15, 1.59085288643836975098e-01) (16, 5.11392652988433837891e-02) (17, 2.11708649992942810059e-01) (18, 4.50432896614074707031e-02) (19, 8.15342739224433898926e-02) (20, 6.18686266243457794189e-02) (21, 4.34022918343544006348e-02) (22, 1.44456267356872558594e-01) (23, 8.79702866077423095703e-02) (24, 1.37573689222335815430e-01) (25, 1.36102199554443359375e-01) (26, 6.46979436278343200684e-02) (27, 1.56324103474617004395e-01) (28, 1.11079879105091094971e-01) (29, 6.12737387418746948242e-02) (30, -2.71319393068552017212e-02) (31, 2.02102307230234146118e-02) (32, -1.99820861220359802246e-01) (33, 1.92216113209724426270e-01) (34, 8.33659544587135314941e-02) (35, 1.65129035711288452148e-01) (36, -4.59079816937446594238e-02) (37, 1.13985329866409301758e-01) (38, -1.17910154163837432861e-01) (39, -1.80847033858299255371e-01) (40, 6.02282173931598663330e-02) (41, 2.04839557409286499023e-01) (42, 2.17207074165344238281e-01) (43, 1.59743592143058776855e-01) (44, 1.68945237994194030762e-01) (45, 1.76950767636299133301e-01) (46, 9.88288596272468566895e-02) (47, 2.00084507465362548828e-01) (48, 1.68659403920173645020e-01) (49, 1.23872153460979461670e-01) (50, 6.16187676787376403809e-02) (51, 2.10528030991554260254e-01) (52, 1.47274434566497802734e-01) (53, 1.86075046658515930176e-01) (54, 7.84983038902282714844e-02) (55, 6.48481175303459167480e-02) (56, 1.02177225053310394287e-01) (57, 1.23196244239807128906e-01) (58, 2.01172232627868652344e-01) (59, 1.93257108330726623535e-01) (60, 1.64469987154006958008e-01) (61, 1.94040298461914062500e-01) (62, 1.93467333912849426270e-01) (63, 1.84649124741554260254e-01) (64, 1.66256397962570190430e-01) (65, 5.68332746624946594238e-02) (66, 1.29778161644935607910e-01) (67, 1.40348419547080993652e-01) (68, 1.50818601250648498535e-01) (69, 3.18680107593536376953e-02) (70, 1.79501399397850036621e-01) (71, 1.91046819090843200684e-01) (72, 2.16707557439804077148e-01) (73, 1.76708459854125976562e-01) (74, 1.30790382623672485352e-01) (75, 1.65652796626091003418e-01) (76, 1.33659213781356811523e-01) (77, 2.09619253873825073242e-01) (78, 1.45737290382385253906e-01) (79, 8.23186114430427551270e-02) (80, 1.13491386175155639648e-01) (81, 1.87356054782867431641e-01) (82, 7.28466287255287170410e-02) (83, 4.07658219337463378906e-02) (84, 1.53431087732315063477e-01) (85, 1.31344929337501525879e-01) (86, 8.56139361858367919922e-02) (87, 3.56082990765571594238e-02) (88, 3.45411598682403564453e-02) (89, 6.67861551046371459961e-02) (90, 2.08865404129028320312e-01) (91, 1.79011136293411254883e-01) (92, 4.08264398574829101562e-02) (93, 1.82332724332809448242e-01) (94, 1.43660262227058410645e-01) (95, 1.87082841992378234863e-01) (96, 2.19165995717048645020e-01) (97, 5.34384101629257202148e-02) (98, 1.07431247830390930176e-01) (99, -9.00154337286949157715e-02) (100, 6.53064176440238952637e-02) (101, 6.69326335191726684570e-02) (102, 1.21031381189823150635e-01) (103, 6.20139688253402709961e-02) (104, -2.16358929872512817383e-01) (105, 3.18217575550079345703e-02) (106, 2.07666754722595214844e-01) (107, 1.37300297617912292480e-01) (108, 2.14409995824098587036e-02) (109, 1.33404031395912170410e-01) (110, 1.99618905782699584961e-01) (111, 1.14932380616664886475e-01) (112, 1.00760072469711303711e-01) (113, 5.24655207991600036621e-02) (114, 1.35698199272155761719e-01) (115, 3.41911464929580688477e-02) (116, 1.63810431957244873047e-01) (117, 2.01312139630317687988e-01) (118, 4.97994422912597656250e-02) (119, 1.78351595997810363770e-01) (120, 4.80982810258865356445e-02) (121, 3.86648327112197875977e-02) (122, 1.37362733483314514160e-01) (123, 6.89247176051139831543e-02) (124, 2.00997546315193176270e-01) (125, 6.10229782760143280029e-02) (126, 3.60075384378433227539e-02) (127, 2.00163528323173522949e-01) (128, 9.44613888859748840332e-02) (129, 1.23438782989978790283e-01) (130, 1.30148082971572875977e-01) (131, 1.39767795801162719727e-01) (132, 1.70371413230895996094e-01) (133, 3.11794597655534744263e-02) (134, 1.81781768798828125000e-01) (135, 1.74012497067451477051e-01) (136, 4.30012121796607971191e-02) (137, 1.69448509812355041504e-01) (138, 9.13127809762954711914e-02) (139, 4.44422066211700439453e-02) (140, 8.28525424003601074219e-02) (141, 7.09316730499267578125e-02) (142, 1.39374583959579467773e-01) (143, 1.63612604141235351562e-01) (144, 1.03397190570831298828e-01) (145, 5.50727769732475280762e-02) (146, 1.77803754806518554688e-01) (147, 4.72076162695884704590e-02) (148, 3.63849028944969177246e-02) (149, 2.07603186368942260742e-01) (150, 2.05559208989143371582e-01) (151, 6.44831806421279907227e-02) (152, 2.62680146843194961548e-02) (153, 1.22921928763389587402e-01) (154, 1.13407894968986511230e-01) (155, 2.07265555858612060547e-01) (156, 1.63944900035858154297e-01) (157, 1.29415422677993774414e-01) (158, 1.87429070472717285156e-01) (159, 3.84062826633453369141e-02) (160, 3.28541994094848632812e-02) (161, 9.75771471858024597168e-02) (162, 1.58174082636833190918e-01) (163, 1.83225601911544799805e-01) (164, 1.08756601810455322266e-01) (165, 1.19955837726593017578e-01) (166, 1.37238085269927978516e-01) (167, 1.31757810711860656738e-01) (168, 6.94043412804603576660e-02) (169, 2.08550855517387390137e-01) (170, 1.56200021505355834961e-01) (171, 1.32256880402565002441e-01) (172, 5.94825223088264465332e-02) (173, 7.55745992064476013184e-02) (174, 7.58694782853126525879e-02) (175, 1.42879709601402282715e-01) (176, 1.10647372901439666748e-01) (177, 3.36732193827629089355e-02) (178, 1.70087322592735290527e-01) (179, 1.27032279968261718750e-01) (180, 2.12764013558626174927e-02) (181, 1.55646532773971557617e-01) (182, 1.71515449881553649902e-01) (183, 2.75444108992815017700e-02) (184, 5.85684478282928466797e-02) (185, 6.49233385920524597168e-02) (186, 2.14809954166412353516e-01) (187, 2.02513352036476135254e-01) (188, 1.74338757991790771484e-01) (189, 1.82239010930061340332e-01) (190, 2.09196303039789199829e-02) (191, 1.87192946672439575195e-01) (192, 5.98161481320858001709e-02) (193, 1.59093707799911499023e-01) (194, 1.50418549776077270508e-01) (195, 1.48572742938995361328e-01) (196, 5.90495318174362182617e-02) (197, 6.76566213369369506836e-02) (198, 6.03305548429489135742e-02) (199, 1.08453869819641113281e-01) (200, 5.62074705958366394043e-02) (201, 1.96530565619468688965e-01) (202, 2.07107458263635635376e-02) (203, 9.56899896264076232910e-02) (204, 5.21051585674285888672e-02) (205, 7.65802189707756042480e-02) (206, 2.18569695949554443359e-01) (207, 1.42752528190612792969e-01) (208, -1.49746581912040710449e-01) (209, -7.13430047035217285156e-02) (210, 4.97847944498062133789e-02) (211, -1.48470178246498107910e-01) (212, -1.35696485638618469238e-01) (213, -3.86997684836387634277e-02) (214, 9.90742295980453491211e-02) (215, 1.42871975898742675781e-01) (216, 4.62235733866691589355e-02) (217, -1.46115839481353759766e-01) (218, 1.25385314226150512695e-01) (219, -3.94376888871192932129e-02) (220, 5.61231821775436401367e-02) (221, 1.26304939389228820801e-01) (222, 1.67755261063575744629e-01) (223, 9.59393233060836791992e-02) (224, 6.53986334800720214844e-02) (225, 9.81738045811653137207e-02) (226, 2.45120618492364883423e-02) (227, 1.04448162019252777100e-01) (228, 1.45830422639846801758e-01) (229, 6.48426115512847900391e-02) (230, 1.92902028560638427734e-01) (231, 1.82037889957427978516e-01) (232, 4.13731783628463745117e-02) (233, 1.93612769246101379395e-01) (234, 5.77278733253479003906e-02) (235, 7.34783336520195007324e-02) (236, 5.01929745078086853027e-02) (237, 5.62975630164146423340e-02) (238, 1.96230858564376831055e-01) (239, -1.19553603231906890869e-01) (240, 2.04954564571380615234e-01) (241, 2.60156486183404922485e-02) (242, 1.91976234316825866699e-01) (243, 8.92580822110176086426e-02) (244, 2.07315891981124877930e-01) (245, 7.10504576563835144043e-02) (246, 2.12130054831504821777e-01) (247, 3.35394516587257385254e-02) (248, 1.44934624433517456055e-01) (249, 1.17515362799167633057e-01) (250, 2.14101776480674743652e-01) (251, 1.81057810783386230469e-01) (252, 2.38202903419733047485e-02) (253, 1.61857023835182189941e-01) (254, -1.83002889156341552734e-01) (255, -1.70781090855598449707e-01) (256, -1.99969187378883361816e-01) (257, -1.78490832448005676270e-01) (258, 1.53667077422142028809e-01) (259, 1.65861248970031738281e-01) (260, 1.06351792812347412109e-01) (261, 1.26569107174873352051e-01) (262, -1.12100891768932342529e-01) (263, 1.27724960446357727051e-01) (264, 1.00181870162487030029e-01) (265, -7.43730217218399047852e-02) (266, -5.87967187166213989258e-02) (267, 1.30374848842620849609e-01) (268, 2.01924547553062438965e-01) (269, 1.57434150576591491699e-01) (270, -2.09178775548934936523e-01) (271, 1.86879113316535949707e-01) (272, 1.63449794054031372070e-01) (273, 2.02797472476959228516e-01) (274, 5.61371818184852600098e-02) (275, 1.50765672326087951660e-01) (276, 5.38479238748550415039e-02) (277, 4.82672303915023803711e-02) (278, 1.64305120706558227539e-01) (279, 1.78782552480697631836e-01) (280, 1.45782589912414550781e-01) (281, -8.15931335091590881348e-02) (282, -1.00159659981727600098e-01) (283, -9.03971418738365173340e-02) (284, -1.39736115932464599609e-01) (285, -6.31625428795814514160e-02) (286, -4.11782264709472656250e-02) (287, -1.19705289602279663086e-01) (288, 2.18346655368804931641e-01) (0, 1.32488861680030822754e-01) (1, 6.61559626460075378418e-02) (2, 1.04698434472084045410e-01) (3, 3.90579625964164733887e-02) (4, 1.74055084586143493652e-01) (5, 2.12423399090766906738e-01) (6, 1.19239829480648040771e-01) (7, 1.19682066142559051514e-01) (8, 1.73626676201820373535e-01) (9, 2.96146664768457412720e-02) (10, 1.01606599986553192139e-01) (11, 1.11060820519924163818e-01) (12, -1.99564114212989807129e-01) (13, 6.84856995940208435059e-02) (14, 5.45105934143066406250e-02) (15, 2.32333708554506301880e-02) (16, 1.04622878134250640869e-01) (17, 1.85276269912719726562e-01) (18, 5.70812895894050598145e-02) (19, 1.32890105247497558594e-01) (20, 1.29581376910209655762e-01) (21, 2.15863838791847229004e-01) (22, 5.86726814508438110352e-02) (23, 6.79882466793060302734e-02) (24, 1.35704174637794494629e-01) (25, 1.88275545835494995117e-01) (26, 1.48252144455909729004e-01) (27, 9.25416424870491027832e-02) (28, 1.67097330093383789062e-01) (29, 4.85468581318855285645e-02) (30, -1.49111732840538024902e-01) (31, 7.95861855149269104004e-02) (32, -1.45297199487686157227e-01) (33, 1.75586715340614318848e-01) (34, 9.86441373825073242188e-02) (35, 4.87578809261322021484e-02) (36, -7.19899088144302368164e-02) (37, 1.97883963584899902344e-01) (38, -9.15600657463073730469e-02) (39, -1.18363231420516967773e-01) (40, 2.07498624920845031738e-01) (41, 3.00465393811464309692e-02) (42, 2.12697595357894897461e-01) (43, 2.79345158487558364868e-02) (44, 7.85322412848472595215e-02) (45, 4.72081825137138366699e-02) (46, 3.11678741127252578735e-02) (47, 1.63155108690261840820e-01) (48, 2.12484449148178100586e-01) (49, 6.82491585612297058105e-02) (50, 7.60452151298522949219e-02) (51, 1.22065804898738861084e-01) (52, 6.41129836440086364746e-02) (53, 1.14717893302440643311e-01) (54, 1.70054048299789428711e-01) (55, 1.79817155003547668457e-01) (56, 8.29934328794479370117e-02) (57, 9.83061790466308593750e-02) (58, 5.23587986826896667480e-02) (59, 3.00907585769891738892e-02) (60, 1.26853033900260925293e-01) (61, 1.23247079551219940186e-01) (62, 8.96769315004348754883e-02) (63, 2.01555848121643066406e-01) (64, 7.88337886333465576172e-02) (65, 1.68321073055267333984e-01) (66, 3.03137246519327163696e-02) (67, 2.68438849598169326782e-02) (68, 1.46205022931098937988e-01) (69, 1.58753663301467895508e-01) (70, 1.28480657935142517090e-01) (71, 1.33703619241714477539e-01) (72, 1.68800204992294311523e-01) (73, 1.21178247034549713135e-01) (74, 1.41638129949569702148e-01) (75, 2.73324269801378250122e-02) (76, 1.48386418819427490234e-01) (77, 1.52805998921394348145e-01) (78, 1.70487537980079650879e-01) (79, 1.40870854258537292480e-01) (80, 2.01055154204368591309e-01) (81, 2.65327487140893936157e-02) (82, 4.29366528987884521484e-02) (83, 4.51681390404701232910e-02) (84, 1.21250636875629425049e-01) (85, 1.92990705370903015137e-01) (86, 2.04985290765762329102e-01) (87, 1.84244066476821899414e-01) (88, 7.12968707084655761719e-02) (89, 3.73440831899642944336e-02) (90, 1.94334819912910461426e-01) (91, 1.78149893879890441895e-01) (92, 1.40591159462928771973e-01) (93, 6.40117377042770385742e-02) (94, 1.59705743193626403809e-01) (95, 1.99424937367439270020e-01) (96, 2.12332800030708312988e-01) (97, 1.70019447803497314453e-01) (98, 2.06268832087516784668e-01) (99, -1.01462200284004211426e-01) (100, 1.08773112297058105469e-01) (101, 1.14749476313591003418e-01) (102, 5.22414222359657287598e-02) (103, 5.75732998549938201904e-02) (104, -2.40722913295030593872e-02) (105, 1.73879563808441162109e-01) (106, 6.49057254195213317871e-02) (107, 1.44314140081405639648e-01) (108, 1.06685556471347808838e-01) (109, 2.15393260121345520020e-01) (110, 6.51849880814552307129e-02) (111, 8.77407044172286987305e-02) (112, 2.19260025769472122192e-02) (113, 8.81216451525688171387e-02) (114, 1.12908840179443359375e-01) (115, 1.23176626861095428467e-01) (116, 6.11123293638229370117e-02) (117, 9.78941246867179870605e-02) (118, 8.74206796288490295410e-02) (119, 1.12409196794033050537e-01) (120, 1.15238204598426818848e-01) (121, 6.17554858326911926270e-02) (122, 7.05590918660163879395e-02) (123, 3.58293503522872924805e-02) (124, 1.05767220258712768555e-01) (125, 2.10264816880226135254e-01) (126, 2.15254291892051696777e-01) (127, 9.81000140309333801270e-02) (128, 1.60284265875816345215e-01) (129, 2.01523110270500183105e-01) (130, 2.16637820005416870117e-01) (131, 4.90573719143867492676e-02) (132, 9.62725728750228881836e-02) (133, 4.88792359828948974609e-02) (134, 8.66306647658348083496e-02) (135, 9.22002792358398437500e-02) (136, 2.02758789062500000000e-01) (137, 1.31536379456520080566e-01) (138, 2.16514423489570617676e-01) (139, 8.94443318247795104980e-02) (140, 1.26929640769958496094e-01) (141, 6.16993978619575500488e-02) (142, 1.57185032963752746582e-01) (143, 1.28855630755424499512e-01) (144, 1.29821032285690307617e-01) (145, 5.00938594341278076172e-02) (146, 3.20322513580322265625e-02) (147, 1.70933365821838378906e-01) (148, 1.27987980842590332031e-01) (149, 9.94529277086257934570e-02) (150, 6.33425563573837280273e-02) (151, 2.32261735945940017700e-02) (152, 1.41208410263061523438e-01) (153, 1.13901637494564056396e-01) (154, 3.90555113554000854492e-02) (155, 2.69756261259317398071e-02) (156, 1.04166448116302490234e-01) (157, 3.43097895383834838867e-02) (158, 1.05075627565383911133e-01) (159, 4.44507077336311340332e-02) (160, 2.15832889080047607422e-01) (161, 1.01713441312313079834e-01) (162, 7.35080763697624206543e-02) (163, 9.21054556965827941895e-02) (164, 1.30592674016952514648e-01) (165, 1.40138745307922363281e-01) (166, 1.64305731654167175293e-01) (167, 1.13351441919803619385e-01) (168, 5.16751185059547424316e-02) (169, 1.60820141434669494629e-01) (170, 1.82795777916908264160e-01) (171, 1.58604755997657775879e-01) (172, 2.02519536018371582031e-01) (173, 1.19980797171592712402e-01) (174, 6.74603730440139770508e-02) (175, 1.12340562045574188232e-01) (176, 1.50074645876884460449e-01) (177, 7.94926211237907409668e-02) (178, 6.32739216089248657227e-02) (179, 5.80626130104064941406e-02) (180, 1.58945545554161071777e-01) (181, 1.06616467237472534180e-01) (182, 6.12887814640998840332e-02) (183, 8.01539570093154907227e-02) (184, 2.00518101453781127930e-01) (185, 8.03442895412445068359e-02) (186, 8.71295779943466186523e-02) (187, 8.46845507621765136719e-02) (188, 9.46540832519531250000e-02) (189, 1.72205194830894470215e-01) (190, 1.09135255217552185059e-01) (191, 9.04869660735130310059e-02) (192, 5.39186298847198486328e-02) (193, 1.62643328309059143066e-01) (194, 1.62592411041259765625e-01) (195, 1.64511293172836303711e-01) (196, 8.27820599079132080078e-02) (197, 1.06898136436939239502e-01) (198, 5.78627288341522216797e-02) (199, 1.14457175135612487793e-01) (200, 4.77182716131210327148e-02) (201, 2.06584949046373367310e-02) (202, 5.30619174242019653320e-02) (203, 3.02378032356500625610e-02) (204, 1.20639286935329437256e-01) (205, 1.00522287189960479736e-01) (206, 1.22578360140323638916e-01) (207, 5.07139191031455993652e-02) (208, -7.99851045012474060059e-02) (209, -7.41477385163307189941e-02) (210, 8.87765362858772277832e-02) (211, -1.41039565205574035645e-01) (212, -1.87531277537345886230e-01) (213, -1.09934702515602111816e-01) (214, 1.59114390611648559570e-01) (215, 3.29868271946907043457e-02) (216, 1.90409600734710693359e-01) (217, -2.13756054639816284180e-01) (218, 9.76713746786117553711e-02) (219, -1.74936339259147644043e-01) (220, 1.78449153900146484375e-01) (221, 1.86806619167327880859e-01) (222, 1.35550633072853088379e-01) (223, 2.12367787957191467285e-01) (224, 1.29449948668479919434e-01) (225, 7.81430453062057495117e-02) (226, 1.56879067420959472656e-01) (227, 1.92231997847557067871e-01) (228, 1.65041178464889526367e-01) (229, 1.94741800427436828613e-01) (230, 8.66891667246818542480e-02) (231, 1.92759454250335693359e-01) (232, 1.95400282740592956543e-01) (233, 1.19751080870628356934e-01) (234, 2.02997237443923950195e-01) (235, 9.60395634174346923828e-02) (236, 2.00273364782333374023e-01) (237, 1.05575591325759887695e-01) (238, 1.26753479242324829102e-01) (239, -9.97117534279823303223e-02) (240, 5.14278560876846313477e-02) (241, 1.95530012249946594238e-01) (242, 2.19248697161674499512e-01) (243, 8.38965848088264465332e-02) (244, 1.05595313012599945068e-01) (245, 1.58363088965415954590e-01) (246, 9.68834087252616882324e-02) (247, 7.60049074888229370117e-02) (248, 1.64607048034667968750e-01) (249, 1.74554780125617980957e-01) (250, 1.21068574488162994385e-01) (251, 1.23056195676326751709e-01) (252, 1.41361400485038757324e-01) (253, 3.66192013025283813477e-02) (254, -1.24576047062873840332e-01) (255, -1.89188674092292785645e-01) (256, -1.45237773656845092773e-01) (257, -1.87696978449821472168e-01) (258, 2.30433288961648941040e-02) (259, 3.98034080862998962402e-02) (260, 2.70448196679353713989e-02) (261, 8.97324904799461364746e-02) (262, -2.74371597915887832642e-02) (263, 2.02445104718208312988e-01) (264, 1.89483568072319030762e-01) (265, -4.44399267435073852539e-02) (266, -1.61515355110168457031e-01) (267, 1.69756919145584106445e-01) (268, 8.11356678605079650879e-02) (269, 1.85238137841224670410e-01) (270, -1.49954855442047119141e-01) (271, 1.12563520669937133789e-01) (272, 1.60768136382102966309e-01) (273, 8.92938524484634399414e-02) (274, 1.76460102200508117676e-01) (275, 4.63634356856346130371e-02) (276, 2.76569370180368423462e-02) (277, 5.33435046672821044922e-02) (278, 1.02368339896202087402e-01) (279, 1.72263965010643005371e-01) (280, 2.07898288965225219727e-01) (281, -3.65631058812141418457e-02) (282, -1.64679855108261108398e-01) (283, -1.10740333795547485352e-01) (284, -2.19943910837173461914e-01) (285, -6.92558884620666503906e-02) (286, -7.99290090799331665039e-02) (287, -1.45181670784950256348e-01) (288, 2.03047156333923339844e-01) (0, 1.63114324212074279785e-01) (1, -1.25378265976905822754e-01) (2, -2.99080479890108108521e-02) (3, -2.07153201103210449219e-01) (4, -1.32815420627593994141e-01) (5, -4.74629551172256469727e-02) (6, -3.76696437597274780273e-02) (7, -1.57255336642265319824e-01) (8, -1.88978314399719238281e-01) (9, -8.79127383232116699219e-02) (10, -9.61196795105934143066e-02) (11, -2.37401891499757766724e-02) (12, 2.21324283629655838013e-02) (13, -2.03556165099143981934e-01) (14, -8.29720646142959594727e-02) (15, -1.48573741316795349121e-01) (16, -4.70960587263107299805e-02) (17, -5.66086322069168090820e-02) (18, -1.40916809439659118652e-01) (19, -2.13752567768096923828e-01) (20, -1.74240306019783020020e-01) (21, -1.88652843236923217773e-01) (22, -2.58542764931917190552e-02) (23, -1.90803408622741699219e-01) (24, -1.33332684636116027832e-01) (25, -1.16594612598419189453e-01) (26, -1.90747305750846862793e-01) (27, -1.82588577270507812500e-01) (28, -1.76523610949516296387e-01) (29, -1.15928970277309417725e-01) (30, 4.04585748910903930664e-02) (31, -3.34092900156974792480e-02) (32, 2.18692794442176818848e-01) (33, -2.09449484944343566895e-01) (34, -2.05624867230653762817e-02) (35, -1.34122639894485473633e-01) (36, 2.03087583184242248535e-01) (37, -3.82321253418922424316e-02) (38, 1.68622031807899475098e-01) (39, 3.41092720627784729004e-02) (40, -1.06144860386848449707e-01) (41, -1.47497653961181640625e-01) (42, -2.09630921483039855957e-01) (43, -1.04012437164783477783e-01) (44, -1.31053805351257324219e-01) (45, -7.26029723882675170898e-02) (46, -3.25861647725105285645e-02) (47, -1.58149853348731994629e-01) (48, -1.09211601316928863525e-01) (49, -1.53502970933914184570e-01) (50, -1.51902407407760620117e-01) (51, -6.34518936276435852051e-02) (52, -1.22155807912349700928e-01) (53, -1.57756686210632324219e-01) (54, -3.42552810907363891602e-02) (55, -3.54884862899780273438e-02) (56, -5.43512850999832153320e-02) (57, -2.05002576112747192383e-01) (58, -1.98077067732810974121e-01) (59, -2.10874900221824645996e-01) (60, -1.00931540131568908691e-01) (61, -1.77618488669395446777e-01) (62, -2.42841783910989761353e-02) (63, -1.02238759398460388184e-01) (64, -1.67067959904670715332e-01) (65, -2.48466599732637405396e-02) (66, -2.16361403465270996094e-01) (67, -1.83980390429496765137e-01) (68, -4.30787801742553710938e-02) (69, -6.77393674850463867188e-02) (70, -1.69871121644973754883e-01) (71, -1.29223644733428955078e-01) (72, -1.95237010717391967773e-01) (73, -1.59502029418945312500e-01) (74, -2.13236078619956970215e-01) (75, -1.06290802359580993652e-01) (76, -2.12105005979537963867e-01) (77, -2.58222315460443496704e-02) (78, -4.44406494498252868652e-02) (79, -1.01316586136817932129e-01) (80, -1.59325197339057922363e-01) (81, -1.76343053579330444336e-01) (82, -1.44768476486206054688e-01) (83, -6.14809915423393249512e-02) (84, -1.14099733531475067139e-01) (85, -1.59023746848106384277e-01) (86, -7.69694745540618896484e-02) (87, -1.48451015353202819824e-01) (88, -1.44026324152946472168e-01) (89, -5.50465285778045654297e-02) (90, -1.39325901865959167480e-01) (91, -2.49578524380922317505e-02) (92, -2.12665006518363952637e-01) (93, -1.43610075116157531738e-01) (94, -1.07196606695652008057e-01) (95, -1.59732967615127563477e-01) (96, -1.48456737399101257324e-01) (97, -1.03557996451854705811e-01) (98, -1.23713344335556030273e-01) (99, 6.84645026922225952148e-02) (100, -1.51297360658645629883e-01) (101, -7.35844522714614868164e-02) (102, -8.07591378688812255859e-02) (103, -1.26534357666969299316e-01) (104, 2.69135404378175735474e-02) (105, -7.39952027797698974609e-02) (106, -2.12825149297714233398e-01) (107, -2.05191463232040405273e-01) (108, -7.98174291849136352539e-02) (109, -3.72657924890518188477e-02) (110, -8.65080431103706359863e-02) (111, -2.19142630696296691895e-01) (112, -1.93608850240707397461e-01) (113, -2.11276516318321228027e-01) (114, -6.06236085295677185059e-02) (115, -8.77085700631141662598e-02) (116, -1.50300264358520507812e-01) (117, -1.17593079805374145508e-01) (118, -2.16159582138061523438e-01) (119, -7.43265748023986816406e-02) (120, -1.52639597654342651367e-01) (121, -1.35485470294952392578e-01) (122, -7.92844295501708984375e-02) (123, -1.45304605364799499512e-01) (124, -5.90955391526222229004e-02) (125, -1.66481032967567443848e-01) (126, -8.50375592708587646484e-02) (127, -1.87552273273468017578e-01) (128, -5.00390157103538513184e-02) (129, -1.88750907778739929199e-01) (130, -1.39087766408920288086e-01) (131, -1.81336373090744018555e-01) (132, -4.23353463411331176758e-02) (133, -1.99846908450126647949e-01) (134, -8.78707244992256164551e-02) (135, -3.54218110442161560059e-02) (136, -5.38420975208282470703e-02) (137, -8.06958675384521484375e-02) (138, -2.06132698804140090942e-02) (139, -1.13659523427486419678e-01) (140, -9.79616567492485046387e-02) (141, -8.71213078498840332031e-02) (142, -1.12802140414714813232e-01) (143, -7.15704932808876037598e-02) (144, -7.83978179097175598145e-02) (145, -1.53425753116607666016e-01) (146, -1.39279052615165710449e-01) (147, -2.08698064088821411133e-01) (148, -5.10188192129135131836e-02) (149, -1.35438621044158935547e-01) (150, -6.30246400833129882812e-02) (151, -1.83658421039581298828e-01) (152, -5.09240850806236267090e-02) (153, -1.22309058904647827148e-01) (154, -1.08963012695312500000e-01) (155, -9.00196209549903869629e-02) (156, -6.87900781631469726562e-02) (157, -1.74000576138496398926e-01) (158, -5.75718842446804046631e-02) (159, -9.88290980458259582520e-02) (160, -1.42751455307006835938e-01) (161, -1.76659643650054931641e-01) (162, -6.01654611527919769287e-02) (163, -1.65086805820465087891e-01) (164, -1.56506538391113281250e-01) (165, -1.28036171197891235352e-01) (166, -1.80508613586425781250e-01) (167, -1.90348640084266662598e-01) (168, -1.88732042908668518066e-01) (169, -1.81121870875358581543e-01) (170, -8.40081572532653808594e-02) (171, -6.66936859488487243652e-02) (172, -4.82431724667549133301e-02) (173, -1.76810294389724731445e-01) (174, -1.18264168500900268555e-01) (175, -1.06640987098217010498e-01) (176, -1.10236033797264099121e-01) (177, -3.75432148575782775879e-02) (178, -9.53390449285507202148e-02) (179, -1.41254842281341552734e-01) (180, -1.52981832623481750488e-01) (181, -1.38363674283027648926e-01) (182, -1.04913257062435150146e-01) (183, -1.83905929327011108398e-01) (184, -4.06727269291877746582e-02) (185, -1.93876266479492187500e-01) (186, -5.39255365729331970215e-02) (187, -8.94628018140792846680e-02) (188, -1.47876828908920288086e-01) (189, -9.14974212646484375000e-02) (190, -1.68291896581649780273e-01) (191, -7.06282779574394226074e-02) (192, -4.81570586562156677246e-02) (193, -2.08457350730895996094e-01) (194, -2.15715065598487854004e-01) (195, -1.84663593769073486328e-01) (196, -1.16493523120880126953e-01) (197, -1.76223665475845336914e-01) (198, -1.55012235045433044434e-01) (199, -8.52255523204803466797e-02) (200, -1.37345537543296813965e-01) (201, -2.19020381569862365723e-01) (202, -1.31919234991073608398e-01) (203, -1.65588706731796264648e-01) (204, -1.75830662250518798828e-01) (205, -3.01833990961313247681e-02) (206, -5.22296801209449768066e-02) (207, -6.60666972398757934570e-02) (208, 1.92273408174514770508e-01) (209, 1.12431295216083526611e-01) (210, -1.87321543693542480469e-01) (211, 5.92915676534175872803e-02) (212, 1.94067627191543579102e-01) (213, 1.67765229940414428711e-01) (214, -1.44614353775978088379e-01) (215, -6.66051134467124938965e-02) (216, -4.61110323667526245117e-02) (217, 6.14601150155067443848e-02) (218, -1.36067911982536315918e-01) (219, 6.60121589899063110352e-02) (220, -5.00373020768165588379e-02) (221, -8.43597948551177978516e-02) (222, -2.46161241084337234497e-02) (223, -7.81943649053573608398e-02) (224, -7.28171393275260925293e-02) (225, -2.03311834484338760376e-02) (226, -4.28579524159431457520e-02) (227, -1.69310659170150756836e-01) (228, -1.76554843783378601074e-01) (229, -1.77870169281959533691e-01) (230, -3.45361977815628051758e-02) (231, -9.39003750681877136230e-02) (232, -1.76890552043914794922e-01) (233, -1.46455422043800354004e-01) (234, -3.94890680909156799316e-02) (235, -1.32721215486526489258e-01) (236, -1.56638815999031066895e-01) (237, -7.17187449336051940918e-02) (238, -1.78787901997566223145e-01) (239, 5.56345954537391662598e-02) (240, -1.79287463426589965820e-01) (241, -1.46109431982040405273e-01) (242, -1.45073860883712768555e-01) (243, -2.05219849944114685059e-01) (244, -1.98344200849533081055e-01) (245, -6.96882084012031555176e-02) (246, -5.18249496817588806152e-02) (247, -2.44552362710237503052e-02) (248, -2.82280985265970230103e-02) (249, -1.67892858386039733887e-01) (250, -1.78443089127540588379e-01) (251, -5.82653954625129699707e-02) (252, -3.22526395320892333984e-02) (253, -1.83059200644493103027e-01) (254, 1.23540259897708892822e-01) (255, 1.54930233955383300781e-01) (256, 5.66096305847167968750e-02) (257, 1.00682310760021209717e-01) (258, -3.43804135918617248535e-02) (259, -1.39945223927497863770e-01) (260, -9.71878692507743835449e-02) (261, -4.89166080951690673828e-02) (262, 2.61544156819581985474e-02) (263, -5.40784075856208801270e-02) (264, -1.75372034311294555664e-01) (265, 2.06665351986885070801e-01) (266, 7.32003971934318542480e-02) (267, -1.12010836601257324219e-01) (268, -8.50534066557884216309e-02) (269, -1.25587508082389831543e-01) (270, 1.63623765110969543457e-01) (271, -4.43408638238906860352e-02) (272, -5.16969189047813415527e-02) (273, -2.01450094580650329590e-01) (274, -2.95607019215822219849e-02) (275, -3.00411228090524673462e-02) (276, -5.11382967233657836914e-02) (277, -6.13856464624404907227e-02) (278, -3.44963446259498596191e-02) (279, -5.93663863837718963623e-02) (280, -2.09278509020805358887e-01) (281, 4.70605790615081787109e-02) (282, 1.42368227243423461914e-01) (283, 2.18468889594078063965e-01) (284, 8.40013921260833740234e-02) (285, 4.59084808826446533203e-02) (286, 1.53399109840393066406e-01) (287, 1.20611011981964111328e-01) (288, -1.13409221172332763672e-01) (0, 1.39018699526786804199e-01) (1, -3.93342152237892150879e-02) (2, -1.90597087144851684570e-01) (3, -1.29897922277450561523e-01) (4, -3.31798046827316284180e-02) (5, -2.46754903346300125122e-02) (6, -8.52699428796768188477e-02) (7, -4.65144589543342590332e-02) (8, -1.71475097537040710449e-01) (9, -1.77280768752098083496e-01) (10, -1.11567862331867218018e-01) (11, -7.70625919103622436523e-02) (12, 2.06343010067939758301e-01) (13, -1.35908722877502441406e-01) (14, -1.08759507536888122559e-01) (15, -2.15107098221778869629e-01) (16, -1.45469427108764648438e-01) (17, -1.18800625205039978027e-01) (18, -4.62453886866569519043e-02) (19, -1.86855062842369079590e-01) (20, -1.33296966552734375000e-01) (21, -8.56117755174636840820e-02) (22, -1.76133558154106140137e-01) (23, -1.06236390769481658936e-01) (24, -1.63243547081947326660e-01) (25, -1.77664682269096374512e-01) (26, -4.22350093722343444824e-02) (27, -1.37335076928138732910e-01) (28, -4.42655757069587707520e-02) (29, -1.41624003648757934570e-01) (30, 2.09255725145339965820e-01) (31, -1.25246882438659667969e-01) (32, 7.90418013930320739746e-02) (33, -2.01341375708580017090e-01) (34, -3.51447984576225280762e-02) (35, -1.74138009548187255859e-01) (36, 3.39831560850143432617e-02) (37, -1.00414738059043884277e-01) (38, 3.93475368618965148926e-02) (39, 8.25080722570419311523e-02) (40, -5.76954968273639678955e-02) (41, -9.22203287482261657715e-02) (42, -2.14554533362388610840e-01) (43, -7.13525041937828063965e-02) (44, -2.08129048347473144531e-01) (45, -1.03314034640789031982e-01) (46, -6.64595961570739746094e-02) (47, -1.33598461747169494629e-01) (48, -2.02114656567573547363e-01) (49, -9.27049815654754638672e-02) (50, -1.00453525781631469727e-01) (51, -1.15411616861820220947e-01) (52, -1.58316746354103088379e-01) (53, -5.65870702266693115234e-02) (54, -2.01648011803627014160e-01) (55, -1.01560294628143310547e-01) (56, -2.14251756668090820312e-01) (57, -2.38830093294382095337e-02) (58, -2.18895360827445983887e-01) (59, -3.85173261165618896484e-02) (60, -1.45507007837295532227e-01) (61, -2.96396482735872268677e-02) (62, -1.43764212727546691895e-01) (63, -8.64652097225189208984e-02) (64, -2.10981011390686035156e-01) (65, -1.58909007906913757324e-01) (66, -4.06032204627990722656e-02) (67, -1.96997866034507751465e-01) (68, -3.93237322568893432617e-02) (69, -2.12556887418031692505e-02) (70, -1.34489789605140686035e-01) (71, -7.70192220807075500488e-02) (72, -9.34760123491287231445e-02) (73, -1.29044324159622192383e-01) (74, -1.28371715545654296875e-01) (75, -8.16050544381141662598e-02) (76, -2.12358355522155761719e-01) (77, -1.74831315875053405762e-01) (78, -1.95203512907028198242e-01) (79, -1.94472998380661010742e-01) (80, -4.75362837314605712891e-02) (81, -7.56570324301719665527e-02) (82, -8.98846015334129333496e-02) (83, -1.85853034257888793945e-01) (84, -1.12244099378585815430e-01) (85, -7.15326070785522460938e-02) (86, -6.74133226275444030762e-02) (87, -1.06495849788188934326e-01) (88, -7.54156038165092468262e-02) (89, -6.63086771965026855469e-02) (90, -1.25013172626495361328e-01) (91, -2.00922608375549316406e-01) (92, -7.59483203291893005371e-02) (93, -4.87773716449737548828e-02) (94, -6.73878118395805358887e-02) (95, -6.69293254613876342773e-02) (96, -1.87686368823051452637e-01) (97, -8.79910215735435485840e-02) (98, -4.39271777868270874023e-02) (99, 3.29899191856384277344e-02) (100, -8.92467051744461059570e-02) (101, -1.58416971564292907715e-01) (102, -6.40293136239051818848e-02) (103, -1.62722706794738769531e-01) (104, 1.72538727521896362305e-01) (105, -1.72401025891304016113e-01) (106, -2.43277568370103836060e-02) (107, -5.98196201026439666748e-02) (108, -1.27232328057289123535e-01) (109, -1.99531272053718566895e-01) (110, -3.42926084995269775391e-02) (111, -1.54768615961074829102e-01) (112, -5.51882907748222351074e-02) (113, -1.04177206754684448242e-01) (114, -1.20621643960475921631e-01) (115, -1.47432386875152587891e-01) (116, -1.55709803104400634766e-01) (117, -1.68034970760345458984e-01) (118, -3.39282304048538208008e-02) (119, -2.11125418543815612793e-01) (120, -2.14343637228012084961e-01) (121, -1.38941392302513122559e-01) (122, -1.92048013210296630859e-01) (123, -7.02919438481330871582e-02) (124, -1.67718753218650817871e-01) (125, -3.94358113408088684082e-02) (126, -1.17221266031265258789e-01) (127, -1.35405123233795166016e-01) (128, -1.07426829636096954346e-01) (129, -1.41148433089256286621e-01) (130, -1.22415207326412200928e-01) (131, -1.76673531532287597656e-01) (132, -7.95653983950614929199e-02) (133, -1.66444510221481323242e-01) (134, -1.19396232068538665771e-01) (135, -1.27026677131652832031e-01) (136, -1.18845529854297637939e-01) (137, -1.23723983764648437500e-01) (138, -1.66846290230751037598e-01) (139, -2.60778609663248062134e-02) (140, -1.03255242109298706055e-01) (141, -1.81138888001441955566e-01) (142, -1.60846471786499023438e-01) (143, -1.38443529605865478516e-01) (144, -6.53160959482192993164e-02) (145, -6.14681094884872436523e-02) (146, -6.58759176731109619141e-02) (147, -2.01025903224945068359e-01) (148, -2.09503069519996643066e-01) (149, -7.98041373491287231445e-02) (150, -1.92151308059692382812e-01) (151, -2.03846693038940429688e-01) (152, -1.98745533823966979980e-01) (153, -1.64199307560920715332e-01) (154, -5.41386380791664123535e-02) (155, -1.46464273333549499512e-01) (156, -1.83635100722312927246e-01) (157, -1.51359900832176208496e-01) (158, -6.18693903088569641113e-02) (159, -7.10619240999221801758e-02) (160, -7.25083276629447937012e-02) (161, -1.64284586906433105469e-01) (162, -2.77354437857866287231e-02) (163, -1.32073715329170227051e-01) (164, -1.10729090869426727295e-01) (165, -1.27131670713424682617e-01) (166, -3.91003862023353576660e-02) (167, -2.09574624896049499512e-01) (168, -3.08556500822305679321e-02) (169, -1.85946673154830932617e-01) (170, -2.15652480721473693848e-01) (171, -1.14110887050628662109e-01) (172, -1.47085547447204589844e-01) (173, -1.56498938798904418945e-01) (174, -3.25544103980064392090e-02) (175, -1.92401647567749023438e-01) (176, -1.97967037558555603027e-01) (177, -7.84303247928619384766e-02) (178, -1.73427537083625793457e-01) (179, -1.87470108270645141602e-01) (180, -1.38234466314315795898e-01) (181, -1.45578831434249877930e-01) (182, -1.71316787600517272949e-01) (183, -1.16979986429214477539e-01) (184, -8.97781252861022949219e-02) (185, -2.05455422401428222656e-01) (186, -4.34442535042762756348e-02) (187, -5.34132197499275207520e-02) (188, -1.36815309524536132812e-01) (189, -8.53136405348777770996e-02) (190, -1.04475140571594238281e-01) (191, -1.89323633909225463867e-01) (192, -2.95982230454683303833e-02) (193, -1.12210579216480255127e-01) (194, -1.01397342979907989502e-01) (195, -1.20327316224575042725e-01) (196, -2.19342246651649475098e-01) (197, -1.20497725903987884521e-01) (198, -1.09901927411556243896e-01) (199, -3.01978904753923416138e-02) (200, -8.64443853497505187988e-02) (201, -1.05554394423961639404e-01) (202, -1.24308772385120391846e-01) (203, -2.13529944419860839844e-01) (204, -4.20533269643783569336e-02) (205, -1.36863186955451965332e-01) (206, -1.85931578278541564941e-01) (207, -2.00203601270914077759e-02) (208, 4.47065085172653198242e-02) (209, 1.00640907883644104004e-01) (210, -1.87490463256835937500e-01) (211, 1.26472055912017822266e-01) (212, 1.75062090158462524414e-01) (213, 1.01192772388458251953e-01) (214, -2.10507944226264953613e-01) (215, -1.34716048836708068848e-01) (216, -1.24262660741806030273e-01) (217, 2.06047832965850830078e-01) (218, -1.68129265308380126953e-01) (219, 1.98922052979469299316e-01) (220, -9.92658212780952453613e-02) (221, -5.26043921709060668945e-02) (222, -2.10401594638824462891e-01) (223, -1.08864046633243560791e-01) (224, -1.44814968109130859375e-01) (225, -9.17989313602447509766e-02) (226, -2.09191352128982543945e-01) (227, -1.44157215952873229980e-01) (228, -1.92296653985977172852e-01) (229, -9.90932807326316833496e-02) (230, -1.54355093836784362793e-01) (231, -5.87410293519496917725e-02) (232, -1.84647664427757263184e-01) (233, -5.86638599634170532227e-02) (234, -5.22709563374519348145e-02) (235, -2.06700995564460754395e-01) (236, -1.75527036190032958984e-01) (237, -2.18202531337738037109e-01) (238, -2.06721350550651550293e-01) (239, 8.91794785857200622559e-02) (240, -1.37561634182929992676e-01) (241, -1.74211800098419189453e-01) (242, -4.43484857678413391113e-02) (243, -1.82499557733535766602e-01) (244, -9.30190309882164001465e-02) (245, -3.48564162850379943848e-02) (246, -9.72155854105949401855e-02) (247, -1.97281688451766967773e-01) (248, -4.88085970282554626465e-02) (249, -4.53448370099067687988e-02) (250, -2.18359649181365966797e-01) (251, -1.28074422478675842285e-01) (252, -7.79492259025573730469e-02) (253, -2.08761230111122131348e-01) (254, 2.30615530163049697876e-02) (255, 3.72358188033103942871e-02) (256, 1.59439861774444580078e-01) (257, 3.38701978325843811035e-02) (258, -1.26921400427818298340e-01) (259, -5.28567880392074584961e-02) (260, -8.52230787277221679688e-02) (261, -6.12764842808246612549e-02) (262, 1.48402199149131774902e-01) (263, -4.98707443475723266602e-02) (264, -9.99403372406959533691e-02) (265, 1.16131238639354705811e-01) (266, 2.03428283333778381348e-01) (267, -5.54673671722412109375e-02) (268, -1.22071295976638793945e-01) (269, -2.32930649071931838989e-02) (270, 5.37121072411537170410e-02) (271, -3.96329164505004882812e-02) (272, -1.77504852414131164551e-01) (273, -2.10636392235755920410e-01) (274, -2.02132463455200195312e-01) (275, -5.05238696932792663574e-02) (276, -2.54927966743707656860e-02) (277, -7.93480426073074340820e-02) (278, -2.78055537492036819458e-02) (279, -5.43013885617256164551e-02) (280, -1.04692876338958740234e-01) (281, 2.13834822177886962891e-01) (282, 7.76242092251777648926e-02) (283, 7.73579180240631103516e-02) (284, 2.50736046582460403442e-02) (285, 8.06857496500015258789e-02) (286, 9.45937335491180419922e-02) (287, 1.64513468742370605469e-01) (288, -1.45444065332412719727e-01) (0, 1.87672346830368041992e-01) (1, 1.31656676530838012695e-01) (2, 2.93328706175088882446e-02) (3, 1.46395862102508544922e-01) (4, 6.00588656961917877197e-02) (5, 1.99462145566940307617e-01) (6, 6.64555281400680541992e-02) (7, 1.56190097332000732422e-01) (8, 1.82890415191650390625e-01) (9, 3.09881586581468582153e-02) (10, 5.41188046336174011230e-02) (11, 1.79597362875938415527e-01) (12, -1.75299748778343200684e-01) (13, 3.44858914613723754883e-02) (14, 2.20925156027078628540e-02) (15, 7.40638822317123413086e-02) (16, 5.23534342646598815918e-02) (17, 1.91568642854690551758e-01) (18, 6.85710906982421875000e-02) (19, 1.93005412817001342773e-01) (20, 1.83763101696968078613e-01) (21, 3.42697054147720336914e-02) (22, 1.08312532305717468262e-01) (23, 1.77597925066947937012e-01) (24, 9.18939039111137390137e-02) (25, 1.65670439600944519043e-01) (26, 1.82671517133712768555e-01) (27, 1.52579650282859802246e-01) (28, 4.02641668915748596191e-02) (29, 1.27184987068176269531e-01) (30, -2.12864413857460021973e-01) (31, 2.07936510443687438965e-01) (32, -2.01158359646797180176e-01) (33, 3.64684611558914184570e-02) (34, 1.34332358837127685547e-01) (35, 7.89005160331726074219e-02) (36, -2.40694154053926467896e-02) (37, 1.80787876248359680176e-01) (38, -2.49094013124704360962e-02) (39, -6.11790046095848083496e-02) (40, 1.91776022315025329590e-01) (41, 4.92094084620475769043e-02) (42, 1.38418361544609069824e-01) (43, 3.64762768149375915527e-02) (44, 6.36953040957450866699e-02) (45, 1.40510872006416320801e-01) (46, 9.05401632189750671387e-02) (47, 9.60487350821495056152e-02) (48, 1.12079508602619171143e-01) (49, 1.39111250638961791992e-01) (50, 6.90541341900825500488e-02) (51, 7.58426040410995483398e-02) (52, 1.53380945324897766113e-01) (53, 1.57366663217544555664e-01) (54, 3.34405153989791870117e-02) (55, 2.52748522907495498657e-02) (56, 1.03037096560001373291e-01) (57, 1.96112036705017089844e-01) (58, 1.57854497432708740234e-01) (59, 1.23301252722740173340e-01) (60, 1.03297010064125061035e-01) (61, 1.64990097284317016602e-01) (62, 1.11237749457359313965e-01) (63, 1.22138656675815582275e-01) (64, 1.81458547711372375488e-01) (65, 2.55700964480638504028e-02) (66, 1.81039169430732727051e-01) (67, 1.77389144897460937500e-01) (68, 1.86357975006103515625e-01) (69, 1.76129758358001708984e-01) (70, 1.36210143566131591797e-01) (71, 1.58133983612060546875e-01) (72, 2.05339178442955017090e-01) (73, 5.46284914016723632812e-02) (74, 1.74610257148742675781e-01) (75, 4.90344613790512084961e-02) (76, 1.75139367580413818359e-01) (77, 4.51504141092300415039e-02) (78, 1.25083193182945251465e-01) (79, 6.72188624739646911621e-02) (80, 1.64261668920516967773e-01) (81, 1.74137324094772338867e-01) (82, 1.23061463236808776855e-01) (83, 9.76426079869270324707e-02) (84, 1.11503973603248596191e-01) (85, 1.36501982808113098145e-01) (86, 1.02917447686195373535e-01) (87, 1.94541066884994506836e-01) (88, 1.12614005804061889648e-01) (89, 4.07719463109970092773e-02) (90, 9.78423133492469787598e-02) (91, 1.95911020040512084961e-01) (92, 1.85762032866477966309e-01) (93, 1.89080059528350830078e-01) (94, 9.80496555566787719727e-02) (95, 1.47220581769943237305e-01) (96, 1.94650158286094665527e-01) (97, 5.90888112783432006836e-02) (98, 1.04609712958335876465e-01) (99, -7.89918974041938781738e-02) (100, 2.15218573808670043945e-01) (101, 2.08198446780443191528e-02) (102, 9.91420894861221313477e-02) (103, 2.00557738542556762695e-01) (104, -1.84551671147346496582e-01) (105, 5.37523478269577026367e-02) (106, 2.95921880751848220825e-02) (107, 2.10587695240974426270e-01) (108, 7.89027586579322814941e-02) (109, 1.34675383567810058594e-01) (110, 5.78065514564514160156e-02) (111, 2.31644157320261001587e-02) (112, 8.88126939535140991211e-02) (113, 1.60868018865585327148e-01) (114, 1.00807018578052520752e-01) (115, 1.80316671729087829590e-01) (116, 7.73699805140495300293e-02) (117, 1.83724462985992431641e-01) (118, 1.54857724905014038086e-01) (119, 1.69983983039855957031e-01) (120, 2.04496398568153381348e-01) (121, 3.27000245451927185059e-02) (122, 1.45894989371299743652e-01) (123, 1.70258432626724243164e-01) (124, 2.01780080795288085938e-01) (125, 2.39446405321359634399e-02) (126, 9.74790006875991821289e-02) (127, 1.76430225372314453125e-01) (128, 6.30334466695785522461e-02) (129, 1.82088702917098999023e-01) (130, 1.17438331246376037598e-01) (131, 5.82520067691802978516e-02) (132, 1.82908549904823303223e-01) (133, 1.96580424904823303223e-01) (134, 3.88097316026687622070e-02) (135, 2.18356877565383911133e-01) (136, 3.03327608853578567505e-02) (137, 4.84019145369529724121e-02) (138, 2.08944573998451232910e-01) (139, 8.92355144023895263672e-02) (140, 1.63077294826507568359e-01) (141, 4.67511117458343505859e-02) (142, 9.23999249935150146484e-02) (143, 3.18899750709533691406e-02) (144, 1.87619119882583618164e-01) (145, 1.73206940293312072754e-01) (146, 1.92206636071205139160e-01) (147, 4.49890941381454467773e-02) (148, 1.36931389570236206055e-01) (149, 1.27064347267150878906e-01) (150, 1.94973081350326538086e-01) (151, 1.21427789330482482910e-01) (152, 1.39764368534088134766e-01) (153, 1.20868057012557983398e-01) (154, 7.16862082481384277344e-02) (155, 1.21544443070888519287e-01) (156, 1.24812692403793334961e-01) (157, 1.49165198206901550293e-01) (158, 7.79746621847152709961e-02) (159, 1.67846128344535827637e-01) (160, 1.11253902316093444824e-01) (161, 1.75412982702255249023e-01) (162, 2.06098139286041259766e-01) (163, 7.41624459624290466309e-02) (164, 1.51993393898010253906e-01) (165, 2.49078590422868728638e-02) (166, 7.25193172693252563477e-02) (167, 1.62326157093048095703e-01) (168, 5.33097684383392333984e-02) (169, 6.14638738334178924561e-02) (170, 3.15616503357887268066e-02) (171, 1.96387052536010742188e-01) (172, 8.82149860262870788574e-02) (173, 1.03961572051048278809e-01) (174, 2.08277031779289245605e-01) (175, 5.58340921998023986816e-02) (176, 5.71684986352920532227e-02) (177, 1.80483654141426086426e-01) (178, 8.08231905102729797363e-02) (179, 1.74099892377853393555e-01) (180, 8.75480026006698608398e-02) (181, 5.57962581515312194824e-02) (182, 7.55276605486869812012e-02) (183, 2.07312375307083129883e-01) (184, 1.56664311885833740234e-01) (185, 1.27213865518569946289e-01) (186, 1.08856812119483947754e-01) (187, 6.14769905805587768555e-02) (188, 5.63790574669837951660e-02) (189, 1.66831463575363159180e-01) (190, 2.09323123097419738770e-01) (191, 1.47632956504821777344e-01) (192, 1.22244447469711303711e-01) (193, 1.95421248674392700195e-01) (194, 2.01795399188995361328e-01) (195, 5.42378351092338562012e-02) (196, 2.00329095125198364258e-01) (197, 5.43146952986717224121e-02) (198, 1.96563988924026489258e-01) (199, 3.36388573050498962402e-02) (200, 9.57785695791244506836e-02) (201, 2.08125635981559753418e-01) (202, 2.10025921463966369629e-01) (203, 1.63993552327156066895e-01) (204, 9.20871943235397338867e-02) (205, 1.98302939534187316895e-01) (206, 1.99827641248703002930e-01) (207, 1.29255697131156921387e-01) (208, -8.12134221196174621582e-02) (209, -1.79349184036254882812e-01) (210, 8.33555683493614196777e-02) (211, -2.13665425777435302734e-01) (212, -1.43552929162979125977e-01) (213, -1.01116783916950225830e-01) (214, 2.13646948337554931641e-01) (215, 3.31113785505294799805e-02) (216, 4.60970848798751831055e-02) (217, -1.37496262788772583008e-01) (218, 7.45883658528327941895e-02) (219, -1.57523870468139648438e-01) (220, 4.93352115154266357422e-02) (221, 6.39114752411842346191e-02) (222, 2.10109084844589233398e-01) (223, 1.51579648256301879883e-01) (224, 3.93327102065086364746e-02) (225, 1.91904470324516296387e-01) (226, 1.85817494988441467285e-01) (227, 2.19661816954612731934e-01) (228, 2.62191686779260635376e-02) (229, 1.62381470203399658203e-01) (230, 3.33006605505943298340e-02) (231, 1.01997733116149902344e-01) (232, 1.50507092475891113281e-01) (233, 2.33265701681375503540e-02) (234, 4.59912791848182678223e-02) (235, 2.25942749530076980591e-02) (236, 2.01629504561424255371e-01) (237, 2.58189160376787185669e-02) (238, 1.31849959492683410645e-01) (239, -9.95839312672615051270e-02) (240, 6.64697363972663879395e-02) (241, 1.95205539464950561523e-01) (242, 1.46750658750534057617e-01) (243, 1.42916798591613769531e-01) (244, 1.14088758826255798340e-01) (245, 1.40397593379020690918e-01) (246, 1.56028181314468383789e-01) (247, 1.40185832977294921875e-01) (248, 2.29013431817293167114e-02) (249, 2.10616543889045715332e-01) (250, 2.02661976218223571777e-01) (251, 5.22365495562553405762e-02) (252, 5.45280054211616516113e-02) (253, 1.92771062254905700684e-01) (254, -5.61838150024414062500e-02) (255, -1.66139289736747741699e-01) (256, -7.53244906663894653320e-02) (257, -9.03663337230682373047e-02) (258, 7.35225155949592590332e-02) (259, 1.70894682407379150391e-01) (260, 9.20151323080062866211e-02) (261, 8.68231803178787231445e-02) (262, -1.87107607722282409668e-01) (263, 2.25222129374742507935e-02) (264, 9.01497378945350646973e-02) (265, -1.61116331815719604492e-01) (266, -2.14883521199226379395e-01) (267, 7.17792361974716186523e-02) (268, 8.47025886178016662598e-02) (269, 1.36966452002525329590e-01) (270, -4.78047057986259460449e-02) (271, 1.31172314286231994629e-01) (272, 1.12171977758407592773e-01) (273, 1.18945956230163574219e-01) (274, 5.40891140699386596680e-02) (275, 2.06260725855827331543e-01) (276, 3.93435433506965637207e-02) (277, 1.90117284655570983887e-01) (278, 1.26446560025215148926e-01) (279, 4.22448813915252685547e-02) (280, 1.80733814835548400879e-01) (281, -1.30891487002372741699e-01) (282, -1.65518581867218017578e-01) (283, -2.47381944209337234497e-02) (284, -1.58120438456535339355e-01) (285, -2.01702401041984558105e-01) (286, -1.70877486467361450195e-01) (287, -2.13444933295249938965e-01) (288, 1.67931288480758666992e-01) (0, 1.22645035386085510254e-01) (1, -6.25502467155456542969e-02) (2, -2.00053602457046508789e-01) (3, -5.05318045616149902344e-02) (4, -2.96578425914049148560e-02) (5, -1.97531387209892272949e-01) (6, -1.80382072925567626953e-01) (7, -1.70774176716804504395e-01) (8, -1.92414909601211547852e-01) (9, -1.28602847456932067871e-01) (10, -1.06071583926677703857e-01) (11, -7.54484608769416809082e-02) (12, 8.35924670100212097168e-02) (13, -1.94899275898933410645e-01) (14, -1.83276504278182983398e-01) (15, -5.74615895748138427734e-02) (16, -1.60810172557830810547e-01) (17, -1.97015777230262756348e-01) (18, -3.81180495023727416992e-02) (19, -1.90692886710166931152e-01) (20, -9.05692204833030700684e-02) (21, -2.15873181819915771484e-01) (22, -2.99590770155191421509e-02) (23, -2.01460704207420349121e-01) (24, -1.61391764879226684570e-01) (25, -3.46972718834877014160e-02) (26, -1.39581143856048583984e-01) (27, -1.43094152212142944336e-01) (28, -1.85574755072593688965e-01) (29, -1.33026063442230224609e-01) (30, 4.48371469974517822266e-02) (31, -8.29297229647636413574e-02) (32, 6.44237101078033447266e-02) (33, -1.75216451287269592285e-01) (34, -1.13461524248123168945e-01) (35, -1.85234144330024719238e-01) (36, 8.72521772980690002441e-02) (37, -7.38435834646224975586e-02) (38, 1.03991709649562835693e-01) (39, 1.14837281405925750732e-01) (40, -1.82446420192718505859e-01) (41, -2.20798794180154800415e-02) (42, -1.80611193180084228516e-01) (43, -1.18853963911533355713e-01) (44, -1.96979150176048278809e-01) (45, -1.43887668848037719727e-01) (46, -1.56315550208091735840e-01) (47, -1.37789309024810791016e-01) (48, -1.20903447270393371582e-01) (49, -1.74433603882789611816e-01) (50, -1.08482189476490020752e-01) (51, -1.91472664475440979004e-01) (52, -1.70306771993637084961e-01) (53, -1.18441261351108551025e-01) (54, -1.72933369874954223633e-01) (55, -1.11698523163795471191e-01) (56, -1.33138522505760192871e-01) (57, -9.25144925713539123535e-02) (58, -3.47926542162895202637e-02) (59, -9.87132713198661804199e-02) (60, -2.05540552735328674316e-01) (61, -2.09955513477325439453e-01) (62, -1.61642998456954956055e-01) (63, -1.61116838455200195312e-01) (64, -1.65171965956687927246e-01) (65, -5.51045089960098266602e-02) (66, -1.26350969076156616211e-01) (67, -9.79197844862937927246e-02) (68, -1.08948089182376861572e-01) (69, -4.23592701554298400879e-02) (70, -2.03082516789436340332e-01) (71, -7.13945105671882629395e-02) (72, -4.44391444325447082520e-02) (73, -1.63693696260452270508e-01) (74, -1.70248463749885559082e-01) (75, -2.14182902127504348755e-02) (76, -8.75813588500022888184e-02) (77, -1.06564007699489593506e-01) (78, -1.39207586646080017090e-01) (79, -1.88484802842140197754e-01) (80, -6.09976015985012054443e-02) (81, -2.76897717267274856567e-02) (82, -1.59957453608512878418e-01) (83, -2.11304366588592529297e-01) (84, -1.26131027936935424805e-01) (85, -1.12890809774398803711e-01) (86, -1.03002883493900299072e-01) (87, -3.92695516347885131836e-02) (88, -1.85405299067497253418e-01) (89, -1.17795534431934356689e-01) (90, -1.17982819676399230957e-01) (91, -1.70945838093757629395e-01) (92, -1.07751049101352691650e-01) (93, -5.96258044242858886719e-02) (94, -1.12062677741050720215e-01) (95, -5.29230013489723205566e-02) (96, -9.47303101420402526855e-02) (97, -2.18413650989532470703e-01) (98, -1.30842790007591247559e-01) (99, 5.63216134905815124512e-02) (100, -4.07728999853134155273e-02) (101, -1.13925293087959289551e-01) (102, -3.50729003548622131348e-02) (103, -6.52120485901832580566e-02) (104, 1.82381033897399902344e-01) (105, -1.85321360826492309570e-01) (106, -6.66303262114524841309e-02) (107, -1.25200331211090087891e-01) (108, -7.18853697180747985840e-02) (109, -1.85837924480438232422e-01) (110, -9.36851277947425842285e-02) (111, -1.12882964313030242920e-01) (112, -1.93527683615684509277e-01) (113, -3.36425751447677612305e-02) (114, -1.04187324643135070801e-01) (115, -9.96587052941322326660e-02) (116, -1.26533389091491699219e-01) (117, -1.87190204858779907227e-01) (118, -1.18928253650665283203e-01) (119, -9.19386744499206542969e-02) (120, -8.49857255816459655762e-02) (121, -2.16911077499389648438e-01) (122, -4.28845062851905822754e-02) (123, -1.72736763954162597656e-01) (124, -5.65368682146072387695e-02) (125, -1.34947180747985839844e-01) (126, -2.05659776926040649414e-01) (127, -1.31267175078392028809e-01) (128, -1.33360818028450012207e-01) (129, -1.16502545773983001709e-01) (130, -9.49455648660659790039e-02) (131, -1.54133722186088562012e-01) (132, -2.10427835583686828613e-01) (133, -1.10018461942672729492e-01) (134, -1.99345752596855163574e-01) (135, -4.80468049645423889160e-02) (136, -7.53398165106773376465e-02) (137, -4.59760725498199462891e-02) (138, -1.53247132897377014160e-01) (139, -1.27225175499916076660e-01) (140, -2.11813986301422119141e-01) (141, -2.69322637468576431274e-02) (142, -2.01081354171037673950e-02) (143, -1.85341671109199523926e-01) (144, -4.05748337507247924805e-02) (145, -1.04295454919338226318e-01) (146, -6.50003626942634582520e-02) (147, -1.47108212113380432129e-01) (148, -7.14856535196304321289e-02) (149, -1.63928613066673278809e-01) (150, -2.19046875834465026855e-01) (151, -1.36471375823020935059e-01) (152, -1.60839676856994628906e-01) (153, -4.19313758611679077148e-02) (154, -8.92081335186958312988e-02) (155, -1.97376534342765808105e-01) (156, -1.56878545880317687988e-01) (157, -7.48678967356681823730e-02) (158, -1.08643703162670135498e-01) (159, -7.02393576502799987793e-02) (160, -1.71370431780815124512e-01) (161, -1.83589264750480651855e-01) (162, -2.04373076558113098145e-01) (163, -1.61798268556594848633e-01) (164, -7.36077204346656799316e-02) (165, -1.83718815445899963379e-01) (166, -1.89845070242881774902e-01) (167, -1.28947526216506958008e-01) (168, -2.09694892168045043945e-01) (169, -1.23092196881771087646e-01) (170, -3.61727029085159301758e-02) (171, -2.01508864760398864746e-01) (172, -1.30024448037147521973e-01) (173, -3.62808331847190856934e-02) (174, -1.66850522160530090332e-01) (175, -1.50599271059036254883e-01) (176, -1.20576284825801849365e-01) (177, -2.11850881576538085938e-01) (178, -7.77074769139289855957e-02) (179, -1.72061935067176818848e-01) (180, -1.55779480934143066406e-01) (181, -7.67543464899063110352e-02) (182, -8.85332971811294555664e-02) (183, -9.66191515326499938965e-02) (184, -9.86857190728187561035e-02) (185, -1.57741427421569824219e-01) (186, -7.39956796169281005859e-02) (187, -3.55642661452293395996e-02) (188, -2.12609320878982543945e-01) (189, -1.62639379501342773438e-01) (190, -8.58036205172538757324e-02) (191, -1.63979753851890563965e-01) (192, -1.26228630542755126953e-01) (193, -7.01766833662986755371e-02) (194, -1.05778001248836517334e-01) (195, -1.79836347699165344238e-01) (196, -3.38954851031303405762e-02) (197, -7.56230577826499938965e-02) (198, -8.87838602066040039062e-02) (199, -2.35903654247522354126e-02) (200, -1.78715243935585021973e-01) (201, -1.04956559836864471436e-01) (202, -2.05099225044250488281e-01) (203, -8.87396931648254394531e-02) (204, -1.21237389743328094482e-01) (205, -1.51949748396873474121e-01) (206, -2.19338968396186828613e-01) (207, -2.18136627227067947388e-02) (208, 9.61993932723999023438e-02) (209, 1.62953585386276245117e-01) (210, -1.73875585198402404785e-01) (211, 1.60419926047325134277e-01) (212, 1.06199234724044799805e-01) (213, 1.97591140866279602051e-01) (214, -1.56199231743812561035e-01) (215, 