FANN_FLO_2.1
num_layers=3
learning_rate=0.700000
connection_rate=1.000000
network_type=0
learning_momentum=0.100000
training_algorithm=2
train_error_function=1
train_stop_function=0
cascade_output_change_fraction=0.010000
quickprop_decay=-0.000100
quickprop_mu=1.750000
rprop_increase_factor=1.200000
rprop_decrease_factor=0.500000
rprop_delta_min=0.000000
rprop_delta_max=50.000000
rprop_delta_zero=0.100000
cascade_output_stagnation_epochs=12
cascade_candidate_change_fraction=0.010000
cascade_candidate_stagnation_epochs=12
cascade_max_out_epochs=150
cascade_min_out_epochs=50
cascade_max_cand_epochs=150
cascade_min_cand_epochs=50
cascade_num_candidate_groups=2
bit_fail_limit=3.49999994039535522461e-01
cascade_candidate_limit=1.00000000000000000000e+03
cascade_weight_multiplier=4.00000005960464477539e-01
cascade_activation_functions_count=10
cascade_activation_functions=3 5 7 8 10 11 14 15 16 17 
cascade_activation_steepnesses_count=4
cascade_activation_steepnesses=2.50000000000000000000e-01 5.00000000000000000000e-01 7.50000000000000000000e-01 1.00000000000000000000e+00 
layer_sizes=289 325 2 
scale_included=0
neurons (num_inputs, activation_function, activation_steepness)=(0, 0, 0.00000000000000000000e+00) (0, 0, 0.00000000000000000000e+00) (0, 0, 0.00000000000000000000e+00) (0, 0, 0.00000000000000000000e+00) (0, 0, 0.00000000000000000000e+00) (0, 0, 0.00000000000000000000e+00) (0, 0, 0.00000000000000000000e+00) (0, 0, 0.00000000000000000000e+00) (0, 0, 0.00000000000000000000e+00) (0, 0, 0.00000000000000000000e+00) (0, 0, 0.00000000000000000000e+00) (0, 0, 0.00000000000000000000e+00) (0, 0, 0.00000000000000000000e+00) (0, 0, 0.00000000000000000000e+00) (0, 0, 0.00000000000000000000e+00) (0, 0, 0.00000000000000000000e+00) (0, 0, 0.00000000000000000000e+00) (0, 0, 0.00000000000000000000e+00) (0, 0, 0.00000000000000000000e+00) (0, 0, 0.00000000000000000000e+00) (0, 0, 0.00000000000000000000e+00) (0, 0, 0.00000000000000000000e+00) (0, 0, 0.00000000000000000000e+00) (0, 0, 0.00000000000000000000e+00) (0, 0, 0.00000000000000000000e+00) (0, 0, 0.00000000000000000000e+00) (0, 0, 0.00000000000000000000e+00) (0, 0, 0.00000000000000000000e+00) (0, 0, 0.00000000000000000000e+00) (0, 0, 0.00000000000000000000e+00) (0, 0, 0.00000000000000000000e+00) (0, 0, 0.00000000000000000000e+00) (0, 0, 0.00000000000000000000e+00) (0, 0, 0.00000000000000000000e+00) (0, 0, 0.00000000000000000000e+00) (0, 0, 0.00000000000000000000e+00) (0, 0, 0.00000000000000000000e+00) (0, 0, 0.00000000000000000000e+00) (0, 0, 0.00000000000000000000e+00) (0, 0, 0.00000000000000000000e+00) (0, 0, 0.00000000000000000000e+00) (0, 0, 0.00000000000000000000e+00) (0, 0, 0.00000000000000000000e+00) (0, 0, 0.00000000000000000000e+00) (0, 0, 0.00000000000000000000e+00) (0, 0, 0.00000000000000000000e+00) (0, 0, 0.00000000000000000000e+00) (0, 0, 0.00000000000000000000e+00) (0, 0, 0.00000000000000000000e+00) (0, 0, 0.00000000000000000000e+00) (0, 0, 0.00000000000000000000e+00) (0, 0, 0.00000000000000000000e+00) (0, 0, 0.00000000000000000000e+00) (0, 0, 0.00000000000000000000e+00) (0, 0, 0.00000000000000000000e+00) (0, 0, 0.00000000000000000000e+00) (0, 0, 0.00000000000000000000e+00) (0, 0, 0.00000000000000000000e+00) (0, 0, 0.00000000000000000000e+00) (0, 0, 0.00000000000000000000e+00) (0, 0, 0.00000000000000000000e+00) (0, 0, 0.00000000000000000000e+00) (0, 0, 0.00000000000000000000e+00) (0, 0, 0.00000000000000000000e+00) (0, 0, 0.00000000000000000000e+00) (0, 0, 0.00000000000000000000e+00) (0, 0, 0.00000000000000000000e+00) (0, 0, 0.00000000000000000000e+00) (0, 0, 0.00000000000000000000e+00) (0, 0, 0.00000000000000000000e+00) (0, 0, 0.00000000000000000000e+00) (0, 0, 0.00000000000000000000e+00) (0, 0, 0.00000000000000000000e+00) (0, 0, 0.00000000000000000000e+00) (0, 0, 0.00000000000000000000e+00) (0, 0, 0.00000000000000000000e+00) (0, 0, 0.00000000000000000000e+00) (0, 0, 0.00000000000000000000e+00) (0, 0, 0.00000000000000000000e+00) (0, 0, 0.00000000000000000000e+00) (0, 0, 0.00000000000000000000e+00) (0, 0, 0.00000000000000000000e+00) (0, 0, 0.00000000000000000000e+00) (0, 0, 0.00000000000000000000e+00) (0, 0, 0.00000000000000000000e+00) (0, 0, 0.00000000000000000000e+00) (0, 0, 0.00000000000000000000e+00) (0, 0, 0.00000000000000000000e+00) (0, 0, 0.00000000000000000000e+00) (0, 0, 0.00000000000000000000e+00) (0, 0, 0.00000000000000000000e+00) (0, 0, 0.00000000000000000000e+00) (0, 0, 0.00000000000000000000e+00) (0, 0, 0.00000000000000000000e+00) (0, 0, 0.00000000000000000000e+00) (0, 0, 0.00000000000000000000e+00) (0, 0, 0.00000000000000000000e+00) (0, 0, 0.00000000000000000000e+00) (0, 0, 0.00000000000000000000e+00) (0, 0, 0.00000000000000000000e+00) (0, 0, 0.00000000000000000000e+00) (0, 0, 0.00000000000000000000e+00) (0, 0, 0.00000000000000000000e+00) (0, 0, 0.00000000000000000000e+00) (0, 0, 0.00000000000000000000e+00) (0, 0, 0.00000000000000000000e+00) (0, 0, 0.00000000000000000000e+00) (0, 0, 0.00000000000000000000e+00) (0, 0, 0.00000000000000000000e+00) (0, 0, 0.00000000000000000000e+00) (0, 0, 0.00000000000000000000e+00) (0, 0, 0.00000000000000000000e+00) (0, 0, 0.00000000000000000000e+00) (0, 0, 0.00000000000000000000e+00) (0, 0, 0.00000000000000000000e+00) (0, 0, 0.00000000000000000000e+00) (0, 0, 0.00000000000000000000e+00) (0, 0, 0.00000000000000000000e+00) (0, 0, 0.00000000000000000000e+00) (0, 0, 0.00000000000000000000e+00) (0, 0, 0.00000000000000000000e+00) (0, 0, 0.00000000000000000000e+00) (0, 0, 0.00000000000000000000e+00) (0, 0, 0.00000000000000000000e+00) (0, 0, 0.00000000000000000000e+00) (0, 0, 0.00000000000000000000e+00) (0, 0, 0.00000000000000000000e+00) (0, 0, 0.00000000000000000000e+00) (0, 0, 0.00000000000000000000e+00) (0, 0, 0.00000000000000000000e+00) (0, 0, 0.00000000000000000000e+00) (0, 0, 0.00000000000000000000e+00) (0, 0, 0.00000000000000000000e+00) (0, 0, 0.00000000000000000000e+00) (0, 0, 0.00000000000000000000e+00) (0, 0, 0.00000000000000000000e+00) (0, 0, 0.00000000000000000000e+00) (0, 0, 0.00000000000000000000e+00) (0, 0, 0.00000000000000000000e+00) (0, 0, 0.00000000000000000000e+00) (0, 0, 0.00000000000000000000e+00) (0, 0, 0.00000000000000000000e+00) (0, 0, 0.00000000000000000000e+00) (0, 0, 0.00000000000000000000e+00) (0, 0, 0.00000000000000000000e+00) (0, 0, 0.00000000000000000000e+00) (0, 0, 0.00000000000000000000e+00) (0, 0, 0.00000000000000000000e+00) (0, 0, 0.00000000000000000000e+00) (0, 0, 0.00000000000000000000e+00) (0, 0, 0.00000000000000000000e+00) (0, 0, 0.00000000000000000000e+00) (0, 0, 0.00000000000000000000e+00) (0, 0, 0.00000000000000000000e+00) (0, 0, 0.00000000000000000000e+00) (0, 0, 0.00000000000000000000e+00) (0, 0, 0.00000000000000000000e+00) (0, 0, 0.00000000000000000000e+00) (0, 0, 0.00000000000000000000e+00) (0, 0, 0.00000000000000000000e+00) (0, 0, 0.00000000000000000000e+00) (0, 0, 0.00000000000000000000e+00) (0, 0, 0.00000000000000000000e+00) (0, 0, 0.00000000000000000000e+00) (0, 0, 0.00000000000000000000e+00) (0, 0, 0.00000000000000000000e+00) (0, 0, 0.00000000000000000000e+00) (0, 0, 0.00000000000000000000e+00) (0, 0, 0.00000000000000000000e+00) (0, 0, 0.00000000000000000000e+00) (0, 0, 0.00000000000000000000e+00) (0, 0, 0.00000000000000000000e+00) (0, 0, 0.00000000000000000000e+00) (0, 0, 0.00000000000000000000e+00) (0, 0, 0.00000000000000000000e+00) (0, 0, 0.00000000000000000000e+00) (0, 0, 0.00000000000000000000e+00) (0, 0, 0.00000000000000000000e+00) (0, 0, 0.00000000000000000000e+00) (0, 0, 0.00000000000000000000e+00) (0, 0, 0.00000000000000000000e+00) (0, 0, 0.00000000000000000000e+00) (0, 0, 0.00000000000000000000e+00) (0, 0, 0.00000000000000000000e+00) (0, 0, 0.00000000000000000000e+00) (0, 0, 0.00000000000000000000e+00) (0, 0, 0.00000000000000000000e+00) (0, 0, 0.00000000000000000000e+00) (0, 0, 0.00000000000000000000e+00) (0, 0, 0.00000000000000000000e+00) (0, 0, 0.00000000000000000000e+00) (0, 0, 0.00000000000000000000e+00) (0, 0, 0.00000000000000000000e+00) (0, 0, 0.00000000000000000000e+00) (0, 0, 0.00000000000000000000e+00) (0, 0, 0.00000000000000000000e+00) (0, 0, 0.00000000000000000000e+00) (0, 0, 0.00000000000000000000e+00) (0, 0, 0.00000000000000000000e+00) (0, 0, 0.00000000000000000000e+00) (0, 0, 0.00000000000000000000e+00) (0, 0, 0.00000000000000000000e+00) (0, 0, 0.00000000000000000000e+00) (0, 0, 0.00000000000000000000e+00) (0, 0, 0.00000000000000000000e+00) (0, 0, 0.00000000000000000000e+00) (0, 0, 0.00000000000000000000e+00) (0, 0, 0.00000000000000000000e+00) (0, 0, 0.00000000000000000000e+00) (0, 0, 0.00000000000000000000e+00) (0, 0, 0.00000000000000000000e+00) (0, 0, 0.00000000000000000000e+00) (0, 0, 0.00000000000000000000e+00) (0, 0, 0.00000000000000000000e+00) (0, 0, 0.00000000000000000000e+00) (0, 0, 0.00000000000000000000e+00) (0, 0, 0.00000000000000000000e+00) (0, 0, 0.00000000000000000000e+00) (0, 0, 0.00000000000000000000e+00) (0, 0, 0.00000000000000000000e+00) (0, 0, 0.00000000000000000000e+00) (0, 0, 0.00000000000000000000e+00) (0, 0, 0.00000000000000000000e+00) (0, 0, 0.00000000000000000000e+00) (0, 0, 0.00000000000000000000e+00) (0, 0, 0.00000000000000000000e+00) (0, 0, 0.00000000000000000000e+00) (0, 0, 0.00000000000000000000e+00) (0, 0, 0.00000000000000000000e+00) (0, 0, 0.00000000000000000000e+00) (0, 0, 0.00000000000000000000e+00) (0, 0, 0.00000000000000000000e+00) (0, 0, 0.00000000000000000000e+00) (0, 0, 0.00000000000000000000e+00) (0, 0, 0.00000000000000000000e+00) (0, 0, 0.00000000000000000000e+00) (0, 0, 0.00000000000000000000e+00) (0, 0, 0.00000000000000000000e+00) (0, 0, 0.00000000000000000000e+00) (0, 0, 0.00000000000000000000e+00) (0, 0, 0.00000000000000000000e+00) (0, 0, 0.00000000000000000000e+00) (0, 0, 0.00000000000000000000e+00) (0, 0, 0.00000000000000000000e+00) (0, 0, 0.00000000000000000000e+00) (0, 0, 0.00000000000000000000e+00) (0, 0, 0.00000000000000000000e+00) (0, 0, 0.00000000000000000000e+00) (0, 0, 0.00000000000000000000e+00) (0, 0, 0.00000000000000000000e+00) (0, 0, 0.00000000000000000000e+00) (0, 0, 0.00000000000000000000e+00) (0, 0, 0.00000000000000000000e+00) (0, 0, 0.00000000000000000000e+00) (0, 0, 0.00000000000000000000e+00) (0, 0, 0.00000000000000000000e+00) (0, 0, 0.00000000000000000000e+00) (0, 0, 0.00000000000000000000e+00) (0, 0, 0.00000000000000000000e+00) (0, 0, 0.00000000000000000000e+00) (0, 0, 0.00000000000000000000e+00) (0, 0, 0.00000000000000000000e+00) (0, 0, 0.00000000000000000000e+00) (0, 0, 0.00000000000000000000e+00) (0, 0, 0.00000000000000000000e+00) (0, 0, 0.00000000000000000000e+00) (0, 0, 0.00000000000000000000e+00) (0, 0, 0.00000000000000000000e+00) (0, 0, 0.00000000000000000000e+00) (0, 0, 0.00000000000000000000e+00) (0, 0, 0.00000000000000000000e+00) (0, 0, 0.00000000000000000000e+00) (0, 0, 0.00000000000000000000e+00) (0, 0, 0.00000000000000000000e+00) (0, 0, 0.00000000000000000000e+00) (0, 0, 0.00000000000000000000e+00) (0, 0, 0.00000000000000000000e+00) (0, 0, 0.00000000000000000000e+00) (0, 0, 0.00000000000000000000e+00) (0, 0, 0.00000000000000000000e+00) (0, 0, 0.00000000000000000000e+00) (0, 0, 0.00000000000000000000e+00) (0, 0, 0.00000000000000000000e+00) (0, 0, 0.00000000000000000000e+00) (0, 0, 0.00000000000000000000e+00) (0, 0, 0.00000000000000000000e+00) (0, 0, 0.00000000000000000000e+00) (0, 0, 0.00000000000000000000e+00) (0, 0, 0.00000000000000000000e+00) (289, 5, 5.00000000000000000000e-01) (289, 5, 5.00000000000000000000e-01) (289, 5, 5.00000000000000000000e-01) (289, 5, 5.00000000000000000000e-01) (289, 5, 5.00000000000000000000e-01) (289, 5, 5.00000000000000000000e-01) (289, 5, 5.00000000000000000000e-01) (289, 5, 5.00000000000000000000e-01) (289, 5, 5.00000000000000000000e-01) (289, 5, 5.00000000000000000000e-01) (289, 5, 5.00000000000000000000e-01) (289, 5, 5.00000000000000000000e-01) (289, 5, 5.00000000000000000000e-01) (289, 5, 5.00000000000000000000e-01) (289, 5, 5.00000000000000000000e-01) (289, 5, 5.00000000000000000000e-01) (289, 5, 5.00000000000000000000e-01) (289, 5, 5.00000000000000000000e-01) (289, 5, 5.00000000000000000000e-01) (289, 5, 5.00000000000000000000e-01) (289, 5, 5.00000000000000000000e-01) (289, 5, 5.00000000000000000000e-01) (289, 5, 5.00000000000000000000e-01) (289, 5, 5.00000000000000000000e-01) (289, 5, 5.00000000000000000000e-01) (289, 5, 5.00000000000000000000e-01) (289, 5, 5.00000000000000000000e-01) (289, 5, 5.00000000000000000000e-01) (289, 5, 5.00000000000000000000e-01) (289, 5, 5.00000000000000000000e-01) (289, 5, 5.00000000000000000000e-01) (289, 5, 5.00000000000000000000e-01) (289, 5, 5.00000000000000000000e-01) (289, 5, 5.00000000000000000000e-01) (289, 5, 5.00000000000000000000e-01) (289, 5, 5.00000000000000000000e-01) (289, 5, 5.00000000000000000000e-01) (289, 5, 5.00000000000000000000e-01) (289, 5, 5.00000000000000000000e-01) (289, 5, 5.00000000000000000000e-01) (289, 5, 5.00000000000000000000e-01) (289, 5, 5.00000000000000000000e-01) (289, 5, 5.00000000000000000000e-01) (289, 5, 5.00000000000000000000e-01) (289, 5, 5.00000000000000000000e-01) (289, 5, 5.00000000000000000000e-01) (289, 5, 5.00000000000000000000e-01) (289, 5, 5.00000000000000000000e-01) (289, 5, 5.00000000000000000000e-01) (289, 5, 5.00000000000000000000e-01) (289, 5, 5.00000000000000000000e-01) (289, 5, 5.00000000000000000000e-01) (289, 5, 5.00000000000000000000e-01) (289, 5, 5.00000000000000000000e-01) (289, 5, 5.00000000000000000000e-01) (289, 5, 5.00000000000000000000e-01) (289, 5, 5.00000000000000000000e-01) (289, 5, 5.00000000000000000000e-01) (289, 5, 5.00000000000000000000e-01) (289, 5, 5.00000000000000000000e-01) (289, 5, 5.00000000000000000000e-01) (289, 5, 5.00000000000000000000e-01) (289, 5, 5.00000000000000000000e-01) (289, 5, 5.00000000000000000000e-01) (289, 5, 5.00000000000000000000e-01) (289, 5, 5.00000000000000000000e-01) (289, 5, 5.00000000000000000000e-01) (289, 5, 5.00000000000000000000e-01) (289, 5, 5.00000000000000000000e-01) (289, 5, 5.00000000000000000000e-01) (289, 5, 5.00000000000000000000e-01) (289, 5, 5.00000000000000000000e-01) (289, 5, 5.00000000000000000000e-01) (289, 5, 5.00000000000000000000e-01) (289, 5, 5.00000000000000000000e-01) (289, 5, 5.00000000000000000000e-01) (289, 5, 5.00000000000000000000e-01) (289, 5, 5.00000000000000000000e-01) (289, 5, 5.00000000000000000000e-01) (289, 5, 5.00000000000000000000e-01) (289, 5, 5.00000000000000000000e-01) (289, 5, 5.00000000000000000000e-01) (289, 5, 5.00000000000000000000e-01) (289, 5, 5.00000000000000000000e-01) (289, 5, 5.00000000000000000000e-01) (289, 5, 5.00000000000000000000e-01) (289, 5, 5.00000000000000000000e-01) (289, 5, 5.00000000000000000000e-01) (289, 5, 5.00000000000000000000e-01) (289, 5, 5.00000000000000000000e-01) (289, 5, 5.00000000000000000000e-01) (289, 5, 5.00000000000000000000e-01) (289, 5, 5.00000000000000000000e-01) (289, 5, 5.00000000000000000000e-01) (289, 5, 5.00000000000000000000e-01) (289, 5, 5.00000000000000000000e-01) (289, 5, 5.00000000000000000000e-01) (289, 5, 5.00000000000000000000e-01) (289, 5, 5.00000000000000000000e-01) (289, 5, 5.00000000000000000000e-01) (289, 5, 5.00000000000000000000e-01) (289, 5, 5.00000000000000000000e-01) (289, 5, 5.00000000000000000000e-01) (289, 5, 5.00000000000000000000e-01) (289, 5, 5.00000000000000000000e-01) (289, 5, 5.00000000000000000000e-01) (289, 5, 5.00000000000000000000e-01) (289, 5, 5.00000000000000000000e-01) (289, 5, 5.00000000000000000000e-01) (289, 5, 5.00000000000000000000e-01) (289, 5, 5.00000000000000000000e-01) (289, 5, 5.00000000000000000000e-01) (289, 5, 5.00000000000000000000e-01) (289, 5, 5.00000000000000000000e-01) (289, 5, 5.00000000000000000000e-01) (289, 5, 5.00000000000000000000e-01) (289, 5, 5.00000000000000000000e-01) (289, 5, 5.00000000000000000000e-01) (289, 5, 5.00000000000000000000e-01) (289, 5, 5.00000000000000000000e-01) (289, 5, 5.00000000000000000000e-01) (289, 5, 5.00000000000000000000e-01) (289, 5, 5.00000000000000000000e-01) (289, 5, 5.00000000000000000000e-01) (289, 5, 5.00000000000000000000e-01) (289, 5, 5.00000000000000000000e-01) (289, 5, 5.00000000000000000000e-01) (289, 5, 5.00000000000000000000e-01) (289, 5, 5.00000000000000000000e-01) (289, 5, 5.00000000000000000000e-01) (289, 5, 5.00000000000000000000e-01) (289, 5, 5.00000000000000000000e-01) (289, 5, 5.00000000000000000000e-01) (289, 5, 5.00000000000000000000e-01) (289, 5, 5.00000000000000000000e-01) (289, 5, 5.00000000000000000000e-01) (289, 5, 5.00000000000000000000e-01) (289, 5, 5.00000000000000000000e-01) (289, 5, 5.00000000000000000000e-01) (289, 5, 5.00000000000000000000e-01) (289, 5, 5.00000000000000000000e-01) (289, 5, 5.00000000000000000000e-01) (289, 5, 5.00000000000000000000e-01) (289, 5, 5.00000000000000000000e-01) (289, 5, 5.00000000000000000000e-01) (289, 5, 5.00000000000000000000e-01) (289, 5, 5.00000000000000000000e-01) (289, 5, 5.00000000000000000000e-01) (289, 5, 5.00000000000000000000e-01) (289, 5, 5.00000000000000000000e-01) (289, 5, 5.00000000000000000000e-01) (289, 5, 5.00000000000000000000e-01) (289, 5, 5.00000000000000000000e-01) (289, 5, 5.00000000000000000000e-01) (289, 5, 5.00000000000000000000e-01) (289, 5, 5.00000000000000000000e-01) (289, 5, 5.00000000000000000000e-01) (289, 5, 5.00000000000000000000e-01) (289, 5, 5.00000000000000000000e-01) (289, 5, 5.00000000000000000000e-01) (289, 5, 5.00000000000000000000e-01) (289, 5, 5.00000000000000000000e-01) (289, 5, 5.00000000000000000000e-01) (289, 5, 5.00000000000000000000e-01) (289, 5, 5.00000000000000000000e-01) (289, 5, 5.00000000000000000000e-01) (289, 5, 5.00000000000000000000e-01) (289, 5, 5.00000000000000000000e-01) (289, 5, 5.00000000000000000000e-01) (289, 5, 5.00000000000000000000e-01) (289, 5, 5.00000000000000000000e-01) (289, 5, 5.00000000000000000000e-01) (289, 5, 5.00000000000000000000e-01) (289, 5, 5.00000000000000000000e-01) (289, 5, 5.00000000000000000000e-01) (289, 5, 5.00000000000000000000e-01) (289, 5, 5.00000000000000000000e-01) (289, 5, 5.00000000000000000000e-01) (289, 5, 5.00000000000000000000e-01) (289, 5, 5.00000000000000000000e-01) (289, 5, 5.00000000000000000000e-01) (289, 5, 5.00000000000000000000e-01) (289, 5, 5.00000000000000000000e-01) (289, 5, 5.00000000000000000000e-01) (289, 5, 5.00000000000000000000e-01) (289, 5, 5.00000000000000000000e-01) (289, 5, 5.00000000000000000000e-01) (289, 5, 5.00000000000000000000e-01) (289, 5, 5.00000000000000000000e-01) (289, 5, 5.00000000000000000000e-01) (289, 5, 5.00000000000000000000e-01) (289, 5, 5.00000000000000000000e-01) (289, 5, 5.00000000000000000000e-01) (289, 5, 5.00000000000000000000e-01) (289, 5, 5.00000000000000000000e-01) (289, 5, 5.00000000000000000000e-01) (289, 5, 5.00000000000000000000e-01) (289, 5, 5.00000000000000000000e-01) (289, 5, 5.00000000000000000000e-01) (289, 5, 5.00000000000000000000e-01) (289, 5, 5.00000000000000000000e-01) (289, 5, 5.00000000000000000000e-01) (289, 5, 5.00000000000000000000e-01) (289, 5, 5.00000000000000000000e-01) (289, 5, 5.00000000000000000000e-01) (289, 5, 5.00000000000000000000e-01) (289, 5, 5.00000000000000000000e-01) (289, 5, 5.00000000000000000000e-01) (289, 5, 5.00000000000000000000e-01) (289, 5, 5.00000000000000000000e-01) (289, 5, 5.00000000000000000000e-01) (289, 5, 5.00000000000000000000e-01) (289, 5, 5.00000000000000000000e-01) (289, 5, 5.00000000000000000000e-01) (289, 5, 5.00000000000000000000e-01) (289, 5, 5.00000000000000000000e-01) (289, 5, 5.00000000000000000000e-01) (289, 5, 5.00000000000000000000e-01) (289, 5, 5.00000000000000000000e-01) (289, 5, 5.00000000000000000000e-01) (289, 5, 5.00000000000000000000e-01) (289, 5, 5.00000000000000000000e-01) (289, 5, 5.00000000000000000000e-01) (289, 5, 5.00000000000000000000e-01) (289, 5, 5.00000000000000000000e-01) (289, 5, 5.00000000000000000000e-01) (289, 5, 5.00000000000000000000e-01) (289, 5, 5.00000000000000000000e-01) (289, 5, 5.00000000000000000000e-01) (289, 5, 5.00000000000000000000e-01) (289, 5, 5.00000000000000000000e-01) (289, 5, 5.00000000000000000000e-01) (289, 5, 5.00000000000000000000e-01) (289, 5, 5.00000000000000000000e-01) (289, 5, 5.00000000000000000000e-01) (289, 5, 5.00000000000000000000e-01) (289, 5, 5.00000000000000000000e-01) (289, 5, 5.00000000000000000000e-01) (289, 5, 5.00000000000000000000e-01) (289, 5, 5.00000000000000000000e-01) (289, 5, 5.00000000000000000000e-01) (289, 5, 5.00000000000000000000e-01) (289, 5, 5.00000000000000000000e-01) (289, 5, 5.00000000000000000000e-01) (289, 5, 5.00000000000000000000e-01) (289, 5, 5.00000000000000000000e-01) (289, 5, 5.00000000000000000000e-01) (289, 5, 5.00000000000000000000e-01) (289, 5, 5.00000000000000000000e-01) (289, 5, 5.00000000000000000000e-01) (289, 5, 5.00000000000000000000e-01) (289, 5, 5.00000000000000000000e-01) (289, 5, 5.00000000000000000000e-01) (289, 5, 5.00000000000000000000e-01) (289, 5, 5.00000000000000000000e-01) (289, 5, 5.00000000000000000000e-01) (289, 5, 5.00000000000000000000e-01) (289, 5, 5.00000000000000000000e-01) (289, 5, 5.00000000000000000000e-01) (289, 5, 5.00000000000000000000e-01) (289, 5, 5.00000000000000000000e-01) (289, 5, 5.00000000000000000000e-01) (289, 5, 5.00000000000000000000e-01) (289, 5, 5.00000000000000000000e-01) (289, 5, 5.00000000000000000000e-01) (289, 5, 5.00000000000000000000e-01) (289, 5, 5.00000000000000000000e-01) (289, 5, 5.00000000000000000000e-01) (289, 5, 5.00000000000000000000e-01) (289, 5, 5.00000000000000000000e-01) (289, 5, 5.00000000000000000000e-01) (289, 5, 5.00000000000000000000e-01) (289, 5, 5.00000000000000000000e-01) (289, 5, 5.00000000000000000000e-01) (289, 5, 5.00000000000000000000e-01) (289, 5, 5.00000000000000000000e-01) (289, 5, 5.00000000000000000000e-01) (289, 5, 5.00000000000000000000e-01) (289, 5, 5.00000000000000000000e-01) (289, 5, 5.00000000000000000000e-01) (289, 5, 5.00000000000000000000e-01) (289, 5, 5.00000000000000000000e-01) (289, 5, 5.00000000000000000000e-01) (289, 5, 5.00000000000000000000e-01) (289, 5, 5.00000000000000000000e-01) (289, 5, 5.00000000000000000000e-01) (289, 5, 5.00000000000000000000e-01) (289, 5, 5.00000000000000000000e-01) (289, 5, 5.00000000000000000000e-01) (289, 5, 5.00000000000000000000e-01) (289, 5, 5.00000000000000000000e-01) (289, 5, 5.00000000000000000000e-01) (289, 5, 5.00000000000000000000e-01) (289, 5, 5.00000000000000000000e-01) (289, 5, 5.00000000000000000000e-01) (289, 5, 5.00000000000000000000e-01) (289, 5, 5.00000000000000000000e-01) (289, 5, 5.00000000000000000000e-01) (289, 5, 5.00000000000000000000e-01) (289, 5, 5.00000000000000000000e-01) (289, 5, 5.00000000000000000000e-01) (289, 5, 5.00000000000000000000e-01) (289, 5, 5.00000000000000000000e-01) (289, 5, 5.00000000000000000000e-01) (289, 5, 5.00000000000000000000e-01) (289, 5, 5.00000000000000000000e-01) (289, 5, 5.00000000000000000000e-01) (289, 5, 5.00000000000000000000e-01) (289, 5, 5.00000000000000000000e-01) (289, 5, 5.00000000000000000000e-01) (289, 5, 5.00000000000000000000e-01) (289, 5, 5.00000000000000000000e-01) (289, 5, 5.00000000000000000000e-01) (289, 5, 5.00000000000000000000e-01) (289, 5, 5.00000000000000000000e-01) (289, 5, 5.00000000000000000000e-01) (289, 5, 5.00000000000000000000e-01) (289, 5, 5.00000000000000000000e-01) (289, 5, 5.00000000000000000000e-01) (289, 5, 5.00000000000000000000e-01) (289, 5, 5.00000000000000000000e-01) (289, 5, 5.00000000000000000000e-01) (289, 5, 5.00000000000000000000e-01) (289, 5, 5.00000000000000000000e-01) (0, 5, 0.00000000000000000000e+00) (325, 5, 5.00000000000000000000e-01) (0, 5, 0.00000000000000000000e+00) 
connections (connected_to_neuron, weight)=(0, 1.50000000000000000000e+03) (1, 4.85825210809707641602e-01) (2, -2.65516996383666992188e-01) (3, -3.76648336648941040039e-01) (4, -2.59726613759994506836e-01) (5, 3.98673981428146362305e-01) (6, -3.95506292581558227539e-01) (7, 3.89785498380661010742e-01) (8, -3.75175744295120239258e-01) (9, 3.73584449291229248047e-01) (10, 3.84297609329223632812e-01) (11, -2.48128369450569152832e-01) (12, 4.21995729207992553711e-01) (13, 5.32039403915405273438e-01) (14, 5.10568976402282714844e-01) (15, -3.68176728487014770508e-01) (16, -2.61919260025024414062e-01) (17, 4.78509783744812011719e-01) (18, 3.89502525329589843750e-01) (19, 5.54914295673370361328e-01) (20, 4.50857579708099365234e-01) (21, 4.00901645421981811523e-01) (22, 4.25797015428543090820e-01) (23, 3.99843126535415649414e-01) (24, 3.83313566446304321289e-01) (25, 5.19736409187316894531e-01) (26, 4.30333882570266723633e-01) (27, 3.80554467439651489258e-01) (28, 4.09782737493515014648e-01) (29, -4.02885437011718750000e-01) (30, 4.30117279291152954102e-01) (31, -3.54704827070236206055e-01) (32, -2.81736582517623901367e-01) (33, -3.84596109390258789062e-01) (34, 4.47496056556701660156e-01) (35, 4.29898589849472045898e-01) (36, -3.67816120386123657227e-01) (37, -2.50400245189666748047e-01) (38, -3.06463450193405151367e-01) (39, -3.45439404249191284180e-01) (40, -2.92692840099334716797e-01) (41, 4.71725851297378540039e-01) (42, -4.00357097387313842773e-01) (43, -2.20201641321182250977e-01) (44, -3.33911925554275512695e-01) (45, 5.31380116939544677734e-01) (46, -3.93573373556137084961e-01) (47, -3.91345471143722534180e-01) (48, -3.51957350969314575195e-01) (49, 4.05244499444961547852e-01) (50, 3.79111617803573608398e-01) (51, 5.06497085094451904297e-01) (52, -2.70477235317230224609e-01) (53, -3.23661923408508300781e-01) (54, -2.17378601431846618652e-01) (55, 4.50872033834457397461e-01) (56, 4.04595047235488891602e-01) (57, 4.06137198209762573242e-01) (58, 4.63816642761230468750e-01) (59, 4.40798223018646240234e-01) (60, 4.14111644029617309570e-01) (61, 5.23833990097045898438e-01) (62, 5.01439034938812255859e-01) (63, 5.28192162513732910156e-01) (64, -2.18838781118392944336e-01) (65, 3.77477258443832397461e-01) (66, 3.96056443452835083008e-01) (67, -3.75366151332855224609e-01) (68, 4.87715780735015869141e-01) (69, -2.86479979753494262695e-01) (70, -3.21421384811401367188e-01) (71, -3.60246568918228149414e-01) (72, 3.98300111293792724609e-01) (73, 4.50830191373825073242e-01) (74, -3.88944149017333984375e-01) (75, -2.64594405889511108398e-01) (76, 4.03436690568923950195e-01) (77, 4.18266415596008300781e-01) (78, 4.96083408594131469727e-01) (79, 4.65307384729385375977e-01) (80, 4.40895318984985351562e-01) (81, 5.16171395778656005859e-01) (82, 4.17251050472259521484e-01) (83, 5.20601570606231689453e-01) (84, 3.91893237829208374023e-01) (85, 3.98630440235137939453e-01) (86, 4.00332063436508178711e-01) (87, 4.26022410392761230469e-01) (88, 4.44332242012023925781e-01) (89, 5.02924621105194091797e-01) (90, -2.53313511610031127930e-01) (91, 4.89390641450881958008e-01) (92, 4.63432610034942626953e-01) (93, 4.43486124277114868164e-01) (94, 4.55218940973281860352e-01) (95, 4.66791450977325439453e-01) (96, 4.57820981740951538086e-01) (97, -2.84995764493942260742e-01) (98, -2.98768907785415649414e-01) (99, -3.81031781435012817383e-01) (100, -3.78956377506256103516e-01) (101, -2.27935761213302612305e-01) (102, -3.37097942829132080078e-01) (103, -3.30579131841659545898e-01) (104, -3.16607683897018432617e-01) (105, 4.48246121406555175781e-01) (106, -2.23342388868331909180e-01) (107, -2.74500906467437744141e-01) (108, -2.72183239459991455078e-01) (109, -3.08881103992462158203e-01) (110, 3.90292942523956298828e-01) (111, -3.87810081243515014648e-01) (112, -3.55154126882553100586e-01) (113, 4.13023680448532104492e-01) (114, -2.37175971269607543945e-01) (115, -3.13457369804382324219e-01) (116, 4.75977718830108642578e-01) (117, -4.07646059989929199219e-01) (118, 5.17060458660125732422e-01) (119, -2.18557357788085937500e-01) (120, -2.77165770530700683594e-01) (121, 4.63252663612365722656e-01) (122, -2.91542381048202514648e-01) (123, 4.09236490726470947266e-01) (124, 5.47378182411193847656e-01) (125, 5.48893868923187255859e-01) (126, -2.37864494323730468750e-01) (127, 4.28193062543869018555e-01) (128, -2.91212916374206542969e-01) (129, 3.93289685249328613281e-01) (130, 4.45635259151458740234e-01) (131, 5.15960335731506347656e-01) (132, 3.94309639930725097656e-01) (133, 5.12176692485809326172e-01) (134, 3.77732723951339721680e-01) (135, 4.61782485246658325195e-01) (136, 4.07503575086593627930e-01) (137, 5.59880852699279785156e-01) (138, 3.91031861305236816406e-01) (139, 5.40439963340759277344e-01) (140, 4.66174840927124023438e-01) (141, -3.57596486806869506836e-01) (142, 5.52142858505249023438e-01) (143, -2.31975123286247253418e-01) (144, 5.02702176570892333984e-01) (145, 5.19258916378021240234e-01) (146, -3.63308787345886230469e-01) (147, -3.39969784021377563477e-01) (148, -2.45066195726394653320e-01) (149, -4.01043534278869628906e-01) (150, -3.73228549957275390625e-01) (151, -3.03762882947921752930e-01) (152, -2.96228498220443725586e-01) (153, -2.70705014467239379883e-01) (154, -2.84468352794647216797e-01) (155, -3.16697299480438232422e-01) (156, -2.81354993581771850586e-01) (157, -3.46848040819168090820e-01) (158, -2.40258231759071350098e-01) (159, -3.79846304655075073242e-01) (160, -3.24854493141174316406e-01) (161, 4.16667252779006958008e-01) (162, -2.12143108248710632324e-01) (163, 4.78484719991683959961e-01) (164, 5.64753293991088867188e-01) (165, 3.69933068752288818359e-01) (166, -3.77762913703918457031e-01) (167, -3.71082663536071777344e-01) (168, 5.51841676235198974609e-01) (169, -3.47339063882827758789e-01) (170, -3.78124505281448364258e-01) (171, 4.61668819189071655273e-01) (172, 4.77403014898300170898e-01) (173, -2.09979966282844543457e-01) (174, -3.51326018571853637695e-01) (175, -3.61086517572402954102e-01) (176, -2.77439296245574951172e-01) (177, -3.10179114341735839844e-01) (178, 4.64283585548400878906e-01) (179, 4.55170750617980957031e-01) (180, 4.72489953041076660156e-01) (181, 4.92551386356353759766e-01) (182, 5.42134821414947509766e-01) (183, 3.88570666313171386719e-01) (184, -3.17931085824966430664e-01) (185, -2.91892319917678833008e-01) (186, 4.72438007593154907227e-01) (187, 5.42964220046997070312e-01) (188, 5.49286901950836181641e-01) (189, -3.36015552282333374023e-01) (190, 3.82632851600646972656e-01) (191, 4.33576822280883789062e-01) (192, -2.86214351654052734375e-01) (193, -4.94281500577926635742e-01) (194, -2.03803271055221557617e-01) (195, -3.01102191209793090820e-01) (196, 3.71833384037017822266e-01) (197, 3.88484805822372436523e-01) (198, 5.07873177528381347656e-01) (199, 3.68552863597869873047e-01) (200, 4.46778297424316406250e-01) (201, 5.05346953868865966797e-01) (202, 4.62626367807388305664e-01) (203, 5.61310410499572753906e-01) (204, -2.65335679054260253906e-01) (205, 5.18339991569519042969e-01) (206, -3.57853651046752929688e-01) (207, -3.42236548662185668945e-01) (208, -3.41366112232208251953e-01) (209, -2.45001509785652160645e-01) (210, -2.48293489217758178711e-01) (211, 5.30768513679504394531e-01) (212, -3.25175285339355468750e-01) (213, -2.49934941530227661133e-01) (214, -2.16370806097984313965e-01) (215, -2.66464620828628540039e-01) (216, -3.29046845436096191406e-01) (217, -2.98974841833114624023e-01) (218, -2.82630980014801025391e-01) (219, -3.58361452817916870117e-01) (220, -2.41072729229927062988e-01) (221, -2.51139611005783081055e-01) (222, 4.92039382457733154297e-01) (223, 4.63948279619216918945e-01) (224, -2.44045317173004150391e-01) (225, -2.99581229686737060547e-01) (226, 3.67934018373489379883e-01) (227, 5.34921944141387939453e-01) (228, 5.05843281745910644531e-01) (229, -2.57800847291946411133e-01) (230, 5.32381474971771240234e-01) (231, 3.93267869949340820312e-01) (232, 4.46849703788757324219e-01) (233, 4.40670162439346313477e-01) (234, 3.92809450626373291016e-01) (235, 3.86077433824539184570e-01) (236, -3.90487432479858398438e-01) (237, 4.43858444690704345703e-01) (238, -3.10864776372909545898e-01) (239, 4.47142064571380615234e-01) (240, 4.00623381137847900391e-01) (241, 4.24020141363143920898e-01) (242, -3.59121203422546386719e-01) (243, 4.73441511392593383789e-01) (244, 3.74823570251464843750e-01) (245, 4.23150956630706787109e-01) (246, 3.98239493370056152344e-01) (247, 4.42373424768447875977e-01) (248, 5.19139349460601806641e-01) (249, 5.12925326824188232422e-01) (250, 4.91198062896728515625e-01) (251, -2.85657584667205810547e-01) (252, -3.16030591726303100586e-01) (253, -3.50008159875869750977e-01) (254, -3.81524980068206787109e-01) (255, -3.48038047552108764648e-01) (256, -2.30881199240684509277e-01) (257, -3.82318466901779174805e-01) (258, -3.94312441349029541016e-01) (259, -2.80068635940551757812e-01) (260, -2.41546675562858581543e-01) (261, -2.13360369205474853516e-01) (262, -2.61745721101760864258e-01) (263, -3.63582432270050048828e-01) (264, -3.46316605806350708008e-01) (265, -2.44056463241577148438e-01) (266, -3.19401502609252929688e-01) (267, -3.14946204423904418945e-01) (268, -3.42400461435317993164e-01) (269, -2.36300766468048095703e-01) (270, -2.39569500088691711426e-01) (271, -3.28996151685714721680e-01) (272, 4.06129658222198486328e-01) (273, 3.78503382205963134766e-01) (274, 5.41230201721191406250e-01) (275, 4.12504822015762329102e-01) (276, 4.28167283535003662109e-01) (277, -3.86111766099929809570e-01) (278, -2.66213983297348022461e-01) (279, -4.10479694604873657227e-01) (280, -2.27530539035797119141e-01) (281, -3.49271327257156372070e-01) (282, -2.70561814308166503906e-01) (283, -3.28004688024520874023e-01) (284, -2.72210448980331420898e-01) (285, -2.54817694425582885742e-01) (286, -2.84822016954421997070e-01) (287, -3.05180668830871582031e-01) (288, 5.12581467628479003906e-01) (0, 1.50000000000000000000e+03) (1, 3.82382869720458984375e-01) (2, -2.77630299329757690430e-01) (3, -2.89635926485061645508e-01) (4, -2.42707073688507080078e-01) (5, 5.64370274543762207031e-01) (6, -2.32571601867675781250e-01) (7, 4.87812221050262451172e-01) (8, -3.26471835374832153320e-01) (9, 4.29514348506927490234e-01) (10, 5.34493029117584228516e-01) (11, -4.30466771125793457031e-01) (12, 3.92550796270370483398e-01) (13, 4.11776691675186157227e-01) (14, 4.50220197439193725586e-01) (15, -3.49768757820129394531e-01) (16, -3.82563263177871704102e-01) (17, 5.02708137035369873047e-01) (18, 4.76510643959045410156e-01) (19, 4.05288159847259521484e-01) (20, 4.32506859302520751953e-01) (21, 4.75788831710815429688e-01) (22, 3.75226646661758422852e-01) (23, 4.93838667869567871094e-01) (24, 4.10408079624176025391e-01) (25, 4.48176205158233642578e-01) (26, 4.19121414422988891602e-01) (27, 5.62698304653167724609e-01) (28, 5.65364599227905273438e-01) (29, -2.53221154212951660156e-01) (30, 5.13270914554595947266e-01) (31, -2.75175333023071289062e-01) (32, -2.35859826207160949707e-01) (33, -3.13556164503097534180e-01) (34, 4.21761929988861083984e-01) (35, 4.92794394493103027344e-01) (36, -3.29447001218795776367e-01) (37, -3.32102060317993164062e-01) (38, -3.45540970563888549805e-01) (39, -2.58366435766220092773e-01) (40, -3.19557547569274902344e-01) (41, 3.82842928171157836914e-01) (42, -2.16644242405891418457e-01) (43, -2.76511549949645996094e-01) (44, -3.41917246580123901367e-01) (45, 4.54351842403411865234e-01) (46, -2.32077047228813171387e-01) (47, -3.08011621236801147461e-01) (48, -4.04045879840850830078e-01) (49, 4.54350948333740234375e-01) (50, 5.00099837779998779297e-01) (51, 4.36879575252532958984e-01) (52, -1.47450655698776245117e-01) (53, -2.54773706197738647461e-01) (54, -3.93822491168975830078e-01) (55, 4.01960074901580810547e-01) (56, 4.03174012899398803711e-01) (57, 4.18480992317199707031e-01) (58, 3.97510588169097900391e-01) (59, 3.94874095916748046875e-01) (60, 3.75774115324020385742e-01) (61, 5.40464282035827636719e-01) (62, 5.35128653049468994141e-01) (63, 5.35731017589569091797e-01) (64, -3.31168681383132934570e-01) (65, 3.85173827409744262695e-01) (66, 4.66491132974624633789e-01) (67, -2.49782592058181762695e-01) (68, 4.12617713212966918945e-01) (69, -2.55122870206832885742e-01) (70, -3.08309078216552734375e-01) (71, -2.61933267116546630859e-01) (72, 5.41629850864410400391e-01) (73, 4.47232753038406372070e-01) (74, -3.47053408622741699219e-01) (75, -3.30862283706665039062e-01) (76, 5.22535860538482666016e-01) (77, 4.22092288732528686523e-01) (78, 5.00429809093475341797e-01) (79, 5.32548546791076660156e-01) (80, 4.93827611207962036133e-01) (81, 4.41152542829513549805e-01) (82, 4.14352715015411376953e-01) (83, 4.97174173593521118164e-01) (84, 3.87644946575164794922e-01) (85, 4.18757647275924682617e-01) (86, 5.28346598148345947266e-01) (87, 4.20913219451904296875e-01) (88, 4.76803243160247802734e-01) (89, 5.64415574073791503906e-01) (90, -3.04822653532028198242e-01) (91, 4.83524143695831298828e-01) (92, 5.41554510593414306641e-01) (93, 4.24804776906967163086e-01) (94, 4.56891298294067382812e-01) (95, 4.32230442762374877930e-01) (96, 4.47697937488555908203e-01) (97, -2.12888672947883605957e-01) (98, -2.07601651549339294434e-01) (99, -2.67589062452316284180e-01) (100, -2.76371330022811889648e-01) (101, -3.22992831468582153320e-01) (102, -3.24281811714172363281e-01) (103, -2.87986546754837036133e-01) (104, -2.16370627284049987793e-01) (105, 5.02476036548614501953e-01) (106, -2.42961451411247253418e-01) (107, -2.54056543111801147461e-01) (108, -2.14341416954994201660e-01) (109, -3.25180917978286743164e-01) (110, 4.77747589349746704102e-01) (111, -2.77525991201400756836e-01) (112, -2.47314691543579101562e-01) (113, 4.96293187141418457031e-01) (114, -3.48948240280151367188e-01) (115, -2.08799079060554504395e-01) (116, 3.81095439195632934570e-01) (117, -3.91404330730438232422e-01) (118, 4.16204601526260375977e-01) (119, -2.81933665275573730469e-01) (120, -3.99778574705123901367e-01) (121, 5.11176884174346923828e-01) (122, -3.60785096883773803711e-01) (123, 5.65090835094451904297e-01) (124, 3.77741068601608276367e-01) (125, 4.81553286314010620117e-01) (126, -3.15775215625762939453e-01) (127, 4.48174059391021728516e-01) (128, -2.86676287651062011719e-01) (129, 4.06362771987915039062e-01) (130, 3.80767196416854858398e-01) (131, 4.23960775136947631836e-01) (132, 5.12729704380035400391e-01) (133, 4.59752738475799560547e-01) (134, 5.31427562236785888672e-01) (135, 4.81547564268112182617e-01) (136, 4.09623354673385620117e-01) (137, 4.93490368127822875977e-01) (138, 4.31241422891616821289e-01) (139, 4.00928765535354614258e-01) (140, 3.83801013231277465820e-01) (141, -2.29932203888893127441e-01) (142, 5.23934125900268554688e-01) (143, -2.06440806388854980469e-01) (144, 5.14391958713531494141e-01) (145, 3.79277318716049194336e-01) (146, -2.19086185097694396973e-01) (147, -2.24127143621444702148e-01) (148, -3.69734734296798706055e-01) (149, -3.69987636804580688477e-01) (150, -3.20762187242507934570e-01) (151, -4.76677030324935913086e-01) (152, -2.16792747378349304199e-01) (153, -2.86722987890243530273e-01) (154, -3.74282181262969970703e-01) (155, -3.54280889034271240234e-01) (156, -3.65701705217361450195e-01) (157, -3.15009504556655883789e-01) (158, -3.13046693801879882812e-01) (159, -2.44729503989219665527e-01) (160, -2.64651328325271606445e-01) (161, 4.80609118938446044922e-01) (162, -3.84763687849044799805e-01) (163, 4.41873401403427124023e-01) (164, 3.66762250661849975586e-01) (165, 5.52063703536987304688e-01) (166, -3.94609093666076660156e-01) (167, -3.57106328010559082031e-01) (168, 4.68431025743484497070e-01) (169, -3.24131697416305541992e-01) (170, -3.05437266826629638672e-01) (171, 4.95034694671630859375e-01) (172, 4.28430467844009399414e-01) (173, -3.83459359407424926758e-01) (174, -2.92313039302825927734e-01) (175, -3.98885399103164672852e-01) (176, -3.71163249015808105469e-01) (177, -3.17757546901702880859e-01) (178, 5.42843759059906005859e-01) (179, 4.37707483768463134766e-01) (180, 4.96423363685607910156e-01) (181, 4.23577398061752319336e-01) (182, 4.78978991508483886719e-01) (183, 4.91939663887023925781e-01) (184, -2.54798114299774169922e-01) (185, -2.46440961956977844238e-01) (186, 4.85346555709838867188e-01) (187, 3.73652458190917968750e-01) (188, 4.27156984806060791016e-01) (189, -3.93586426973342895508e-01) (190, 5.32726407051086425781e-01) (191, 5.56417107582092285156e-01) (192, -2.80411958694458007812e-01) (193, -1.61208346486091613770e-01) (194, -3.17889332771301269531e-01) (195, -2.84021645784378051758e-01) (196, 5.62781810760498046875e-01) (197, 4.57867175340652465820e-01) (198, 5.40012538433074951172e-01) (199, 4.44706052541732788086e-01) (200, 5.39524376392364501953e-01) (201, 4.12354379892349243164e-01) (202, 3.72145324945449829102e-01) (203, 4.05856221914291381836e-01) (204, -3.12070429325103759766e-01) (205, 4.88201081752777099609e-01) (206, -3.51833820343017578125e-01) (207, -2.83735603094100952148e-01) (208, -3.79082977771759033203e-01) (209, -3.59951615333557128906e-01) (210, -4.39174711704254150391e-01) (211, 5.17273008823394775391e-01) (212, -3.09099256992340087891e-01) (213, -2.70870923995971679688e-01) (214, -3.18552464246749877930e-01) (215, -3.35668504238128662109e-01) (216, -3.04061055183410644531e-01) (217, -3.95952731370925903320e-01) (218, -3.21843087673187255859e-01) (219, -2.55975484848022460938e-01) (220, -3.96149605512619018555e-01) (221, -3.40818017721176147461e-01) (222, 5.17736256122589111328e-01) (223, 5.15581727027893066406e-01) (224, -3.55440229177474975586e-01) (225, -3.87656450271606445312e-01) (226, 4.38133120536804199219e-01) (227, 3.83940070867538452148e-01) (228, 4.87150073051452636719e-01) (229, -3.55404794216156005859e-01) (230, 4.57552731037139892578e-01) (231, 4.67320680618286132812e-01) (232, 4.56914007663726806641e-01) (233, 4.75946635007858276367e-01) (234, 5.10635912418365478516e-01) (235, 5.49093067646026611328e-01) (236, -3.85935008525848388672e-01) (237, 3.68174552917480468750e-01) (238, -2.86760032176971435547e-01) (239, 4.13977652788162231445e-01) (240, 4.09989506006240844727e-01) (241, 4.88654553890228271484e-01) (242, -3.96259039640426635742e-01) (243, 4.98883605003356933594e-01) (244, 4.18066114187240600586e-01) (245, 4.65788662433624267578e-01) (246, 5.54007649421691894531e-01) (247, 5.10602235794067382812e-01) (248, 4.64270293712615966797e-01) (249, 4.28921222686767578125e-01) (250, 4.62282806634902954102e-01) (251, -2.95320779085159301758e-01) (252, -2.89712518453598022461e-01) (253, -3.53227138519287109375e-01) (254, -3.41051608324050903320e-01) (255, -2.35470443964004516602e-01) (256, -3.21402668952941894531e-01) (257, -2.70834773778915405273e-01) (258, -2.32122913002967834473e-01) (259, -3.89736533164978027344e-01) (260, -2.26918175816535949707e-01) (261, -3.23958575725555419922e-01) (262, -2.95032650232315063477e-01) (263, -3.19650352001190185547e-01) (264, -2.23145261406898498535e-01) (265, -3.62165004014968872070e-01) (266, -3.32007944583892822266e-01) (267, -3.82169127464294433594e-01) (268, -3.36804807186126708984e-01) (269, -2.26350814104080200195e-01) (270, -3.38562130928039550781e-01) (271, -3.13422352075576782227e-01) (272, 4.80714023113250732422e-01) (273, 4.26748394966125488281e-01) (274, 3.82015109062194824219e-01) (275, 5.30332148075103759766e-01) (276, 5.19050478935241699219e-01) (277, -3.91034394502639770508e-01) (278, -2.80602723360061645508e-01) (279, -3.74465256929397583008e-01) (280, -3.13821613788604736328e-01) (281, -3.90631288290023803711e-01) (282, -2.44492173194885253906e-01) (283, -3.88618320226669311523e-01) (284, -3.16917866468429565430e-01) (285, -3.86014074087142944336e-01) (286, -2.31088429689407348633e-01) (287, -2.42553532123565673828e-01) (288, 4.92224574089050292969e-01) (0, 1.50000000000000000000e+03) (1, -2.09894180297851562500e-02) (2, 7.48510301113128662109e-01) (3, 6.43602192401885986328e-01) (4, 6.77050352096557617188e-01) (5, -1.74380093812942504883e-01) (6, 6.20220601558685302734e-01) (7, -6.90012425184249877930e-02) (8, 6.61759495735168457031e-01) (9, -1.75050735473632812500e-01) (10, -1.97414029389619827271e-02) (11, 6.44283115863800048828e-01) (12, -1.11120767891407012939e-01) (13, -1.23172439634799957275e-01) (14, -1.49123584851622581482e-02) (15, 7.46554076671600341797e-01) (16, 7.03473269939422607422e-01) (17, -4.49455976486206054688e-02) (18, -8.54063332080841064453e-02) (19, -9.43303480744361877441e-02) (20, -1.43959894776344299316e-01) (21, -5.03588728606700897217e-02) (22, -8.75953212380409240723e-03) (23, -1.10815927386283874512e-01) (24, -1.06629505753517150879e-01) (25, -1.37811200693249702454e-02) (26, -3.92401032149791717529e-02) (27, -7.14573338627815246582e-02) (28, -2.53961440175771713257e-02) (29, 7.26607501506805419922e-01) (30, -1.36065840721130371094e-01) (31, 7.37686514854431152344e-01) (32, 6.92280948162078857422e-01) (33, 7.86950707435607910156e-01) (34, -6.19165599346160888672e-02) (35, -4.52530942857265472412e-02) (36, 7.98130154609680175781e-01) (37, 7.31589853763580322266e-01) (38, 6.80737137794494628906e-01) (39, 6.77696764469146728516e-01) (40, 7.82812595367431640625e-01) (41, -1.28593504428863525391e-01) (42, 7.38319754600524902344e-01) (43, 6.55351936817169189453e-01) (44, 7.19302356243133544922e-01) (45, -8.69843885302543640137e-02) (46, 6.34353339672088623047e-01) (47, 6.12856626510620117188e-01) (48, 6.38372540473937988281e-01) (49, -9.42647904157638549805e-02) (50, -7.67781883478164672852e-02) (51, -8.95214453339576721191e-02) (52, 6.68541431427001953125e-01) (53, 7.00704872608184814453e-01) (54, 7.90109038352966308594e-01) (55, -3.92248630523681640625e-02) (56, -9.49279591441154479980e-02) (57, -4.74177710711956024170e-02) (58, -1.20205625891685485840e-01) (59, -1.33301407098770141602e-01) (60, -1.33132874965667724609e-01) (61, -6.93375915288925170898e-02) (62, -1.75370238721370697021e-02) (63, -4.43745441734790802002e-02) (64, 7.05486893653869628906e-01) (65, -9.23690199851989746094e-02) (66, -8.30629840493202209473e-02) (67, 6.97850286960601806641e-01) (68, -1.26948103308677673340e-01) (69, 5.91932654380798339844e-01) (70, 7.64287590980529785156e-01) (71, 6.56655073165893554688e-01) (72, -1.31472647190093994141e-01) (73, -9.07065719366073608398e-02) (74, 7.26187944412231445312e-01) (75, 7.42381155490875244141e-01) (76, -1.84986606240272521973e-01) (77, -7.26188868284225463867e-02) (78, -1.81213974952697753906e-01) (79, -1.43337070941925048828e-01) (80, -1.65679365396499633789e-01) (81, -5.79328425228595733643e-02) (82, -4.91594001650810241699e-02) (83, -1.02999620139598846436e-01) (84, -1.56900227069854736328e-01) (85, -7.19655975699424743652e-02) (86, -1.54902577400207519531e-01) (87, -6.33589550852775573730e-02) (88, -9.44788232445716857910e-02) (89, -8.16798508167266845703e-02) (90, 7.92657136917114257812e-01) (91, -4.10400368273258209229e-02) (92, -1.63854867219924926758e-01) (93, -2.90070809423923492432e-02) (94, -9.96020287275314331055e-02) (95, -4.58634272217750549316e-02) (96, -1.08331263065338134766e-01) (97, 6.16817533969879150391e-01) (98, 6.59001529216766357422e-01) (99, 7.37300395965576171875e-01) (100, 6.12462103366851806641e-01) (101, 6.38241648674011230469e-01) (102, 7.83275723457336425781e-01) (103, 6.86077415943145751953e-01) (104, 7.10443079471588134766e-01) (105, -1.06332175433635711670e-01) (106, 6.85898423194885253906e-01) (107, 7.19452917575836181641e-01) (108, 6.38030886650085449219e-01) (109, 7.20664799213409423828e-01) (110, -1.84099916368722915649e-02) (111, 6.27548336982727050781e-01) (112, 6.41389906406402587891e-01) (113, -7.18784257769584655762e-02) (114, 7.18670725822448730469e-01) (115, 6.58738076686859130859e-01) (116, -1.03452660143375396729e-01) (117, 7.77791619300842285156e-01) (118, 3.02369869314134120941e-03) (119, 7.52262413501739501953e-01) (120, 6.80150389671325683594e-01) (121, -6.77892751991748809814e-03) (122, 7.24264562129974365234e-01) (123, -1.12563610076904296875e-01) (124, -5.32815195620059967041e-02) (125, -1.56776472926139831543e-01) (126, 6.65370404720306396484e-01) (127, -1.64190769195556640625e-01) (128, 6.59129917621612548828e-01) (129, -1.13943509757518768311e-01) (130, -1.39573095366358757019e-02) (131, -1.08821369707584381104e-01) (132, -9.28684696555137634277e-02) (133, -2.02806945890188217163e-02) (134, -2.59911883622407913208e-02) (135, -1.84917435050010681152e-01) (136, -1.24970734119415283203e-01) (137, -1.50672122836112976074e-01) (138, -5.75210079550743103027e-02) (139, -1.38037830591201782227e-01) (140, -4.37742136418819427490e-02) (141, 7.40445375442504882812e-01) (142, -9.12820920348167419434e-02) (143, 7.95271635055541992188e-01) (144, -1.57926768064498901367e-01) (145, -1.78905874490737915039e-01) (146, 6.42470002174377441406e-01) (147, 7.47765541076660156250e-01) (148, 7.35350966453552246094e-01) (149, 6.62767946720123291016e-01) (150, 6.94332480430603027344e-01) (151, 6.19334876537322998047e-01) (152, 6.33133530616760253906e-01) (153, 6.27355515956878662109e-01) (154, 7.42202877998352050781e-01) (155, 7.95139789581298828125e-01) (156, 6.64136648178100585938e-01) (157, 7.72761583328247070312e-01) (158, 6.29102945327758789062e-01) (159, 7.12086975574493408203e-01) (160, 6.23263061046600341797e-01) (161, -1.81985393166542053223e-01) (162, 5.96477866172790527344e-01) (163, -6.63575604557991027832e-02) (164, -1.10632143914699554443e-02) (165, -3.48057150840759277344e-02) (166, 7.60583221912384033203e-01) (167, 6.37747764587402343750e-01) (168, -1.68397709727287292480e-01) (169, 6.73376798629760742188e-01) (170, 7.33963251113891601562e-01) (171, -2.66290940344333648682e-02) (172, 7.62951979413628578186e-03) (173, 5.99985957145690917969e-01) (174, 7.83499300479888916016e-01) (175, 6.61324143409729003906e-01) (176, 6.37114942073822021484e-01) (177, 6.36736392974853515625e-01) (178, -2.02011875808238983154e-02) (179, -1.40125965699553489685e-02) (180, -1.27293154597282409668e-01) (181, -1.23289592564105987549e-01) (182, -1.86604559421539306641e-01) (183, -1.05583965778350830078e-01) (184, 7.42948472499847412109e-01) (185, 7.61868834495544433594e-01) (186, -1.06602698564529418945e-01) (187, -4.29333671927452087402e-02) (188, -1.07197366654872894287e-01) (189, 7.28924632072448730469e-01) (190, -1.18734359741210937500e-01) (191, -7.79597237706184387207e-02) (192, 7.12704062461853027344e-01) (193, 6.12024784088134765625e-01) (194, 6.42982542514801025391e-01) (195, 7.03935325145721435547e-01) (196, -1.47339850664138793945e-01) (197, -1.96458920836448669434e-02) (198, -6.82690143585205078125e-02) (199, -1.20796717703342437744e-01) (200, -1.34237274527549743652e-01) (201, -1.71941906213760375977e-01) (202, -1.43251717090606689453e-01) (203, -1.42380475997924804688e-01) (204, 6.18661284446716308594e-01) (205, -1.72317638993263244629e-01) (206, 7.16886579990386962891e-01) (207, 6.60839140415191650391e-01) (208, 6.38668477535247802734e-01) (209, 6.53961956501007080078e-01) (210, 6.27257108688354492188e-01) (211, -9.52330380678176879883e-02) (212, 7.28346168994903564453e-01) (213, 6.29978239536285400391e-01) (214, 8.27946424484252929688e-01) (215, 6.16543114185333251953e-01) (216, 7.89989411830902099609e-01) (217, 6.89692974090576171875e-01) (218, 7.80401647090911865234e-01) (219, 6.68349564075469970703e-01) (220, 8.18541228771209716797e-01) (221, 6.09825372695922851562e-01) (222, -2.91373413056135177612e-02) (223, -7.71664306521415710449e-02) (224, 6.91238582134246826172e-01) (225, 8.22800159454345703125e-01) (226, 4.85152093460783362389e-04) (227, -1.34768886491656303406e-02) (228, -1.57169345766305923462e-02) (229, 7.19449162483215332031e-01) (230, -1.47444441914558410645e-01) (231, -1.51326164603233337402e-01) (232, -4.95679751038551330566e-02) (233, -8.55554118752479553223e-02) (234, -9.56841781735420227051e-02) (235, -3.59294191002845764160e-02) (236, 7.32707917690277099609e-01) (237, -4.17448952794075012207e-03) (238, 7.97115087509155273438e-01) (239, -3.60921584069728851318e-02) (240, -1.35853290557861328125e-01) (241, -1.77007421851158142090e-01) (242, 6.79588735103607177734e-01) (243, -1.05669219046831130981e-02) (244, -1.50385305285453796387e-01) (245, -1.42706498503684997559e-01) (246, -1.93161770701408386230e-01) (247, -1.88424393534660339355e-01) (248, -4.78631965816020965576e-02) (249, -1.89386904239654541016e-02) (250, -1.47766768932342529297e-01) (251, 7.57147610187530517578e-01) (252, 6.47588610649108886719e-01) (253, 6.03581488132476806641e-01) (254, 6.53579175472259521484e-01) (255, 7.79859960079193115234e-01) (256, 6.18009865283966064453e-01) (257, 6.57654821872711181641e-01) (258, 7.37784922122955322266e-01) (259, 2.17156074941158294678e-02) (260, 7.81184136867523193359e-01) (261, 7.76875793933868408203e-01) (262, 6.21048390865325927734e-01) (263, 6.92976474761962890625e-01) (264, 6.76499903202056884766e-01) (265, 7.18318819999694824219e-01) (266, 6.57044589519500732422e-01) (267, 7.92832732200622558594e-01) (268, 6.84444129467010498047e-01) (269, 6.59214377403259277344e-01) (270, 7.75259137153625488281e-01) (271, 7.45657980442047119141e-01) (272, -1.21380329132080078125e-01) (273, -1.83142960071563720703e-01) (274, -6.49156272411346435547e-02) (275, -8.36143046617507934570e-02) (276, -1.29508361220359802246e-01) (277, 7.32389986515045166016e-01) (278, 7.16658353805541992188e-01) (279, 6.25146687030792236328e-01) (280, 7.34104692935943603516e-01) (281, 7.73746430873870849609e-01) (282, 7.79869914054870605469e-01) (283, 7.24396526813507080078e-01) (284, 7.49249637126922607422e-01) (285, 6.61216080188751220703e-01) (286, 7.15865969657897949219e-01) (287, 7.83932864665985107422e-01) (288, -1.84916839003562927246e-01) (0, 1.50000000000000000000e+03) (1, -1.13306172192096710205e-01) (2, 3.18957656621932983398e-01) (3, 4.71514344215393066406e-01) (4, 4.71014857292175292969e-01) (5, -1.76471710205078125000e-01) (6, 3.72170418500900268555e-01) (7, -1.78780362010002136230e-01) (8, 4.48513805866241455078e-01) (9, -2.12885975837707519531e-01) (10, -7.66821578145027160645e-02) (11, 3.20797920227050781250e-01) (12, -2.62402951717376708984e-01) (13, -1.24545365571975708008e-01) (14, -1.95859715342521667480e-01) (15, 3.13558697700500488281e-01) (16, 3.86670231819152832031e-01) (17, -8.42430368065834045410e-02) (18, -1.77673131227493286133e-01) (19, -2.69137382507324218750e-01) (20, -1.73460528254508972168e-01) (21, -1.70983135700225830078e-01) (22, -1.64436802268028259277e-01) (23, -2.14294314384460449219e-01) (24, -2.08535119891166687012e-01) (25, -2.22724393010139465332e-01) (26, -2.42175370454788208008e-01) (27, -2.11730778217315673828e-01) (28, -1.35325819253921508789e-01) (29, 2.91753768920898437500e-01) (30, -1.57872915267944335938e-01) (31, 4.64323520660400390625e-01) (32, 4.52486127614974975586e-01) (33, 4.21687096357345581055e-01) (34, -1.25554531812667846680e-01) (35, -1.22004754841327667236e-01) (36, 3.24693650007247924805e-01) (37, 2.72089302539825439453e-01) (38, 3.38360816240310668945e-01) (39, 2.81706273555755615234e-01) (40, 3.75323623418807983398e-01) (41, -2.30652019381523132324e-01) (42, 2.95642852783203125000e-01) (43, 3.72399121522903442383e-01) (44, 4.88892376422882080078e-01) (45, -1.94928303360939025879e-01) (46, 4.21019226312637329102e-01) (47, 3.62830847501754760742e-01) (48, 3.59227746725082397461e-01) (49, -2.60521143674850463867e-01) (50, -1.92057535052299499512e-01) (51, -1.01830609142780303955e-01) (52, 3.84047001600265502930e-01) (53, 2.83269941806793212891e-01) (54, 3.27720761299133300781e-01) (55, -9.99146997928619384766e-02) (56, -2.19189107418060302734e-01) (57, -2.11516201496124267578e-01) (58, -2.21074998378753662109e-01) (59, -8.75234156847000122070e-02) (60, -1.97715401649475097656e-01) (61, -1.06768600642681121826e-01) (62, -1.24695420265197753906e-01) (63, -2.37368538975715637207e-01) (64, 3.94951522350311279297e-01) (65, -1.78701162338256835938e-01) (66, -8.21873471140861511230e-02) (67, 4.37362194061279296875e-01) (68, -1.77263647317886352539e-01) (69, 3.24934035539627075195e-01) (70, 4.36112016439437866211e-01) (71, 4.81383472681045532227e-01) (72, -1.83360382914543151855e-01) (73, -1.17607869207859039307e-01) (74, 3.62348794937133789062e-01) (75, 3.64710271358489990234e-01) (76, -2.28424504399299621582e-01) (77, -1.10689401626586914062e-01) (78, -1.13372303545475006104e-01) (79, -1.53140515089035034180e-01) (80, -9.65206846594810485840e-02) (81, -2.24538788199424743652e-01) (82, -1.70086964964866638184e-01) (83, -1.77117168903350830078e-01) (84, -2.18786552548408508301e-01) (85, -1.35743007063865661621e-01) (86, -2.06954240798950195312e-01) (87, -1.77921548485755920410e-01) (88, -2.65873312950134277344e-01) (89, -1.50657162070274353027e-01) (90, 3.81028801202774047852e-01) (91, -1.92956537008285522461e-01) (92, -1.82615280151367187500e-01) (93, -2.36314922571182250977e-01) (94, -1.54079481959342956543e-01) (95, -2.79191702604293823242e-01) (96, -1.47481799125671386719e-01) (97, 3.94547253847122192383e-01) (98, 4.60862249135971069336e-01) (99, 3.17980796098709106445e-01) (100, 4.34009313583374023438e-01) (101, 4.06241565942764282227e-01) (102, 2.88749158382415771484e-01) (103, 3.19985926151275634766e-01) (104, 3.51597100496292114258e-01) (105, -2.14412704110145568848e-01) (106, 4.08518433570861816406e-01) (107, 4.02740567922592163086e-01) (108, 3.14050495624542236328e-01) (109, 3.90681266784667968750e-01) (110, -2.38154351711273193359e-01) (111, 2.95867651700973510742e-01) (112, 4.40696805715560913086e-01) (113, -1.31707176566123962402e-01) (114, 3.89499753713607788086e-01) (115, 4.71451878547668457031e-01) (116, -1.93647101521492004395e-01) (117, 4.77961957454681396484e-01) (118, -1.92529603838920593262e-01) (119, 4.07175153493881225586e-01) (120, 4.00852292776107788086e-01) (121, -9.94989722967147827148e-02) (122, 4.47689652442932128906e-01) (123, -8.15832540392875671387e-02) (124, -2.55335301160812377930e-01) (125, -2.07040742039680480957e-01) (126, 4.79546159505844116211e-01) (127, -1.24438911676406860352e-01) (128, 4.73583519458770751953e-01) (129, -1.36242911219596862793e-01) (130, -1.01478569209575653076e-01) (131, -1.35525509715080261230e-01) (132, -2.22178712487220764160e-01) (133, -9.63810384273529052734e-02) (134, -1.06835491955280303955e-01) (135, -1.63887575268745422363e-01) (136, -2.35222041606903076172e-01) (137, -1.78056508302688598633e-01) (138, -2.45097413659095764160e-01) (139, -2.08677828311920166016e-01) (140, -9.61139053106307983398e-02) (141, 3.69947493076324462891e-01) (142, -2.01054200530052185059e-01) (143, 4.27341729402542114258e-01) (144, -2.67374962568283081055e-01) (145, -9.55435037612915039062e-02) (146, 3.86105567216873168945e-01) (147, 3.62364441156387329102e-01) (148, 4.84688133001327514648e-01) (149, 4.95893508195877075195e-01) (150, 4.51084315776824951172e-01) (151, 3.32855939865112304688e-01) (152, 4.51711118221282958984e-01) (153, 4.08895552158355712891e-01) (154, 3.39452475309371948242e-01) (155, 4.67653751373291015625e-01) (156, 2.85597860813140869141e-01) (157, 3.37251961231231689453e-01) (158, 4.16941136121749877930e-01) (159, 4.75702494382858276367e-01) (160, 4.59155142307281494141e-01) (161, -1.80164247751235961914e-01) (162, 4.11026507616043090820e-01) (163, -2.59690344333648681641e-01) (164, -1.89634516835212707520e-01) (165, -1.79194644093513488770e-01) (166, 4.43889349699020385742e-01) (167, 4.05127912759780883789e-01) (168, -9.86961349844932556152e-02) (169, 4.45435583591461181641e-01) (170, 4.59876984357833862305e-01) (171, -1.08482867479324340820e-01) (172, -2.51957863569259643555e-01) (173, 3.50222498178482055664e-01) (174, 3.86131942272186279297e-01) (175, 3.38230311870574951172e-01) (176, 3.35411071777343750000e-01) (177, 4.82338726520538330078e-01) (178, -1.55270516872406005859e-01) (179, -9.90138873457908630371e-02) (180, -1.14025928080081939697e-01) (181, -1.89716279506683349609e-01) (182, -2.57164031267166137695e-01) (183, -1.42685875296592712402e-01) (184, 2.78608798980712890625e-01) (185, 3.54442685842514038086e-01) (186, -1.65701895952224731445e-01) (187, -2.66929268836975097656e-01) (188, -1.85464233160018920898e-01) (189, 3.31944197416305541992e-01) (190, -7.84007832407951354980e-02) (191, -2.21799030900001525879e-01) (192, 4.35105085372924804688e-01) (193, 4.25118148326873779297e-01) (194, 3.69376271963119506836e-01) (195, 3.25717896223068237305e-01) (196, -2.70066708326339721680e-01) (197, -2.51725018024444580078e-01) (198, -1.19091123342514038086e-01) (199, -8.17955806851387023926e-02) (200, -9.59981456398963928223e-02) (201, -1.42728745937347412109e-01) (202, -1.06342025101184844971e-01) (203, -2.69753456115722656250e-01) (204, 4.80339765548706054688e-01) (205, -2.39158913493156433105e-01) (206, 3.49099218845367431641e-01) (207, 3.28836858272552490234e-01) (208, 2.99412637948989868164e-01) (209, 4.47191685438156127930e-01) (210, 3.06031137704849243164e-01) (211, -1.02966211736202239990e-01) (212, 3.26189726591110229492e-01) (213, 3.08198451995849609375e-01) (214, 3.87873321771621704102e-01) (215, 3.28802138566970825195e-01) (216, 3.66000801324844360352e-01) (217, 3.03079307079315185547e-01) (218, 3.33266943693161010742e-01) (219, 4.71589177846908569336e-01) (220, 3.65624636411666870117e-01) (221, 2.61677682399749755859e-01) (222, -2.49719500541687011719e-01) (223, -2.58085876703262329102e-01) (224, 4.98705685138702392578e-01) (225, 4.08639580011367797852e-01) (226, -2.30916351079940795898e-01) (227, -1.00536264479160308838e-01) (228, -1.55972510576248168945e-01) (229, 2.88330912590026855469e-01) (230, -1.13585323095321655273e-01) (231, -1.69289946556091308594e-01) (232, -1.43607571721076965332e-01) (233, -1.45275294780731201172e-01) (234, -1.62340715527534484863e-01) (235, -1.46091595292091369629e-01) (236, 4.65734571218490600586e-01) (237, -1.23059257864952087402e-01) (238, 4.39001202583312988281e-01) (239, -1.02878525853157043457e-01) (240, -1.62645250558853149414e-01) (241, -1.26042917370796203613e-01) (242, 4.52296555042266845703e-01) (243, -1.23778685927391052246e-01) (244, -1.02288059890270233154e-01) (245, -2.29475185275077819824e-01) (246, -8.99180844426155090332e-02) (247, -2.26665005087852478027e-01) (248, -2.10165068507194519043e-01) (249, -2.41771370172500610352e-01) (250, -2.62345045804977416992e-01) (251, 4.36004608869552612305e-01) (252, 3.86059433221817016602e-01) (253, 3.25432270765304565430e-01) (254, 4.28203880786895751953e-01) (255, 3.28047275543212890625e-01) (256, 4.54669833183288574219e-01) (257, 4.74292963743209838867e-01) (258, 2.93924540281295776367e-01) (259, 3.54778677225112915039e-01) (260, 4.97622311115264892578e-01) (261, 4.63049471378326416016e-01) (262, 4.51201111078262329102e-01) (263, 4.14970695972442626953e-01) (264, 3.85538280010223388672e-01) (265, 3.82516443729400634766e-01) (266, 3.46315771341323852539e-01) (267, 3.46144258975982666016e-01) (268, 3.08365166187286376953e-01) (269, 3.19606363773345947266e-01) (270, 3.17953407764434814453e-01) (271, 4.21551465988159179688e-01) (272, -1.04203999042510986328e-01) (273, -1.00146919488906860352e-01) (274, -1.95071399211883544922e-01) (275, -1.36593624949455261230e-01) (276, -2.42526739835739135742e-01) (277, 3.82323950529098510742e-01) (278, 4.82367426156997680664e-01) (279, 4.00854766368865966797e-01) (280, 3.97882193326950073242e-01) (281, 3.18837046623229980469e-01) (282, 3.09918642044067382812e-01) (283, 4.74482387304306030273e-01) (284, 3.39532285928726196289e-01) (285, 4.49366569519042968750e-01) (286, 3.14728885889053344727e-01) (287, 4.82573837041854858398e-01) (288, -2.39076793193817138672e-01) (0, 1.50000000000000000000e+03) (1, 5.58979809284210205078e-01) (2, -4.86525408923625946045e-02) (3, -1.64747282862663269043e-01) (4, -1.46763458847999572754e-01) (5, 5.59134542942047119141e-01) (6, -7.88257271051406860352e-02) (7, 5.97769141197204589844e-01) (8, -5.26621080935001373291e-02) (9, 6.53700172901153564453e-01) (10, 6.21907889842987060547e-01) (11, -6.44914731383323669434e-02) (12, 5.13788700103759765625e-01) (13, 5.61663627624511718750e-01) (14, 6.06178879737854003906e-01) (15, 8.87593347579240798950e-03) (16, -4.27284911274909973145e-02) (17, 5.47769725322723388672e-01) (18, 5.16066491603851318359e-01) (19, 5.11442899703979492188e-01) (20, 5.25687098503112792969e-01) (21, 6.04449570178985595703e-01) (22, 6.21680617332458496094e-01) (23, 5.47935903072357177734e-01) (24, 6.13705456256866455078e-01) (25, 6.02115988731384277344e-01) (26, 5.97306907176971435547e-01) (27, 5.86215198040008544922e-01) (28, 6.43954813480377197266e-01) (29, -6.79059326648712158203e-02) (30, 5.40636181831359863281e-01) (31, -3.35611030459403991699e-03) (32, -8.02668929100036621094e-03) (33, 1.43710104748606681824e-02) (34, 6.82954609394073486328e-01) (35, 6.74351096153259277344e-01) (36, -1.14974282681941986084e-01) (37, -3.35862189531326293945e-02) (38, -7.92226120829582214355e-02) (39, 1.81201659142971038818e-02) (40, -1.04436129331588745117e-01) (41, 5.23812472820281982422e-01) (42, -4.36706170439720153809e-02) (43, -7.94273093342781066895e-02) (44, -8.67459401488304138184e-02) (45, 5.01320898532867431641e-01) (46, -1.02685190737247467041e-01) (47, -1.35871589183807373047e-01) (48, -9.64218154549598693848e-02) (49, 6.23500168323516845703e-01) (50, 5.53942739963531494141e-01) (51, 6.18839085102081298828e-01) (52, -1.19550898671150207520e-01) (53, 1.84404160827398300171e-02) (54, -2.08514276891946792603e-03) (55, 6.58351600170135498047e-01) (56, 6.07294082641601562500e-01) (57, 5.84202468395233154297e-01) (58, 5.51067531108856201172e-01) (59, 5.51698088645935058594e-01) (60, 6.84850811958312988281e-01) (61, 5.91535091400146484375e-01) (62, 5.40067136287689208984e-01) (63, 6.54827415943145751953e-01) (64, -9.18181911110877990723e-02) (65, 5.24824500083923339844e-01) (66, 6.46016836166381835938e-01) (67, -3.34147363901138305664e-02) (68, 6.48254692554473876953e-01) (69, -1.22126288712024688721e-01) (70, -4.45412099361419677734e-02) (71, -1.46054103970527648926e-01) (72, 5.73059380054473876953e-01) (73, 5.53563296794891357422e-01) (74, -4.52730767428874969482e-02) (75, 1.78883206099271774292e-02) (76, 5.84926545619964599609e-01) (77, 5.15761017799377441406e-01) (78, 5.10394513607025146484e-01) (79, 6.70713782310485839844e-01) (80, 6.27387642860412597656e-01) (81, 5.80444514751434326172e-01) (82, 5.85882902145385742188e-01) (83, 6.48295640945434570312e-01) (84, 5.78469991683959960938e-01) (85, 5.58024764060974121094e-01) (86, 5.92131376266479492188e-01) (87, 6.79728329181671142578e-01) (88, 6.82465314865112304688e-01) (89, 6.45820677280426025391e-01) (90, -1.30394145846366882324e-01) (91, 6.67690634727478027344e-01) (92, 5.35164535045623779297e-01) (93, 5.81142544746398925781e-01) (94, 6.18115603923797607422e-01) (95, 6.01463973522186279297e-01) (96, 6.22271895408630371094e-01) (97, -8.33601579070091247559e-02) (98, -1.18956200778484344482e-01) (99, -9.35445427894592285156e-02) (100, -2.98953615128993988037e-02) (101, -1.84636324644088745117e-01) (102, -4.49808128178119659424e-02) (103, -1.39634370803833007812e-01) (104, -1.13378986716270446777e-01) (105, 5.74163675308227539062e-01) (106, -1.62998899817466735840e-01) (107, -1.13313207402825355530e-02) (108, -5.82561008632183074951e-02) (109, -1.56878679990768432617e-01) (110, 6.28135085105895996094e-01) (111, -1.39903068542480468750e-01) (112, -7.88636654615402221680e-02) (113, 5.50231993198394775391e-01) (114, 1.03310905396938323975e-02) (115, 1.03049296885728836060e-02) (116, 6.30175530910491943359e-01) (117, -1.04922592639923095703e-01) (118, 6.67237401008605957031e-01) (119, -1.31340762600302696228e-02) (120, -1.63504466414451599121e-01) (121, 5.11643588542938232422e-01) (122, -9.01883393526077270508e-02) (123, 5.53591310977935791016e-01) (124, 5.86023509502410888672e-01) (125, 5.21865010261535644531e-01) (126, 3.38014476001262664795e-02) (127, 5.35919487476348876953e-01) (128, -5.10953702032566070557e-02) (129, 5.47082424163818359375e-01) (130, 6.12804472446441650391e-01) (131, 5.68949401378631591797e-01) (132, 5.76208114624023437500e-01) (133, 5.51113009452819824219e-01) (134, 5.95834076404571533203e-01) (135, 6.37659072875976562500e-01) (136, 6.28519058227539062500e-01) (137, 5.96540570259094238281e-01) (138, 5.91469407081604003906e-01) (139, 5.13258516788482666016e-01) (140, 6.23205959796905517578e-01) (141, -1.58864006400108337402e-01) (142, 5.64864218235015869141e-01) (143, -1.34425282478332519531e-01) (144, 5.52333116531372070312e-01) (145, 5.47028779983520507812e-01) (146, -1.28948301076889038086e-01) (147, -1.84327468276023864746e-01) (148, -2.61713727377355098724e-03) (149, -1.66778281331062316895e-01) (150, -6.16151727735996246338e-02) (151, -1.43188554793596267700e-02) (152, -1.31774783134460449219e-01) (153, -1.72025054693222045898e-01) (154, -1.50978416204452514648e-01) (155, -1.97606403380632400513e-02) (156, -1.43590122461318969727e-01) (157, -1.53755486011505126953e-01) (158, 1.52578074485063552856e-02) (159, -2.86332108080387115479e-02) (160, -7.09413588047027587891e-02) (161, 5.97301065921783447266e-01) (162, -1.55241563916206359863e-01) (163, 6.77945315837860107422e-01) (164, 6.61345899105072021484e-01) (165, 6.07404708862304687500e-01) (166, -6.83378279209136962891e-02) (167, -8.09838846325874328613e-02) (168, 5.36667525768280029297e-01) (169, -1.59254953265190124512e-01) (170, -3.66885811090469360352e-02) (171, 6.70042574405670166016e-01) (172, 5.48388183116912841797e-01) (173, 9.73599404096603393555e-03) (174, -1.39326557517051696777e-01) (175, -6.75942972302436828613e-02) (176, -1.41855478286743164062e-01) (177, -8.86010229587554931641e-02) (178, 6.31451904773712158203e-01) (179, 6.73540294170379638672e-01) (180, 6.22696518898010253906e-01) (181, 5.37046134471893310547e-01) (182, 6.43757700920104980469e-01) (183, 6.52808010578155517578e-01) (184, -1.73033863306045532227e-01) (185, -9.76803712546825408936e-03) (186, 6.14345073699951171875e-01) (187, 5.71182906627655029297e-01) (188, 5.14718949794769287109e-01) (189, -6.95473030209541320801e-02) (190, 5.20026087760925292969e-01) (191, 6.21952652931213378906e-01) (192, -1.54645681381225585938e-01) (193, -1.52739092707633972168e-01) (194, -6.42209798097610473633e-02) (195, 7.52344774082303047180e-03) (196, 6.48663341999053955078e-01) (197, 5.25565803050994873047e-01) (198, 5.79812884330749511719e-01) (199, 5.11315822601318359375e-01) (200, 5.42695879936218261719e-01) (201, 4.97303068637847900391e-01) (202, 5.10503113269805908203e-01) (203, 5.90684056282043457031e-01) (204, 2.15674899518489837646e-02) (205, 5.52504837512969970703e-01) (206, -1.70878082513809204102e-01) (207, -1.42736136913299560547e-01) (208, -1.58069990575313568115e-02) (209, -3.99384200572967529297e-02) (210, -1.67702242732048034668e-01) (211, 5.76376199722290039062e-01) (212, 1.30536025390028953552e-02) (213, -3.43930348753929138184e-03) (214, -1.06867745518684387207e-01) (215, -1.56539157032966613770e-01) (216, -9.39471181482076644897e-03) (217, 8.33023223094642162323e-04) (218, -7.79550671577453613281e-02) (219, -1.34042091667652130127e-02) (220, -1.03292673826217651367e-01) (221, 4.01166193187236785889e-02) (222, 6.02294087409973144531e-01) (223, 6.06907963752746582031e-01) (224, 3.14822159707546234131e-02) (225, -1.74604699015617370605e-01) (226, 5.86051404476165771484e-01) (227, 6.47502422332763671875e-01) (228, 5.38248658180236816406e-01) (229, 1.92044116556644439697e-03) (230, 6.57688379287719726562e-01) (231, 5.94847500324249267578e-01) (232, 6.82069599628448486328e-01) (233, 6.74167871475219726562e-01) (234, 6.96518182754516601562e-01) (235, 6.72272503376007080078e-01) (236, -1.59823790192604064941e-01) (237, 5.10473072528839111328e-01) (238, -1.50030553340911865234e-01) (239, 6.93681180477142333984e-01) (240, 6.53171598911285400391e-01) (241, 5.44522464275360107422e-01) (242, -1.12940661609172821045e-01) (243, 6.28308236598968505859e-01) (244, 5.17535746097564697266e-01) (245, 5.95357298851013183594e-01) (246, 6.49195313453674316406e-01) (247, 6.75099194049835205078e-01) (248, 5.90130746364593505859e-01) (249, 5.52889108657836914062e-01) (250, 6.52588069438934326172e-01) (251, 4.16790414601564407349e-03) (252, 2.76611233130097389221e-03) (253, -1.12403281033039093018e-01) (254, -7.17385634779930114746e-02) (255, -1.05020450428128242493e-02) (256, -1.13972082734107971191e-01) (257, 2.13731322437524795532e-02) (258, -7.13857263326644897461e-02) (259, -4.04679365456104278564e-02) (260, -1.47536126896739006042e-02) (261, -1.09156884253025054932e-01) (262, -1.57278150320053100586e-01) (263, -2.09063813090324401855e-02) (264, -1.35616272687911987305e-01) (265, -1.80879935622215270996e-01) (266, -3.37493270635604858398e-02) (267, -1.03460751473903656006e-01) (268, -1.42632827162742614746e-01) (269, -3.01586352288722991943e-02) (270, -9.81645956635475158691e-02) (271, 7.28886248543858528137e-03) (272, 5.13960123062133789062e-01) (273, 6.33889377117156982422e-01) (274, 6.10235512256622314453e-01) (275, 5.34831106662750244141e-01) (276, 5.63523173332214355469e-01) (277, -1.20694987475872039795e-01) (278, -1.52749821543693542480e-01) (279, -9.84435714781284332275e-03) (280, -3.04877068847417831421e-02) (281, -6.46307133138179779053e-03) (282, 2.05531567335128784180e-02) (283, -6.42905980348587036133e-02) (284, -1.39337822794914245605e-01) (285, -7.00511783361434936523e-02) (286, -1.02444879710674285889e-01) (287, -5.94082139432430267334e-02) (288, 6.31203711032867431641e-01) (0, 1.50000000000000000000e+03) (1, 4.00151252746582031250e-01) (2, -3.63839089870452880859e-01) (3, -3.82412046194076538086e-01) (4, -3.51858407258987426758e-01) (5, 3.78121405839920043945e-01) (6, -3.73675078153610229492e-01) (7, 4.29520696401596069336e-01) (8, -2.58739292621612548828e-01) (9, 4.94879752397537231445e-01) (10, 4.58948642015457153320e-01) (11, -3.00396382808685302734e-01) (12, 5.46373724937438964844e-01) (13, 4.44374889135360717773e-01) (14, 4.77737665176391601562e-01) (15, -2.62362003326416015625e-01) (16, -2.12890714406967163086e-01) (17, 5.17829596996307373047e-01) (18, 3.75078499317169189453e-01) (19, 4.32923406362533569336e-01) (20, 5.34908533096313476562e-01) (21, 5.49784421920776367188e-01) (22, 3.61122488975524902344e-01) (23, 5.08938372135162353516e-01) (24, 5.31988561153411865234e-01) (25, 4.73827064037322998047e-01) (26, 5.50265669822692871094e-01) (27, 4.17140483856201171875e-01) (28, 5.31993150711059570312e-01) (29, -3.06729942560195922852e-01) (30, 4.75707024335861206055e-01) (31, -2.85622626543045043945e-01) (32, -2.71600574254989624023e-01) (33, -2.38190054893493652344e-01) (34, 5.10260105133056640625e-01) (35, 5.51124513149261474609e-01) (36, -2.40767121315002441406e-01) (37, -1.66275277733802795410e-01) (38, -3.45503002405166625977e-01) (39, -3.03005486726760864258e-01) (40, -2.87272781133651733398e-01) (41, 5.07061898708343505859e-01) (42, -2.08253771066665649414e-01) (43, -2.81576633453369140625e-01) (44, -3.85964781045913696289e-01) (45, 4.89728480577468872070e-01) (46, -3.50810140371322631836e-01) (47, -3.94369989633560180664e-01) (48, -3.53547751903533935547e-01) (49, 4.33583736419677734375e-01) (50, 4.54096525907516479492e-01) (51, 3.89224350452423095703e-01) (52, -2.93255776166915893555e-01) (53, -3.13351541757583618164e-01) (54, -2.25578933954238891602e-01) (55, 3.76767665147781372070e-01) (56, 5.68996489048004150391e-01) (57, 5.18165647983551025391e-01) (58, 4.26515191793441772461e-01) (59, 5.26605904102325439453e-01) (60, 4.21949148178100585938e-01) (61, 5.31502187252044677734e-01) (62, 4.57131624221801757812e-01) (63, 5.45012235641479492188e-01) (64, -2.64306336641311645508e-01) (65, 3.95934253931045532227e-01) (66, 5.35011827945709228516e-01) (67, -2.94521749019622802734e-01) (68, 3.90297561883926391602e-01) (69, -3.85864734649658203125e-01) (70, -3.97828638553619384766e-01) (71, -2.52244770526885986328e-01) (72, 5.34071445465087890625e-01) (73, 3.65789234638214111328e-01) (74, -3.42153787612915039062e-01) (75, -2.29367539286613464355e-01) (76, 4.76468622684478759766e-01) (77, 5.07657110691070556641e-01) (78, 3.76776784658432006836e-01) (79, 5.36749362945556640625e-01) (80, 5.58348894119262695312e-01) (81, 4.71496790647506713867e-01) (82, 3.71683210134506225586e-01) (83, 4.15199279785156250000e-01) (84, 5.57882308959960937500e-01) (85, 5.43856859207153320312e-01) (86, 4.21178758144378662109e-01) (87, 5.56412816047668457031e-01) (88, 5.01816332340240478516e-01) (89, 4.86252456903457641602e-01) (90, -2.36312687397003173828e-01) (91, 5.54712712764739990234e-01) (92, 4.54429149627685546875e-01) (93, 4.15317863225936889648e-01) (94, 5.38514256477355957031e-01) (95, 4.11968052387237548828e-01) (96, 4.48971450328826904297e-01) (97, -2.62187629938125610352e-01) (98, -2.72395372390747070312e-01) (99, -2.88635700941085815430e-01) (100, -2.57182538509368896484e-01) (101, -2.77969717979431152344e-01) (102, -3.35363805294036865234e-01) (103, -2.73650735616683959961e-01) (104, -2.52791255712509155273e-01) (105, 4.96293038129806518555e-01) (106, -2.80721008777618408203e-01) (107, -3.37354898452758789062e-01) (108, -3.34431588649749755859e-01) (109, -2.86362409591674804688e-01) (110, 3.99691671133041381836e-01) (111, -3.32328826189041137695e-01) (112, -3.76295268535614013672e-01) (113, 3.76323848962783813477e-01) (114, -2.86743760108947753906e-01) (115, -3.68475407361984252930e-01) (116, 3.84734243154525756836e-01) (117, -2.44600161910057067871e-01) (118, 3.91663312911987304688e-01) (119, -2.51861602067947387695e-01) (120, -3.22558432817459106445e-01) (121, 5.54900407791137695312e-01) (122, -2.59980469942092895508e-01) (123, 5.54840624332427978516e-01) (124, 4.11963462829589843750e-01) (125, 4.63750213384628295898e-01) (126, -3.45999777317047119141e-01) (127, 4.83929187059402465820e-01) (128, -3.53862285614013671875e-01) (129, 5.39701581001281738281e-01) (130, 3.95103573799133300781e-01) (131, 3.75963628292083740234e-01) (132, 4.61782395839691162109e-01) (133, 4.63379144668579101562e-01) (134, 4.95915412902832031250e-01) (135, 3.94180506467819213867e-01) (136, 4.07067358493804931641e-01) (137, 4.20036703348159790039e-01) (138, 4.61387157440185546875e-01) (139, 4.77754890918731689453e-01) (140, 5.50185203552246093750e-01) (141, -2.77842581272125244141e-01) (142, 5.44939696788787841797e-01) (143, -3.89644265174865722656e-01) (144, 5.45756399631500244141e-01) (145, 4.62487369775772094727e-01) (146, -3.56889605522155761719e-01) (147, -1.88158944249153137207e-01) (148, -3.30914646387100219727e-01) (149, -3.20188730955123901367e-01) (150, -2.55647778511047363281e-01) (151, -2.34966605901718139648e-01) (152, -3.23025554418563842773e-01) (153, -3.20803821086883544922e-01) (154, -2.69749253988265991211e-01) (155, -2.78908729553222656250e-01) (156, -2.16884613037109375000e-01) (157, -2.40650132298469543457e-01) (158, -3.49042624235153198242e-01) (159, -3.78339976072311401367e-01) (160, -3.01495969295501708984e-01) (161, 4.59660261869430541992e-01) (162, -3.51129978895187377930e-01) (163, 3.68753373622894287109e-01) (164, 5.58948755264282226562e-01) (165, 5.50185680389404296875e-01) (166, -3.54533672332763671875e-01) (167, -3.77323389053344726562e-01) (168, 3.93512159585952758789e-01) (169, -2.53910541534423828125e-01) (170, -2.48827993869781494141e-01) (171, 3.85893583297729492188e-01) (172, 4.50741499662399291992e-01) (173, -3.05844873189926147461e-01) (174, -3.66110324859619140625e-01) (175, -3.45209926366806030273e-01) (176, -4.10338699817657470703e-01) (177, -3.17617833614349365234e-01) (178, 4.32486921548843383789e-01) (179, 4.36779260635375976562e-01) (180, 5.46362400054931640625e-01) (181, 3.78805905580520629883e-01) (182, 3.92858207225799560547e-01) (183, 4.35645699501037597656e-01) (184, -2.81717747449874877930e-01) (185, -2.26905256509780883789e-01) (186, 5.57302176952362060547e-01) (187, 4.43578213453292846680e-01) (188, 5.20581841468811035156e-01) (189, -3.57627302408218383789e-01) (190, 4.84791547060012817383e-01) (191, 4.28005605936050415039e-01) (192, -2.65639603137969970703e-01) (193, -1.74900174140930175781e-01) (194, -3.18633198738098144531e-01) (195, -2.87011176347732543945e-01) (196, 5.46603143215179443359e-01) (197, 4.97513145208358764648e-01) (198, 5.17209112644195556641e-01) (199, 5.53328037261962890625e-01) (200, 4.49448764324188232422e-01) (201, 4.45756852626800537109e-01) (202, 3.71906787157058715820e-01) (203, 5.37720561027526855469e-01) (204, -2.01053440570831298828e-01) (205, 4.13762032985687255859e-01) (206, -3.66294562816619873047e-01) (207, -4.11324232816696166992e-01) (208, -2.53382354974746704102e-01) (209, -2.84240692853927612305e-01) (210, -3.35302323102951049805e-01) (211, 4.92623835802078247070e-01) (212, -2.77951002120971679688e-01) (213, -2.85763978958129882812e-01) (214, -2.07439944148063659668e-01) (215, -3.83639007806777954102e-01) (216, -2.99888849258422851562e-01) (217, -2.05180197954177856445e-01) (218, -2.99378633499145507812e-01) (219, -3.55012208223342895508e-01) (220, -3.68890136480331420898e-01) (221, -3.66287827491760253906e-01) (222, 4.87145870923995971680e-01) (223, 5.57512760162353515625e-01) (224, -3.95210534334182739258e-01) (225, -4.18990105390548706055e-01) (226, 4.77074652910232543945e-01) (227, 5.27991652488708496094e-01) (228, 4.95148032903671264648e-01) (229, -3.39669823646545410156e-01) (230, 5.10506808757781982422e-01) (231, 3.84871333837509155273e-01) (232, 5.06052196025848388672e-01) (233, 5.28662443161010742188e-01) (234, 5.60050308704376220703e-01) (235, 5.09247422218322753906e-01) (236, -4.07371044158935546875e-01) (237, 4.03128266334533691406e-01) (238, -2.54764229059219360352e-01) (239, 5.17954587936401367188e-01) (240, 5.20126521587371826172e-01) (241, 3.91563624143600463867e-01) (242, -3.24876278638839721680e-01) (243, 4.39431726932525634766e-01) (244, 5.06082713603973388672e-01) (245, 4.64305937290191650391e-01) (246, 4.46584939956665039062e-01) (247, 4.02840733528137207031e-01) (248, 4.54531967639923095703e-01) (249, 5.41742444038391113281e-01) (250, 4.52067643404006958008e-01) (251, -2.82069802284240722656e-01) (252, -3.99703323841094970703e-01) (253, -3.93717646598815917969e-01) (254, -2.81599432229995727539e-01) (255, -3.82439285516738891602e-01) (256, -3.93044412136077880859e-01) (257, -3.72441083192825317383e-01) (258, -2.38269999623298645020e-01) (259, -2.54196316003799438477e-01) (260, -3.12789738178253173828e-01) (261, -2.77440130710601806641e-01) (262, -2.43472814559936523438e-01) (263, -3.76466035842895507812e-01) (264, -3.23624014854431152344e-01) (265, -2.59340554475784301758e-01) (266, -2.09069788455963134766e-01) (267, -3.08791607618331909180e-01) (268, -2.23751276731491088867e-01) (269, -2.70934611558914184570e-01) (270, -3.56605768203735351562e-01) (271, -2.65507519245147705078e-01) (272, 5.39039909839630126953e-01) (273, 4.88138288259506225586e-01) (274, 3.70478034019470214844e-01) (275, 4.76673185825347900391e-01) (276, 3.79746705293655395508e-01) (277, -3.08575481176376342773e-01) (278, -2.41628974676132202148e-01) (279, -3.23852390050888061523e-01) (280, -3.19404900074005126953e-01) (281, -3.62316757440567016602e-01) (282, -3.75830441713333129883e-01) (283, -3.03607881069183349609e-01) (284, -3.29408198595046997070e-01) (285, -2.59474337100982666016e-01) (286, -2.95632123947143554688e-01) (287, -3.25704276561737060547e-01) (288, 5.18205404281616210938e-01) (0, 1.50000000000000000000e+03) (1, -2.53586947917938232422e-01) (2, 3.75660210847854614258e-01) (3, 2.90126651525497436523e-01) (4, 4.67534601688385009766e-01) (5, -1.70869052410125732422e-01) (6, 3.93143743276596069336e-01) (7, -1.45293340086936950684e-01) (8, 3.90220224857330322266e-01) (9, -9.80036705732345581055e-02) (10, -1.54777675867080688477e-01) (11, 3.53593647480010986328e-01) (12, -2.57648110389709472656e-01) (13, -2.14526504278182983398e-01) (14, -2.58287489414215087891e-01) (15, 4.35542553663253784180e-01) (16, 3.77018958330154418945e-01) (17, -1.41848564147949218750e-01) (18, -1.12819209694862365723e-01) (19, -1.14182367920875549316e-01) (20, -1.87464162707328796387e-01) (21, -2.26913735270500183105e-01) (22, -2.36003950238227844238e-01) (23, -1.41081184148788452148e-01) (24, -1.98091045022010803223e-01) (25, -1.36365205049514770508e-01) (26, -7.39644467830657958984e-02) (27, -2.68739551305770874023e-01) (28, -2.30969280004501342773e-01) (29, 3.60127389430999755859e-01) (30, -9.46141257882118225098e-02) (31, 4.32785689830780029297e-01) (32, 3.81390422582626342773e-01) (33, 3.41648370027542114258e-01) (34, -1.43140986561775207520e-01) (35, -1.97077438235282897949e-01) (36, 4.50257569551467895508e-01) (37, 2.75156944990158081055e-01) (38, 2.96775132417678833008e-01) (39, 3.50550681352615356445e-01) (40, 4.95154440402984619141e-01) (41, -1.50333344936370849609e-01) (42, 3.94901543855667114258e-01) (43, 2.95540958642959594727e-01) (44, 4.78493094444274902344e-01) (45, -1.57642200589179992676e-01) (46, 4.65416401624679565430e-01) (47, 3.42886984348297119141e-01) (48, 3.38908284902572631836e-01) (49, -1.51499882340431213379e-01) (50, -2.56270706653594970703e-01) (51, -1.36153638362884521484e-01) (52, 4.37137275934219360352e-01) (53, 3.48393768072128295898e-01) (54, 3.76239955425262451172e-01) (55, -2.36380264163017272949e-01) (56, -2.69038051366806030273e-01) (57, -2.03253567218780517578e-01) (58, -2.14145958423614501953e-01) (59, -2.32662945985794067383e-01) (60, -1.40266925096511840820e-01) (61, -2.37024694681167602539e-01) (62, -1.01725362241268157959e-01) (63, -2.32010319828987121582e-01) (64, 3.84818941354751586914e-01) (65, -1.73636734485626220703e-01) (66, -1.51901870965957641602e-01) (67, 3.53075385093688964844e-01) (68, -1.69131606817245483398e-01) (69, 4.13633793592453002930e-01) (70, 4.19095546007156372070e-01) (71, 4.07465547323226928711e-01) (72, -2.14341849088668823242e-01) (73, -2.34910711646080017090e-01) (74, 4.10398960113525390625e-01) (75, 3.24066221714019775391e-01) (76, -1.08441278338432312012e-01) (77, -2.17735394835472106934e-01) (78, -1.73611819744110107422e-01) (79, -2.53476887941360473633e-01) (80, -9.45459231734275817871e-02) (81, -1.49418950080871582031e-01) (82, -1.04746147990226745605e-01) (83, -1.22052222490310668945e-01) (84, -7.98746049404144287109e-02) (85, -2.30350568890571594238e-01) (86, -8.83549824357032775879e-02) (87, -8.88581797480583190918e-02) (88, -1.52218073606491088867e-01) (89, -2.25128695368766784668e-01) (90, 3.24600189924240112305e-01) (91, -2.02722787857055664062e-01) (92, -1.86898946762084960938e-01) (93, -2.69773781299591064453e-01) (94, -1.58115550875663757324e-01) (95, -9.33258682489395141602e-02) (96, -1.75875842571258544922e-01) (97, 3.20796579122543334961e-01) (98, 3.62120807170867919922e-01) (99, 2.97718852758407592773e-01) (100, 4.48958396911621093750e-01) (101, 4.91085648536682128906e-01) (102, 3.94569337368011474609e-01) (103, 3.03953468799591064453e-01) (104, 3.19138288497924804688e-01) (105, -2.59805917739868164062e-01) (106, 3.51246029138565063477e-01) (107, 2.89983242750167846680e-01) (108, 3.61611425876617431641e-01) (109, 4.73765313625335693359e-01) (110, -2.51247823238372802734e-01) (111, 3.44298303127288818359e-01) (112, 3.98540258407592773438e-01) (113, -7.94598907232284545898e-02) (114, 2.93452292680740356445e-01) (115, 3.68567824363708496094e-01) (116, -2.36007347702980041504e-01) (117, 5.01162648200988769531e-01) (118, -2.06350192427635192871e-01) (119, 4.78469997644424438477e-01) (120, 3.49947810173034667969e-01) (121, -1.69748127460479736328e-01) (122, 3.09308320283889770508e-01) (123, -1.37138366699218750000e-01) (124, -1.59042835235595703125e-01) (125, -1.49176314473152160645e-01) (126, 4.09856647253036499023e-01) (127, -2.56800591945648193359e-01) (128, 4.57697331905364990234e-01) (129, -1.04353711009025573730e-01) (130, -2.53842324018478393555e-01) (131, -1.36462613940238952637e-01) (132, -1.05727307498455047607e-01) (133, -1.42924442887306213379e-01) (134, -1.23804971575736999512e-01) (135, -8.01768004894256591797e-02) (136, -1.27158418297767639160e-01) (137, -2.51963824033737182617e-01) (138, -7.41438567638397216797e-02) (139, -2.53053486347198486328e-01) (140, -8.66757184267044067383e-02) (141, 3.28089565038681030273e-01) (142, -1.95893958210945129395e-01) (143, 3.94983857870101928711e-01) (144, -2.57267355918884277344e-01) (145, -1.85782372951507568359e-01) (146, 4.50863629579544067383e-01) (147, 3.30111771821975708008e-01) (148, 4.17649179697036743164e-01) (149, 3.46830993890762329102e-01) (150, 2.90126442909240722656e-01) (151, 4.14545536041259765625e-01) (152, 4.32399451732635498047e-01) (153, 3.10152709484100341797e-01) (154, 3.65586966276168823242e-01) (155, 3.44634354114532470703e-01) (156, 4.44801241159439086914e-01) (157, 4.93696838617324829102e-01) (158, 3.61820131540298461914e-01) (159, 4.18623536825180053711e-01) (160, 4.47803735733032226562e-01) (161, -1.87648922204971313477e-01) (162, 3.53010445833206176758e-01) (163, -1.54904514551162719727e-01) (164, -2.43662685155868530273e-01) (165, -2.53866225481033325195e-01) (166, 4.32661980390548706055e-01) (167, 4.59163397550582885742e-01) (168, -2.42475852370262145996e-01) (169, 4.05382573604583740234e-01) (170, 4.69222694635391235352e-01) (171, -2.47676223516464233398e-01) (172, -1.34647026658058166504e-01) (173, 3.65042895078659057617e-01) (174, 4.15051102638244628906e-01) (175, 4.65648353099822998047e-01) (176, 4.59992408752441406250e-01) (177, 3.75545620918273925781e-01) (178, -2.61365503072738647461e-01) (179, -2.41471439599990844727e-01) (180, -1.70200735330581665039e-01) (181, -2.55509048700332641602e-01) (182, -1.17932029068470001221e-01) (183, -2.17853128910064697266e-01) (184, 3.14854919910430908203e-01) (185, 3.19808989763259887695e-01) (186, -1.64332568645477294922e-01) (187, -7.29716420173645019531e-02) (188, -2.63653308153152465820e-01) (189, 4.74632531404495239258e-01) (190, -1.49972051382064819336e-01) (191, -1.11653722822666168213e-01) (192, 3.74312758445739746094e-01) (193, 4.96523022651672363281e-01) (194, 3.84307354688644409180e-01) (195, 3.99217814207077026367e-01) (196, -2.66189932823181152344e-01) (197, -2.53551691770553588867e-01) (198, -1.79537355899810791016e-01) (199, -2.26550295948982238770e-01) (200, -1.33120134472846984863e-01) (201, -1.93853616714477539062e-01) (202, -1.89704388380050659180e-01) (203, -1.89564973115921020508e-01) (204, 4.44035172462463378906e-01) (205, -9.55135524272918701172e-02) (206, 3.56705486774444580078e-01) (207, 4.16213631629943847656e-01) (208, 3.37120264768600463867e-01) (209, 3.49963277578353881836e-01) (210, 4.52320665121078491211e-01) (211, -1.21699817478656768799e-01) (212, 3.63399296998977661133e-01) (213, 3.93597751855850219727e-01) (214, 2.94557958841323852539e-01) (215, 4.02079612016677856445e-01) (216, 4.16418045759201049805e-01) (217, 4.11577343940734863281e-01) (218, 4.00782138109207153320e-01) (219, 4.43817704916000366211e-01) (220, 4.20815020799636840820e-01) (221, 3.43427240848541259766e-01) (222, -1.67345374822616577148e-01) (223, -2.63687878847122192383e-01) (224, 2.97610491514205932617e-01) (225, 3.14167916774749755859e-01) (226, -1.51338845491409301758e-01) (227, -2.14831411838531494141e-01) (228, -2.54685550928115844727e-01) (229, 3.07123482227325439453e-01) (230, -1.72635301947593688965e-01) (231, -1.06275416910648345947e-01) (232, -1.75939932465553283691e-01) (233, -8.88590440154075622559e-02) (234, -2.18542039394378662109e-01) (235, -2.14728489518165588379e-01) (236, 4.67237263917922973633e-01) (237, -1.71871289610862731934e-01) (238, 4.58640992641448974609e-01) (239, -2.63668477535247802734e-01) (240, -1.08468838036060333252e-01) (241, -1.59067764878273010254e-01) (242, 4.73733425140380859375e-01) (243, -2.32622817158699035645e-01) (244, -2.51778423786163330078e-01) (245, -1.01728461682796478271e-01) (246, -1.26632899045944213867e-01) (247, -1.25737935304641723633e-01) (248, -1.73920258879661560059e-01) (249, -2.12399140000343322754e-01) (250, -1.89189165830612182617e-01) (251, 3.27439755201339721680e-01) (252, 4.20146822929382324219e-01) (253, 4.80961829423904418945e-01) (254, 3.14037024974822998047e-01) (255, 4.43060278892517089844e-01) (256, 5.07504701614379882812e-01) (257, 4.39703673124313354492e-01) (258, 2.93795019388198852539e-01) (259, 3.07170003652572631836e-01) (260, 4.82174098491668701172e-01) (261, 4.03869986534118652344e-01) (262, 4.69715148210525512695e-01) (263, 3.66841554641723632812e-01) (264, 3.83360743522644042969e-01) (265, 3.43492627143859863281e-01) (266, 4.30542051792144775391e-01) (267, 3.48624169826507568359e-01) (268, 4.30450022220611572266e-01) (269, 4.22840684652328491211e-01) (270, 3.58806073665618896484e-01) (271, 3.88109087944030761719e-01) (272, -2.36812025308609008789e-01) (273, -2.40549251437187194824e-01) (274, -1.37358069419860839844e-01) (275, -2.17751130461692810059e-01) (276, -2.55182534456253051758e-01) (277, 4.03322488069534301758e-01) (278, 3.01906615495681762695e-01) (279, 4.24444019794464111328e-01) (280, 4.48711365461349487305e-01) (281, 4.13202285766601562500e-01) (282, 4.25754070281982421875e-01) (283, 3.56838434934616088867e-01) (284, 3.90293359756469726562e-01) (285, 4.51822340488433837891e-01) (286, 3.11603218317031860352e-01) (287, 3.83863002061843872070e-01) (288, -2.72808849811553955078e-01) (0, 1.50000000000000000000e+03) (1, -1.56871899962425231934e-01) (2, 3.98828953504562377930e-01) (3, 4.38269168138504028320e-01) (4, 3.87512326240539550781e-01) (5, -1.11079201102256774902e-01) (6, 3.57197850942611694336e-01) (7, -1.40804752707481384277e-01) (8, 4.02678310871124267578e-01) (9, -1.63969039916992187500e-01) (10, -2.00938016176223754883e-01) (11, 3.39744508266448974609e-01) (12, -9.56610217690467834473e-02) (13, -9.69156622886657714844e-02) (14, -2.08347722887992858887e-01) (15, 3.08159649372100830078e-01) (16, 4.25904273986816406250e-01) (17, -1.46493673324584960938e-01) (18, -2.34986230731010437012e-01) (19, -2.66484320163726806641e-01) (20, -1.34710118174552917480e-01) (21, -1.22768536210060119629e-01) (22, -1.09062582254409790039e-01) (23, -2.33805343508720397949e-01) (24, -1.78450718522071838379e-01) (25, -2.30352252721786499023e-01) (26, -1.28284305334091186523e-01) (27, -2.25377902388572692871e-01) (28, -2.06942915916442871094e-01) (29, 3.28266680240631103516e-01) (30, -1.06945939362049102783e-01) (31, 4.11692142486572265625e-01) (32, 4.45930033922195434570e-01) (33, 3.52485328912734985352e-01) (34, -2.16411247849464416504e-01) (35, -2.12560057640075683594e-01) (36, 3.22043895721435546875e-01) (37, 3.66260021924972534180e-01) (38, 4.85781103372573852539e-01) (39, 4.33453351259231567383e-01) (40, 3.18411260843276977539e-01) (41, -2.07487702369689941406e-01) (42, 4.65044349431991577148e-01) (43, 4.82228428125381469727e-01) (44, 3.39128524065017700195e-01) (45, -2.38296762108802795410e-01) (46, 3.25679749250411987305e-01) (47, 4.53915327787399291992e-01) (48, 4.53923076391220092773e-01) (49, -2.13403642177581787109e-01) (50, -9.93763208389282226562e-02) (51, -1.68699294328689575195e-01) (52, 2.79378741979598999023e-01) (53, 4.33201819658279418945e-01) (54, 4.51937377452850341797e-01) (55, -1.74498483538627624512e-01) (56, -7.90641978383064270020e-02) (57, -1.82372927665710449219e-01) (58, -1.09306074678897857666e-01) (59, -2.18662932515144348145e-01) (60, -1.32503211498260498047e-01) (61, -1.44072473049163818359e-01) (62, -1.08818911015987396240e-01) (63, -1.78765162825584411621e-01) (64, 2.88163989782333374023e-01) (65, -2.53681749105453491211e-01) (66, -1.14139311015605926514e-01) (67, 3.27047407627105712891e-01) (68, -1.58073216676712036133e-01) (69, 4.40402358770370483398e-01) (70, 4.75970238447189331055e-01) (71, 4.43191200494766235352e-01) (72, -2.44727745652198791504e-01) (73, -1.08629994094371795654e-01) (74, 4.33719396591186523438e-01) (75, 3.54136943817138671875e-01) (76, -2.62815326452255249023e-01) (77, -1.34151622653007507324e-01) (78, -2.33917415142059326172e-01) (79, -9.31501984596252441406e-02) (80, -2.72866070270538330078e-01) (81, -2.52402961254119873047e-01) (82, -1.76965281367301940918e-01) (83, -2.58131027221679687500e-01) (84, -9.85950529575347900391e-02) (85, -2.27369055151939392090e-01) (86, -1.63022056221961975098e-01) (87, -1.17604978382587432861e-01) (88, -1.28355905413627624512e-01) (89, -1.94485500454902648926e-01) (90, 3.09853345155715942383e-01) (91, -1.89783096313476562500e-01) (92, -2.63747841119766235352e-01) (93, -9.16139557957649230957e-02) (94, -9.23027098178863525391e-02) (95, -2.66829669475555419922e-01) (96, -7.77610018849372863770e-02) (97, 4.24372106790542602539e-01) (98, 3.61960470676422119141e-01) (99, 4.06892210245132446289e-01) (100, 3.79302442073822021484e-01) (101, 3.48147004842758178711e-01) (102, 3.39938580989837646484e-01) (103, 4.03911709785461425781e-01) (104, 3.02480429410934448242e-01) (105, -9.11159813404083251953e-02) (106, 4.83704060316085815430e-01) (107, 3.19233387708663940430e-01) (108, 4.13884878158569335938e-01) (109, 3.43488574028015136719e-01) (110, -2.61200875043869018555e-01) (111, 4.19412106275558471680e-01) (112, 3.65003645420074462891e-01) (113, -1.62102326750755310059e-01) (114, 4.31327193975448608398e-01) (115, 3.16586911678314208984e-01) (116, -1.15668363869190216064e-01) (117, 3.64840090274810791016e-01) (118, -8.70780572295188903809e-02) (119, 4.22671169042587280273e-01) (120, 4.44269001483917236328e-01) (121, -2.65222877264022827148e-01) (122, 4.66647535562515258789e-01) (123, -1.19665779173374176025e-01) (124, -7.60985761880874633789e-02) (125, -1.26594468951225280762e-01) (126, 4.53825563192367553711e-01) (127, -7.57407024502754211426e-02) (128, 3.83854627609252929688e-01) (129, -2.59916394948959350586e-01) (130, -1.63543283939361572266e-01) (131, -8.04318264126777648926e-02) (132, -2.03946515917778015137e-01) (133, -1.07581913471221923828e-01) (134, -1.66875064373016357422e-01) (135, -1.94771960377693176270e-01) (136, -1.23126223683357238770e-01) (137, -1.65214031934738159180e-01) (138, -1.59489035606384277344e-01) (139, -1.96747511625289916992e-01) (140, -1.30463942885398864746e-01) (141, 4.31688636541366577148e-01) (142, -2.65635251998901367188e-01) (143, 3.17934960126876831055e-01) (144, -2.35678315162658691406e-01) (145, -1.17648512125015258789e-01) (146, 3.21833819150924682617e-01) (147, 4.72328186035156250000e-01) (148, 2.66894221305847167969e-01) (149, 3.37073475122451782227e-01) (150, 3.76255571842193603516e-01) (151, 4.40678775310516357422e-01) (152, 3.31934034824371337891e-01) (153, 3.52748215198516845703e-01) (154, 4.09192711114883422852e-01) (155, 3.21784913539886474609e-01) (156, 3.09884846210479736328e-01) (157, 3.81271660327911376953e-01) (158, 3.21140080690383911133e-01) (159, 4.10260587930679321289e-01) (160, 3.79501521587371826172e-01) (161, -1.39422595500946044922e-01) (162, 4.01148825883865356445e-01) (163, -1.21111586689949035645e-01) (164, -1.60093799233436584473e-01) (165, -2.49268129467964172363e-01) (166, 3.51583451032638549805e-01) (167, 3.46764534711837768555e-01) (168, -1.50919228792190551758e-01) (169, 4.38738107681274414062e-01) (170, 4.13129597902297973633e-01) (171, -2.00378373265266418457e-01) (172, -1.96563318371772766113e-01) (173, 4.39208954572677612305e-01) (174, 3.84515225887298583984e-01) (175, 4.25320982933044433594e-01) (176, 4.02292430400848388672e-01) (177, 4.16764736175537109375e-01) (178, -1.59267827868461608887e-01) (179, -1.67359381914138793945e-01) (180, -1.38419881463050842285e-01) (181, -2.67779499292373657227e-01) (182, -2.17079371213912963867e-01) (183, -9.16235819458961486816e-02) (184, 3.44386696815490722656e-01) (185, 4.63660091161727905273e-01) (186, -2.60650098323822021484e-01) (187, -1.76864221692085266113e-01) (188, -2.32227221131324768066e-01) (189, 3.40572208166122436523e-01) (190, -2.62227803468704223633e-01) (191, -1.48215651512145996094e-01) (192, 2.83920288085937500000e-01) (193, 4.39863443374633789062e-01) (194, 3.81538301706314086914e-01) (195, 4.04628366231918334961e-01) (196, -1.25709027051925659180e-01) (197, -1.31868571043014526367e-01) (198, -9.82053577899932861328e-02) (199, -1.94983333349227905273e-01) (200, -1.82839259505271911621e-01) (201, -1.68614685535430908203e-01) (202, -1.10839687287807464600e-01) (203, -1.00678570568561553955e-01) (204, 3.43440234661102294922e-01) (205, -2.45544478297233581543e-01) (206, 4.04742717742919921875e-01) (207, 4.57918703556060791016e-01) (208, 4.27453190088272094727e-01) (209, 2.99600988626480102539e-01) (210, 3.68541032075881958008e-01) (211, -1.99319720268249511719e-01) (212, 3.00536245107650756836e-01) (213, 4.09660190343856811523e-01) (214, 3.42582076787948608398e-01) (215, 3.68926614522933959961e-01) (216, 3.75121176242828369141e-01) (217, 3.63284111022949218750e-01) (218, 4.64884430170059204102e-01) (219, 4.35157030820846557617e-01) (220, 4.34457391500473022461e-01) (221, 5.39317846298217773438e-01) (222, 