FANN_FLO_2.1
num_layers=3
learning_rate=0.700000
connection_rate=1.000000
network_type=0
learning_momentum=0.100000
training_algorithm=2
train_error_function=1
train_stop_function=0
cascade_output_change_fraction=0.010000
quickprop_decay=-0.000100
quickprop_mu=1.750000
rprop_increase_factor=1.200000
rprop_decrease_factor=0.500000
rprop_delta_min=0.000000
rprop_delta_max=50.000000
rprop_delta_zero=0.100000
cascade_output_stagnation_epochs=12
cascade_candidate_change_fraction=0.010000
cascade_candidate_stagnation_epochs=12
cascade_max_out_epochs=150
cascade_min_out_epochs=50
cascade_max_cand_epochs=150
cascade_min_cand_epochs=50
cascade_num_candidate_groups=2
bit_fail_limit=3.49999994039535522461e-01
cascade_candidate_limit=1.00000000000000000000e+03
cascade_weight_multiplier=4.00000005960464477539e-01
cascade_activation_functions_count=10
cascade_activation_functions=3 5 7 8 10 11 14 15 16 17 
cascade_activation_steepnesses_count=4
cascade_activation_steepnesses=2.50000000000000000000e-01 5.00000000000000000000e-01 7.50000000000000000000e-01 1.00000000000000000000e+00 
layer_sizes=289 325 2 
scale_included=0
neurons (num_inputs, activation_function, activation_steepness)=(0, 0, 0.00000000000000000000e+00) (0, 0, 0.00000000000000000000e+00) (0, 0, 0.00000000000000000000e+00) (0, 0, 0.00000000000000000000e+00) (0, 0, 0.00000000000000000000e+00) (0, 0, 0.00000000000000000000e+00) (0, 0, 0.00000000000000000000e+00) (0, 0, 0.00000000000000000000e+00) (0, 0, 0.00000000000000000000e+00) (0, 0, 0.00000000000000000000e+00) (0, 0, 0.00000000000000000000e+00) (0, 0, 0.00000000000000000000e+00) (0, 0, 0.00000000000000000000e+00) (0, 0, 0.00000000000000000000e+00) (0, 0, 0.00000000000000000000e+00) (0, 0, 0.00000000000000000000e+00) (0, 0, 0.00000000000000000000e+00) (0, 0, 0.00000000000000000000e+00) (0, 0, 0.00000000000000000000e+00) (0, 0, 0.00000000000000000000e+00) (0, 0, 0.00000000000000000000e+00) (0, 0, 0.00000000000000000000e+00) (0, 0, 0.00000000000000000000e+00) (0, 0, 0.00000000000000000000e+00) (0, 0, 0.00000000000000000000e+00) (0, 0, 0.00000000000000000000e+00) (0, 0, 0.00000000000000000000e+00) (0, 0, 0.00000000000000000000e+00) (0, 0, 0.00000000000000000000e+00) (0, 0, 0.00000000000000000000e+00) (0, 0, 0.00000000000000000000e+00) (0, 0, 0.00000000000000000000e+00) (0, 0, 0.00000000000000000000e+00) (0, 0, 0.00000000000000000000e+00) (0, 0, 0.00000000000000000000e+00) (0, 0, 0.00000000000000000000e+00) (0, 0, 0.00000000000000000000e+00) (0, 0, 0.00000000000000000000e+00) (0, 0, 0.00000000000000000000e+00) (0, 0, 0.00000000000000000000e+00) (0, 0, 0.00000000000000000000e+00) (0, 0, 0.00000000000000000000e+00) (0, 0, 0.00000000000000000000e+00) (0, 0, 0.00000000000000000000e+00) (0, 0, 0.00000000000000000000e+00) (0, 0, 0.00000000000000000000e+00) (0, 0, 0.00000000000000000000e+00) (0, 0, 0.00000000000000000000e+00) (0, 0, 0.00000000000000000000e+00) (0, 0, 0.00000000000000000000e+00) (0, 0, 0.00000000000000000000e+00) (0, 0, 0.00000000000000000000e+00) (0, 0, 0.00000000000000000000e+00) (0, 0, 0.00000000000000000000e+00) (0, 0, 0.00000000000000000000e+00) (0, 0, 0.00000000000000000000e+00) (0, 0, 0.00000000000000000000e+00) (0, 0, 0.00000000000000000000e+00) (0, 0, 0.00000000000000000000e+00) (0, 0, 0.00000000000000000000e+00) (0, 0, 0.00000000000000000000e+00) (0, 0, 0.00000000000000000000e+00) (0, 0, 0.00000000000000000000e+00) (0, 0, 0.00000000000000000000e+00) (0, 0, 0.00000000000000000000e+00) (0, 0, 0.00000000000000000000e+00) (0, 0, 0.00000000000000000000e+00) (0, 0, 0.00000000000000000000e+00) (0, 0, 0.00000000000000000000e+00) (0, 0, 0.00000000000000000000e+00) (0, 0, 0.00000000000000000000e+00) (0, 0, 0.00000000000000000000e+00) (0, 0, 0.00000000000000000000e+00) (0, 0, 0.00000000000000000000e+00) (0, 0, 0.00000000000000000000e+00) (0, 0, 0.00000000000000000000e+00) (0, 0, 0.00000000000000000000e+00) (0, 0, 0.00000000000000000000e+00) (0, 0, 0.00000000000000000000e+00) (0, 0, 0.00000000000000000000e+00) (0, 0, 0.00000000000000000000e+00) (0, 0, 0.00000000000000000000e+00) (0, 0, 0.00000000000000000000e+00) (0, 0, 0.00000000000000000000e+00) (0, 0, 0.00000000000000000000e+00) (0, 0, 0.00000000000000000000e+00) (0, 0, 0.00000000000000000000e+00) (0, 0, 0.00000000000000000000e+00) (0, 0, 0.00000000000000000000e+00) (0, 0, 0.00000000000000000000e+00) (0, 0, 0.00000000000000000000e+00) (0, 0, 0.00000000000000000000e+00) (0, 0, 0.00000000000000000000e+00) (0, 0, 0.00000000000000000000e+00) (0, 0, 0.00000000000000000000e+00) (0, 0, 0.00000000000000000000e+00) (0, 0, 0.00000000000000000000e+00) (0, 0, 0.00000000000000000000e+00) (0, 0, 0.00000000000000000000e+00) (0, 0, 0.00000000000000000000e+00) (0, 0, 0.00000000000000000000e+00) (0, 0, 0.00000000000000000000e+00) (0, 0, 0.00000000000000000000e+00) (0, 0, 0.00000000000000000000e+00) (0, 0, 0.00000000000000000000e+00) (0, 0, 0.00000000000000000000e+00) (0, 0, 0.00000000000000000000e+00) (0, 0, 0.00000000000000000000e+00) (0, 0, 0.00000000000000000000e+00) (0, 0, 0.00000000000000000000e+00) (0, 0, 0.00000000000000000000e+00) (0, 0, 0.00000000000000000000e+00) (0, 0, 0.00000000000000000000e+00) (0, 0, 0.00000000000000000000e+00) (0, 0, 0.00000000000000000000e+00) (0, 0, 0.00000000000000000000e+00) (0, 0, 0.00000000000000000000e+00) (0, 0, 0.00000000000000000000e+00) (0, 0, 0.00000000000000000000e+00) (0, 0, 0.00000000000000000000e+00) (0, 0, 0.00000000000000000000e+00) (0, 0, 0.00000000000000000000e+00) (0, 0, 0.00000000000000000000e+00) (0, 0, 0.00000000000000000000e+00) (0, 0, 0.00000000000000000000e+00) (0, 0, 0.00000000000000000000e+00) (0, 0, 0.00000000000000000000e+00) (0, 0, 0.00000000000000000000e+00) (0, 0, 0.00000000000000000000e+00) (0, 0, 0.00000000000000000000e+00) (0, 0, 0.00000000000000000000e+00) (0, 0, 0.00000000000000000000e+00) (0, 0, 0.00000000000000000000e+00) (0, 0, 0.00000000000000000000e+00) (0, 0, 0.00000000000000000000e+00) (0, 0, 0.00000000000000000000e+00) (0, 0, 0.00000000000000000000e+00) (0, 0, 0.00000000000000000000e+00) (0, 0, 0.00000000000000000000e+00) (0, 0, 0.00000000000000000000e+00) (0, 0, 0.00000000000000000000e+00) (0, 0, 0.00000000000000000000e+00) (0, 0, 0.00000000000000000000e+00) (0, 0, 0.00000000000000000000e+00) (0, 0, 0.00000000000000000000e+00) (0, 0, 0.00000000000000000000e+00) (0, 0, 0.00000000000000000000e+00) (0, 0, 0.00000000000000000000e+00) (0, 0, 0.00000000000000000000e+00) (0, 0, 0.00000000000000000000e+00) (0, 0, 0.00000000000000000000e+00) (0, 0, 0.00000000000000000000e+00) (0, 0, 0.00000000000000000000e+00) (0, 0, 0.00000000000000000000e+00) (0, 0, 0.00000000000000000000e+00) (0, 0, 0.00000000000000000000e+00) (0, 0, 0.00000000000000000000e+00) (0, 0, 0.00000000000000000000e+00) (0, 0, 0.00000000000000000000e+00) (0, 0, 0.00000000000000000000e+00) (0, 0, 0.00000000000000000000e+00) (0, 0, 0.00000000000000000000e+00) (0, 0, 0.00000000000000000000e+00) (0, 0, 0.00000000000000000000e+00) (0, 0, 0.00000000000000000000e+00) (0, 0, 0.00000000000000000000e+00) (0, 0, 0.00000000000000000000e+00) (0, 0, 0.00000000000000000000e+00) (0, 0, 0.00000000000000000000e+00) (0, 0, 0.00000000000000000000e+00) (0, 0, 0.00000000000000000000e+00) (0, 0, 0.00000000000000000000e+00) (0, 0, 0.00000000000000000000e+00) (0, 0, 0.00000000000000000000e+00) (0, 0, 0.00000000000000000000e+00) (0, 0, 0.00000000000000000000e+00) (0, 0, 0.00000000000000000000e+00) (0, 0, 0.00000000000000000000e+00) (0, 0, 0.00000000000000000000e+00) (0, 0, 0.00000000000000000000e+00) (0, 0, 0.00000000000000000000e+00) (0, 0, 0.00000000000000000000e+00) (0, 0, 0.00000000000000000000e+00) (0, 0, 0.00000000000000000000e+00) (0, 0, 0.00000000000000000000e+00) (0, 0, 0.00000000000000000000e+00) (0, 0, 0.00000000000000000000e+00) (0, 0, 0.00000000000000000000e+00) (0, 0, 0.00000000000000000000e+00) (0, 0, 0.00000000000000000000e+00) (0, 0, 0.00000000000000000000e+00) (0, 0, 0.00000000000000000000e+00) (0, 0, 0.00000000000000000000e+00) (0, 0, 0.00000000000000000000e+00) (0, 0, 0.00000000000000000000e+00) (0, 0, 0.00000000000000000000e+00) (0, 0, 0.00000000000000000000e+00) (0, 0, 0.00000000000000000000e+00) (0, 0, 0.00000000000000000000e+00) (0, 0, 0.00000000000000000000e+00) (0, 0, 0.00000000000000000000e+00) (0, 0, 0.00000000000000000000e+00) (0, 0, 0.00000000000000000000e+00) (0, 0, 0.00000000000000000000e+00) (0, 0, 0.00000000000000000000e+00) (0, 0, 0.00000000000000000000e+00) (0, 0, 0.00000000000000000000e+00) (0, 0, 0.00000000000000000000e+00) (0, 0, 0.00000000000000000000e+00) (0, 0, 0.00000000000000000000e+00) (0, 0, 0.00000000000000000000e+00) (0, 0, 0.00000000000000000000e+00) (0, 0, 0.00000000000000000000e+00) (0, 0, 0.00000000000000000000e+00) (0, 0, 0.00000000000000000000e+00) (0, 0, 0.00000000000000000000e+00) (0, 0, 0.00000000000000000000e+00) (0, 0, 0.00000000000000000000e+00) (0, 0, 0.00000000000000000000e+00) (0, 0, 0.00000000000000000000e+00) (0, 0, 0.00000000000000000000e+00) (0, 0, 0.00000000000000000000e+00) (0, 0, 0.00000000000000000000e+00) (0, 0, 0.00000000000000000000e+00) (0, 0, 0.00000000000000000000e+00) (0, 0, 0.00000000000000000000e+00) (0, 0, 0.00000000000000000000e+00) (0, 0, 0.00000000000000000000e+00) (0, 0, 0.00000000000000000000e+00) (0, 0, 0.00000000000000000000e+00) (0, 0, 0.00000000000000000000e+00) (0, 0, 0.00000000000000000000e+00) (0, 0, 0.00000000000000000000e+00) (0, 0, 0.00000000000000000000e+00) (0, 0, 0.00000000000000000000e+00) (0, 0, 0.00000000000000000000e+00) (0, 0, 0.00000000000000000000e+00) (0, 0, 0.00000000000000000000e+00) (0, 0, 0.00000000000000000000e+00) (0, 0, 0.00000000000000000000e+00) (0, 0, 0.00000000000000000000e+00) (0, 0, 0.00000000000000000000e+00) (0, 0, 0.00000000000000000000e+00) (0, 0, 0.00000000000000000000e+00) (0, 0, 0.00000000000000000000e+00) (0, 0, 0.00000000000000000000e+00) (0, 0, 0.00000000000000000000e+00) (0, 0, 0.00000000000000000000e+00) (0, 0, 0.00000000000000000000e+00) (0, 0, 0.00000000000000000000e+00) (0, 0, 0.00000000000000000000e+00) (0, 0, 0.00000000000000000000e+00) (0, 0, 0.00000000000000000000e+00) (0, 0, 0.00000000000000000000e+00) (0, 0, 0.00000000000000000000e+00) (0, 0, 0.00000000000000000000e+00) (0, 0, 0.00000000000000000000e+00) (0, 0, 0.00000000000000000000e+00) (0, 0, 0.00000000000000000000e+00) (0, 0, 0.00000000000000000000e+00) (0, 0, 0.00000000000000000000e+00) (0, 0, 0.00000000000000000000e+00) (0, 0, 0.00000000000000000000e+00) (0, 0, 0.00000000000000000000e+00) (0, 0, 0.00000000000000000000e+00) (0, 0, 0.00000000000000000000e+00) (0, 0, 0.00000000000000000000e+00) (0, 0, 0.00000000000000000000e+00) (0, 0, 0.00000000000000000000e+00) (0, 0, 0.00000000000000000000e+00) (0, 0, 0.00000000000000000000e+00) (0, 0, 0.00000000000000000000e+00) (0, 0, 0.00000000000000000000e+00) (0, 0, 0.00000000000000000000e+00) (0, 0, 0.00000000000000000000e+00) (0, 0, 0.00000000000000000000e+00) (0, 0, 0.00000000000000000000e+00) (0, 0, 0.00000000000000000000e+00) (0, 0, 0.00000000000000000000e+00) (0, 0, 0.00000000000000000000e+00) (0, 0, 0.00000000000000000000e+00) (0, 0, 0.00000000000000000000e+00) (0, 0, 0.00000000000000000000e+00) (0, 0, 0.00000000000000000000e+00) (0, 0, 0.00000000000000000000e+00) (0, 0, 0.00000000000000000000e+00) (0, 0, 0.00000000000000000000e+00) (0, 0, 0.00000000000000000000e+00) (0, 0, 0.00000000000000000000e+00) (289, 5, 5.00000000000000000000e-01) (289, 5, 5.00000000000000000000e-01) (289, 5, 5.00000000000000000000e-01) (289, 5, 5.00000000000000000000e-01) (289, 5, 5.00000000000000000000e-01) (289, 5, 5.00000000000000000000e-01) (289, 5, 5.00000000000000000000e-01) (289, 5, 5.00000000000000000000e-01) (289, 5, 5.00000000000000000000e-01) (289, 5, 5.00000000000000000000e-01) (289, 5, 5.00000000000000000000e-01) (289, 5, 5.00000000000000000000e-01) (289, 5, 5.00000000000000000000e-01) (289, 5, 5.00000000000000000000e-01) (289, 5, 5.00000000000000000000e-01) (289, 5, 5.00000000000000000000e-01) (289, 5, 5.00000000000000000000e-01) (289, 5, 5.00000000000000000000e-01) (289, 5, 5.00000000000000000000e-01) (289, 5, 5.00000000000000000000e-01) (289, 5, 5.00000000000000000000e-01) (289, 5, 5.00000000000000000000e-01) (289, 5, 5.00000000000000000000e-01) (289, 5, 5.00000000000000000000e-01) (289, 5, 5.00000000000000000000e-01) (289, 5, 5.00000000000000000000e-01) (289, 5, 5.00000000000000000000e-01) (289, 5, 5.00000000000000000000e-01) (289, 5, 5.00000000000000000000e-01) (289, 5, 5.00000000000000000000e-01) (289, 5, 5.00000000000000000000e-01) (289, 5, 5.00000000000000000000e-01) (289, 5, 5.00000000000000000000e-01) (289, 5, 5.00000000000000000000e-01) (289, 5, 5.00000000000000000000e-01) (289, 5, 5.00000000000000000000e-01) (289, 5, 5.00000000000000000000e-01) (289, 5, 5.00000000000000000000e-01) (289, 5, 5.00000000000000000000e-01) (289, 5, 5.00000000000000000000e-01) (289, 5, 5.00000000000000000000e-01) (289, 5, 5.00000000000000000000e-01) (289, 5, 5.00000000000000000000e-01) (289, 5, 5.00000000000000000000e-01) (289, 5, 5.00000000000000000000e-01) (289, 5, 5.00000000000000000000e-01) (289, 5, 5.00000000000000000000e-01) (289, 5, 5.00000000000000000000e-01) (289, 5, 5.00000000000000000000e-01) (289, 5, 5.00000000000000000000e-01) (289, 5, 5.00000000000000000000e-01) (289, 5, 5.00000000000000000000e-01) (289, 5, 5.00000000000000000000e-01) (289, 5, 5.00000000000000000000e-01) (289, 5, 5.00000000000000000000e-01) (289, 5, 5.00000000000000000000e-01) (289, 5, 5.00000000000000000000e-01) (289, 5, 5.00000000000000000000e-01) (289, 5, 5.00000000000000000000e-01) (289, 5, 5.00000000000000000000e-01) (289, 5, 5.00000000000000000000e-01) (289, 5, 5.00000000000000000000e-01) (289, 5, 5.00000000000000000000e-01) (289, 5, 5.00000000000000000000e-01) (289, 5, 5.00000000000000000000e-01) (289, 5, 5.00000000000000000000e-01) (289, 5, 5.00000000000000000000e-01) (289, 5, 5.00000000000000000000e-01) (289, 5, 5.00000000000000000000e-01) (289, 5, 5.00000000000000000000e-01) (289, 5, 5.00000000000000000000e-01) (289, 5, 5.00000000000000000000e-01) (289, 5, 5.00000000000000000000e-01) (289, 5, 5.00000000000000000000e-01) (289, 5, 5.00000000000000000000e-01) (289, 5, 5.00000000000000000000e-01) (289, 5, 5.00000000000000000000e-01) (289, 5, 5.00000000000000000000e-01) (289, 5, 5.00000000000000000000e-01) (289, 5, 5.00000000000000000000e-01) (289, 5, 5.00000000000000000000e-01) (289, 5, 5.00000000000000000000e-01) (289, 5, 5.00000000000000000000e-01) (289, 5, 5.00000000000000000000e-01) (289, 5, 5.00000000000000000000e-01) (289, 5, 5.00000000000000000000e-01) (289, 5, 5.00000000000000000000e-01) (289, 5, 5.00000000000000000000e-01) (289, 5, 5.00000000000000000000e-01) (289, 5, 5.00000000000000000000e-01) (289, 5, 5.00000000000000000000e-01) (289, 5, 5.00000000000000000000e-01) (289, 5, 5.00000000000000000000e-01) (289, 5, 5.00000000000000000000e-01) (289, 5, 5.00000000000000000000e-01) (289, 5, 5.00000000000000000000e-01) (289, 5, 5.00000000000000000000e-01) (289, 5, 5.00000000000000000000e-01) (289, 5, 5.00000000000000000000e-01) (289, 5, 5.00000000000000000000e-01) (289, 5, 5.00000000000000000000e-01) (289, 5, 5.00000000000000000000e-01) (289, 5, 5.00000000000000000000e-01) (289, 5, 5.00000000000000000000e-01) (289, 5, 5.00000000000000000000e-01) (289, 5, 5.00000000000000000000e-01) (289, 5, 5.00000000000000000000e-01) (289, 5, 5.00000000000000000000e-01) (289, 5, 5.00000000000000000000e-01) (289, 5, 5.00000000000000000000e-01) (289, 5, 5.00000000000000000000e-01) (289, 5, 5.00000000000000000000e-01) (289, 5, 5.00000000000000000000e-01) (289, 5, 5.00000000000000000000e-01) (289, 5, 5.00000000000000000000e-01) (289, 5, 5.00000000000000000000e-01) (289, 5, 5.00000000000000000000e-01) (289, 5, 5.00000000000000000000e-01) (289, 5, 5.00000000000000000000e-01) (289, 5, 5.00000000000000000000e-01) (289, 5, 5.00000000000000000000e-01) (289, 5, 5.00000000000000000000e-01) (289, 5, 5.00000000000000000000e-01) (289, 5, 5.00000000000000000000e-01) (289, 5, 5.00000000000000000000e-01) (289, 5, 5.00000000000000000000e-01) (289, 5, 5.00000000000000000000e-01) (289, 5, 5.00000000000000000000e-01) (289, 5, 5.00000000000000000000e-01) (289, 5, 5.00000000000000000000e-01) (289, 5, 5.00000000000000000000e-01) (289, 5, 5.00000000000000000000e-01) (289, 5, 5.00000000000000000000e-01) (289, 5, 5.00000000000000000000e-01) (289, 5, 5.00000000000000000000e-01) (289, 5, 5.00000000000000000000e-01) (289, 5, 5.00000000000000000000e-01) (289, 5, 5.00000000000000000000e-01) (289, 5, 5.00000000000000000000e-01) (289, 5, 5.00000000000000000000e-01) (289, 5, 5.00000000000000000000e-01) (289, 5, 5.00000000000000000000e-01) (289, 5, 5.00000000000000000000e-01) (289, 5, 5.00000000000000000000e-01) (289, 5, 5.00000000000000000000e-01) (289, 5, 5.00000000000000000000e-01) (289, 5, 5.00000000000000000000e-01) (289, 5, 5.00000000000000000000e-01) (289, 5, 5.00000000000000000000e-01) (289, 5, 5.00000000000000000000e-01) (289, 5, 5.00000000000000000000e-01) (289, 5, 5.00000000000000000000e-01) (289, 5, 5.00000000000000000000e-01) (289, 5, 5.00000000000000000000e-01) (289, 5, 5.00000000000000000000e-01) (289, 5, 5.00000000000000000000e-01) (289, 5, 5.00000000000000000000e-01) (289, 5, 5.00000000000000000000e-01) (289, 5, 5.00000000000000000000e-01) (289, 5, 5.00000000000000000000e-01) (289, 5, 5.00000000000000000000e-01) (289, 5, 5.00000000000000000000e-01) (289, 5, 5.00000000000000000000e-01) (289, 5, 5.00000000000000000000e-01) (289, 5, 5.00000000000000000000e-01) (289, 5, 5.00000000000000000000e-01) (289, 5, 5.00000000000000000000e-01) (289, 5, 5.00000000000000000000e-01) (289, 5, 5.00000000000000000000e-01) (289, 5, 5.00000000000000000000e-01) (289, 5, 5.00000000000000000000e-01) (289, 5, 5.00000000000000000000e-01) (289, 5, 5.00000000000000000000e-01) (289, 5, 5.00000000000000000000e-01) (289, 5, 5.00000000000000000000e-01) (289, 5, 5.00000000000000000000e-01) (289, 5, 5.00000000000000000000e-01) (289, 5, 5.00000000000000000000e-01) (289, 5, 5.00000000000000000000e-01) (289, 5, 5.00000000000000000000e-01) (289, 5, 5.00000000000000000000e-01) (289, 5, 5.00000000000000000000e-01) (289, 5, 5.00000000000000000000e-01) (289, 5, 5.00000000000000000000e-01) (289, 5, 5.00000000000000000000e-01) (289, 5, 5.00000000000000000000e-01) (289, 5, 5.00000000000000000000e-01) (289, 5, 5.00000000000000000000e-01) (289, 5, 5.00000000000000000000e-01) (289, 5, 5.00000000000000000000e-01) (289, 5, 5.00000000000000000000e-01) (289, 5, 5.00000000000000000000e-01) (289, 5, 5.00000000000000000000e-01) (289, 5, 5.00000000000000000000e-01) (289, 5, 5.00000000000000000000e-01) (289, 5, 5.00000000000000000000e-01) (289, 5, 5.00000000000000000000e-01) (289, 5, 5.00000000000000000000e-01) (289, 5, 5.00000000000000000000e-01) (289, 5, 5.00000000000000000000e-01) (289, 5, 5.00000000000000000000e-01) (289, 5, 5.00000000000000000000e-01) (289, 5, 5.00000000000000000000e-01) (289, 5, 5.00000000000000000000e-01) (289, 5, 5.00000000000000000000e-01) (289, 5, 5.00000000000000000000e-01) (289, 5, 5.00000000000000000000e-01) (289, 5, 5.00000000000000000000e-01) (289, 5, 5.00000000000000000000e-01) (289, 5, 5.00000000000000000000e-01) (289, 5, 5.00000000000000000000e-01) (289, 5, 5.00000000000000000000e-01) (289, 5, 5.00000000000000000000e-01) (289, 5, 5.00000000000000000000e-01) (289, 5, 5.00000000000000000000e-01) (289, 5, 5.00000000000000000000e-01) (289, 5, 5.00000000000000000000e-01) (289, 5, 5.00000000000000000000e-01) (289, 5, 5.00000000000000000000e-01) (289, 5, 5.00000000000000000000e-01) (289, 5, 5.00000000000000000000e-01) (289, 5, 5.00000000000000000000e-01) (289, 5, 5.00000000000000000000e-01) (289, 5, 5.00000000000000000000e-01) (289, 5, 5.00000000000000000000e-01) (289, 5, 5.00000000000000000000e-01) (289, 5, 5.00000000000000000000e-01) (289, 5, 5.00000000000000000000e-01) (289, 5, 5.00000000000000000000e-01) (289, 5, 5.00000000000000000000e-01) (289, 5, 5.00000000000000000000e-01) (289, 5, 5.00000000000000000000e-01) (289, 5, 5.00000000000000000000e-01) (289, 5, 5.00000000000000000000e-01) (289, 5, 5.00000000000000000000e-01) (289, 5, 5.00000000000000000000e-01) (289, 5, 5.00000000000000000000e-01) (289, 5, 5.00000000000000000000e-01) (289, 5, 5.00000000000000000000e-01) (289, 5, 5.00000000000000000000e-01) (289, 5, 5.00000000000000000000e-01) (289, 5, 5.00000000000000000000e-01) (289, 5, 5.00000000000000000000e-01) (289, 5, 5.00000000000000000000e-01) (289, 5, 5.00000000000000000000e-01) (289, 5, 5.00000000000000000000e-01) (289, 5, 5.00000000000000000000e-01) (289, 5, 5.00000000000000000000e-01) (289, 5, 5.00000000000000000000e-01) (289, 5, 5.00000000000000000000e-01) (289, 5, 5.00000000000000000000e-01) (289, 5, 5.00000000000000000000e-01) (289, 5, 5.00000000000000000000e-01) (289, 5, 5.00000000000000000000e-01) (289, 5, 5.00000000000000000000e-01) (289, 5, 5.00000000000000000000e-01) (289, 5, 5.00000000000000000000e-01) (289, 5, 5.00000000000000000000e-01) (289, 5, 5.00000000000000000000e-01) (289, 5, 5.00000000000000000000e-01) (289, 5, 5.00000000000000000000e-01) (289, 5, 5.00000000000000000000e-01) (289, 5, 5.00000000000000000000e-01) (289, 5, 5.00000000000000000000e-01) (289, 5, 5.00000000000000000000e-01) (289, 5, 5.00000000000000000000e-01) (289, 5, 5.00000000000000000000e-01) (289, 5, 5.00000000000000000000e-01) (289, 5, 5.00000000000000000000e-01) (289, 5, 5.00000000000000000000e-01) (289, 5, 5.00000000000000000000e-01) (289, 5, 5.00000000000000000000e-01) (289, 5, 5.00000000000000000000e-01) (289, 5, 5.00000000000000000000e-01) (289, 5, 5.00000000000000000000e-01) (289, 5, 5.00000000000000000000e-01) (289, 5, 5.00000000000000000000e-01) (289, 5, 5.00000000000000000000e-01) (289, 5, 5.00000000000000000000e-01) (289, 5, 5.00000000000000000000e-01) (289, 5, 5.00000000000000000000e-01) (289, 5, 5.00000000000000000000e-01) (289, 5, 5.00000000000000000000e-01) (289, 5, 5.00000000000000000000e-01) (289, 5, 5.00000000000000000000e-01) (289, 5, 5.00000000000000000000e-01) (289, 5, 5.00000000000000000000e-01) (289, 5, 5.00000000000000000000e-01) (289, 5, 5.00000000000000000000e-01) (289, 5, 5.00000000000000000000e-01) (289, 5, 5.00000000000000000000e-01) (289, 5, 5.00000000000000000000e-01) (289, 5, 5.00000000000000000000e-01) (289, 5, 5.00000000000000000000e-01) (289, 5, 5.00000000000000000000e-01) (289, 5, 5.00000000000000000000e-01) (289, 5, 5.00000000000000000000e-01) (289, 5, 5.00000000000000000000e-01) (289, 5, 5.00000000000000000000e-01) (289, 5, 5.00000000000000000000e-01) (289, 5, 5.00000000000000000000e-01) (289, 5, 5.00000000000000000000e-01) (289, 5, 5.00000000000000000000e-01) (289, 5, 5.00000000000000000000e-01) (289, 5, 5.00000000000000000000e-01) (289, 5, 5.00000000000000000000e-01) (289, 5, 5.00000000000000000000e-01) (289, 5, 5.00000000000000000000e-01) (289, 5, 5.00000000000000000000e-01) (289, 5, 5.00000000000000000000e-01) (289, 5, 5.00000000000000000000e-01) (289, 5, 5.00000000000000000000e-01) (289, 5, 5.00000000000000000000e-01) (289, 5, 5.00000000000000000000e-01) (289, 5, 5.00000000000000000000e-01) (289, 5, 5.00000000000000000000e-01) (289, 5, 5.00000000000000000000e-01) (289, 5, 5.00000000000000000000e-01) (289, 5, 5.00000000000000000000e-01) (289, 5, 5.00000000000000000000e-01) (289, 5, 5.00000000000000000000e-01) (289, 5, 5.00000000000000000000e-01) (289, 5, 5.00000000000000000000e-01) (289, 5, 5.00000000000000000000e-01) (0, 5, 0.00000000000000000000e+00) (325, 5, 5.00000000000000000000e-01) (0, 5, 0.00000000000000000000e+00) 
connections (connected_to_neuron, weight)=(0, 1.50000000000000000000e+03) (1, 3.82597863674163818359e-01) (2, 3.22696685791015625000e-01) (3, 4.03848052024841308594e-01) (4, 3.70428264141082763672e-01) (5, 4.66548770666122436523e-01) (6, 5.29281616210937500000e-01) (7, 4.71190512180328369141e-01) (8, 4.18407648801803588867e-01) (9, 5.07903933525085449219e-01) (10, 4.77181226015090942383e-01) (11, 4.80493098497390747070e-01) (12, 4.78793412446975708008e-01) (13, 4.67843055725097656250e-01) (14, 4.42092239856719970703e-01) (15, 5.30955553054809570312e-01) (16, 4.34207409620285034180e-01) (17, 4.68025624752044677734e-01) (18, 3.49777370691299438477e-01) (19, 3.69285166263580322266e-01) (20, 5.17302930355072021484e-01) (21, 4.58529919385910034180e-01) (22, 4.22129303216934204102e-01) (23, 3.88021796941757202148e-01) (24, 3.68555158376693725586e-01) (25, 5.27772188186645507812e-01) (26, 4.69478815793991088867e-01) (27, 4.46288764476776123047e-01) (28, 5.19664466381072998047e-01) (29, 4.09571081399917602539e-01) (30, 4.65508997440338134766e-01) (31, 4.13153678178787231445e-01) (32, 4.90534752607345581055e-01) (33, -3.26375424861907958984e-01) (34, 4.87023025751113891602e-01) (35, 5.16696929931640625000e-01) (36, 4.53563213348388671875e-01) (37, 4.75895434617996215820e-01) (38, 3.81999164819717407227e-01) (39, 4.91642445325851440430e-01) (40, 4.43487286567687988281e-01) (41, 4.03669506311416625977e-01) (42, 4.32848393917083740234e-01) (43, 3.97732019424438476562e-01) (44, 5.42258024215698242188e-01) (45, 5.35447716712951660156e-01) (46, 3.79297494888305664062e-01) (47, 4.30558115243911743164e-01) (48, 4.12029236555099487305e-01) (49, 3.88137757778167724609e-01) (50, 4.53164458274841308594e-01) (51, 3.98026973009109497070e-01) (52, 4.94617104530334472656e-01) (53, 5.10984599590301513672e-01) (54, 4.86558884382247924805e-01) (55, 5.29426991939544677734e-01) (56, 4.70241516828536987305e-01) (57, 3.46090286970138549805e-01) (58, 4.19035375118255615234e-01) (59, 4.38436746597290039062e-01) (60, 4.18087452650070190430e-01) (61, 3.57744336128234863281e-01) (62, 5.54115474224090576172e-01) (63, 5.36421298980712890625e-01) (64, 4.82570111751556396484e-01) (65, 4.39704626798629760742e-01) (66, 4.92218345403671264648e-01) (67, 5.44829308986663818359e-01) (68, 3.83751004934310913086e-01) (69, 4.56156849861145019531e-01) (70, 4.81456369161605834961e-01) (71, 4.88027870655059814453e-01) (72, 4.58056122064590454102e-01) (73, 3.72600406408309936523e-01) (74, 3.47706556320190429688e-01) (75, 4.64074522256851196289e-01) (76, 3.21277827024459838867e-01) (77, 3.83929193019866943359e-01) (78, 3.51030945777893066406e-01) (79, 4.31516945362091064453e-01) (80, 4.33668673038482666016e-01) (81, 4.56196367740631103516e-01) (82, 4.74002629518508911133e-01) (83, 3.75263035297393798828e-01) (84, 4.23223972320556640625e-01) (85, 3.79861176013946533203e-01) (86, 3.63110899925231933594e-01) (87, 5.38489222526550292969e-01) (88, 3.74240338802337646484e-01) (89, 4.52220231294631958008e-01) (90, 4.32969778776168823242e-01) (91, 4.46410626173019409180e-01) (92, 4.68063563108444213867e-01) (93, 3.95896553993225097656e-01) (94, 4.35457497835159301758e-01) (95, 4.11589205265045166016e-01) (96, 5.08899033069610595703e-01) (97, 3.94955098628997802734e-01) (98, 4.13450121879577636719e-01) (99, 5.24553477764129638672e-01) (100, 4.63135182857513427734e-01) (101, -5.61625599861145019531e-01) (102, -3.00869405269622802734e-01) (103, 3.83490711450576782227e-01) (104, 3.74343156814575195312e-01) (105, 4.86912816762924194336e-01) (106, 4.88099843263626098633e-01) (107, 3.95507365465164184570e-01) (108, -2.65488505363464355469e-01) (109, 5.10151565074920654297e-01) (110, 5.09779930114746093750e-01) (111, 4.05447512865066528320e-01) (112, 4.12904500961303710938e-01) (113, 4.01709526777267456055e-01) (114, 4.40330833196640014648e-01) (115, 5.31106829643249511719e-01) (116, 5.25262951850891113281e-01) (117, 4.54868733882904052734e-01) (118, 4.73884880542755126953e-01) (119, 5.23977994918823242188e-01) (120, 3.64617913961410522461e-01) (121, 3.62477272748947143555e-01) (122, 3.65794658660888671875e-01) (123, 4.98489171266555786133e-01) (124, 4.12802368402481079102e-01) (125, 4.60734486579895019531e-01) (126, 3.59272480010986328125e-01) (127, 3.69351327419281005859e-01) (128, 5.05362808704376220703e-01) (129, 4.23288673162460327148e-01) (130, 3.53944361209869384766e-01) (131, 4.28830623626708984375e-01) (132, 4.35800284147262573242e-01) (133, 5.05753397941589355469e-01) (134, 4.65082347393035888672e-01) (135, 4.67393726110458374023e-01) (136, 4.89098191261291503906e-01) (137, 4.31760728359222412109e-01) (138, 5.22007703781127929688e-01) (139, 4.32751029729843139648e-01) (140, 3.82490426301956176758e-01) (141, 4.94271755218505859375e-01) (142, 5.21538376808166503906e-01) (143, 4.46541279554367065430e-01) (144, 5.38344383239746093750e-01) (145, 4.68124598264694213867e-01) (146, 3.93719285726547241211e-01) (147, 4.28292512893676757812e-01) (148, 3.46387892961502075195e-01) (149, 5.32158553600311279297e-01) (150, 3.59908729791641235352e-01) (151, -4.18716222047805786133e-01) (152, 3.68877023458480834961e-01) (153, -4.24940347671508789062e-01) (154, -2.60161161422729492188e-01) (155, 4.35844630002975463867e-01) (156, 4.94088411331176757812e-01) (157, 3.56868952512741088867e-01) (158, 4.80837196111679077148e-01) (159, 4.57277387380599975586e-01) (160, 4.50219124555587768555e-01) (161, 5.00257372856140136719e-01) (162, 3.43512177467346191406e-01) (163, 3.50282490253448486328e-01) (164, 4.72781896591186523438e-01) (165, 4.77705180644989013672e-01) (166, 4.76571172475814819336e-01) (167, 3.67445796728134155273e-01) (168, 3.79762977361679077148e-01) (169, 4.83440548181533813477e-01) (170, 5.21934986114501953125e-01) (171, 4.10267472267150878906e-01) (172, 3.93193185329437255859e-01) (173, -3.51371407508850097656e-01) (174, 5.31622231006622314453e-01) (175, 3.81778419017791748047e-01) (176, 5.16963779926300048828e-01) (177, 3.77223163843154907227e-01) (178, 4.64910298585891723633e-01) (179, 5.17518281936645507812e-01) (180, 3.81081730127334594727e-01) (181, 4.70280468463897705078e-01) (182, 4.05230104923248291016e-01) (183, 4.13943529129028320312e-01) (184, 5.00306904315948486328e-01) (185, 3.59142959117889404297e-01) (186, 5.10581612586975097656e-01) (187, 4.72575068473815917969e-01) (188, 3.78367066383361816406e-01) (189, 4.61227238178253173828e-01) (190, 3.91479372978210449219e-01) (191, 4.79915022850036621094e-01) (192, -3.65810155868530273438e-01) (193, 4.02928948402404785156e-01) (194, 6.26238942146301269531e-01) (195, 5.41739284992218017578e-01) (196, 3.30963701009750366211e-01) (197, 5.02112984657287597656e-01) (198, 3.64510029554367065430e-01) (199, 3.64418298006057739258e-01) (200, 3.79830300807952880859e-01) (201, 5.01302182674407958984e-01) (202, 4.48730468750000000000e-01) (203, 4.31389808654785156250e-01) (204, 3.98607760667800903320e-01) (205, 4.30225670337677001953e-01) (206, 4.74579453468322753906e-01) (207, 3.78421634435653686523e-01) (208, 4.73931938409805297852e-01) (209, -4.07578855752944946289e-01) (210, 3.54501485824584960938e-01) (211, 5.05482077598571777344e-01) (212, 3.35684478282928466797e-01) (213, 3.68390113115310668945e-01) (214, 3.73846262693405151367e-01) (215, 5.13598620891571044922e-01) (216, -3.89684915542602539062e-01) (217, 3.56149822473526000977e-01) (218, 4.41623330116271972656e-01) (219, 4.37622785568237304688e-01) (220, 4.75041449069976806641e-01) (221, 4.90246146917343139648e-01) (222, 3.72769832611083984375e-01) (223, 3.49262654781341552734e-01) (224, 3.14960539340972900391e-01) (225, 6.00964426994323730469e-01) (226, 3.29906523227691650391e-01) (227, 3.44684123992919921875e-01) (228, 4.33756172657012939453e-01) (229, 3.59295666217803955078e-01) (230, 3.72079163789749145508e-01) (231, 4.65330272912979125977e-01) (232, 5.31785368919372558594e-01) (233, 4.93683695793151855469e-01) (234, 3.67231070995330810547e-01) (235, 2.95803815126419067383e-01) (236, 3.74920755624771118164e-01) (237, 4.25274461507797241211e-01) (238, 4.18684631586074829102e-01) (239, 5.11034905910491943359e-01) (240, 3.53897094726562500000e-01) (241, 4.21786993741989135742e-01) (242, 4.76579159498214721680e-01) (243, 3.38905841112136840820e-01) (244, 4.76830095052719116211e-01) (245, 5.68205595016479492188e-01) (246, 5.52118897438049316406e-01) (247, 5.31299650669097900391e-01) (248, 5.07016003131866455078e-01) (249, -3.57796788215637207031e-01) (250, 4.18884634971618652344e-01) (251, -3.47684860229492187500e-01) (252, 3.13836634159088134766e-01) (253, -3.41582626104354858398e-01) (254, -3.29846620559692382812e-01) (255, -3.97642582654953002930e-01) (256, -3.53798210620880126953e-01) (257, 4.66932237148284912109e-01) (258, -3.92970532178878784180e-01) (259, 3.51404994726181030273e-01) (260, 5.45651197433471679688e-01) (261, -3.56100529432296752930e-01) (262, 4.76343095302581787109e-01) (263, -3.13498705625534057617e-01) (264, -4.06002938747406005859e-01) (265, 3.91736418008804321289e-01) (266, 3.97646874189376831055e-01) (267, -3.76932084560394287109e-01) (268, -3.32626342773437500000e-01) (269, -4.03522521257400512695e-01) (270, 3.14559847116470336914e-01) (271, 5.06921529769897460938e-01) (272, 5.40844023227691650391e-01) (273, 5.07657945156097412109e-01) (274, 4.87133264541625976562e-01) (275, 4.25951719284057617188e-01) (276, -3.03947031497955322266e-01) (277, 4.68765377998352050781e-01) (278, 4.33857023715972900391e-01) (279, -3.25902700424194335938e-01) (280, 4.32654887437820434570e-01) (281, -3.06681811809539794922e-01) (282, -3.78758490085601806641e-01) (283, -3.78620356321334838867e-01) (284, -3.77769082784652709961e-01) (285, -2.64237046241760253906e-01) (286, -3.31543624401092529297e-01) (287, -2.84737050533294677734e-01) (288, 4.38531696796417236328e-01) (0, 1.50000000000000000000e+03) (1, 4.97246146202087402344e-01) (2, 4.32917267084121704102e-01) (3, 4.25421178340911865234e-01) (4, 4.29474681615829467773e-01) (5, 3.40436577796936035156e-01) (6, 4.71862226724624633789e-01) (7, 3.87607395648956298828e-01) (8, 5.15354573726654052734e-01) (9, 3.40474933385848999023e-01) (10, 4.97745037078857421875e-01) (11, 3.69244188070297241211e-01) (12, 3.95606130361557006836e-01) (13, 4.30752903223037719727e-01) (14, 5.28931498527526855469e-01) (15, 3.73529464006423950195e-01) (16, 3.78611773252487182617e-01) (17, 4.62776124477386474609e-01) (18, 5.22173762321472167969e-01) (19, 5.23734748363494873047e-01) (20, 4.87560927867889404297e-01) (21, 4.67448204755783081055e-01) (22, 3.73068839311599731445e-01) (23, 4.36565339565277099609e-01) (24, 5.12912511825561523438e-01) (25, 4.65688109397888183594e-01) (26, 5.06178379058837890625e-01) (27, 5.01174449920654296875e-01) (28, 3.62853705883026123047e-01) (29, 4.58141714334487915039e-01) (30, 4.15643155574798583984e-01) (31, 3.51330429315567016602e-01) (32, 4.53753739595413208008e-01) (33, -3.15349459648132324219e-01) (34, 4.47016328573226928711e-01) (35, 5.38962244987487792969e-01) (36, 3.58399182558059692383e-01) (37, 3.78469914197921752930e-01) (38, 3.20681482553482055664e-01) (39, 4.76717203855514526367e-01) (40, 3.78633379936218261719e-01) (41, 3.62915664911270141602e-01) (42, 5.07014274597167968750e-01) (43, 4.49690759181976318359e-01) (44, 4.64413881301879882812e-01) (45, 4.95867192745208740234e-01) (46, 4.73830699920654296875e-01) (47, 4.97118651866912841797e-01) (48, 3.67199510335922241211e-01) (49, 4.55419987440109252930e-01) (50, 4.74173963069915771484e-01) (51, 5.23455858230590820312e-01) (52, 3.70464593172073364258e-01) (53, 4.82933133840560913086e-01) (54, 4.60530966520309448242e-01) (55, 3.49874526262283325195e-01) (56, 3.80106836557388305664e-01) (57, 3.65949302911758422852e-01) (58, 4.94125097990036010742e-01) (59, 3.91491830348968505859e-01) (60, 4.86517161130905151367e-01) (61, 3.82968187332153320312e-01) (62, 4.45590019226074218750e-01) (63, 3.68069440126419067383e-01) (64, 5.20782470703125000000e-01) (65, 4.90858674049377441406e-01) (66, 3.46132308244705200195e-01) (67, 4.71169173717498779297e-01) (68, 5.38108766078948974609e-01) (69, 4.48753148317337036133e-01) (70, 3.92871111631393432617e-01) (71, 3.76940786838531494141e-01) (72, 4.09622550010681152344e-01) (73, 3.57840985059738159180e-01) (74, 4.88854438066482543945e-01) (75, 5.38073360919952392578e-01) (76, 4.67891067266464233398e-01) (77, 4.19610202312469482422e-01) (78, 4.91220712661743164062e-01) (79, 5.32347917556762695312e-01) (80, 5.35474717617034912109e-01) (81, 4.17462527751922607422e-01) (82, 5.00262200832366943359e-01) (83, 3.53720843791961669922e-01) (84, 3.56741666793823242188e-01) (85, 3.79100233316421508789e-01) (86, 3.61773192882537841797e-01) (87, 3.81519496440887451172e-01) (88, 3.94330799579620361328e-01) (89, 5.26324927806854248047e-01) (90, 4.29407864809036254883e-01) (91, 5.35283446311950683594e-01) (92, 3.67039352655410766602e-01) (93, 4.83552992343902587891e-01) (94, 3.55626255273818969727e-01) (95, 3.48776757717132568359e-01) (96, 4.48280215263366699219e-01) (97, 3.69037926197052001953e-01) (98, 4.76977646350860595703e-01) (99, 4.17977601289749145508e-01) (100, 4.28521752357482910156e-01) (101, -2.63149589300155639648e-01) (102, -3.70516419410705566406e-01) (103, 5.02013027667999267578e-01) (104, 5.34526467323303222656e-01) (105, 4.10443842411041259766e-01) (106, 4.80620324611663818359e-01) (107, 5.01351058483123779297e-01) (108, -3.06046068668365478516e-01) (109, 4.43516761064529418945e-01) (110, 5.16453742980957031250e-01) (111, 4.67500358819961547852e-01) (112, 5.07553160190582275391e-01) (113, 4.34642672538757324219e-01) (114, 4.81311857700347900391e-01) (115, 5.58750987052917480469e-01) (116, 5.58715403079986572266e-01) (117, 4.94041681289672851562e-01) (118, 3.45433831214904785156e-01) (119, 5.77232837677001953125e-01) (120, 4.77542906999588012695e-01) (121, 4.30778861045837402344e-01) (122, 5.08274793624877929688e-01) (123, 5.10390341281890869141e-01) (124, 3.68702679872512817383e-01) (125, 5.22421598434448242188e-01) (126, 5.07317602634429931641e-01) (127, 4.64633435010910034180e-01) (128, 3.41633796691894531250e-01) (129, 4.35904473066329956055e-01) (130, 3.42651069164276123047e-01) (131, 4.31536376476287841797e-01) (132, 4.23358201980590820312e-01) (133, 4.77073609828948974609e-01) (134, 3.86309742927551269531e-01) (135, 4.15134459733963012695e-01) (136, 3.84179979562759399414e-01) (137, 3.46082091331481933594e-01) (138, 3.76061379909515380859e-01) (139, 4.87908869981765747070e-01) (140, 4.29317921400070190430e-01) (141, 5.54215490818023681641e-01) (142, 4.38114941120147705078e-01) (143, 3.88247311115264892578e-01) (144, 4.31182324886322021484e-01) (145, 4.25557762384414672852e-01) (146, 3.63360971212387084961e-01) (147, 3.54647696018218994141e-01) (148, 5.42649030685424804688e-01) (149, 3.73348623514175415039e-01) (150, 5.39496481418609619141e-01) (151, -3.09530824422836303711e-01) (152, 4.78054910898208618164e-01) (153, -3.00666600465774536133e-01) (154, -3.39686691761016845703e-01) (155, 5.00923156738281250000e-01) (156, 4.77417141199111938477e-01) (157, 4.27043467760086059570e-01) (158, 4.41197425127029418945e-01) (159, 4.76344764232635498047e-01) (160, 5.33010244369506835938e-01) (161, 4.49324101209640502930e-01) (162, 3.65573287010192871094e-01) (163, 4.20630812644958496094e-01) (164, 3.93169224262237548828e-01) (165, 4.20993626117706298828e-01) (166, 4.94660198688507080078e-01) (167, 3.82444471120834350586e-01) (168, 4.36799317598342895508e-01) (169, 3.54760915040969848633e-01) (170, 5.91928362846374511719e-01) (171, 5.14602363109588623047e-01) (172, 5.25124013423919677734e-01) (173, -3.64800989627838134766e-01) (174, 3.56498688459396362305e-01) (175, 4.06899929046630859375e-01) (176, 4.55833017826080322266e-01) (177, 3.92204374074935913086e-01) (178, 4.16072517633438110352e-01) (179, 4.57966893911361694336e-01) (180, 4.37656939029693603516e-01) (181, 4.01367187500000000000e-01) (182, 4.54334199428558349609e-01) (183, 3.79293262958526611328e-01) (184, 3.52778136730194091797e-01) (185, 5.29333889484405517578e-01) (186, 3.41253697872161865234e-01) (187, 5.08375525474548339844e-01) (188, 4.18731868267059326172e-01) (189, 4.52015399932861328125e-01) (190, 4.46635127067565917969e-01) (191, 4.02717530727386474609e-01) (192, -4.29172217845916748047e-01) (193, 4.80145812034606933594e-01) (194, 6.19742333889007568359e-01) (195, 4.01981323957443237305e-01) (196, 3.51469069719314575195e-01) (197, 5.13705372810363769531e-01) (198, 4.40221548080444335938e-01) (199, 4.43609803915023803711e-01) (200, 4.63095664978027343750e-01) (201, 4.47006553411483764648e-01) (202, 4.30136084556579589844e-01) (203, 4.48379486799240112305e-01) (204, 5.30883431434631347656e-01) (205, 4.57374036312103271484e-01) (206, 5.14897406101226806641e-01) (207, 4.54355001449584960938e-01) (208, 5.15658617019653320312e-01) (209, -4.15000051259994506836e-01) (210, 3.70353341102600097656e-01) (211, 4.03379976749420166016e-01) (212, 4.59151118993759155273e-01) (213, 4.33346092700958251953e-01) (214, 4.37408685684204101562e-01) (215, 4.88950699567794799805e-01) (216, -3.54068338871002197266e-01) (217, 4.49825733900070190430e-01) (218, 4.52776551246643066406e-01) (219, 5.13486742973327636719e-01) (220, 3.59505474567413330078e-01) (221, 3.56555193662643432617e-01) (222, 3.71435880661010742188e-01) (223, 3.73581826686859130859e-01) (224, 5.46115100383758544922e-01) (225, 5.93133807182312011719e-01) (226, 4.15101766586303710938e-01) (227, 5.08716166019439697266e-01) (228, 4.37517940998077392578e-01) (229, 5.19569218158721923828e-01) (230, 4.13652271032333374023e-01) (231, 3.52357298135757446289e-01) (232, 4.37763124704360961914e-01) (233, 5.18367111682891845703e-01) (234, 4.69706237316131591797e-01) (235, 3.34057092666625976562e-01) (236, 4.24644559621810913086e-01) (237, 3.67815077304840087891e-01) (238, 5.32871484756469726562e-01) (239, 4.03043806552886962891e-01) (240, 4.88231897354125976562e-01) (241, 3.51825296878814697266e-01) (242, 4.65927511453628540039e-01) (243, 3.96409720182418823242e-01) (244, 4.71824437379837036133e-01) (245, 4.20449256896972656250e-01) (246, 3.81387710571289062500e-01) (247, 3.61194759607315063477e-01) (248, 4.53287720680236816406e-01) (249, -3.14075052738189697266e-01) (250, 5.24536192417144775391e-01) (251, -2.42503851652145385742e-01) (252, 4.23564970493316650391e-01) (253, -4.34235602617263793945e-01) (254, -2.74326384067535400391e-01) (255, -3.44431430101394653320e-01) (256, -4.57023322582244873047e-01) (257, 4.06549394130706787109e-01) (258, -3.75382453203201293945e-01) (259, 4.31962370872497558594e-01) (260, 4.45541173219680786133e-01) (261, -2.97227412462234497070e-01) (262, 4.63863670825958251953e-01) (263, -3.07630360126495361328e-01) (264, -3.23863089084625244141e-01) (265, 2.80547946691513061523e-01) (266, 4.31760817766189575195e-01) (267, -4.44310009479522705078e-01) (268, -2.99634039402008056641e-01) (269, -4.45214360952377319336e-01) (270, 3.37873607873916625977e-01) (271, 4.73295331001281738281e-01) (272, 4.29190278053283691406e-01) (273, 6.07403397560119628906e-01) (274, 5.10723710060119628906e-01) (275, 5.09292840957641601562e-01) (276, -4.38964605331420898438e-01) (277, 6.11950039863586425781e-01) (278, 3.85372787714004516602e-01) (279, -3.14371943473815917969e-01) (280, 5.31860470771789550781e-01) (281, -2.88095086812973022461e-01) (282, -3.35963428020477294922e-01) (283, -3.68996977806091308594e-01) (284, -2.88516521453857421875e-01) (285, -3.66638362407684326172e-01) (286, -2.68075466156005859375e-01) (287, -2.64799714088439941406e-01) (288, 4.75471496582031250000e-01) (0, 1.50000000000000000000e+03) (1, -1.48967713117599487305e-01) (2, -2.44604825973510742188e-01) (3, -1.97688192129135131836e-01) (4, -2.29815900325775146484e-01) (5, -8.20126235485076904297e-02) (6, -7.21804574131965637207e-02) (7, -1.81831702589988708496e-01) (8, -6.42197579145431518555e-02) (9, -6.57760426402091979980e-02) (10, -3.93259003758430480957e-02) (11, -5.26845492422580718994e-02) (12, -1.93964138627052307129e-01) (13, -1.40272513031959533691e-01) (14, -2.04591557383537292480e-01) (15, -2.02673316001892089844e-01) (16, -1.69420495629310607910e-01) (17, -7.41483345627784729004e-02) (18, -1.88554137945175170898e-01) (19, -1.67856276035308837891e-01) (20, -4.70386333763599395752e-02) (21, -3.96030880510807037354e-02) (22, -6.56935498118400573730e-02) (23, -8.04048627614974975586e-02) (24, -1.44766584038734436035e-01) (25, -2.03136146068572998047e-01) (26, -9.11223366856575012207e-02) (27, -5.81797882914543151855e-02) (28, -1.54691919684410095215e-01) (29, -1.15440592169761657715e-01) (30, -1.07838511466979980469e-01) (31, -8.65190252661705017090e-02) (32, -8.72918888926506042480e-02) (33, 4.09225493669509887695e-01) (34, -5.01965992152690887451e-02) (35, -2.07217574119567871094e-01) (36, -1.02331496775150299072e-01) (37, -1.00986056029796600342e-01) (38, -1.07896901667118072510e-01) (39, -1.79818540811538696289e-01) (40, -9.43851470947265625000e-02) (41, -1.57057806849479675293e-01) (42, -2.05124810338020324707e-01) (43, -9.31834653019905090332e-02) (44, -7.47995451092720031738e-02) (45, -1.82418465614318847656e-01) (46, -7.96496644616127014160e-02) (47, -2.09216460585594177246e-01) (48, -1.93918004631996154785e-01) (49, -4.80495132505893707275e-02) (50, -1.56689316034317016602e-01) (51, -2.07912534475326538086e-01) (52, -5.95262236893177032471e-02) (53, -1.71999737620353698730e-01) (54, -1.33523643016815185547e-01) (55, -1.71751081943511962891e-01) (56, -9.04838889837265014648e-02) (57, -1.42561256885528564453e-01) (58, -2.19388514757156372070e-01) (59, -3.13009917736053466797e-02) (60, -2.94905789196491241455e-02) (61, -8.76781120896339416504e-02) (62, -1.34041577577590942383e-01) (63, -3.40935587882995605469e-02) (64, -1.69518470764160156250e-01) (65, -1.31679430603981018066e-01) (66, -1.57251898199319839478e-02) (67, -9.67796966433525085449e-02) (68, -1.92751094698905944824e-01) (69, -2.02612251043319702148e-01) (70, -6.45215138792991638184e-02) (71, -1.07641838490962982178e-01) (72, -1.08144722878932952881e-01) (73, -4.52720783650875091553e-02) (74, -1.72233611345291137695e-01) (75, -1.48608729243278503418e-01) (76, -2.27222070097923278809e-01) (77, -2.75103952735662460327e-02) (78, -1.25175684690475463867e-01) (79, -1.77160695195198059082e-01) (80, -4.12361957132816314697e-02) (81, -6.21515139937400817871e-02) (82, -1.72810107469558715820e-01) (83, -8.61231014132499694824e-02) (84, -2.11482137441635131836e-01) (85, -2.07211986184120178223e-01) (86, -3.38529385626316070557e-02) (87, -9.11505371332168579102e-02) (88, -1.34827628731727600098e-01) (89, -2.16515794396400451660e-01) (90, -9.93370562791824340820e-02) (91, -1.43421232700347900391e-01) (92, -8.05947706103324890137e-02) (93, -1.71834900975227355957e-01) (94, -1.60360813140869140625e-01) (95, -2.23002463579177856445e-01) (96, -6.38174191117286682129e-02) (97, -1.62426128983497619629e-01) (98, -9.51934158802032470703e-02) (99, -5.86968287825584411621e-02) (100, -1.00165255367755889893e-01) (101, 3.76385986804962158203e-01) (102, 3.89857292175292968750e-01) (103, -1.79694548249244689941e-01) (104, -1.63802430033683776855e-01) (105, -7.84990936517715454102e-02) (106, -1.10614791512489318848e-01) (107, -1.44275650382041931152e-01) (108, 4.33783650398254394531e-01) (109, -1.97498649358749389648e-01) (110, -7.24812746047973632812e-02) (111, -1.13640837371349334717e-01) (112, -4.72363643348217010498e-02) (113, -6.06350861489772796631e-02) (114, -1.74775019288063049316e-01) (115, -8.57365950942039489746e-02) (116, -2.20063596963882446289e-01) (117, -1.92274600267410278320e-01) (118, -1.19049027562141418457e-01) (119, -2.03606396913528442383e-01) (120, -1.86571225523948669434e-01) (121, -1.97255328297615051270e-01) (122, -8.67764428257942199707e-02) (123, -3.53098064661026000977e-02) (124, -1.47389441728591918945e-01) (125, -2.20205679535865783691e-01) (126, -4.05492112040519714355e-02) (127, -1.97156548500061035156e-01) (128, -1.65332511067390441895e-01) (129, -1.18110015988349914551e-01) (130, -2.23372563719749450684e-01) (131, -4.04401533305644989014e-02) (132, -2.27427795529365539551e-01) (133, -1.21918261051177978516e-01) (134, -2.01475426554679870605e-01) (135, -1.70253723859786987305e-01) (136, -1.40391975641250610352e-01) (137, -6.76569938659667968750e-02) (138, -9.03156474232673645020e-02) (139, -4.27162609994411468506e-02) (140, -6.11397251486778259277e-02) (141, -2.08433151245117187500e-01) (142, -1.08498454093933105469e-01) (143, -9.02124121785163879395e-02) (144, -1.86935603618621826172e-01) (145, -1.00435458123683929443e-01) (146, -1.05736531317234039307e-01) (147, -2.14575275778770446777e-01) (148, -2.11283966898918151855e-01) (149, -1.93047016859054565430e-01) (150, -1.44303038716316223145e-01) (151, 3.49818468093872070312e-01) (152, -1.48630931973457336426e-01) (153, 2.97908365726470947266e-01) (154, 3.42053622007369995117e-01) (155, -7.57961496710777282715e-02) (156, -2.14270070195198059082e-01) (157, -1.85044199228286743164e-01) (158, -3.14553864300251007080e-02) (159, -1.56860321760177612305e-01) (160, -6.80982321500778198242e-02) (161, -2.95141246169805526733e-02) (162, -1.72627553343772888184e-01) (163, -6.64807930588722229004e-02) (164, -1.19899041950702667236e-01) (165, -1.38520404696464538574e-01) (166, -2.11195021867752075195e-01) (167, -8.78094881772994995117e-02) (168, -1.70053824782371520996e-01) (169, -5.08459620177745819092e-02) (170, -1.29084438085556030273e-01) (171, -2.14719995856285095215e-01) (172, -2.01772943139076232910e-01) (173, 3.32532316446304321289e-01) (174, -8.36348459124565124512e-02) (175, -1.72192260622978210449e-01) (176, -2.23792403936386108398e-01) (177, -1.50614798069000244141e-01) (178, -1.66351675987243652344e-01) (179, -2.09759831428527832031e-01) (180, -1.06031790375709533691e-01) (181, -9.80537459254264831543e-02) (182, -1.85973390936851501465e-01) (183, -2.51629576086997985840e-02) (184, -9.26670730113983154297e-02) (185, -8.59481766819953918457e-02) (186, -7.46244564652442932129e-02) (187, -6.03492632508277893066e-02) (188, -4.25832569599151611328e-02) (189, -6.95564299821853637695e-02) (190, -1.87524124979972839355e-01) (191, -9.24021229147911071777e-02) (192, 4.42221552133560180664e-01) (193, -1.25562086701393127441e-01) (194, -2.08874166011810302734e-01) (195, -1.78293749690055847168e-01) (196, -4.70006354153156280518e-02) (197, -1.29553422331809997559e-01) (198, -4.48943749070167541504e-02) (199, -1.97265490889549255371e-01) (200, -1.32545799016952514648e-01) (201, -1.06757029891014099121e-01) (202, -1.72713026404380798340e-01) (203, -1.09097979962825775146e-01) (204, -6.67667314410209655762e-02) (205, -2.19212979078292846680e-01) (206, -5.54675571620464324951e-02) (207, -5.73432259261608123779e-02) (208, -1.38506576418876647949e-01) (209, 3.34434628486633300781e-01) (210, -4.30969037115573883057e-02) (211, -2.26663246750831604004e-01) (212, -6.21120855212211608887e-02) (213, -1.66969150304794311523e-01) (214, -2.31005176901817321777e-01) (215, -1.10814750194549560547e-01) (216, 2.98598468303680419922e-01) (217, -6.76319077610969543457e-02) (218, -1.50523155927658081055e-01) (219, -1.18308715522289276123e-01) (220, -1.12130425870418548584e-01) (221, -1.13501988351345062256e-01) (222, -1.02274745702743530273e-01) (223, -1.66276082396507263184e-01) (224, -2.50306844711303710938e-01) (225, -2.19533130526542663574e-01) (226, -1.39511615037918090820e-01) (227, -3.27643901109695434570e-02) (228, -7.88213089108467102051e-02) (229, -1.52480885386466979980e-01) (230, -2.00653135776519775391e-01) (231, -1.91595271229743957520e-01) (232, -2.38191299140453338623e-02) (233, -1.33630812168121337891e-01) (234, -6.43616691231727600098e-02) (235, -6.23567812144756317139e-02) (236, -1.36113539338111877441e-01) (237, -5.24327084422111511230e-02) (238, -1.00746564567089080811e-01) (239, -4.40639816224575042725e-02) (240, -7.07442462444305419922e-02) (241, -1.29376143217086791992e-01) (242, -4.34727407991886138916e-02) (243, -1.15248396992683410645e-01) (244, -4.24735695123672485352e-02) (245, -7.72029086947441101074e-02) (246, -1.63619071245193481445e-01) (247, -3.50288525223731994629e-02) (248, -5.24069890379905700684e-02) (249, 4.15609627962112426758e-01) (250, -4.62497435510158538818e-02) (251, 3.30928474664688110352e-01) (252, -1.45316541194915771484e-01) (253, 3.87892693281173706055e-01) (254, 3.95439147949218750000e-01) (255, 3.37643623352050781250e-01) (256, 4.16679412126541137695e-01) (257, -2.14769363403320312500e-01) (258, 3.33389401435852050781e-01) (259, -1.33143693208694458008e-01) (260, -1.70626491308212280273e-01) (261, 3.67089658975601196289e-01) (262, -9.68532562255859375000e-02) (263, 3.81437897682189941406e-01) (264, 4.52458262443542480469e-01) (265, -1.86542510986328125000e-01) (266, -1.08754597604274749756e-01) (267, 3.36741805076599121094e-01) (268, 3.00025671720504760742e-01) (269, 4.57256078720092773438e-01) (270, -1.45147711038589477539e-01) (271, -1.04283891618251800537e-01) (272, -1.81367769837379455566e-01) (273, -2.23468407988548278809e-01) (274, -1.23103678226470947266e-01) (275, -1.61520868539810180664e-01) (276, 4.81780737638473510742e-01) (277, -8.80169793963432312012e-02) (278, -1.51807904243469238281e-01) (279, 4.25591766834259033203e-01) (280, -1.81730225682258605957e-01) (281, 3.15923810005187988281e-01) (282, 4.82113093137741088867e-01) (283, 3.96023899316787719727e-01) (284, 4.06194448471069335938e-01) (285, 3.88017952442169189453e-01) (286, 4.42010343074798583984e-01) (287, 3.45272839069366455078e-01) (288, -2.52883493900299072266e-01) (0, 1.50000000000000000000e+03) (1, 6.23589277267456054688e-01) (2, 6.37106299400329589844e-01) (3, 5.57562947273254394531e-01) (4, 5.57286858558654785156e-01) (5, 5.63239276409149169922e-01) (6, 5.17904400825500488281e-01) (7, 5.85455358028411865234e-01) (8, 6.18981182575225830078e-01) (9, 5.80704450607299804688e-01) (10, 6.45975768566131591797e-01) (11, 5.82806527614593505859e-01) (12, 6.33584678173065185547e-01) (13, 5.93415498733520507812e-01) (14, 7.03087925910949707031e-01) (15, 6.30988478660583496094e-01) (16, 5.50508141517639160156e-01) (17, 5.35394012928009033203e-01) (18, 6.30409121513366699219e-01) (19, 6.68873608112335205078e-01) (20, 5.69778859615325927734e-01) (21, 5.54182827472686767578e-01) (22, 4.91313904523849487305e-01) (23, 5.95641195774078369141e-01) (24, 5.24708330631256103516e-01) (25, 6.07221662998199462891e-01) (26, 5.92339932918548583984e-01) (27, 6.05884194374084472656e-01) (28, 6.11750960350036621094e-01) (29, 6.30043566226959228516e-01) (30, 5.59620141983032226562e-01) (31, 6.13277018070220947266e-01) (32, 5.31985700130462646484e-01) (33, -1.36711403727531433105e-01) (34, 6.91710948944091796875e-01) (35, 6.22796833515167236328e-01) (36, 7.25738048553466796875e-01) (37, 5.44482350349426269531e-01) (38, 5.74599444866180419922e-01) (39, 5.59331715106964111328e-01) (40, 6.46107077598571777344e-01) (41, 5.40129303932189941406e-01) (42, 6.65813386440277099609e-01) (43, 5.44886589050292968750e-01) (44, 6.55967295169830322266e-01) (45, 6.50330960750579833984e-01) (46, 6.86372935771942138672e-01) (47, 6.84963345527648925781e-01) (48, 6.99881315231323242188e-01) (49, 5.87193310260772705078e-01) (50, 6.48896872997283935547e-01) (51, 5.94615697860717773438e-01) (52, 6.41826510429382324219e-01) (53, 6.87313675880432128906e-01) (54, 4.95792657136917114258e-01) (55, 6.72578036785125732422e-01) (56, 6.24231338500976562500e-01) (57, 5.86296796798706054688e-01) (58, 5.82996428012847900391e-01) (59, 5.28836965560913085938e-01) (60, 6.96314692497253417969e-01) (61, 6.63972258567810058594e-01) (62, 5.63169181346893310547e-01) (63, 5.47308385372161865234e-01) (64, 7.05482959747314453125e-01) (65, 5.74458599090576171875e-01) (66, 6.76662027835845947266e-01) (67, 6.13118588924407958984e-01) (68, 6.34541869163513183594e-01) (69, 5.46709239482879638672e-01) (70, 6.68928503990173339844e-01) (71, 5.06796598434448242188e-01) (72, 5.17095208168029785156e-01) (73, 6.20097219944000244141e-01) (74, 5.81650435924530029297e-01) (75, 7.07505881786346435547e-01) (76, 6.03339195251464843750e-01) (77, 5.41070699691772460938e-01) (78, 6.84767067432403564453e-01) (79, 5.46714365482330322266e-01) (80, 6.51916027069091796875e-01) (81, 6.08042836189270019531e-01) (82, 6.51991486549377441406e-01) (83, 5.50324916839599609375e-01) (84, 5.89551627635955810547e-01) (85, 6.90982222557067871094e-01) (86, 5.15104651451110839844e-01) (87, 7.40264594554901123047e-01) (88, 5.21419584751129150391e-01) (89, 6.22462511062622070312e-01) (90, 5.26058793067932128906e-01) (91, 5.11238574981689453125e-01) (92, 5.65365493297576904297e-01) (93, 6.39280319213867187500e-01) (94, 5.52538812160491943359e-01) (95, 5.47076880931854248047e-01) (96, 5.28332412242889404297e-01) (97, 6.97076380252838134766e-01) (98, 6.46775603294372558594e-01) (99, 6.26824736595153808594e-01) (100, 5.32162427902221679688e-01) (101, -8.47472995519638061523e-02) (102, -1.05418665334582328796e-02) (103, 5.60478866100311279297e-01) (104, 7.24441170692443847656e-01) (105, 5.73490142822265625000e-01) (106, 5.20800113677978515625e-01) (107, 5.59425592422485351562e-01) (108, -8.84523242712020874023e-02) (109, 5.10614812374114990234e-01) (110, 5.18118441104888916016e-01) (111, 6.66557312011718750000e-01) (112, 6.20003342628479003906e-01) (113, 4.85267013311386108398e-01) (114, 5.00432372093200683594e-01) (115, 6.39392495155334472656e-01) (116, 5.11870801448822021484e-01) (117, 5.09013831615447998047e-01) (118, 6.67075097560882568359e-01) (119, 6.80184185504913330078e-01) (120, 6.14373922348022460938e-01) (121, 6.77305519580841064453e-01) (122, 6.78744554519653320312e-01) (123, 7.02146828174591064453e-01) (124, 6.08378589153289794922e-01) (125, 7.12137103080749511719e-01) (126, 5.00354468822479248047e-01) (127, 6.32054805755615234375e-01) (128, 6.59099042415618896484e-01) (129, 6.36116802692413330078e-01) (130, 5.86738288402557373047e-01) (131, 6.58937811851501464844e-01) (132, 5.22465705871582031250e-01) (133, 6.07900500297546386719e-01) (134, 5.06364107131958007812e-01) (135, 5.15739321708679199219e-01) (136, 5.99495887756347656250e-01) (137, 5.80662488937377929688e-01) (138, 5.61035931110382080078e-01) (139, 5.01890778541564941406e-01) (140, 5.44980227947235107422e-01) (141, 6.85939550399780273438e-01) (142, 5.11493682861328125000e-01) (143, 6.57099008560180664062e-01) (144, 6.74319624900817871094e-01) (145, 4.73824769258499145508e-01) (146, 6.44985079765319824219e-01) (147, 6.33663415908813476562e-01) (148, 5.67272305488586425781e-01) (149, 6.38128876686096191406e-01) (150, 5.88413178920745849609e-01) (151, -5.59221440926194190979e-03) (152, 6.62360131740570068359e-01) (153, -1.24142907559871673584e-01) (154, 1.64670462254434823990e-03) (155, 5.57624876499176025391e-01) (156, 5.65615713596343994141e-01) (157, 6.62857413291931152344e-01) (158, 5.42951703071594238281e-01) (159, 5.04396975040435791016e-01) (160, 6.16708874702453613281e-01) (161, 6.01696074008941650391e-01) (162, 4.93670701980590820312e-01) (163, 6.56100869178771972656e-01) (164, 5.32615005970001220703e-01) (165, 5.17609655857086181641e-01) (166, 5.13013839721679687500e-01) (167, 6.50092303752899169922e-01) (168, 6.17012441158294677734e-01) (169, 6.19907081127166748047e-01) (170, 5.30913531780242919922e-01) (171, 6.59691751003265380859e-01) (172, 5.99610626697540283203e-01) (173, -1.57023489475250244141e-01) (174, 6.33815348148345947266e-01) (175, 5.22990524768829345703e-01) (176, 5.17757534980773925781e-01) (177, 6.11531436443328857422e-01) (178, 6.49565875530242919922e-01) (179, 5.76519131660461425781e-01) (180, 5.58001518249511718750e-01) (181, 5.39020359516143798828e-01) (182, 5.30178844928741455078e-01) (183, 5.43060541152954101562e-01) (184, 5.89693903923034667969e-01) (185, 5.65643846988677978516e-01) (186, 5.79199492931365966797e-01) (187, 6.48264944553375244141e-01) (188, 5.54136455059051513672e-01) (189, 6.33972287178039550781e-01) (190, 6.85662269592285156250e-01) (191, 6.62452518939971923828e-01) (192, -9.66971442103385925293e-02) (193, 7.03325152397155761719e-01) (194, 6.58524751663208007812e-01) (195, 5.98364055156707763672e-01) (196, 5.16443073749542236328e-01) (197, 6.15996420383453369141e-01) (198, 5.44305384159088134766e-01) (199, 6.14413201808929443359e-01) (200, 6.21043741703033447266e-01) (201, 5.84533870220184326172e-01) (202, 6.35120570659637451172e-01) (203, 7.00466454029083251953e-01) (204, 6.00311815738677978516e-01) (205, 6.03999614715576171875e-01) (206, 5.53714573383331298828e-01) (207, 5.97580015659332275391e-01) (208, 5.38474977016448974609e-01) (209, -1.75854533910751342773e-01) (210, 5.01305997371673583984e-01) (211, 5.89987754821777343750e-01) (212, 5.40699899196624755859e-01) (213, 6.00321829319000244141e-01) (214, 6.27320706844329833984e-01) (215, 6.94004952907562255859e-01) (216, 5.40922302752733230591e-03) (217, 5.68127155303955078125e-01) (218, 6.30327939987182617188e-01) (219, 5.23796021938323974609e-01) (220, 6.86611056327819824219e-01) (221, 6.03926718235015869141e-01) (222, 6.64295256137847900391e-01) (223, 5.52809894084930419922e-01) (224, 6.00551128387451171875e-01) (225, 5.70954203605651855469e-01) (226, 6.18933320045471191406e-01) (227, 5.75327932834625244141e-01) (228, 6.38065993785858154297e-01) (229, 4.88299965858459472656e-01) (230, 5.24152278900146484375e-01) (231, 5.43900966644287109375e-01) (232, 5.76819539070129394531e-01) (233, 6.82159423828125000000e-01) (234, 5.60572683811187744141e-01) (235, 7.02998340129852294922e-01) (236, 5.73327958583831787109e-01) (237, 5.88213741779327392578e-01) (238, 6.04773044586181640625e-01) (239, 5.81772029399871826172e-01) (240, 6.29033803939819335938e-01) (241, 6.09863460063934326172e-01) (242, 7.08573102951049804688e-01) (243, 5.75737178325653076172e-01) (244, 5.48762381076812744141e-01) (245, 5.72935461997985839844e-01) (246, 6.21133446693420410156e-01) (247, 5.15664875507354736328e-01) (248, 7.18299567699432373047e-01) (249, -1.44054651260375976562e-01) (250, 5.23843944072723388672e-01) (251, -2.28208806365728378296e-02) (252, 6.25044882297515869141e-01) (253, 2.89080776274204254150e-02) (254, 9.68556385487318038940e-03) (255, 2.52910312265157699585e-02) (256, -1.31992064416408538818e-02) (257, 6.39963686466217041016e-01) (258, -6.51503801345825195312e-02) (259, 6.43746793270111083984e-01) (260, 5.54597795009613037109e-01) (261, -2.62011568993330001831e-02) (262, 6.85204148292541503906e-01) (263, -1.71947285532951354980e-01) (264, -6.06726482510566711426e-02) (265, 5.46178996562957763672e-01) (266, 7.36988842487335205078e-01) (267, -1.76205358002334833145e-03) (268, -5.56747801601886749268e-02) (269, -1.19698978960514068604e-01) (270, 5.47483623027801513672e-01) (271, 4.77804124355316162109e-01) (272, 6.19294881820678710938e-01) (273, 5.24452924728393554688e-01) (274, 6.82887554168701171875e-01) (275, 5.22602319717407226562e-01) (276, -1.49040378164499998093e-03) (277, 5.82583308219909667969e-01) (278, 4.48073834180831909180e-01) (279, -2.54874769598245620728e-02) (280, 5.42640209197998046875e-01) (281, -1.52144134044647216797e-01) (282, -7.07646161317825317383e-02) (283, -1.14902868866920471191e-01) (284, -1.43300518393516540527e-01) (285, -8.92199426889419555664e-02) (286, -1.18725664913654327393e-01) (287, -4.89569874480366706848e-03) (288, 5.33003211021423339844e-01) (0, 1.50000000000000000000e+03) (1, 4.06869947910308837891e-01) (2, 4.95125532150268554688e-01) (3, 4.20565724372863769531e-01) (4, 3.70144605636596679688e-01) (5, 4.63528305292129516602e-01) (6, 5.32159388065338134766e-01) (7, 3.87136220932006835938e-01) (8, 4.20332282781600952148e-01) (9, 4.89409446716308593750e-01) (10, 4.92477536201477050781e-01) (11, 4.66727286577224731445e-01) (12, 3.50048154592514038086e-01) (13, 5.04718780517578125000e-01) (14, 4.42379713058471679688e-01) (15, 3.88931006193161010742e-01) (16, 4.76121395826339721680e-01) (17, 4.91484045982360839844e-01) (18, 3.54987472295761108398e-01) (19, 3.76315295696258544922e-01) (20, 4.45440977811813354492e-01) (21, 5.01773178577423095703e-01) (22, 5.21018445491790771484e-01) (23, 4.57977950572967529297e-01) (24, 3.76463383436203002930e-01) (25, 3.86020541191101074219e-01) (26, 4.80395674705505371094e-01) (27, 4.56967949867248535156e-01) (28, 3.98605346679687500000e-01) (29, 4.37245815992355346680e-01) (30, 4.61273074150085449219e-01) (31, 5.40321111679077148438e-01) (32, 5.42011559009552001953e-01) (33, -4.06163811683654785156e-01) (34, 4.30680841207504272461e-01) (35, 3.68359476327896118164e-01) (36, 3.90926331281661987305e-01) (37, 4.22901481389999389648e-01) (38, 3.49322199821472167969e-01) (39, 4.14222449064254760742e-01) (40, 3.71999382972717285156e-01) (41, 3.86574834585189819336e-01) (42, 5.42002379894256591797e-01) (43, 3.97498846054077148438e-01) (44, 3.48049342632293701172e-01) (45, 4.44548994302749633789e-01) (46, 4.37040209770202636719e-01) (47, 4.92252826690673828125e-01) (48, 3.44344526529312133789e-01) (49, 4.51443642377853393555e-01) (50, 5.21889209747314453125e-01) (51, 4.58480685949325561523e-01) (52, 4.00812655687332153320e-01) (53, 4.78597491979598999023e-01) (54, 4.16968673467636108398e-01) (55, 4.43530589342117309570e-01) (56, 4.96103703975677490234e-01) (57, 4.96604740619659423828e-01) (58, 3.44075083732604980469e-01) (59, 5.43240547180175781250e-01) (60, 3.96276563405990600586e-01) (61, 4.78548169136047363281e-01) (62, 5.86329460144042968750e-01) (63, 3.66556674242019653320e-01) (64, 5.24200618267059326172e-01) (65, 4.15732324123382568359e-01) (66, 3.74017387628555297852e-01) (67, 5.07114529609680175781e-01) (68, 5.07099628448486328125e-01) (69, 5.05565285682678222656e-01) (70, 3.66321414709091186523e-01) (71, 3.39888036251068115234e-01) (72, 4.90093410015106201172e-01) (73, 3.66279572248458862305e-01) (74, 3.99333655834197998047e-01) (75, 5.16168832778930664062e-01) (76, 4.24452245235443115234e-01) (77, 4.93299037218093872070e-01) (78, 4.64819848537445068359e-01) (79, 4.66368257999420166016e-01) (80, 4.04847323894500732422e-01) (81, 4.38710033893585205078e-01) (82, 3.69307726621627807617e-01) (83, 4.53781306743621826172e-01) (84, 3.73350977897644042969e-01) (85, 4.05105710029602050781e-01) (86, 3.55463683605194091797e-01) (87, 5.14125883579254150391e-01) (88, 3.50469589233398437500e-01) (89, 3.69881957769393920898e-01) (90, 5.13762950897216796875e-01) (91, 4.00829046964645385742e-01) (92, 5.06932556629180908203e-01) (93, 5.08647024631500244141e-01) (94, 4.20011788606643676758e-01) (95, 4.91684645414352416992e-01) (96, 3.98247301578521728516e-01) (97, 4.61308479309082031250e-01) (98, 4.55830693244934082031e-01) (99, 3.37249845266342163086e-01) (100, 3.78896653652191162109e-01) (101, -3.11316549777984619141e-01) (102, -4.87672865390777587891e-01) (103, 5.31566083431243896484e-01) (104, 4.95267987251281738281e-01) (105, 4.03096973896026611328e-01) (106, 4.88268882036209106445e-01) (107, 4.18968170881271362305e-01) (108, -4.39632028341293334961e-01) (109, 4.24109071493148803711e-01) (110, 5.68091988563537597656e-01) (111, 4.03324156999588012695e-01) (112, 5.09376347064971923828e-01) (113, 3.55326741933822631836e-01) (114, 5.16726553440093994141e-01) (115, 5.77183544635772705078e-01) (116, 5.04595100879669189453e-01) (117, 5.23641288280487060547e-01) (118, 4.96472626924514770508e-01) (119, 4.79539126157760620117e-01) (120, 3.51296514272689819336e-01) (121, 4.66424196958541870117e-01) (122, 4.76479530334472656250e-01) (123, 5.23633778095245361328e-01) (124, 4.29189443588256835938e-01) (125, 3.55268657207489013672e-01) (126, 4.63468372821807861328e-01) (127, 4.75087225437164306641e-01) (128, 4.66250181198120117188e-01) (129, 3.70594263076782226562e-01) (130, 4.72377181053161621094e-01) (131, 5.05480408668518066406e-01) (132, 5.10666847229003906250e-01) (133, 4.88743066787719726562e-01) (134, 4.89806324243545532227e-01) (135, 4.63184267282485961914e-01) (136, 3.88516932725906372070e-01) (137, 4.56653773784637451172e-01) (138, 3.41258406639099121094e-01) (139, 3.57478916645050048828e-01) (140, 5.23321270942687988281e-01) (141, 5.71835696697235107422e-01) (142, 4.44142401218414306641e-01) (143, 4.81863796710968017578e-01) (144, 3.69172334671020507812e-01) (145, 4.67123955488204956055e-01) (146, 4.75640445947647094727e-01) (147, 4.38805460929870605469e-01) (148, 4.14404124021530151367e-01) (149, 4.36666786670684814453e-01) (150, 5.26263415813446044922e-01) (151, -3.64021390676498413086e-01) (152, 3.76766234636306762695e-01) (153, -3.49404454231262207031e-01) (154, -3.80933880805969238281e-01) (155, 4.60524082183837890625e-01) (156, 4.64676886796951293945e-01) (157, 3.41947466135025024414e-01) (158, 4.10849243402481079102e-01) (159, 3.88753414154052734375e-01) (160, 3.82917642593383789062e-01) (161, 3.48701894283294677734e-01) (162, 3.51637363433837890625e-01) (163, 3.57846856117248535156e-01) (164, 5.04216849803924560547e-01) (165, 5.10555148124694824219e-01) (166, 4.79926019906997680664e-01) (167, 4.97936487197875976562e-01) (168, 4.37505215406417846680e-01) (169, 5.06047189235687255859e-01) (170, 5.77271401882171630859e-01) (171, 4.07330989837646484375e-01) (172, 4.93362933397293090820e-01) (173, -3.73430430889129638672e-01) (174, 3.43074768781661987305e-01) (175, 5.18480896949768066406e-01) (176, 4.93382006883621215820e-01) (177, 4.91059899330139160156e-01) (178, 4.06459361314773559570e-01) (179, 3.62474113702774047852e-01) (180, 3.99427205324172973633e-01) (181, 3.78218352794647216797e-01) (182, 5.04882097244262695312e-01) (183, 4.39875721931457519531e-01) (184, 4.84298676252365112305e-01) (185, 5.38634061813354492188e-01) (186, 3.61091852188110351562e-01) (187, 4.27155733108520507812e-01) (188, 5.42936146259307861328e-01) (189, 4.41750168800354003906e-01) (190, 4.76968050003051757812e-01) (191, 3.76829981803894042969e-01) (192, -3.35817605257034301758e-01) (193, 4.97110933065414428711e-01) (194, 3.93578916788101196289e-01) (195, 4.02141124010086059570e-01) (196, 4.57994908094406127930e-01) (197, 3.22959333658218383789e-01) (198, 3.55520814657211303711e-01) (199, 3.50841343402862548828e-01) (200, 5.10623872280120849609e-01) (201, 3.47104042768478393555e-01) (202, 4.30096983909606933594e-01) (203, 4.64146167039871215820e-01) (204, 4.22895878553390502930e-01) (205, 4.43911075592041015625e-01) (206, 4.36302185058593750000e-01) (207, 3.79650145769119262695e-01) (208, 4.01050835847854614258e-01) (209, -3.03049623966217041016e-01) (210, 4.01000976562500000000e-01) (211, 4.50946003198623657227e-01) (212, 3.47799181938171386719e-01) (213, 5.14226734638214111328e-01) (214, 3.44990700483322143555e-01) (215, 5.09705543518066406250e-01) (216, -2.63359576463699340820e-01) (217, 3.78359645605087280273e-01) (218, 3.92310976982116699219e-01) (219, 5.27871608734130859375e-01) (220, 4.77774202823638916016e-01) (221, 5.29486060142517089844e-01) (222, 3.59933257102966308594e-01) (223, 3.80492687225341796875e-01) (224, 5.33515572547912597656e-01) (225, 4.93429660797119140625e-01) (226, 4.22642856836318969727e-01) (227, 4.02641713619232177734e-01) (228, 4.33938264846801757812e-01) (229, 4.42409247159957885742e-01) (230, 4.15280491113662719727e-01) (231, 3.96708458662033081055e-01) (232, 4.61245864629745483398e-01) (233, 5.19485831260681152344e-01) (234, 5.29421329498291015625e-01) (235, 4.49552655220031738281e-01) (236, 4.12300318479537963867e-01) (237, 3.49525421857833862305e-01) (238, 3.73661965131759643555e-01) (239, 4.76092040538787841797e-01) (240, 3.82324814796447753906e-01) (241, 4.23301905393600463867e-01) (242, 3.86541873216629028320e-01) (243, 3.79736274480819702148e-01) (244, 4.23829108476638793945e-01) (245, 4.49867039918899536133e-01) (246, 3.85468542575836181641e-01) (247, 4.03624922037124633789e-01) (248, 4.10886883735656738281e-01) (249, -3.70145320892333984375e-01) (250, 3.81106317043304443359e-01) (251, -4.53524827957153320312e-01) (252, 3.37918102741241455078e-01) (253, -3.92197459936141967773e-01) (254, -3.88896346092224121094e-01) (255, -4.41366940736770629883e-01) (256, -3.12417745590209960938e-01) (257, 4.97339546680450439453e-01) (258, -3.80005121231079101562e-01) (259, 3.73276352882385253906e-01) (260, 4.58801537752151489258e-01) (261, -3.00692260265350341797e-01) (262, 4.48880732059478759766e-01) (263, -2.71110326051712036133e-01) (264, -3.26768398284912109375e-01) (265, 3.25524359941482543945e-01) (266, 3.93786817789077758789e-01) (267, -2.61186122894287109375e-01) (268, -2.73235231637954711914e-01) (269, -4.50811475515365600586e-01) (270, 3.95891904830932617188e-01) (271, 3.94074946641921997070e-01) (272, 4.93714034557342529297e-01) (273, 5.86375594139099121094e-01) (274, 4.14829730987548828125e-01) (275, 5.25821268558502197266e-01) (276, -4.30651009082794189453e-01) (277, 4.32796806097030639648e-01) (278, 4.07063961029052734375e-01) (279, -3.37758749723434448242e-01) (280, 5.83662807941436767578e-01) (281, -3.72520387172698974609e-01) (282, -2.94458955526351928711e-01) (283, -4.01501417160034179688e-01) (284, -2.93470293283462524414e-01) (285, -4.40709531307220458984e-01) (286, -3.98858010768890380859e-01) (287, -3.59554439783096313477e-01) (288, 4.91015255451202392578e-01) (0, 1.50000000000000000000e+03) (1, 4.63991403579711914062e-01) (2, 3.51554811000823974609e-01) (3, 4.24855232238769531250e-01) (4, 3.68757486343383789062e-01) (5, 3.49422514438629150391e-01) (6, 3.51089924573898315430e-01) (7, 5.08733153343200683594e-01) (8, 5.21070957183837890625e-01) (9, 3.36876064538955688477e-01) (10, 4.30229604244232177734e-01) (11, 5.26669144630432128906e-01) (12, 4.73678976297378540039e-01) (13, 4.50391381978988647461e-01) (14, 4.38980579376220703125e-01) (15, 4.43236738443374633789e-01) (16, 5.25947451591491699219e-01) (17, 4.72939908504486083984e-01) (18, 4.65176671743392944336e-01) (19, 4.35415089130401611328e-01) (20, 4.69567358493804931641e-01) (21, 3.87618809938430786133e-01) (22, 4.36432689428329467773e-01) (23, 3.53341013193130493164e-01) (24, 5.16854643821716308594e-01) (25, 5.04816710948944091797e-01) (26, 5.06756246089935302734e-01) (27, 5.27192831039428710938e-01) (28, 5.32754600048065185547e-01) (29, 3.83902162313461303711e-01) (30, 4.94145125150680541992e-01) (31, 4.65211898088455200195e-01) (32, 5.45789361000061035156e-01) (33, -2.68881261348724365234e-01) (34, 3.60088437795639038086e-01) (35, 3.70750099420547485352e-01) (36, 4.11891371011734008789e-01) (37, 3.70769888162612915039e-01) (38, 4.25942093133926391602e-01) (39, 5.35926401615142822266e-01) (40, 3.67334425449371337891e-01) (41, 4.00946825742721557617e-01) (42, 5.23647010326385498047e-01) (43, 5.16465008258819580078e-01) (44, 5.22083759307861328125e-01) (45, 4.22794491052627563477e-01) (46, 4.10311996936798095703e-01) (47, 5.02123892307281494141e-01) (48, 5.04823029041290283203e-01) (49, 5.34904658794403076172e-01) (50, 3.90859544277191162109e-01) (51, 4.42905515432357788086e-01) (52, 3.70119661092758178711e-01) (53, 4.62982505559921264648e-01) (54, 4.96756702661514282227e-01) (55, 3.53228479623794555664e-01) (56, 3.99284511804580688477e-01) (57, 4.02752965688705444336e-01) (58, 5.23741185665130615234e-01) (59, 3.80569756031036376953e-01) (60, 4.49081152677536010742e-01) (61, 4.91085737943649291992e-01) (62, 5.48306822776794433594e-01) (63, 4.23139065504074096680e-01) (64, 4.73405659198760986328e-01) (65, 5.06125688552856445312e-01) (66, 4.32990342378616333008e-01) (67, 4.77285146713256835938e-01) (68, 5.45882701873779296875e-01) (69, 4.41157788038253784180e-01) (70, 4.58195596933364868164e-01) (71, 3.73730123043060302734e-01) (72, 4.40058320760726928711e-01) (73, 4.40330386161804199219e-01) (74, 3.52417707443237304688e-01) (75, 4.26178604364395141602e-01) (76, 4.76775735616683959961e-01) (77, 4.19654786586761474609e-01) (78, 3.84700179100036621094e-01) (79, 4.78323340415954589844e-01) (80, 4.16278362274169921875e-01) (81, 4.27258133888244628906e-01) (82, 3.65687698125839233398e-01) (83, 4.32904958724975585938e-01) (84, 3.46586585044860839844e-01) (85, 4.81273651123046875000e-01) (86, 4.44285392761230468750e-01) (87, 3.90542030334472656250e-01) (88, 5.32786548137664794922e-01) (89, 4.38721686601638793945e-01) (90, 4.27508383989334106445e-01) (91, 4.36302274465560913086e-01) (92, 3.87957125902175903320e-01) (93, 3.84369671344757080078e-01) (94, 5.11960148811340332031e-01) (95, 5.21915674209594726562e-01) (96, 3.64885210990905761719e-01) (97, 4.11984562873840332031e-01) (98, 4.56231832504272460938e-01) (99, 3.42670887708663940430e-01) (100, 4.63873028755187988281e-01) (101, -4.16161477565765380859e-01) (102, -4.49033737182617187500e-01) (103, 3.67799371480941772461e-01) (104, 4.61647629737854003906e-01) (105, 3.95175516605377197266e-01) (106, 4.34512645006179809570e-01) (107, 4.36771243810653686523e-01) (108, -3.20652961730957031250e-01) (109, 4.90233153104782104492e-01) (110, 3.97849947214126586914e-01) (111, 5.36857247352600097656e-01) (112, 3.64350795745849609375e-01) (113, 3.81464868783950805664e-01) (114, 4.25115466117858886719e-01) (115, 4.05915230512619018555e-01) (116, 6.06901168823242187500e-01) (117, 5.20627140998840332031e-01) (118, 4.01099324226379394531e-01) (119, 5.64161658287048339844e-01) (120, 4.16524797677993774414e-01) (121, 4.84544932842254638672e-01) (122, 3.95517528057098388672e-01) (123, 4.69886273145675659180e-01) (124, 5.23286044597625732422e-01) (125, 3.66714715957641601562e-01) (126, 4.40995424985885620117e-01) (127, 5.35821735858917236328e-01) (128, 4.28372293710708618164e-01) (129, 3.48361253738403320312e-01) (130, 3.38532149791717529297e-01) (131, 3.53870749473571777344e-01) (132, 3.79825651645660400391e-01) (133, 3.95380467176437377930e-01) (134, 3.74431133270263671875e-01) (135, 4.98137950897216796875e-01) (136, 4.86589729785919189453e-01) (137, 4.87522423267364501953e-01) (138, 3.94015252590179443359e-01) (139, 3.75409185886383056641e-01) (140, 4.18334156274795532227e-01) (141, 4.53503876924514770508e-01) (142, 3.90234827995300292969e-01) (143, 4.34061616659164428711e-01) (144, 4.77825403213500976562e-01) (145, 5.21136403083801269531e-01) (146, 4.55818235874176025391e-01) (147, 4.49764549732208251953e-01) (148, 4.65157061815261840820e-01) (149, 5.21942377090454101562e-01) (150, 4.21541661024093627930e-01) (151, -4.48040276765823364258e-01) (152, 4.79943662881851196289e-01) (153, -3.30673009157180786133e-01) (154, -3.19324791431427001953e-01) (155, 4.57797586917877197266e-01) (156, 4.91447210311889648438e-01) (157, 3.80664914846420288086e-01) (158, 4.68856722116470336914e-01) (159, 3.77645850181579589844e-01) (160, 3.98519575595855712891e-01) (161, 4.72864568233489990234e-01) (162, 3.88920843601226806641e-01) (163, 4.42608505487442016602e-01) (164, 5.34073710441589355469e-01) (165, 4.32462662458419799805e-01) (166, 3.99641364812850952148e-01) (167, 4.26581352949142456055e-01) (168, 3.90282124280929565430e-01) (169, 4.78518933057785034180e-01) (170, 5.22440135478973388672e-01) (171, 4.57100719213485717773e-01) (172, 3.48105251789093017578e-01) (173, -2.81866759061813354492e-01) (174, 3.44811946153640747070e-01) (175, 4.76769268512725830078e-01) (176, 4.34690952301025390625e-01) (177, 4.72974985837936401367e-01) (178, 3.81058603525161743164e-01) (179, 3.59333336353302001953e-01) (180, 4.66550171375274658203e-01) (181, 4.48398977518081665039e-01) (182, 4.17191147804260253906e-01) (183, 4.10075306892395019531e-01) (184, 3.69803428649902343750e-01) (185, 5.13177752494812011719e-01) (186, 5.28507769107818603516e-01) (187, 5.39430916309356689453e-01) (188, 3.56197118759155273438e-01) (189, 4.66928243637084960938e-01) (190, 3.78135561943054199219e-01) (191, 4.05693054199218750000e-01) (192, -3.86476904153823852539e-01) (193, 4.35561895370483398438e-01) (194, 6.53860628604888916016e-01) (195, 3.81338685750961303711e-01) (196, 5.18354535102844238281e-01) (197, 4.43639487028121948242e-01) (198, 4.62892949581146240234e-01) (199, 3.62327963113784790039e-01) (200, 5.16436159610748291016e-01) (201, 4.00492280721664428711e-01) (202, 4.93003040552139282227e-01) (203, 5.24946033954620361328e-01) (204, 3.67302924394607543945e-01) (205, 5.08151113986968994141e-01) (206, 4.61646795272827148438e-01) (207, 4.69632863998413085938e-01) (208, 4.47609037160873413086e-01) (209, -3.04480999708175659180e-01) (210, 4.87312197685241699219e-01) (211, 3.64223957061767578125e-01) (212, 4.18766081333160400391e-01) (213, 5.12847602367401123047e-01) (214, 4.28720295429229736328e-01) (215, 4.64429348707199096680e-01) (216, -2.91481465101242065430e-01) (217, 4.29019719362258911133e-01) (218, 4.59310531616210937500e-01) (219, 5.13944864273071289062e-01) (220, 3.53297889232635498047e-01) (221, 4.97652918100357055664e-01) (222, 3.75222027301788330078e-01) (223, 4.05827581882476806641e-01) (224, 4.39845204353332519531e-01) (225, 3.34129393100738525391e-01) (226, 4.26704853773117065430e-01) (227, 3.69619131088256835938e-01) (228, 3.96191686391830444336e-01) (229, 3.53843331336975097656e-01) (230, 3.94923895597457885742e-01) (231, 3.64371031522750854492e-01) (232, 4.24991369247436523438e-01) (233, 3.60246449708938598633e-01) (234, 3.58034074306488037109e-01) (235, 3.58237266540527343750e-01) (236, 5.19963562488555908203e-01) (237, 4.02830392122268676758e-01) (238, 3.72329264879226684570e-01) (239, 4.29998934268951416016e-01) (240, 4.34668838977813720703e-01) (241, 5.95620810985565185547e-01) (242, 4.54041093587875366211e-01) (243, 5.88640630245208740234e-01) (244, 5.07428765296936035156e-01) (245, 3.12848716974258422852e-01) (246, 4.65056091547012329102e-01) (247, 4.60388809442520141602e-01) (248, 4.11906838417053222656e-01) (249, -4.26857650279998779297e-01) (250, 4.24295961856842041016e-01) (251, -2.87906795740127563477e-01) (252, 4.49070394039154052734e-01) (253, -3.33719104528427124023e-01) (254, -2.90134012699127197266e-01) (255, -4.24907356500625610352e-01) (256, -3.25469940900802612305e-01) (257, 4.02809619903564453125e-01) (258, -3.94954711198806762695e-01) (259, 5.22922098636627197266e-01) (260, 4.75705713033676147461e-01) (261, -3.35528045892715454102e-01) (262, 3.67380499839782714844e-01) (263, -2.89335459470748901367e-01) (264, -3.18584471940994262695e-01) (265, 2.72100746631622314453e-01) (266, 4.74550396203994750977e-01) (267, -3.43911826610565185547e-01) (268, -2.74018675088882446289e-01) (269, -3.65537524223327636719e-01) (270, 4.65657651424407958984e-01) (271, 4.46300357580184936523e-01) (272, 4.67226088047027587891e-01) (273, 4.36859637498855590820e-01) (274, 3.91659587621688842773e-01) (275, 3.82932364940643310547e-01) (276, -3.42178881168365478516e-01) (277, 4.83188301324844360352e-01) (278, 5.19927680492401123047e-01) (279, -4.48038607835769653320e-01) (280, 5.77703058719635009766e-01) (281, -4.15455579757690429688e-01) (282, -3.27958405017852783203e-01) (283, -2.99908608198165893555e-01) (284, -3.12621742486953735352e-01) (285, -3.74671339988708496094e-01) (286, -2.77648597955703735352e-01) (287, -3.56619447469711303711e-01) (288, 4.63698685169219970703e-01) (0, 1.50000000000000000000e+03) (1, -3.30826863646507263184e-02) (2, -8.65226686000823974609e-02) (3, 3.51266860961914062500e-02) (4, -1.73701089806854724884e-03) (5, 5.17509207129478454590e-02) (6, -3.13229896128177642822e-02) (7, 3.30759286880493164062e-02) (8, -6.95382654666900634766e-02) (9, -1.13333150744438171387e-01) (10, 1.52827263809740543365e-03) (11, 1.99601724743843078613e-02) (12, 1.09542109072208404541e-01) (13, 6.76875337958335876465e-02) (14, -6.46849125623703002930e-02) (15, 2.18194443732500076294e-03) (16, -4.49499301612377166748e-02) (17, -6.46044407039880752563e-03) (18, -7.98172354698181152344e-02) (19, 8.13782513141632080078e-02) (20, -1.15263499319553375244e-01) (21, -7.58310928940773010254e-02) (22, 6.27500712871551513672e-02) (23, -7.38791376352310180664e-02) (24, 1.02228699252009391785e-02) (25, -2.44211126118898391724e-02) (26, -7.43818953633308410645e-02) (27, -1.30801662802696228027e-01) (28, 7.71699193865060806274e-03) (29, 2.73372773081064224243e-02) (30, 5.68245686590671539307e-02) (31, 5.33306412398815155029e-02) (32, 7.80224427580833435059e-02) (33, 8.30127358436584472656e-01) (34, 1.57283358275890350342e-02) (35, 1.19231650605797767639e-02) (36, -1.72172803431749343872e-02) (37, -7.15818628668785095215e-02) (38, -5.59329316020011901855e-02) (39, 9.57994237542152404785e-02) (40, -1.12924352288246154785e-01) (41, 8.99930372834205627441e-02) (42, 4.56655248999595642090e-02) (43, -8.13824012875556945801e-02) (44, 8.03213194012641906738e-02) (45, 6.62643909454345703125e-02) (46, 3.81853803992271423340e-02) (47, 1.04255124926567077637e-01) (48, -6.99968338012695312500e-02) (49, 4.09841947257518768311e-02) (50, 8.40878412127494812012e-02) (51, -5.32750897109508514404e-02) (52, 5.36503978073596954346e-02) (53, 4.51926998794078826904e-02) (54, 8.82217362523078918457e-02) (55, -2.46451105922460556030e-02) (56, -4.42192517220973968506e-02) (57, 3.88941466808319091797e-02) (58, -4.75858971476554870605e-02) (59, 6.21416978538036346436e-02) (60, -4.78767864406108856201e-02) (61, -6.47709742188453674316e-02) (62, 2.15102527290582656860e-02) (63, -4.86188828945159912109e-02) (64, 1.03803291916847229004e-01) (65, -1.26386150717735290527e-01) (66, 5.21282404661178588867e-02) (67, 3.67262959480285644531e-02) (68, -7.72784352302551269531e-02) (69, -6.27998858690261840820e-02) (70, 3.33189629018306732178e-02) (71, -1.06320559978485107422e-01) (72, 6.33271411061286926270e-02) (73, -3.15893031656742095947e-02) (74, -5.30363805592060089111e-02) (75, 7.34549239277839660645e-02) (76, -1.18857704102993011475e-01) (77, 6.19081556797027587891e-02) (78, 7.04894438385963439941e-02) (79, -5.27901798486709594727e-02) (80, -2.66492571681737899780e-02) (81, 3.20619195699691772461e-02) (82, 7.13605945929884910583e-03) (83, -6.49129226803779602051e-02) (84, -2.36135572195053100586e-02) (85, 8.70373323559761047363e-02) (86, 6.70414417982101440430e-03) (87, 4.51585873961448669434e-02) (88, 2.19294987618923187256e-02) (89, 8.93723070621490478516e-02) (90, -1.37730380520224571228e-02) (91, 8.69892612099647521973e-02) (92, -9.07974913716316223145e-02) (93, 8.26464518904685974121e-02) (94, -7.51688107848167419434e-02) (95, 9.36645045876502990723e-02) (96, 2.26688444614410400391e-01) (97, 7.33517333865165710449e-02) (98, 2.15449687093496322632e-02) (99, -1.28527656197547912598e-01) (100, 8.76225754618644714355e-02) (101, 6.94059312343597412109e-01) (102, 6.76940679550170898438e-01) (103, 8.22914615273475646973e-02) (104, 1.07235861942172050476e-02) (105, -2.20485348254442214966e-02) (106, 8.31371732056140899658e-03) (107, 2.31394879519939422607e-02) (108, 6.83718323707580566406e-01) (109, -1.09355356544256210327e-02) (110, -8.97233467549085617065e-03) (111, -2.93420068919658660889e-02) (112, -7.15026706457138061523e-02) (113, -8.48706290125846862793e-02) (114, -3.79858817905187606812e-03) (115, 2.21314802765846252441e-02) (116, -1.62625998258590698242e-01) (117, -9.74660292267799377441e-02) (118, -1.04387097060680389404e-01) (119, 8.18978399038314819336e-02) (120, -1.17510750889778137207e-01) (121, -2.64996923506259918213e-02) (122, 3.47019024193286895752e-02) (123, -8.21774825453758239746e-02) (124, -4.99039441347122192383e-02) (125, 4.25986610352993011475e-02) (126, 6.39467984437942504883e-02) (127, -7.02451765537261962891e-02) (128, -3.21204438805580139160e-02) (129, -2.10354626178741455078e-02) (130, -7.27204680442810058594e-02) (131, -5.44492043554782867432e-02) (132, 1.13179022446274757385e-02) (133, -7.47657800093293190002e-03) (134, -7.91730806231498718262e-02) (135, -9.12416577339172363281e-02) (136, 3.56570631265640258789e-03) (137, 8.92933905124664306641e-02) (138, 2.59400978684425354004e-02) (139, 3.92431281507015228271e-02) (140, -5.79928718507289886475e-02) (141, -5.57468645274639129639e-02) (142, -4.01276610791683197021e-02) (143, -3.54080460965633392334e-02) (144, 5.00653125345706939697e-02) (145, 1.07343897223472595215e-01) (146, 5.52291087806224822998e-02) (147, 9.38973799347877502441e-02) (148, -8.83867815136909484863e-02) (149, 8.05039107799530029297e-02) (150, 3.95395904779434204102e-02) (151, 6.72215700149536132812e-01) (152, 2.80772731639444828033e-03) (153, 7.24915981292724609375e-01) (154, 6.76907300949096679688e-01) (155, 4.63992916047573089600e-02) (156, 1.14671938121318817139e-01) (157, 6.65947496891021728516e-02) (158, -6.54814764857292175293e-02) (159, -3.08161433786153793335e-02) (160, -3.07363290339708328247e-02) (161, -5.36854490637779235840e-02) (162, 4.96419258415699005127e-02) (163, -9.34300348162651062012e-02) (164, 7.05087184906005859375e-02) (165, -1.06502920389175415039e-01) (166, -3.91178391873836517334e-02) (167, -8.65393970161676406860e-03) (168, -9.34230908751487731934e-02) (169, -6.32135123014450073242e-02) (170, 1.11372331157326698303e-02) (171, -5.40398620069026947021e-02) (172, 6.02167882025241851807e-02) (173, 8.14740061759948730469e-01) (174, 5.35717718303203582764e-02) (175, -3.46398055553436279297e-02) (176, 4.55030333250761032104e-03) (177, 2.21966784447431564331e-02) (178, -4.57803457975387573242e-02) (179, 9.44855529814958572388e-03) (180, 1.68790053576231002808e-02) (181, -1.01230435073375701904e-01) (182, 6.66950866580009460449e-02) (183, -5.14357909560203552246e-02) (184, -3.59893366694450378418e-02) (185, 5.74324317276477813721e-02) (186, -1.21949300169944763184e-01) (187, -2.33936086297035217285e-02) (188, 5.52761107683181762695e-02) (189, -7.01486244797706604004e-02) (190, 8.48842039704322814941e-02) (191, -8.04984048008918762207e-02) (192, 7.97869801521301269531e-01) (193, 5.98317384719848632812e-02) (194, -5.15442378818988800049e-02) (195, -1.51783768087625503540e-02) (196, 5.32436110079288482666e-02) (197, 6.32298663258552551270e-02) (198, -1.23179204761981964111e-01) (199, 4.79880161583423614502e-02) (200, -9.18854326009750366211e-02) (201, 5.13848941773176193237e-03) (202, -4.00386676192283630371e-02) (203, 5.42149357497692108154e-02) (204, -4.28692027926445007324e-02) (205, -6.93545266985893249512e-02) (206, -4.78293709456920623779e-02) (207, 4.48905490338802337646e-02) (208, 8.13919380307197570801e-02) (209, 8.16138863563537597656e-01) (210, -1.30268633365631103516e-02) (211, -5.67108346149325370789e-03) (212, 1.54105741530656814575e-02) (213, -5.55135309696197509766e-02) (214, 4.25993502140045166016e-02) (215, -5.24634085595607757568e-02) (216, 7.06443607807159423828e-01) (217, 7.86227509379386901855e-02) (218, 1.83730926364660263062e-02) (219, 6.97483271360397338867e-02) (220, 1.06036618351936340332e-01) (221, -5.21727791056036949158e-03) (222, -1.27824932336807250977e-01) (223, 2.14170981198549270630e-02) (224, -5.12508340179920196533e-02) (225, -1.98507700115442276001e-02) (226, 7.98261314630508422852e-02) (227, 6.59963786602020263672e-02) (228, -6.51397928595542907715e-02) (229, -1.15757465362548828125e-01) (230, 5.08119575679302215576e-02) (231, -6.77011683583259582520e-02) (232, 8.61220154911279678345e-03) (233, -6.14144615828990936279e-02) (234, 1.04938022792339324951e-01) (235, -1.77801519632339477539e-01) (236, -4.21269424259662628174e-02) (237, -7.89529681205749511719e-02) (238, 3.63200604915618896484e-02) (239, -8.65024849772453308105e-02) (240, 8.98768752813339233398e-02) (241, -6.77599310874938964844e-02) (242, 4.79540862143039703369e-02) (243, -3.75374709255993366241e-03) (244, 1.72015521675348281860e-02) (245, 1.38718066737055778503e-02) (246, 2.04313639551401138306e-02) (247, 2.67956163734197616577e-02) (248, -6.86806216835975646973e-02) (249, 6.91014349460601806641e-01) (250, -1.92040614783763885498e-02) (251, 7.29685425758361816406e-01) (252, -1.55748696997761726379e-02) (253, 7.36548840999603271484e-01) (254, 8.35437774658203125000e-01) (255, 7.91582107543945312500e-01) (256, 8.26246738433837890625e-01) (257, 7.36068785190582275391e-02) (258, 8.01260471343994140625e-01) (259, -8.24149250984191894531e-02) (260, 7.24767893552780151367e-02) (261, 7.69109845161437988281e-01) (262, -2.34841536730527877808e-02) (263, 7.26526856422424316406e-01) (264, 7.86127448081970214844e-01) (265, -2.71523535251617431641e-01) (266, -1.80617734789848327637e-01) (267, 8.33782792091369628906e-01) (268, 7.84685313701629638672e-01) (269, 8.04310619831085205078e-01) (270, 6.85557276010513305664e-02) (271, -6.38990178704261779785e-02) (272, 1.10650129616260528564e-01) (273, 3.57281346805393695831e-03) (274, 7.98500925302505493164e-02) (275, 4.48460597544908523560e-03) (276, 6.82310700416564941406e-01) (277, -1.82066205888986587524e-02) (278, -1.54850482940673828125e-01) (279, 7.48977422714233398438e-01) (280, 1.48944808170199394226e-02) (281, 7.47534692287445068359e-01) (282, 7.75770008563995361328e-01) (283, 6.95815503597259521484e-01) (284, 8.42796325683593750000e-01) (285, 7.60442495346069335938e-01) (286, 8.34875941276550292969e-01) (287, 7.84308552742004394531e-01) (288, -1.38769835233688354492e-01) (0, 1.50000000000000000000e+03) (1, 6.24701440334320068359e-01) (2, 4.77142244577407836914e-01) (3, 6.67659163475036621094e-01) (4, 4.97605443000793457031e-01) (5, 5.78129529953002929688e-01) (6, 5.95358014106750488281e-01) (7, 5.07427811622619628906e-01) (8, 6.00896954536437988281e-01) (9, 5.81644535064697265625e-01) (10, 6.67052030563354492188e-01) (11, 5.31360208988189697266e-01) (12, 5.97157061100006103516e-01) (13, 5.18884539604187011719e-01) (14, 5.50924003124237060547e-01) (15, 5.09350359439849853516e-01) (16, 5.53927958011627197266e-01) (17, 5.23853182792663574219e-01) (18, 5.32845675945281982422e-01) (19, 6.26730322837829589844e-01) (20, 5.95100045204162597656e-01) (21, 5.97035348415374755859e-01) (22, 5.03845512866973876953e-01) (23, 4.77369755506515502930e-01) (24, 5.11798262596130371094e-01) (25, 5.39709389209747314453e-01) (26, 7.08255350589752197266e-01) (27, 5.96801221370697021484e-01) (28, 5.46671748161315917969e-01) (29, 6.15527272224426269531e-01) (30, 7.11846113204956054688e-01) (31, 6.33702516555786132812e-01) (32, 5.18581628799438476562e-01) (33, -1.45579770207405090332e-01) (34, 6.22974991798400878906e-01) (35, 5.49711346626281738281e-01) (36, 7.34401881694793701172e-01) (37, 5.53200006484985351562e-01) (38, 6.23486399650573730469e-01) (39, 5.49911439418792724609e-01) (40, 6.55764818191528320312e-01) (41, 6.10092639923095703125e-01) (42, 6.04946851730346679688e-01) (43, 5.18335700035095214844e-01) (44, 6.51802659034729003906e-01) (45, 6.37081563472747802734e-01) (46, 5.38778483867645263672e-01) (47, 6.83815419673919677734e-01) (48, 5.58271646499633789062e-01) (49, 5.41440844535827636719e-01) (50, 6.05605602264404296875e-01) (51, 6.77543461322784423828e-01) (52, 6.38523399829864501953e-01) (53, 6.56553626060485839844e-01) (54, 6.61132752895355224609e-01) (55, 6.56453728675842285156e-01) (56, 5.25958955287933349609e-01) (57, 6.67450964450836181641e-01) (58, 5.58436334133148193359e-01) (59, 5.65888583660125732422e-01) (60, 5.63053429126739501953e-01) (61, 5.91168463230133056641e-01) (62, 6.21388554573059082031e-01) (63, 6.21365427970886230469e-01) (64, 6.24470889568328857422e-01) (65, 5.63942015171051025391e-01) (66, 6.57197892665863037109e-01) (67, 5.40770411491394042969e-01) (68, 6.32742941379547119141e-01) (69, 4.92984116077423095703e-01) (70, 5.87160170078277587891e-01) (71, 5.14655470848083496094e-01) (72, 6.16461932659149169922e-01) (73, 6.77462100982666015625e-01) (74, 5.62958240509033203125e-01) (75, 6.01599812507629394531e-01) (76, 6.47673726081848144531e-01) (77, 5.74189543724060058594e-01) (78, 5.78150808811187744141e-01) (79, 6.48935377597808837891e-01) (80, 6.38407409191131591797e-01) (81, 6.58135175704956054688e-01) (82, 6.39142215251922607422e-01) (83, 5.34791350364685058594e-01) (84, 6.08883976936340332031e-01) (85, 6.42556726932525634766e-01) (86, 6.86625301837921142578e-01) (87, 6.61469757556915283203e-01) (88, 5.54249107837677001953e-01) (89, 5.71300864219665527344e-01) (90, 6.84170365333557128906e-01) (91, 6.11064255237579345703e-01) (92, 6.36188626289367675781e-01) (93, 6.56192183494567871094e-01) (94, 7.05079555511474609375e-01) (95, 5.36887824535369873047e-01) (96, 5.34146845340728759766e-01) (97, 6.30228519439697265625e-01) (98, 5.64238309860229492188e-01) (99, 6.30840241909027099609e-01) (100, 6.94885969161987304688e-01) (101, -4.81999628245830535889e-02) (102, 1.33245962206274271011e-03) (103, 6.21866703033447265625e-01) (104, 6.18125915527343750000e-01) (105, 5.67658066749572753906e-01) (106, 6.76719486713409423828e-01) (107, 6.96819365024566650391e-01) (108, -6.24498501420021057129e-02) (109, 5.60629963874816894531e-01) (110, 5.58136224746704101562e-01) (111, 6.80224597454071044922e-01) (112, 5.19398868083953857422e-01) (113, 5.11520147323608398438e-01) (114, 4.98969256877899169922e-01) (115, 5.58120369911193847656e-01) (116, 4.89697307348251342773e-01) (117, 6.75804078578948974609e-01) (118, 5.06862878799438476562e-01) (119, 6.07979893684387207031e-01) (120, 5.24791002273559570312e-01) (121, 6.74525856971740722656e-01) (122, 5.88969767093658447266e-01) (123, 6.83067739009857177734e-01) (124, 6.22609078884124755859e-01) (125, 5.75265169143676757812e-01) (126, 6.71405851840972900391e-01) (127, 6.52099728584289550781e-01) (128, 6.55848741531372070312e-01) (129, 5.25427162647247314453e-01) (130, 6.10798716545104980469e-01) (131, 6.17506265640258789062e-01) (132, 6.47143542766571044922e-01) (133, 6.43835186958312988281e-01) (134, 5.26320219039916992188e-01) (135, 5.33006787300109863281e-01) (136, 6.28612697124481201172e-01) (137, 5.56538045406341552734e-01) (138, 5.15697360038757324219e-01) (139, 5.56752622127532958984e-01) (140, 5.69564461708068847656e-01) (141, 6.80618762969970703125e-01) (142, 5.80578982830047607422e-01) (143, 5.81673264503479003906e-01) (144, 6.94728255271911621094e-01) (145, 5.41044175624847412109e-01) (146, 4.87429589033126831055e-01) (147, 6.32422804832458496094e-01) (148, 6.01281583309173583984e-01) (149, 5.21218836307525634766e-01) (150, 5.97829401493072509766e-01) (151, -6.10026717185974121094e-02) (152, 5.43349504470825195312e-01) (153, -4.09846706315875053406e-03) (154, -7.24508687853813171387e-02) (155, 6.52450859546661376953e-01) (156, 5.48385143280029296875e-01) (157, 5.59850990772247314453e-01) (158, 6.58216476440429687500e-01) (159, 4.83446002006530761719e-01) (160, 6.01940393447875976562e-01) (161, 5.40733098983764648438e-01) (162, 6.30185127258300781250e-01) (163, 5.65540552139282226562e-01) (164, 5.07874846458435058594e-01) (165, 6.75183832645416259766e-01) (166, 6.42202436923980712891e-01) (167, 6.54468953609466552734e-01) (168, 5.50462186336517333984e-01) (169, 7.01275825500488281250e-01) (170, 5.90708076953887939453e-01) (171, 6.18320345878601074219e-01) (172, 6.75759375095367431641e-01) (173, -2.83838808536529541016e-02) (174, 5.17316699028015136719e-01) (175, 6.14848911762237548828e-01) (176, 5.14325857162475585938e-01) (177, 5.38036406040191650391e-01) (178, 5.45624554157257080078e-01) (179, 6.06627166271209716797e-01) (180, 5.68066835403442382812e-01) (181, 6.44176125526428222656e-01) (182, 5.04713296890258789062e-01) (183, 6.33644998073577880859e-01) (184, 6.13220751285552978516e-01) (185, 6.65844798088073730469e-01) (186, 5.65423727035522460938e-01) (187, 6.55576229095458984375e-01) (188, 5.51055073738098144531e-01) (189, 5.35041153430938720703e-01) (190, 6.71808004379272460938e-01) (191, 6.44602656364440917969e-01) (192, -5.71072623133659362793e-02) (193, 6.27559244632720947266e-01) (194, 5.60677468776702880859e-01) (195, 6.14017844200134277344e-01) (196, 5.98251283168792724609e-01) (197, 5.18856704235076904297e-01) (198, 5.64814209938049316406e-01) (199, 6.30178511142730712891e-01) (200, 5.20709872245788574219e-01) (201, 6.63888454437255859375e-01) (202, 6.08656227588653564453e-01) (203, 6.76180601119995117188e-01) (204, 6.09016537666320800781e-01) (205, 6.61089122295379638672e-01) (206, 6.25938475131988525391e-01) (207, 6.02383434772491455078e-01) (208, 5.22069513797760009766e-01) (209, -7.42090912535786628723e-03) (210, 5.36217570304870605469e-01) (211, 5.83177149295806884766e-01) (212, 6.14289402961730957031e-01) (213, 6.09558105468750000000e-01) (214, 5.11094510555267333984e-01) (215, 5.92103481292724609375e-01) (216, -8.54143723845481872559e-02) (217, 6.37705206871032714844e-01) (218, 5.36280989646911621094e-01) (219, 6.30073487758636474609e-01) (220, 6.57834768295288085938e-01) (221, 6.95868313312530517578e-01) (222, 5.53010761737823486328e-01) (223, 5.63850820064544677734e-01) (224, 5.34493386745452880859e-01) (225, 5.50856649875640869141e-01) (226, 6.44927024841308593750e-01) (227, 4.73939180374145507812e-01) (228, 6.36668860912322998047e-01) (229, 5.35025477409362792969e-01) (230, 6.37299597263336181641e-01) (231, 6.42170011997222900391e-01) (232, 5.03369688987731933594e-01) (233, 5.69915890693664550781e-01) (234, 6.34555935859680175781e-01) (235, 6.38253152370452880859e-01) (236, 5.18173813819885253906e-01) (237, 5.35205543041229248047e-01) (238, 