FANN_FLO_2.1
num_layers=3
learning_rate=0.700000
connection_rate=1.000000
network_type=0
learning_momentum=0.100000
training_algorithm=2
train_error_function=1
train_stop_function=0
cascade_output_change_fraction=0.010000
quickprop_decay=-0.000100
quickprop_mu=1.750000
rprop_increase_factor=1.200000
rprop_decrease_factor=0.500000
rprop_delta_min=0.000000
rprop_delta_max=50.000000
rprop_delta_zero=0.100000
cascade_output_stagnation_epochs=12
cascade_candidate_change_fraction=0.010000
cascade_candidate_stagnation_epochs=12
cascade_max_out_epochs=150
cascade_min_out_epochs=50
cascade_max_cand_epochs=150
cascade_min_cand_epochs=50
cascade_num_candidate_groups=2
bit_fail_limit=3.49999994039535522461e-01
cascade_candidate_limit=1.00000000000000000000e+03
cascade_weight_multiplier=4.00000005960464477539e-01
cascade_activation_functions_count=10
cascade_activation_functions=3 5 7 8 10 11 14 15 16 17 
cascade_activation_steepnesses_count=4
cascade_activation_steepnesses=2.50000000000000000000e-01 5.00000000000000000000e-01 7.50000000000000000000e-01 1.00000000000000000000e+00 
layer_sizes=289 325 2 
scale_included=0
neurons (num_inputs, activation_function, activation_steepness)=(0, 0, 0.00000000000000000000e+00) (0, 0, 0.00000000000000000000e+00) (0, 0, 0.00000000000000000000e+00) (0, 0, 0.00000000000000000000e+00) (0, 0, 0.00000000000000000000e+00) (0, 0, 0.00000000000000000000e+00) (0, 0, 0.00000000000000000000e+00) (0, 0, 0.00000000000000000000e+00) (0, 0, 0.00000000000000000000e+00) (0, 0, 0.00000000000000000000e+00) (0, 0, 0.00000000000000000000e+00) (0, 0, 0.00000000000000000000e+00) (0, 0, 0.00000000000000000000e+00) (0, 0, 0.00000000000000000000e+00) (0, 0, 0.00000000000000000000e+00) (0, 0, 0.00000000000000000000e+00) (0, 0, 0.00000000000000000000e+00) (0, 0, 0.00000000000000000000e+00) (0, 0, 0.00000000000000000000e+00) (0, 0, 0.00000000000000000000e+00) (0, 0, 0.00000000000000000000e+00) (0, 0, 0.00000000000000000000e+00) (0, 0, 0.00000000000000000000e+00) (0, 0, 0.00000000000000000000e+00) (0, 0, 0.00000000000000000000e+00) (0, 0, 0.00000000000000000000e+00) (0, 0, 0.00000000000000000000e+00) (0, 0, 0.00000000000000000000e+00) (0, 0, 0.00000000000000000000e+00) (0, 0, 0.00000000000000000000e+00) (0, 0, 0.00000000000000000000e+00) (0, 0, 0.00000000000000000000e+00) (0, 0, 0.00000000000000000000e+00) (0, 0, 0.00000000000000000000e+00) (0, 0, 0.00000000000000000000e+00) (0, 0, 0.00000000000000000000e+00) (0, 0, 0.00000000000000000000e+00) (0, 0, 0.00000000000000000000e+00) (0, 0, 0.00000000000000000000e+00) (0, 0, 0.00000000000000000000e+00) (0, 0, 0.00000000000000000000e+00) (0, 0, 0.00000000000000000000e+00) (0, 0, 0.00000000000000000000e+00) (0, 0, 0.00000000000000000000e+00) (0, 0, 0.00000000000000000000e+00) (0, 0, 0.00000000000000000000e+00) (0, 0, 0.00000000000000000000e+00) (0, 0, 0.00000000000000000000e+00) (0, 0, 0.00000000000000000000e+00) (0, 0, 0.00000000000000000000e+00) (0, 0, 0.00000000000000000000e+00) (0, 0, 0.00000000000000000000e+00) (0, 0, 0.00000000000000000000e+00) (0, 0, 0.00000000000000000000e+00) (0, 0, 0.00000000000000000000e+00) (0, 0, 0.00000000000000000000e+00) (0, 0, 0.00000000000000000000e+00) (0, 0, 0.00000000000000000000e+00) (0, 0, 0.00000000000000000000e+00) (0, 0, 0.00000000000000000000e+00) (0, 0, 0.00000000000000000000e+00) (0, 0, 0.00000000000000000000e+00) (0, 0, 0.00000000000000000000e+00) (0, 0, 0.00000000000000000000e+00) (0, 0, 0.00000000000000000000e+00) (0, 0, 0.00000000000000000000e+00) (0, 0, 0.00000000000000000000e+00) (0, 0, 0.00000000000000000000e+00) (0, 0, 0.00000000000000000000e+00) (0, 0, 0.00000000000000000000e+00) (0, 0, 0.00000000000000000000e+00) (0, 0, 0.00000000000000000000e+00) (0, 0, 0.00000000000000000000e+00) (0, 0, 0.00000000000000000000e+00) (0, 0, 0.00000000000000000000e+00) (0, 0, 0.00000000000000000000e+00) (0, 0, 0.00000000000000000000e+00) (0, 0, 0.00000000000000000000e+00) (0, 0, 0.00000000000000000000e+00) (0, 0, 0.00000000000000000000e+00) (0, 0, 0.00000000000000000000e+00) (0, 0, 0.00000000000000000000e+00) (0, 0, 0.00000000000000000000e+00) (0, 0, 0.00000000000000000000e+00) (0, 0, 0.00000000000000000000e+00) (0, 0, 0.00000000000000000000e+00) (0, 0, 0.00000000000000000000e+00) (0, 0, 0.00000000000000000000e+00) (0, 0, 0.00000000000000000000e+00) (0, 0, 0.00000000000000000000e+00) (0, 0, 0.00000000000000000000e+00) (0, 0, 0.00000000000000000000e+00) (0, 0, 0.00000000000000000000e+00) (0, 0, 0.00000000000000000000e+00) (0, 0, 0.00000000000000000000e+00) (0, 0, 0.00000000000000000000e+00) (0, 0, 0.00000000000000000000e+00) (0, 0, 0.00000000000000000000e+00) (0, 0, 0.00000000000000000000e+00) (0, 0, 0.00000000000000000000e+00) (0, 0, 0.00000000000000000000e+00) (0, 0, 0.00000000000000000000e+00) (0, 0, 0.00000000000000000000e+00) (0, 0, 0.00000000000000000000e+00) (0, 0, 0.00000000000000000000e+00) (0, 0, 0.00000000000000000000e+00) (0, 0, 0.00000000000000000000e+00) (0, 0, 0.00000000000000000000e+00) (0, 0, 0.00000000000000000000e+00) (0, 0, 0.00000000000000000000e+00) (0, 0, 0.00000000000000000000e+00) (0, 0, 0.00000000000000000000e+00) (0, 0, 0.00000000000000000000e+00) (0, 0, 0.00000000000000000000e+00) (0, 0, 0.00000000000000000000e+00) (0, 0, 0.00000000000000000000e+00) (0, 0, 0.00000000000000000000e+00) (0, 0, 0.00000000000000000000e+00) (0, 0, 0.00000000000000000000e+00) (0, 0, 0.00000000000000000000e+00) (0, 0, 0.00000000000000000000e+00) (0, 0, 0.00000000000000000000e+00) (0, 0, 0.00000000000000000000e+00) (0, 0, 0.00000000000000000000e+00) (0, 0, 0.00000000000000000000e+00) (0, 0, 0.00000000000000000000e+00) (0, 0, 0.00000000000000000000e+00) (0, 0, 0.00000000000000000000e+00) (0, 0, 0.00000000000000000000e+00) (0, 0, 0.00000000000000000000e+00) (0, 0, 0.00000000000000000000e+00) (0, 0, 0.00000000000000000000e+00) (0, 0, 0.00000000000000000000e+00) (0, 0, 0.00000000000000000000e+00) (0, 0, 0.00000000000000000000e+00) (0, 0, 0.00000000000000000000e+00) (0, 0, 0.00000000000000000000e+00) (0, 0, 0.00000000000000000000e+00) (0, 0, 0.00000000000000000000e+00) (0, 0, 0.00000000000000000000e+00) (0, 0, 0.00000000000000000000e+00) (0, 0, 0.00000000000000000000e+00) (0, 0, 0.00000000000000000000e+00) (0, 0, 0.00000000000000000000e+00) (0, 0, 0.00000000000000000000e+00) (0, 0, 0.00000000000000000000e+00) (0, 0, 0.00000000000000000000e+00) (0, 0, 0.00000000000000000000e+00) (0, 0, 0.00000000000000000000e+00) (0, 0, 0.00000000000000000000e+00) (0, 0, 0.00000000000000000000e+00) (0, 0, 0.00000000000000000000e+00) (0, 0, 0.00000000000000000000e+00) (0, 0, 0.00000000000000000000e+00) (0, 0, 0.00000000000000000000e+00) (0, 0, 0.00000000000000000000e+00) (0, 0, 0.00000000000000000000e+00) (0, 0, 0.00000000000000000000e+00) (0, 0, 0.00000000000000000000e+00) (0, 0, 0.00000000000000000000e+00) (0, 0, 0.00000000000000000000e+00) (0, 0, 0.00000000000000000000e+00) (0, 0, 0.00000000000000000000e+00) (0, 0, 0.00000000000000000000e+00) (0, 0, 0.00000000000000000000e+00) (0, 0, 0.00000000000000000000e+00) (0, 0, 0.00000000000000000000e+00) (0, 0, 0.00000000000000000000e+00) (0, 0, 0.00000000000000000000e+00) (0, 0, 0.00000000000000000000e+00) (0, 0, 0.00000000000000000000e+00) (0, 0, 0.00000000000000000000e+00) (0, 0, 0.00000000000000000000e+00) (0, 0, 0.00000000000000000000e+00) (0, 0, 0.00000000000000000000e+00) (0, 0, 0.00000000000000000000e+00) (0, 0, 0.00000000000000000000e+00) (0, 0, 0.00000000000000000000e+00) (0, 0, 0.00000000000000000000e+00) (0, 0, 0.00000000000000000000e+00) (0, 0, 0.00000000000000000000e+00) (0, 0, 0.00000000000000000000e+00) (0, 0, 0.00000000000000000000e+00) (0, 0, 0.00000000000000000000e+00) (0, 0, 0.00000000000000000000e+00) (0, 0, 0.00000000000000000000e+00) (0, 0, 0.00000000000000000000e+00) (0, 0, 0.00000000000000000000e+00) (0, 0, 0.00000000000000000000e+00) (0, 0, 0.00000000000000000000e+00) (0, 0, 0.00000000000000000000e+00) (0, 0, 0.00000000000000000000e+00) (0, 0, 0.00000000000000000000e+00) (0, 0, 0.00000000000000000000e+00) (0, 0, 0.00000000000000000000e+00) (0, 0, 0.00000000000000000000e+00) (0, 0, 0.00000000000000000000e+00) (0, 0, 0.00000000000000000000e+00) (0, 0, 0.00000000000000000000e+00) (0, 0, 0.00000000000000000000e+00) (0, 0, 0.00000000000000000000e+00) (0, 0, 0.00000000000000000000e+00) (0, 0, 0.00000000000000000000e+00) (0, 0, 0.00000000000000000000e+00) (0, 0, 0.00000000000000000000e+00) (0, 0, 0.00000000000000000000e+00) (0, 0, 0.00000000000000000000e+00) (0, 0, 0.00000000000000000000e+00) (0, 0, 0.00000000000000000000e+00) (0, 0, 0.00000000000000000000e+00) (0, 0, 0.00000000000000000000e+00) (0, 0, 0.00000000000000000000e+00) (0, 0, 0.00000000000000000000e+00) (0, 0, 0.00000000000000000000e+00) (0, 0, 0.00000000000000000000e+00) (0, 0, 0.00000000000000000000e+00) (0, 0, 0.00000000000000000000e+00) (0, 0, 0.00000000000000000000e+00) (0, 0, 0.00000000000000000000e+00) (0, 0, 0.00000000000000000000e+00) (0, 0, 0.00000000000000000000e+00) (0, 0, 0.00000000000000000000e+00) (0, 0, 0.00000000000000000000e+00) (0, 0, 0.00000000000000000000e+00) (0, 0, 0.00000000000000000000e+00) (0, 0, 0.00000000000000000000e+00) (0, 0, 0.00000000000000000000e+00) (0, 0, 0.00000000000000000000e+00) (0, 0, 0.00000000000000000000e+00) (0, 0, 0.00000000000000000000e+00) (0, 0, 0.00000000000000000000e+00) (0, 0, 0.00000000000000000000e+00) (0, 0, 0.00000000000000000000e+00) (0, 0, 0.00000000000000000000e+00) (0, 0, 0.00000000000000000000e+00) (0, 0, 0.00000000000000000000e+00) (0, 0, 0.00000000000000000000e+00) (0, 0, 0.00000000000000000000e+00) (0, 0, 0.00000000000000000000e+00) (0, 0, 0.00000000000000000000e+00) (0, 0, 0.00000000000000000000e+00) (0, 0, 0.00000000000000000000e+00) (0, 0, 0.00000000000000000000e+00) (0, 0, 0.00000000000000000000e+00) (0, 0, 0.00000000000000000000e+00) (0, 0, 0.00000000000000000000e+00) (0, 0, 0.00000000000000000000e+00) (0, 0, 0.00000000000000000000e+00) (0, 0, 0.00000000000000000000e+00) (0, 0, 0.00000000000000000000e+00) (0, 0, 0.00000000000000000000e+00) (0, 0, 0.00000000000000000000e+00) (0, 0, 0.00000000000000000000e+00) (0, 0, 0.00000000000000000000e+00) (0, 0, 0.00000000000000000000e+00) (0, 0, 0.00000000000000000000e+00) (0, 0, 0.00000000000000000000e+00) (0, 0, 0.00000000000000000000e+00) (0, 0, 0.00000000000000000000e+00) (0, 0, 0.00000000000000000000e+00) (0, 0, 0.00000000000000000000e+00) (0, 0, 0.00000000000000000000e+00) (0, 0, 0.00000000000000000000e+00) (0, 0, 0.00000000000000000000e+00) (0, 0, 0.00000000000000000000e+00) (0, 0, 0.00000000000000000000e+00) (0, 0, 0.00000000000000000000e+00) (0, 0, 0.00000000000000000000e+00) (0, 0, 0.00000000000000000000e+00) (0, 0, 0.00000000000000000000e+00) (0, 0, 0.00000000000000000000e+00) (0, 0, 0.00000000000000000000e+00) (0, 0, 0.00000000000000000000e+00) (0, 0, 0.00000000000000000000e+00) (0, 0, 0.00000000000000000000e+00) (0, 0, 0.00000000000000000000e+00) (0, 0, 0.00000000000000000000e+00) (0, 0, 0.00000000000000000000e+00) (0, 0, 0.00000000000000000000e+00) (0, 0, 0.00000000000000000000e+00) (0, 0, 0.00000000000000000000e+00) (0, 0, 0.00000000000000000000e+00) (0, 0, 0.00000000000000000000e+00) (0, 0, 0.00000000000000000000e+00) (0, 0, 0.00000000000000000000e+00) (0, 0, 0.00000000000000000000e+00) (0, 0, 0.00000000000000000000e+00) (0, 0, 0.00000000000000000000e+00) (0, 0, 0.00000000000000000000e+00) (289, 5, 5.00000000000000000000e-01) (289, 5, 5.00000000000000000000e-01) (289, 5, 5.00000000000000000000e-01) (289, 5, 5.00000000000000000000e-01) (289, 5, 5.00000000000000000000e-01) (289, 5, 5.00000000000000000000e-01) (289, 5, 5.00000000000000000000e-01) (289, 5, 5.00000000000000000000e-01) (289, 5, 5.00000000000000000000e-01) (289, 5, 5.00000000000000000000e-01) (289, 5, 5.00000000000000000000e-01) (289, 5, 5.00000000000000000000e-01) (289, 5, 5.00000000000000000000e-01) (289, 5, 5.00000000000000000000e-01) (289, 5, 5.00000000000000000000e-01) (289, 5, 5.00000000000000000000e-01) (289, 5, 5.00000000000000000000e-01) (289, 5, 5.00000000000000000000e-01) (289, 5, 5.00000000000000000000e-01) (289, 5, 5.00000000000000000000e-01) (289, 5, 5.00000000000000000000e-01) (289, 5, 5.00000000000000000000e-01) (289, 5, 5.00000000000000000000e-01) (289, 5, 5.00000000000000000000e-01) (289, 5, 5.00000000000000000000e-01) (289, 5, 5.00000000000000000000e-01) (289, 5, 5.00000000000000000000e-01) (289, 5, 5.00000000000000000000e-01) (289, 5, 5.00000000000000000000e-01) (289, 5, 5.00000000000000000000e-01) (289, 5, 5.00000000000000000000e-01) (289, 5, 5.00000000000000000000e-01) (289, 5, 5.00000000000000000000e-01) (289, 5, 5.00000000000000000000e-01) (289, 5, 5.00000000000000000000e-01) (289, 5, 5.00000000000000000000e-01) (289, 5, 5.00000000000000000000e-01) (289, 5, 5.00000000000000000000e-01) (289, 5, 5.00000000000000000000e-01) (289, 5, 5.00000000000000000000e-01) (289, 5, 5.00000000000000000000e-01) (289, 5, 5.00000000000000000000e-01) (289, 5, 5.00000000000000000000e-01) (289, 5, 5.00000000000000000000e-01) (289, 5, 5.00000000000000000000e-01) (289, 5, 5.00000000000000000000e-01) (289, 5, 5.00000000000000000000e-01) (289, 5, 5.00000000000000000000e-01) (289, 5, 5.00000000000000000000e-01) (289, 5, 5.00000000000000000000e-01) (289, 5, 5.00000000000000000000e-01) (289, 5, 5.00000000000000000000e-01) (289, 5, 5.00000000000000000000e-01) (289, 5, 5.00000000000000000000e-01) (289, 5, 5.00000000000000000000e-01) (289, 5, 5.00000000000000000000e-01) (289, 5, 5.00000000000000000000e-01) (289, 5, 5.00000000000000000000e-01) (289, 5, 5.00000000000000000000e-01) (289, 5, 5.00000000000000000000e-01) (289, 5, 5.00000000000000000000e-01) (289, 5, 5.00000000000000000000e-01) (289, 5, 5.00000000000000000000e-01) (289, 5, 5.00000000000000000000e-01) (289, 5, 5.00000000000000000000e-01) (289, 5, 5.00000000000000000000e-01) (289, 5, 5.00000000000000000000e-01) (289, 5, 5.00000000000000000000e-01) (289, 5, 5.00000000000000000000e-01) (289, 5, 5.00000000000000000000e-01) (289, 5, 5.00000000000000000000e-01) (289, 5, 5.00000000000000000000e-01) (289, 5, 5.00000000000000000000e-01) (289, 5, 5.00000000000000000000e-01) (289, 5, 5.00000000000000000000e-01) (289, 5, 5.00000000000000000000e-01) (289, 5, 5.00000000000000000000e-01) (289, 5, 5.00000000000000000000e-01) (289, 5, 5.00000000000000000000e-01) (289, 5, 5.00000000000000000000e-01) (289, 5, 5.00000000000000000000e-01) (289, 5, 5.00000000000000000000e-01) (289, 5, 5.00000000000000000000e-01) (289, 5, 5.00000000000000000000e-01) (289, 5, 5.00000000000000000000e-01) (289, 5, 5.00000000000000000000e-01) (289, 5, 5.00000000000000000000e-01) (289, 5, 5.00000000000000000000e-01) (289, 5, 5.00000000000000000000e-01) (289, 5, 5.00000000000000000000e-01) (289, 5, 5.00000000000000000000e-01) (289, 5, 5.00000000000000000000e-01) (289, 5, 5.00000000000000000000e-01) (289, 5, 5.00000000000000000000e-01) (289, 5, 5.00000000000000000000e-01) (289, 5, 5.00000000000000000000e-01) (289, 5, 5.00000000000000000000e-01) (289, 5, 5.00000000000000000000e-01) (289, 5, 5.00000000000000000000e-01) (289, 5, 5.00000000000000000000e-01) (289, 5, 5.00000000000000000000e-01) (289, 5, 5.00000000000000000000e-01) (289, 5, 5.00000000000000000000e-01) (289, 5, 5.00000000000000000000e-01) (289, 5, 5.00000000000000000000e-01) (289, 5, 5.00000000000000000000e-01) (289, 5, 5.00000000000000000000e-01) (289, 5, 5.00000000000000000000e-01) (289, 5, 5.00000000000000000000e-01) (289, 5, 5.00000000000000000000e-01) (289, 5, 5.00000000000000000000e-01) (289, 5, 5.00000000000000000000e-01) (289, 5, 5.00000000000000000000e-01) (289, 5, 5.00000000000000000000e-01) (289, 5, 5.00000000000000000000e-01) (289, 5, 5.00000000000000000000e-01) (289, 5, 5.00000000000000000000e-01) (289, 5, 5.00000000000000000000e-01) (289, 5, 5.00000000000000000000e-01) (289, 5, 5.00000000000000000000e-01) (289, 5, 5.00000000000000000000e-01) (289, 5, 5.00000000000000000000e-01) (289, 5, 5.00000000000000000000e-01) (289, 5, 5.00000000000000000000e-01) (289, 5, 5.00000000000000000000e-01) (289, 5, 5.00000000000000000000e-01) (289, 5, 5.00000000000000000000e-01) (289, 5, 5.00000000000000000000e-01) (289, 5, 5.00000000000000000000e-01) (289, 5, 5.00000000000000000000e-01) (289, 5, 5.00000000000000000000e-01) (289, 5, 5.00000000000000000000e-01) (289, 5, 5.00000000000000000000e-01) (289, 5, 5.00000000000000000000e-01) (289, 5, 5.00000000000000000000e-01) (289, 5, 5.00000000000000000000e-01) (289, 5, 5.00000000000000000000e-01) (289, 5, 5.00000000000000000000e-01) (289, 5, 5.00000000000000000000e-01) (289, 5, 5.00000000000000000000e-01) (289, 5, 5.00000000000000000000e-01) (289, 5, 5.00000000000000000000e-01) (289, 5, 5.00000000000000000000e-01) (289, 5, 5.00000000000000000000e-01) (289, 5, 5.00000000000000000000e-01) (289, 5, 5.00000000000000000000e-01) (289, 5, 5.00000000000000000000e-01) (289, 5, 5.00000000000000000000e-01) (289, 5, 5.00000000000000000000e-01) (289, 5, 5.00000000000000000000e-01) (289, 5, 5.00000000000000000000e-01) (289, 5, 5.00000000000000000000e-01) (289, 5, 5.00000000000000000000e-01) (289, 5, 5.00000000000000000000e-01) (289, 5, 5.00000000000000000000e-01) (289, 5, 5.00000000000000000000e-01) (289, 5, 5.00000000000000000000e-01) (289, 5, 5.00000000000000000000e-01) (289, 5, 5.00000000000000000000e-01) (289, 5, 5.00000000000000000000e-01) (289, 5, 5.00000000000000000000e-01) (289, 5, 5.00000000000000000000e-01) (289, 5, 5.00000000000000000000e-01) (289, 5, 5.00000000000000000000e-01) (289, 5, 5.00000000000000000000e-01) (289, 5, 5.00000000000000000000e-01) (289, 5, 5.00000000000000000000e-01) (289, 5, 5.00000000000000000000e-01) (289, 5, 5.00000000000000000000e-01) (289, 5, 5.00000000000000000000e-01) (289, 5, 5.00000000000000000000e-01) (289, 5, 5.00000000000000000000e-01) (289, 5, 5.00000000000000000000e-01) (289, 5, 5.00000000000000000000e-01) (289, 5, 5.00000000000000000000e-01) (289, 5, 5.00000000000000000000e-01) (289, 5, 5.00000000000000000000e-01) (289, 5, 5.00000000000000000000e-01) (289, 5, 5.00000000000000000000e-01) (289, 5, 5.00000000000000000000e-01) (289, 5, 5.00000000000000000000e-01) (289, 5, 5.00000000000000000000e-01) (289, 5, 5.00000000000000000000e-01) (289, 5, 5.00000000000000000000e-01) (289, 5, 5.00000000000000000000e-01) (289, 5, 5.00000000000000000000e-01) (289, 5, 5.00000000000000000000e-01) (289, 5, 5.00000000000000000000e-01) (289, 5, 5.00000000000000000000e-01) (289, 5, 5.00000000000000000000e-01) (289, 5, 5.00000000000000000000e-01) (289, 5, 5.00000000000000000000e-01) (289, 5, 5.00000000000000000000e-01) (289, 5, 5.00000000000000000000e-01) (289, 5, 5.00000000000000000000e-01) (289, 5, 5.00000000000000000000e-01) (289, 5, 5.00000000000000000000e-01) (289, 5, 5.00000000000000000000e-01) (289, 5, 5.00000000000000000000e-01) (289, 5, 5.00000000000000000000e-01) (289, 5, 5.00000000000000000000e-01) (289, 5, 5.00000000000000000000e-01) (289, 5, 5.00000000000000000000e-01) (289, 5, 5.00000000000000000000e-01) (289, 5, 5.00000000000000000000e-01) (289, 5, 5.00000000000000000000e-01) (289, 5, 5.00000000000000000000e-01) (289, 5, 5.00000000000000000000e-01) (289, 5, 5.00000000000000000000e-01) (289, 5, 5.00000000000000000000e-01) (289, 5, 5.00000000000000000000e-01) (289, 5, 5.00000000000000000000e-01) (289, 5, 5.00000000000000000000e-01) (289, 5, 5.00000000000000000000e-01) (289, 5, 5.00000000000000000000e-01) (289, 5, 5.00000000000000000000e-01) (289, 5, 5.00000000000000000000e-01) (289, 5, 5.00000000000000000000e-01) (289, 5, 5.00000000000000000000e-01) (289, 5, 5.00000000000000000000e-01) (289, 5, 5.00000000000000000000e-01) (289, 5, 5.00000000000000000000e-01) (289, 5, 5.00000000000000000000e-01) (289, 5, 5.00000000000000000000e-01) (289, 5, 5.00000000000000000000e-01) (289, 5, 5.00000000000000000000e-01) (289, 5, 5.00000000000000000000e-01) (289, 5, 5.00000000000000000000e-01) (289, 5, 5.00000000000000000000e-01) (289, 5, 5.00000000000000000000e-01) (289, 5, 5.00000000000000000000e-01) (289, 5, 5.00000000000000000000e-01) (289, 5, 5.00000000000000000000e-01) (289, 5, 5.00000000000000000000e-01) (289, 5, 5.00000000000000000000e-01) (289, 5, 5.00000000000000000000e-01) (289, 5, 5.00000000000000000000e-01) (289, 5, 5.00000000000000000000e-01) (289, 5, 5.00000000000000000000e-01) (289, 5, 5.00000000000000000000e-01) (289, 5, 5.00000000000000000000e-01) (289, 5, 5.00000000000000000000e-01) (289, 5, 5.00000000000000000000e-01) (289, 5, 5.00000000000000000000e-01) (289, 5, 5.00000000000000000000e-01) (289, 5, 5.00000000000000000000e-01) (289, 5, 5.00000000000000000000e-01) (289, 5, 5.00000000000000000000e-01) (289, 5, 5.00000000000000000000e-01) (289, 5, 5.00000000000000000000e-01) (289, 5, 5.00000000000000000000e-01) (289, 5, 5.00000000000000000000e-01) (289, 5, 5.00000000000000000000e-01) (289, 5, 5.00000000000000000000e-01) (289, 5, 5.00000000000000000000e-01) (289, 5, 5.00000000000000000000e-01) (289, 5, 5.00000000000000000000e-01) (289, 5, 5.00000000000000000000e-01) (289, 5, 5.00000000000000000000e-01) (289, 5, 5.00000000000000000000e-01) (289, 5, 5.00000000000000000000e-01) (289, 5, 5.00000000000000000000e-01) (289, 5, 5.00000000000000000000e-01) (289, 5, 5.00000000000000000000e-01) (289, 5, 5.00000000000000000000e-01) (289, 5, 5.00000000000000000000e-01) (289, 5, 5.00000000000000000000e-01) (289, 5, 5.00000000000000000000e-01) (289, 5, 5.00000000000000000000e-01) (289, 5, 5.00000000000000000000e-01) (289, 5, 5.00000000000000000000e-01) (289, 5, 5.00000000000000000000e-01) (289, 5, 5.00000000000000000000e-01) (289, 5, 5.00000000000000000000e-01) (289, 5, 5.00000000000000000000e-01) (289, 5, 5.00000000000000000000e-01) (289, 5, 5.00000000000000000000e-01) (289, 5, 5.00000000000000000000e-01) (289, 5, 5.00000000000000000000e-01) (289, 5, 5.00000000000000000000e-01) (289, 5, 5.00000000000000000000e-01) (289, 5, 5.00000000000000000000e-01) (289, 5, 5.00000000000000000000e-01) (289, 5, 5.00000000000000000000e-01) (289, 5, 5.00000000000000000000e-01) (289, 5, 5.00000000000000000000e-01) (289, 5, 5.00000000000000000000e-01) (289, 5, 5.00000000000000000000e-01) (289, 5, 5.00000000000000000000e-01) (289, 5, 5.00000000000000000000e-01) (289, 5, 5.00000000000000000000e-01) (289, 5, 5.00000000000000000000e-01) (289, 5, 5.00000000000000000000e-01) (289, 5, 5.00000000000000000000e-01) (289, 5, 5.00000000000000000000e-01) (289, 5, 5.00000000000000000000e-01) (289, 5, 5.00000000000000000000e-01) (289, 5, 5.00000000000000000000e-01) (289, 5, 5.00000000000000000000e-01) (289, 5, 5.00000000000000000000e-01) (289, 5, 5.00000000000000000000e-01) (289, 5, 5.00000000000000000000e-01) (289, 5, 5.00000000000000000000e-01) (289, 5, 5.00000000000000000000e-01) (289, 5, 5.00000000000000000000e-01) (289, 5, 5.00000000000000000000e-01) (289, 5, 5.00000000000000000000e-01) (289, 5, 5.00000000000000000000e-01) (289, 5, 5.00000000000000000000e-01) (289, 5, 5.00000000000000000000e-01) (289, 5, 5.00000000000000000000e-01) (289, 5, 5.00000000000000000000e-01) (289, 5, 5.00000000000000000000e-01) (289, 5, 5.00000000000000000000e-01) (289, 5, 5.00000000000000000000e-01) (289, 5, 5.00000000000000000000e-01) (289, 5, 5.00000000000000000000e-01) (289, 5, 5.00000000000000000000e-01) (289, 5, 5.00000000000000000000e-01) (289, 5, 5.00000000000000000000e-01) (289, 5, 5.00000000000000000000e-01) (289, 5, 5.00000000000000000000e-01) (289, 5, 5.00000000000000000000e-01) (289, 5, 5.00000000000000000000e-01) (0, 5, 0.00000000000000000000e+00) (325, 5, 5.00000000000000000000e-01) (0, 5, 0.00000000000000000000e+00) 
connections (connected_to_neuron, weight)=(0, 1.50000000000000000000e+03) (1, 3.42767626047134399414e-01) (2, 5.53208529949188232422e-01) (3, 4.69518750905990600586e-01) (4, 5.42385160923004150391e-01) (5, 5.99942624568939208984e-01) (6, 4.57632154226303100586e-01) (7, 5.53577780723571777344e-01) (8, 3.95650535821914672852e-01) (9, 6.20869159698486328125e-01) (10, 4.79347854852676391602e-01) (11, 5.07983565330505371094e-01) (12, 3.04038785398006439209e-02) (13, 5.44550418853759765625e-01) (14, 2.46427848935127258301e-01) (15, 4.70970600843429565430e-01) (16, 5.63475847244262695312e-01) (17, 4.56221938133239746094e-01) (18, 8.98961663246154785156e-01) (19, 1.03584635257720947266e+00) (20, 4.84858393669128417969e-01) (21, 4.70457941293716430664e-01) (22, 6.55063629150390625000e-01) (23, 9.14205431938171386719e-01) (24, 7.62266099452972412109e-01) (25, 5.33458948135375976562e-01) (26, 5.23048102855682373047e-01) (27, 5.41562557220458984375e-01) (28, 2.48255088925361633301e-01) (29, 5.35349190235137939453e-01) (30, 4.69623923301696777344e-01) (31, 3.03566634654998779297e-01) (32, 4.04760003089904785156e-01) (33, 3.12588900327682495117e-01) (34, -5.05296170711517333984e-01) (35, 3.19213479757308959961e-01) (36, 3.53108108043670654297e-01) (37, 3.79483550786972045898e-01) (38, 4.82202678918838500977e-01) (39, 4.75295722484588623047e-01) (40, -1.16482861340045928955e-01) (41, 9.70368981361389160156e-02) (42, -9.94885414838790893555e-02) (43, 3.12688909471035003662e-02) (44, 1.74745470285415649414e-01) (45, -1.81755155324935913086e-01) (46, -7.18625709414482116699e-02) (47, 3.53792101144790649414e-01) (48, 4.50995951890945434570e-01) (49, 1.00608599185943603516e+00) (50, 5.89227557182312011719e-01) (51, 6.22911453247070312500e-01) (52, 5.63170850276947021484e-01) (53, 8.85352611541748046875e-01) (54, 9.98312771320343017578e-01) (55, 3.16103667020797729492e-01) (56, 5.19398272037506103516e-01) (57, 6.73900425434112548828e-01) (58, 5.84471940994262695312e-01) (59, 5.26054024696350097656e-01) (60, -1.04017704725265502930e-01) (61, -1.50564745068550109863e-01) (62, 8.19601476192474365234e-01) (63, 3.81579637527465820312e-01) (64, 8.52101564407348632812e-01) (65, 6.19368493556976318359e-01) (66, 5.24975359439849853516e-01) (67, 5.78622460365295410156e-01) (68, 4.24812465906143188477e-01) (69, 4.30163979530334472656e-01) (70, 5.39428293704986572266e-01) (71, 4.49905335903167724609e-01) (72, 4.63441848754882812500e-01) (73, 5.88026225566864013672e-01) (74, 4.47694003582000732422e-01) (75, 2.04570025205612182617e-01) (76, 8.10252487659454345703e-01) (77, 4.65389847755432128906e-01) (78, 1.05123436450958251953e+00) (79, 8.82175207138061523438e-01) (80, 9.94513928890228271484e-01) (81, 8.96016657352447509766e-01) (82, 3.28752338886260986328e-01) (83, 7.43602037429809570312e-01) (84, 8.95208597183227539062e-01) (85, 8.90448570251464843750e-01) (86, 2.76363074779510498047e-01) (87, 9.23350214958190917969e-01) (88, 7.17240750789642333984e-01) (89, 5.10686457157135009766e-01) (90, 2.62089192867279052734e-01) (91, 4.42637920379638671875e-01) (92, 2.74622559547424316406e-01) (93, 3.14743638038635253906e-01) (94, 7.45688378810882568359e-01) (95, 8.97793412208557128906e-01) (96, 7.60421156883239746094e-01) (97, 2.95890808105468750000e-01) (98, 4.39124524593353271484e-01) (99, 1.81168660521507263184e-01) (100, 2.77717590332031250000e-01) (101, 1.85182169079780578613e-01) (102, 4.97519075870513916016e-01) (103, 3.66128772497177124023e-01) (104, -6.63076266646385192871e-02) (105, 8.47725048661231994629e-02) (106, -2.08310961723327636719e-01) (107, 1.10577166080474853516e-01) (108, 6.04891300201416015625e-01) (109, -2.86600828170776367188e-01) (110, 3.17951261997222900391e-01) (111, 1.37151062488555908203e-01) (112, -1.72574341297149658203e-01) (113, -1.83247953653335571289e-01) (114, 4.48331296443939208984e-01) (115, 9.98025655746459960938e-01) (116, 4.97230470180511474609e-01) (117, 6.32857561111450195312e-01) (118, 4.25512343645095825195e-01) (119, 2.95803189277648925781e-01) (120, 9.88750934600830078125e-01) (121, 3.26649606227874755859e-01) (122, 2.81577378511428833008e-01) (123, 4.18765515089035034180e-01) (124, 6.83249533176422119141e-01) (125, 9.52851116657257080078e-01) (126, 1.78556665778160095215e-01) (127, 1.57648593187332153320e-01) (128, 1.72701165080070495605e-01) (129, -2.90679603815078735352e-01) (130, 2.76610612869262695312e-01) (131, 9.06783044338226318359e-01) (132, 9.72370266914367675781e-01) (133, 9.84869778156280517578e-01) (134, 9.23877120018005371094e-01) (135, 8.95197272300720214844e-01) (136, 6.21819257736206054688e-01) (137, 8.74371230602264404297e-01) (138, 9.29341733455657958984e-01) (139, 5.64722836017608642578e-01) (140, 8.97242605686187744141e-01) (141, 9.76692914962768554688e-01) (142, 9.43764269351959228516e-01) (143, 1.00037956237792968750e+00) (144, 2.04244792461395263672e-01) (145, 9.67736721038818359375e-01) (146, 3.14029067754745483398e-01) (147, 3.40218186378479003906e-01) (148, 1.76196217536926269531e-01) (149, 2.81768471002578735352e-01) (150, 3.77818942070007324219e-01) (151, 1.63245007395744323730e-01) (152, -9.33230370283126831055e-02) (153, -3.58897268772125244141e-01) (154, -2.47328430414199829102e-01) (155, -8.12563002109527587891e-02) (156, -1.68876156210899353027e-01) (157, -2.13426947593688964844e-01) (158, 3.68745952844619750977e-01) (159, 2.92097777128219604492e-01) (160, -1.64492487907409667969e-01) (161, -1.62233382463455200195e-01) (162, 2.99796313047409057617e-01) (163, 8.91138255596160888672e-01) (164, 1.00107645988464355469e+00) (165, 6.22928380966186523438e-01) (166, 9.05340015888214111328e-01) (167, 9.29667174816131591797e-01) (168, 9.12934005260467529297e-01) (169, -3.90945106744766235352e-01) (170, -8.97913202643394470215e-02) (171, -3.44673432409763336182e-02) (172, -2.53839083015918731689e-02) (173, 2.90729820728302001953e-01) (174, 8.85455787181854248047e-01) (175, -4.85995292663574218750e-01) (176, 4.50755000114440917969e-01) (177, 3.78806412220001220703e-01) (178, 2.42008090019226074219e-01) (179, 8.86653721332550048828e-01) (180, 9.04230773448944091797e-01) (181, 5.29600501060485839844e-01) (182, 6.61264419555664062500e-01) (183, 6.21141552925109863281e-01) (184, 6.70810639858245849609e-01) (185, 3.80167216062545776367e-01) (186, 3.42084497213363647461e-01) (187, 5.93275427818298339844e-01) (188, 4.46241527795791625977e-01) (189, -1.33508220314979553223e-01) (190, 5.59922456741333007812e-01) (191, 5.49918830394744873047e-01) (192, 1.48120880126953125000e-01) (193, 5.65909624099731445312e-01) (194, 3.53410333395004272461e-01) (195, 4.04080808162689208984e-01) (196, 4.48990464210510253906e-01) (197, 3.38284134864807128906e-01) (198, 1.05883109569549560547e+00) (199, 6.37151002883911132812e-01) (200, 4.76384401321411132812e-01) (201, 4.08045023679733276367e-01) (202, 1.05647361278533935547e+00) (203, 3.99692773818969726562e-01) (204, -2.70523488521575927734e-01) (205, 4.35039937496185302734e-01) (206, 1.01548218727111816406e+00) (207, 5.43172657489776611328e-01) (208, 5.29994189739227294922e-01) (209, 4.18117880821228027344e-01) (210, 5.35654067993164062500e-01) (211, 2.71419644355773925781e-01) (212, 6.78436458110809326172e-01) (213, 4.04499113559722900391e-01) (214, 4.59644466638565063477e-01) (215, 2.88332939147949218750e-01) (216, 5.01806020736694335938e-01) (217, -1.03880017995834350586e-01) (218, -1.24445237219333648682e-01) (219, 9.28158104419708251953e-01) (220, 4.08116757869720458984e-01) (221, 7.79178440570831298828e-01) (222, 2.78745889663696289062e-01) (223, 7.69034862518310546875e-01) (224, 1.02450919151306152344e+00) (225, 4.07802969217300415039e-01) (226, 6.97094619274139404297e-01) (227, 2.61377125978469848633e-01) (228, 9.57783460617065429688e-01) (229, 9.83747124671936035156e-01) (230, 6.33457183837890625000e-01) (231, 6.55224204063415527344e-01) (232, 4.24239188432693481445e-01) (233, 3.89207035303115844727e-01) (234, 4.93599712848663330078e-01) (235, 3.15495103597640991211e-01) (236, 4.48326736688613891602e-01) (237, -2.33270391821861267090e-01) (238, 3.20317953824996948242e-01) (239, 2.62551069259643554688e-01) (240, 7.04059958457946777344e-01) (241, 6.91041648387908935547e-01) (242, 6.74367308616638183594e-01) (243, 9.27039146423339843750e-01) (244, 1.05018782615661621094e+00) (245, 6.75556600093841552734e-01) (246, 3.31740200519561767578e-01) (247, 6.26797735691070556641e-01) (248, 5.45465767383575439453e-01) (249, 3.14496010541915893555e-01) (250, 5.34990608692169189453e-01) (251, 5.15866398811340332031e-01) (252, 5.51513612270355224609e-01) (253, 3.92059028148651123047e-01) (254, 4.91695195436477661133e-01) (255, 5.25507926940917968750e-01) (256, 4.60889190435409545898e-01) (257, 4.13075119256973266602e-01) (258, 5.19886970520019531250e-01) (259, 5.21293580532073974609e-01) (260, 1.11249014735221862793e-01) (261, 3.74444484710693359375e-01) (262, 4.30821269750595092773e-01) (263, -2.26693630218505859375e-01) (264, -1.10272333025932312012e-01) (265, 4.55255091190338134766e-01) (266, -1.59243959933519363403e-02) (267, 5.11781513690948486328e-01) (268, 4.29854691028594970703e-01) (269, 5.19692659378051757812e-01) (270, 4.53110545873641967773e-01) (271, 3.15194040536880493164e-01) (272, 3.78510743379592895508e-01) (273, 9.31451797485351562500e-01) (274, 9.86048221588134765625e-01) (275, 5.57902216911315917969e-01) (276, 4.36378240585327148438e-01) (277, 5.51766455173492431641e-01) (278, 4.97119903564453125000e-01) (279, -2.29229524731636047363e-01) (280, 4.05367761850357055664e-01) (281, 4.69793736934661865234e-01) (282, -1.49377197027206420898e-01) (283, -3.62544864416122436523e-01) (284, -2.61603921651840209961e-01) (285, -2.27271050214767456055e-01) (286, -9.89200025796890258789e-02) (287, 3.74634414911270141602e-01) (288, 8.13991874456405639648e-02) (0, 1.50000000000000000000e+03) (1, 8.23011577129364013672e-01) (2, 7.48242914676666259766e-01) (3, 6.74604117870330810547e-01) (4, 6.42024695873260498047e-01) (5, 2.49845862388610839844e-01) (6, 6.97313725948333740234e-01) (7, 2.40120247006416320801e-01) (8, 7.01665580272674560547e-01) (9, 2.58502840995788574219e-01) (10, 7.13499963283538818359e-01) (11, 6.81572198867797851562e-01) (12, 6.51129662990570068359e-01) (13, 7.57563889026641845703e-01) (14, 6.72700762748718261719e-01) (15, 8.42846810817718505859e-01) (16, 1.16187021136283874512e-01) (17, 6.86804354190826416016e-01) (18, 3.92796277999877929688e-01) (19, 3.69255691766738891602e-01) (20, 2.45277866721153259277e-01) (21, 7.24740087985992431641e-01) (22, 2.20575019717216491699e-01) (23, 4.50584530830383300781e-01) (24, 4.06816899776458740234e-01) (25, 2.66491651535034179688e-01) (26, 7.06335425376892089844e-01) (27, 8.02078425884246826172e-01) (28, 5.62921881675720214844e-01) (29, 7.18151926994323730469e-01) (30, 7.60160684585571289062e-01) (31, 5.64755916595458984375e-01) (32, 7.00938105583190917969e-01) (33, 5.70113301277160644531e-01) (34, 6.76934778690338134766e-01) (35, 4.94823336601257324219e-01) (36, 7.64184653759002685547e-01) (37, 7.27152824401855468750e-01) (38, 5.76372742652893066406e-01) (39, 6.80794954299926757812e-01) (40, 5.51875531673431396484e-01) (41, 9.54328358173370361328e-01) (42, 5.44793188571929931641e-01) (43, 9.81672823429107666016e-01) (44, 5.71047842502593994141e-01) (45, 6.07386887073516845703e-01) (46, 9.59663689136505126953e-01) (47, 7.73437678813934326172e-01) (48, 7.93109476566314697266e-01) (49, 3.85098159313201904297e-01) (50, 2.66621470451354980469e-01) (51, 2.96861767768859863281e-01) (52, 2.28230327367782592773e-01) (53, 4.93272840976715087891e-01) (54, 3.84759426116943359375e-01) (55, 7.86871731281280517578e-01) (56, 1.41699180006980895996e-01) (57, 2.29807153344154357910e-01) (58, 4.64964687824249267578e-01) (59, 2.18961611390113830566e-01) (60, 6.64100527763366699219e-01) (61, 5.42686700820922851562e-01) (62, 3.87900769710540771484e-01) (63, 6.68806910514831542969e-01) (64, 2.80799388885498046875e-01) (65, 2.57760167121887207031e-01) (66, 6.77977859973907470703e-01) (67, 2.18817695975303649902e-01) (68, 7.15575337409973144531e-01) (69, 7.53333151340484619141e-01) (70, 7.35268771648406982422e-01) (71, 7.69088923931121826172e-01) (72, 6.84510350227355957031e-01) (73, 3.28412503004074096680e-01) (74, 7.68954038619995117188e-01) (75, 6.01940989494323730469e-01) (76, 3.14172327518463134766e-01) (77, 7.75482594966888427734e-01) (78, 5.28385341167449951172e-01) (79, 4.01102870702743530273e-01) (80, 5.10742306709289550781e-01) (81, 4.29444223642349243164e-01) (82, 8.38989973068237304688e-01) (83, 2.36064612865447998047e-01) (84, 4.06680107116699218750e-01) (85, 3.81797581911087036133e-01) (86, 6.68265700340270996094e-01) (87, 4.50032651424407958984e-01) (88, 1.65832921862602233887e-01) (89, 1.81670367717742919922e-01) (90, 5.95423638820648193359e-01) (91, 7.13376879692077636719e-01) (92, 7.65519022941589355469e-01) (93, 8.42106640338897705078e-01) (94, 2.99653530120849609375e-01) (95, 3.63391399383544921875e-01) (96, 5.38801550865173339844e-01) (97, 7.29119420051574707031e-01) (98, 7.12372422218322753906e-01) (99, 5.80797731876373291016e-01) (100, 5.72446823120117187500e-01) (101, 6.54136419296264648438e-01) (102, 8.22978436946868896484e-01) (103, 7.11165547370910644531e-01) (104, 6.29604220390319824219e-01) (105, 9.29353237152099609375e-01) (106, 6.31425023078918457031e-01) (107, 8.33063960075378417969e-01) (108, 6.21254742145538330078e-01) (109, 6.20040535926818847656e-01) (110, 6.97032570838928222656e-01) (111, 7.43151366710662841797e-01) (112, 6.77740812301635742188e-01) (113, 5.25369822978973388672e-01) (114, 6.70608282089233398438e-01) (115, 3.80800783634185791016e-01) (116, 7.08072900772094726562e-01) (117, 1.56294003129005432129e-01) (118, 7.54870176315307617188e-01) (119, 7.83260703086853027344e-01) (120, 4.99048799276351928711e-01) (121, 8.13428282737731933594e-01) (122, 6.64519429206848144531e-01) (123, 7.56759047508239746094e-01) (124, 5.52397191524505615234e-01) (125, 4.41992372274398803711e-01) (126, 5.36234974861145019531e-01) (127, 6.38121306896209716797e-01) (128, 6.75733149051666259766e-01) (129, 1.11037373542785644531e+00) (130, 5.40184497833251953125e-01) (131, 3.60747218132019042969e-01) (132, 4.73163217306137084961e-01) (133, 5.43747007846832275391e-01) (134, 4.08324897289276123047e-01) (135, 4.04939740896224975586e-01) (136, 3.65711390972137451172e-01) (137, 4.33154463768005371094e-01) (138, 4.02764827013015747070e-01) (139, 2.39038273692131042480e-01) (140, 4.54911530017852783203e-01) (141, 4.65609014034271240234e-01) (142, 4.26404118537902832031e-01) (143, 4.59480047225952148438e-01) (144, 7.27016806602478027344e-01) (145, 1.26548334956169128418e-01) (146, 7.92350232601165771484e-01) (147, 5.69434344768524169922e-01) (148, 6.58689856529235839844e-01) (149, 7.14625597000122070312e-01) (150, 8.25456142425537109375e-01) (151, 6.14012420177459716797e-01) (152, 5.68609952926635742188e-01) (153, 5.02955138683319091797e-01) (154, 6.43805265426635742188e-01) (155, 5.25009691715240478516e-01) (156, 5.75079500675201416016e-01) (157, 5.44607341289520263672e-01) (158, 9.22986209392547607422e-01) (159, 1.00041556358337402344e+00) (160, 5.05248785018920898438e-01) (161, 6.67937159538269042969e-01) (162, 7.12020814418792724609e-01) (163, 5.00956952571868896484e-01) (164, 5.12704074382781982422e-01) (165, 2.99788594245910644531e-01) (166, 3.52301985025405883789e-01) (167, 4.04038548469543457031e-01) (168, 4.92689371109008789062e-01) (169, 5.66671311855316162109e-01) (170, 6.27019405364990234375e-01) (171, 5.62664270401000976562e-01) (172, 6.73437178134918212891e-01) (173, 6.34795904159545898438e-01) (174, 8.06239783763885498047e-01) (175, 6.39404892921447753906e-01) (176, 7.52358257770538330078e-01) (177, 6.45377278327941894531e-01) (178, 7.96841502189636230469e-01) (179, 3.96963059902191162109e-01) (180, 5.29481172561645507812e-01) (181, 2.97138750553131103516e-01) (182, 2.93419092893600463867e-01) (183, 1.69656395912170410156e-01) (184, 4.02452886104583740234e-01) (185, 7.33244061470031738281e-01) (186, 6.98747396469116210938e-01) (187, 4.27275240421295166016e-01) (188, 7.90360689163208007812e-01) (189, 5.51929056644439697266e-01) (190, 7.77478992938995361328e-01) (191, 8.14212799072265625000e-01) (192, 5.97155272960662841797e-01) (193, 3.80499094724655151367e-01) (194, 7.67082154750823974609e-01) (195, 6.78426086902618408203e-01) (196, 8.05439174175262451172e-01) (197, 1.25991809368133544922e+00) (198, 4.28952932357788085938e-01) (199, 3.82834672927856445312e-01) (200, 8.38099598884582519531e-01) (201, 6.46167337894439697266e-01) (202, 5.03433942794799804688e-01) (203, 8.20518612861633300781e-01) (204, 5.21111667156219482422e-01) (205, 7.51953601837158203125e-01) (206, 4.55882787704467773438e-01) (207, 7.86518156528472900391e-01) (208, 6.69966340065002441406e-01) (209, 7.38526344299316406250e-01) (210, 7.69782841205596923828e-01) (211, 8.29849421977996826172e-01) (212, 6.29339098930358886719e-01) (213, 7.47779130935668945312e-01) (214, 6.80014431476593017578e-01) (215, 6.37596249580383300781e-01) (216, 7.77104556560516357422e-01) (217, 5.86881697177886962891e-01) (218, 5.50264179706573486328e-01) (219, 4.74435001611709594727e-01) (220, 7.78439939022064208984e-01) (221, 5.96867680549621582031e-01) (222, 6.41060173511505126953e-01) (223, 6.33010804653167724609e-01) (224, 3.85330110788345336914e-01) (225, 6.38194203376770019531e-01) (226, 2.17262089252471923828e-01) (227, 8.13735246658325195312e-01) (228, 4.72213923931121826172e-01) (229, 5.06097018718719482422e-01) (230, 1.62696778774261474609e-01) (231, 7.04775273799896240234e-01) (232, 9.36622381210327148438e-01) (233, 6.91458344459533691406e-01) (234, 7.26176917552947998047e-01) (235, 6.42958700656890869141e-01) (236, 8.02007019519805908203e-01) (237, 4.85213458538055419922e-01) (238, 7.93044924736022949219e-01) (239, 1.01449549198150634766e+00) (240, 7.00772523880004882812e-01) (241, 7.46635258197784423828e-01) (242, 6.73150777816772460938e-01) (243, 5.15058934688568115234e-01) (244, 4.03293341398239135742e-01) (245, 2.68183320760726928711e-01) (246, 8.08964192867279052734e-01) (247, 1.41138106584548950195e-01) (248, 7.52641499042510986328e-01) (249, 6.68511867523193359375e-01) (250, 8.13406825065612792969e-01) (251, 7.11521506309509277344e-01) (252, 6.94717884063720703125e-01) (253, 6.91178143024444580078e-01) (254, 7.43521213531494140625e-01) (255, 7.10262537002563476562e-01) (256, 6.87739789485931396484e-01) (257, 8.23516786098480224609e-01) (258, 7.12434232234954833984e-01) (259, 8.19916903972625732422e-01) (260, 7.23724722862243652344e-01) (261, 8.00604879856109619141e-01) (262, 7.19676136970520019531e-01) (263, 6.01719915866851806641e-01) (264, 6.74658477306365966797e-01) (265, 8.35571706295013427734e-01) (266, 6.32207274436950683594e-01) (267, 8.09277117252349853516e-01) (268, 7.87190139293670654297e-01) (269, 6.87429726123809814453e-01) (270, 8.00124466419219970703e-01) (271, 7.01044082641601562500e-01) (272, 6.81162476539611816406e-01) (273, 4.64322149753570556641e-01) (274, 3.91470968723297119141e-01) (275, 7.38067924976348876953e-01) (276, 7.51502335071563720703e-01) (277, 6.59024655818939208984e-01) (278, 7.77945339679718017578e-01) (279, 5.04932641983032226562e-01) (280, 6.84589982032775878906e-01) (281, 6.54201745986938476562e-01) (282, 5.66012084484100341797e-01) (283, 6.00614428520202636719e-01) (284, 6.47106468677520751953e-01) (285, 6.79291009902954101562e-01) (286, 6.58542394638061523438e-01) (287, 8.37673366069793701172e-01) (288, 5.31567513942718505859e-01) (0, 1.50000000000000000000e+03) (1, 2.72313803434371948242e-01) (2, 2.00870141386985778809e-01) (3, 3.12630623579025268555e-01) (4, 4.18801069259643554688e-01) (5, 9.48695719242095947266e-01) (6, 3.13840985298156738281e-01) (7, 8.30696284770965576172e-01) (8, 2.42509827017784118652e-01) (9, 9.01416897773742675781e-01) (10, 2.90733277797698974609e-01) (11, 1.37717559933662414551e-01) (12, -2.66694296151399612427e-02) (13, 1.59881755709648132324e-01) (14, 1.68178275227546691895e-01) (15, 1.28063261508941650391e-01) (16, 1.30880284309387207031e+00) (17, 2.72194415330886840820e-01) (18, 7.45729744434356689453e-01) (19, 7.24396765232086181641e-01) (20, 1.26639330387115478516e+00) (21, 2.53792166709899902344e-01) (22, 9.62142586708068847656e-01) (23, 7.99437642097473144531e-01) (24, 7.39878714084625244141e-01) (25, 8.74106228351593017578e-01) (26, 2.32449859380722045898e-01) (27, 1.16491518914699554443e-01) (28, 9.11544412374496459961e-02) (29, 2.10951402783393859863e-01) (30, 2.77081072330474853516e-01) (31, 1.29630312323570251465e-01) (32, 1.70143783092498779297e-01) (33, 1.21598184108734130859e-01) (34, 1.91097840666770935059e-01) (35, 1.40509992837905883789e-01) (36, 1.38360813260078430176e-01) (37, 1.88129097223281860352e-01) (38, 5.82955956459045410156e-01) (39, 2.89957910776138305664e-01) (40, -1.02495111525058746338e-01) (41, 7.77718573808670043945e-02) (42, 5.95373846590518951416e-02) (43, -2.81551815569400787354e-02) (44, 1.87758371233940124512e-01) (45, -9.15505141019821166992e-02) (46, -2.36756335943937301636e-02) (47, 2.90625721216201782227e-01) (48, 1.22769065201282501221e-01) (49, 6.98470473289489746094e-01) (50, 9.13648366928100585938e-01) (51, 9.05155599117279052734e-01) (52, 7.80710458755493164062e-01) (53, 6.75166904926300048828e-01) (54, 6.97132825851440429688e-01) (55, 1.32930725812911987305e-01) (56, 1.31454074382781982422e+00) (57, 9.76240456104278564453e-01) (58, 7.46319234371185302734e-01) (59, 1.35729098320007324219e+00) (60, -4.91832643747329711914e-02) (61, 5.76906278729438781738e-02) (62, 6.22282564640045166016e-01) (63, 2.52052187919616699219e-01) (64, 6.01502537727355957031e-01) (65, 1.31642234325408935547e+00) (66, 1.42999723553657531738e-01) (67, 8.96646440029144287109e-01) (68, 3.12489748001098632812e-01) (69, 2.39483863115310668945e-01) (70, 1.76826834678649902344e-01) (71, 1.50260642170906066895e-01) (72, 3.03781062364578247070e-01) (73, 8.63418340682983398438e-01) (74, 2.89405971765518188477e-01) (75, 2.23731800913810729980e-01) (76, 6.84045374393463134766e-01) (77, 2.45170891284942626953e-01) (78, 7.22960114479064941406e-01) (79, 7.46735036373138427734e-01) (80, 8.23294818401336669922e-01) (81, 8.22424829006195068359e-01) (82, 7.75092244148254394531e-02) (83, 5.55706977844238281250e-01) (84, 6.80249869823455810547e-01) (85, 7.20228850841522216797e-01) (86, 1.39573708176612854004e-01) (87, 8.00943553447723388672e-01) (88, 1.09916996955871582031e+00) (89, 1.22119116783142089844e+00) (90, 2.20473513007164001465e-01) (91, 2.76538670063018798828e-01) (92, 1.34381607174873352051e-01) (93, 3.07631641626358032227e-01) (94, 6.60320460796356201172e-01) (95, 6.84485375881195068359e-01) (96, 7.38306641578674316406e-01) (97, 2.20828935503959655762e-01) (98, 2.63552904129028320312e-01) (99, 1.76073059439659118652e-01) (100, 1.16446860134601593018e-01) (101, 7.74274691939353942871e-02) (102, 2.58267253637313842773e-01) (103, 1.44372612237930297852e-01) (104, -6.95493519306182861328e-02) (105, 1.29531174898147583008e-01) (106, -2.65645012259483337402e-02) (107, 1.87049448490142822266e-01) (108, 1.36457324028015136719e-01) (109, -9.70520973205566406250e-02) (110, 2.12352618575096130371e-01) (111, 1.60100817680358886719e-01) (112, -1.31479725241661071777e-01) (113, -3.40857133269309997559e-02) (114, 1.53276398777961730957e-01) (115, 7.02895700931549072266e-01) (116, 1.29919648170471191406e-01) (117, 7.66492187976837158203e-01) (118, 1.63024067878723144531e-01) (119, 1.95785999298095703125e-01) (120, 7.26305246353149414062e-01) (121, 1.12201631069183349609e-01) (122, 1.63292571902275085449e-01) (123, 2.33546629548072814941e-01) (124, 1.25061261653900146484e+00) (125, 7.57479071617126464844e-01) (126, 2.29669690132141113281e-01) (127, 5.43364703655242919922e-01) (128, 4.85729604959487915039e-01) (129, -1.81564427912235260010e-02) (130, 1.02324157953262329102e-01) (131, 7.06048190593719482422e-01) (132, 7.63818442821502685547e-01) (133, 7.79332399368286132812e-01) (134, 7.28845536708831787109e-01) (135, 6.33706629276275634766e-01) (136, 6.62751078605651855469e-01) (137, 6.01584553718566894531e-01) (138, 8.05350422859191894531e-01) (139, 8.93449366092681884766e-01) (140, 6.66855573654174804688e-01) (141, 7.02660739421844482422e-01) (142, 7.62724816799163818359e-01) (143, 6.90411210060119628906e-01) (144, 8.27956721186637878418e-02) (145, 8.06744694709777832031e-01) (146, 2.62591421604156494141e-01) (147, 8.84573459625244140625e-02) (148, 1.02429054677486419678e-01) (149, 1.16338767111301422119e-01) (150, 2.17361807823181152344e-01) (151, 2.08765059709548950195e-01) (152, -1.24825783073902130127e-01) (153, 1.39947142452001571655e-02) (154, -9.09393280744552612305e-02) (155, 4.39172722399234771729e-02) (156, -7.29785189032554626465e-02) (157, -9.75276008248329162598e-02) (158, 1.09775528311729431152e-01) (159, 2.27695912122726440430e-01) (160, 3.75158563256263732910e-02) (161, -5.62607310712337493896e-02) (162, 1.16252884268760681152e-01) (163, 7.59993731975555419922e-01) (164, 6.76780819892883300781e-01) (165, 9.18791055679321289062e-01) (166, 7.69714117050170898438e-01) (167, 7.44959354400634765625e-01) (168, 7.62824952602386474609e-01) (169, 2.60363761335611343384e-02) (170, -9.60768014192581176758e-02) (171, 2.50918984413146972656e-01) (172, -1.37486025691032409668e-01) (173, 2.64781385660171508789e-01) (174, 1.78521305322647094727e-01) (175, -1.33833914995193481445e-01) (176, 2.47561395168304443359e-01) (177, 2.70194083452224731445e-01) (178, 1.32399395108222961426e-01) (179, 7.91302084922790527344e-01) (180, 8.20833742618560791016e-01) (181, 9.12896931171417236328e-01) (182, 9.27517831325531005859e-01) (183, 9.79154884815216064453e-01) (184, 6.53914630413055419922e-01) (185, 2.86588758230209350586e-01) (186, 3.01365673542022705078e-01) (187, 8.89410912990570068359e-01) (188, 1.40581563115119934082e-01) (189, -5.79604618251323699951e-02) (190, 1.99947953224182128906e-01) (191, 1.30876839160919189453e-01) (192, 3.31648588180541992188e-01) (193, 8.18291068077087402344e-01) (194, 2.69976705312728881836e-01) (195, 1.70594587922096252441e-01) (196, 1.18590697646141052246e-01) (197, 1.23977258801460266113e-01) (198, 7.95225143432617187500e-01) (199, 7.35755681991577148438e-01) (200, 1.48475915193557739258e-01) (201, 3.00570428371429443359e-01) (202, 7.49565422534942626953e-01) (203, 1.59925460815429687500e-01) (204, 1.94992665201425552368e-02) (205, 2.93060839176177978516e-01) (206, 6.71663641929626464844e-01) (207, 1.98337271809577941895e-01) (208, 2.95627444982528686523e-01) (209, 1.96026220917701721191e-01) (210, 1.67738109827041625977e-01) (211, 2.85156399011611938477e-01) (212, 9.93765890598297119141e-02) (213, 2.67557740211486816406e-01) (214, 2.90555536746978759766e-01) (215, 1.90966367721557617188e-01) (216, 2.51008719205856323242e-01) (217, 1.69226974248886108398e-02) (218, -1.07167966663837432861e-01) (219, 7.64811038970947265625e-01) (220, 1.14627398550510406494e-01) (221, 2.22369819879531860352e-01) (222, 2.63151347637176513672e-01) (223, 1.54187068343162536621e-01) (224, 6.47227287292480468750e-01) (225, 2.15595811605453491211e-01) (226, 9.06082570552825927734e-01) (227, 1.34047314524650573730e-01) (228, 6.23788774013519287109e-01) (229, 7.10694968700408935547e-01) (230, 1.34494805335998535156e+00) (231, 1.25988259911537170410e-01) (232, 2.85156846046447753906e-01) (233, 2.10082828998565673828e-01) (234, 1.88984036445617675781e-01) (235, 1.43193647265434265137e-01) (236, 1.88308089971542358398e-01) (237, -2.87306606769561767578e-02) (238, 2.29759916663169860840e-01) (239, 1.34081423282623291016e-01) (240, 1.05218730866909027100e-01) (241, 2.63490468263626098633e-01) (242, 1.13167874515056610107e-01) (243, 6.43686473369598388672e-01) (244, 7.38895356655120849609e-01) (245, 1.36905705928802490234e+00) (246, 2.14550957083702087402e-01) (247, 8.52119445800781250000e-01) (248, 2.77040868997573852539e-01) (249, 2.54377126693725585938e-01) (250, 2.93604701757431030273e-01) (251, 1.29220187664031982422e-01) (252, 1.92027285695075988770e-01) (253, 2.43911236524581909180e-01) (254, 1.85975313186645507812e-01) (255, 2.07576230168342590332e-01) (256, 1.45199358463287353516e-01) (257, 3.04279834032058715820e-01) (258, 2.37801641225814819336e-01) (259, 1.47803053259849548340e-01) (260, 1.68705567717552185059e-01) (261, 2.02703967690467834473e-01) (262, 1.76177546381950378418e-01) (263, 1.24884415417909622192e-02) (264, 3.09255033731460571289e-01) (265, 2.56303548812866210938e-01) (266, 2.50929892063140869141e-01) (267, 1.69915631413459777832e-01) (268, 1.66821315884590148926e-01) (269, 2.31170326471328735352e-01) (270, 2.22987860441207885742e-01) (271, 1.79867208003997802734e-01) (272, 1.91087439656257629395e-01) (273, 7.47488558292388916016e-01) (274, 7.15209841728210449219e-01) (275, 3.11081886291503906250e-01) (276, 2.27646142244338989258e-01) (277, 3.09704482555389404297e-01) (278, 1.47722512483596801758e-01) (279, -6.98416680097579956055e-02) (280, 2.61163264513015747070e-01) (281, 1.27280026674270629883e-01) (282, -6.53396397829055786133e-02) (283, -1.56381323933601379395e-01) (284, -3.59847396612167358398e-02) (285, 7.14317383244633674622e-03) (286, -4.27245683968067169189e-02) (287, 2.86240220069885253906e-01) (288, 2.68255263566970825195e-01) (0, 1.50000000000000000000e+03) (1, 4.91975367069244384766e-01) (2, 3.20847630500793457031e-01) (3, 4.07171338796615600586e-01) (4, 4.54448312520980834961e-01) (5, -8.51151347160339355469e-02) (6, 3.92341822385787963867e-01) (7, -1.14443033933639526367e-01) (8, 4.60265874862670898438e-01) (9, -8.67760479450225830078e-02) (10, 3.43992859125137329102e-01) (11, 3.66558998823165893555e-01) (12, 2.73962020874023437500e-01) (13, 4.26538735628128051758e-01) (14, 4.44950848817825317383e-01) (15, 4.73836600780487060547e-01) (16, -2.70147234201431274414e-01) (17, 4.55688625574111938477e-01) (18, -1.83485209941864013672e-01) (19, -2.59791076183319091797e-01) (20, -1.09457612037658691406e-01) (21, 4.59985911846160888672e-01) (22, -1.36511579155921936035e-01) (23, -8.22455212473869323730e-02) (24, -2.22455054521560668945e-01) (25, -1.23189248144626617432e-01) (26, 4.13199096918106079102e-01) (27, 3.15218180418014526367e-01) (28, 3.73365998268127441406e-01) (29, 3.87010335922241210938e-01) (30, 4.68854367733001708984e-01) (31, 3.74340802431106567383e-01) (32, 3.86227011680603027344e-01) (33, 4.63923603296279907227e-01) (34, 3.21053624153137207031e-01) (35, 3.45415472984313964844e-01) (36, 4.74083781242370605469e-01) (37, 4.41631108522415161133e-01) (38, 3.93222957849502563477e-01) (39, 4.44658935070037841797e-01) (40, 3.29241186380386352539e-01) (41, 2.28467732667922973633e-01) (42, 2.55322456359863281250e-01) (43, 4.14157211780548095703e-01) (44, 3.94829809665679931641e-01) (45, 4.00637418031692504883e-01) (46, 3.84409219026565551758e-01) (47, 4.39957857131958007812e-01) (48, 4.53795701265335083008e-01) (49, -2.36678168177604675293e-01) (50, -1.13398976624011993408e-01) (51, -1.60482525825500488281e-01) (52, -2.85071462392807006836e-01) (53, -1.25385686755180358887e-01) (54, -1.32501333951950073242e-01) (55, 3.71216654777526855469e-01) (56, -1.44519314169883728027e-01) (57, -2.12621256709098815918e-01) (58, -1.78270325064659118652e-01) (59, -2.53480941057205200195e-01) (60, 3.94468307495117187500e-01) (61, 2.97887921333312988281e-01) (62, -1.49316146969795227051e-01) (63, 3.62148791551589965820e-01) (64, -2.23583981394767761230e-01) (65, -2.99906432628631591797e-01) (66, 3.18921327590942382812e-01) (67, -2.55733668804168701172e-01) (68, 4.36275988817214965820e-01) (69, 4.73131477832794189453e-01) (70, 2.98234432935714721680e-01) (71, 3.38623553514480590820e-01) (72, 2.92459577322006225586e-01) (73, -2.63874828815460205078e-01) (74, 3.06990861892700195312e-01) (75, 5.14177381992340087891e-01) (76, -2.37816751003265380859e-01) (77, 4.51662123203277587891e-01) (78, -1.44084319472312927246e-01) (79, -8.51269438862800598145e-02) (80, -2.73363560438156127930e-01) (81, -1.49783372879028320312e-01) (82, 4.29191678762435913086e-01) (83, -2.90415674448013305664e-01) (84, -1.85152560472488403320e-01) (85, -1.91423997282981872559e-01) (86, 3.88657838106155395508e-01) (87, -2.40604132413864135742e-01) (88, -2.59344279766082763672e-01) (89, -2.76972770690917968750e-01) (90, 3.43020647764205932617e-01) (91, 4.29840177297592163086e-01) (92, 3.71874630451202392578e-01) (93, 3.17458629608154296875e-01) (94, -2.86196470260620117188e-01) (95, -1.13724179565906524658e-01) (96, -2.57150858640670776367e-01) (97, 3.29336941242218017578e-01) (98, 3.08776527643203735352e-01) (99, 4.39028173685073852539e-01) (100, 3.03279727697372436523e-01) (101, 2.88916856050491333008e-01) (102, 3.14233362674713134766e-01) (103, 3.17551314830780029297e-01) (104, 2.98333197832107543945e-01) (105, 2.52301305532455444336e-01) (106, 3.95805746316909790039e-01) (107, 3.35427135229110717773e-01) (108, 3.21746528148651123047e-01) (109, 3.39880704879760742188e-01) (110, 4.08825725317001342773e-01) (111, 2.71975368261337280273e-01) (112, 2.61910200119018554688e-01) (113, 2.70579397678375244141e-01) (114, 3.33687305450439453125e-01) (115, -1.34524136781692504883e-01) (116, 4.42801028490066528320e-01) (117, -1.71730339527130126953e-01) (118, 4.74614560604095458984e-01) (119, 4.16764676570892333984e-01) (120, -1.27393350005149841309e-01) (121, 3.35509926080703735352e-01) (122, 3.60446929931640625000e-01) (123, 3.17224413156509399414e-01) (124, -2.12246477603912353516e-01) (125, -1.94330587983131408691e-01) (126, 2.62464195489883422852e-01) (127, 3.32052528858184814453e-01) (128, 3.58159601688385009766e-01) (129, 2.94357329607009887695e-01) (130, 2.52135485410690307617e-01) (131, -1.24266095459461212158e-01) (132, -2.17839509248733520508e-01) (133, -1.76542118191719055176e-01) (134, -9.11112055182456970215e-02) (135, -1.42566740512847900391e-01) (136, -1.62542194128036499023e-01) (137, -1.25229924917221069336e-01) (138, -2.21244752407073974609e-01) (139, -1.64064750075340270996e-01) (140, -1.67049303650856018066e-01) (141, -1.07034921646118164062e-01) (142, -1.06269761919975280762e-01) (143, -1.12755484879016876221e-01) (144, 3.08048784732818603516e-01) (145, -2.84807175397872924805e-01) (146, 4.03717339038848876953e-01) (147, 4.64809596538543701172e-01) (148, 4.39487516880035400391e-01) (149, 3.87581557035446166992e-01) (150, 4.10385668277740478516e-01) (151, 3.85786294937133789062e-01) (152, 3.61043989658355712891e-01) (153, 3.99473369121551513672e-01) (154, 3.75674575567245483398e-01) (155, 2.26870000362396240234e-01) (156, 2.70024091005325317383e-01) (157, 3.81151556968688964844e-01) (158, 4.38507288694381713867e-01) (159, 5.14580726623535156250e-01) (160, 2.11968302726745605469e-01) (161, 2.03945547342300415039e-01) (162, 4.37164396047592163086e-01) (163, -2.13172227144241333008e-01) (164, -1.63565620779991149902e-01) (165, -1.66395381093025207520e-01) (166, -2.76151388883590698242e-01) (167, -2.18267604708671569824e-01) (168, -1.45792186260223388672e-01) (169, 2.77903676033020019531e-01) (170, 2.31339275836944580078e-01) (171, 2.06037506461143493652e-01) (172, 2.33890324831008911133e-01) (173, 2.95251786708831787109e-01) (174, 5.21647810935974121094e-01) (175, 2.58670032024383544922e-01) (176, 3.17515581846237182617e-01) (177, 4.21857178211212158203e-01) (178, 3.30947905778884887695e-01) (179, -8.91946330666542053223e-02) (180, -2.75183975696563720703e-01) (181, -1.36706188321113586426e-01) (182, -1.96795150637626647949e-01) (183, -1.59013956785202026367e-01) (184, -1.54909700155258178711e-01) (185, 3.68128478527069091797e-01) (186, 4.53638046979904174805e-01) (187, -3.52308928966522216797e-01) (188, 3.44680428504943847656e-01) (189, 2.90687531232833862305e-01) (190, 3.14228057861328125000e-01) (191, 3.51209580898284912109e-01) (192, 4.51185673475265502930e-01) (193, -1.09503455460071563721e-01) (194, 4.18611913919448852539e-01) (195, 2.87370502948760986328e-01) (196, 4.04057294130325317383e-01) (197, 2.63221800327301025391e-01) (198, -2.11878240108489990234e-01) (199, -2.68623083829879760742e-01) (200, 4.66338366270065307617e-01) (201, 3.86201709508895874023e-01) (202, -2.06753939390182495117e-01) (203, 2.99965977668762207031e-01) (204, 3.04777115583419799805e-01) (205, 3.65641295909881591797e-01) (206, -2.21703439950942993164e-01) (207, 4.06305164098739624023e-01) (208, 4.58452105522155761719e-01) (209, 4.14095997810363769531e-01) (210, 3.91661912202835083008e-01) (211, 4.66668576002120971680e-01) (212, 3.47351908683776855469e-01) (213, 3.19594025611877441406e-01) (214, 4.17669236660003662109e-01) (215, 3.31513375043869018555e-01) (216, 4.51063990592956542969e-01) (217, 2.93340861797332763672e-01) (218, 2.71817237138748168945e-01) (219, -1.07260704040527343750e-01) (220, 3.69008719921112060547e-01) (221, 4.09517198801040649414e-01) (222, 3.13049614429473876953e-01) (223, 3.78186434507369995117e-01) (224, -2.26953312754631042480e-01) (225, 4.60840463638305664062e-01) (226, -2.20749840140342712402e-01) (227, 4.59018588066101074219e-01) (228, -1.79877802729606628418e-01) (229, -1.43673807382583618164e-01) (230, -2.71249055862426757812e-01) (231, 3.96207869052886962891e-01) (232, 5.55947840213775634766e-01) (233, 3.76120597124099731445e-01) (234, 3.74202072620391845703e-01) (235, 3.97362738847732543945e-01) (236, 4.48126912117004394531e-01) (237, 3.62998753786087036133e-01) (238, 3.16693365573883056641e-01) (239, 4.52165156602859497070e-01) (240, 3.78965646028518676758e-01) (241, 4.56853747367858886719e-01) (242, 4.28813606500625610352e-01) (243, -1.28409549593925476074e-01) (244, -1.08108237385749816895e-01) (245, -2.36398041248321533203e-01) (246, 4.89699780941009521484e-01) (247, -2.25875407457351684570e-01) (248, 4.26269769668579101562e-01) (249, 3.50231379270553588867e-01) (250, 3.44294250011444091797e-01) (251, 4.20149117708206176758e-01) (252, 4.39312398433685302734e-01) (253, 3.82916152477264404297e-01) (254, 4.78278249502182006836e-01) (255, 3.11908155679702758789e-01) (256, 3.51156949996948242188e-01) (257, 3.47703337669372558594e-01) (258, 4.80816692113876342773e-01) (259, 4.49771910905838012695e-01) (260, 4.61044013500213623047e-01) (261, 3.01772117614746093750e-01) (262, 3.19266617298126220703e-01) (263, 2.19535857439041137695e-01) (264, 3.76314193010330200195e-01) (265, 4.12548005580902099609e-01) (266, 3.47511738538742065430e-01) (267, 3.48094314336776733398e-01) (268, 3.60443949699401855469e-01) (269, 4.40967977046966552734e-01) (270, 4.88120168447494506836e-01) (271, 4.29274141788482666016e-01) (272, 3.91202688217163085938e-01) (273, -1.62878945469856262207e-01) (274, -1.87362655997276306152e-01) (275, 3.57407599687576293945e-01) (276, 4.57956194877624511719e-01) (277, 3.74375611543655395508e-01) (278, 4.35701221227645874023e-01) (279, 3.11689466238021850586e-01) (280, 4.33455199003219604492e-01) (281, 2.83053547143936157227e-01) (282, 2.31136396527290344238e-01) (283, 2.97554016113281250000e-01) (284, 2.80889332294464111328e-01) (285, 2.20471367239952087402e-01) (286, 3.26451063156127929688e-01) (287, 4.40611124038696289062e-01) (288, 3.62487941980361938477e-01) (0, 1.50000000000000000000e+03) (1, 4.03072357177734375000e-01) (2, 3.56108844280242919922e-01) (3, 4.11019116640090942383e-01) (4, 5.38605332374572753906e-01) (5, -2.52007961273193359375e-01) (6, 3.11115652322769165039e-01) (7, -2.42168620228767395020e-01) (8, 4.85533714294433593750e-01) (9, -1.95875018835067749023e-01) (10, 4.27649021148681640625e-01) (11, 4.38724011182785034180e-01) (12, 2.85535633563995361328e-01) (13, 3.79272967576980590820e-01) (14, 3.36960464715957641602e-01) (15, 4.78424847126007080078e-01) (16, -1.17501065135002136230e-01) (17, 4.18986409902572631836e-01) (18, -1.29096955060958862305e-01) (19, -2.18309164047241210938e-01) (20, -2.28411585092544555664e-01) (21, 3.46232950687408447266e-01) (22, -2.90439486503601074219e-01) (23, -2.03711912035942077637e-01) (24, -2.01830506324768066406e-01) (25, -1.91115632653236389160e-01) (26, 4.54385131597518920898e-01) (27, 3.84190648794174194336e-01) (28, 3.13352346420288085938e-01) (29, 4.16849017143249511719e-01) (30, 4.56747472286224365234e-01) (31, 3.96263569593429565430e-01) (32, 3.27450692653656005859e-01) (33, 2.87077844142913818359e-01) (34, 3.46828997135162353516e-01) (35, 3.70507478713989257812e-01) (36, 3.87485921382904052734e-01) (37, 3.86180371046066284180e-01) (38, 2.90358811616897583008e-01) (39, 3.84113609790802001953e-01) (40, 3.93530696630477905273e-01) (41, 4.09917742013931274414e-01) (42, 2.66057968139648437500e-01) (43, 2.90020376443862915039e-01) (44, 3.29328954219818115234e-01) (45, 3.03721874952316284180e-01) (46, 2.64860600233078002930e-01) (47, 3.27216625213623046875e-01) (48, 3.20177942514419555664e-01) (49, -1.01608239114284515381e-01) (50, -1.84146165847778320312e-01) (51, -2.12823972105979919434e-01) (52, -2.63984829187393188477e-01) (53, -1.49264663457870483398e-01) (54, -1.05582252144813537598e-01) (55, 4.12927865982055664062e-01) (56, -2.36639112234115600586e-01) (57, -1.44515886902809143066e-01) (58, -2.67587065696716308594e-01) (59, -2.05069333314895629883e-01) (60, 2.92412459850311279297e-01) (61, 3.96464526653289794922e-01) (62, -2.78663039207458496094e-01) (63, 4.01347786188125610352e-01) (64, -1.01853244006633758545e-01) (65, -2.03477457165718078613e-01) (66, 3.83296370506286621094e-01) (67, -2.20506891608238220215e-01) (68, 4.77971583604812622070e-01) (69, 4.34469521045684814453e-01) (70, 4.73460465669631958008e-01) (71, 4.43890959024429321289e-01) (72, 4.36121612787246704102e-01) (73, -3.48805367946624755859e-01) (74, 4.88121509552001953125e-01) (75, 3.91149938106536865234e-01) (76, -1.70741885900497436523e-01) (77, 3.13244104385375976562e-01) (78, -1.79852262139320373535e-01) (79, -1.29673555493354797363e-01) (80, -2.76157051324844360352e-01) (81, -2.56299078464508056641e-01) (82, 3.31989079713821411133e-01) (83, -2.72907346487045288086e-01) (84, -1.16697631776332855225e-01) (85, -2.61393100023269653320e-01) (86, 4.47877258062362670898e-01) (87, -2.62803912162780761719e-01) (88, -2.61207699775695800781e-01) (89, -1.07408978044986724854e-01) (90, 3.69232326745986938477e-01) (91, 3.25920909643173217773e-01) (92, 4.40354228019714355469e-01) (93, 4.14323687553405761719e-01) (94, -1.51235714554786682129e-01) (95, -1.23513586819171905518e-01) (96, -2.64317870140075683594e-01) (97, 3.28269183635711669922e-01) (98, 3.34674388170242309570e-01) (99, 2.73299872875213623047e-01) (100, 4.63549882173538208008e-01) (101, 2.89726346731185913086e-01) (102, 4.53772485256195068359e-01) (103, 4.20610189437866210938e-01) (104, 2.84826874732971191406e-01) (105, 3.72971057891845703125e-01) (106, 3.75837773084640502930e-01) (107, 4.11294311285018920898e-01) (108, 5.03999471664428710938e-01) (109, 2.84144818782806396484e-01) (110, 4.44778263568878173828e-01) (111, 4.50648874044418334961e-01) (112, 2.99659103155136108398e-01) (113, 4.05011832714080810547e-01) (114, 3.29869031906127929688e-01) (115, -2.21891447901725769043e-01) (116, 3.07264596223831176758e-01) (117, -2.88396060466766357422e-01) (118, 3.60057651996612548828e-01) (119, 4.79679167270660400391e-01) (120, -1.02089084684848785400e-01) (121, 4.46876674890518188477e-01) (122, 3.19127798080444335938e-01) (123, 4.11008566617965698242e-01) (124, -2.04014748334884643555e-01) (125, -1.00689381361007690430e-01) (126, 3.46689254045486450195e-01) (127, 3.33577990531921386719e-01) (128, 2.50733315944671630859e-01) (129, 3.58397066593170166016e-01) (130, 2.88247078657150268555e-01) (131, -2.71919190883636474609e-01) (132, -1.05382554233074188232e-01) (133, -2.01205804944038391113e-01) (134, -1.35347038507461547852e-01) (135, -2.45068714022636413574e-01) (136, -2.66536295413970947266e-01) (137, -1.89295127987861633301e-01) (138, -2.47879534959793090820e-01) (139, -2.30919107794761657715e-01) (140, -8.66201445460319519043e-02) (141, -1.02349221706390380859e-01) (142, -2.49626114964485168457e-01) (143, -1.94807559251785278320e-01) (144, 4.47166800498962402344e-01) (145, -2.31693536043167114258e-01) (146, 4.29019749164581298828e-01) (147, 4.68391239643096923828e-01) (148, 3.47687900066375732422e-01) (149, 2.98269242048263549805e-01) (150, 4.76567387580871582031e-01) (151, 3.19605410099029541016e-01) (152, 3.81956994533538818359e-01) (153, 2.24336490035057067871e-01) (154, 4.03277844190597534180e-01) (155, 2.58349955081939697266e-01) (156, 3.86537045240402221680e-01) (157, 2.92749464511871337891e-01) (158, 4.70088571310043334961e-01) (159, 3.25657516717910766602e-01) (160, 2.33773157000541687012e-01) (161, 2.71323621273040771484e-01) (162, 3.01085978746414184570e-01) (163, -8.09799283742904663086e-02) (164, -1.20850875973701477051e-01) (165, -1.46571159362792968750e-01) (166, -2.46230140328407287598e-01) (167, -2.80126392841339111328e-01) (168, -1.90033316612243652344e-01) (169, 2.80959367752075195312e-01) (170, 2.48318359255790710449e-01) (171, 2.41995304822921752930e-01) (172, 2.41631731390953063965e-01) (173, 3.67687255144119262695e-01) (174, 4.75552558898925781250e-01) (175, 2.05529898405075073242e-01) (176, 4.44539755582809448242e-01) (177, 4.00834739208221435547e-01) (178, 2.81389087438583374023e-01) (179, -2.54444956779479980469e-01) (180, -1.85518249869346618652e-01) (181, -1.20083317160606384277e-01) (182, -2.27437093853950500488e-01) (183, -2.47524470090866088867e-01) (184, -1.13424040377140045166e-01) (185, 3.65089833736419677734e-01) (186, 3.95183473825454711914e-01) (187, -1.01013138890266418457e-01) (188, 4.53239679336547851562e-01) (189, 2.63814151287078857422e-01) (190, 4.85295534133911132812e-01) (191, 4.81573700904846191406e-01) (192, 4.91690844297409057617e-01) (193, -2.74514585733413696289e-01) (194, 4.80854004621505737305e-01) (195, 3.70590507984161376953e-01) (196, 4.58870381116867065430e-01) (197, 4.37364131212234497070e-01) (198, -1.89937293529510498047e-01) (199, -2.57580548524856567383e-01) (200, 3.61012428998947143555e-01) (201, 4.25121754407882690430e-01) (202, -1.60223960876464843750e-01) (203, 4.02695775032043457031e-01) (204, 2.17608302831649780273e-01) (205, 3.66395950317382812500e-01) (206, -1.72114133834838867188e-01) (207, 4.46159988641738891602e-01) (208, 4.38095450401306152344e-01) (209, 4.14126396179199218750e-01) (210, 4.67483490705490112305e-01) (211, 3.35977286100387573242e-01) (212, 3.64005327224731445312e-01) (213, 3.64665091037750244141e-01) (214, 3.98467481136322021484e-01) (215, 3.89652520418167114258e-01) (216, 4.92777049541473388672e-01) (217, 2.15139940381050109863e-01) (218, 2.89946049451828002930e-01) (219, -1.56988158822059631348e-01) (220, 2.64478921890258789062e-01) (221, 3.98713499307632446289e-01) (222, 3.93371701240539550781e-01) (223, 3.14161628484725952148e-01) (224, -2.02768042683601379395e-01) (225, 4.03404653072357177734e-01) (226, -2.01785117387771606445e-01) (227, 3.37786614894866943359e-01) (228, -1.45683303475379943848e-01) (229, -1.02537885308265686035e-01) (230, -1.81678161025047302246e-01) (231, 3.25693011283874511719e-01) (232, 6.36004030704498291016e-01) (233, 3.12221080064773559570e-01) (234, 4.06417071819305419922e-01) (235, 3.90249639749526977539e-01) (236, 3.84662926197052001953e-01) (237, 2.44803324341773986816e-01) (238, 3.49723160266876220703e-01) (239, 3.68344396352767944336e-01) (240, 4.60800260305404663086e-01) (241, 3.64989221096038818359e-01) (242, 4.14301663637161254883e-01) (243, -2.30235844850540161133e-01) (244, -1.57599017024040222168e-01) (245, -2.70112276077270507812e-01) (246, 4.46326881647109985352e-01) (247, -2.31274992227554321289e-01) (248, 3.14899563789367675781e-01) (249, 3.24757009744644165039e-01) (250, 4.89166915416717529297e-01) (251, 4.04998511075973510742e-01) (252, 4.03264760971069335938e-01) (253, 4.08110916614532470703e-01) (254, 3.98814231157302856445e-01) (255, 3.00448864698410034180e-01) (256, 3.19460630416870117188e-01) (257, 4.86973643302917480469e-01) (258, 3.47952693700790405273e-01) (259, 4.51739698648452758789e-01) (260, 4.41450357437133789062e-01) (261, 4.58164155483245849609e-01) (262, 4.51007544994354248047e-01) (263, 2.79453188180923461914e-01) (264, 4.69121217727661132812e-01) (265, 3.76504004001617431641e-01) (266, 4.00861233472824096680e-01) (267, 3.77437382936477661133e-01) (268, 4.04875695705413818359e-01) (269, 3.27059090137481689453e-01) (270, 4.34609293937683105469e-01) (271, 3.56869041919708251953e-01) (272, 3.86413365602493286133e-01) (273, -2.31868669390678405762e-01) (274, -1.61279693245887756348e-01) (275, 3.04521530866622924805e-01) (276, 3.55252742767333984375e-01) (277, 3.57085555791854858398e-01) (278, 3.77415686845779418945e-01) (279, 2.97615706920623779297e-01) (280, 3.90606850385665893555e-01) (281, 3.69640618562698364258e-01) (282, 4.00643765926361083984e-01) (283, 2.18972668051719665527e-01) (284, 1.92959636449813842773e-01) (285, 3.10572326183319091797e-01) (286, 2.36007049679756164551e-01) (287, 3.20151925086975097656e-01) (288, 3.91859441995620727539e-01) (0, 1.50000000000000000000e+03) (1, 8.30146372318267822266e-01) (2, 7.00937688350677490234e-01) (3, 7.02448427677154541016e-01) (4, 6.47131621837615966797e-01) (5, 2.44810283184051513672e-01) (6, 6.89776718616485595703e-01) (7, 2.26844832301139831543e-01) (8, 7.65925586223602294922e-01) (9, 5.19036889076232910156e-01) (10, 8.21446716785430908203e-01) (11, 8.17997038364410400391e-01) (12, 5.79952597618103027344e-01) (13, 6.75160109996795654297e-01) (14, 6.83718204498291015625e-01) (15, 7.65368759632110595703e-01) (16, 2.44471773505210876465e-01) (17, 7.17505514621734619141e-01) (18, 5.35522222518920898438e-01) (19, 3.74853521585464477539e-01) (20, 2.33617112040519714355e-01) (21, 7.32356250286102294922e-01) (22, 2.84250468015670776367e-01) (23, 4.08550083637237548828e-01) (24, 4.26790297031402587891e-01) (25, 3.12669247388839721680e-01) (26, 7.22094535827636718750e-01) (27, 8.10835540294647216797e-01) (28, 6.66574656963348388672e-01) (29, 7.42205381393432617188e-01) (30, 7.05750703811645507812e-01) (31, 6.31074845790863037109e-01) (32, 7.32126355171203613281e-01) (33, 6.68110013008117675781e-01) (34, 7.71097958087921142578e-01) (35, 5.31118988990783691406e-01) (36, 6.57433867454528808594e-01) (37, 8.13778877258300781250e-01) (38, 5.99392533302307128906e-01) (39, 8.37914824485778808594e-01) (40, 6.05369210243225097656e-01) (41, 8.85294854640960693359e-01) (42, 6.42797708511352539062e-01) (43, 9.63292062282562255859e-01) (44, 6.19610488414764404297e-01) (45, 5.12338519096374511719e-01) (46, 8.63360702991485595703e-01) (47, 7.49273121356964111328e-01) (48, 7.28762209415435791016e-01) (49, 4.32917773723602294922e-01) (50, 2.49290689826011657715e-01) (51, 2.20853820443153381348e-01) (52, 2.83980369567871093750e-01) (53, 3.39936792850494384766e-01) (54, 4.66716885566711425781e-01) (55, 6.62595391273498535156e-01) (56, 2.34828755259513854980e-01) (57, 3.27523529529571533203e-01) (58, 5.49445867538452148438e-01) (59, 2.16063082218170166016e-01) (60, 5.85870623588562011719e-01) (61, 5.72757422924041748047e-01) (62, 2.51002192497253417969e-01) (63, 8.21765244007110595703e-01) (64, 4.09154802560806274414e-01) (65, 2.15564325451850891113e-01) (66, 6.67231380939483642578e-01) (67, 2.40422233939170837402e-01) (68, 7.59465813636779785156e-01) (69, 7.65920937061309814453e-01) (70, 7.14382588863372802734e-01) (71, 6.66090190410614013672e-01) (72, 8.27750086784362792969e-01) (73, 2.01297387480735778809e-01) (74, 6.47888779640197753906e-01) (75, 5.93743383884429931641e-01) (76, 2.92171835899353027344e-01) (77, 7.58872926235198974609e-01) (78, 4.96013134717941284180e-01) (79, 5.14467597007751464844e-01) (80, 5.42266666889190673828e-01) (81, 3.80543142557144165039e-01) (82, 6.76907956600189208984e-01) (83, 3.23339104652404785156e-01) (84, 4.04819667339324951172e-01) (85, 5.01399397850036621094e-01) (86, 8.31263840198516845703e-01) (87, 5.40762066841125488281e-01) (88, 1.83151274919509887695e-01) (89, 2.29688897728919982910e-01) (90, 6.82615756988525390625e-01) (91, 8.52146029472351074219e-01) (92, 6.43068611621856689453e-01) (93, 7.92719185352325439453e-01) (94, 3.90575855970382690430e-01) (95, 3.69296371936798095703e-01) (96, 4.46678161621093750000e-01) (97, 8.10419678688049316406e-01) (98, 7.39881992340087890625e-01) (99, 7.32565283775329589844e-01) (100, 6.66020393371582031250e-01) (101, 6.60759806632995605469e-01) (102, 6.71747148036956787109e-01) (103, 7.48142123222351074219e-01) (104, 5.09275555610656738281e-01) (105, 8.57056736946105957031e-01) (106, 6.60203933715820312500e-01) (107, 8.90734791755676269531e-01) (108, 7.32348620891571044922e-01) (109, 6.16922795772552490234e-01) (110, 6.68355584144592285156e-01) (111, 6.85769617557525634766e-01) (112, 6.25244259834289550781e-01) (113, 5.34337043762207031250e-01) (114, 7.00501084327697753906e-01) (115, 5.26218414306640625000e-01) (116, 8.36641907691955566406e-01) (117, 4.92922544479370117188e-01) (118, 7.91016578674316406250e-01) (119, 7.29147911071777343750e-01) (120, 5.39104819297790527344e-01) (121, 7.37086176872253417969e-01) (122, 7.49495029449462890625e-01) (123, 6.74678623676300048828e-01) (124, 1.13779880106449127197e-01) (125, 4.19014662504196166992e-01) (126, 4.60059076547622680664e-01) (127, 6.20268762111663818359e-01) (128, 5.34055590629577636719e-01) (129, 1.06170773506164550781e+00) (130, 6.74262583255767822266e-01) (131, 5.12053668498992919922e-01) (132, 4.33176100254058837891e-01) (133, 5.27258157730102539062e-01) (134, 3.97034287452697753906e-01) (135, 4.42193597555160522461e-01) (136, 4.75407421588897705078e-01) (137, 2.50479489564895629883e-01) (138, 4.98064488172531127930e-01) (139, 2.59885579347610473633e-01) (140, 4.69118833541870117188e-01) (141, 5.32232224941253662109e-01) (142, 3.90503346920013427734e-01) (143, 4.21505212783813476562e-01) (144, 6.02921068668365478516e-01) (145, 1.20252281427383422852e-01) (146, 6.99792921543121337891e-01) (147, 5.73593199253082275391e-01) (148, 6.45572781562805175781e-01) (149, 6.57900393009185791016e-01) (150, 7.75502204895019531250e-01) (151, 6.41428470611572265625e-01) (152, 6.34829401969909667969e-01) (153, 5.37976980209350585938e-01) (154, 5.88977575302124023438e-01) (155, 6.66527211666107177734e-01) (156, 5.87123513221740722656e-01) (157, 6.13285005092620849609e-01) (158, 8.46651136875152587891e-01) (159, 1.07078194618225097656e+00) (160, 5.25579750537872314453e-01) (161, 5.25517046451568603516e-01) (162, 7.33498632907867431641e-01) (163, 4.79245036840438842773e-01) (164, 3.52967411279678344727e-01) (165, 3.10760468244552612305e-01) (166, 3.68219345808029174805e-01) (167, 5.54370582103729248047e-01) (168, 5.20986795425415039062e-01) (169, 6.78051590919494628906e-01) (170, 5.99151253700256347656e-01) (171, 6.05168461799621582031e-01) (172, 6.51276886463165283203e-01) (173, 7.71026849746704101562e-01) (174, 8.10769259929656982422e-01) (175, 4.92834091186523437500e-01) (176, 6.82895600795745849609e-01) (177, 5.57512521743774414062e-01) (178, 6.54430031776428222656e-01) (179, 5.13781368732452392578e-01) (180, 3.85041952133178710938e-01) (181, 3.04773330688476562500e-01) (182, 2.37777844071388244629e-01) (183, 2.91538268327713012695e-01) (184, 2.45109200477600097656e-01) (185, 8.22775125503540039062e-01) (186, 7.63073086738586425781e-01) (187, 4.81975555419921875000e-01) (188, 7.48888731002807617188e-01) (189, 5.39919912815093994141e-01) (190, 7.02545821666717529297e-01) (191, 7.93071866035461425781e-01) (192, 6.42726004123687744141e-01) (193, 5.30318498611450195312e-01) (194, 7.24229753017425537109e-01) (195, 7.64260351657867431641e-01) (196, 7.63740360736846923828e-01) (197, 1.23298299312591552734e+00) (198, 4.65438008308410644531e-01) (199, 3.75804901123046875000e-01) (200, 7.22381711006164550781e-01) (201, 6.54784202575683593750e-01) (202, 5.32217204570770263672e-01) (203, 6.83110833168029785156e-01) (204, 6.65959537029266357422e-01) (205, 7.85585522651672363281e-01) (206, 3.71434271335601806641e-01) (207, 6.61588966846466064453e-01) (208, 8.15570354461669921875e-01) (209, 7.11666345596313476562e-01) (210, 7.61959612369537353516e-01) (211, 8.31014811992645263672e-01) (212, 6.10113620758056640625e-01) (213, 6.84314727783203125000e-01) (214, 8.03988039493560791016e-01) (215, 6.61027133464813232422e-01) (216, 6.03171110153198242188e-01) (217, 5.75181186199188232422e-01) (218, 6.28395318984985351562e-01) (219, 4.59029585123062133789e-01) (220, 7.54730224609375000000e-01) (221, 5.99595248699188232422e-01) (222, 6.04513883590698242188e-01) (223, 6.54871761798858642578e-01) (224, 5.35178363323211669922e-01) (225, 7.57453322410583496094e-01) (226, 3.24638098478317260742e-01) (227, 7.22563743591308593750e-01) (228, 3.66350769996643066406e-01) (229, 4.49962705373764038086e-01) (230, 2.58123248815536499023e-01) (231, 6.82723760604858398438e-01) (232, 8.89105319976806640625e-01) (233, 8.15197706222534179688e-01) (234, 7.66247212886810302734e-01) (235, 7.40603864192962646484e-01) (236, 7.60168135166168212891e-01) (237, 6.40045940876007080078e-01) (238, 7.65760898590087890625e-01) (239, 9.18261587619781494141e-01) (240, 6.29534304141998291016e-01) (241, 7.11527943611145019531e-01) (242, 5.78081190586090087891e-01) (243, 4.24594908952713012695e-01) (244, 5.04402577877044677734e-01) (245, 9.74064692854881286621e-02) (246, 7.41931259632110595703e-01) (247, 2.68632769584655761719e-01) (248, 7.69556939601898193359e-01) (249, 6.79610013961791992188e-01) (250, 7.25496172904968261719e-01) (251, 7.05409169197082519531e-01) (252, 7.09014058113098144531e-01) (253, 7.66557872295379638672e-01) (254, 7.60874271392822265625e-01) (255, 6.75086021423339843750e-01) (256, 6.84047400951385498047e-01) (257, 7.46566832065582275391e-01) (258, 7.86249458789825439453e-01) (259, 7.09890782833099365234e-01) (260, 7.90955066680908203125e-01) (261, 7.69683539867401123047e-01) (262, 7.07202613353729248047e-01) (263, 6.21747553348541259766e-01) (264, 7.68266320228576660156e-01) (265, 7.43401229381561279297e-01) (266, 5.49879908561706542969e-01) (267, 6.60882830619812011719e-01) (268, 6.50641381740570068359e-01) (269, 7.81648874282836914062e-01) (270, 7.55658447742462158203e-01) (271, 6.93257212638854980469e-01) (272, 7.36443877220153808594e-01) (273, 5.24786829948425292969e-01) (274, 4.92900967597961425781e-01) (275, 6.95214450359344482422e-01) (276, 8.40870678424835205078e-01) (277, 6.93740963935852050781e-01) (278, 6.62437558174133300781e-01) (279, 6.11504495143890380859e-01) (280, 7.30404615402221679688e-01) (281, 6.50495231151580810547e-01) (282, 6.66077613830566406250e-01) (283, 6.61552608013153076172e-01) (284, 5.30593812465667724609e-01) (285, 5.94711184501647949219e-01) (286, 4.83980715274810791016e-01) (287, 7.05339968204498291016e-01) (288, 5.70037543773651123047e-01) (0, 1.50000000000000000000e+03) (1, 4.08760070800781250000e-01) (2, 4.92234081029891967773e-01) (3, 3.50440770387649536133e-01) (4, 4.57202643156051635742e-01) (5, -1.98906242847442626953e-01) (6, 4.49920922517776489258e-01) (7, -1.76363244652748107910e-01) (8, 4.57113265991210937500e-01) (9, -9.08263996243476867676e-02) (10, 4.51179027557373046875e-01) (11, 4.34476405382156372070e-01) (12, 2.84368038177490234375e-01) (13, 3.28801006078720092773e-01) (14, 3.31989079713821411133e-01) (15, 3.31918776035308837891e-01) (16, -1.20431795716285705566e-01) (17, 3.98689001798629760742e-01) (18, -2.42090940475463867188e-01) (19, -2.55538016557693481445e-01) (20, -1.83328896760940551758e-01) (21, 4.45444881916046142578e-01) (22, -1.69025197625160217285e-01) (23, -2.77984768152236938477e-01) (24, -1.44503474235534667969e-01) (25, -2.07640141248703002930e-01) (26, 2.89763301610946655273e-01) (27, 3.31844836473464965820e-01) (28, 3.78910064697265625000e-01) (29, 3.50558936595916748047e-01) (30, 3.35070550441741943359e-01) (31, 2.85505205392837524414e-01) (32, 4.66848313808441162109e-01) (33, 3.01526218652725219727e-01) (34, 3.75806689262390136719e-01) (35, 3.43234181404113769531e-01) (36, 4.55590009689331054688e-01) (37, 3.53963404893875122070e-01) (38, 4.14390176534652709961e-01) (39, 4.23242866992950439453e-01) (40, 2.59523659944534301758e-01) (41, 3.57248693704605102539e-01) (42, 3.01593422889709472656e-01) (43, 3.55160117149353027344e-01) (44, 4.26188051700592041016e-01) (45, 3.33946555852890014648e-01) (46, 3.83494168519973754883e-01) (47, 4.21144962310791015625e-01) (48, 3.30105215311050415039e-01) (49, -9.61990281939506530762e-02) (50, -1.27132043242454528809e-01) (51, -1.57814025878906250000e-01) (52, -1.59133002161979675293e-01) (53, -1.71946793794631958008e-01) (54, -1.25075206160545349121e-01) (55, 3.75106334686279296875e-01) (56, -2.75301277637481689453e-01) (57, -1.28400415182113647461e-01) (58, -1.57753989100456237793e-01) (59, -1.78718268871307373047e-01) (60, 2.41923779249191284180e-01) (61, 3.84620428085327148438e-01) (62, -1.63070157170295715332e-01) (63, 4.90570753812789916992e-01) (64, -2.99249202013015747070e-01) (65, -2.58907377719879150391e-01) (66, 3.30514967441558837891e-01) (67, -1.49892076849937438965e-01) (68, 3.90325039625167846680e-01) (69, 3.05808365345001220703e-01) (70, 3.82429391145706176758e-01) (71, 4.22237366437911987305e-01) (72, 4.54472213983535766602e-01) (73, -1.33408769965171813965e-01) (74, 3.31607580184936523438e-01) (75, 5.06360352039337158203e-01) (76, -1.96352347731590270996e-01) (77, 4.75363790988922119141e-01) (78, -1.70714184641838073730e-01) (79, -1.45042285323143005371e-01) (80, -1.08685582876205444336e-01) (81, -1.90460890531539916992e-01) (82, 3.71630281209945678711e-01) (83, -2.00296416878700256348e-01) (84, -2.74205327033996582031e-01) (85, -2.41244643926620483398e-01) (86, 4.82666462659835815430e-01) (87, -2.58624494075775146484e-01) (88, -2.72281616926193237305e-01) (89, -1.62447407841682434082e-01) (90, 3.99762779474258422852e-01) (91, 3.12009841203689575195e-01) (92, 3.73132169246673583984e-01) (93, 3.60446751117706298828e-01) (94, -2.76694744825363159180e-01) (95, -1.88131287693977355957e-01) (96, -1.73163399100303649902e-01) (97, 3.50799739360809326172e-01) (98, 3.39980095624923706055e-01) (99, 2.76346743106842041016e-01) (100, 3.57100158929824829102e-01) (101, 4.39904779195785522461e-01) (102, 4.35165703296661376953e-01) (103, 3.32510888576507568359e-01) (104, 3.44125509262084960938e-01) (105, 3.97850275039672851562e-01) (106, 4.02948319911956787109e-01) (107, 2.45297133922576904297e-01) (108, 4.90997403860092163086e-01) (109, 3.20393323898315429688e-01) (110, 4.63411986827850341797e-01) (111, 4.05406981706619262695e-01) (112, 4.01745408773422241211e-01) (113, 2.63286620378494262695e-01) (114, 3.57237935066223144531e-01) (115, -8.19277539849281311035e-02) (116, 3.85687679052352905273e-01) (117, -2.54171460866928100586e-01) (118, 3.09190928936004638672e-01) (119, 3.94051492214202880859e-01) (120, -9.53091159462928771973e-02) (121, 4.26828414201736450195e-01) (122, 4.19903337955474853516e-01) (123, 3.50566357374191284180e-01) (124, -2.77940094470977783203e-01) (125, -1.24601915478706359863e-01) (126, 4.21629160642623901367e-01) (127, 3.50346267223358154297e-01) (128, 2.49351739883422851562e-01) (129, 2.84725993871688842773e-01) (130, 3.08062225580215454102e-01) (131, -1.79253906011581420898e-01) (132, -1.10087148845195770264e-01) (133, -2.00311899185180664062e-01) (134, -1.31139427423477172852e-01) (135, -1.90474659204483032227e-01) (136, -2.40448474884033203125e-01) (137, -1.58115670084953308105e-01) (138, -1.59282922744750976562e-01) (139, -2.17832729220390319824e-01) (140, -2.19422534108161926270e-01) (141, -1.95118859410285949707e-01) (142, -2.82958954572677612305e-01) (143, -2.25293308496475219727e-01) (144, 4.12671983242034912109e-01) (145, -2.36768156290054321289e-01) (146, 3.43775868415832519531e-01) (147, 3.12319457530975341797e-01) (148, 4.05059218406677246094e-01) (149, 3.62216383218765258789e-01) (150, 4.35182094573974609375e-01) (151, 3.83756756782531738281e-01) (152, 2.27893769741058349609e-01) (153, 2.83726274967193603516e-01) (154, 4.06987011432647705078e-01) (155, 2.28554368019104003906e-01) (156, 2.23666682839393615723e-01) (157, 3.71398568153381347656e-01) (158, 4.57060903310775756836e-01) (159, 3.59753161668777465820e-01) (160, 3.93186032772064208984e-01) (161, 2.78111100196838378906e-01) (162, 4.27349776029586791992e-01) (163, -1.26559242606163024902e-01) (164, -1.12855091691017150879e-01) (165, -2.16238364577293395996e-01) (166, -2.36697092652320861816e-01) (167, -2.45463237166404724121e-01) (168, -2.28521078824996948242e-01) (169, 3.79089057445526123047e-01) (170, 2.95487642288208007812e-01) (171, 2.71249532699584960938e-01) (172, 2.46473297476768493652e-01) (173, 3.84176790714263916016e-01) (174, 4.74007129669189453125e-01) (175, 3.75876337289810180664e-01) (176, 4.54767435789108276367e-01) (177, 3.14275741577148437500e-01) (178, 2.95663982629776000977e-01) (179, -1.86056494712829589844e-01) (180, -2.08130165934562683105e-01) (181, -1.47193595767021179199e-01) (182, -2.95686990022659301758e-01) (183, -2.26007193326950073242e-01) (184, -2.96360492706298828125e-01) (185, 3.00549328327178955078e-01) (186, 3.86444121599197387695e-01) (187, -3.24561715126037597656e-01) (188, 4.67348337173461914062e-01) (189, 2.42738455533981323242e-01) (190, 3.87148678302764892578e-01) (191, 4.54493105411529541016e-01) (192, 4.77171957492828369141e-01) (193, -2.46397420763969421387e-01) (194, 4.08194035291671752930e-01) (195, 3.64067375659942626953e-01) (196, 4.17320162057876586914e-01) (197, 2.91823387145996093750e-01) (198, -1.62376970052719116211e-01) (199, -1.37618273496627807617e-01) (200, 3.95607024431228637695e-01) (201, 2.99851745367050170898e-01) (202, -2.11321800947189331055e-01) (203, 4.41817462444305419922e-01) (204, 3.07352215051651000977e-01) (205, 3.13118994235992431641e-01) (206, -1.62876054644584655762e-01) (207, 3.46131950616836547852e-01) (208, 2.98662841320037841797e-01) (209, 4.37869787216186523438e-01) (210, 4.35284882783889770508e-01) (211, 3.73932749032974243164e-01) (212, 3.60638320446014404297e-01) (213, 4.63986575603485107422e-01) (214, 4.57940101623535156250e-01) (215, 4.18565303087234497070e-01) (216, 5.27559399604797363281e-01) (217, 2.66878455877304077148e-01) (218, 3.86616349220275878906e-01) (219, -1.08098506927490234375e-01) (220, 2.94366598129272460938e-01) (221, 3.97236853837966918945e-01) (222, 4.15495395660400390625e-01) (223, 3.29530507326126098633e-01) (224, -1.76127776503562927246e-01) (225, 3.52868378162384033203e-01) (226, -1.93169727921485900879e-01) (227, 3.22588622570037841797e-01) (228, -2.59790778160095214844e-01) (229, -2.66362339258193969727e-01) (230, -2.76626527309417724609e-01) (231, 4.46420371532440185547e-01) (232, 5.47140121459960937500e-01) (233, 3.66175323724746704102e-01) (234, 3.66266191005706787109e-01) (235, 3.91130119562149047852e-01) (236, 3.85973751544952392578e-01) (237, 2.14120998978614807129e-01) (238, 4.50575649738311767578e-01) (239, 4.30222660303115844727e-01) (240, 4.53861325979232788086e-01) (241, 4.33412909507751464844e-01) (242, 3.14135104417800903320e-01) (243, -2.40541756153106689453e-01) (244, -1.89853802323341369629e-01) (245, -1.10805787146091461182e-01) (246, 4.64933812618255615234e-01) (247, -2.28748589754104614258e-01) (248, 3.25399875640869140625e-01) (249, 4.40034180879592895508e-01) (250, 3.40583264827728271484e-01) (251, 4.45386439561843872070e-01) (252, 3.16750645637512207031e-01) (253, 4.81650948524475097656e-01) (254, 4.54570978879928588867e-01) (255, 4.40889567136764526367e-01) (256, 3.42464268207550048828e-01) (257, 3.51576328277587890625e-01) (258, 4.73195284605026245117e-01) (259, 3.62140297889709472656e-01) (260, 3.42459201812744140625e-01) (261, 4.88746821880340576172e-01) (262, 4.81500238180160522461e-01) (263, 2.91828453540802001953e-01) (264, 3.53658050298690795898e-01) (265, 3.66845667362213134766e-01) (266, 4.13886636495590209961e-01) (267, 4.63284939527511596680e-01) (268, 3.66151571273803710938e-01) (269, 4.40533876419067382812e-01) (270, 3.82335126399993896484e-01) (271, 3.09960156679153442383e-01) (272, 3.67730855941772460938e-01) (273, -1.84309348464012145996e-01) (274, -2.18865230679512023926e-01) (275, 4.54035580158233642578e-01) (276, 3.62118363380432128906e-01) (277, 3.18661183118820190430e-01) (278, 3.29988807439804077148e-01) (279, 3.14981669187545776367e-01) (280, 4.66905266046524047852e-01) (281, 3.73630195856094360352e-01) (282, 2.58916079998016357422e-01) (283, 2.09071621298789978027e-01) (284, 2.70488768815994262695e-01) (285, 2.24083468317985534668e-01) (286, 3.66546481847763061523e-01) (287, 4.20999586582183837891e-01) (288, 3.69973033666610717773e-01) (0, 1.50000000000000000000e+03) (1, 2.95481801033020019531e-01) (2, 4.45009052753448486328e-01) (3, 4.30755883455276489258e-01) (4, 3.93618285655975341797e-01) (5, -2.90500342845916748047e-01) (6, 3.08510750532150268555e-01) (7, -2.33227923512458801270e-01) (8, 3.13416242599487304688e-01) (9, -7.64506682753562927246e-02) (10, 4.42437440156936645508e-01) (11, 4.66575473546981811523e-01) (12, 2.91369378566741943359e-01) (13, 4.73948448896408081055e-01) (14, 3.41052204370498657227e-01) (15, 4.62828218936920166016e-01) (16, -2.53900259733200073242e-01) (17, 3.20526868104934692383e-01) (18, -2.40531384944915771484e-01) (19, -2.10892483592033386230e-01) (20, -2.32353001832962036133e-01) (21, 4.38090741634368896484e-01) (22, -2.49528646469116210938e-01) (23, -1.16580076515674591064e-01) (24, -2.82192945480346679688e-01) (25, -2.38929495215415954590e-01) (26, 3.30101341009140014648e-01) (27, 3.07440549135208129883e-01) (28, 3.05633902549743652344e-01) (29, 4.72953617572784423828e-01) (30, 3.87482523918151855469e-01) (31, 4.21307116746902465820e-01) (32, 4.75676715373992919922e-01) (33, 3.06713014841079711914e-01) (34, 3.91923725605010986328e-01) (35, 3.73664617538452148438e-01) (36, 3.69183242321014404297e-01) (37, 4.28670257329940795898e-01) (38, 3.02456647157669067383e-01) (39, 3.92908573150634765625e-01) (40, 3.48606199026107788086e-01) (41, 2.36376345157623291016e-01) (42, 3.02934795618057250977e-01) (43, 2.50615030527114868164e-01) (44, 2.49860614538192749023e-01) (45, 3.44978570938110351562e-01) (46, 4.09942775964736938477e-01) (47, 3.11523199081420898438e-01) (48, 4.62975054979324340820e-01) (49, -2.67960608005523681641e-01) (50, -1.93249538540840148926e-01) (51, -2.74513304233551025391e-01) (52, -1.38793453574180603027e-01) (53, -1.17384880781173706055e-01) (54, -8.05521756410598754883e-02) (55, 4.58301484584808349609e-01) (56, -2.52573311328887939453e-01) (57, -2.43769645690917968750e-01) (58, -9.86488461494445800781e-02) (59, -2.28721767663955688477e-01) (60, 2.48949304223060607910e-01) (61, 2.95823156833648681641e-01) (62, -2.77271926403045654297e-01) (63, 3.06712716817855834961e-01) (64, -1.82859256863594055176e-01) (65, -1.56991571187973022461e-01) (66, 2.91415274143218994141e-01) (67, -1.19909346103668212891e-01) (68, 3.66229623556137084961e-01) (69, 3.55089485645294189453e-01) (70, 3.82308155298233032227e-01) (71, 2.87711828947067260742e-01) (72, 3.82326215505599975586e-01) (73, -1.32079541683197021484e-01) (74, 2.93081820011138916016e-01) (75, 4.59361612796783447266e-01) (76, -1.83446347713470458984e-01) (77, 4.63517010211944580078e-01) (78, -1.27564370632171630859e-01) (79, -1.99580833315849304199e-01) (80, -9.22938287258148193359e-02) (81, -2.12569355964660644531e-01) (82, 4.01323974132537841797e-01) (83, -1.63020268082618713379e-01) (84, -2.41088181734085083008e-01) (85, -1.67232945561408996582e-01) (86, 4.03137832880020141602e-01) (87, -2.03128457069396972656e-01) (88, -2.66713380813598632812e-01) (89, -1.83185204863548278809e-01) (90, 4.05255109071731567383e-01) (91, 4.77266162633895874023e-01) (92, 4.63597059249877929688e-01) (93, 4.51737582683563232422e-01) (94, -2.95296460390090942383e-01) (95, -1.81276753544807434082e-01) (96, -1.80417791008949279785e-01) (97, 2.93501615524291992188e-01) (98, 3.76817494630813598633e-01) (99, 4.46175426244735717773e-01) (100, 3.49402338266372680664e-01) (101, 4.76620882749557495117e-01) (102, 4.70699250698089599609e-01) (103, 4.53540503978729248047e-01) (104, 3.82703572511672973633e-01) (105, 3.94858062267303466797e-01) (106, 2.76979833841323852539e-01) (107, 2.96164244413375854492e-01) (108, 4.76158320903778076172e-01) (109, 2.37805441021919250488e-01) (110, 4.55108672380447387695e-01) (111, 4.06959801912307739258e-01) (112, 2.97048777341842651367e-01) (113, 2.88692384958267211914e-01) (114, 3.96066963672637939453e-01) (115, -1.54170542955398559570e-01) (116, 4.84462946653366088867e-01) (117, -2.66937792301177978516e-01) (118, 4.92443889379501342773e-01) (119, 4.51287865638732910156e-01) (120, -1.56746402382850646973e-01) (121, 4.15573805570602416992e-01) (122, 4.42396044731140136719e-01) (123, 3.79593819379806518555e-01) (124, -1.97903662919998168945e-01) (125, -1.20710939168930053711e-01) (126, 2.57511138916015625000e-01) (127, 4.23903375864028930664e-01) (128, 3.95944088697433471680e-01) (129, 3.57445210218429565430e-01) (130, 3.51133555173873901367e-01) (131, -2.40358918905258178711e-01) (132, -2.00651735067367553711e-01) (133, -1.21392719447612762451e-01) (134, -2.71898716688156127930e-01) (135, -2.42763563990592956543e-01) (136, -1.64835780858993530273e-01) (137, -2.24159523844718933105e-01) (138, -1.60704433917999267578e-01) (139, -2.11946591734886169434e-01) (140, -1.68054535984992980957e-01) (141, -2.00211539864540100098e-01) (142, -2.19455078244209289551e-01) (143, -7.86221101880073547363e-02) (144, 4.32985126972198486328e-01) (145, -1.35324805974960327148e-01) (146, 4.18204247951507568359e-01) (147, 4.31638181209564208984e-01) (148, 4.65514898300170898438e-01) (149, 4.19897645711898803711e-01) (150, 4.11737501621246337891e-01) (151, 3.82774889469146728516e-01) (152, 2.73423910140991210938e-01) (153, 2.82774269580841064453e-01) (154, 2.35033109784126281738e-01) (155, 3.53592276573181152344e-01) (156, 2.26945176720619201660e-01) (157, 2.35326364636421203613e-01) (158, 4.56766456365585327148e-01) (159, 5.09285926818847656250e-01) (160, 3.29544752836227416992e-01) (161, 3.20657610893249511719e-01) (162, 3.15776675939559936523e-01) (163, -8.04772228002548217773e-02) (164, -1.91473320126533508301e-01) (165, -2.67887234687805175781e-01) (166, -2.43134334683418273926e-01) (167, -2.49048337340354919434e-01) (168, -1.46213471889495849609e-01) (169, 3.70942354202270507812e-01) (170, 3.53255748748779296875e-01) (171, 2.04925417900085449219e-01) (172, 2.33752310276031494141e-01) (173, 3.04271280765533447266e-01) (174, 3.54353904724121093750e-01) (175, 3.83468419313430786133e-01) (176, 4.76017326116561889648e-01) (177, 4.69050943851470947266e-01) (178, 4.22574788331985473633e-01) (179, -1.04351080954074859619e-01) (180, -1.95673689246177673340e-01) (181, -2.43727415800094604492e-01) (182, -2.14962974190711975098e-01) (183, -1.67124152183532714844e-01) (184, -1.78630083799362182617e-01) (185, 4.09318625926971435547e-01) (186, 3.72250705957412719727e-01) (187, -1.27802401781082153320e-01) (188, 4.40045118331909179688e-01) (189, 2.27559417486190795898e-01) (190, 4.42133665084838867188e-01) (191, 3.65945726633071899414e-01) (192, 5.05000829696655273438e-01) (193, -1.02985627949237823486e-01) (194, 3.63619774580001831055e-01) (195, 3.13277304172515869141e-01) (196, 3.08769077062606811523e-01) (197, 4.45283710956573486328e-01) (198, -2.16172665357589721680e-01) (199, -1.63547366857528686523e-01) (200, 3.36883097887039184570e-01) (201, 3.03824156522750854492e-01) (202, -1.03575512766838073730e-01) (203, 3.70687127113342285156e-01) (204, 2.31419578194618225098e-01) (205, 3.01212310791015625000e-01) (206, -2.26414427161216735840e-01) (207, 2.91448861360549926758e-01) (208, 4.41531300544738769531e-01) (209, 3.01242291927337646484e-01) (210, 4.61649149656295776367e-01) (211, 3.29257696866989135742e-01) (212, 3.27477037906646728516e-01) (213, 3.71413528919219970703e-01) (214, 4.72148060798645019531e-01) (215, 4.87918138504028320312e-01) (216, 3.44073593616485595703e-01) (217, 2.66117930412292480469e-01) (218, 3.61422359943389892578e-01) (219, -1.18886366486549377441e-01) (220, 2.78971910476684570312e-01) (221, 4.27027970552444458008e-01) (222, 3.14050972461700439453e-01) (223, 3.41963976621627807617e-01) (224, -2.02924743294715881348e-01) (225, 4.07164156436920166016e-01) (226, -2.31526240706443786621e-01) (227, 3.87843132019042968750e-01) (228, -2.56036311388015747070e-01) (229, -1.58283799886703491211e-01) (230, -2.37588867545127868652e-01) (231, 3.91211330890655517578e-01) (232, 6.58960282802581787109e-01) (233, 3.13273340463638305664e-01) (234, 4.39926505088806152344e-01) (235, 4.27017182111740112305e-01) (236, 3.20531547069549560547e-01) (237, 2.24012628197669982910e-01) (238, 4.31491672992706298828e-01) (239, 5.07968783378601074219e-01) (240, 3.26895147562026977539e-01) (241, 4.41639304161071777344e-01) (242, 