FANN_FLO_2.1
num_layers=3
learning_rate=0.700000
connection_rate=1.000000
network_type=0
learning_momentum=0.100000
training_algorithm=2
train_error_function=1
train_stop_function=0
cascade_output_change_fraction=0.010000
quickprop_decay=-0.000100
quickprop_mu=1.750000
rprop_increase_factor=1.200000
rprop_decrease_factor=0.500000
rprop_delta_min=0.000000
rprop_delta_max=50.000000
rprop_delta_zero=0.100000
cascade_output_stagnation_epochs=12
cascade_candidate_change_fraction=0.010000
cascade_candidate_stagnation_epochs=12
cascade_max_out_epochs=150
cascade_min_out_epochs=50
cascade_max_cand_epochs=150
cascade_min_cand_epochs=50
cascade_num_candidate_groups=2
bit_fail_limit=3.49999994039535522461e-01
cascade_candidate_limit=1.00000000000000000000e+03
cascade_weight_multiplier=4.00000005960464477539e-01
cascade_activation_functions_count=10
cascade_activation_functions=3 5 7 8 10 11 14 15 16 17 
cascade_activation_steepnesses_count=4
cascade_activation_steepnesses=2.50000000000000000000e-01 5.00000000000000000000e-01 7.50000000000000000000e-01 1.00000000000000000000e+00 
layer_sizes=289 325 2 
scale_included=0
neurons (num_inputs, activation_function, activation_steepness)=(0, 0, 0.00000000000000000000e+00) (0, 0, 0.00000000000000000000e+00) (0, 0, 0.00000000000000000000e+00) (0, 0, 0.00000000000000000000e+00) (0, 0, 0.00000000000000000000e+00) (0, 0, 0.00000000000000000000e+00) (0, 0, 0.00000000000000000000e+00) (0, 0, 0.00000000000000000000e+00) (0, 0, 0.00000000000000000000e+00) (0, 0, 0.00000000000000000000e+00) (0, 0, 0.00000000000000000000e+00) (0, 0, 0.00000000000000000000e+00) (0, 0, 0.00000000000000000000e+00) (0, 0, 0.00000000000000000000e+00) (0, 0, 0.00000000000000000000e+00) (0, 0, 0.00000000000000000000e+00) (0, 0, 0.00000000000000000000e+00) (0, 0, 0.00000000000000000000e+00) (0, 0, 0.00000000000000000000e+00) (0, 0, 0.00000000000000000000e+00) (0, 0, 0.00000000000000000000e+00) (0, 0, 0.00000000000000000000e+00) (0, 0, 0.00000000000000000000e+00) (0, 0, 0.00000000000000000000e+00) (0, 0, 0.00000000000000000000e+00) (0, 0, 0.00000000000000000000e+00) (0, 0, 0.00000000000000000000e+00) (0, 0, 0.00000000000000000000e+00) (0, 0, 0.00000000000000000000e+00) (0, 0, 0.00000000000000000000e+00) (0, 0, 0.00000000000000000000e+00) (0, 0, 0.00000000000000000000e+00) (0, 0, 0.00000000000000000000e+00) (0, 0, 0.00000000000000000000e+00) (0, 0, 0.00000000000000000000e+00) (0, 0, 0.00000000000000000000e+00) (0, 0, 0.00000000000000000000e+00) (0, 0, 0.00000000000000000000e+00) (0, 0, 0.00000000000000000000e+00) (0, 0, 0.00000000000000000000e+00) (0, 0, 0.00000000000000000000e+00) (0, 0, 0.00000000000000000000e+00) (0, 0, 0.00000000000000000000e+00) (0, 0, 0.00000000000000000000e+00) (0, 0, 0.00000000000000000000e+00) (0, 0, 0.00000000000000000000e+00) (0, 0, 0.00000000000000000000e+00) (0, 0, 0.00000000000000000000e+00) (0, 0, 0.00000000000000000000e+00) (0, 0, 0.00000000000000000000e+00) (0, 0, 0.00000000000000000000e+00) (0, 0, 0.00000000000000000000e+00) (0, 0, 0.00000000000000000000e+00) (0, 0, 0.00000000000000000000e+00) (0, 0, 0.00000000000000000000e+00) (0, 0, 0.00000000000000000000e+00) (0, 0, 0.00000000000000000000e+00) (0, 0, 0.00000000000000000000e+00) (0, 0, 0.00000000000000000000e+00) (0, 0, 0.00000000000000000000e+00) (0, 0, 0.00000000000000000000e+00) (0, 0, 0.00000000000000000000e+00) (0, 0, 0.00000000000000000000e+00) (0, 0, 0.00000000000000000000e+00) (0, 0, 0.00000000000000000000e+00) (0, 0, 0.00000000000000000000e+00) (0, 0, 0.00000000000000000000e+00) (0, 0, 0.00000000000000000000e+00) (0, 0, 0.00000000000000000000e+00) (0, 0, 0.00000000000000000000e+00) (0, 0, 0.00000000000000000000e+00) (0, 0, 0.00000000000000000000e+00) (0, 0, 0.00000000000000000000e+00) (0, 0, 0.00000000000000000000e+00) (0, 0, 0.00000000000000000000e+00) (0, 0, 0.00000000000000000000e+00) (0, 0, 0.00000000000000000000e+00) (0, 0, 0.00000000000000000000e+00) (0, 0, 0.00000000000000000000e+00) (0, 0, 0.00000000000000000000e+00) (0, 0, 0.00000000000000000000e+00) (0, 0, 0.00000000000000000000e+00) (0, 0, 0.00000000000000000000e+00) (0, 0, 0.00000000000000000000e+00) (0, 0, 0.00000000000000000000e+00) (0, 0, 0.00000000000000000000e+00) (0, 0, 0.00000000000000000000e+00) (0, 0, 0.00000000000000000000e+00) (0, 0, 0.00000000000000000000e+00) (0, 0, 0.00000000000000000000e+00) (0, 0, 0.00000000000000000000e+00) (0, 0, 0.00000000000000000000e+00) (0, 0, 0.00000000000000000000e+00) (0, 0, 0.00000000000000000000e+00) (0, 0, 0.00000000000000000000e+00) (0, 0, 0.00000000000000000000e+00) (0, 0, 0.00000000000000000000e+00) (0, 0, 0.00000000000000000000e+00) (0, 0, 0.00000000000000000000e+00) (0, 0, 0.00000000000000000000e+00) (0, 0, 0.00000000000000000000e+00) (0, 0, 0.00000000000000000000e+00) (0, 0, 0.00000000000000000000e+00) (0, 0, 0.00000000000000000000e+00) (0, 0, 0.00000000000000000000e+00) (0, 0, 0.00000000000000000000e+00) (0, 0, 0.00000000000000000000e+00) (0, 0, 0.00000000000000000000e+00) (0, 0, 0.00000000000000000000e+00) (0, 0, 0.00000000000000000000e+00) (0, 0, 0.00000000000000000000e+00) (0, 0, 0.00000000000000000000e+00) (0, 0, 0.00000000000000000000e+00) (0, 0, 0.00000000000000000000e+00) (0, 0, 0.00000000000000000000e+00) (0, 0, 0.00000000000000000000e+00) (0, 0, 0.00000000000000000000e+00) (0, 0, 0.00000000000000000000e+00) (0, 0, 0.00000000000000000000e+00) (0, 0, 0.00000000000000000000e+00) (0, 0, 0.00000000000000000000e+00) (0, 0, 0.00000000000000000000e+00) (0, 0, 0.00000000000000000000e+00) (0, 0, 0.00000000000000000000e+00) (0, 0, 0.00000000000000000000e+00) (0, 0, 0.00000000000000000000e+00) (0, 0, 0.00000000000000000000e+00) (0, 0, 0.00000000000000000000e+00) (0, 0, 0.00000000000000000000e+00) (0, 0, 0.00000000000000000000e+00) (0, 0, 0.00000000000000000000e+00) (0, 0, 0.00000000000000000000e+00) (0, 0, 0.00000000000000000000e+00) (0, 0, 0.00000000000000000000e+00) (0, 0, 0.00000000000000000000e+00) (0, 0, 0.00000000000000000000e+00) (0, 0, 0.00000000000000000000e+00) (0, 0, 0.00000000000000000000e+00) (0, 0, 0.00000000000000000000e+00) (0, 0, 0.00000000000000000000e+00) (0, 0, 0.00000000000000000000e+00) (0, 0, 0.00000000000000000000e+00) (0, 0, 0.00000000000000000000e+00) (0, 0, 0.00000000000000000000e+00) (0, 0, 0.00000000000000000000e+00) (0, 0, 0.00000000000000000000e+00) (0, 0, 0.00000000000000000000e+00) (0, 0, 0.00000000000000000000e+00) (0, 0, 0.00000000000000000000e+00) (0, 0, 0.00000000000000000000e+00) (0, 0, 0.00000000000000000000e+00) (0, 0, 0.00000000000000000000e+00) (0, 0, 0.00000000000000000000e+00) (0, 0, 0.00000000000000000000e+00) (0, 0, 0.00000000000000000000e+00) (0, 0, 0.00000000000000000000e+00) (0, 0, 0.00000000000000000000e+00) (0, 0, 0.00000000000000000000e+00) (0, 0, 0.00000000000000000000e+00) (0, 0, 0.00000000000000000000e+00) (0, 0, 0.00000000000000000000e+00) (0, 0, 0.00000000000000000000e+00) (0, 0, 0.00000000000000000000e+00) (0, 0, 0.00000000000000000000e+00) (0, 0, 0.00000000000000000000e+00) (0, 0, 0.00000000000000000000e+00) (0, 0, 0.00000000000000000000e+00) (0, 0, 0.00000000000000000000e+00) (0, 0, 0.00000000000000000000e+00) (0, 0, 0.00000000000000000000e+00) (0, 0, 0.00000000000000000000e+00) (0, 0, 0.00000000000000000000e+00) (0, 0, 0.00000000000000000000e+00) (0, 0, 0.00000000000000000000e+00) (0, 0, 0.00000000000000000000e+00) (0, 0, 0.00000000000000000000e+00) (0, 0, 0.00000000000000000000e+00) (0, 0, 0.00000000000000000000e+00) (0, 0, 0.00000000000000000000e+00) (0, 0, 0.00000000000000000000e+00) (0, 0, 0.00000000000000000000e+00) (0, 0, 0.00000000000000000000e+00) (0, 0, 0.00000000000000000000e+00) (0, 0, 0.00000000000000000000e+00) (0, 0, 0.00000000000000000000e+00) (0, 0, 0.00000000000000000000e+00) (0, 0, 0.00000000000000000000e+00) (0, 0, 0.00000000000000000000e+00) (0, 0, 0.00000000000000000000e+00) (0, 0, 0.00000000000000000000e+00) (0, 0, 0.00000000000000000000e+00) (0, 0, 0.00000000000000000000e+00) (0, 0, 0.00000000000000000000e+00) (0, 0, 0.00000000000000000000e+00) (0, 0, 0.00000000000000000000e+00) (0, 0, 0.00000000000000000000e+00) (0, 0, 0.00000000000000000000e+00) (0, 0, 0.00000000000000000000e+00) (0, 0, 0.00000000000000000000e+00) (0, 0, 0.00000000000000000000e+00) (0, 0, 0.00000000000000000000e+00) (0, 0, 0.00000000000000000000e+00) (0, 0, 0.00000000000000000000e+00) (0, 0, 0.00000000000000000000e+00) (0, 0, 0.00000000000000000000e+00) (0, 0, 0.00000000000000000000e+00) (0, 0, 0.00000000000000000000e+00) (0, 0, 0.00000000000000000000e+00) (0, 0, 0.00000000000000000000e+00) (0, 0, 0.00000000000000000000e+00) (0, 0, 0.00000000000000000000e+00) (0, 0, 0.00000000000000000000e+00) (0, 0, 0.00000000000000000000e+00) (0, 0, 0.00000000000000000000e+00) (0, 0, 0.00000000000000000000e+00) (0, 0, 0.00000000000000000000e+00) (0, 0, 0.00000000000000000000e+00) (0, 0, 0.00000000000000000000e+00) (0, 0, 0.00000000000000000000e+00) (0, 0, 0.00000000000000000000e+00) (0, 0, 0.00000000000000000000e+00) (0, 0, 0.00000000000000000000e+00) (0, 0, 0.00000000000000000000e+00) (0, 0, 0.00000000000000000000e+00) (0, 0, 0.00000000000000000000e+00) (0, 0, 0.00000000000000000000e+00) (0, 0, 0.00000000000000000000e+00) (0, 0, 0.00000000000000000000e+00) (0, 0, 0.00000000000000000000e+00) (0, 0, 0.00000000000000000000e+00) (0, 0, 0.00000000000000000000e+00) (0, 0, 0.00000000000000000000e+00) (0, 0, 0.00000000000000000000e+00) (0, 0, 0.00000000000000000000e+00) (0, 0, 0.00000000000000000000e+00) (0, 0, 0.00000000000000000000e+00) (0, 0, 0.00000000000000000000e+00) (0, 0, 0.00000000000000000000e+00) (0, 0, 0.00000000000000000000e+00) (0, 0, 0.00000000000000000000e+00) (0, 0, 0.00000000000000000000e+00) (0, 0, 0.00000000000000000000e+00) (0, 0, 0.00000000000000000000e+00) (0, 0, 0.00000000000000000000e+00) (0, 0, 0.00000000000000000000e+00) (0, 0, 0.00000000000000000000e+00) (0, 0, 0.00000000000000000000e+00) (0, 0, 0.00000000000000000000e+00) (0, 0, 0.00000000000000000000e+00) (0, 0, 0.00000000000000000000e+00) (0, 0, 0.00000000000000000000e+00) (0, 0, 0.00000000000000000000e+00) (0, 0, 0.00000000000000000000e+00) (0, 0, 0.00000000000000000000e+00) (0, 0, 0.00000000000000000000e+00) (0, 0, 0.00000000000000000000e+00) (0, 0, 0.00000000000000000000e+00) (0, 0, 0.00000000000000000000e+00) (0, 0, 0.00000000000000000000e+00) (0, 0, 0.00000000000000000000e+00) (0, 0, 0.00000000000000000000e+00) (0, 0, 0.00000000000000000000e+00) (0, 0, 0.00000000000000000000e+00) (0, 0, 0.00000000000000000000e+00) (0, 0, 0.00000000000000000000e+00) (0, 0, 0.00000000000000000000e+00) (0, 0, 0.00000000000000000000e+00) (0, 0, 0.00000000000000000000e+00) (0, 0, 0.00000000000000000000e+00) (0, 0, 0.00000000000000000000e+00) (0, 0, 0.00000000000000000000e+00) (0, 0, 0.00000000000000000000e+00) (0, 0, 0.00000000000000000000e+00) (0, 0, 0.00000000000000000000e+00) (0, 0, 0.00000000000000000000e+00) (0, 0, 0.00000000000000000000e+00) (0, 0, 0.00000000000000000000e+00) (0, 0, 0.00000000000000000000e+00) (0, 0, 0.00000000000000000000e+00) (0, 0, 0.00000000000000000000e+00) (0, 0, 0.00000000000000000000e+00) (0, 0, 0.00000000000000000000e+00) (0, 0, 0.00000000000000000000e+00) (0, 0, 0.00000000000000000000e+00) (0, 0, 0.00000000000000000000e+00) (0, 0, 0.00000000000000000000e+00) (0, 0, 0.00000000000000000000e+00) (0, 0, 0.00000000000000000000e+00) (0, 0, 0.00000000000000000000e+00) (289, 5, 5.00000000000000000000e-01) (289, 5, 5.00000000000000000000e-01) (289, 5, 5.00000000000000000000e-01) (289, 5, 5.00000000000000000000e-01) (289, 5, 5.00000000000000000000e-01) (289, 5, 5.00000000000000000000e-01) (289, 5, 5.00000000000000000000e-01) (289, 5, 5.00000000000000000000e-01) (289, 5, 5.00000000000000000000e-01) (289, 5, 5.00000000000000000000e-01) (289, 5, 5.00000000000000000000e-01) (289, 5, 5.00000000000000000000e-01) (289, 5, 5.00000000000000000000e-01) (289, 5, 5.00000000000000000000e-01) (289, 5, 5.00000000000000000000e-01) (289, 5, 5.00000000000000000000e-01) (289, 5, 5.00000000000000000000e-01) (289, 5, 5.00000000000000000000e-01) (289, 5, 5.00000000000000000000e-01) (289, 5, 5.00000000000000000000e-01) (289, 5, 5.00000000000000000000e-01) (289, 5, 5.00000000000000000000e-01) (289, 5, 5.00000000000000000000e-01) (289, 5, 5.00000000000000000000e-01) (289, 5, 5.00000000000000000000e-01) (289, 5, 5.00000000000000000000e-01) (289, 5, 5.00000000000000000000e-01) (289, 5, 5.00000000000000000000e-01) (289, 5, 5.00000000000000000000e-01) (289, 5, 5.00000000000000000000e-01) (289, 5, 5.00000000000000000000e-01) (289, 5, 5.00000000000000000000e-01) (289, 5, 5.00000000000000000000e-01) (289, 5, 5.00000000000000000000e-01) (289, 5, 5.00000000000000000000e-01) (289, 5, 5.00000000000000000000e-01) (289, 5, 5.00000000000000000000e-01) (289, 5, 5.00000000000000000000e-01) (289, 5, 5.00000000000000000000e-01) (289, 5, 5.00000000000000000000e-01) (289, 5, 5.00000000000000000000e-01) (289, 5, 5.00000000000000000000e-01) (289, 5, 5.00000000000000000000e-01) (289, 5, 5.00000000000000000000e-01) (289, 5, 5.00000000000000000000e-01) (289, 5, 5.00000000000000000000e-01) (289, 5, 5.00000000000000000000e-01) (289, 5, 5.00000000000000000000e-01) (289, 5, 5.00000000000000000000e-01) (289, 5, 5.00000000000000000000e-01) (289, 5, 5.00000000000000000000e-01) (289, 5, 5.00000000000000000000e-01) (289, 5, 5.00000000000000000000e-01) (289, 5, 5.00000000000000000000e-01) (289, 5, 5.00000000000000000000e-01) (289, 5, 5.00000000000000000000e-01) (289, 5, 5.00000000000000000000e-01) (289, 5, 5.00000000000000000000e-01) (289, 5, 5.00000000000000000000e-01) (289, 5, 5.00000000000000000000e-01) (289, 5, 5.00000000000000000000e-01) (289, 5, 5.00000000000000000000e-01) (289, 5, 5.00000000000000000000e-01) (289, 5, 5.00000000000000000000e-01) (289, 5, 5.00000000000000000000e-01) (289, 5, 5.00000000000000000000e-01) (289, 5, 5.00000000000000000000e-01) (289, 5, 5.00000000000000000000e-01) (289, 5, 5.00000000000000000000e-01) (289, 5, 5.00000000000000000000e-01) (289, 5, 5.00000000000000000000e-01) (289, 5, 5.00000000000000000000e-01) (289, 5, 5.00000000000000000000e-01) (289, 5, 5.00000000000000000000e-01) (289, 5, 5.00000000000000000000e-01) (289, 5, 5.00000000000000000000e-01) (289, 5, 5.00000000000000000000e-01) (289, 5, 5.00000000000000000000e-01) (289, 5, 5.00000000000000000000e-01) (289, 5, 5.00000000000000000000e-01) (289, 5, 5.00000000000000000000e-01) (289, 5, 5.00000000000000000000e-01) (289, 5, 5.00000000000000000000e-01) (289, 5, 5.00000000000000000000e-01) (289, 5, 5.00000000000000000000e-01) (289, 5, 5.00000000000000000000e-01) (289, 5, 5.00000000000000000000e-01) (289, 5, 5.00000000000000000000e-01) (289, 5, 5.00000000000000000000e-01) (289, 5, 5.00000000000000000000e-01) (289, 5, 5.00000000000000000000e-01) (289, 5, 5.00000000000000000000e-01) (289, 5, 5.00000000000000000000e-01) (289, 5, 5.00000000000000000000e-01) (289, 5, 5.00000000000000000000e-01) (289, 5, 5.00000000000000000000e-01) (289, 5, 5.00000000000000000000e-01) (289, 5, 5.00000000000000000000e-01) (289, 5, 5.00000000000000000000e-01) (289, 5, 5.00000000000000000000e-01) (289, 5, 5.00000000000000000000e-01) (289, 5, 5.00000000000000000000e-01) (289, 5, 5.00000000000000000000e-01) (289, 5, 5.00000000000000000000e-01) (289, 5, 5.00000000000000000000e-01) (289, 5, 5.00000000000000000000e-01) (289, 5, 5.00000000000000000000e-01) (289, 5, 5.00000000000000000000e-01) (289, 5, 5.00000000000000000000e-01) (289, 5, 5.00000000000000000000e-01) (289, 5, 5.00000000000000000000e-01) (289, 5, 5.00000000000000000000e-01) (289, 5, 5.00000000000000000000e-01) (289, 5, 5.00000000000000000000e-01) (289, 5, 5.00000000000000000000e-01) (289, 5, 5.00000000000000000000e-01) (289, 5, 5.00000000000000000000e-01) (289, 5, 5.00000000000000000000e-01) (289, 5, 5.00000000000000000000e-01) (289, 5, 5.00000000000000000000e-01) (289, 5, 5.00000000000000000000e-01) (289, 5, 5.00000000000000000000e-01) (289, 5, 5.00000000000000000000e-01) (289, 5, 5.00000000000000000000e-01) (289, 5, 5.00000000000000000000e-01) (289, 5, 5.00000000000000000000e-01) (289, 5, 5.00000000000000000000e-01) (289, 5, 5.00000000000000000000e-01) (289, 5, 5.00000000000000000000e-01) (289, 5, 5.00000000000000000000e-01) (289, 5, 5.00000000000000000000e-01) (289, 5, 5.00000000000000000000e-01) (289, 5, 5.00000000000000000000e-01) (289, 5, 5.00000000000000000000e-01) (289, 5, 5.00000000000000000000e-01) (289, 5, 5.00000000000000000000e-01) (289, 5, 5.00000000000000000000e-01) (289, 5, 5.00000000000000000000e-01) (289, 5, 5.00000000000000000000e-01) (289, 5, 5.00000000000000000000e-01) (289, 5, 5.00000000000000000000e-01) (289, 5, 5.00000000000000000000e-01) (289, 5, 5.00000000000000000000e-01) (289, 5, 5.00000000000000000000e-01) (289, 5, 5.00000000000000000000e-01) (289, 5, 5.00000000000000000000e-01) (289, 5, 5.00000000000000000000e-01) (289, 5, 5.00000000000000000000e-01) (289, 5, 5.00000000000000000000e-01) (289, 5, 5.00000000000000000000e-01) (289, 5, 5.00000000000000000000e-01) (289, 5, 5.00000000000000000000e-01) (289, 5, 5.00000000000000000000e-01) (289, 5, 5.00000000000000000000e-01) (289, 5, 5.00000000000000000000e-01) (289, 5, 5.00000000000000000000e-01) (289, 5, 5.00000000000000000000e-01) (289, 5, 5.00000000000000000000e-01) (289, 5, 5.00000000000000000000e-01) (289, 5, 5.00000000000000000000e-01) (289, 5, 5.00000000000000000000e-01) (289, 5, 5.00000000000000000000e-01) (289, 5, 5.00000000000000000000e-01) (289, 5, 5.00000000000000000000e-01) (289, 5, 5.00000000000000000000e-01) (289, 5, 5.00000000000000000000e-01) (289, 5, 5.00000000000000000000e-01) (289, 5, 5.00000000000000000000e-01) (289, 5, 5.00000000000000000000e-01) (289, 5, 5.00000000000000000000e-01) (289, 5, 5.00000000000000000000e-01) (289, 5, 5.00000000000000000000e-01) (289, 5, 5.00000000000000000000e-01) (289, 5, 5.00000000000000000000e-01) (289, 5, 5.00000000000000000000e-01) (289, 5, 5.00000000000000000000e-01) (289, 5, 5.00000000000000000000e-01) (289, 5, 5.00000000000000000000e-01) (289, 5, 5.00000000000000000000e-01) (289, 5, 5.00000000000000000000e-01) (289, 5, 5.00000000000000000000e-01) (289, 5, 5.00000000000000000000e-01) (289, 5, 5.00000000000000000000e-01) (289, 5, 5.00000000000000000000e-01) (289, 5, 5.00000000000000000000e-01) (289, 5, 5.00000000000000000000e-01) (289, 5, 5.00000000000000000000e-01) (289, 5, 5.00000000000000000000e-01) (289, 5, 5.00000000000000000000e-01) (289, 5, 5.00000000000000000000e-01) (289, 5, 5.00000000000000000000e-01) (289, 5, 5.00000000000000000000e-01) (289, 5, 5.00000000000000000000e-01) (289, 5, 5.00000000000000000000e-01) (289, 5, 5.00000000000000000000e-01) (289, 5, 5.00000000000000000000e-01) (289, 5, 5.00000000000000000000e-01) (289, 5, 5.00000000000000000000e-01) (289, 5, 5.00000000000000000000e-01) (289, 5, 5.00000000000000000000e-01) (289, 5, 5.00000000000000000000e-01) (289, 5, 5.00000000000000000000e-01) (289, 5, 5.00000000000000000000e-01) (289, 5, 5.00000000000000000000e-01) (289, 5, 5.00000000000000000000e-01) (289, 5, 5.00000000000000000000e-01) (289, 5, 5.00000000000000000000e-01) (289, 5, 5.00000000000000000000e-01) (289, 5, 5.00000000000000000000e-01) (289, 5, 5.00000000000000000000e-01) (289, 5, 5.00000000000000000000e-01) (289, 5, 5.00000000000000000000e-01) (289, 5, 5.00000000000000000000e-01) (289, 5, 5.00000000000000000000e-01) (289, 5, 5.00000000000000000000e-01) (289, 5, 5.00000000000000000000e-01) (289, 5, 5.00000000000000000000e-01) (289, 5, 5.00000000000000000000e-01) (289, 5, 5.00000000000000000000e-01) (289, 5, 5.00000000000000000000e-01) (289, 5, 5.00000000000000000000e-01) (289, 5, 5.00000000000000000000e-01) (289, 5, 5.00000000000000000000e-01) (289, 5, 5.00000000000000000000e-01) (289, 5, 5.00000000000000000000e-01) (289, 5, 5.00000000000000000000e-01) (289, 5, 5.00000000000000000000e-01) (289, 5, 5.00000000000000000000e-01) (289, 5, 5.00000000000000000000e-01) (289, 5, 5.00000000000000000000e-01) (289, 5, 5.00000000000000000000e-01) (289, 5, 5.00000000000000000000e-01) (289, 5, 5.00000000000000000000e-01) (289, 5, 5.00000000000000000000e-01) (289, 5, 5.00000000000000000000e-01) (289, 5, 5.00000000000000000000e-01) (289, 5, 5.00000000000000000000e-01) (289, 5, 5.00000000000000000000e-01) (289, 5, 5.00000000000000000000e-01) (289, 5, 5.00000000000000000000e-01) (289, 5, 5.00000000000000000000e-01) (289, 5, 5.00000000000000000000e-01) (289, 5, 5.00000000000000000000e-01) (289, 5, 5.00000000000000000000e-01) (289, 5, 5.00000000000000000000e-01) (289, 5, 5.00000000000000000000e-01) (289, 5, 5.00000000000000000000e-01) (289, 5, 5.00000000000000000000e-01) (289, 5, 5.00000000000000000000e-01) (289, 5, 5.00000000000000000000e-01) (289, 5, 5.00000000000000000000e-01) (289, 5, 5.00000000000000000000e-01) (289, 5, 5.00000000000000000000e-01) (289, 5, 5.00000000000000000000e-01) (289, 5, 5.00000000000000000000e-01) (289, 5, 5.00000000000000000000e-01) (289, 5, 5.00000000000000000000e-01) (289, 5, 5.00000000000000000000e-01) (289, 5, 5.00000000000000000000e-01) (289, 5, 5.00000000000000000000e-01) (289, 5, 5.00000000000000000000e-01) (289, 5, 5.00000000000000000000e-01) (289, 5, 5.00000000000000000000e-01) (289, 5, 5.00000000000000000000e-01) (289, 5, 5.00000000000000000000e-01) (289, 5, 5.00000000000000000000e-01) (289, 5, 5.00000000000000000000e-01) (289, 5, 5.00000000000000000000e-01) (289, 5, 5.00000000000000000000e-01) (289, 5, 5.00000000000000000000e-01) (289, 5, 5.00000000000000000000e-01) (289, 5, 5.00000000000000000000e-01) (289, 5, 5.00000000000000000000e-01) (289, 5, 5.00000000000000000000e-01) (289, 5, 5.00000000000000000000e-01) (289, 5, 5.00000000000000000000e-01) (289, 5, 5.00000000000000000000e-01) (289, 5, 5.00000000000000000000e-01) (289, 5, 5.00000000000000000000e-01) (289, 5, 5.00000000000000000000e-01) (289, 5, 5.00000000000000000000e-01) (289, 5, 5.00000000000000000000e-01) (289, 5, 5.00000000000000000000e-01) (289, 5, 5.00000000000000000000e-01) (289, 5, 5.00000000000000000000e-01) (289, 5, 5.00000000000000000000e-01) (289, 5, 5.00000000000000000000e-01) (289, 5, 5.00000000000000000000e-01) (289, 5, 5.00000000000000000000e-01) (289, 5, 5.00000000000000000000e-01) (289, 5, 5.00000000000000000000e-01) (289, 5, 5.00000000000000000000e-01) (289, 5, 5.00000000000000000000e-01) (289, 5, 5.00000000000000000000e-01) (289, 5, 5.00000000000000000000e-01) (289, 5, 5.00000000000000000000e-01) (289, 5, 5.00000000000000000000e-01) (289, 5, 5.00000000000000000000e-01) (289, 5, 5.00000000000000000000e-01) (289, 5, 5.00000000000000000000e-01) (289, 5, 5.00000000000000000000e-01) (289, 5, 5.00000000000000000000e-01) (289, 5, 5.00000000000000000000e-01) (289, 5, 5.00000000000000000000e-01) (289, 5, 5.00000000000000000000e-01) (289, 5, 5.00000000000000000000e-01) (289, 5, 5.00000000000000000000e-01) (289, 5, 5.00000000000000000000e-01) (289, 5, 5.00000000000000000000e-01) (289, 5, 5.00000000000000000000e-01) (289, 5, 5.00000000000000000000e-01) (289, 5, 5.00000000000000000000e-01) (289, 5, 5.00000000000000000000e-01) (289, 5, 5.00000000000000000000e-01) (289, 5, 5.00000000000000000000e-01) (289, 5, 5.00000000000000000000e-01) (289, 5, 5.00000000000000000000e-01) (289, 5, 5.00000000000000000000e-01) (289, 5, 5.00000000000000000000e-01) (289, 5, 5.00000000000000000000e-01) (289, 5, 5.00000000000000000000e-01) (289, 5, 5.00000000000000000000e-01) (289, 5, 5.00000000000000000000e-01) (289, 5, 5.00000000000000000000e-01) (0, 5, 0.00000000000000000000e+00) (325, 5, 5.00000000000000000000e-01) (0, 5, 0.00000000000000000000e+00) 
connections (connected_to_neuron, weight)=(0, 1.50000000000000000000e+03) (1, -3.30921611748635768890e-03) (2, 2.30525583028793334961e-02) (3, -6.64976099506020545959e-03) (4, 2.82418876886367797852e-02) (5, 7.65818059444427490234e-01) (6, 3.00656706094741821289e-02) (7, 8.18531930446624755859e-01) (8, 7.60203838348388671875e-01) (9, 1.82932943105697631836e-01) (10, 1.89306158572435379028e-02) (11, 7.00086206197738647461e-02) (12, 8.92323434352874755859e-01) (13, 9.02687311172485351562e-02) (14, 1.24160431325435638428e-01) (15, 3.36973369121551513672e-02) (16, 8.36328417062759399414e-02) (17, 1.64930984377861022949e-01) (18, 1.71426504850387573242e-01) (19, 1.44454643130302429199e-01) (20, 1.66670441627502441406e-01) (21, 1.62923753261566162109e-01) (22, 1.58320516347885131836e-01) (23, 1.75429016351699829102e-01) (24, -1.64769887924194335938e-01) (25, 4.94222417473793029785e-02) (26, 2.64703258872032165527e-02) (27, 1.59817993640899658203e-01) (28, 2.16206014156341552734e-02) (29, 1.66758194565773010254e-01) (30, 8.69752883911132812500e-01) (31, 8.28408598899841308594e-01) (32, 8.85144412517547607422e-01) (33, 8.34979355335235595703e-01) (34, 8.23611497879028320312e-01) (35, 8.00345540046691894531e-01) (36, 1.37602046132087707520e-01) (37, 8.94480049610137939453e-01) (38, 8.89749228954315185547e-01) (39, 9.16553199291229248047e-01) (40, 1.09791643917560577393e-01) (41, 9.29957628250122070312e-01) (42, 2.09844969213008880615e-02) (43, 1.03115372359752655029e-01) (44, 8.30135107040405273438e-01) (45, 1.47324189543724060059e-01) (46, 1.01112350821495056152e-01) (47, 1.52582064270973205566e-01) (48, 1.27769768238067626953e-01) (49, 1.20655015110969543457e-01) (50, 1.00649192929267883301e-01) (51, 6.12114705145359039307e-02) (52, 8.42454358935356140137e-02) (53, 7.04331398010253906250e-02) (54, 7.37627372145652770996e-02) (55, 5.20189926028251647949e-02) (56, 1.24800406396389007568e-01) (57, 1.06967002153396606445e-01) (58, 1.18673136457800865173e-02) (59, 1.55955120921134948730e-01) (60, 8.96557271480560302734e-02) (61, 8.38076829910278320312e-01) (62, 4.31465953588485717773e-02) (63, 7.22477659583091735840e-02) (64, 3.74320968985557556152e-02) (65, 1.40785187482833862305e-01) (66, 7.03022703528404235840e-02) (67, 1.79218053817749023438e-01) (68, 6.60552978515625000000e-02) (69, 1.89803000539541244507e-02) (70, 8.91399800777435302734e-01) (71, 1.72106385231018066406e-01) (72, 1.87451809644699096680e-01) (73, 7.72596776485443115234e-01) (74, 7.95462578535079956055e-02) (75, 7.58999586105346679688e-01) (76, 1.14972427487373352051e-01) (77, 2.94335633516311645508e-02) (78, 1.40180168673396110535e-02) (79, 4.48734723031520843506e-02) (80, 1.26876458525657653809e-01) (81, 1.15878961980342864990e-01) (82, 1.42346829175949096680e-01) (83, 4.45100553333759307861e-02) (84, 1.66426628828048706055e-01) (85, 2.45828386396169662476e-02) (86, 5.06028123199939727783e-02) (87, 1.14135891199111938477e-01) (88, 1.57389387488365173340e-01) (89, 1.03771843016147613525e-01) (90, 9.88329872488975524902e-02) (91, 3.58906947076320648193e-02) (92, 1.70992705971002578735e-02) (93, 8.53775292634963989258e-02) (94, 1.03202946484088897705e-01) (95, 6.54876008629798889160e-02) (96, 5.99138289690017700195e-02) (97, 9.12665724754333496094e-01) (98, 4.02476415038108825684e-02) (99, 1.02778983116149902344e+00) (100, 8.10907721519470214844e-01) (101, 1.81544721126556396484e-01) (102, 8.49816620349884033203e-01) (103, 6.49104081094264984131e-03) (104, 8.88042867183685302734e-01) (105, 7.31951951980590820312e-01) (106, 8.40258955955505371094e-01) (107, 7.41221085190773010254e-02) (108, 7.74132370948791503906e-01) (109, 8.57333689928054809570e-02) (110, 1.17671839892864227295e-01) (111, 9.09843802452087402344e-01) (112, 8.33163261413574218750e-01) (113, 6.31106272339820861816e-02) (114, 3.31154391169548034668e-02) (115, -6.77675753831863403320e-03) (116, 9.73197370767593383789e-02) (117, 1.18183933198451995850e-01) (118, 1.22703894972801208496e-01) (119, 4.08119857311248779297e-02) (120, 7.59999811649322509766e-01) (121, -4.17918316088616847992e-04) (122, 8.17623063921928405762e-02) (123, 4.72240820527076721191e-02) (124, 1.61578699946403503418e-01) (125, 1.55588611960411071777e-01) (126, 1.13973893225193023682e-01) (127, 1.71019703149795532227e-01) (128, 1.65421843528747558594e-01) (129, 1.20137050747871398926e-01) (130, 7.76853412389755249023e-02) (131, 1.77961662411689758301e-01) (132, 1.63145169615745544434e-01) (133, 2.10809390991926193237e-02) (134, 1.88399463891983032227e-01) (135, 2.02851113863289356232e-03) (136, 4.94927689433097839355e-02) (137, 7.05048367381095886230e-02) (138, 2.54960060119628906250e-01) (139, 8.18198770284652709961e-02) (140, 2.25756973028182983398e-01) (141, 1.60694003105163574219e-01) (142, -2.66554892063140869141e-01) (143, 1.69009283185005187988e-01) (144, 1.74837112426757812500e-01) (145, 1.01258963346481323242e-01) (146, 1.74239248037338256836e-01) (147, 7.85342633724212646484e-01) (148, 8.19020688533782958984e-01) (149, 8.26679110527038574219e-01) (150, 1.07817105948925018311e-01) (151, 7.26932585239410400391e-02) (152, 8.33287656307220458984e-01) (153, 9.31802213191986083984e-01) (154, 8.52873742580413818359e-01) (155, 7.58958220481872558594e-01) (156, 2.24662378430366516113e-01) (157, 7.85644471645355224609e-01) (158, 7.30800747871398925781e-01) (159, 9.03742074966430664062e-01) (160, 7.66819655895233154297e-01) (161, 1.23891122639179229736e-01) (162, 1.45250782370567321777e-01) (163, 1.62089288234710693359e-01) (164, 1.55032128095626831055e-01) (165, 1.64435282349586486816e-01) (166, 7.60047733783721923828e-02) (167, -1.09518412500619888306e-03) (168, 7.47967362403869628906e-01) (169, 6.08556233346462249756e-02) (170, 8.24784934520721435547e-02) (171, 1.88600093126296997070e-01) (172, 1.28577515482902526855e-01) (173, 8.46080124378204345703e-01) (174, 1.50893047451972961426e-01) (175, 1.11500203609466552734e-01) (176, 8.55303227901458740234e-01) (177, 1.30048036575317382812e-01) (178, 1.29199400544166564941e-02) (179, 1.10908202826976776123e-01) (180, 4.54616397619247436523e-02) (181, 1.20992481708526611328e-01) (182, 1.88402280211448669434e-01) (183, 1.43477201461791992188e-01) (184, 1.09189584851264953613e-01) (185, 1.15380354225635528564e-01) (186, 1.69115111231803894043e-01) (187, 1.07735529541969299316e-01) (188, 1.67012721300125122070e-01) (189, 1.79282292723655700684e-01) (190, 7.24667832255363464355e-02) (191, 9.16824698448181152344e-01) (192, 1.47371709346771240234e-01) (193, 7.52456963062286376953e-01) (194, 9.14969861507415771484e-01) (195, 8.06385755538940429688e-01) (196, 1.84783622622489929199e-01) (197, 6.46069943904876708984e-02) (198, 7.98726230859756469727e-02) (199, 5.16844689846038818359e-02) (200, 8.73109102249145507812e-02) (201, 1.52303069829940795898e-01) (202, 2.17760121449828147888e-03) (203, 2.07508839666843414307e-02) (204, 1.12414494156837463379e-01) (205, 1.84350728988647460938e-01) (206, 7.08608329296112060547e-01) (207, 2.23626241087913513184e-01) (208, 1.46512001752853393555e-01) (209, 8.08967828750610351562e-01) (210, 8.37548971176147460938e-01) (211, 8.81533086299896240234e-01) (212, 8.99444699287414550781e-01) (213, 9.05047357082366943359e-01) (214, 1.22162759304046630859e-01) (215, 7.95528769493103027344e-01) (216, 8.58654499053955078125e-01) (217, 1.07092775404453277588e-01) (218, 9.21517610549926757812e-01) (219, 1.95491820573806762695e-01) (220, 8.82264971733093261719e-02) (221, 7.52710225060582160950e-03) (222, 1.71325549483299255371e-01) (223, 1.68969333171844482422e-01) (224, 7.14662075042724609375e-02) (225, 1.53597161173820495605e-01) (226, 7.37427055835723876953e-01) (227, 6.05211928486824035645e-02) (228, 1.55692145228385925293e-01) (229, 1.10144205391407012939e-01) (230, 1.14075332880020141602e-01) (231, 3.60173918306827545166e-02) (232, 5.43884783983230590820e-02) (233, 8.82228165864944458008e-02) (234, 1.32849201560020446777e-01) (235, 2.26263359189033508301e-01) (236, 9.00232270359992980957e-02) (237, 8.95595028996467590332e-02) (238, 1.67785346508026123047e-01) (239, 1.68393388390541076660e-01) (240, 8.43000531196594238281e-01) (241, 1.06096819043159484863e-01) (242, 1.17903396487236022949e-01) (243, 3.81652861833572387695e-02) (244, 1.50553405284881591797e-01) (245, 1.64644718170166015625e-02) (246, 1.04205727577209472656e-01) (247, 1.75565242767333984375e-01) (248, 8.21604356169700622559e-02) (249, 7.87213325500488281250e-01) (250, 1.58594250679016113281e-01) (251, 1.08126871287822723389e-01) (252, 8.41500401496887207031e-01) (253, 9.47814285755157470703e-01) (254, 8.17982733249664306641e-01) (255, 9.53752279281616210938e-01) (256, 7.86999583244323730469e-01) (257, 9.17225956916809082031e-01) (258, 7.78200387954711914062e-01) (259, 7.14040219783782958984e-01) (260, 7.59318232536315917969e-01) (261, 9.11795794963836669922e-01) (262, 7.58485853672027587891e-01) (263, 8.53321433067321777344e-01) (264, 7.99380302429199218750e-01) (265, 8.52722227573394775391e-01) (266, 8.54804277420043945312e-01) (267, 7.91157126426696777344e-01) (268, 7.59696900844573974609e-01) (269, 2.24444307386875152588e-02) (270, 6.62356495857238769531e-01) (271, 1.42556399106979370117e-01) (272, 7.96613216400146484375e-01) (273, 1.71999961137771606445e-01) (274, 3.54868709109723567963e-03) (275, 8.31763505935668945312e-01) (276, 1.73229813575744628906e-01) (277, 9.94247943162918090820e-02) (278, 7.76032686233520507812e-01) (279, 7.11193457245826721191e-02) (280, 8.23660075664520263672e-01) (281, 7.68591701984405517578e-01) (282, 7.33415067195892333984e-01) (283, 6.85681223869323730469e-01) (284, 7.73724615573883056641e-01) (285, 8.43444526195526123047e-01) (286, 7.34871685504913330078e-01) (287, -7.59407505393028259277e-03) (288, -5.47718256711959838867e-02) (0, 1.50000000000000000000e+03) (1, 5.36255300045013427734e-01) (2, 6.34124934673309326172e-01) (3, 5.96639215946197509766e-01) (4, 5.79199492931365966797e-01) (5, -5.45382536947727203369e-02) (6, 6.31823778152465820312e-01) (7, 8.52938666939735412598e-02) (8, 9.12372115999460220337e-03) (9, 7.11871147155761718750e-01) (10, 5.68617999553680419922e-01) (11, 6.55693471431732177734e-01) (12, -7.26510807871818542480e-02) (13, 7.22366034984588623047e-01) (14, 5.51683902740478515625e-01) (15, 7.22347021102905273438e-01) (16, 7.22310185432434082031e-01) (17, 5.90428411960601806641e-01) (18, 6.93719685077667236328e-01) (19, 6.41560554504394531250e-01) (20, 6.52864754199981689453e-01) (21, 5.84118485450744628906e-01) (22, 6.05523169040679931641e-01) (23, 6.37919425964355468750e-01) (24, 6.30480289459228515625e-01) (25, 7.30984151363372802734e-01) (26, 6.05998396873474121094e-01) (27, 5.46209633350372314453e-01) (28, 5.81484019756317138672e-01) (29, 5.95709681510925292969e-01) (30, 1.99437066912651062012e-02) (31, -4.09925132989883422852e-02) (32, -1.37975839897990226746e-02) (33, -8.53975489735603332520e-02) (34, 3.73019315302371978760e-02) (35, 7.10463821887969970703e-02) (36, 5.67114174365997314453e-01) (37, -3.94312255084514617920e-02) (38, 4.26514483988285064697e-02) (39, 4.53073829412460327148e-02) (40, 5.35998463630676269531e-01) (41, 8.63217636942863464355e-02) (42, 5.72948336601257324219e-01) (43, 5.72251915931701660156e-01) (44, 7.93700963258743286133e-02) (45, 5.86934685707092285156e-01) (46, 7.26332247257232666016e-01) (47, 6.83141291141510009766e-01) (48, 6.37157559394836425781e-01) (49, 7.33651876449584960938e-01) (50, 5.93466699123382568359e-01) (51, 7.73506760597229003906e-01) (52, 5.72004079818725585938e-01) (53, 6.92962110042572021484e-01) (54, 6.90816581249237060547e-01) (55, 6.68829560279846191406e-01) (56, 6.93194627761840820312e-01) (57, 5.71850240230560302734e-01) (58, 6.74384236335754394531e-01) (59, 5.81916928291320800781e-01) (60, 6.60381853580474853516e-01) (61, -5.62935955822467803955e-02) (62, 6.20210826396942138672e-01) (63, 4.62248504161834716797e-01) (64, 5.64748108386993408203e-01) (65, 5.57002484798431396484e-01) (66, 6.59222781658172607422e-01) (67, 5.60858607292175292969e-01) (68, 5.74158728122711181641e-01) (69, 5.83602845668792724609e-01) (70, 1.08418554067611694336e-01) (71, 5.58539152145385742188e-01) (72, 5.33364832401275634766e-01) (73, 2.50923130661249160767e-02) (74, 5.95130503177642822266e-01) (75, 6.55812621116638183594e-02) (76, 6.08018815517425537109e-01) (77, 6.37264847755432128906e-01) (78, 6.45648002624511718750e-01) (79, 5.51391601562500000000e-01) (80, 8.79417181015014648438e-01) (81, 7.05685198307037353516e-01) (82, 6.27163410186767578125e-01) (83, 6.91096782684326171875e-01) (84, 9.09261226654052734375e-01) (85, 5.72590708732604980469e-01) (86, 7.61655867099761962891e-01) (87, 6.15125000476837158203e-01) (88, 6.63530886173248291016e-01) (89, 5.40413320064544677734e-01) (90, 7.46313750743865966797e-01) (91, 5.55325686931610107422e-01) (92, 5.67484557628631591797e-01) (93, 7.21871316432952880859e-01) (94, 5.59021532535552978516e-01) (95, 6.00455462932586669922e-01) (96, 5.49515962600708007812e-01) (97, 8.02860110998153686523e-02) (98, 6.61438465118408203125e-01) (99, 4.10906821489334106445e-02) (100, -3.17316092550754547119e-02) (101, 6.54897391796112060547e-01) (102, 2.55423206835985183716e-02) (103, 5.86906194686889648438e-01) (104, 6.75706043839454650879e-02) (105, 1.02374427020549774170e-01) (106, -5.61267510056495666504e-02) (107, 5.45050621032714843750e-01) (108, 1.25702330842614173889e-02) (109, 6.57222270965576171875e-01) (110, 5.79445540904998779297e-01) (111, 1.04085326194763183594e-01) (112, 5.15118017792701721191e-02) (113, 6.45354092121124267578e-01) (114, 6.62208080291748046875e-01) (115, 5.42749643325805664062e-01) (116, 6.86726152896881103516e-01) (117, 7.06478178501129150391e-01) (118, 6.46450698375701904297e-01) (119, 5.81041514873504638672e-01) (120, 1.46780505776405334473e-01) (121, 5.70969045162200927734e-01) (122, 5.99319517612457275391e-01) (123, 5.45777857303619384766e-01) (124, 6.68103277683258056641e-01) (125, 8.24894189834594726562e-01) (126, 6.22262656688690185547e-01) (127, 5.95353364944458007812e-01) (128, 5.74856460094451904297e-01) (129, 7.02736794948577880859e-01) (130, 8.33246052265167236328e-01) (131, 5.98549365997314453125e-01) (132, 7.13397085666656494141e-01) (133, 5.32754123210906982422e-01) (134, 6.40377342700958251953e-01) (135, 6.24412655830383300781e-01) (136, 6.03281795978546142578e-01) (137, 6.69854342937469482422e-01) (138, 6.42994880676269531250e-01) (139, 6.21325910091400146484e-01) (140, 5.85404992103576660156e-01) (141, 6.74491286277770996094e-01) (142, 6.05634033679962158203e-01) (143, 6.84795856475830078125e-01) (144, 6.27052068710327148438e-01) (145, 5.20437777042388916016e-01) (146, 7.15793311595916748047e-01) (147, 1.42348706722259521484e-01) (148, 1.34249776601791381836e-01) (149, 6.70140935108065605164e-03) (150, 6.11682295799255371094e-01) (151, 7.26114511489868164062e-01) (152, 4.47902083396911621094e-02) (153, 7.01354518532752990723e-02) (154, 1.30117803812026977539e-01) (155, 8.91189053654670715332e-02) (156, 6.72257483005523681641e-01) (157, 1.85493882745504379272e-02) (158, 1.43017649650573730469e-01) (159, 2.41639707237482070923e-02) (160, 4.60852086544036865234e-02) (161, 6.78897202014923095703e-01) (162, 6.99600994586944580078e-01) (163, 6.03579401969909667969e-01) (164, 6.95333123207092285156e-01) (165, 6.68815433979034423828e-01) (166, 7.06389188766479492188e-01) (167, 7.05957591533660888672e-01) (168, -4.14164923131465911865e-02) (169, 6.31759703159332275391e-01) (170, 6.04162037372589111328e-01) (171, 6.42267346382141113281e-01) (172, 7.72082030773162841797e-01) (173, 2.64464527368545532227e-01) (174, 5.69611787796020507812e-01) (175, 9.11447167396545410156e-01) (176, 5.23768886923789978027e-02) (177, 5.51106214523315429688e-01) (178, 6.82204186916351318359e-01) (179, 6.82603240013122558594e-01) (180, 6.82243406772613525391e-01) (181, 5.98027765750885009766e-01) (182, 6.76609814167022705078e-01) (183, 5.98608553409576416016e-01) (184, 5.28582751750946044922e-01) (185, 6.80171370506286621094e-01) (186, 5.66806435585021972656e-01) (187, 5.95398664474487304688e-01) (188, 5.88119864463806152344e-01) (189, 5.97184479236602783203e-01) (190, 6.97775900363922119141e-01) (191, 9.30607244372367858887e-02) (192, 5.16685903072357177734e-01) (193, 2.69479870796203613281e-01) (194, -1.87670886516571044922e-02) (195, 9.27500277757644653320e-02) (196, 6.03182733058929443359e-01) (197, 6.54430747032165527344e-01) (198, 7.08749473094940185547e-01) (199, 7.36902534961700439453e-01) (200, 6.53298020362854003906e-01) (201, 5.46613216400146484375e-01) (202, 5.47549843788146972656e-01) (203, 8.81204843521118164062e-01) (204, 6.91308319568634033203e-01) (205, 6.48206889629364013672e-01) (206, 4.41082864999771118164e-02) (207, 7.31147050857543945312e-01) (208, 7.40646243095397949219e-01) (209, 6.48710429668426513672e-02) (210, -2.32189781963825225830e-02) (211, -3.66639047861099243164e-02) (212, 1.15428552031517028809e-01) (213, -4.86258082091808319092e-02) (214, 5.55723726749420166016e-01) (215, -8.49047899246215820312e-02) (216, 1.11362971365451812744e-01) (217, 7.71460056304931640625e-01) (218, -1.64149664342403411865e-02) (219, 5.70366442203521728516e-01) (220, 6.30605220794677734375e-01) (221, 7.45839297771453857422e-01) (222, 7.19732224941253662109e-01) (223, 5.73253214359283447266e-01) (224, 7.10845053195953369141e-01) (225, 6.55749261379241943359e-01) (226, 9.31850746273994445801e-02) (227, 5.79552531242370605469e-01) (228, 6.07592761516571044922e-01) (229, 6.99695587158203125000e-01) (230, 7.86129593849182128906e-01) (231, 7.15228915214538574219e-01) (232, 6.83762073516845703125e-01) (233, 5.13275265693664550781e-01) (234, 7.95126020908355712891e-01) (235, 7.30947196483612060547e-01) (236, 6.78819775581359863281e-01) (237, 6.24827980995178222656e-01) (238, 5.68429410457611083984e-01) (239, 2.57700651884078979492e-01) (240, -4.76768426597118377686e-02) (241, 7.12984561920166015625e-01) (242, 5.49846589565277099609e-01) (243, 5.35504877567291259766e-01) (244, 5.92814803123474121094e-01) (245, 6.54097557067871093750e-01) (246, 5.61235129833221435547e-01) (247, 5.69509148597717285156e-01) (248, 5.68982899188995361328e-01) (249, 1.96774333715438842773e-01) (250, 5.71752607822418212891e-01) (251, 8.00209641456604003906e-01) (252, 2.80694793909788131714e-02) (253, -1.58853214234113693237e-02) (254, 2.14631050825119018555e-01) (255, 2.49328166246414184570e-02) (256, -9.97210387140512466431e-03) (257, 3.95101979374885559082e-02) (258, 2.64172762632369995117e-01) (259, 4.58782985806465148926e-02) (260, -4.69298996031284332275e-02) (261, 4.33544591069221496582e-02) (262, 2.26408809423446655273e-01) (263, 1.11365303397178649902e-01) (264, 2.65223920345306396484e-01) (265, 1.97772696614265441895e-01) (266, 2.88961023092269897461e-01) (267, 2.67776548862457275391e-01) (268, 1.18411272764205932617e-01) (269, 6.43043696880340576172e-01) (270, 1.27970293164253234863e-01) (271, 5.50224304199218750000e-01) (272, 2.84495592117309570312e-01) (273, 4.92849498987197875977e-01) (274, 5.94993054866790771484e-01) (275, 6.69615156948566436768e-03) (276, 5.75577676296234130859e-01) (277, 5.99474668502807617188e-01) (278, 3.71974483132362365723e-02) (279, 6.67214274406433105469e-01) (280, 2.23227649927139282227e-01) (281, 3.34480434656143188477e-01) (282, 1.41491115093231201172e-01) (283, 7.86663442850112915039e-02) (284, 2.53385722637176513672e-01) (285, 2.56068408489227294922e-01) (286, 2.19420969486236572266e-01) (287, 5.87904334068298339844e-01) (288, 5.15627920627593994141e-01) (0, 1.50000000000000000000e+03) (1, 5.31276881694793701172e-01) (2, 5.98324894905090332031e-01) (3, 5.39937973022460937500e-01) (4, 6.46033883094787597656e-01) (5, 8.60115978866815567017e-04) (6, 6.39143943786621093750e-01) (7, -1.01736061275005340576e-01) (8, 8.89923200011253356934e-02) (9, 5.82005798816680908203e-01) (10, 5.39342761039733886719e-01) (11, 6.15226089954376220703e-01) (12, 6.28701522946357727051e-02) (13, 5.75365781784057617188e-01) (14, 6.03103339672088623047e-01) (15, 6.24755561351776123047e-01) (16, 6.29382610321044921875e-01) (17, 6.54337406158447265625e-01) (18, 6.73442006111145019531e-01) (19, 7.22041368484497070312e-01) (20, 5.89845299720764160156e-01) (21, 6.26910865306854248047e-01) (22, 6.73125207424163818359e-01) (23, 5.29362916946411132812e-01) (24, 6.77521109580993652344e-01) (25, 5.82538843154907226562e-01) (26, 5.48314213752746582031e-01) (27, 5.97956180572509765625e-01) (28, 5.19135951995849609375e-01) (29, 6.05136334896087646484e-01) (30, 3.65882217884063720703e-02) (31, 6.95250704884529113770e-02) (32, -9.63734742254018783569e-03) (33, 9.27172675728797912598e-02) (34, 9.01311933994293212891e-02) (35, -5.73166161775588989258e-02) (36, 6.04057848453521728516e-01) (37, 2.19406634569168090820e-02) (38, -7.41326957941055297852e-02) (39, -3.75731140375137329102e-02) (40, 6.66998803615570068359e-01) (41, -5.87921030819416046143e-02) (42, 6.49600505828857421875e-01) (43, 6.40397191047668457031e-01) (44, -1.43084339797496795654e-02) (45, 7.15005934238433837891e-01) (46, 8.96267950534820556641e-01) (47, 6.96163237094879150391e-01) (48, 6.29452347755432128906e-01) (49, 6.83927834033966064453e-01) (50, 6.86511039733886718750e-01) (51, 9.02781963348388671875e-01) (52, 5.65072417259216308594e-01) (53, 6.54067039489746093750e-01) (54, 7.11163520812988281250e-01) (55, 7.09681630134582519531e-01) (56, 7.06142187118530273438e-01) (57, 5.34827589988708496094e-01) (58, 5.66982626914978027344e-01) (59, 7.32629060745239257812e-01) (60, 6.32785916328430175781e-01) (61, 5.36502599716186523438e-02) (62, 6.78226590156555175781e-01) (63, 6.38630747795104980469e-01) (64, 6.56237125396728515625e-01) (65, 6.70679271221160888672e-01) (66, 7.07357645034790039062e-01) (67, 6.88919365406036376953e-01) (68, 5.50814568996429443359e-01) (69, 7.15671062469482421875e-01) (70, -4.60291355848312377930e-02) (71, 6.66701555252075195312e-01) (72, 5.19719541072845458984e-01) (73, 1.47296786308288574219e-01) (74, 5.71809947490692138672e-01) (75, -3.98203842341899871826e-02) (76, 6.58294439315795898438e-01) (77, 5.84125936031341552734e-01) (78, 5.52121102809906005859e-01) (79, 5.93590319156646728516e-01) (80, 9.73716855049133300781e-01) (81, 7.05257892608642578125e-01) (82, 5.99009156227111816406e-01) (83, 5.81302285194396972656e-01) (84, 8.69938850402832031250e-01) (85, 5.64783573150634765625e-01) (86, 8.92165601253509521484e-01) (87, 5.88461995124816894531e-01) (88, 6.18349909782409667969e-01) (89, 5.64951539039611816406e-01) (90, 6.69962525367736816406e-01) (91, 6.82899951934814453125e-01) (92, 7.01084315776824951172e-01) (93, 9.06198024749755859375e-01) (94, 6.62518084049224853516e-01) (95, 6.25544369220733642578e-01) (96, 6.49597406387329101562e-01) (97, 3.24930325150489807129e-02) (98, 6.14960312843322753906e-01) (99, 1.17827795445919036865e-01) (100, 5.28980828821659088135e-02) (101, 6.53971493244171142578e-01) (102, 1.04419328272342681885e-02) (103, 6.58262610435485839844e-01) (104, -1.11508117988705635071e-02) (105, 6.35816752910614013672e-02) (106, 9.36299487948417663574e-02) (107, 5.16337454319000244141e-01) (108, 1.20638556778430938721e-01) (109, 7.27696537971496582031e-01) (110, 5.93570351600646972656e-01) (111, 1.09290882945060729980e-01) (112, 1.21558815240859985352e-01) (113, 6.31324648857116699219e-01) (114, 5.57619214057922363281e-01) (115, 5.73474347591400146484e-01) (116, 6.64889514446258544922e-01) (117, 5.32946765422821044922e-01) (118, 6.50512397289276123047e-01) (119, 7.14375078678131103516e-01) (120, 1.60039424896240234375e-01) (121, 6.98679506778717041016e-01) (122, 6.60227239131927490234e-01) (123, 5.29502153396606445312e-01) (124, 7.74257004261016845703e-01) (125, 7.90228605270385742188e-01) (126, 6.31075978279113769531e-01) (127, 6.07942283153533935547e-01) (128, 6.92915380001068115234e-01) (129, 8.65339159965515136719e-01) (130, 7.22571969032287597656e-01) (131, 6.01074755191802978516e-01) (132, 6.74539029598236083984e-01) (133, 6.06979727745056152344e-01) (134, 7.14526355266571044922e-01) (135, 7.07100450992584228516e-01) (136, 6.38714492321014404297e-01) (137, 7.08140492439270019531e-01) (138, 6.96436166763305664062e-01) (139, 5.65198898315429687500e-01) (140, 6.94165587425231933594e-01) (141, 5.42624831199645996094e-01) (142, 5.53870260715484619141e-01) (143, 6.63603425025939941406e-01) (144, 6.81389331817626953125e-01) (145, 5.64035594463348388672e-01) (146, 7.24828779697418212891e-01) (147, 1.74849435687065124512e-01) (148, 5.05917984992265701294e-03) (149, 2.06893403083086013794e-02) (150, 5.77835738658905029297e-01) (151, 6.46825671195983886719e-01) (152, -1.34269604459404945374e-02) (153, 9.68775078654289245605e-02) (154, 2.34553441405296325684e-01) (155, -5.69059029221534729004e-02) (156, 6.64333879947662353516e-01) (157, -6.82017654180526733398e-02) (158, 2.09418490529060363770e-01) (159, -6.70048817992210388184e-02) (160, -8.42242985963821411133e-02) (161, 6.31412744522094726562e-01) (162, 6.12656652927398681641e-01) (163, 6.40572607517242431641e-01) (164, 7.25285410881042480469e-01) (165, 6.55194759368896484375e-01) (166, 6.26070320606231689453e-01) (167, 5.71342587471008300781e-01) (168, -1.65125224739313125610e-02) (169, 6.05845987796783447266e-01) (170, 6.13367438316345214844e-01) (171, 5.75693309307098388672e-01) (172, 8.14372003078460693359e-01) (173, 8.46524238586425781250e-02) (174, 6.82315766811370849609e-01) (175, 8.08074593544006347656e-01) (176, 5.37827424705028533936e-02) (177, 6.73243999481201171875e-01) (178, 6.11332356929779052734e-01) (179, 5.54900407791137695312e-01) (180, 6.17603302001953125000e-01) (181, 6.92990064620971679688e-01) (182, 6.69617950916290283203e-01) (183, 6.75272643566131591797e-01) (184, 6.50287270545959472656e-01) (185, 5.77615141868591308594e-01) (186, 6.95517003536224365234e-01) (187, 7.09179461002349853516e-01) (188, 5.98812520503997802734e-01) (189, 5.94061195850372314453e-01) (190, 7.20403432846069335938e-01) (191, -1.94075573235750198364e-02) (192, 6.69126152992248535156e-01) (193, 2.05730572342872619629e-01) (194, 1.04502767324447631836e-01) (195, 7.49865695834159851074e-02) (196, 7.25812613964080810547e-01) (197, 6.97381734848022460938e-01) (198, 7.56690204143524169922e-01) (199, 6.84198081493377685547e-01) (200, 6.70172035694122314453e-01) (201, 5.86580991744995117188e-01) (202, 6.27868235111236572266e-01) (203, 7.40839242935180664062e-01) (204, 7.05413699150085449219e-01) (205, 6.41161918640136718750e-01) (206, -1.00401826784946024418e-04) (207, 7.47277498245239257812e-01) (208, 6.56080782413482666016e-01) (209, -5.02096042037010192871e-02) (210, 6.40587285161018371582e-02) (211, 1.32536524906754493713e-02) (212, 9.46190953254699707031e-02) (213, 3.24642471969127655029e-02) (214, 4.82468247413635253906e-01) (215, 1.63934230804443359375e-02) (216, 9.08113196492195129395e-02) (217, 6.28681063652038574219e-01) (218, -7.59874412324279546738e-04) (219, 7.59938478469848632812e-01) (220, 6.84388637542724609375e-01) (221, 7.84366905689239501953e-01) (222, 5.95580816268920898438e-01) (223, 5.79954445362091064453e-01) (224, 6.85745358467102050781e-01) (225, 6.56025528907775878906e-01) (226, 8.24420079588890075684e-02) (227, 6.77553236484527587891e-01) (228, 6.49662137031555175781e-01) (229, 7.36893296241760253906e-01) (230, 6.31425857543945312500e-01) (231, 5.75101077556610107422e-01) (232, 5.78244984149932861328e-01) (233, 4.39292639493942260742e-01) (234, 7.12763011455535888672e-01) (235, 6.39705955982208251953e-01) (236, 7.97792434692382812500e-01) (237, 6.98726594448089599609e-01) (238, 6.91977560520172119141e-01) (239, 3.93084466457366943359e-01) (240, 1.09965741634368896484e-01) (241, 7.24686026573181152344e-01) (242, 6.33150756359100341797e-01) (243, 6.74204647541046142578e-01) (244, 6.86530053615570068359e-01) (245, 6.64146482944488525391e-01) (246, 6.01118028163909912109e-01) (247, 6.42826378345489501953e-01) (248, 6.36723041534423828125e-01) (249, 2.51810610294342041016e-01) (250, 6.34940147399902343750e-01) (251, 7.22047567367553710938e-01) (252, -7.75605961680412292480e-02) (253, 1.23717807233333587646e-01) (254, 1.43927738070487976074e-01) (255, 9.45856124162673950195e-02) (256, -7.21160694956779479980e-02) (257, -4.17552404105663299561e-02) (258, 2.32317134737968444824e-01) (259, 2.45779901742935180664e-02) (260, 1.07592046260833740234e-01) (261, 5.67951388657093048096e-02) (262, 2.65277862548828125000e-01) (263, -3.17634828388690948486e-02) (264, 2.02497854828834533691e-01) (265, 1.54150858521461486816e-01) (266, 2.42192924022674560547e-01) (267, 3.26207548379898071289e-01) (268, 1.51265963912010192871e-01) (269, 7.25081086158752441406e-01) (270, 1.97758357971906661987e-02) (271, 5.39917469024658203125e-01) (272, 1.79535165429115295410e-01) (273, 4.68585461378097534180e-01) (274, 7.23241865634918212891e-01) (275, -3.82646126672625541687e-03) (276, 5.61996102333068847656e-01) (277, 5.67886173725128173828e-01) (278, 9.99919474124908447266e-02) (279, 7.21373021602630615234e-01) (280, 2.42173075675964355469e-01) (281, 2.57640302181243896484e-01) (282, 1.44163966178894042969e-01) (283, -4.53214440494775772095e-03) (284, 1.10117971897125244141e-01) (285, 1.60099536180496215820e-01) (286, 2.08669945597648620605e-01) (287, 5.90181827545166015625e-01) (288, 5.37959933280944824219e-01) (0, 1.50000000000000000000e+03) (1, 7.13479995727539062500e-01) (2, 5.75650691986083984375e-01) (3, 7.10772156715393066406e-01) (4, 6.67105674743652343750e-01) (5, 2.72044166922569274902e-02) (6, 5.49352526664733886719e-01) (7, 7.59929865598678588867e-02) (8, 7.31065571308135986328e-02) (9, 5.50357282161712646484e-01) (10, 5.48266112804412841797e-01) (11, 6.81070446968078613281e-01) (12, -7.51641616225242614746e-02) (13, 5.73982119560241699219e-01) (14, 5.64359247684478759766e-01) (15, 6.61801397800445556641e-01) (16, 5.56019961833953857422e-01) (17, 6.05013310909271240234e-01) (18, 6.96607947349548339844e-01) (19, 6.18514239788055419922e-01) (20, 6.03001415729522705078e-01) (21, 7.04235494136810302734e-01) (22, 5.93858838081359863281e-01) (23, 6.68202638626098632812e-01) (24, 7.31585323810577392578e-01) (25, 6.21663987636566162109e-01) (26, 5.51889419555664062500e-01) (27, 5.55813312530517578125e-01) (28, 5.47510087490081787109e-01) (29, 6.10674560070037841797e-01) (30, 1.74785181879997253418e-02) (31, 5.56118711829185485840e-02) (32, -2.16081514954566955566e-02) (33, 5.36630041897296905518e-02) (34, 4.80394028127193450928e-02) (35, -4.85035665333271026611e-02) (36, 5.87917387485504150391e-01) (37, 8.92381146550178527832e-02) (38, 1.13131806254386901855e-01) (39, -6.99065923690795898438e-02) (40, 7.02616631984710693359e-01) (41, -6.26043230295181274414e-02) (42, 6.83111488819122314453e-01) (43, 7.36863195896148681641e-01) (44, -1.99074484407901763916e-02) (45, 7.09401071071624755859e-01) (46, 8.30099284648895263672e-01) (47, 6.17573559284210205078e-01) (48, 6.07217490673065185547e-01) (49, 6.40307307243347167969e-01) (50, 6.85806572437286376953e-01) (51, 8.60694646835327148438e-01) (52, 5.98776459693908691406e-01) (53, 5.91185331344604492188e-01) (54, 6.07915878295898437500e-01) (55, 5.96707165241241455078e-01) (56, 6.82385563850402832031e-01) (57, 6.34840905666351318359e-01) (58, 6.11865520477294921875e-01) (59, 7.36845970153808593750e-01) (60, 5.38337111473083496094e-01) (61, 7.49923288822174072266e-02) (62, 6.71744108200073242188e-01) (63, 5.31923413276672363281e-01) (64, 6.38824522495269775391e-01) (65, 6.17218554019927978516e-01) (66, 6.09761893749237060547e-01) (67, 6.54652714729309082031e-01) (68, 5.64695775508880615234e-01) (69, 6.04638218879699707031e-01) (70, 8.80843177437782287598e-02) (71, 5.16200482845306396484e-01) (72, 6.04843199253082275391e-01) (73, 1.14366859197616577148e-01) (74, 5.17774939537048339844e-01) (75, 3.87115441262722015381e-02) (76, 6.25217020511627197266e-01) (77, 6.63304567337036132812e-01) (78, 5.53296744823455810547e-01) (79, 7.00738489627838134766e-01) (80, 5.07464349269866943359e-01) (81, 7.22918987274169921875e-01) (82, 6.63698136806488037109e-01) (83, 6.50564432144165039062e-01) (84, 5.23194193840026855469e-01) (85, 7.25905478000640869141e-01) (86, 8.49320232868194580078e-01) (87, 7.19321489334106445312e-01) (88, 6.79804086685180664062e-01) (89, 5.65958678722381591797e-01) (90, 8.05602610111236572266e-01) (91, 6.49905800819396972656e-01) (92, 7.27326810359954833984e-01) (93, 8.32693696022033691406e-01) (94, 7.23746359348297119141e-01) (95, 6.34374260902404785156e-01) (96, 7.22609281539916992188e-01) (97, -4.74840821698307991028e-03) (98, 5.27917385101318359375e-01) (99, 4.72093233838677406311e-03) (100, 1.04269169270992279053e-01) (101, 5.63361704349517822266e-01) (102, -5.38263805210590362549e-02) (103, 5.93374848365783691406e-01) (104, 6.61149099469184875488e-02) (105, -5.40611781179904937744e-02) (106, 1.08905307948589324951e-01) (107, 5.55371880531311035156e-01) (108, 8.21742936968803405762e-02) (109, 5.43534517288208007812e-01) (110, 5.39380669593811035156e-01) (111, 1.06715373694896697998e-01) (112, -4.49419096112251281738e-02) (113, 6.41824007034301757812e-01) (114, 6.23975098133087158203e-01) (115, 5.61752915382385253906e-01) (116, 6.36830091476440429688e-01) (117, 5.55590271949768066406e-01) (118, 5.69813668727874755859e-01) (119, 5.47769725322723388672e-01) (120, 1.84323564171791076660e-01) (121, 5.53620874881744384766e-01) (122, 6.60627782344818115234e-01) (123, 5.79558491706848144531e-01) (124, 7.61577427387237548828e-01) (125, 8.52803111076354980469e-01) (126, 6.89590096473693847656e-01) (127, 6.34209513664245605469e-01) (128, 5.15855193138122558594e-01) (129, 6.99234724044799804688e-01) (130, 8.63443672657012939453e-01) (131, 6.75548911094665527344e-01) (132, 6.17737650871276855469e-01) (133, 6.84243440628051757812e-01) (134, 5.24855911731719970703e-01) (135, 5.27668118476867675781e-01) (136, 5.98897278308868408203e-01) (137, 7.34012842178344726562e-01) (138, 5.56838870048522949219e-01) (139, 6.86355590820312500000e-01) (140, 5.37623047828674316406e-01) (141, 5.49328088760375976562e-01) (142, 6.75369977951049804688e-01) (143, 5.39132416248321533203e-01) (144, 6.97301030158996582031e-01) (145, 5.49161732196807861328e-01) (146, 5.89352667331695556641e-01) (147, 1.63172125816345214844e-01) (148, 1.15784872323274612427e-02) (149, 3.47900833003222942352e-03) (150, 5.98763644695281982422e-01) (151, 6.77888929843902587891e-01) (152, 2.43041794747114181519e-02) (153, 1.18525117635726928711e-01) (154, 3.16180378198623657227e-01) (155, -3.82081009447574615479e-02) (156, 7.46680438518524169922e-01) (157, 7.18039274215698242188e-02) (158, 2.82094806432723999023e-01) (159, 3.93184274435043334961e-02) (160, 9.58376824855804443359e-02) (161, 6.48172020912170410156e-01) (162, 5.98129570484161376953e-01) (163, 5.58294057846069335938e-01) (164, 6.16097390651702880859e-01) (165, 6.45715594291687011719e-01) (166, 5.64359366893768310547e-01) (167, 6.21775507926940917969e-01) (168, -3.57858923962339758873e-04) (169, 6.03573858737945556641e-01) (170, 5.85518658161163330078e-01) (171, 6.33796989917755126953e-01) (172, 8.17675292491912841797e-01) (173, 3.11897277832031250000e-01) (174, 6.15629136562347412109e-01) (175, 8.28132033348083496094e-01) (176, -3.33542115986347198486e-02) (177, 6.70045554637908935547e-01) (178, 6.29001200199127197266e-01) (179, 6.36596143245697021484e-01) (180, 5.97194433212280273438e-01) (181, 7.20798373222351074219e-01) (182, 5.82377254962921142578e-01) (183, 6.92595005035400390625e-01) (184, 7.00249254703521728516e-01) (185, 5.71493864059448242188e-01) (186, 7.32084929943084716797e-01) (187, 6.41488134860992431641e-01) (188, 7.32696890830993652344e-01) (189, 7.02757716178894042969e-01) (190, 5.58972895145416259766e-01) (191, 8.73902812600135803223e-02) (192, 5.91370940208435058594e-01) (193, 2.23719894886016845703e-01) (194, -6.97228312492370605469e-02) (195, 8.83622616529464721680e-02) (196, 7.34015524387359619141e-01) (197, 6.61445260047912597656e-01) (198, 6.21570944786071777344e-01) (199, 7.08794057369232177734e-01) (200, 6.32126629352569580078e-01) (201, 6.21659755706787109375e-01) (202, 7.10970938205718994141e-01) (203, 7.07902669906616210938e-01) (204, 6.30646824836730957031e-01) (205, 6.57174885272979736328e-01) (206, -1.48281557485461235046e-02) (207, 7.46642351150512695312e-01) (208, 6.68895184993743896484e-01) (209, 1.42130106687545776367e-01) (210, -5.34309223294258117676e-02) (211, 6.11059600487351417542e-03) (212, 1.15165114402770996094e-01) (213, 2.69488282501697540283e-02) (214, 4.92196321487426757812e-01) (215, 8.64982977509498596191e-02) (216, 7.88554325699806213379e-02) (217, 6.74429297447204589844e-01) (218, 2.26559769362211227417e-03) (219, 6.81521356105804443359e-01) (220, 6.39147758483886718750e-01) (221, 8.24843108654022216797e-01) (222, 6.25216722488403320312e-01) (223, 6.56643867492675781250e-01) (224, 5.44184625148773193359e-01) (225, 7.11435735225677490234e-01) (226, 4.00682259351015090942e-03) (227, 5.43792188167572021484e-01) (228, 6.69135868549346923828e-01) (229, 6.91388309001922607422e-01) (230, 7.21790552139282226562e-01) (231, 5.56529283523559570312e-01) (232, 5.66559135913848876953e-01) (233, 4.12357002496719360352e-01) (234, 6.59919559955596923828e-01) (235, 7.52624332904815673828e-01) (236, 7.86869645118713378906e-01) (237, 6.29885852336883544922e-01) (238, 6.06004893779754638672e-01) (239, 3.94976139068603515625e-01) (240, 3.26653905212879180908e-02) (241, 7.19273090362548828125e-01) (242, 6.27918541431427001953e-01) (243, 6.16759181022644042969e-01) (244, 6.74730539321899414062e-01) (245, 6.69193983078002929688e-01) (246, 6.13892495632171630859e-01) (247, 6.18002951145172119141e-01) (248, 6.86496853828430175781e-01) (249, 2.66307353973388671875e-01) (250, 5.31401038169860839844e-01) (251, 7.26266205310821533203e-01) (252, -2.27768048644065856934e-02) (253, 4.92476150393486022949e-02) (254, 2.24835932254791259766e-01) (255, 6.53200410306453704834e-03) (256, 1.19183056056499481201e-01) (257, 1.30097150802612304688e-01) (258, 2.09541037678718566895e-01) (259, 3.01149804145097732544e-02) (260, 3.19534018635749816895e-02) (261, 1.24874934554100036621e-01) (262, 2.51944661140441894531e-01) (263, 7.18650817871093750000e-02) (264, 2.43641987442970275879e-01) (265, 2.84142792224884033203e-01) (266, 2.67629325389862060547e-01) (267, 1.40292093157768249512e-01) (268, 2.09839239716529846191e-01) (269, 6.61617875099182128906e-01) (270, 5.18888384103775024414e-02) (271, 5.23169934749603271484e-01) (272, 1.11227408051490783691e-01) (273, 4.94473487138748168945e-01) (274, 6.49192929267883300781e-01) (275, 1.15343831479549407959e-01) (276, 5.92432141304016113281e-01) (277, 7.06331670284271240234e-01) (278, -5.66108012571930885315e-03) (279, 6.01582825183868408203e-01) (280, 1.94848179817199707031e-01) (281, 2.48746618628501892090e-01) (282, 2.28592336177825927734e-01) (283, 2.52343388274312019348e-03) (284, 2.27619662880897521973e-01) (285, 1.25436171889305114746e-01) (286, 1.27205833792686462402e-01) (287, 6.89488828182220458984e-01) (288, 4.73949939012527465820e-01) (0, 1.50000000000000000000e+03) (1, 6.14066541194915771484e-01) (2, 6.35530948638916015625e-01) (3, 6.75569057464599609375e-01) (4, 5.50399541854858398438e-01) (5, -7.11751519702374935150e-04) (6, 5.55293440818786621094e-01) (7, 8.86806473135948181152e-02) (8, 7.06267952919006347656e-02) (9, 5.86519777774810791016e-01) (10, 6.21506869792938232422e-01) (11, 6.16624891757965087891e-01) (12, -7.18878535553812980652e-03) (13, 6.30475282669067382812e-01) (14, 6.31233930587768554688e-01) (15, 5.56188523769378662109e-01) (16, 5.38691878318786621094e-01) (17, 5.91430306434631347656e-01) (18, 6.21729612350463867188e-01) (19, 5.38677990436553955078e-01) (20, 6.83765113353729248047e-01) (21, 7.09566831588745117188e-01) (22, 6.66298508644104003906e-01) (23, 5.39700925350189208984e-01) (24, 6.20602190494537353516e-01) (25, 7.01872885227203369141e-01) (26, 5.41261315345764160156e-01) (27, 6.10909938812255859375e-01) (28, 5.46720981597900390625e-01) (29, 6.99353516101837158203e-01) (30, 8.56566242873668670654e-03) (31, -4.84602265059947967529e-02) (32, -3.23426574468612670898e-02) (33, -9.53696295619010925293e-02) (34, 1.08033783733844757080e-01) (35, 2.37014405429363250732e-02) (36, 6.10968649387359619141e-01) (37, -4.44992557168006896973e-02) (38, -1.70989986509084701538e-03) (39, -4.93350401520729064941e-02) (40, 6.05951011180877685547e-01) (41, 9.56086590886116027832e-02) (42, 6.39237344264984130859e-01) (43, 7.07966625690460205078e-01) (44, -4.92676533758640289307e-03) (45, 5.32773256301879882812e-01) (46, 8.95589888095855712891e-01) (47, 6.14854276180267333984e-01) (48, 5.83998382091522216797e-01) (49, 6.31218075752258300781e-01) (50, 6.21826827526092529297e-01) (51, 7.51331865787506103516e-01) (52, 5.95018625259399414062e-01) (53, 5.82097709178924560547e-01) (54, 5.70339262485504150391e-01) (55, 6.83080852031707763672e-01) (56, 5.53218901157379150391e-01) (57, 5.86636185646057128906e-01) (58, 5.52963495254516601562e-01) (59, 6.07178270816802978516e-01) (60, 5.78811585903167724609e-01) (61, 1.09077496454119682312e-02) (62, 6.38004362583160400391e-01) (63, 5.61663210391998291016e-01) (64, 6.21977329254150390625e-01) (65, 6.44203484058380126953e-01) (66, 7.11762547492980957031e-01) (67, 6.61942183971405029297e-01) (68, 6.58346652984619140625e-01) (69, 5.92184484004974365234e-01) (70, 1.14859864115715026855e-01) (71, 5.12679398059844970703e-01) (72, 5.50877034664154052734e-01) (73, 9.83356907963752746582e-02) (74, 6.84479236602783203125e-01) (75, 9.20570688322186470032e-04) (76, 6.31192207336425781250e-01) (77, 6.96676015853881835938e-01) (78, 7.11293637752532958984e-01) (79, 7.16801464557647705078e-01) (80, 5.31746685504913330078e-01) (81, 5.98973512649536132812e-01) (82, 5.70314168930053710938e-01) (83, 6.71088814735412597656e-01) (84, 8.91685009002685546875e-01) (85, 5.95264256000518798828e-01) (86, 7.55527198314666748047e-01) (87, 6.57572925090789794922e-01) (88, 7.00638890266418457031e-01) (89, 6.12864255905151367188e-01) (90, 8.14022958278656005859e-01) (91, 7.11214780807495117188e-01) (92, 7.07136631011962890625e-01) (93, 8.07374238967895507812e-01) (94, 6.14423453807830810547e-01) (95, 5.97336769104003906250e-01) (96, 7.24274814128875732422e-01) (97, -1.14003494381904602051e-02) (98, 5.59403657913208007812e-01) (99, 1.00037164986133575439e-01) (100, 8.51635560393333435059e-02) (101, 5.59303820133209228516e-01) (102, 3.86291332542896270752e-02) (103, 7.21313655376434326172e-01) (104, 4.47072833776473999023e-02) (105, 5.31630450859665870667e-03) (106, -3.75057477504014968872e-03) (107, 5.40489077568054199219e-01) (108, -2.50766817480325698853e-02) (109, 5.89773118495941162109e-01) (110, 5.40560722351074218750e-01) (111, 2.34159287065267562866e-02) (112, 7.69476741552352905273e-02) (113, 5.49620151519775390625e-01) (114, 5.61530768871307373047e-01) (115, 5.51012516021728515625e-01) (116, 6.13665997982025146484e-01) (117, 5.99672198295593261719e-01) (118, 6.97161495685577392578e-01) (119, 5.45440375804901123047e-01) (120, 1.12425021827220916748e-01) (121, 6.89389169216156005859e-01) (122, 7.19607472419738769531e-01) (123, 6.51074409484863281250e-01) (124, 6.72026216983795166016e-01) (125, 8.02668452262878417969e-01) (126, 7.24440574645996093750e-01) (127, 5.46323776245117187500e-01) (128, 6.59231841564178466797e-01) (129, 7.02879905700683593750e-01) (130, 8.70874226093292236328e-01) (131, 5.99820017814636230469e-01) (132, 6.17679357528686523438e-01) (133, 5.83469212055206298828e-01) (134, 5.76055347919464111328e-01) (135, 7.06999659538269042969e-01) (136, 7.56938636302947998047e-01) (137, 6.73155069351196289062e-01) (138, 5.20386755466461181641e-01) (139, 5.37707567214965820312e-01) (140, 7.21256613731384277344e-01) (141, 5.12998580932617187500e-01) (142, 6.43753409385681152344e-01) (143, 6.46805882453918457031e-01) (144, 5.69825410842895507812e-01) (145, 6.55100762844085693359e-01) (146, 6.85746908187866210938e-01) (147, 2.12061837315559387207e-01) (148, -3.76704111695289611816e-02) (149, 2.73658540099859237671e-02) (150, 6.45794332027435302734e-01) (151, 7.19615995883941650391e-01) (152, -1.56467817723751068115e-02) (153, 2.45355479419231414795e-02) (154, 2.29423433542251586914e-01) (155, 3.21264937520027160645e-02) (156, 8.02719354629516601562e-01) (157, 1.95255782455205917358e-02) (158, 2.65110135078430175781e-01) (159, 3.87339703738689422607e-02) (160, 4.72044833004474639893e-02) (161, 6.38214707374572753906e-01) (162, 5.21815955638885498047e-01) (163, 7.09248006343841552734e-01) (164, 7.05365598201751708984e-01) (165, 6.20601475238800048828e-01) (166, 6.93744063377380371094e-01) (167, 6.69646918773651123047e-01) (168, -8.63298028707504272461e-02) (169, 6.96669459342956542969e-01) (170, 6.83861196041107177734e-01) (171, 7.33205616474151611328e-01) (172, 8.75335752964019775391e-01) (173, -4.17131185531616210938e-02) (174, 6.22711241245269775391e-01) (175, 9.57846283912658691406e-01) (176, -5.96450455486774444580e-02) (177, 5.74060738086700439453e-01) (178, 5.97944676876068115234e-01) (179, 5.60163021087646484375e-01) (180, 7.25118458271026611328e-01) (181, 5.48401832580566406250e-01) (182, 5.48218727111816406250e-01) (183, 5.80940008163452148438e-01) (184, 6.32835388183593750000e-01) (185, 6.50030791759490966797e-01) (186, 6.90927743911743164062e-01) (187, 6.30113065242767333984e-01) (188, 5.58955371379852294922e-01) (189, 6.44584655761718750000e-01) (190, 5.46698987483978271484e-01) (191, 6.50155544281005859375e-02) (192, 5.22868394851684570312e-01) (193, 1.35446861386299133301e-01) (194, 5.88564388453960418701e-02) (195, 1.08809068799018859863e-01) (196, 6.20791792869567871094e-01) (197, 7.19409167766571044922e-01) (198, 6.89189016819000244141e-01) (199, 7.09435045719146728516e-01) (200, 5.83023130893707275391e-01) (201, 6.06380343437194824219e-01) (202, 6.11020803451538085938e-01) (203, 7.16459810733795166016e-01) (204, 6.66114926338195800781e-01) (205, 7.64306724071502685547e-01) (206, -7.60863795876502990723e-02) (207, 7.55656480789184570312e-01) (208, 6.80042207241058349609e-01) (209, 6.04167506098747253418e-02) (210, 7.79882669448852539062e-02) (211, -5.47344572842121124268e-02) (212, 5.96242845058441162109e-02) (213, 1.24158777296543121338e-01) (214, 5.19984841346740722656e-01) (215, -3.73799763619899749756e-02) (216, 5.52670694887638092041e-02) (217, 6.61060214042663574219e-01) (218, 6.74389079213142395020e-02) (219, 6.84191584587097167969e-01) (220, 7.67233490943908691406e-01) (221, 8.78956854343414306641e-01) (222, 6.05512201786041259766e-01) (223, 7.15756893157958984375e-01) (224, 7.09622442722320556641e-01) (225, 6.20624899864196777344e-01) (226, 5.25374598801136016846e-02) (227, 5.95775723457336425781e-01) (228, 6.35974586009979248047e-01) (229, 6.40375316143035888672e-01) (230, 7.74885296821594238281e-01) (231, 6.74264550209045410156e-01) (232, 6.84020102024078369141e-01) (233, 5.81210494041442871094e-01) (234, 7.86211788654327392578e-01) (235, 7.05255031585693359375e-01) (236, 6.47146105766296386719e-01) (237, 6.94919824600219726562e-01) (238, 5.66932141780853271484e-01) (239, 4.66085255146026611328e-01) (240, 1.67583916336297988892e-02) (241, 8.13184380531311035156e-01) (242, 6.38784945011138916016e-01) (243, 5.45314133167266845703e-01) (244, 6.66516602039337158203e-01) (245, 7.06826388835906982422e-01) (246, 6.19524061679840087891e-01) (247, 5.86200654506683349609e-01) (248, 5.36096394062042236328e-01) (249, 1.38012170791625976562e-01) (250, 7.02268958091735839844e-01) (251, 8.79637360572814941406e-01) (252, 1.03292942047119140625e-01) (253, 9.00639395695179700851e-04) (254, 2.38155975937843322754e-01) (255, 9.89874526858329772949e-02) (256, -3.02723124623298645020e-02) (257, 2.34011430293321609497e-02) (258, 1.53654396533966064453e-01) (259, 5.39599321782588958740e-02) (260, 7.42443129420280456543e-02) (261, 1.22083112597465515137e-01) (262, 1.92597314715385437012e-01) (263, 3.00500765442848205566e-02) (264, 1.93994656205177307129e-01) (265, 1.54448762536048889160e-01) (266, 3.83315414190292358398e-01) (267, 1.51459336280822753906e-01) (268, 1.47757172584533691406e-01) (269, 5.35341620445251464844e-01) (270, 1.33941367268562316895e-01) (271, 6.44961059093475341797e-01) (272, 2.77924597263336181641e-01) (273, 3.90208721160888671875e-01) (274, 6.96635007858276367188e-01) (275, 7.38270431756973266602e-02) (276, 5.24005293846130371094e-01) (277, 5.59138178825378417969e-01) (278, 1.21019802987575531006e-01) (279, 5.58122217655181884766e-01) (280, 1.19626849889755249023e-01) (281, 3.45232039690017700195e-01) (282, 1.12145967781543731689e-01) (283, 5.24360761046409606934e-02) (284, 7.63319730758666992188e-02) (285, 2.48620510101318359375e-01) (286, 6.99288398027420043945e-02) (287, 5.98239421844482421875e-01) (288, 4.90438252687454223633e-01) (0, 1.50000000000000000000e+03) (1, 5.49693644046783447266e-01) (2, 6.94310128688812255859e-01) (3, 5.59147477149963378906e-01) (4, 6.30639076232910156250e-01) (5, 1.72066092491149902344e-02) (6, 5.89224576950073242188e-01) (7, 3.98242510855197906494e-02) (8, 5.14221028424799442291e-07) (9, 6.31451964378356933594e-01) (10, 7.08130300045013427734e-01) (11, 6.18784308433532714844e-01) (12, -8.05761218070983886719e-02) (13, 6.35479629039764404297e-01) (14, 6.00090444087982177734e-01) (15, 5.75720191001892089844e-01) (16, 5.92103064060211181641e-01) (17, 5.18455564975738525391e-01) (18, 5.72834551334381103516e-01) (19, 6.45064711570739746094e-01) (20, 5.37471294403076171875e-01) (21, 6.17530465126037597656e-01) (22, 6.97934091091156005859e-01) (23, 6.91270470619201660156e-01) (24, 6.38795554637908935547e-01) (25, 5.84105730056762695312e-01) (26, 5.41228890419006347656e-01) (27, 5.49382925033569335938e-01) (28, 5.71210920810699462891e-01) (29, 6.08385920524597167969e-01) (30, -3.27788107097148895264e-02) (31, 6.20806962251663208008e-02) (32, 1.23169915750622749329e-02) (33, -7.87244215607643127441e-02) (34, 1.01896382868289947510e-01) (35, -5.10451085865497589111e-02) (36, 6.45532131195068359375e-01) (37, -1.57263297587633132935e-02) (38, 7.50940889120101928711e-02) (39, 1.15005299448966979980e-01) (40, 6.78374707698822021484e-01) (41, 5.87331987917423248291e-02) (42, 6.05014801025390625000e-01) (43, 7.07038879394531250000e-01) (44, -3.54613289237022399902e-02) (45, 6.67726576328277587891e-01) (46, 7.14344859123229980469e-01) (47, 6.38102829456329345703e-01) (48, 6.46291196346282958984e-01) (49, 6.01397216320037841797e-01) (50, 5.51932096481323242188e-01) (51, 8.67246985435485839844e-01) (52, 6.73161149024963378906e-01) (53, 5.44001817703247070312e-01) (54, 6.38222396373748779297e-01) (55, 5.79044997692108154297e-01) (56, 5.97192823886871337891e-01) (57, 6.54801130294799804688e-01) (58, 5.90677261352539062500e-01) (59, 6.76042377948760986328e-01) (60, 5.56008875370025634766e-01) (61, 9.91414487361907958984e-03) (62, 6.17749452590942382812e-01) (63, 5.83990573883056640625e-01) (64, 6.34202003479003906250e-01) (65, 6.18413448333740234375e-01) (66, 6.58518612384796142578e-01) (67, 5.08358359336853027344e-01) (68, 6.20959639549255371094e-01) (69, 6.14983141422271728516e-01) (70, -7.31794834136962890625e-02) (71, 5.87427198886871337891e-01) (72, 5.36428272724151611328e-01) (73, 7.46446102857589721680e-02) (74, 5.59083878993988037109e-01) (75, -4.60428930819034576416e-02) (76, 5.42967259883880615234e-01) (77, 5.90354919433593750000e-01) (78, 6.89213275909423828125e-01) (79, 6.90497636795043945312e-01) (80, 8.96473228931427001953e-01) (81, 7.07716107368469238281e-01) (82, 6.60695970058441162109e-01) (83, 6.13089323043823242188e-01) (84, 9.62168693542480468750e-01) (85, 5.53529024124145507812e-01) (86, 7.93316066265106201172e-01) (87, 5.72030544281005859375e-01) (88, 7.27419972419738769531e-01) (89, 6.89796388149261474609e-01) (90, 7.96944200992584228516e-01) (91, 7.14842021465301513672e-01) (92, 5.78766286373138427734e-01) (93, 7.69148826599121093750e-01) (94, 6.39907598495483398438e-01) (95, 6.81191146373748779297e-01) (96, 6.60282194614410400391e-01) (97, -3.95145155489444732666e-02) (98, 6.89481079578399658203e-01) (99, 3.85798960924148559570e-02) (100, 8.02024975419044494629e-02) (101, 7.00755774974822998047e-01) (102, 5.18306270241737365723e-02) (103, 7.02275753021240234375e-01) (104, -3.71025502681732177734e-02) (105, 9.31223332881927490234e-02) (106, -5.13786301016807556152e-02) (107, 5.70721745491027832031e-01) (108, -4.35917750000953674316e-02) (109, 7.04761028289794921875e-01) (110, 5.44594347476959228516e-01) (111, 6.87587559223175048828e-02) (112, 1.01081505417823791504e-01) (113, 6.44035518169403076172e-01) (114, 5.48874258995056152344e-01) (115, 6.45226895809173583984e-01) (116, 6.66345894336700439453e-01) (117, 6.25352263450622558594e-01) (118, 7.05833375453948974609e-01) (119, 6.24550461769104003906e-01) (120, 1.77289724349975585938e-01) (121, 6.80982291698455810547e-01) (122, 6.01941525936126708984e-01) (123, 6.24434590339660644531e-01) (124, 6.19510531425476074219e-01) (125, 9.09177422523498535156e-01) (126, 5.81283271312713623047e-01) (127, 6.63880586624145507812e-01) (128, 5.39693474769592285156e-01) (129, 6.91271603107452392578e-01) (130, 9.13239300251007080078e-01) (131, 6.75320506095886230469e-01) (132, 7.47171878814697265625e-01) (133, 6.24655723571777343750e-01) (134, 6.33185863494873046875e-01) (135, 5.53514182567596435547e-01) (136, 6.85931205749511718750e-01) (137, 6.65968537330627441406e-01) (138, 5.96966743469238281250e-01) (139, 6.47499024868011474609e-01) (140, 6.29058003425598144531e-01) (141, 5.93663334846496582031e-01) (142, 5.96324503421783447266e-01) (143, 5.78338027000427246094e-01) (144, 7.45404124259948730469e-01) (145, 5.97162008285522460938e-01) (146, 7.11744070053100585938e-01) (147, 2.39870756864547729492e-01) (148, 1.30950748920440673828e-01) (149, 6.21780753135681152344e-02) (150, 5.53413689136505126953e-01) (151, 5.90190470218658447266e-01) (152, 1.06693916022777557373e-02) (153, 1.41950044780969619751e-02) (154, 2.73743361234664916992e-01) (155, 1.13311903551220893860e-02) (156, 7.00925529003143310547e-01) (157, -7.82678872346878051758e-02) (158, 1.33847668766975402832e-01) (159, 1.77736561745405197144e-02) (160, -6.89612329006195068359e-02) (161, 5.35894751548767089844e-01) (162, 5.70807278156280517578e-01) (163, 7.24313318729400634766e-01) (164, 6.43860340118408203125e-01) (165, 7.31604516506195068359e-01) (166, 5.59076666831970214844e-01) (167, 5.37505924701690673828e-01) (168, 1.74867734313011169434e-02) (169, 6.39534175395965576172e-01) (170, 6.62198007106781005859e-01) (171, 5.44823348522186279297e-01) (172, 8.99777948856353759766e-01) (173, 3.13661426305770874023e-01) (174, 5.65390884876251220703e-01) (175, 9.57431674003601074219e-01) (176, 1.78176742047071456909e-02) (177, 5.42585253715515136719e-01) (178, 6.26725852489471435547e-01) (179, 6.06328129768371582031e-01) (180, 7.28805124759674072266e-01) (181, 6.83774769306182861328e-01) (182, 6.64410531520843505859e-01) (183, 6.10639572143554687500e-01) (184, 5.59592723846435546875e-01) (185, 6.10704958438873291016e-01) (186, 6.99555575847625732422e-01) (187, 6.55076563358306884766e-01) (188, 6.20778739452362060547e-01) (189, 7.19599664211273193359e-01) (190, 5.51074206829071044922e-01) (191, 1.58450454473495483398e-02) (192, 4.24261391162872314453e-01) (193, 1.94362282752990722656e-01) (194, 2.79175266623497009277e-02) (195, 2.42264103144407272339e-02) (196, 5.90546905994415283203e-01) (197, 7.54117250442504882812e-01) (198, 6.72093570232391357422e-01) (199, 7.83169925212860107422e-01) (200, 5.60759067535400390625e-01) (201, 5.51134049892425537109e-01) (202, 6.95970416069030761719e-01) (203, 7.16361880302429199219e-01) (204, 5.61885297298431396484e-01) (205, 5.92809557914733886719e-01) (206, -7.59177431464195251465e-02) (207, 7.28747844696044921875e-01) (208, 6.76728129386901855469e-01) (209, 9.16477739810943603516e-02) (210, 9.69568714499473571777e-02) (211, -5.40203340351581573486e-02) (212, 2.69681196659803390503e-02) (213, 5.96388652920722961426e-02) (214, 5.50024986267089843750e-01) (215, 5.75259923934936523438e-02) (216, 2.29262545704841613770e-01) (217, 7.00276017189025878906e-01) (218, -1.31244333460927009583e-02) (219, 6.42685174942016601562e-01) (220, 6.85005784034729003906e-01) (221, 8.02464306354522705078e-01) (222, 7.14835107326507568359e-01) (223, 6.09872221946716308594e-01) (224, 6.52648091316223144531e-01) (225, 6.97536766529083251953e-01) (226, 9.27088037133216857910e-02) (227, 5.48709094524383544922e-01) (228, 5.49150764942169189453e-01) (229, 6.32446646690368652344e-01) (230, 8.00287961959838867188e-01) (231, 5.64622342586517333984e-01) (232, 6.37893199920654296875e-01) (233, 4.77522879838943481445e-01) (234, 6.79217994213104248047e-01) (235, 7.55655229091644287109e-01) (236, 7.87670373916625976562e-01) (237, 5.90376019477844238281e-01) (238, 5.89711844921112060547e-01) (239, 4.04008924961090087891e-01) (240, -5.61513267457485198975e-02) (241, 6.55318379402160644531e-01) (242, 5.76952338218688964844e-01) (243, 6.39261126518249511719e-01) (244, 6.44853115081787109375e-01) (245, 6.74946606159210205078e-01) (246, 6.07828915119171142578e-01) (247, 6.61929845809936523438e-01) (248, 5.19676089286804199219e-01) (249, 2.47061789035797119141e-01) (250, 5.38770079612731933594e-01) (251, 8.05617809295654296875e-01) (252, -6.51481375098228454590e-02) (253, 1.45198300480842590332e-01) (254, 2.69083052873611450195e-01) (255, 1.13739073276519775391e-01) (256, 1.80065759923309087753e-03) (257, 5.40733225643634796143e-02) (258, 1.22135408222675323486e-01) (259, -1.31092546507716178894e-02) (260, 9.77757126092910766602e-02) (261, 1.17232635617256164551e-01) (262, 2.22406953573226928711e-01) (263, 8.99759121239185333252e-03) (264, 3.03349971771240234375e-01) (265, 2.74364709854125976562e-01) (266, 2.02932640910148620605e-01) (267, 2.14753076434135437012e-01) (268, 1.63463264703750610352e-01) (269, 5.88809967041015625000e-01) (270, 1.21902130544185638428e-01) (271, 5.86437940597534179688e-01) (272, 1.74455478787422180176e-01) (273, 5.12335181236267089844e-01) (274, 7.31495261192321777344e-01) (275, -5.08342348039150238037e-02) (276, 6.16940557956695556641e-01) (277, 5.83164930343627929688e-01) (278, 7.23389014601707458496e-02) (279, 6.59270405769348144531e-01) (280, 5.20862527191638946533e-02) (281, 3.30773919820785522461e-01) (282, 1.65631562471389770508e-01) (283, 1.81125141680240631104e-02) (284, 2.05419719219207763672e-01) (285, 2.96552509069442749023e-01) (286, 5.00020496547222137451e-02) (287, 5.49555659294128417969e-01) (288, 5.68538248538970947266e-01) (0, 1.50000000000000000000e+03) (1, 2.77618728578090667725e-02) (2, 1.48377567529678344727e-03) (3, 1.07245154678821563721e-01) (4, -6.41691312193870544434e-02) (5, 3.99776190519332885742e-01) (6, 3.04907504469156265259e-02) (7, 4.53157424926757812500e-01) (8, 4.17360752820968627930e-01) (9, 1.21082767844200134277e-01) (10, -5.85704743862152099609e-02) (11, -3.23625020682811737061e-02) (12, 3.25665116310119628906e-01) (13, 1.00384671241044998169e-02) (14, 4.61093112826347351074e-02) (15, -3.58894169330596923828e-02) (16, 2.03405623324215412140e-03) (17, 6.56844824552536010742e-02) (18, 7.15069323778152465820e-02) (19, 7.98703059554100036621e-02) (20, 1.00606521591544151306e-02) (21, 1.76063459366559982300e-02) (22, 8.57749804854393005371e-02) (23, -3.06924059987068176270e-02) (24, -4.49171215295791625977e-02) (25, 1.10408231616020202637e-01) (26, -7.03335404396057128906e-02) (27, 1.83902084827423095703e-02) (28, -8.10194388031959533691e-02) (29, -4.53198440372943878174e-02) (30, 4.18212383985519409180e-01) (31, 2.35654383897781372070e-01) (32, 3.63559871912002563477e-01) (33, 2.95624524354934692383e-01) (34, 2.29207500815391540527e-01) (35, 3.72673988342285156250e-01) (36, -3.84509004652500152588e-02) (37, 3.44137072563171386719e-01) (38, 3.61293822526931762695e-01) (39, 2.66205847263336181641e-01) (40, 2.78444662690162658691e-02) (41, 3.71979296207427978516e-01) (42, -3.34593118168413639069e-04) (43, -6.10660798847675323486e-02) (44, 2.71704643964767456055e-01) (45, -6.75960257649421691895e-02) (46, 6.42313659191131591797e-02) (47, 5.92211075127124786377e-02) (48, 6.51260614395141601562e-02) (49, -4.88140769302845001221e-02) (50, 1.68942008167505264282e-02) (51, 3.16119380295276641846e-02) (52, 4.22920435667037963867e-02) (53, -8.97007714956998825073e-03) (54, 1.23550156131386756897e-02) (55, -3.06861251592636108398e-02) (56, -1.91602613776922225952e-02) (57, 2.70744673907756805420e-02) (58, 4.34343889355659484863e-02) (59, -2.04191058874130249023e-02) (60, 6.58777654170989990234e-02) (61, 3.44154030084609985352e-01) (62, -3.40492581017315387726e-03) (63, -4.60330862551927566528e-03) (64, 9.98936668038368225098e-02) (65, -5.34280145075172185898e-04) (66, -3.38421799242496490479e-02) (67, -5.11090680956840515137e-02) (68, -7.50765576958656311035e-02) (69, 1.02280579507350921631e-01) (70, 2.96585589647293090820e-01) (71, 5.01212999224662780762e-02) (72, 6.66952729225158691406e-02) (73, 3.45249772071838378906e-01) (74, 6.16448894143104553223e-02) (75, 4.19814974069595336914e-01) (76, 8.90533328056335449219e-02) (77, -6.70586824417114257812e-02) (78, 6.12982511520385742188e-02) (79, 3.71170528233051300049e-02) (80, -2.27190763689577579498e-03) (81, -3.69839742779731750488e-02) (82, 8.53373110294342041016e-02) (83, 8.49034190177917480469e-02) (84, 5.75427114963531494141e-02) (85, -2.50795744359493255615e-02) (86, 1.73197224736213684082e-01) (87, 8.19068625569343566895e-02) (88, 1.10423490405082702637e-01) (89, 3.44144143164157867432e-02) (90, -3.70581522583961486816e-02) (91, 3.17652150988578796387e-02) (92, -6.45212903618812561035e-02) (93, 7.12288394570350646973e-02) (94, -6.08655437827110290527e-02) (95, -6.95813223719596862793e-02) (96, 8.70825424790382385254e-02) (97, 2.88466095924377441406e-01) (98, -4.23150993883609771729e-02) (99, 3.70113819837570190430e-01) (100, 2.84656703472137451172e-01) (101, 3.17252576351165771484e-02) (102, 3.27248454093933105469e-01) (103, 1.19532145559787750244e-01) (104, 3.05260479450225830078e-01) (105, 2.76145219802856445312e-01) (106, 4.19803440570831298828e-01) (107, -2.84162089228630065918e-02) (108, 2.87792891263961791992e-01) (109, 4.82319332659244537354e-02) (110, 9.42835211753845214844e-02) (111, 3.32618594169616699219e-01) (112, 3.83546590805053710938e-01) (113, 5.69978654384613037109e-02) (114, -1.32207637652754783630e-02) (115, -2.82476563006639480591e-02) (116, 1.18151552975177764893e-01) (117, -4.55054268240928649902e-02) (118, 1.14859119057655334473e-01) (119, 8.81057456135749816895e-02) (120, 3.47601443529129028320e-01) (121, -7.17119500041007995605e-02) (122, 5.62286528293043375015e-04) (123, 6.46500512957572937012e-02) (124, 4.92279119789600372314e-02) (125, 8.83439481258392333984e-02) (126, 9.84943732619285583496e-02) (127, -7.68251577392220497131e-03) (128, 7.54066258668899536133e-02) (129, -1.34386479854583740234e-01) (130, 3.16514037549495697021e-02) (131, -7.28443413972854614258e-02) (132, 8.52095931768417358398e-02) (133, 6.98812231421470642090e-02) (134, -7.29345306754112243652e-02) (135, -1.23053736984729766846e-01) (136, -9.41346809267997741699e-02) (137, 1.15600563585758209229e-01) (138, -5.91727420687675476074e-02) (139, -1.61583051085472106934e-02) (140, -3.97198041900992393494e-03) (141, -9.22611877322196960449e-02) (142, 6.83052316308021545410e-02) (143, 1.44398622214794158936e-02) (144, 1.06054611504077911377e-01) (145, -4.72611077129840850830e-02) (146, 5.30391372740268707275e-02) (147, 4.15217399597167968750e-01) (148, 2.96549081802368164062e-01) (149, 3.58183443546295166016e-01) (150, 6.82560876011848449707e-02) (151, -7.85031840205192565918e-02) (152, 3.71174007654190063477e-01) (153, 2.61429905891418457031e-01) (154, 3.67488920688629150391e-01) (155, 2.63924330472946166992e-01) (156, 8.53952467441558837891e-02) (157, 3.48759174346923828125e-01) (158, 3.28626751899719238281e-01) (159, 3.07610094547271728516e-01) (160, 3.64936113357543945312e-01) (161, 6.72540664672851562500e-02) (162, 1.07151167467236518860e-02) (163, 6.55620032921433448792e-03) (164, 4.43629585206508636475e-02) (165, 3.29472161829471588135e-02) (166, 4.21020016074180603027e-02) (167, 3.36675308644771575928e-02) (168, 3.34314405918121337891e-01) (169, -7.85484910011291503906e-02) (170, 9.59449857473373413086e-02) (171, -5.84404096007347106934e-02) (172, 5.13185523450374603271e-02) (173, 4.10748064517974853516e-01) (174, 2.24795043468475341797e-02) (175, 2.74092499166727066040e-02) (176, 4.37646776437759399414e-01) (177, -4.64101992547512054443e-02) (178, -4.54004034399986267090e-02) (179, -1.49762965738773345947e-02) (180, 8.56170952320098876953e-02) (181, 1.10867589712142944336e-01) (182, -1.46353915333747863770e-02) (183, 2.80930437147617340088e-02) (184, -4.49962206184864044189e-02) (185, -4.83242049813270568848e-02) (186, 6.87717124819755554199e-02) (187, 8.20923447608947753906e-02) (188, 6.00457675755023956299e-02) (189, -2.09462512284517288208e-02) (190, -2.26780716329813003540e-02) (191, 3.13776969909667968750e-01) (192, -3.14259082078933715820e-02) (193, 3.57198327779769897461e-01) (194, 4.11885052919387817383e-01) (195, 3.61435770988464355469e-01) (196, -4.34545353055000305176e-02) (197, 5.18661923706531524658e-02) (198, -1.93078443408012390137e-03) (199, 7.61750191450119018555e-02) (200, 3.90541143715381622314e-02) (201, -5.33431954681873321533e-02) (202, 8.44163075089454650879e-02) (203, 1.63439065217971801758e-01) (204, 1.07417173683643341064e-01) (205, -1.35557884350419044495e-02) (206, 2.36522480845451354980e-01) (207, 1.23339287936687469482e-01) (208, 4.24008928239345550537e-02) (209, 2.85584211349487304688e-01) (210, 2.53090828657150268555e-01) (211, 2.80537009239196777344e-01) (212, 2.75196641683578491211e-01) (213, 3.14350843429565429688e-01) (214, -4.98411767184734344482e-02) (215, 3.06145727634429931641e-01) (216, 2.99827814102172851562e-01) (217, 6.89571350812911987305e-02) (218, 2.67718911170959472656e-01) (219, -2.38793026655912399292e-02) (220, 1.34324327111244201660e-01) (221, 8.97069275379180908203e-02) (222, 4.72462773323059082031e-02) (223, -5.18085137009620666504e-02) (224, -4.79025244712829589844e-02) (225, 6.13071806728839874268e-02) (226, 4.09099668264389038086e-01) (227, -1.41496099531650543213e-02) (228, -4.04794253408908843994e-02) (229, 1.29176706075668334961e-01) (230, 1.44386410713195800781e-01) (231, 5.29255308210849761963e-02) (232, -6.16597086191177368164e-02) (233, -1.11354966065846383572e-04) (234, 3.30025441944599151611e-02) (235, -4.95976805686950683594e-02) (236, -4.18346151709556579590e-02) (237, 3.53855229914188385010e-02) (238, 1.23164750635623931885e-01) (239, -1.54031002894043922424e-02) (240, 3.92411291599273681641e-01) (241, -3.02194971591234207153e-02) (242, 9.43557918071746826172e-02) (243, -6.66233599185943603516e-02) (244, 1.33623303845524787903e-02) (245, 5.39139881730079650879e-02) (246, 8.96946806460618972778e-03) (247, 1.04300417006015777588e-01) (248, -1.09200961887836456299e-02) (249, 3.60220283269882202148e-01) (250, -5.13790398836135864258e-02) (251, 4.82302829623222351074e-02) (252, 2.54547625780105590820e-01) (253, 3.77571463584899902344e-01) (254, 2.91920721530914306641e-01) (255, 2.97047317028045654297e-01) (256, 3.04180711507797241211e-01) (257, 2.39524737000465393066e-01) (258, 3.36753547191619873047e-01) (259, 3.21837365627288818359e-01) (260, 2.21916586160659790039e-01) (261, 3.45403403043746948242e-01) (262, 2.52877652645111083984e-01) (263, 2.46315836906433105469e-01) (264, 3.04741263389587402344e-01) (265, 3.52522194385528564453e-01) (266, 2.59227484464645385742e-01) (267, 3.05214196443557739258e-01) (268, 2.66102790832519531250e-01) (269, -7.37089961767196655273e-02) (270, 3.99859368801116943359e-01) (271, -6.06598928570747375488e-02) (272, 2.55255728960037231445e-01) (273, 7.62421032413840293884e-03) (274, -5.17644695937633514404e-02) (275, 3.52720230817794799805e-01) (276, 3.53616066277027130127e-02) (277, 4.24702651798725128174e-02) (278, 3.45431476831436157227e-01) (279, 1.02439716458320617676e-01) (280, 2.52660900354385375977e-01) (281, 3.59027862548828125000e-01) (282, 2.83031463623046875000e-01) (283, 3.16243320703506469727e-01) (284, 3.18164706230163574219e-01) (285, 3.43767523765563964844e-01) (286, 3.48599731922149658203e-01) (287, -7.89366215467453002930e-02) (288, -1.42265975475311279297e-01) (0, 1.50000000000000000000e+03) (1, 3.00128459930419921875e-01) (2, 3.42404723167419433594e-01) (3, 2.01430737972259521484e-01) (4, 3.34025055170059204102e-01) (5, -2.75830179452896118164e-01) (6, 2.77411401271820068359e-01) (7, -5.13835310935974121094e-01) (8, -2.47041046619415283203e-01) (9, 3.66678357124328613281e-01) (10, 3.13410520553588867188e-01) (11, 2.13971912860870361328e-01) (12, -2.84707665443420410156e-01) (13, 3.28035563230514526367e-01) (14, 2.44669139385223388672e-01) (15, 3.30226361751556396484e-01) (16, 3.52503150701522827148e-01) (17, 3.74922424554824829102e-01) (18, 2.50053465366363525391e-01) (19, 2.80713796615600585938e-01) (20, 2.97685712575912475586e-01) (21, 2.48345538973808288574e-01) (22, 3.45124691724777221680e-01) (23, 2.55332916975021362305e-01) (24, 2.67478942871093750000e-01) (25, 2.35272765159606933594e-01) (26, 3.79097610712051391602e-01) (27, 2.27527752518653869629e-01) (28, 4.08394306898117065430e-01) (29, 3.77171039581298828125e-01) (30, -2.78350681066513061523e-01) (31, -3.87499481439590454102e-01) (32, -3.88666898012161254883e-01) (33, -3.49520236253738403320e-01) (34, -3.40603888034820556641e-01) (35, -4.62944865226745605469e-01) (36, 2.77073144912719726562e-01) (37, -2.94911861419677734375e-01) (38, -3.63862603902816772461e-01) (39, -3.58575254678726196289e-01) (40, 3.20462882518768310547e-01) (41, -2.73734539747238159180e-01) (42, 2.92538374662399291992e-01) (43, 2.89457678794860839844e-01) (44, -3.27473968267440795898e-01) (45, 3.41509103775024414062e-01) (46, 1.80818259716033935547e-01) (47, 2.83990323543548583984e-01) (48, 3.13319504261016845703e-01) (49, 2.79262006282806396484e-01) (50, 3.65043371915817260742e-01) (51, 2.44004637002944946289e-01) (52, 3.26576828956604003906e-01) (53, 3.11152160167694091797e-01) (54, 2.71939963102340698242e-01) (55, 2.32658445835113525391e-01) (56, 3.48399192094802856445e-01) (57, 2.54543095827102661133e-01) (58, 2.51451104879379272461e-01) (59, 3.39542150497436523438e-01) (60, 2.35069140791893005371e-01) (61, -4.31237369775772094727e-01) (62, 2.15046852827072143555e-01) (63, 3.61968368291854858398e-01) (64, 3.30037981271743774414e-01) (65, 2.92030692100524902344e-01) (66, 3.31666082143783569336e-01) (67, 2.12377160787582397461e-01) (68, 2.54437148571014404297e-01) (69, 2.17051982879638671875e-01) (70, -3.59211921691894531250e-01) (71, 3.84447932243347167969e-01) (72, 2.19927892088890075684e-01) (73, -1.84434294700622558594e-01) (74, 2.72099852561950683594e-01) (75, -3.07949751615524291992e-01) (76, 3.34888070821762084961e-01) (77, 2.98151046037673950195e-01) (78, 2.36814528703689575195e-01) (79, 2.50516146421432495117e-01) (80, 3.92998665571212768555e-01) (81, 2.04537034034729003906e-01) (82, 2.69908875226974487305e-01) (83, 3.06476891040802001953e-01) (84, 3.27929377555847167969e-01) (85, 3.41957807540893554688e-01) (86, 2.85058587789535522461e-01) (87, 2.62850284576416015625e-01) (88, 2.10100486874580383301e-01) (89, 3.82169455289840698242e-01) (90, 2.13549748063087463379e-01) (91, 2.36833661794662475586e-01) (92, 2.00936779379844665527e-01) (93, 2.43854790925979614258e-01) (94, 3.62792789936065673828e-01) (95, 3.40205311775207519531e-01) (96, 3.11559855937957763672e-01) (97, -3.51465135812759399414e-01) (98, 3.52660089731216430664e-01) (99, -2.04239279031753540039e-01) (100, -3.14489543437957763672e-01) (101, 2.50883996486663818359e-01) (102, -2.98526495695114135742e-01) (103, 3.38228374719619750977e-01) (104, -4.05072450637817382812e-01) (105, -4.03222978115081787109e-01) (106, -3.61130088567733764648e-01) (107, 3.85689496994018554688e-01) (108, -3.22169065475463867188e-01) (109, 3.21973919868469238281e-01) (110, 2.40309730172157287598e-01) (111, -3.39726924896240234375e-01) (112, -3.21900397539138793945e-01) (113, 3.10567706823348999023e-01) (114, 2.18326747417449951172e-01) (115, 2.34110414981842041016e-01) (116, 2.57341235876083374023e-01) (117, 3.41213136911392211914e-01) (118, 2.91652053594589233398e-01) (119, 2.60593980550765991211e-01) (120, -2.29868263006210327148e-01) (121, 2.94561743736267089844e-01) (122, 3.01148712635040283203e-01) (123, 3.22416990995407104492e-01) (124, 3.26346606016159057617e-01) (125, 2.20529079437255859375e-01) (126, 2.73474365472793579102e-01) (127, 2.30118080973625183105e-01) (128, 3.57750475406646728516e-01) (129, 1.96280583739280700684e-01) (130, 2.28179022669792175293e-01) (131, 2.76175618171691894531e-01) (132, 2.95424103736877441406e-01) (133, 3.57639551162719726562e-01) (134, 2.16350898146629333496e-01) (135, 4.24075990915298461914e-01) (136, 4.52268213033676147461e-01) (137, 3.03510308265686035156e-01) (138, 4.34181958436965942383e-01) (139, 3.30304920673370361328e-01) (140, 3.45109939575195312500e-01) (141, 4.87101674079895019531e-01) (142, 2.31900542974472045898e-01) (143, 3.58137667179107666016e-01) (144, 2.79646277427673339844e-01) (145, 2.55754292011260986328e-01) (146, 3.88660758733749389648e-01) (147, -1.98475435376167297363e-01) (148, -2.41671726107597351074e-01) (149, -3.62588018178939819336e-01) (150, 1.98826640844345092773e-01) (151, 3.21937799453735351562e-01) (152, -2.59949296712875366211e-01) (153, -3.46758425235748291016e-01) (154, -3.03418815135955810547e-01) (155, -3.53319704532623291016e-01) (156, 3.81204515695571899414e-01) (157, -3.37850302457809448242e-01) (158, -2.19772309064865112305e-01) (159, -3.26414644718170166016e-01) (160, -2.92528450489044189453e-01) (161, 3.26102882623672485352e-01) (162, 2.02587649226188659668e-01) (163, 2.38722011446952819824e-01) (164, 2.96595603227615356445e-01) (165, 2.27430224418640136719e-01) (166, 3.83481889963150024414e-01) (167, 2.84753680229187011719e-01) (168, -3.92981171607971191406e-01) (169, 3.13726186752319335938e-01) (170, 2.09659829735755920410e-01) (171, 3.57516199350357055664e-01) (172, 2.41240501403808593750e-01) (173, -3.25626134872436523438e-01) (174, 3.11626404523849487305e-01) (175, 3.10712754726409912109e-01) (176, -3.83562654256820678711e-01) (177, 3.01925480365753173828e-01) (178, 3.09162467718124389648e-01) (179, 3.15014541149139404297e-01) (180, 3.86739850044250488281e-01) (181, 3.13069581985473632812e-01) (182, 2.36493781208992004395e-01) (183, 3.69096308946609497070e-01) (184, 2.21462592482566833496e-01) (185, 2.92789727449417114258e-01) (186, 2.69156068563461303711e-01) (187, 3.88745993375778198242e-01) (188, 2.08422526717185974121e-01) (189, 3.96453469991683959961e-01) (190, 3.20252805948257446289e-01) (191, -2.90229737758636474609e-01) (192, 3.41345161199569702148e-01) (193, -2.26400703191757202148e-01) (194, -4.38108474016189575195e-01) (195, -4.18968170881271362305e-01) (196, 3.42166602611541748047e-01) (197, 4.01670753955841064453e-01) (198, 3.23088824748992919922e-01) (199, 2.82234907150268554688e-01) (200, 3.10855716466903686523e-01) (201, 3.23353648185729980469e-01) (202, 2.35642075538635253906e-01) (203, 3.51503789424896240234e-01) (204, 3.79473090171813964844e-01) (205, 3.48969399929046630859e-01) (206, -2.96407550573348999023e-01) (207, 3.03447216749191284180e-01) (208, 2.60644167661666870117e-01) (209, -3.58877390623092651367e-01) (210, -4.46395665407180786133e-01) (211, -3.58906358480453491211e-01) (212, -2.49844744801521301270e-01) (213, -3.95157516002655029297e-01) (214, 1.51172146201133728027e-01) (215, -4.75823611021041870117e-01) (216, -2.74532377719879150391e-01) (217, 2.90790319442749023438e-01) (218, -4.49365675449371337891e-01) (219, 3.40105056762695312500e-01) (220, 2.91401207447052001953e-01) (221, 2.80373245477676391602e-01) (222, 2.97662556171417236328e-01) (223, 2.20144197344779968262e-01) (224, 2.40433514118194580078e-01) (225, 3.18866938352584838867e-01) (226, -4.54569578170776367188e-01) (227, 3.83280426263809204102e-01) (228, 3.07854294776916503906e-01) (229, 3.57388436794281005859e-01) (230, 2.66745209693908691406e-01) (231, 2.08648175001144409180e-01) (232, 2.74265617132186889648e-01) (233, 2.58624374866485595703e-01) (234, 2.06903979182243347168e-01) (235, 2.65942215919494628906e-01) (236, 2.46556133031845092773e-01) (237, 3.66756826639175415039e-01) (238, 3.59140276908874511719e-01) (239, 2.69592553377151489258e-01) (240, -4.13664907217025756836e-01) (241, 3.68176400661468505859e-01) (242, 3.29888343811035156250e-01) (243, 2.28881761431694030762e-01) (244, 3.92092198133468627930e-01) (245, 3.39155614376068115234e-01) (246, 