FANN_FLO_2.1
num_layers=3
learning_rate=0.700000
connection_rate=1.000000
network_type=0
learning_momentum=0.100000
training_algorithm=2
train_error_function=1
train_stop_function=0
cascade_output_change_fraction=0.010000
quickprop_decay=-0.000100
quickprop_mu=1.750000
rprop_increase_factor=1.200000
rprop_decrease_factor=0.500000
rprop_delta_min=0.000000
rprop_delta_max=50.000000
rprop_delta_zero=0.100000
cascade_output_stagnation_epochs=12
cascade_candidate_change_fraction=0.010000
cascade_candidate_stagnation_epochs=12
cascade_max_out_epochs=150
cascade_min_out_epochs=50
cascade_max_cand_epochs=150
cascade_min_cand_epochs=50
cascade_num_candidate_groups=2
bit_fail_limit=3.49999994039535522461e-01
cascade_candidate_limit=1.00000000000000000000e+03
cascade_weight_multiplier=4.00000005960464477539e-01
cascade_activation_functions_count=10
cascade_activation_functions=3 5 7 8 10 11 14 15 16 17 
cascade_activation_steepnesses_count=4
cascade_activation_steepnesses=2.50000000000000000000e-01 5.00000000000000000000e-01 7.50000000000000000000e-01 1.00000000000000000000e+00 
layer_sizes=289 325 2 
scale_included=0
neurons (num_inputs, activation_function, activation_steepness)=(0, 0, 0.00000000000000000000e+00) (0, 0, 0.00000000000000000000e+00) (0, 0, 0.00000000000000000000e+00) (0, 0, 0.00000000000000000000e+00) (0, 0, 0.00000000000000000000e+00) (0, 0, 0.00000000000000000000e+00) (0, 0, 0.00000000000000000000e+00) (0, 0, 0.00000000000000000000e+00) (0, 0, 0.00000000000000000000e+00) (0, 0, 0.00000000000000000000e+00) (0, 0, 0.00000000000000000000e+00) (0, 0, 0.00000000000000000000e+00) (0, 0, 0.00000000000000000000e+00) (0, 0, 0.00000000000000000000e+00) (0, 0, 0.00000000000000000000e+00) (0, 0, 0.00000000000000000000e+00) (0, 0, 0.00000000000000000000e+00) (0, 0, 0.00000000000000000000e+00) (0, 0, 0.00000000000000000000e+00) (0, 0, 0.00000000000000000000e+00) (0, 0, 0.00000000000000000000e+00) (0, 0, 0.00000000000000000000e+00) (0, 0, 0.00000000000000000000e+00) (0, 0, 0.00000000000000000000e+00) (0, 0, 0.00000000000000000000e+00) (0, 0, 0.00000000000000000000e+00) (0, 0, 0.00000000000000000000e+00) (0, 0, 0.00000000000000000000e+00) (0, 0, 0.00000000000000000000e+00) (0, 0, 0.00000000000000000000e+00) (0, 0, 0.00000000000000000000e+00) (0, 0, 0.00000000000000000000e+00) (0, 0, 0.00000000000000000000e+00) (0, 0, 0.00000000000000000000e+00) (0, 0, 0.00000000000000000000e+00) (0, 0, 0.00000000000000000000e+00) (0, 0, 0.00000000000000000000e+00) (0, 0, 0.00000000000000000000e+00) (0, 0, 0.00000000000000000000e+00) (0, 0, 0.00000000000000000000e+00) (0, 0, 0.00000000000000000000e+00) (0, 0, 0.00000000000000000000e+00) (0, 0, 0.00000000000000000000e+00) (0, 0, 0.00000000000000000000e+00) (0, 0, 0.00000000000000000000e+00) (0, 0, 0.00000000000000000000e+00) (0, 0, 0.00000000000000000000e+00) (0, 0, 0.00000000000000000000e+00) (0, 0, 0.00000000000000000000e+00) (0, 0, 0.00000000000000000000e+00) (0, 0, 0.00000000000000000000e+00) (0, 0, 0.00000000000000000000e+00) (0, 0, 0.00000000000000000000e+00) (0, 0, 0.00000000000000000000e+00) (0, 0, 0.00000000000000000000e+00) (0, 0, 0.00000000000000000000e+00) (0, 0, 0.00000000000000000000e+00) (0, 0, 0.00000000000000000000e+00) (0, 0, 0.00000000000000000000e+00) (0, 0, 0.00000000000000000000e+00) (0, 0, 0.00000000000000000000e+00) (0, 0, 0.00000000000000000000e+00) (0, 0, 0.00000000000000000000e+00) (0, 0, 0.00000000000000000000e+00) (0, 0, 0.00000000000000000000e+00) (0, 0, 0.00000000000000000000e+00) (0, 0, 0.00000000000000000000e+00) (0, 0, 0.00000000000000000000e+00) (0, 0, 0.00000000000000000000e+00) (0, 0, 0.00000000000000000000e+00) (0, 0, 0.00000000000000000000e+00) (0, 0, 0.00000000000000000000e+00) (0, 0, 0.00000000000000000000e+00) (0, 0, 0.00000000000000000000e+00) (0, 0, 0.00000000000000000000e+00) (0, 0, 0.00000000000000000000e+00) (0, 0, 0.00000000000000000000e+00) (0, 0, 0.00000000000000000000e+00) (0, 0, 0.00000000000000000000e+00) (0, 0, 0.00000000000000000000e+00) (0, 0, 0.00000000000000000000e+00) (0, 0, 0.00000000000000000000e+00) (0, 0, 0.00000000000000000000e+00) (0, 0, 0.00000000000000000000e+00) (0, 0, 0.00000000000000000000e+00) (0, 0, 0.00000000000000000000e+00) (0, 0, 0.00000000000000000000e+00) (0, 0, 0.00000000000000000000e+00) (0, 0, 0.00000000000000000000e+00) (0, 0, 0.00000000000000000000e+00) (0, 0, 0.00000000000000000000e+00) (0, 0, 0.00000000000000000000e+00) (0, 0, 0.00000000000000000000e+00) (0, 0, 0.00000000000000000000e+00) (0, 0, 0.00000000000000000000e+00) (0, 0, 0.00000000000000000000e+00) (0, 0, 0.00000000000000000000e+00) (0, 0, 0.00000000000000000000e+00) (0, 0, 0.00000000000000000000e+00) (0, 0, 0.00000000000000000000e+00) (0, 0, 0.00000000000000000000e+00) (0, 0, 0.00000000000000000000e+00) (0, 0, 0.00000000000000000000e+00) (0, 0, 0.00000000000000000000e+00) (0, 0, 0.00000000000000000000e+00) (0, 0, 0.00000000000000000000e+00) (0, 0, 0.00000000000000000000e+00) (0, 0, 0.00000000000000000000e+00) (0, 0, 0.00000000000000000000e+00) (0, 0, 0.00000000000000000000e+00) (0, 0, 0.00000000000000000000e+00) (0, 0, 0.00000000000000000000e+00) (0, 0, 0.00000000000000000000e+00) (0, 0, 0.00000000000000000000e+00) (0, 0, 0.00000000000000000000e+00) (0, 0, 0.00000000000000000000e+00) (0, 0, 0.00000000000000000000e+00) (0, 0, 0.00000000000000000000e+00) (0, 0, 0.00000000000000000000e+00) (0, 0, 0.00000000000000000000e+00) (0, 0, 0.00000000000000000000e+00) (0, 0, 0.00000000000000000000e+00) (0, 0, 0.00000000000000000000e+00) (0, 0, 0.00000000000000000000e+00) (0, 0, 0.00000000000000000000e+00) (0, 0, 0.00000000000000000000e+00) (0, 0, 0.00000000000000000000e+00) (0, 0, 0.00000000000000000000e+00) (0, 0, 0.00000000000000000000e+00) (0, 0, 0.00000000000000000000e+00) (0, 0, 0.00000000000000000000e+00) (0, 0, 0.00000000000000000000e+00) (0, 0, 0.00000000000000000000e+00) (0, 0, 0.00000000000000000000e+00) (0, 0, 0.00000000000000000000e+00) (0, 0, 0.00000000000000000000e+00) (0, 0, 0.00000000000000000000e+00) (0, 0, 0.00000000000000000000e+00) (0, 0, 0.00000000000000000000e+00) (0, 0, 0.00000000000000000000e+00) (0, 0, 0.00000000000000000000e+00) (0, 0, 0.00000000000000000000e+00) (0, 0, 0.00000000000000000000e+00) (0, 0, 0.00000000000000000000e+00) (0, 0, 0.00000000000000000000e+00) (0, 0, 0.00000000000000000000e+00) (0, 0, 0.00000000000000000000e+00) (0, 0, 0.00000000000000000000e+00) (0, 0, 0.00000000000000000000e+00) (0, 0, 0.00000000000000000000e+00) (0, 0, 0.00000000000000000000e+00) (0, 0, 0.00000000000000000000e+00) (0, 0, 0.00000000000000000000e+00) (0, 0, 0.00000000000000000000e+00) (0, 0, 0.00000000000000000000e+00) (0, 0, 0.00000000000000000000e+00) (0, 0, 0.00000000000000000000e+00) (0, 0, 0.00000000000000000000e+00) (0, 0, 0.00000000000000000000e+00) (0, 0, 0.00000000000000000000e+00) (0, 0, 0.00000000000000000000e+00) (0, 0, 0.00000000000000000000e+00) (0, 0, 0.00000000000000000000e+00) (0, 0, 0.00000000000000000000e+00) (0, 0, 0.00000000000000000000e+00) (0, 0, 0.00000000000000000000e+00) (0, 0, 0.00000000000000000000e+00) (0, 0, 0.00000000000000000000e+00) (0, 0, 0.00000000000000000000e+00) (0, 0, 0.00000000000000000000e+00) (0, 0, 0.00000000000000000000e+00) (0, 0, 0.00000000000000000000e+00) (0, 0, 0.00000000000000000000e+00) (0, 0, 0.00000000000000000000e+00) (0, 0, 0.00000000000000000000e+00) (0, 0, 0.00000000000000000000e+00) (0, 0, 0.00000000000000000000e+00) (0, 0, 0.00000000000000000000e+00) (0, 0, 0.00000000000000000000e+00) (0, 0, 0.00000000000000000000e+00) (0, 0, 0.00000000000000000000e+00) (0, 0, 0.00000000000000000000e+00) (0, 0, 0.00000000000000000000e+00) (0, 0, 0.00000000000000000000e+00) (0, 0, 0.00000000000000000000e+00) (0, 0, 0.00000000000000000000e+00) (0, 0, 0.00000000000000000000e+00) (0, 0, 0.00000000000000000000e+00) (0, 0, 0.00000000000000000000e+00) (0, 0, 0.00000000000000000000e+00) (0, 0, 0.00000000000000000000e+00) (0, 0, 0.00000000000000000000e+00) (0, 0, 0.00000000000000000000e+00) (0, 0, 0.00000000000000000000e+00) (0, 0, 0.00000000000000000000e+00) (0, 0, 0.00000000000000000000e+00) (0, 0, 0.00000000000000000000e+00) (0, 0, 0.00000000000000000000e+00) (0, 0, 0.00000000000000000000e+00) (0, 0, 0.00000000000000000000e+00) (0, 0, 0.00000000000000000000e+00) (0, 0, 0.00000000000000000000e+00) (0, 0, 0.00000000000000000000e+00) (0, 0, 0.00000000000000000000e+00) (0, 0, 0.00000000000000000000e+00) (0, 0, 0.00000000000000000000e+00) (0, 0, 0.00000000000000000000e+00) (0, 0, 0.00000000000000000000e+00) (0, 0, 0.00000000000000000000e+00) (0, 0, 0.00000000000000000000e+00) (0, 0, 0.00000000000000000000e+00) (0, 0, 0.00000000000000000000e+00) (0, 0, 0.00000000000000000000e+00) (0, 0, 0.00000000000000000000e+00) (0, 0, 0.00000000000000000000e+00) (0, 0, 0.00000000000000000000e+00) (0, 0, 0.00000000000000000000e+00) (0, 0, 0.00000000000000000000e+00) (0, 0, 0.00000000000000000000e+00) (0, 0, 0.00000000000000000000e+00) (0, 0, 0.00000000000000000000e+00) (0, 0, 0.00000000000000000000e+00) (0, 0, 0.00000000000000000000e+00) (0, 0, 0.00000000000000000000e+00) (0, 0, 0.00000000000000000000e+00) (0, 0, 0.00000000000000000000e+00) (0, 0, 0.00000000000000000000e+00) (0, 0, 0.00000000000000000000e+00) (0, 0, 0.00000000000000000000e+00) (0, 0, 0.00000000000000000000e+00) (0, 0, 0.00000000000000000000e+00) (0, 0, 0.00000000000000000000e+00) (0, 0, 0.00000000000000000000e+00) (0, 0, 0.00000000000000000000e+00) (0, 0, 0.00000000000000000000e+00) (0, 0, 0.00000000000000000000e+00) (0, 0, 0.00000000000000000000e+00) (0, 0, 0.00000000000000000000e+00) (0, 0, 0.00000000000000000000e+00) (0, 0, 0.00000000000000000000e+00) (0, 0, 0.00000000000000000000e+00) (0, 0, 0.00000000000000000000e+00) (0, 0, 0.00000000000000000000e+00) (0, 0, 0.00000000000000000000e+00) (0, 0, 0.00000000000000000000e+00) (0, 0, 0.00000000000000000000e+00) (0, 0, 0.00000000000000000000e+00) (0, 0, 0.00000000000000000000e+00) (0, 0, 0.00000000000000000000e+00) (0, 0, 0.00000000000000000000e+00) (0, 0, 0.00000000000000000000e+00) (0, 0, 0.00000000000000000000e+00) (0, 0, 0.00000000000000000000e+00) (0, 0, 0.00000000000000000000e+00) (0, 0, 0.00000000000000000000e+00) (0, 0, 0.00000000000000000000e+00) (0, 0, 0.00000000000000000000e+00) (0, 0, 0.00000000000000000000e+00) (0, 0, 0.00000000000000000000e+00) (0, 0, 0.00000000000000000000e+00) (0, 0, 0.00000000000000000000e+00) (0, 0, 0.00000000000000000000e+00) (0, 0, 0.00000000000000000000e+00) (0, 0, 0.00000000000000000000e+00) (0, 0, 0.00000000000000000000e+00) (0, 0, 0.00000000000000000000e+00) (0, 0, 0.00000000000000000000e+00) (0, 0, 0.00000000000000000000e+00) (0, 0, 0.00000000000000000000e+00) (0, 0, 0.00000000000000000000e+00) (0, 0, 0.00000000000000000000e+00) (0, 0, 0.00000000000000000000e+00) (0, 0, 0.00000000000000000000e+00) (0, 0, 0.00000000000000000000e+00) (0, 0, 0.00000000000000000000e+00) (0, 0, 0.00000000000000000000e+00) (0, 0, 0.00000000000000000000e+00) (0, 0, 0.00000000000000000000e+00) (0, 0, 0.00000000000000000000e+00) (0, 0, 0.00000000000000000000e+00) (0, 0, 0.00000000000000000000e+00) (0, 0, 0.00000000000000000000e+00) (0, 0, 0.00000000000000000000e+00) (0, 0, 0.00000000000000000000e+00) (0, 0, 0.00000000000000000000e+00) (0, 0, 0.00000000000000000000e+00) (0, 0, 0.00000000000000000000e+00) (0, 0, 0.00000000000000000000e+00) (0, 0, 0.00000000000000000000e+00) (289, 5, 5.00000000000000000000e-01) (289, 5, 5.00000000000000000000e-01) (289, 5, 5.00000000000000000000e-01) (289, 5, 5.00000000000000000000e-01) (289, 5, 5.00000000000000000000e-01) (289, 5, 5.00000000000000000000e-01) (289, 5, 5.00000000000000000000e-01) (289, 5, 5.00000000000000000000e-01) (289, 5, 5.00000000000000000000e-01) (289, 5, 5.00000000000000000000e-01) (289, 5, 5.00000000000000000000e-01) (289, 5, 5.00000000000000000000e-01) (289, 5, 5.00000000000000000000e-01) (289, 5, 5.00000000000000000000e-01) (289, 5, 5.00000000000000000000e-01) (289, 5, 5.00000000000000000000e-01) (289, 5, 5.00000000000000000000e-01) (289, 5, 5.00000000000000000000e-01) (289, 5, 5.00000000000000000000e-01) (289, 5, 5.00000000000000000000e-01) (289, 5, 5.00000000000000000000e-01) (289, 5, 5.00000000000000000000e-01) (289, 5, 5.00000000000000000000e-01) (289, 5, 5.00000000000000000000e-01) (289, 5, 5.00000000000000000000e-01) (289, 5, 5.00000000000000000000e-01) (289, 5, 5.00000000000000000000e-01) (289, 5, 5.00000000000000000000e-01) (289, 5, 5.00000000000000000000e-01) (289, 5, 5.00000000000000000000e-01) (289, 5, 5.00000000000000000000e-01) (289, 5, 5.00000000000000000000e-01) (289, 5, 5.00000000000000000000e-01) (289, 5, 5.00000000000000000000e-01) (289, 5, 5.00000000000000000000e-01) (289, 5, 5.00000000000000000000e-01) (289, 5, 5.00000000000000000000e-01) (289, 5, 5.00000000000000000000e-01) (289, 5, 5.00000000000000000000e-01) (289, 5, 5.00000000000000000000e-01) (289, 5, 5.00000000000000000000e-01) (289, 5, 5.00000000000000000000e-01) (289, 5, 5.00000000000000000000e-01) (289, 5, 5.00000000000000000000e-01) (289, 5, 5.00000000000000000000e-01) (289, 5, 5.00000000000000000000e-01) (289, 5, 5.00000000000000000000e-01) (289, 5, 5.00000000000000000000e-01) (289, 5, 5.00000000000000000000e-01) (289, 5, 5.00000000000000000000e-01) (289, 5, 5.00000000000000000000e-01) (289, 5, 5.00000000000000000000e-01) (289, 5, 5.00000000000000000000e-01) (289, 5, 5.00000000000000000000e-01) (289, 5, 5.00000000000000000000e-01) (289, 5, 5.00000000000000000000e-01) (289, 5, 5.00000000000000000000e-01) (289, 5, 5.00000000000000000000e-01) (289, 5, 5.00000000000000000000e-01) (289, 5, 5.00000000000000000000e-01) (289, 5, 5.00000000000000000000e-01) (289, 5, 5.00000000000000000000e-01) (289, 5, 5.00000000000000000000e-01) (289, 5, 5.00000000000000000000e-01) (289, 5, 5.00000000000000000000e-01) (289, 5, 5.00000000000000000000e-01) (289, 5, 5.00000000000000000000e-01) (289, 5, 5.00000000000000000000e-01) (289, 5, 5.00000000000000000000e-01) (289, 5, 5.00000000000000000000e-01) (289, 5, 5.00000000000000000000e-01) (289, 5, 5.00000000000000000000e-01) (289, 5, 5.00000000000000000000e-01) (289, 5, 5.00000000000000000000e-01) (289, 5, 5.00000000000000000000e-01) (289, 5, 5.00000000000000000000e-01) (289, 5, 5.00000000000000000000e-01) (289, 5, 5.00000000000000000000e-01) (289, 5, 5.00000000000000000000e-01) (289, 5, 5.00000000000000000000e-01) (289, 5, 5.00000000000000000000e-01) (289, 5, 5.00000000000000000000e-01) (289, 5, 5.00000000000000000000e-01) (289, 5, 5.00000000000000000000e-01) (289, 5, 5.00000000000000000000e-01) (289, 5, 5.00000000000000000000e-01) (289, 5, 5.00000000000000000000e-01) (289, 5, 5.00000000000000000000e-01) (289, 5, 5.00000000000000000000e-01) (289, 5, 5.00000000000000000000e-01) (289, 5, 5.00000000000000000000e-01) (289, 5, 5.00000000000000000000e-01) (289, 5, 5.00000000000000000000e-01) (289, 5, 5.00000000000000000000e-01) (289, 5, 5.00000000000000000000e-01) (289, 5, 5.00000000000000000000e-01) (289, 5, 5.00000000000000000000e-01) (289, 5, 5.00000000000000000000e-01) (289, 5, 5.00000000000000000000e-01) (289, 5, 5.00000000000000000000e-01) (289, 5, 5.00000000000000000000e-01) (289, 5, 5.00000000000000000000e-01) (289, 5, 5.00000000000000000000e-01) (289, 5, 5.00000000000000000000e-01) (289, 5, 5.00000000000000000000e-01) (289, 5, 5.00000000000000000000e-01) (289, 5, 5.00000000000000000000e-01) (289, 5, 5.00000000000000000000e-01) (289, 5, 5.00000000000000000000e-01) (289, 5, 5.00000000000000000000e-01) (289, 5, 5.00000000000000000000e-01) (289, 5, 5.00000000000000000000e-01) (289, 5, 5.00000000000000000000e-01) (289, 5, 5.00000000000000000000e-01) (289, 5, 5.00000000000000000000e-01) (289, 5, 5.00000000000000000000e-01) (289, 5, 5.00000000000000000000e-01) (289, 5, 5.00000000000000000000e-01) (289, 5, 5.00000000000000000000e-01) (289, 5, 5.00000000000000000000e-01) (289, 5, 5.00000000000000000000e-01) (289, 5, 5.00000000000000000000e-01) (289, 5, 5.00000000000000000000e-01) (289, 5, 5.00000000000000000000e-01) (289, 5, 5.00000000000000000000e-01) (289, 5, 5.00000000000000000000e-01) (289, 5, 5.00000000000000000000e-01) (289, 5, 5.00000000000000000000e-01) (289, 5, 5.00000000000000000000e-01) (289, 5, 5.00000000000000000000e-01) (289, 5, 5.00000000000000000000e-01) (289, 5, 5.00000000000000000000e-01) (289, 5, 5.00000000000000000000e-01) (289, 5, 5.00000000000000000000e-01) (289, 5, 5.00000000000000000000e-01) (289, 5, 5.00000000000000000000e-01) (289, 5, 5.00000000000000000000e-01) (289, 5, 5.00000000000000000000e-01) (289, 5, 5.00000000000000000000e-01) (289, 5, 5.00000000000000000000e-01) (289, 5, 5.00000000000000000000e-01) (289, 5, 5.00000000000000000000e-01) (289, 5, 5.00000000000000000000e-01) (289, 5, 5.00000000000000000000e-01) (289, 5, 5.00000000000000000000e-01) (289, 5, 5.00000000000000000000e-01) (289, 5, 5.00000000000000000000e-01) (289, 5, 5.00000000000000000000e-01) (289, 5, 5.00000000000000000000e-01) (289, 5, 5.00000000000000000000e-01) (289, 5, 5.00000000000000000000e-01) (289, 5, 5.00000000000000000000e-01) (289, 5, 5.00000000000000000000e-01) (289, 5, 5.00000000000000000000e-01) (289, 5, 5.00000000000000000000e-01) (289, 5, 5.00000000000000000000e-01) (289, 5, 5.00000000000000000000e-01) (289, 5, 5.00000000000000000000e-01) (289, 5, 5.00000000000000000000e-01) (289, 5, 5.00000000000000000000e-01) (289, 5, 5.00000000000000000000e-01) (289, 5, 5.00000000000000000000e-01) (289, 5, 5.00000000000000000000e-01) (289, 5, 5.00000000000000000000e-01) (289, 5, 5.00000000000000000000e-01) (289, 5, 5.00000000000000000000e-01) (289, 5, 5.00000000000000000000e-01) (289, 5, 5.00000000000000000000e-01) (289, 5, 5.00000000000000000000e-01) (289, 5, 5.00000000000000000000e-01) (289, 5, 5.00000000000000000000e-01) (289, 5, 5.00000000000000000000e-01) (289, 5, 5.00000000000000000000e-01) (289, 5, 5.00000000000000000000e-01) (289, 5, 5.00000000000000000000e-01) (289, 5, 5.00000000000000000000e-01) (289, 5, 5.00000000000000000000e-01) (289, 5, 5.00000000000000000000e-01) (289, 5, 5.00000000000000000000e-01) (289, 5, 5.00000000000000000000e-01) (289, 5, 5.00000000000000000000e-01) (289, 5, 5.00000000000000000000e-01) (289, 5, 5.00000000000000000000e-01) (289, 5, 5.00000000000000000000e-01) (289, 5, 5.00000000000000000000e-01) (289, 5, 5.00000000000000000000e-01) (289, 5, 5.00000000000000000000e-01) (289, 5, 5.00000000000000000000e-01) (289, 5, 5.00000000000000000000e-01) (289, 5, 5.00000000000000000000e-01) (289, 5, 5.00000000000000000000e-01) (289, 5, 5.00000000000000000000e-01) (289, 5, 5.00000000000000000000e-01) (289, 5, 5.00000000000000000000e-01) (289, 5, 5.00000000000000000000e-01) (289, 5, 5.00000000000000000000e-01) (289, 5, 5.00000000000000000000e-01) (289, 5, 5.00000000000000000000e-01) (289, 5, 5.00000000000000000000e-01) (289, 5, 5.00000000000000000000e-01) (289, 5, 5.00000000000000000000e-01) (289, 5, 5.00000000000000000000e-01) (289, 5, 5.00000000000000000000e-01) (289, 5, 5.00000000000000000000e-01) (289, 5, 5.00000000000000000000e-01) (289, 5, 5.00000000000000000000e-01) (289, 5, 5.00000000000000000000e-01) (289, 5, 5.00000000000000000000e-01) (289, 5, 5.00000000000000000000e-01) (289, 5, 5.00000000000000000000e-01) (289, 5, 5.00000000000000000000e-01) (289, 5, 5.00000000000000000000e-01) (289, 5, 5.00000000000000000000e-01) (289, 5, 5.00000000000000000000e-01) (289, 5, 5.00000000000000000000e-01) (289, 5, 5.00000000000000000000e-01) (289, 5, 5.00000000000000000000e-01) (289, 5, 5.00000000000000000000e-01) (289, 5, 5.00000000000000000000e-01) (289, 5, 5.00000000000000000000e-01) (289, 5, 5.00000000000000000000e-01) (289, 5, 5.00000000000000000000e-01) (289, 5, 5.00000000000000000000e-01) (289, 5, 5.00000000000000000000e-01) (289, 5, 5.00000000000000000000e-01) (289, 5, 5.00000000000000000000e-01) (289, 5, 5.00000000000000000000e-01) (289, 5, 5.00000000000000000000e-01) (289, 5, 5.00000000000000000000e-01) (289, 5, 5.00000000000000000000e-01) (289, 5, 5.00000000000000000000e-01) (289, 5, 5.00000000000000000000e-01) (289, 5, 5.00000000000000000000e-01) (289, 5, 5.00000000000000000000e-01) (289, 5, 5.00000000000000000000e-01) (289, 5, 5.00000000000000000000e-01) (289, 5, 5.00000000000000000000e-01) (289, 5, 5.00000000000000000000e-01) (289, 5, 5.00000000000000000000e-01) (289, 5, 5.00000000000000000000e-01) (289, 5, 5.00000000000000000000e-01) (289, 5, 5.00000000000000000000e-01) (289, 5, 5.00000000000000000000e-01) (289, 5, 5.00000000000000000000e-01) (289, 5, 5.00000000000000000000e-01) (289, 5, 5.00000000000000000000e-01) (289, 5, 5.00000000000000000000e-01) (289, 5, 5.00000000000000000000e-01) (289, 5, 5.00000000000000000000e-01) (289, 5, 5.00000000000000000000e-01) (289, 5, 5.00000000000000000000e-01) (289, 5, 5.00000000000000000000e-01) (289, 5, 5.00000000000000000000e-01) (289, 5, 5.00000000000000000000e-01) (289, 5, 5.00000000000000000000e-01) (289, 5, 5.00000000000000000000e-01) (289, 5, 5.00000000000000000000e-01) (289, 5, 5.00000000000000000000e-01) (289, 5, 5.00000000000000000000e-01) (289, 5, 5.00000000000000000000e-01) (289, 5, 5.00000000000000000000e-01) (289, 5, 5.00000000000000000000e-01) (289, 5, 5.00000000000000000000e-01) (289, 5, 5.00000000000000000000e-01) (289, 5, 5.00000000000000000000e-01) (289, 5, 5.00000000000000000000e-01) (289, 5, 5.00000000000000000000e-01) (289, 5, 5.00000000000000000000e-01) (289, 5, 5.00000000000000000000e-01) (289, 5, 5.00000000000000000000e-01) (289, 5, 5.00000000000000000000e-01) (289, 5, 5.00000000000000000000e-01) (289, 5, 5.00000000000000000000e-01) (289, 5, 5.00000000000000000000e-01) (289, 5, 5.00000000000000000000e-01) (289, 5, 5.00000000000000000000e-01) (289, 5, 5.00000000000000000000e-01) (289, 5, 5.00000000000000000000e-01) (289, 5, 5.00000000000000000000e-01) (289, 5, 5.00000000000000000000e-01) (289, 5, 5.00000000000000000000e-01) (289, 5, 5.00000000000000000000e-01) (289, 5, 5.00000000000000000000e-01) (289, 5, 5.00000000000000000000e-01) (289, 5, 5.00000000000000000000e-01) (289, 5, 5.00000000000000000000e-01) (289, 5, 5.00000000000000000000e-01) (289, 5, 5.00000000000000000000e-01) (289, 5, 5.00000000000000000000e-01) (289, 5, 5.00000000000000000000e-01) (289, 5, 5.00000000000000000000e-01) (289, 5, 5.00000000000000000000e-01) (289, 5, 5.00000000000000000000e-01) (289, 5, 5.00000000000000000000e-01) (289, 5, 5.00000000000000000000e-01) (289, 5, 5.00000000000000000000e-01) (289, 5, 5.00000000000000000000e-01) (289, 5, 5.00000000000000000000e-01) (289, 5, 5.00000000000000000000e-01) (289, 5, 5.00000000000000000000e-01) (289, 5, 5.00000000000000000000e-01) (289, 5, 5.00000000000000000000e-01) (289, 5, 5.00000000000000000000e-01) (289, 5, 5.00000000000000000000e-01) (289, 5, 5.00000000000000000000e-01) (289, 5, 5.00000000000000000000e-01) (289, 5, 5.00000000000000000000e-01) (289, 5, 5.00000000000000000000e-01) (289, 5, 5.00000000000000000000e-01) (289, 5, 5.00000000000000000000e-01) (289, 5, 5.00000000000000000000e-01) (289, 5, 5.00000000000000000000e-01) (289, 5, 5.00000000000000000000e-01) (289, 5, 5.00000000000000000000e-01) (289, 5, 5.00000000000000000000e-01) (289, 5, 5.00000000000000000000e-01) (289, 5, 5.00000000000000000000e-01) (289, 5, 5.00000000000000000000e-01) (289, 5, 5.00000000000000000000e-01) (289, 5, 5.00000000000000000000e-01) (289, 5, 5.00000000000000000000e-01) (289, 5, 5.00000000000000000000e-01) (289, 5, 5.00000000000000000000e-01) (289, 5, 5.00000000000000000000e-01) (0, 5, 0.00000000000000000000e+00) (325, 5, 5.00000000000000000000e-01) (0, 5, 0.00000000000000000000e+00) 
connections (connected_to_neuron, weight)=(0, 1.50000000000000000000e+03) (1, 5.66587448120117187500e-01) (2, 6.54895782470703125000e-01) (3, 6.39191389083862304688e-01) (4, -2.25442014634609222412e-02) (5, 6.31816744804382324219e-01) (6, 6.41808331012725830078e-01) (7, 7.38107264041900634766e-01) (8, 6.52904808521270751953e-01) (9, 7.01602160930633544922e-01) (10, 6.61859035491943359375e-01) (11, 6.58267557621002197266e-01) (12, 6.20962917804718017578e-01) (13, 5.45217692852020263672e-01) (14, 7.52757370471954345703e-01) (15, 6.18307828903198242188e-01) (16, 6.19333148002624511719e-01) (17, 6.16643965244293212891e-01) (18, 6.13970756530761718750e-01) (19, 5.50919175148010253906e-01) (20, 5.90393662452697753906e-01) (21, 6.93520009517669677734e-01) (22, 7.25318253040313720703e-01) (23, 6.54548943042755126953e-01) (24, 6.55385017395019531250e-01) (25, 6.74192011356353759766e-01) (26, 7.16603040695190429688e-01) (27, 6.55057013034820556641e-01) (28, 6.10144376754760742188e-01) (29, 6.42602086067199707031e-01) (30, 5.97926259040832519531e-01) (31, 5.81866979598999023438e-01) (32, 6.86223804950714111328e-01) (33, -3.97128276526927947998e-02) (34, 6.67552471160888671875e-01) (35, 6.11658811569213867188e-01) (36, 5.52025496959686279297e-01) (37, 5.49616277217864990234e-01) (38, -9.94246155023574829102e-02) (39, -4.44690808653831481934e-02) (40, 1.57628543674945831299e-02) (41, 7.11647450923919677734e-01) (42, 5.61308860778808593750e-01) (43, 5.64952731132507324219e-01) (44, 7.13529765605926513672e-01) (45, 7.33595132827758789062e-01) (46, 6.36574089527130126953e-01) (47, 5.66480100154876708984e-01) (48, 6.35657131671905517578e-01) (49, 7.06950247287750244141e-01) (50, 5.81821680068969726562e-01) (51, 6.73361599445343017578e-01) (52, 6.81382775306701660156e-01) (53, 5.78319728374481201172e-01) (54, 5.63114047050476074219e-01) (55, 5.91487050056457519531e-01) (56, 6.59009575843811035156e-01) (57, 7.30832993984222412109e-01) (58, 7.12165355682373046875e-01) (59, 7.13906586170196533203e-01) (60, 6.23268306255340576172e-01) (61, 6.68696880340576171875e-01) (62, 5.55631041526794433594e-01) (63, 5.58047056198120117188e-01) (64, 6.43607854843139648438e-01) (65, 7.02711880207061767578e-01) (66, 6.22901439666748046875e-01) (67, 6.75991654396057128906e-01) (68, 6.80519223213195800781e-01) (69, 6.62740230560302734375e-01) (70, 5.67027866840362548828e-01) (71, 6.32198393344879150391e-01) (72, 6.78564190864562988281e-01) (73, 5.85645079612731933594e-01) (74, 6.52203440666198730469e-01) (75, 5.93910694122314453125e-01) (76, 5.89511454105377197266e-01) (77, 7.43555307388305664062e-01) (78, 6.13864839076995849609e-01) (79, 6.33540809154510498047e-01) (80, 7.08363294601440429688e-01) (81, 6.79892659187316894531e-01) (82, 7.33992099761962890625e-01) (83, 6.56103849411010742188e-01) (84, 6.67628228664398193359e-01) (85, 5.46467244625091552734e-01) (86, 6.71296060085296630859e-01) (87, 5.77052772045135498047e-01) (88, 6.51274263858795166016e-01) (89, 6.03166639804840087891e-01) (90, 7.73962259292602539062e-01) (91, 6.17932438850402832031e-01) (92, 5.84214329719543457031e-01) (93, 5.51439881324768066406e-01) (94, 6.23069286346435546875e-01) (95, 6.69693648815155029297e-01) (96, 6.83695375919342041016e-01) (97, 6.16885960102081298828e-01) (98, 5.77609121799468994141e-01) (99, 6.24072790145874023438e-01) (100, 6.27424180507659912109e-01) (101, 6.03773653507232666016e-01) (102, 1.48037103936076164246e-02) (103, 6.92837119102478027344e-01) (104, -5.34032918512821197510e-02) (105, 6.08637630939483642578e-01) (106, 7.30922281742095947266e-01) (107, 6.58808469772338867188e-01) (108, 5.99806070327758789062e-01) (109, 6.08336985111236572266e-01) (110, 7.48272836208343505859e-01) (111, 5.70122122764587402344e-01) (112, 7.17985451221466064453e-01) (113, 7.33278691768646240234e-01) (114, 6.56094729900360107422e-01) (115, 6.36618554592132568359e-01) (116, 7.50651180744171142578e-01) (117, 5.77729761600494384766e-01) (118, 6.92887783050537109375e-01) (119, 7.27077305316925048828e-01) (120, 6.33218765258789062500e-01) (121, 6.69462740421295166016e-01) (122, 5.94760715961456298828e-01) (123, 6.74129307270050048828e-01) (124, 6.91043496131896972656e-01) (125, 6.84259653091430664062e-01) (126, 6.15995943546295166016e-01) (127, 6.10096156597137451172e-01) (128, 6.26195251941680908203e-01) (129, 6.60094976425170898438e-01) (130, 6.81657135486602783203e-01) (131, 6.81158065795898437500e-01) (132, 6.98566615581512451172e-01) (133, 6.46421194076538085938e-01) (134, 6.43032908439636230469e-01) (135, 6.02948784828186035156e-01) (136, 7.13523745536804199219e-01) (137, 6.34732246398925781250e-01) (138, 7.04264461994171142578e-01) (139, 5.72746694087982177734e-01) (140, 7.08724379539489746094e-01) (141, 7.14268326759338378906e-01) (142, 5.84064364433288574219e-01) (143, 6.52433156967163085938e-01) (144, 6.99639022350311279297e-01) (145, 7.09036290645599365234e-01) (146, 7.43431448936462402344e-01) (147, 6.74573659896850585938e-01) (148, 7.23674595355987548828e-01) (149, 6.93100810050964355469e-01) (150, 6.55782639980316162109e-01) (151, 6.16827964782714843750e-01) (152, 5.83709120750427246094e-01) (153, 7.09873974323272705078e-01) (154, 7.63402879238128662109e-01) (155, 2.42097433656454086304e-02) (156, -5.15340827405452728271e-02) (157, 5.99355220794677734375e-01) (158, 5.70306777954101562500e-01) (159, 7.08126604557037353516e-01) (160, 6.80388569831848144531e-01) (161, 7.08260893821716308594e-01) (162, 6.57086253166198730469e-01) (163, 6.45669996738433837891e-01) (164, 6.24248385429382324219e-01) (165, 7.38070189952850341797e-01) (166, 6.86912298202514648438e-01) (167, 5.64757585525512695312e-01) (168, 6.17650806903839111328e-01) (169, 6.55278921127319335938e-01) (170, 5.73231399059295654297e-01) (171, 5.48694729804992675781e-01) (172, 5.97991526126861572266e-01) (173, 6.38345718383789062500e-01) (174, 6.53712213039398193359e-01) (175, 7.58600413799285888672e-01) (176, 5.57730376720428466797e-01) (177, 6.68494701385498046875e-01) (178, 6.66812419891357421875e-01) (179, 7.40437269210815429688e-01) (180, 5.72440326213836669922e-01) (181, 5.73892652988433837891e-01) (182, 6.06203079223632812500e-01) (183, 5.75176954269409179688e-01) (184, 7.65595555305480957031e-01) (185, 6.01248383522033691406e-01) (186, 5.80590486526489257812e-01) (187, 6.36003315448760986328e-01) (188, 6.51120007038116455078e-01) (189, 6.28894090652465820312e-01) (190, 5.95725893974304199219e-01) (191, 6.05181515216827392578e-01) (192, 5.73566317558288574219e-01) (193, 7.28733837604522705078e-01) (194, 7.06357121467590332031e-01) (195, 6.19711697101593017578e-01) (196, 7.09763109683990478516e-01) (197, 6.66973531246185302734e-01) (198, 6.43982172012329101562e-01) (199, 5.69150805473327636719e-01) (200, 5.60026347637176513672e-01) (201, 6.53371810913085937500e-01) (202, 5.58917224407196044922e-01) (203, 6.06585800647735595703e-01) (204, 7.23722100257873535156e-01) (205, 6.58777534961700439453e-01) (206, 5.91505646705627441406e-01) (207, 7.47089326381683349609e-01) (208, 5.75855612754821777344e-01) (209, 7.13347911834716796875e-01) (210, 7.28879511356353759766e-01) (211, 5.99094033241271972656e-01) (212, -1.42175629734992980957e-01) (213, 5.94020426273345947266e-01) (214, -2.78331190347671508789e-02) (215, 7.34054803848266601562e-01) (216, 6.46125137805938720703e-01) (217, 7.09114551544189453125e-01) (218, 6.32673144340515136719e-01) (219, 5.68597614765167236328e-01) (220, -1.31224825978279113770e-01) (221, 6.81948006153106689453e-01) (222, 6.15594923496246337891e-01) (223, 5.80242276191711425781e-01) (224, 6.47360980510711669922e-01) (225, 5.78660368919372558594e-01) (226, 6.04436874389648437500e-01) (227, 5.80338358879089355469e-01) (228, 7.04298138618469238281e-01) (229, 7.36157000064849853516e-01) (230, 6.65833830833435058594e-01) (231, 7.08330094814300537109e-01) (232, 6.37957751750946044922e-01) (233, 6.08669579029083251953e-01) (234, 5.64780592918395996094e-01) (235, 6.43123507499694824219e-01) (236, 7.34993577003479003906e-01) (237, 6.07580304145812988281e-01) (238, 6.09125792980194091797e-01) (239, 5.61004102230072021484e-01) (240, 5.99644958972930908203e-01) (241, 5.93850970268249511719e-01) (242, 6.21919035911560058594e-01) (243, 5.78943371772766113281e-01) (244, 6.47178471088409423828e-01) (245, 7.60517299175262451172e-01) (246, 5.82052350044250488281e-01) (247, 5.70172250270843505859e-01) (248, 6.83685064315795898438e-01) (249, -4.32442501187324523926e-02) (250, -1.26323372125625610352e-01) (251, 6.96922719478607177734e-01) (252, 5.89689850807189941406e-01) (253, 6.37590944766998291016e-01) (254, 2.26223319768905639648e-02) (255, 6.76777303218841552734e-01) (256, -2.12273150682449340820e-02) (257, -8.14567208290100097656e-02) (258, 1.51917207986116409302e-02) (259, -9.87176001071929931641e-02) (260, -9.81883630156517028809e-02) (261, 5.86397707462310791016e-01) (262, -1.39304235577583312988e-01) (263, -8.92690382897853851318e-03) (264, 6.26902461051940917969e-01) (265, 5.65242230892181396484e-01) (266, -1.17794401943683624268e-01) (267, -8.15277099609375000000e-02) (268, 6.17989659309387207031e-01) (269, -5.30059337615966796875e-02) (270, -6.67390227317810058594e-02) (271, 6.51059746742248535156e-01) (272, 6.79043292999267578125e-01) (273, 6.91633999347686767578e-01) (274, 6.69776856899261474609e-01) (275, 6.05321824550628662109e-01) (276, 6.91318452358245849609e-01) (277, 7.13675260543823242188e-01) (278, 5.84329605102539062500e-01) (279, 6.19981408119201660156e-01) (280, 6.32102608680725097656e-01) (281, 6.09020173549652099609e-01) (282, 5.69600045680999755859e-01) (283, -1.54368032235652208328e-03) (284, -8.84117267560213804245e-04) (285, 1.28920391201972961426e-01) (286, 5.94712018966674804688e-01) (287, -8.21276530623435974121e-02) (288, 5.68990051746368408203e-01) (0, 1.50000000000000000000e+03) (1, 4.09394055604934692383e-01) (2, 4.01815414428710937500e-01) (3, 3.04946720600128173828e-01) (4, -3.07925015687942504883e-01) (5, 3.44768643379211425781e-01) (6, 3.81625264883041381836e-01) (7, 4.37346696853637695312e-01) (8, 3.67343813180923461914e-01) (9, 4.51891034841537475586e-01) (10, 3.11597764492034912109e-01) (11, 4.57458257675170898438e-01) (12, 3.19949716329574584961e-01) (13, 4.16567623615264892578e-01) (14, 3.93219083547592163086e-01) (15, 4.67203617095947265625e-01) (16, 3.51693391799926757812e-01) (17, 4.17657315731048583984e-01) (18, 3.97818505764007568359e-01) (19, 3.28711628913879394531e-01) (20, 4.54732179641723632812e-01) (21, 4.70078825950622558594e-01) (22, 4.09919530153274536133e-01) (23, 3.07992249727249145508e-01) (24, 2.83756375312805175781e-01) (25, 3.23893368244171142578e-01) (26, 4.46060210466384887695e-01) (27, 4.72220003604888916016e-01) (28, 3.72083783149719238281e-01) (29, 3.11212718486785888672e-01) (30, 3.38442564010620117188e-01) (31, 3.89179319143295288086e-01) (32, 4.45107251405715942383e-01) (33, -2.70035117864608764648e-01) (34, 4.15300548076629638672e-01) (35, 3.75316649675369262695e-01) (36, 3.10465961694717407227e-01) (37, 3.19751411676406860352e-01) (38, -3.88019323348999023438e-01) (39, -3.13968420028686523438e-01) (40, -4.18384820222854614258e-01) (41, 3.63018482923507690430e-01) (42, 3.63075941801071166992e-01) (43, 3.25718969106674194336e-01) (44, 2.99081057310104370117e-01) (45, 4.72210228443145751953e-01) (46, 3.12780827283859252930e-01) (47, 3.68954330682754516602e-01) (48, 4.16511297225952148438e-01) (49, 4.27240699529647827148e-01) (50, 4.14092242717742919922e-01) (51, 3.83213102817535400391e-01) (52, 4.13724571466445922852e-01) (53, 3.43490451574325561523e-01) (54, 4.10467505455017089844e-01) (55, 4.17098551988601684570e-01) (56, 3.80339026451110839844e-01) (57, 3.78912806510925292969e-01) (58, 4.21629279851913452148e-01) (59, 4.74992096424102783203e-01) (60, 4.10945385694503784180e-01) (61, 4.65352118015289306641e-01) (62, 3.81731122732162475586e-01) (63, 3.66685360670089721680e-01) (64, 4.30512607097625732422e-01) (65, 3.23219031095504760742e-01) (66, 4.63434249162673950195e-01) (67, 4.68961477279663085938e-01) (68, 3.57808768749237060547e-01) (69, 3.18966895341873168945e-01) (70, 3.77088546752929687500e-01) (71, 3.60106140375137329102e-01) (72, 3.87621223926544189453e-01) (73, 4.65752810239791870117e-01) (74, 4.09807711839675903320e-01) (75, 4.22785133123397827148e-01) (76, 4.52880501747131347656e-01) (77, 4.38255071640014648438e-01) (78, 3.12695741653442382812e-01) (79, 3.82700979709625244141e-01) (80, 3.83361995220184326172e-01) (81, 4.44449484348297119141e-01) (82, 2.86736756563186645508e-01) (83, 3.18525612354278564453e-01) (84, 3.00684720277786254883e-01) (85, 4.19500023126602172852e-01) (86, 4.62199389934539794922e-01) (87, 4.00305360555648803711e-01) (88, 3.12348961830139160156e-01) (89, 3.94903779029846191406e-01) (90, 3.92500609159469604492e-01) (91, 4.44329410791397094727e-01) (92, 3.80164444446563720703e-01) (93, 2.98103451728820800781e-01) (94, 3.32769572734832763672e-01) (95, 3.33776950836181640625e-01) (96, 3.33727240562438964844e-01) (97, 3.22237998247146606445e-01) (98, 3.15455615520477294922e-01) (99, 4.09888565540313720703e-01) (100, 3.50575208663940429688e-01) (101, 4.10679668188095092773e-01) (102, -4.12700355052947998047e-01) (103, 4.76858258247375488281e-01) (104, -3.32500576972961425781e-01) (105, 4.21737462282180786133e-01) (106, 4.21019554138183593750e-01) (107, 3.65727841854095458984e-01) (108, 3.78349751234054565430e-01) (109, 4.50488388538360595703e-01) (110, 4.65150296688079833984e-01) (111, 2.79289036989212036133e-01) (112, 4.16176259517669677734e-01) (113, 4.72752243280410766602e-01) (114, 3.20324569940567016602e-01) (115, 4.35422271490097045898e-01) (116, 4.15242403745651245117e-01) (117, 3.04688274860382080078e-01) (118, 3.53111296892166137695e-01) (119, 4.42844629287719726562e-01) (120, 4.15563702583312988281e-01) (121, 4.68748897314071655273e-01) (122, 4.06964242458343505859e-01) (123, 3.14522027969360351562e-01) (124, 2.93242156505584716797e-01) (125, 4.61742699146270751953e-01) (126, 3.64214569330215454102e-01) (127, 3.43837350606918334961e-01) (128, 2.93217688798904418945e-01) (129, 4.05216664075851440430e-01) (130, 4.75749313831329345703e-01) (131, 3.70006948709487915039e-01) (132, 3.32092553377151489258e-01) (133, 2.93136984109878540039e-01) (134, 3.61637890338897705078e-01) (135, 4.51875090599060058594e-01) (136, 4.35779660940170288086e-01) (137, 3.08290660381317138672e-01) (138, 3.26611757278442382812e-01) (139, 3.40297102928161621094e-01) (140, 4.86233651638031005859e-01) (141, 3.16030174493789672852e-01) (142, 3.27870011329650878906e-01) (143, 4.16637003421783447266e-01) (144, 3.15618574619293212891e-01) (145, 3.72990608215332031250e-01) (146, 3.70661735534667968750e-01) (147, 4.35340374708175659180e-01) (148, 3.87490987777709960938e-01) (149, 4.42642331123352050781e-01) (150, 3.98588627576828002930e-01) (151, 3.21740925312042236328e-01) (152, 4.35934394598007202148e-01) (153, 3.25863987207412719727e-01) (154, 3.55363577604293823242e-01) (155, -2.68579632043838500977e-01) (156, -4.06081765890121459961e-01) (157, 4.43162500858306884766e-01) (158, 3.06778073310852050781e-01) (159, 3.21995496749877929688e-01) (160, 3.64358901977539062500e-01) (161, 3.00085127353668212891e-01) (162, 4.06425356864929199219e-01) (163, 4.16002601385116577148e-01) (164, 3.19291979074478149414e-01) (165, 2.95749217271804809570e-01) (166, 3.80851000547409057617e-01) (167, 4.56988513469696044922e-01) (168, 3.20302963256835937500e-01) (169, 4.27110046148300170898e-01) (170, 3.04848521947860717773e-01) (171, 3.20180416107177734375e-01) (172, 4.62552487850189208984e-01) (173, 3.58496963977813720703e-01) (174, 4.55501526594161987305e-01) (175, 2.94531822204589843750e-01) (176, 4.39159810543060302734e-01) (177, 3.40077996253967285156e-01) (178, 4.44818377494812011719e-01) (179, 3.44965517520904541016e-01) (180, 3.10591638088226318359e-01) (181, 3.63833338022232055664e-01) (182, 3.86606633663177490234e-01) (183, 4.89838838577270507812e-01) (184, 4.16913926601409912109e-01) (185, 4.62721884250640869141e-01) (186, 4.23997759819030761719e-01) (187, 4.33606177568435668945e-01) (188, 4.26028996706008911133e-01) (189, 4.59450513124465942383e-01) (190, 4.74760949611663818359e-01) (191, 3.08824688196182250977e-01) (192, 4.69765514135360717773e-01) (193, 4.00890290737152099609e-01) (194, 4.43553894758224487305e-01) (195, 3.01391810178756713867e-01) (196, 4.24165695905685424805e-01) (197, 3.48694324493408203125e-01) (198, 2.87761956453323364258e-01) (199, 4.58865821361541748047e-01) (200, 2.87245243787765502930e-01) (201, 3.07284206151962280273e-01) (202, 3.00672590732574462891e-01) (203, 4.71040517091751098633e-01) (204, 3.75860810279846191406e-01) (205, 4.77451801300048828125e-01) (206, 4.82130616903305053711e-01) (207, 3.32266420125961303711e-01) (208, 3.39178860187530517578e-01) (209, 4.45072144269943237305e-01) (210, 3.99887025356292724609e-01) (211, 3.69183957576751708984e-01) (212, -3.75650882720947265625e-01) (213, 3.02980333566665649414e-01) (214, -3.51305216550827026367e-01) (215, 4.63780671358108520508e-01) (216, 2.86094367504119873047e-01) (217, 3.06893825531005859375e-01) (218, 4.06634002923965454102e-01) (219, 4.28506016731262207031e-01) (220, -2.49060794711112976074e-01) (221, 4.04142707586288452148e-01) (222, 4.59876418113708496094e-01) (223, 4.59749937057495117188e-01) (224, 3.35627466440200805664e-01) (225, 4.22728031873703002930e-01) (226, 3.04792642593383789062e-01) (227, 4.65900927782058715820e-01) (228, 2.89791256189346313477e-01) (229, 2.83200740814208984375e-01) (230, 4.46757465600967407227e-01) (231, 2.94088453054428100586e-01) (232, 3.11187684535980224609e-01) (233, 4.64903980493545532227e-01) (234, 2.90590435266494750977e-01) (235, 4.05331075191497802734e-01) (236, 4.58088278770446777344e-01) (237, 2.83447355031967163086e-01) (238, 4.61779356002807617188e-01) (239, 3.18006783723831176758e-01) (240, 4.54520523548126220703e-01) (241, 3.79908114671707153320e-01) (242, 4.05850201845169067383e-01) (243, 2.95821726322174072266e-01) (244, 4.02410000562667846680e-01) (245, 4.86822366714477539062e-01) (246, 4.69517409801483154297e-01) (247, 4.08526599407196044922e-01) (248, 2.99285441637039184570e-01) (249, -3.07098597288131713867e-01) (250, -3.56201440095901489258e-01) (251, 2.85597741603851318359e-01) (252, 3.26362937688827514648e-01) (253, 3.35329473018646240234e-01) (254, -2.60408967733383178711e-01) (255, 3.73465925455093383789e-01) (256, -2.47923687100410461426e-01) (257, -2.44398325681686401367e-01) (258, -3.54702562093734741211e-01) (259, -4.48391258716583251953e-01) (260, -2.38026365637779235840e-01) (261, 3.22963982820510864258e-01) (262, -4.02267068624496459961e-01) (263, -4.12563204765319824219e-01) (264, 3.06247413158416748047e-01) (265, 2.96739429235458374023e-01) (266, -2.74830222129821777344e-01) (267, -4.18192714452743530273e-01) (268, 3.01903069019317626953e-01) (269, -2.91189849376678466797e-01) (270, -3.81378829479217529297e-01) (271, 4.68122750520706176758e-01) (272, 3.14721733331680297852e-01) (273, 4.49043929576873779297e-01) (274, 2.83910632133483886719e-01) (275, 4.33971762657165527344e-01) (276, 4.58051532506942749023e-01) (277, 4.74530190229415893555e-01) (278, 3.63695532083511352539e-01) (279, 4.65941160917282104492e-01) (280, 3.93292903900146484375e-01) (281, 4.40069228410720825195e-01) (282, 4.71992850303649902344e-01) (283, -2.38851502537727355957e-01) (284, -4.10050541162490844727e-01) (285, -2.07299470901489257812e-01) (286, 3.38263422250747680664e-01) (287, -4.11625206470489501953e-01) (288, 4.87505793571472167969e-01) (0, 1.50000000000000000000e+03) (1, -8.41461867094039916992e-02) (2, 8.51632207632064819336e-02) (3, 8.48668366670608520508e-02) (4, 6.84831321239471435547e-01) (5, -1.00046031177043914795e-01) (6, -8.83934721350669860840e-02) (7, -5.09443953633308410645e-02) (8, 5.14495596289634704590e-02) (9, -7.87906423211097717285e-02) (10, -2.99414359033107757568e-02) (11, -3.91305005177855491638e-03) (12, -4.19638715684413909912e-02) (13, -4.15913015604019165039e-02) (14, 3.20363231003284454346e-02) (15, -6.99894726276397705078e-02) (16, -2.92568709701299667358e-02) (17, -2.21006050705909729004e-02) (18, 9.77733954787254333496e-02) (19, -4.34395447373390197754e-02) (20, 6.24718517065048217773e-02) (21, 8.33887979388236999512e-02) (22, 7.79245644807815551758e-02) (23, 2.22352202981710433960e-02) (24, 8.09493735432624816895e-02) (25, 4.48063276708126068115e-02) (26, 4.27844636142253875732e-02) (27, 6.44316822290420532227e-02) (28, 9.73071008920669555664e-02) (29, 5.89723661541938781738e-02) (30, 4.75570224225521087646e-02) (31, 2.90543604642152786255e-02) (32, 8.42642635107040405273e-02) (33, 7.61830031871795654297e-01) (34, 1.23378299176692962646e-02) (35, -8.58877152204513549805e-02) (36, 1.64062883704900741577e-02) (37, 1.87883954495191574097e-02) (38, 7.24136173725128173828e-01) (39, 7.10595548152923583984e-01) (40, 8.41635465621948242188e-01) (41, 3.25233936309814453125e-02) (42, 6.10759034752845764160e-02) (43, 9.25559177994728088379e-02) (44, 9.05775353312492370605e-02) (45, -2.04752013087272644043e-02) (46, -7.93931856751441955566e-02) (47, -4.54323589801788330078e-02) (48, 7.00140073895454406738e-02) (49, -8.14257711172103881836e-02) (50, 8.68795439600944519043e-03) (51, 3.14520597457885742188e-02) (52, -9.28788110613822937012e-02) (53, -6.66266493499279022217e-03) (54, -5.35312555730342864990e-02) (55, 7.70065262913703918457e-02) (56, -8.13056379556655883789e-02) (57, 8.73553529381752014160e-02) (58, 5.80435916781425476074e-02) (59, -8.79314765334129333496e-02) (60, 4.55786772072315216064e-02) (61, -1.16666788235306739807e-02) (62, 4.34306226670742034912e-02) (63, 2.63134147971868515015e-02) (64, -9.49336215853691101074e-02) (65, -4.26611974835395812988e-02) (66, 4.12621274590492248535e-02) (67, 3.31248231232166290283e-02) (68, 7.39734694361686706543e-02) (69, 9.79918912053108215332e-02) (70, 9.25304442644119262695e-02) (71, 1.25079350546002388000e-02) (72, 2.48853322118520736694e-02) (73, 5.54823316633701324463e-02) (74, 4.62062470614910125732e-03) (75, 2.03867815434932708740e-02) (76, -5.72330355644226074219e-02) (77, 2.49250270426273345947e-02) (78, 7.49913081526756286621e-02) (79, 9.31681096553802490234e-02) (80, 4.36947941780090332031e-02) (81, -5.11537818238139152527e-03) (82, 1.29482196643948554993e-02) (83, 5.63612654805183410645e-02) (84, 6.73223361372947692871e-02) (85, 5.47269843518733978271e-02) (86, 2.72771511226892471313e-02) (87, 8.68891403079032897949e-02) (88, 4.88757900893688201904e-02) (89, -2.44858358055353164673e-02) (90, -8.93593654036521911621e-02) (91, -6.46068528294563293457e-03) (92, 6.73265755176544189453e-02) (93, 4.44638878107070922852e-02) (94, -8.02942663431167602539e-02) (95, 6.99713006615638732910e-02) (96, -9.73297432065010070801e-02) (97, 6.45864754915237426758e-02) (98, -7.59038515388965606689e-03) (99, 7.88067728281021118164e-02) (100, 5.51436692476272583008e-02) (101, -1.23425340279936790466e-02) (102, 7.56688952445983886719e-01) (103, -1.40753164887428283691e-02) (104, 7.04402446746826171875e-01) (105, 9.17121917009353637695e-02) (106, -9.60972532629966735840e-02) (107, -2.66941636800765991211e-02) (108, 1.60119384527206420898e-02) (109, 8.34925919771194458008e-02) (110, -3.04107833653688430786e-02) (111, -3.68846915662288665771e-02) (112, -3.02294716238975524902e-02) (113, 8.20603817701339721680e-02) (114, -8.94692987203598022461e-02) (115, -5.98843693733215332031e-02) (116, 4.81122806668281555176e-02) (117, 4.31263409554958343506e-02) (118, -6.01794905960559844971e-02) (119, -8.57313442975282669067e-03) (120, -8.03087279200553894043e-02) (121, -6.84942752122879028320e-02) (122, 8.46786201000213623047e-02) (123, 8.96040573716163635254e-02) (124, 8.36230516433715820312e-02) (125, -9.21609327197074890137e-02) (126, 6.50512725114822387695e-02) (127, 7.50375688076019287109e-02) (128, 6.40783682465553283691e-02) (129, -4.60705496370792388916e-02) (130, 5.34074120223522186279e-02) (131, 1.81503780186176300049e-02) (132, 4.35056760907173156738e-02) (133, -5.73749206960201263428e-02) (134, -9.54475402832031250000e-02) (135, 9.22533571720123291016e-02) (136, -5.84094896912574768066e-02) (137, -8.52348506450653076172e-02) (138, -3.65673638880252838135e-02) (139, 6.94915726780891418457e-02) (140, 1.10486648976802825928e-01) (141, 3.44368331134319305420e-02) (142, -8.10253918170928955078e-02) (143, -3.14981862902641296387e-02) (144, 1.93427372723817825317e-02) (145, -6.49915710091590881348e-02) (146, 8.58326815068721771240e-03) (147, -4.29097115993499755859e-02) (148, 7.00395628809928894043e-02) (149, 4.89063188433647155762e-02) (150, 4.40711751580238342285e-02) (151, 9.05551090836524963379e-02) (152, 6.72705769538879394531e-02) (153, 3.10346577316522598267e-02) (154, 8.89115184545516967773e-02) (155, 8.28078627586364746094e-01) (156, 8.15992534160614013672e-01) (157, 4.17310670018196105957e-02) (158, 1.96412280201911926270e-02) (159, -1.53447932098060846329e-03) (160, 9.80324819684028625488e-02) (161, -2.50084251165390014648e-02) (162, -7.63463973999023437500e-02) (163, 4.18909266591072082520e-02) (164, 2.88480371236801147461e-02) (165, -7.07100480794906616211e-02) (166, 2.85088066011667251587e-02) (167, 5.73933571577072143555e-02) (168, -5.20997680723667144775e-02) (169, 9.58165079355239868164e-02) (170, 9.42191854119300842285e-03) (171, -5.53297922015190124512e-02) (172, 2.25523859262466430664e-02) (173, 3.99860814213752746582e-02) (174, 1.42801450565457344055e-02) (175, -5.49575500190258026123e-02) (176, 5.67515119910240173340e-02) (177, -7.02832713723182678223e-02) (178, -7.36971199512481689453e-03) (179, 2.99735926091670989990e-02) (180, 6.27020224928855895996e-02) (181, -6.22154548764228820801e-02) (182, 2.25673448294401168823e-02) (183, 4.25590537488460540771e-02) (184, 8.00408422946929931641e-02) (185, 2.19431309960782527924e-03) (186, -2.27115377783775329590e-02) (187, 6.24701846390962600708e-03) (188, -5.63732087612152099609e-02) (189, 1.07408083975315093994e-01) (190, -9.36421826481819152832e-02) (191, -5.64425326883792877197e-02) (192, -2.57921591401100158691e-02) (193, -6.17842972278594970703e-02) (194, 8.75620022416114807129e-02) (195, 8.98219123482704162598e-02) (196, -3.53360846638679504395e-02) (197, 2.37602312117815017700e-02) (198, 4.94979210197925567627e-02) (199, 8.57690908014774322510e-03) (200, 1.40439923852682113647e-02) (201, -4.66718301177024841309e-02) (202, 4.90708611905574798584e-02) (203, -6.48960471153259277344e-02) (204, 8.41237604618072509766e-02) (205, -3.86821143329143524170e-02) (206, -3.00479382276535034180e-02) (207, 4.69875596463680267334e-02) (208, -1.12659679725766181946e-02) (209, 6.76463618874549865723e-02) (210, -2.64041852205991744995e-02) (211, -4.75702136754989624023e-02) (212, 6.80665194988250732422e-01) (213, 9.72748249769210815430e-02) (214, 8.60017299652099609375e-01) (215, 8.82961302995681762695e-02) (216, -5.94670185819268226624e-04) (217, -3.27768325805664062500e-02) (218, -1.50405392050743103027e-02) (219, 4.89840060472488403320e-02) (220, 7.52749264240264892578e-01) (221, -8.42128228396177291870e-03) (222, 8.93203020095825195312e-02) (223, 3.27122844755649566650e-02) (224, 2.33834963291883468628e-02) (225, 7.73007869720458984375e-02) (226, 2.69083492457866668701e-02) (227, 7.66119658946990966797e-02) (228, 4.13709739223122596741e-03) (229, -3.36865782737731933594e-02) (230, -1.99379846453666687012e-02) (231, -8.55272784829139709473e-02) (232, 1.73551961779594421387e-02) (233, -6.94808736443519592285e-02) (234, -5.24476394057273864746e-02) (235, 1.25867743045091629028e-02) (236, -2.83028720878064632416e-03) (237, 1.49041488766670227051e-02) (238, -5.44528625905513763428e-02) (239, 8.51355791091918945312e-02) (240, -7.80662940815091133118e-03) (241, 1.98339428752660751343e-02) (242, -5.87603412568569183350e-02) (243, -1.45600587129592895508e-02) (244, 1.89894810318946838379e-02) (245, -6.78533092141151428223e-02) (246, -3.67678552865982055664e-02) (247, -8.22840556502342224121e-02) (248, -1.95003785192966461182e-02) (249, 7.99584150314331054688e-01) (250, 8.39602887630462646484e-01) (251, 3.99693027138710021973e-02) (252, -6.94550573825836181641e-02) (253, 5.31103126704692840576e-02) (254, 7.25301384925842285156e-01) (255, 4.75622266530990600586e-02) (256, 7.61717617511749267578e-01) (257, 8.38979482650756835938e-01) (258, 7.63215661048889160156e-01) (259, 6.80755674839019775391e-01) (260, 7.01196789741516113281e-01) (261, -8.46409872174263000488e-02) (262, 6.98389172554016113281e-01) (263, 8.18466901779174804688e-01) (264, -6.29344061017036437988e-02) (265, -2.17292252928018569946e-02) (266, 7.50825941562652587891e-01) (267, 8.04284691810607910156e-01) (268, 9.16336923837661743164e-02) (269, 7.89811193943023681641e-01) (270, 7.89154410362243652344e-01) (271, -2.65644490718841552734e-02) (272, -6.43723756074905395508e-02) (273, 5.56179359555244445801e-02) (274, 6.05563856661319732666e-02) (275, 6.41953349113464355469e-02) (276, 8.12277421355247497559e-02) (277, -7.91560187935829162598e-02) (278, 7.17862024903297424316e-02) (279, -4.13682758808135986328e-02) (280, 6.57035261392593383789e-02) (281, 3.71750704944133758545e-02) (282, 9.67842265963554382324e-02) (283, 8.32116365432739257812e-01) (284, 7.27155327796936035156e-01) (285, 6.60474896430969238281e-01) (286, 4.55514900386333465576e-02) (287, 6.90251588821411132812e-01) (288, -1.22643381357192993164e-01) (0, 1.50000000000000000000e+03) (1, -5.40660694241523742676e-02) (2, 1.57395601272583007812e-02) (3, -1.72400865703821182251e-02) (4, 7.39824533462524414062e-01) (5, -2.73293349891901016235e-02) (6, 1.96901261806488037109e-02) (7, 6.29231408238410949707e-02) (8, 4.24103848636150360107e-02) (9, -4.31100279092788696289e-02) (10, 5.66807538270950317383e-02) (11, -2.92844157665967941284e-02) (12, 6.86256662011146545410e-02) (13, -6.88344240188598632812e-02) (14, 1.16987954825162887573e-02) (15, 2.64019854366779327393e-02) (16, 1.01738944649696350098e-01) (17, -4.28271628916263580322e-02) (18, 2.37326719798147678375e-03) (19, -8.30921232700347900391e-02) (20, -6.92653134465217590332e-02) (21, 6.02620951831340789795e-02) (22, 8.90202969312667846680e-02) (23, 6.43893480300903320312e-02) (24, 6.15871623158454895020e-02) (25, 9.10613909363746643066e-02) (26, -4.47460561990737915039e-02) (27, -7.23046436905860900879e-02) (28, 3.29133234918117523193e-02) (29, -2.51491852104663848877e-02) (30, -1.21991587802767753601e-02) (31, -1.00279882550239562988e-01) (32, 3.02228741347789764404e-02) (33, 8.36029887199401855469e-01) (34, -1.91033631563186645508e-02) (35, -8.75072926282882690430e-02) (36, -4.00569364428520202637e-02) (37, 9.54308211803436279297e-02) (38, 8.36384117603302001953e-01) (39, 6.45093142986297607422e-01) (40, 7.53958523273468017578e-01) (41, 3.13935391604900360107e-02) (42, -2.97978594899177551270e-02) (43, -8.45314934849739074707e-02) (44, 6.22045919299125671387e-02) (45, 6.83134868741035461426e-02) (46, 3.99108752608299255371e-02) (47, 5.71904964745044708252e-02) (48, -6.19238168001174926758e-02) (49, -5.75218908488750457764e-02) (50, 7.16582164168357849121e-02) (51, -3.22229415178298950195e-02) (52, -9.21016559004783630371e-02) (53, 6.74033463001251220703e-02) (54, -7.50521421432495117188e-02) (55, 5.84214553236961364746e-02) (56, 3.90154868364334106445e-02) (57, -2.16960180550813674927e-02) (58, 1.02722182869911193848e-01) (59, -3.20041403174400329590e-02) (60, 5.24057596921920776367e-02) (61, -2.67442576587200164795e-02) (62, -2.99762859940528869629e-02) (63, -2.09009181708097457886e-02) (64, -3.91911081969738006592e-02) (65, 5.24907708168029785156e-02) (66, -7.57180619984865188599e-03) (67, 3.24040949344635009766e-02) (68, 4.57678772509098052979e-02) (69, -3.85940894484519958496e-02) (70, 2.63073667883872985840e-02) (71, 9.70949679613113403320e-02) (72, 8.71695205569267272949e-02) (73, 9.83854234218597412109e-02) (74, -8.83493795990943908691e-02) (75, 5.42980134487152099609e-02) (76, 7.44588002562522888184e-02) (77, 5.12590780854225158691e-02) (78, 1.15254335105419158936e-02) (79, 9.29221361875534057617e-02) (80, 9.39326509833335876465e-02) (81, -5.61099126935005187988e-03) (82, -5.09727634489536285400e-02) (83, 1.07376247644424438477e-01) (84, -5.88729642331600189209e-02) (85, -3.07148899883031845093e-02) (86, 5.97071163356304168701e-02) (87, 8.07806625962257385254e-02) (88, 5.43825402855873107910e-02) (89, 5.26227205991744995117e-02) (90, -3.95404919981956481934e-02) (91, 5.87316788733005523682e-03) (92, -7.06423893570899963379e-02) (93, 2.08758525550365447998e-02) (94, 8.51655527949333190918e-02) (95, -1.22551824897527694702e-02) (96, -2.57657766342163085938e-02) (97, -1.91279612481594085693e-02) (98, -9.05376300215721130371e-02) (99, -7.78348743915557861328e-02) (100, 3.48432809114456176758e-02) (101, 3.84871549904346466064e-02) (102, 6.84164702892303466797e-01) (103, 2.79085040092468261719e-02) (104, 7.97660231590270996094e-01) (105, -7.41949155926704406738e-02) (106, -2.02021859586238861084e-02) (107, -1.26952771097421646118e-03) (108, 7.68517553806304931641e-02) (109, 9.59217399358749389648e-02) (110, -5.23208640515804290771e-03) (111, 7.41929784417152404785e-02) (112, -1.82959400117397308350e-02) (113, 4.33180741965770721436e-02) (114, 7.26234540343284606934e-02) (115, 2.56195180118083953857e-02) (116, -7.60719329118728637695e-02) (117, 3.76490578055381774902e-02) (118, 1.92159246653318405151e-02) (119, 7.27494210004806518555e-02) (120, -8.67740809917449951172e-03) (121, 6.07200153172016143799e-02) (122, -2.16649509966373443604e-02) (123, 2.32663881033658981323e-02) (124, -1.07506345957517623901e-02) (125, -3.33850122988224029541e-02) (126, -8.38321074843406677246e-02) (127, 5.22277988493442535400e-02) (128, 3.91398631036281585693e-02) (129, -7.75819495320320129395e-02) (130, 7.39559158682823181152e-02) (131, -2.70885583013296127319e-02) (132, 6.28239214420318603516e-02) (133, 9.06493514776229858398e-02) (134, -9.87026393413543701172e-02) (135, 5.30446553602814674377e-03) (136, -7.58794173598289489746e-02) (137, -1.25949066132307052612e-02) (138, -9.80916842818260192871e-02) (139, 1.13331079483032226562e-01) (140, -4.44419961422681808472e-03) (141, -1.90881243906915187836e-03) (142, 7.37234950065612792969e-02) (143, 6.55044689774513244629e-02) (144, -5.57452440261840820312e-02) (145, 5.20184412598609924316e-02) (146, -8.91014002263545989990e-03) (147, -4.21819090843200683594e-02) (148, -1.88973490148782730103e-02) (149, -8.91916975378990173340e-02) (150, -7.38783925771713256836e-02) (151, 7.32494965195655822754e-02) (152, 5.83869293332099914551e-02) (153, 6.74146413803100585938e-03) (154, 5.26827387511730194092e-03) (155, 7.24821150302886962891e-01) (156, 8.50638449192047119141e-01) (157, 9.52358450740575790405e-03) (158, 9.35739949345588684082e-02) (159, 8.48009157925844192505e-03) (160, 3.43136079609394073486e-02) (161, 6.94729089736938476562e-02) (162, 8.79588574171066284180e-02) (163, -2.50969873741269111633e-03) (164, 7.13536962866783142090e-02) (165, 9.03401225805282592773e-02) (166, 9.71591994166374206543e-02) (167, 8.24290886521339416504e-02) (168, -1.84096358716487884521e-02) (169, 1.02942600846290588379e-01) (170, 7.78276026248931884766e-02) (171, 6.34294375777244567871e-02) (172, -6.66717346757650375366e-03) (173, 6.28393739461898803711e-02) (174, 3.00420746207237243652e-02) (175, 4.07349206507205963135e-02) (176, -3.85484471917152404785e-03) (177, -7.20147565007209777832e-02) (178, 8.90505239367485046387e-02) (179, 8.04302990436553955078e-02) (180, -7.71274268627166748047e-02) (181, -8.37447866797447204590e-02) (182, 5.57184666395187377930e-02) (183, 9.38458442687988281250e-02) (184, 3.42183299362659454346e-02) (185, -4.82978746294975280762e-02) (186, -7.46821016073226928711e-02) (187, -5.09279454126954078674e-03) (188, 6.09271042048931121826e-02) (189, -7.06296488642692565918e-02) (190, -9.48982462286949157715e-02) (191, -2.86111980676651000977e-03) (192, 9.06514301896095275879e-02) (193, 1.00725322961807250977e-01) (194, 9.67428162693977355957e-02) (195, 4.87712174654006958008e-02) (196, 8.82237106561660766602e-02) (197, 1.01591438055038452148e-01) (198, 3.34829501807689666748e-02) (199, -3.41731049120426177979e-02) (200, 9.90013256669044494629e-02) (201, 5.71889989078044891357e-03) (202, -7.49199166893959045410e-02) (203, -9.15826018899679183960e-03) (204, -4.06322069466114044189e-02) (205, 5.36482669413089752197e-02) (206, -7.86176696419715881348e-02) (207, 6.16252012550830841064e-02) (208, 7.87736698985099792480e-02) (209, -8.45030695199966430664e-02) (210, 3.86902056634426116943e-02) (211, -9.73600372672080993652e-02) (212, 7.06986427307128906250e-01) (213, -4.47965785861015319824e-03) (214, 8.61514329910278320312e-01) (215, 6.87948763370513916016e-02) (216, 4.71586361527442932129e-02) (217, -8.32503512501716613770e-02) (218, -4.58815954625606536865e-02) (219, 1.40376305207610130310e-02) (220, 7.24237978458404541016e-01) (221, -4.10579591989517211914e-02) (222, -9.20446068048477172852e-02) (223, -7.93553888797760009766e-02) (224, -4.67435158789157867432e-02) (225, -9.48833078145980834961e-02) (226, 7.37899169325828552246e-02) (227, -7.04247951507568359375e-02) (228, -9.02158468961715698242e-02) (229, -2.81994463875889778137e-03) (230, -9.67186782509088516235e-03) (231, 1.05077154934406280518e-01) (232, -9.93874520063400268555e-02) (233, 1.72111839056015014648e-02) (234, -6.10537873581051826477e-03) (235, -2.89118699729442596436e-02) (236, -2.43670232594013214111e-02) (237, 1.26766636967658996582e-02) (238, -8.13138559460639953613e-02) (239, -4.63614985346794128418e-02) (240, 3.81150133907794952393e-02) (241, 5.80673217773437500000e-02) (242, -4.00472395122051239014e-02) (243, 5.73843009769916534424e-02) (244, -4.48302105069160461426e-02) (245, -4.76431287825107574463e-02) (246, 1.56752429902553558350e-02) (247, -9.84872728586196899414e-02) (248, -4.97637242078781127930e-02) (249, 8.21186184883117675781e-01) (250, 7.88888633251190185547e-01) (251, -1.88053157180547714233e-02) (252, -8.00865143537521362305e-02) (253, 2.10311654955148696899e-02) (254, 7.54459142684936523438e-01) (255, -3.35994511842727661133e-02) (256, 7.57051169872283935547e-01) (257, 7.15018749237060546875e-01) (258, 7.35486865043640136719e-01) (259, 7.81181156635284423828e-01) (260, 8.08102726936340332031e-01) (261, 9.70460847020149230957e-02) (262, 7.84782230854034423828e-01) (263, 8.08630108833312988281e-01) (264, 6.71166600659489631653e-03) (265, -8.33986550569534301758e-02) (266, 6.98993802070617675781e-01) (267, 8.51294875144958496094e-01) (268, 2.81399600207805633545e-02) (269, 7.11614787578582763672e-01) (270, 7.05766558647155761719e-01) (271, -4.48382794857025146484e-02) (272, 9.56646203994750976562e-02) (273, -8.73757991939783096313e-03) (274, -8.57731029391288757324e-02) (275, -3.92887741327285766602e-02) (276, 3.67631763219833374023e-02) (277, 2.69576143473386764526e-02) (278, -4.74657826125621795654e-02) (279, 8.39037448167800903320e-02) (280, -6.58080959692597389221e-03) (281, 6.72089159488677978516e-02) (282, -3.64303626120090484619e-02) (283, 7.50575780868530273438e-01) (284, 7.15745449066162109375e-01) (285, 7.55503118038177490234e-01) (286, 8.06676223874092102051e-02) (287, 6.83942973613739013672e-01) (288, -1.50948747992515563965e-01) (0, 1.50000000000000000000e+03) (1, -1.08073409646749496460e-02) (2, 4.35492396354675292969e-02) (3, -9.35797318816184997559e-02) (4, 3.41079473495483398438e-01) (5, -1.38378115370869636536e-02) (6, 1.24382646754384040833e-02) (7, -6.79563656449317932129e-02) (8, 9.30655933916568756104e-03) (9, 1.56392380595207214355e-02) (10, -1.36003240942955017090e-01) (11, -1.39048933982849121094e-01) (12, 3.39194796979427337646e-02) (13, -7.68352150917053222656e-02) (14, -1.39023333787918090820e-01) (15, -7.85333663225173950195e-02) (16, -6.80675134062767028809e-02) (17, -1.08520567417144775391e-01) (18, -1.40000835061073303223e-01) (19, -1.39358773827552795410e-01) (20, -5.31806051731109619141e-02) (21, -1.51519536972045898438e-01) (22, -2.79238633811473846436e-02) (23, -8.20726826786994934082e-02) (24, -9.40430685877799987793e-02) (25, -1.31339743733406066895e-01) (26, -5.09892823174595832825e-04) (27, -1.29973769187927246094e-01) (28, -1.52213752269744873047e-01) (29, 1.77130009979009628296e-02) (30, -8.58369246125221252441e-02) (31, -6.20530694723129272461e-02) (32, -2.48962473124265670776e-02) (33, 3.11773300170898437500e-01) (34, 2.61357775889337062836e-03) (35, 2.49770097434520721436e-02) (36, 2.49739307910203933716e-02) (37, -1.63778401911258697510e-02) (38, 3.48525702953338623047e-01) (39, 4.19698208570480346680e-01) (40, 3.75363647937774658203e-01) (41, -6.43775388598442077637e-02) (42, -1.50564415380358695984e-02) (43, -6.66628405451774597168e-02) (44, 1.71030387282371520996e-02) (45, -6.59016286954283714294e-03) (46, 1.86164639890193939209e-02) (47, -9.69857648015022277832e-02) (48, -1.38649240136146545410e-01) (49, 3.53923849761486053467e-02) (50, -7.03339725732803344727e-02) (51, -5.60300648212432861328e-02) (52, 3.38637977838516235352e-02) (53, 6.01717792451381683350e-02) (54, 1.77076440304517745972e-02) (55, -8.29086452722549438477e-02) (56, -1.29422217607498168945e-01) (57, -1.66046768426895141602e-02) (58, -4.29555624723434448242e-02) (59, -1.18043176829814910889e-01) (60, -4.02005650103092193604e-02) (61, -6.02636951953172683716e-03) (62, -2.87821646779775619507e-02) (63, -1.25432133674621582031e-01) (64, 3.26492674648761749268e-02) (65, -5.07923215627670288086e-02) (66, -1.36486649513244628906e-01) (67, 3.74965034425258636475e-02) (68, -1.20168477296829223633e-01) (69, -5.77511265873908996582e-02) (70, -3.56508232653141021729e-02) (71, -3.08456551283597946167e-02) (72, 4.85163480043411254883e-02) (73, -7.92618319392204284668e-02) (74, -1.27302318811416625977e-01) (75, 1.61744877696037292480e-02) (76, -1.40221714973449707031e-01) (77, 4.38814014196395874023e-02) (78, -1.21000044047832489014e-01) (79, -1.34995698928833007812e-01) (80, 3.44862751662731170654e-02) (81, -3.65764796733856201172e-02) (82, -2.73138843476772308350e-02) (83, 3.05960271507501602173e-02) (84, -3.54496315121650695801e-02) (85, -4.30485233664512634277e-02) (86, -9.63467285037040710449e-02) (87, -9.13265068084001541138e-03) (88, -1.15150950849056243896e-01) (89, -1.51948328129947185516e-03) (90, 2.69379764795303344727e-02) (91, 9.55305248498916625977e-03) (92, -5.10759986937046051025e-02) (93, -3.80918681621551513672e-02) (94, 4.16465513408184051514e-02) (95, -5.48442229628562927246e-02) (96, -1.48857280611991882324e-01) (97, -1.23792231082916259766e-01) (98, -7.68335834145545959473e-02) (99, -1.15378201007843017578e-01) (100, -2.48774439096450805664e-02) (101, 4.23200130462646484375e-02) (102, 4.56258326768875122070e-01) (103, -4.21139746904373168945e-02) (104, 3.52570056915283203125e-01) (105, -1.52817711234092712402e-01) (106, -6.35290667414665222168e-02) (107, -6.65034502744674682617e-02) (108, -1.52096837759017944336e-01) (109, -3.36625352501869201660e-02) (110, -5.05408346652984619141e-02) (111, 3.35300490260124206543e-02) (112, -1.09690494835376739502e-01) (113, -1.19374521076679229736e-01) (114, 2.64062564820051193237e-02) (115, 8.58095567673444747925e-03) (116, 1.16772437468171119690e-02) (117, -1.08177013695240020752e-01) (118, -4.87240701913833618164e-02) (119, 3.10216918587684631348e-02) (120, 3.79945263266563415527e-02) (121, -6.00354671478271484375e-02) (122, -1.89926312305033206940e-03) (123, -5.88951185345649719238e-02) (124, -1.22262850403785705566e-01) (125, 4.51235147193074226379e-03) (126, -1.61569416522979736328e-01) (127, -1.20403587818145751953e-01) (128, 1.60025805234909057617e-02) (129, -6.81185498833656311035e-02) (130, -7.46334269642829895020e-02) (131, -5.88484071195125579834e-02) (132, -7.57653564214706420898e-02) (133, -8.53057801723480224609e-02) (134, -1.40348032116889953613e-01) (135, 8.95094778388738632202e-03) (136, -7.69386813044548034668e-02) (137, -5.22015243768692016602e-02) (138, -1.25397443771362304688e-01) (139, -8.23352783918380737305e-02) (140, -1.09297364950180053711e-01) (141, -2.14132238179445266724e-02) (142, -9.55958142876625061035e-02) (143, -7.61528238654136657715e-02) (144, 4.57756631076335906982e-02) (145, -9.62281972169876098633e-02) (146, -1.08380675315856933594e-01) (147, -3.29823419451713562012e-02) (148, -6.90816044807434082031e-02) (149, -1.67368139955215156078e-04) (150, -3.14470604062080383301e-02) (151, -7.42393136024475097656e-02) (152, -9.12017673254013061523e-02) (153, -7.52057060599327087402e-02) (154, 2.32947710901498794556e-02) (155, 3.59199047088623046875e-01) (156, 3.16539734601974487305e-01) (157, 2.67351623624563217163e-02) (158, -3.67839001119136810303e-02) (159, -1.41354948282241821289e-01) (160, -9.21155810356140136719e-02) (161, -1.56514152884483337402e-01) (162, -5.27352206408977508545e-02) (163, -1.20639409869909286499e-02) (164, -7.40739032626152038574e-02) (165, -3.37997227907180786133e-02) (166, -6.16860128939151763916e-02) (167, -3.21421958506107330322e-02) (168, -1.35582417249679565430e-01) (169, -2.88152284920215606689e-02) (170, 4.05247174203395843506e-02) (171, -1.01139247417449951172e-01) (172, -8.04731473326683044434e-02) (173, -8.41081589460372924805e-02) (174, -2.17197984457015991211e-02) (175, -8.28894972801208496094e-02) (176, -5.13331145048141479492e-02) (177, 2.25565619766712188721e-02) (178, 3.40064987540245056152e-02) (179, 3.45196761190891265869e-02) (180, -1.10011994838714599609e-02) (181, -4.09307628870010375977e-02) (182, -8.61565247178077697754e-02) (183, -1.58553153276443481445e-01) (184, -1.39073252677917480469e-01) (185, -9.98393297195434570312e-02) (186, -7.01442509889602661133e-02) (187, -1.20276004076004028320e-01) (188, -1.16204284131526947021e-01) (189, -1.27335265278816223145e-01) (190, -1.01638868451118469238e-01) (191, -5.27928695082664489746e-02) (192, -1.47090092301368713379e-01) (193, 5.82785159349441528320e-03) (194, -1.08958207070827484131e-01) (195, -7.72271230816841125488e-02) (196, -5.01491762697696685791e-02) (197, -1.54627929441630840302e-03) (198, -1.27430841326713562012e-01) (199, -4.48643527925014495850e-02) (200, -9.32418033480644226074e-02) (201, -1.44426599144935607910e-01) (202, 1.65893267840147018433e-02) (203, -1.33726028725504875183e-02) (204, -9.26148965954780578613e-02) (205, -4.59814295172691345215e-02) (206, -1.46755978465080261230e-01) (207, 7.35904369503259658813e-03) (208, -6.64206296205520629883e-02) (209, 4.17556725442409515381e-02) (210, 5.12073794379830360413e-03) (211, -1.23535618185997009277e-01) (212, 3.83539140224456787109e-01) (213, -1.31221905350685119629e-01) (214, 3.20950001478195190430e-01) (215, -6.37734606862068176270e-02) (216, -6.76156729459762573242e-02) (217, -6.78689870983362197876e-03) (218, -1.40416501089930534363e-02) (219, -3.48770096898078918457e-02) (220, 4.51501339673995971680e-01) (221, -1.52560815215110778809e-01) (222, -1.22479826211929321289e-01) (223, 1.33329047821462154388e-03) (224, 3.86259108781814575195e-02) (225, -7.57797136902809143066e-02) (226, -1.25920876860618591309e-01) (227, -9.02942717075347900391e-02) (228, -1.22616790235042572021e-01) (229, -1.02735444903373718262e-01) (230, 2.79609989374876022339e-02) (231, -6.61640688776969909668e-02) (232, -8.48331004381179809570e-02) (233, -1.69954181183129549026e-03) (234, -1.04145720601081848145e-01) (235, -2.23757326602935791016e-02) (236, -9.75706502795219421387e-02) (237, -1.16953693330287933350e-01) (238, -4.75616492331027984619e-02) (239, -1.67313124984502792358e-03) (240, -1.00507080554962158203e-01) (241, -8.69065597653388977051e-02) (242, 3.05969510227441787720e-02) (243, 2.32703387155197560787e-04) (244, -5.93356303870677947998e-02) (245, -1.03158585727214813232e-01) (246, -9.34509038925170898438e-02) (247, 3.05578801780939102173e-02) (248, 1.99726093560457229614e-02) (249, 3.00203800201416015625e-01) (250, 3.93350809812545776367e-01) (251, -3.82479019463062286377e-02) (252, -1.23307317495346069336e-01) (253, -8.11030063778162002563e-03) (254, 3.57426077127456665039e-01) (255, -1.47344499826431274414e-01) (256, 3.15984070301055908203e-01) (257, 4.08508539199829101562e-01) (258, 3.49259465932846069336e-01) (259, 3.32688033580780029297e-01) (260, 4.70243960618972778320e-01) (261, -9.67561602592468261719e-02) (262, 4.11592751741409301758e-01) (263, 3.67871701717376708984e-01) (264, -1.41198471188545227051e-01) (265, 2.07428913563489913940e-02) (266, 2.82000511884689331055e-01) (267, 3.59163999557495117188e-01) (268, -1.30620121955871582031e-01) (269, 3.92580807209014892578e-01) (270, 3.15699130296707153320e-01) (271, -8.92697349190711975098e-02) (272, 3.36888097226619720459e-02) (273, -1.23861938714981079102e-01) (274, -1.32776468992233276367e-01) (275, -6.85733109712600708008e-02) (276, -6.19612261652946472168e-02) (277, -6.30629584193229675293e-02) (278, -7.39678964018821716309e-02) (279, -1.09486818313598632812e-01) (280, -4.47085611522197723389e-02) (281, -1.58500343561172485352e-01) (282, 1.41224358230829238892e-02) (283, 4.16730642318725585938e-01) (284, 4.25967127084732055664e-01) (285, 3.08129519224166870117e-01) (286, -5.18721668049693107605e-03) (287, 4.64019179344177246094e-01) (288, -1.30774572491645812988e-01) (0, 1.50000000000000000000e+03) (1, -5.93760237097740173340e-02) (2, 1.07435747981071472168e-01) (3, 1.12301437184214591980e-02) (4, 8.39985370635986328125e-01) (5, -3.61814908683300018311e-02) (6, 3.04420944303274154663e-02) (7, 6.76458030939102172852e-02) (8, -3.03541719913482666016e-02) (9, -8.06505158543586730957e-02) (10, 9.25284102559089660645e-02) (11, 9.75417941808700561523e-02) (12, -4.49675284326076507568e-02) (13, -4.08081859350204467773e-02) (14, 8.82249698042869567871e-02) (15, -6.78063649684190750122e-03) (16, -9.05498303472995758057e-03) (17, -3.05823758244514465332e-02) (18, 6.61530122160911560059e-02) (19, 7.45793730020523071289e-02) (20, 5.26237823069095611572e-02) (21, -8.64686965942382812500e-02) (22, -4.38383175060153007507e-03) (23, 5.26853874325752258301e-02) (24, 8.96701589226722717285e-02) (25, -5.00625036656856536865e-02) (26, 9.84194967895746231079e-03) (27, -4.89723943173885345459e-02) (28, -9.19919312000274658203e-02) (29, -1.85407348908483982086e-03) (30, -4.42878790199756622314e-02) (31, -5.39132058620452880859e-02) (32, 4.82079945504665374756e-02) (33, 6.91956341266632080078e-01) (34, 5.57335242629051208496e-02) (35, 3.32099907100200653076e-02) (36, 1.03971576318144798279e-02) (37, -1.89803261309862136841e-02) (38, 7.61824071407318115234e-01) (39, 8.22782635688781738281e-01) (40, 8.02006959915161132812e-01) (41, -7.31882732361555099487e-03) (42, 7.47178867459297180176e-02) (43, 4.99236583709716796875e-02) (44, 5.15184625983238220215e-02) (45, 4.93555068969726562500e-02) (46, -5.88165782392024993896e-02) (47, -6.42896145582199096680e-02) (48, -6.86370730400085449219e-02) (49, -9.24696177244186401367e-02) (50, -9.26207527518272399902e-02) (51, 8.29528942704200744629e-02) (52, -7.34609588980674743652e-02) (53, 1.01906508207321166992e-02) (54, 2.84197516739368438721e-02) (55, -9.48548391461372375488e-02) (56, 4.06788140535354614258e-02) (57, -6.36361017823219299316e-02) (58, -2.72219087928533554077e-02) (59, 4.47539314627647399902e-02) (60, 3.37607450783252716064e-02) (61, 1.12229324877262115479e-02) (62, 9.31483954191207885742e-02) (63, -2.15608309954404830933e-02) (64, 5.84763251245021820068e-02) (65, 5.04523366689682006836e-02) (66, -8.78461599349975585938e-02) (67, -1.98683906346559524536e-02) (68, -7.06817135214805603027e-02) (69, 6.90324278548359870911e-03) (70, -4.82755824923515319824e-02) (71, 2.82241236418485641479e-02) (72, 9.39544513821601867676e-02) (73, -7.16816931962966918945e-02) (74, -2.22954899072647094727e-02) (75, 5.03968186676502227783e-02) (76, 8.54335874319076538086e-02) (77, 1.85854863375425338745e-02) (78, 8.61441269516944885254e-02) (79, 9.71837043762207031250e-02) (80, 2.63113919645547866821e-02) (81, 1.05199135839939117432e-01) (82, 6.84646144509315490723e-02) (83, 5.83957061171531677246e-02) (84, -5.27554750442504882812e-03) (85, -7.80555652454495429993e-03) (86, 5.74502162635326385498e-02) (87, -6.37242794036865234375e-02) (88, 3.53517495095729827881e-02) (89, -7.95782729983329772949e-02) (90, 9.24782678484916687012e-02) (91, -3.18026654422283172607e-02) (92, 3.51237840950489044189e-02) (93, 7.60193243622779846191e-02) (94, 4.64895330369472503662e-02) (95, -9.21554770320653915405e-03) (96, 2.73392852395772933960e-02) (97, 6.25936985015869140625e-02) (98, 6.02295547723770141602e-02) (99, 5.88205717504024505615e-02) (100, -3.79377678036689758301e-02) (101, -8.53286460041999816895e-02) (102, 7.52418875694274902344e-01) (103, -3.80876064300537109375e-02) (104, 7.04252362251281738281e-01) (105, 6.01131469011306762695e-02) (106, -9.00995060801506042480e-02) (107, -8.41776132583618164062e-02) (108, -2.15137191116809844971e-02) (109, -9.93568301200866699219e-02) (110, -8.38786363601684570312e-02) (111, -9.17937830090522766113e-02) (112, 9.72356125712394714355e-02) (113, 8.41089338064193725586e-02) (114, 5.76560609042644500732e-02) (115, -5.25146164000034332275e-03) (116, -1.23717123642563819885e-02) (117, 2.04247329384088516235e-02) (118, 4.36057038605213165283e-02) (119, -8.25811699032783508301e-02) (120, 4.18972857296466827393e-02) (121, 1.71285755932331085205e-02) (122, -1.46713629364967346191e-02) (123, -2.03927382826805114746e-02) (124, 8.01396497990936040878e-04) (125, -6.47271350026130676270e-02) (126, 7.58675783872604370117e-02) (127, -8.31151306629180908203e-02) (128, 8.95193815231323242188e-02) (129, 3.25657129287719726562e-02) (130, 7.52684548497200012207e-02) (131, -4.94900718331336975098e-02) (132, 4.91558089852333068848e-02) (133, -3.97839024662971496582e-02) (134, 1.34277464821934700012e-02) (135, 9.77533608675003051758e-02) (136, -7.20046386122703552246e-02) (137, 2.91101764887571334839e-02) (138, -8.85508581995964050293e-02) (139, 1.83707736432552337646e-02) (140, 4.19823117554187774658e-02) (141, -7.10145384073257446289e-02) (142, 1.29447253420948982239e-02) (143, 2.74625364691019058228e-02) (144, -8.40601027011871337891e-02) (145, -2.43657380342483520508e-02) (146, -7.78230950236320495605e-02) (147, -6.79651461541652679443e-03) (148, 8.84334295988082885742e-02) (149, 6.62851259112358093262e-02) (150, 6.80515682324767112732e-03) (151, 3.11550367623567581177e-02) (152, -2.97277309000492095947e-02) (153, 9.37898084521293640137e-02) (154, -8.04854184389114379883e-02) (155, 8.48258614540100097656e-01) (156, 7.06500709056854248047e-01) (157, 8.31504315137863159180e-02) (158, 8.16685035824775695801e-02) (159, -8.59045088291168212891e-02) (160, 1.80881228297948837280e-02) (161, 5.88799454271793365479e-02) (162, -2.83568594604730606079e-02) (163, -3.24033126235008239746e-02) (164, -6.96725994348526000977e-02) (165, 8.56267660856246948242e-02) (166, -4.02854159474372863770e-02) (167, -5.47223389148712158203e-02) (168, 1.85820814222097396851e-02) (169, -2.49611716717481613159e-02) (170, 4.61853966116905212402e-02) (171, -5.31523227691650390625e-02) (172, -3.67668829858303070068e-03) (173, -2.92803663760423660278e-02) (174, 7.54182785749435424805e-02) (175, 1.54106039553880691528e-02) (176, 2.85805501043796539307e-02) (177, 1.00176468491554260254e-01) (178, -1.00888378918170928955e-01) (179, 2.01965048909187316895e-02) (180, 5.48126623034477233887e-02) (181, 6.37108646333217620850e-03) (182, -4.66098673641681671143e-02) (183, -6.23286813497543334961e-02) (184, 1.13825984299182891846e-02) (185, -3.63798402249813079834e-02) (186, 9.25807654857635498047e-02) (187, 2.77777519077062606812e-02) (188, -5.35279884934425354004e-02) (189, 8.47277119755744934082e-02) (190, 4.35185246169567108154e-02) (191, 6.64582699537277221680e-02) (192, 3.54158356785774230957e-02) (193, -7.66340643167495727539e-02) (194, -6.38313516974449157715e-02) (195, 5.25093488395214080811e-02) (196, -9.38490480184555053711e-02) (197, 3.57261230237782001495e-03) (198, 1.00069545209407806396e-01) (199, 2.07458715885877609253e-02) (200, 7.30786845088005065918e-02) (201, 4.06633205711841583252e-02) (202, 6.34172633290290832520e-02) (203, -3.20904441177845001221e-02) (204, -9.78074967861175537109e-02) (205, 3.73616926372051239014e-02) (206, 7.31258317828178405762e-02) (207, 3.68853136897087097168e-02) (208, 3.89504134654998779297e-02) (209, 7.73015022277832031250e-02) (210, -4.62834872305393218994e-02) (211, -5.24318963289260864258e-03) (212, 7.58906960487365722656e-01) (213, 8.21832288056612014771e-03) (214, 7.97456622123718261719e-01) (215, 9.78795960545539855957e-02) (216, 7.17746317386627197266e-02) (217, 1.99548490345478057861e-02) (218, 1.60736422985792160034e-02) (219, -7.58015066385269165039e-02) (220, 7.82800495624542236328e-01) (221, -4.01463955640792846680e-02) (222, 8.74356925487518310547e-02) (223, -7.60284364223480224609e-02) (224, -2.31913495808839797974e-02) (225, -7.59771913290023803711e-02) (226, 8.08550044894218444824e-02) (227, -2.84757334738969802856e-02) (228, 3.06714884936809539795e-02) (229, 7.13014006614685058594e-02) (230, 8.71432051062583923340e-02) (231, 4.17824376199860125780e-05) (232, 9.20871924608945846558e-03) (233, 5.19467368721961975098e-02) (234, 6.59270510077476501465e-02) (235, 2.25090272724628448486e-02) (236, -5.91808324679732322693e-03) (237, 3.64526435732841491699e-02) (238, -5.46328388154506683350e-02) (239, -6.77358061075210571289e-02) (240, 2.36955471336841583252e-02) (241, -2.25351875997148454189e-04) (242, 3.06953117251396179199e-02) (243, 9.48853045701980590820e-02) (244, -9.01263952255249023438e-02) (245, -4.09583263099193572998e-02) (246, 8.22609663009643554688e-02) (247, 8.05340260267257690430e-02) (248, 6.01262487471103668213e-02) (249, 7.44605541229248046875e-01) (250, 6.78994834423065185547e-01) (251, -5.03527671098709106445e-02) (252, 4.89628575742244720459e-02) (253, 8.96936506032943725586e-02) (254, 7.26238608360290527344e-01) (255, -8.05946514010429382324e-02) (256, 6.45022988319396972656e-01) (257, 6.94151401519775390625e-01) (258, 7.48814821243286132812e-01) (259, 7.90595412254333496094e-01) (260, 6.60599052906036376953e-01) (261, -1.13324504345655441284e-02) (262, 6.93025887012481689453e-01) (263, 7.70041942596435546875e-01) (264, -6.76702335476875305176e-02) (265, 9.20543074607849121094e-02) (266, 7.12003946304321289062e-01) (267, 7.95858621597290039062e-01) (268, 2.73688994348049163818e-02) (269, 7.50809192657470703125e-01) (270, 8.27900171279907226562e-01) (271, -6.00287653505802154541e-02) (272, 7.65663385391235351562e-02) (273, -1.56214656308293342590e-02) (274, -6.34625628590583801270e-02) (275, 9.60182026028633117676e-02) (276, 3.68833094835281372070e-02) (277, -8.41461494565010070801e-02) (278, 6.68625459074974060059e-02) (279, -6.08607055619359016418e-03) (280, 1.08564300462603569031e-02) (281, 7.07194432616233825684e-02) (282, 4.20323424041271209717e-02) (283, 7.66153335571289062500e-01) (284, 7.75552690029144287109e-01) (285, 6.06372177600860595703e-01) (286, -1.90345756709575653076e-02) (287, 8.43684613704681396484e-01) (288, -1.21862202882766723633e-01) (0, 1.50000000000000000000e+03) (1, -4.26097698509693145752e-02) (2, -7.48675838112831115723e-02) (3, -1.08318410813808441162e-01) (4, 4.12697613239288330078e-01) (5, 2.88378540426492691040e-02) (6, -7.66823068261146545410e-02) (7, -2.08852048963308334351e-02) (8, -1.35504364967346191406e-01) (9, -1.29414215683937072754e-01) (10, -8.97031873464584350586e-02) (11, -4.46655116975307464600e-02) (12, 1.15587627515196800232e-02) (13, -4.57257106900215148926e-02) (14, -6.37382343411445617676e-02) (15, -1.07458785176277160645e-01) (16, -1.46475229412317276001e-02) (17, -9.79284048080444335938e-02) (18, 3.11937350779771804810e-02) (19, 2.95747956261038780212e-03) (20, -1.28260135650634765625e-01) (21, -7.03147277235984802246e-02) (22, -6.81702643632888793945e-02) (23, -1.53641596436500549316e-01) (24, -1.34375423192977905273e-01) (25, -2.46964562684297561646e-02) (26, 9.41407197387889027596e-05) (27, -1.20064228773117065430e-01) (28, -1.45675718784332275391e-01) (29, -2.19412539154291152954e-02) (30, -4.68403957784175872803e-02) (31, 3.88636477291584014893e-02) (32, -9.63528305292129516602e-02) (33, 4.31882560253143310547e-01) (34, -1.11208356916904449463e-01) (35, 2.51384787261486053467e-02) (36, -1.17707150056958198547e-02) (37, -1.93203426897525787354e-02) (38, 3.95758271217346191406e-01) (39, 4.38142567873001098633e-01) (40, 4.27367627620697021484e-01) (41, 2.91551072150468826294e-02) (42, -1.02228671312332153320e-01) (43, -3.70195657014846801758e-02) (44, -5.82547709345817565918e-02) (45, -1.84771772474050521851e-02) (46, 1.93343423306941986084e-02) (47, -1.18923522531986236572e-01) (48, 6.00557774305343627930e-02) (49, 7.30502419173717498779e-03) (50, -1.49955347180366516113e-01) (51, -1.32404312491416931152e-01) (52, -1.13018758594989776611e-01) (53, -5.96960633993148803711e-02) (54, -1.30235582590103149414e-01) (55, -7.01236873865127563477e-02) (56, -1.42646640539169311523e-01) (57, 3.57416644692420959473e-02) (58, -2.02608481049537658691e-02) (59, -1.24729618430137634277e-01) (60, -2.71940883249044418335e-02) (61, -1.44335120916366577148e-01) (62, -1.34551808238029479980e-01) (63, 1.61176770925521850586e-02) (64, 1.49201974272727966309e-02) (65, -7.03839734196662902832e-02) (66, 5.22463629022240638733e-03) (67, -1.69772990047931671143e-02) (68, -1.42702609300613403320e-01) (69, -6.88071846961975097656e-02) (70, -7.16802254319190979004e-02) (71, -1.37581536546349525452e-03) (72, -6.90070912241935729980e-02) (73, -2.46344180777668952942e-03) (74, -6.81892111897468566895e-02) (75, 2.32932493090629577637e-02) (76, -7.53103420138359069824e-02) (77, -9.62875857949256896973e-02) (78, -1.35818898677825927734e-01) (79, -7.13792815804481506348e-02) (80, -1.33770108222961425781e-01) (81, -1.31016775965690612793e-01) (82, -4.00717966258525848389e-02) (83, -8.45428928732872009277e-02) (84, -4.97579574584960937500e-02) (85, -3.74973681755363941193e-03) (86, 1.29926321096718311310e-03) (87, -3.66654209792613983154e-02) (88, -2.35059093683958053589e-02) (89, -8.11787322163581848145e-02) (90, -7.28128151968121528625e-03) (91, -8.54809880256652832031e-02) (92, -6.90440461039543151855e-02) (93, 2.19192449003458023071e-02) (94, -1.11837707459926605225e-01) (95, -9.05413776636123657227e-02) (96, -1.08793564140796661377e-01) (97, -1.35565072298049926758e-01) (98, 3.29954102635383605957e-02) (99, -9.74928736686706542969e-02) (100, -4.77065742015838623047e-02) (101, -8.38804095983505249023e-02) (102, 3.03143054246902465820e-01) (103, 1.75335444509983062744e-02) (104, 3.03167998790740966797e-01) (105, -4.60848025977611541748e-02) (106, 3.69784631766378879547e-03) (107, -5.09942136704921722412e-02) (108, 1.18268616497516632080e-02) (109, 1.82847306132316589355e-02) (110, 2.85848677158355712891e-02) (111, 3.15728783607482910156e-02) (112, -1.52183666825294494629e-01) (113, -5.30067123472690582275e-02) (114, -9.06898826360702514648e-02) (115, -4.82205338776111602783e-02) (116, -9.15064513683319091797e-02) (117, -1.27627074718475341797e-01) (118, -1.33058264851570129395e-01) (119, 2.86477096378803253174e-02) (120, -6.11148700118064880371e-02) (121, 2.14110706001520156860e-02) (122, -9.93072539567947387695e-02) (123, 2.40274071693420410156e-02) (124, 1.91947165876626968384e-02) (125, -4.63799424469470977783e-02) (126, -1.14344134926795959473e-01) (127, -1.38526573777198791504e-01) (128, -4.66626882553100585938e-02) (129, -1.11064262688159942627e-01) (130, -7.48711302876472473145e-02) (131, -1.44342586398124694824e-01) (132, -4.49115149676799774170e-02) (133, -3.81884239614009857178e-02) (134, 3.28400731086730957031e-02) (135, -9.59724094718694686890e-03) (136, -1.23352997004985809326e-01) (137, -1.12821469083428382874e-02) (138, -1.28436371684074401855e-01) (139, 3.75497341156005859375e-02) (140, -1.64307132363319396973e-02) (141, -1.32710844278335571289e-01) (142, 2.18613259494304656982e-02) (143, -2.57794857025146484375e-02) (144, -1.17697250097990036011e-02) (145, -9.53964143991470336914e-02) (146, -1.14808827638626098633e-01) (147, 1.51388132944703102112e-02) (148, -8.76999497413635253906e-02) (149, -9.09297242760658264160e-02) (150, 1.43001060932874679565e-02) (151, 8.03295336663722991943e-03) (152, -1.00517675280570983887e-01) (153, -1.26866519451141357422e-01) (154, -1.15104587748646736145e-02) (155, 2.92190611362457275391e-01) (156, 4.13986653089523315430e-01) (157, 3.91552075743675231934e-02) (158, -1.22765302658081054688e-01) (159, -1.06573246419429779053e-01) (160, -1.22641243040561676025e-01) (161, -4.27332334220409393311e-02) (162, -1.03447914123535156250e-01) (163, -1.17356386035680770874e-02) (164, -1.13175608217716217041e-01) (165, -1.10359251499176025391e-01) (166, -7.99058079719543457031e-02) (167, -1.17658086121082305908e-01) (168, 2.87773441523313522339e-02) (169, -5.00739477574825286865e-02) (170, -1.25106126070022583008e-01) (171, -4.39128726720809936523e-02) (172, -2.56450437009334564209e-02) (173, -1.31811037659645080566e-01) (174, -1.13603897392749786377e-01) (175, -8.56068134307861328125e-02) (176, -9.82042551040649414062e-02) (177, -7.62717947363853454590e-02) (178, -1.20589688420295715332e-01) (179, -3.09698414057493209839e-02) (180, -5.91910502407699823380e-04) (181, -1.49779692292213439941e-01) (182, -6.93737640976905822754e-02) (183, -1.57459765672683715820e-01) (184, -9.95831340551376342773e-02) (185, -1.17861792445182800293e-01) (186, -1.36909246444702148438e-01) (187, 1.66611056774854660034e-02) (188, -1.21806658804416656494e-01) (189, -8.00816789269447326660e-02) (190, -1.29920050501823425293e-01) (191, -8.89208242297172546387e-02) (192, 1.39444312080740928650e-02) (193, -7.31661170721054077148e-02) (194, -1.44757762551307678223e-01) (195, -1.55294090509414672852e-01) (196, -5.70269068703055381775e-03) (197, -5.55658079683780670166e-02) (198, -9.10138785839080810547e-02) (199, -3.60580570995807647705e-02) (200, 3.14799398183822631836e-02) (201, -7.36405700445175170898e-02) (202, -1.17378100752830505371e-01) (203, -3.38227860629558563232e-02) (204, -6.95317462086677551270e-02) (205, -7.23490118980407714844e-02) (206, 2.93706990778446197510e-02) (207, -1.64289847016334533691e-02) (208, 8.38338583707809448242e-03) (209, -1.36007890105247497559e-01) (210, -8.41568112373352050781e-02) (211, -3.83222512900829315186e-02) (212, 2.96926498413085937500e-01) (213, -3.71673703193664550781e-03) (214, 4.06715303659439086914e-01) (215, -1.10895864665508270264e-01) (216, 4.18670699000358581543e-02) (217, 1.27547839656472206116e-02) (218, -1.24226965010166168213e-01) (219, -1.30996510386466979980e-01) (220, 3.18296641111373901367e-01) (221, -9.10275056958198547363e-02) (222, -5.47273866832256317139e-02) (223, 2.91631799191236495972e-02) (224, 2.11653634905815124512e-02) (225, -4.38269823789596557617e-02) (226, 2.38417517393827438354e-02) (227, -6.33083209395408630371e-02) (228, 5.53164444863796234131e-02) (229, -1.16555690765380859375e-01) (230, -1.35266944766044616699e-01) (231, 3.64908911287784576416e-02) (232, -2.78672575950622558594e-02) (233, -9.95603576302528381348e-02) (234, -2.19408683478832244873e-02) (235, -1.42326742410659790039e-01) (236, -2.13465150445699691772e-02) (237, -5.79163581132888793945e-02) (238, 8.69924016296863555908e-03) (239, -5.14118894934654235840e-02) (240, -1.95358972996473312378e-02) (241, -1.19923226535320281982e-01) (242, -1.33928447961807250977e-01) (243, -5.10632153600454330444e-03) (244, 3.51529717445373535156e-02) (245, 1.86226405203342437744e-02) (246, -1.45912289619445800781e-01) (247, 3.45293283462524414062e-02) (248, -3.87045554816722869873e-02) (249, 3.37557017803192138672e-01) (250, 3.01202625036239624023e-01) (251, -3.01296692341566085815e-02) (252, -2.44206599891185760498e-02) (253, -3.25060896575450897217e-02) (254, 3.93374115228652954102e-01) (255, -6.59184679388999938965e-02) (256, 3.24638426303863525391e-01) (257, 3.94558817148208618164e-01) (258, 4.57985848188400268555e-01) (259, 3.18178296089172363281e-01) (260, 4.42134529352188110352e-01) (261, -1.52551949024200439453e-01) (262, 2.99083739519119262695e-01) (263, 3.73536527156829833984e-01) (264, -9.51696038246154785156e-02) (265, -8.90702195465564727783e-03) (266, 3.91349226236343383789e-01) (267, 2.79455244541168212891e-01) (268, -1.01232796907424926758e-01) (269, 3.57747137546539306641e-01) (270, 3.87446552515029907227e-01) (271, 2.13913153856992721558e-02) (272, -3.41614745557308197021e-02) (273, -1.66399423032999038696e-02) (274, -2.74543818086385726929e-02) (275, -4.16470058262348175049e-02) (276, -3.29581201076507568359e-02) (277, -1.02023947983980178833e-02) (278, -4.33580987155437469482e-02) (279, -1.39160722494125366211e-01) (280, -1.54494568705558776855e-01) (281, -2.00387760996818542480e-02) (282, -7.43334554135799407959e-03) (283, 4.05831158161163330078e-01) (284, 3.39802592992782592773e-01) (285, 3.22521805763244628906e-01) (286, -1.34660601615905761719e-01) (287, 3.85411620140075683594e-01) (288, -1.30671456456184387207e-01) (0, 1.50000000000000000000e+03) (1, -4.07947087660431861877e-03) (2, 2.83375028520822525024e-02) (3, -1.32711336016654968262e-01) (4, 4.52006459236145019531e-01) (5, -9.06035155057907104492e-02) (6, -6.80286660790443420410e-02) (7, -2.30192895978689193726e-02) (8, 2.88691651076078414917e-02) (9, -3.92728038132190704346e-02) (10, 3.33431735634803771973e-02) (11, -7.65328779816627502441e-02) (12, -1.42380446195602416992e-01) (13, 1.36246588081121444702e-02) (14, 4.53052893280982971191e-02) (15, -2.52617290243506431580e-03) (16, -6.47762641310691833496e-02) (17, -5.83508946001529693604e-02) (18, -9.35636237263679504395e-02) (19, -1.20855040848255157471e-01) (20, -1.43504798412322998047e-01) (21, -7.02196583151817321777e-02) (22, -9.79974567890167236328e-02) (23, 2.43781111203134059906e-03) (24, -1.26301616430282592773e-01) (25, 2.32861768454313278198e-02) (26, -1.33596166968345642090e-01) (27, -4.82462644577026367188e-02) (28, -1.46361768245697021484e-01) (29, -1.87348220497369766235e-02) (30, -3.11214756220579147339e-02) (31, -1.13781124353408813477e-01) (32, -5.46161830425262451172e-02) (33, 3.51276993751525878906e-01) (34, -8.82460847496986389160e-02) (35, -9.38159972429275512695e-02) (36, -1.22880833223462104797e-02) (37, 1.22956251725554466248e-02) (38, 2.74957776069641113281e-01) (39, 4.01768416166305541992e-01) (40, 3.48654627799987792969e-01) (41, 3.11129409819841384888e-02) (42, 2.92898155748844146729e-02) (43, -6.96718618273735046387e-02) (44, 3.05344676598906517029e-03) (45, 2.25552525371313095093e-02) (46, -1.08385369181632995605e-01) (47, -1.07744045555591583252e-01) (48, -5.93342259526252746582e-02) (49, -4.51720543205738067627e-02) (50, -6.25884756445884704590e-02) (51, -6.70390948653221130371e-02) (52, 3.45991998910903930664e-02) (53, -2.15640733949840068817e-03) (54, -1.08790934085845947266e-01) (55, -1.14431962370872497559e-01) (56, -3.82714532315731048584e-02) (57, -7.61895328760147094727e-02) (58, 7.24883750081062316895e-03) (59, -1.98932942003011703491e-02) (60, -1.36233270168304443359e-01) (61, -1.01106598973274230957e-01) (62, 1.76395382732152938843e-02) (63, -5.11847846210002899170e-02) (64, -2.24839113652706146240e-02) (65, -9.52302888035774230957e-02) (66, 1.89676824957132339478e-02) (67, -5.53420744836330413818e-02) (68, -1.35932952165603637695e-01) (69, 2.38473266363143920898e-02) (70, -1.46188765764236450195e-01) (71, -7.33192339539527893066e-02) (72, 2.56052538752555847168e-02) (73, -1.44338369369506835938e-01) (74, 2.72150393575429916382e-02) (75, -2.07861699163913726807e-02) (76, 2.32023373246192932129e-02) (77, -1.28602981567382812500e-01) (78, 3.12810540199279785156e-02) (79, -9.22565236687660217285e-02) (80, -1.85625590384006500244e-02) (81, -7.65499696135520935059e-02) (82, 4.41628927364945411682e-03) (83, -2.17174161225557327271e-02) (84, -1.37751340866088867188e-01) (85, -1.37816905975341796875e-01) (86, 1.98165252804756164551e-02) (87, -1.91364679485559463501e-02) (88, -6.95042237639427185059e-02) (89, -3.51518392562866210938e-02) (90, -8.80729556083679199219e-02) (91, -4.08329814672470092773e-02) (92, 2.02114656567573547363e-02) (93, -1.03524215519428253174e-01) (94, -1.34492114186286926270e-01) (95, -3.91333475708961486816e-02) (96, -5.90833276510238647461e-02) (97, 5.55234178900718688965e-02) (98, -1.53961271047592163086e-01) (99, -4.10130098462104797363e-02) (100, 3.60365137457847595215e-02) (101, -1.45345598459243774414e-01) (102, 2.87679582834243774414e-01) (103, -4.11098636686801910400e-03) (104, 2.99183011054992675781e-01) (105, 3.38560380041599273682e-02) (106, -6.20261244475841522217e-02) (107, 4.35335524380207061768e-02) (108, -1.38172060251235961914e-01) (109, -8.03391858935356140137e-02) (110, -9.77646186947822570801e-02) (111, -5.59405237436294555664e-03) (112, 3.65923391655087471008e-03) (113, -1.34868100285530090332e-01) (114, -6.50313347578048706055e-02) (115, 1.96290351450443267822e-02) (116, -1.07435047626495361328e-01) (117, -8.34512487053871154785e-02) (118, -4.76798564195632934570e-02) (119, -3.35936658084392547607e-02) (120, 2.90878843516111373901e-02) (121, 2.91547272354364395142e-02) (122, -1.16900637745857238770e-01) (123, 3.48568148910999298096e-03) (124, -9.85050052404403686523e-02) (125, -8.66277292370796203613e-02) (126, -8.34777355194091796875e-02) (127, -6.51601003482937812805e-03) (128, -9.58219170570373535156e-02) (129, -6.71546235680580139160e-02) (130, -8.63806679844856262207e-02) (131, -1.09758861362934112549e-01) (132, -6.24671652913093566895e-02) (133, -6.51613622903823852539e-02) (134, 4.57794070243835449219e-02) (135, -3.11378892511129379272e-02) (136, -7.03850910067558288574e-02) (137, -6.45829066634178161621e-02) (138, -5.54492771625518798828e-02) (139, -6.18569627404212951660e-02) (140, 3.21606397628784179688e-02) (141, 1.31121941376477479935e-03) (142, -1.14241667091846466064e-01) (143, -2.13451348245143890381e-02) (144, 5.30064292252063751221e-02) (145, -7.35533470287919044495e-03) (146, -4.25248406827449798584e-02) (147, -1.36013582348823547363e-01) (148, -1.54439270496368408203e-01) (149, -1.33267268538475036621e-01) (150, 9.06349450815469026566e-04) (151, 3.14963124692440032959e-02) (152, -1.35111644864082336426e-01) (153, -1.57853648066520690918e-01) (154, -8.58881790190935134888e-03) (155, 3.39047133922576904297e-01) (156, 3.42751711606979370117e-01) (157, -1.26586288213729858398e-01) (158, -1.43048301339149475098e-01) (159, -2.69674733281135559082e-02) (160, -4.49435412883758544922e-02) (161, -7.45259001851081848145e-02) (162, 1.07418233528733253479e-02) (163, -1.51593536138534545898e-01) (164, 2.80588231980800628662e-02) (165, 1.67697668075561523438e-02) (166, -4.13045026361942291260e-02) (167, -1.23455919325351715088e-01) (168, -9.68782380223274230957e-02) (169, -1.38485506176948547363e-01) (170, -3.03106904029846191406e-02) (171, -1.20977088809013366699e-01) (172, 3.25809866189956665039e-02) (173, 2.64106113463640213013e-02) (174, 1.37662375345826148987e-02) (175, 3.73954214155673980713e-02) (176, -5.08977621793746948242e-02) (177, -7.66176208853721618652e-02) (178, -1.48739710450172424316e-01) (179, -5.04026822745800018311e-02) (180, -4.32753264904022216797e-02) (181, 8.67636315524578094482e-03) (182, -6.53432384133338928223e-02) (183, -3.47370877861976623535e-02) (184, 2.78858393430709838867e-02) (185, -1.10909521579742431641e-01) (186, 3.35198864340782165527e-02) (187, -1.27104789018630981445e-01) (188, -8.10663625597953796387e-02) (189, -1.29935577511787414551e-01) (190, 5.91974612325429916382e-03) (191, 2.95170396566390991211e-02) (192, -6.77020177245140075684e-02) (193, -2.31365505605936050415e-02) (194, 3.38220633566379547119e-02) (195, -9.57063511013984680176e-02) (196, -2.85441391170024871826e-02) (197, -3.83845306932926177979e-02) (198, -3.80181595683097839355e-02) (199, 1.54448943212628364563e-02) (200, -3.97502966225147247314e-02) (201, -1.25055029988288879395e-01) (202, -1.42939239740371704102e-01) (203, -4.68269027769565582275e-02) (204, 3.72754670679569244385e-02) (205, 2.94599384069442749023e-02) (206, -6.06311857700347900391e-02) (207, -6.23152256011962890625e-02) (208, -9.01534706354141235352e-02) (209, -5.41599281132221221924e-02) (210, -1.49475842714309692383e-01) (211, 2.04574596136808395386e-02) (212, 3.37230622768402099609e-01) (213, -6.21673241257667541504e-02) (214, 3.88759166002273559570e-01) (215, -1.43122762441635131836e-01) (216, -1.24692255631089210510e-02) (217, -3.53136360645294189453e-02) (218, -1.00219815969467163086e-01) (219, -1.44592568278312683105e-01) (220, 4.20374304056167602539e-01) (221, -1.31180450320243835449e-01) (222, -1.49186104536056518555e-01) (223, -1.50405660271644592285e-01) (224, 3.10419742017984390259e-02) (225, 3.95948290824890136719e-02) (226, 