FANN_FLO_2.1
num_layers=3
learning_rate=0.700000
connection_rate=1.000000
network_type=0
learning_momentum=0.100000
training_algorithm=2
train_error_function=1
train_stop_function=0
cascade_output_change_fraction=0.010000
quickprop_decay=-0.000100
quickprop_mu=1.750000
rprop_increase_factor=1.200000
rprop_decrease_factor=0.500000
rprop_delta_min=0.000000
rprop_delta_max=50.000000
rprop_delta_zero=0.100000
cascade_output_stagnation_epochs=12
cascade_candidate_change_fraction=0.010000
cascade_candidate_stagnation_epochs=12
cascade_max_out_epochs=150
cascade_min_out_epochs=50
cascade_max_cand_epochs=150
cascade_min_cand_epochs=50
cascade_num_candidate_groups=2
bit_fail_limit=3.49999994039535522461e-01
cascade_candidate_limit=1.00000000000000000000e+03
cascade_weight_multiplier=4.00000005960464477539e-01
cascade_activation_functions_count=10
cascade_activation_functions=3 5 7 8 10 11 14 15 16 17 
cascade_activation_steepnesses_count=4
cascade_activation_steepnesses=2.50000000000000000000e-01 5.00000000000000000000e-01 7.50000000000000000000e-01 1.00000000000000000000e+00 
layer_sizes=289 325 2 
scale_included=0
neurons (num_inputs, activation_function, activation_steepness)=(0, 0, 0.00000000000000000000e+00) (0, 0, 0.00000000000000000000e+00) (0, 0, 0.00000000000000000000e+00) (0, 0, 0.00000000000000000000e+00) (0, 0, 0.00000000000000000000e+00) (0, 0, 0.00000000000000000000e+00) (0, 0, 0.00000000000000000000e+00) (0, 0, 0.00000000000000000000e+00) (0, 0, 0.00000000000000000000e+00) (0, 0, 0.00000000000000000000e+00) (0, 0, 0.00000000000000000000e+00) (0, 0, 0.00000000000000000000e+00) (0, 0, 0.00000000000000000000e+00) (0, 0, 0.00000000000000000000e+00) (0, 0, 0.00000000000000000000e+00) (0, 0, 0.00000000000000000000e+00) (0, 0, 0.00000000000000000000e+00) (0, 0, 0.00000000000000000000e+00) (0, 0, 0.00000000000000000000e+00) (0, 0, 0.00000000000000000000e+00) (0, 0, 0.00000000000000000000e+00) (0, 0, 0.00000000000000000000e+00) (0, 0, 0.00000000000000000000e+00) (0, 0, 0.00000000000000000000e+00) (0, 0, 0.00000000000000000000e+00) (0, 0, 0.00000000000000000000e+00) (0, 0, 0.00000000000000000000e+00) (0, 0, 0.00000000000000000000e+00) (0, 0, 0.00000000000000000000e+00) (0, 0, 0.00000000000000000000e+00) (0, 0, 0.00000000000000000000e+00) (0, 0, 0.00000000000000000000e+00) (0, 0, 0.00000000000000000000e+00) (0, 0, 0.00000000000000000000e+00) (0, 0, 0.00000000000000000000e+00) (0, 0, 0.00000000000000000000e+00) (0, 0, 0.00000000000000000000e+00) (0, 0, 0.00000000000000000000e+00) (0, 0, 0.00000000000000000000e+00) (0, 0, 0.00000000000000000000e+00) (0, 0, 0.00000000000000000000e+00) (0, 0, 0.00000000000000000000e+00) (0, 0, 0.00000000000000000000e+00) (0, 0, 0.00000000000000000000e+00) (0, 0, 0.00000000000000000000e+00) (0, 0, 0.00000000000000000000e+00) (0, 0, 0.00000000000000000000e+00) (0, 0, 0.00000000000000000000e+00) (0, 0, 0.00000000000000000000e+00) (0, 0, 0.00000000000000000000e+00) (0, 0, 0.00000000000000000000e+00) (0, 0, 0.00000000000000000000e+00) (0, 0, 0.00000000000000000000e+00) (0, 0, 0.00000000000000000000e+00) (0, 0, 0.00000000000000000000e+00) (0, 0, 0.00000000000000000000e+00) (0, 0, 0.00000000000000000000e+00) (0, 0, 0.00000000000000000000e+00) (0, 0, 0.00000000000000000000e+00) (0, 0, 0.00000000000000000000e+00) (0, 0, 0.00000000000000000000e+00) (0, 0, 0.00000000000000000000e+00) (0, 0, 0.00000000000000000000e+00) (0, 0, 0.00000000000000000000e+00) (0, 0, 0.00000000000000000000e+00) (0, 0, 0.00000000000000000000e+00) (0, 0, 0.00000000000000000000e+00) (0, 0, 0.00000000000000000000e+00) (0, 0, 0.00000000000000000000e+00) (0, 0, 0.00000000000000000000e+00) (0, 0, 0.00000000000000000000e+00) (0, 0, 0.00000000000000000000e+00) (0, 0, 0.00000000000000000000e+00) (0, 0, 0.00000000000000000000e+00) (0, 0, 0.00000000000000000000e+00) (0, 0, 0.00000000000000000000e+00) (0, 0, 0.00000000000000000000e+00) (0, 0, 0.00000000000000000000e+00) (0, 0, 0.00000000000000000000e+00) (0, 0, 0.00000000000000000000e+00) (0, 0, 0.00000000000000000000e+00) (0, 0, 0.00000000000000000000e+00) (0, 0, 0.00000000000000000000e+00) (0, 0, 0.00000000000000000000e+00) (0, 0, 0.00000000000000000000e+00) (0, 0, 0.00000000000000000000e+00) (0, 0, 0.00000000000000000000e+00) (0, 0, 0.00000000000000000000e+00) (0, 0, 0.00000000000000000000e+00) (0, 0, 0.00000000000000000000e+00) (0, 0, 0.00000000000000000000e+00) (0, 0, 0.00000000000000000000e+00) (0, 0, 0.00000000000000000000e+00) (0, 0, 0.00000000000000000000e+00) (0, 0, 0.00000000000000000000e+00) (0, 0, 0.00000000000000000000e+00) (0, 0, 0.00000000000000000000e+00) (0, 0, 0.00000000000000000000e+00) (0, 0, 0.00000000000000000000e+00) (0, 0, 0.00000000000000000000e+00) (0, 0, 0.00000000000000000000e+00) (0, 0, 0.00000000000000000000e+00) (0, 0, 0.00000000000000000000e+00) (0, 0, 0.00000000000000000000e+00) (0, 0, 0.00000000000000000000e+00) (0, 0, 0.00000000000000000000e+00) (0, 0, 0.00000000000000000000e+00) (0, 0, 0.00000000000000000000e+00) (0, 0, 0.00000000000000000000e+00) (0, 0, 0.00000000000000000000e+00) (0, 0, 0.00000000000000000000e+00) (0, 0, 0.00000000000000000000e+00) (0, 0, 0.00000000000000000000e+00) (0, 0, 0.00000000000000000000e+00) (0, 0, 0.00000000000000000000e+00) (0, 0, 0.00000000000000000000e+00) (0, 0, 0.00000000000000000000e+00) (0, 0, 0.00000000000000000000e+00) (0, 0, 0.00000000000000000000e+00) (0, 0, 0.00000000000000000000e+00) (0, 0, 0.00000000000000000000e+00) (0, 0, 0.00000000000000000000e+00) (0, 0, 0.00000000000000000000e+00) (0, 0, 0.00000000000000000000e+00) (0, 0, 0.00000000000000000000e+00) (0, 0, 0.00000000000000000000e+00) (0, 0, 0.00000000000000000000e+00) (0, 0, 0.00000000000000000000e+00) (0, 0, 0.00000000000000000000e+00) (0, 0, 0.00000000000000000000e+00) (0, 0, 0.00000000000000000000e+00) (0, 0, 0.00000000000000000000e+00) (0, 0, 0.00000000000000000000e+00) (0, 0, 0.00000000000000000000e+00) (0, 0, 0.00000000000000000000e+00) (0, 0, 0.00000000000000000000e+00) (0, 0, 0.00000000000000000000e+00) (0, 0, 0.00000000000000000000e+00) (0, 0, 0.00000000000000000000e+00) (0, 0, 0.00000000000000000000e+00) (0, 0, 0.00000000000000000000e+00) (0, 0, 0.00000000000000000000e+00) (0, 0, 0.00000000000000000000e+00) (0, 0, 0.00000000000000000000e+00) (0, 0, 0.00000000000000000000e+00) (0, 0, 0.00000000000000000000e+00) (0, 0, 0.00000000000000000000e+00) (0, 0, 0.00000000000000000000e+00) (0, 0, 0.00000000000000000000e+00) (0, 0, 0.00000000000000000000e+00) (0, 0, 0.00000000000000000000e+00) (0, 0, 0.00000000000000000000e+00) (0, 0, 0.00000000000000000000e+00) (0, 0, 0.00000000000000000000e+00) (0, 0, 0.00000000000000000000e+00) (0, 0, 0.00000000000000000000e+00) (0, 0, 0.00000000000000000000e+00) (0, 0, 0.00000000000000000000e+00) (0, 0, 0.00000000000000000000e+00) (0, 0, 0.00000000000000000000e+00) (0, 0, 0.00000000000000000000e+00) (0, 0, 0.00000000000000000000e+00) (0, 0, 0.00000000000000000000e+00) (0, 0, 0.00000000000000000000e+00) (0, 0, 0.00000000000000000000e+00) (0, 0, 0.00000000000000000000e+00) (0, 0, 0.00000000000000000000e+00) (0, 0, 0.00000000000000000000e+00) (0, 0, 0.00000000000000000000e+00) (0, 0, 0.00000000000000000000e+00) (0, 0, 0.00000000000000000000e+00) (0, 0, 0.00000000000000000000e+00) (0, 0, 0.00000000000000000000e+00) (0, 0, 0.00000000000000000000e+00) (0, 0, 0.00000000000000000000e+00) (0, 0, 0.00000000000000000000e+00) (0, 0, 0.00000000000000000000e+00) (0, 0, 0.00000000000000000000e+00) (0, 0, 0.00000000000000000000e+00) (0, 0, 0.00000000000000000000e+00) (0, 0, 0.00000000000000000000e+00) (0, 0, 0.00000000000000000000e+00) (0, 0, 0.00000000000000000000e+00) (0, 0, 0.00000000000000000000e+00) (0, 0, 0.00000000000000000000e+00) (0, 0, 0.00000000000000000000e+00) (0, 0, 0.00000000000000000000e+00) (0, 0, 0.00000000000000000000e+00) (0, 0, 0.00000000000000000000e+00) (0, 0, 0.00000000000000000000e+00) (0, 0, 0.00000000000000000000e+00) (0, 0, 0.00000000000000000000e+00) (0, 0, 0.00000000000000000000e+00) (0, 0, 0.00000000000000000000e+00) (0, 0, 0.00000000000000000000e+00) (0, 0, 0.00000000000000000000e+00) (0, 0, 0.00000000000000000000e+00) (0, 0, 0.00000000000000000000e+00) (0, 0, 0.00000000000000000000e+00) (0, 0, 0.00000000000000000000e+00) (0, 0, 0.00000000000000000000e+00) (0, 0, 0.00000000000000000000e+00) (0, 0, 0.00000000000000000000e+00) (0, 0, 0.00000000000000000000e+00) (0, 0, 0.00000000000000000000e+00) (0, 0, 0.00000000000000000000e+00) (0, 0, 0.00000000000000000000e+00) (0, 0, 0.00000000000000000000e+00) (0, 0, 0.00000000000000000000e+00) (0, 0, 0.00000000000000000000e+00) (0, 0, 0.00000000000000000000e+00) (0, 0, 0.00000000000000000000e+00) (0, 0, 0.00000000000000000000e+00) (0, 0, 0.00000000000000000000e+00) (0, 0, 0.00000000000000000000e+00) (0, 0, 0.00000000000000000000e+00) (0, 0, 0.00000000000000000000e+00) (0, 0, 0.00000000000000000000e+00) (0, 0, 0.00000000000000000000e+00) (0, 0, 0.00000000000000000000e+00) (0, 0, 0.00000000000000000000e+00) (0, 0, 0.00000000000000000000e+00) (0, 0, 0.00000000000000000000e+00) (0, 0, 0.00000000000000000000e+00) (0, 0, 0.00000000000000000000e+00) (0, 0, 0.00000000000000000000e+00) (0, 0, 0.00000000000000000000e+00) (0, 0, 0.00000000000000000000e+00) (0, 0, 0.00000000000000000000e+00) (0, 0, 0.00000000000000000000e+00) (0, 0, 0.00000000000000000000e+00) (0, 0, 0.00000000000000000000e+00) (0, 0, 0.00000000000000000000e+00) (0, 0, 0.00000000000000000000e+00) (0, 0, 0.00000000000000000000e+00) (0, 0, 0.00000000000000000000e+00) (0, 0, 0.00000000000000000000e+00) (0, 0, 0.00000000000000000000e+00) (0, 0, 0.00000000000000000000e+00) (0, 0, 0.00000000000000000000e+00) (0, 0, 0.00000000000000000000e+00) (0, 0, 0.00000000000000000000e+00) (0, 0, 0.00000000000000000000e+00) (0, 0, 0.00000000000000000000e+00) (0, 0, 0.00000000000000000000e+00) (0, 0, 0.00000000000000000000e+00) (0, 0, 0.00000000000000000000e+00) (0, 0, 0.00000000000000000000e+00) (0, 0, 0.00000000000000000000e+00) (0, 0, 0.00000000000000000000e+00) (0, 0, 0.00000000000000000000e+00) (0, 0, 0.00000000000000000000e+00) (0, 0, 0.00000000000000000000e+00) (0, 0, 0.00000000000000000000e+00) (0, 0, 0.00000000000000000000e+00) (0, 0, 0.00000000000000000000e+00) (0, 0, 0.00000000000000000000e+00) (0, 0, 0.00000000000000000000e+00) (0, 0, 0.00000000000000000000e+00) (0, 0, 0.00000000000000000000e+00) (0, 0, 0.00000000000000000000e+00) (0, 0, 0.00000000000000000000e+00) (0, 0, 0.00000000000000000000e+00) (0, 0, 0.00000000000000000000e+00) (0, 0, 0.00000000000000000000e+00) (0, 0, 0.00000000000000000000e+00) (0, 0, 0.00000000000000000000e+00) (0, 0, 0.00000000000000000000e+00) (0, 0, 0.00000000000000000000e+00) (0, 0, 0.00000000000000000000e+00) (0, 0, 0.00000000000000000000e+00) (0, 0, 0.00000000000000000000e+00) (0, 0, 0.00000000000000000000e+00) (0, 0, 0.00000000000000000000e+00) (0, 0, 0.00000000000000000000e+00) (0, 0, 0.00000000000000000000e+00) (0, 0, 0.00000000000000000000e+00) (0, 0, 0.00000000000000000000e+00) (0, 0, 0.00000000000000000000e+00) (0, 0, 0.00000000000000000000e+00) (0, 0, 0.00000000000000000000e+00) (0, 0, 0.00000000000000000000e+00) (0, 0, 0.00000000000000000000e+00) (0, 0, 0.00000000000000000000e+00) (0, 0, 0.00000000000000000000e+00) (0, 0, 0.00000000000000000000e+00) (0, 0, 0.00000000000000000000e+00) (0, 0, 0.00000000000000000000e+00) (0, 0, 0.00000000000000000000e+00) (289, 5, 5.00000000000000000000e-01) (289, 5, 5.00000000000000000000e-01) (289, 5, 5.00000000000000000000e-01) (289, 5, 5.00000000000000000000e-01) (289, 5, 5.00000000000000000000e-01) (289, 5, 5.00000000000000000000e-01) (289, 5, 5.00000000000000000000e-01) (289, 5, 5.00000000000000000000e-01) (289, 5, 5.00000000000000000000e-01) (289, 5, 5.00000000000000000000e-01) (289, 5, 5.00000000000000000000e-01) (289, 5, 5.00000000000000000000e-01) (289, 5, 5.00000000000000000000e-01) (289, 5, 5.00000000000000000000e-01) (289, 5, 5.00000000000000000000e-01) (289, 5, 5.00000000000000000000e-01) (289, 5, 5.00000000000000000000e-01) (289, 5, 5.00000000000000000000e-01) (289, 5, 5.00000000000000000000e-01) (289, 5, 5.00000000000000000000e-01) (289, 5, 5.00000000000000000000e-01) (289, 5, 5.00000000000000000000e-01) (289, 5, 5.00000000000000000000e-01) (289, 5, 5.00000000000000000000e-01) (289, 5, 5.00000000000000000000e-01) (289, 5, 5.00000000000000000000e-01) (289, 5, 5.00000000000000000000e-01) (289, 5, 5.00000000000000000000e-01) (289, 5, 5.00000000000000000000e-01) (289, 5, 5.00000000000000000000e-01) (289, 5, 5.00000000000000000000e-01) (289, 5, 5.00000000000000000000e-01) (289, 5, 5.00000000000000000000e-01) (289, 5, 5.00000000000000000000e-01) (289, 5, 5.00000000000000000000e-01) (289, 5, 5.00000000000000000000e-01) (289, 5, 5.00000000000000000000e-01) (289, 5, 5.00000000000000000000e-01) (289, 5, 5.00000000000000000000e-01) (289, 5, 5.00000000000000000000e-01) (289, 5, 5.00000000000000000000e-01) (289, 5, 5.00000000000000000000e-01) (289, 5, 5.00000000000000000000e-01) (289, 5, 5.00000000000000000000e-01) (289, 5, 5.00000000000000000000e-01) (289, 5, 5.00000000000000000000e-01) (289, 5, 5.00000000000000000000e-01) (289, 5, 5.00000000000000000000e-01) (289, 5, 5.00000000000000000000e-01) (289, 5, 5.00000000000000000000e-01) (289, 5, 5.00000000000000000000e-01) (289, 5, 5.00000000000000000000e-01) (289, 5, 5.00000000000000000000e-01) (289, 5, 5.00000000000000000000e-01) (289, 5, 5.00000000000000000000e-01) (289, 5, 5.00000000000000000000e-01) (289, 5, 5.00000000000000000000e-01) (289, 5, 5.00000000000000000000e-01) (289, 5, 5.00000000000000000000e-01) (289, 5, 5.00000000000000000000e-01) (289, 5, 5.00000000000000000000e-01) (289, 5, 5.00000000000000000000e-01) (289, 5, 5.00000000000000000000e-01) (289, 5, 5.00000000000000000000e-01) (289, 5, 5.00000000000000000000e-01) (289, 5, 5.00000000000000000000e-01) (289, 5, 5.00000000000000000000e-01) (289, 5, 5.00000000000000000000e-01) (289, 5, 5.00000000000000000000e-01) (289, 5, 5.00000000000000000000e-01) (289, 5, 5.00000000000000000000e-01) (289, 5, 5.00000000000000000000e-01) (289, 5, 5.00000000000000000000e-01) (289, 5, 5.00000000000000000000e-01) (289, 5, 5.00000000000000000000e-01) (289, 5, 5.00000000000000000000e-01) (289, 5, 5.00000000000000000000e-01) (289, 5, 5.00000000000000000000e-01) (289, 5, 5.00000000000000000000e-01) (289, 5, 5.00000000000000000000e-01) (289, 5, 5.00000000000000000000e-01) (289, 5, 5.00000000000000000000e-01) (289, 5, 5.00000000000000000000e-01) (289, 5, 5.00000000000000000000e-01) (289, 5, 5.00000000000000000000e-01) (289, 5, 5.00000000000000000000e-01) (289, 5, 5.00000000000000000000e-01) (289, 5, 5.00000000000000000000e-01) (289, 5, 5.00000000000000000000e-01) (289, 5, 5.00000000000000000000e-01) (289, 5, 5.00000000000000000000e-01) (289, 5, 5.00000000000000000000e-01) (289, 5, 5.00000000000000000000e-01) (289, 5, 5.00000000000000000000e-01) (289, 5, 5.00000000000000000000e-01) (289, 5, 5.00000000000000000000e-01) (289, 5, 5.00000000000000000000e-01) (289, 5, 5.00000000000000000000e-01) (289, 5, 5.00000000000000000000e-01) (289, 5, 5.00000000000000000000e-01) (289, 5, 5.00000000000000000000e-01) (289, 5, 5.00000000000000000000e-01) (289, 5, 5.00000000000000000000e-01) (289, 5, 5.00000000000000000000e-01) (289, 5, 5.00000000000000000000e-01) (289, 5, 5.00000000000000000000e-01) (289, 5, 5.00000000000000000000e-01) (289, 5, 5.00000000000000000000e-01) (289, 5, 5.00000000000000000000e-01) (289, 5, 5.00000000000000000000e-01) (289, 5, 5.00000000000000000000e-01) (289, 5, 5.00000000000000000000e-01) (289, 5, 5.00000000000000000000e-01) (289, 5, 5.00000000000000000000e-01) (289, 5, 5.00000000000000000000e-01) (289, 5, 5.00000000000000000000e-01) (289, 5, 5.00000000000000000000e-01) (289, 5, 5.00000000000000000000e-01) (289, 5, 5.00000000000000000000e-01) (289, 5, 5.00000000000000000000e-01) (289, 5, 5.00000000000000000000e-01) (289, 5, 5.00000000000000000000e-01) (289, 5, 5.00000000000000000000e-01) (289, 5, 5.00000000000000000000e-01) (289, 5, 5.00000000000000000000e-01) (289, 5, 5.00000000000000000000e-01) (289, 5, 5.00000000000000000000e-01) (289, 5, 5.00000000000000000000e-01) (289, 5, 5.00000000000000000000e-01) (289, 5, 5.00000000000000000000e-01) (289, 5, 5.00000000000000000000e-01) (289, 5, 5.00000000000000000000e-01) (289, 5, 5.00000000000000000000e-01) (289, 5, 5.00000000000000000000e-01) (289, 5, 5.00000000000000000000e-01) (289, 5, 5.00000000000000000000e-01) (289, 5, 5.00000000000000000000e-01) (289, 5, 5.00000000000000000000e-01) (289, 5, 5.00000000000000000000e-01) (289, 5, 5.00000000000000000000e-01) (289, 5, 5.00000000000000000000e-01) (289, 5, 5.00000000000000000000e-01) (289, 5, 5.00000000000000000000e-01) (289, 5, 5.00000000000000000000e-01) (289, 5, 5.00000000000000000000e-01) (289, 5, 5.00000000000000000000e-01) (289, 5, 5.00000000000000000000e-01) (289, 5, 5.00000000000000000000e-01) (289, 5, 5.00000000000000000000e-01) (289, 5, 5.00000000000000000000e-01) (289, 5, 5.00000000000000000000e-01) (289, 5, 5.00000000000000000000e-01) (289, 5, 5.00000000000000000000e-01) (289, 5, 5.00000000000000000000e-01) (289, 5, 5.00000000000000000000e-01) (289, 5, 5.00000000000000000000e-01) (289, 5, 5.00000000000000000000e-01) (289, 5, 5.00000000000000000000e-01) (289, 5, 5.00000000000000000000e-01) (289, 5, 5.00000000000000000000e-01) (289, 5, 5.00000000000000000000e-01) (289, 5, 5.00000000000000000000e-01) (289, 5, 5.00000000000000000000e-01) (289, 5, 5.00000000000000000000e-01) (289, 5, 5.00000000000000000000e-01) (289, 5, 5.00000000000000000000e-01) (289, 5, 5.00000000000000000000e-01) (289, 5, 5.00000000000000000000e-01) (289, 5, 5.00000000000000000000e-01) (289, 5, 5.00000000000000000000e-01) (289, 5, 5.00000000000000000000e-01) (289, 5, 5.00000000000000000000e-01) (289, 5, 5.00000000000000000000e-01) (289, 5, 5.00000000000000000000e-01) (289, 5, 5.00000000000000000000e-01) (289, 5, 5.00000000000000000000e-01) (289, 5, 5.00000000000000000000e-01) (289, 5, 5.00000000000000000000e-01) (289, 5, 5.00000000000000000000e-01) (289, 5, 5.00000000000000000000e-01) (289, 5, 5.00000000000000000000e-01) (289, 5, 5.00000000000000000000e-01) (289, 5, 5.00000000000000000000e-01) (289, 5, 5.00000000000000000000e-01) (289, 5, 5.00000000000000000000e-01) (289, 5, 5.00000000000000000000e-01) (289, 5, 5.00000000000000000000e-01) (289, 5, 5.00000000000000000000e-01) (289, 5, 5.00000000000000000000e-01) (289, 5, 5.00000000000000000000e-01) (289, 5, 5.00000000000000000000e-01) (289, 5, 5.00000000000000000000e-01) (289, 5, 5.00000000000000000000e-01) (289, 5, 5.00000000000000000000e-01) (289, 5, 5.00000000000000000000e-01) (289, 5, 5.00000000000000000000e-01) (289, 5, 5.00000000000000000000e-01) (289, 5, 5.00000000000000000000e-01) (289, 5, 5.00000000000000000000e-01) (289, 5, 5.00000000000000000000e-01) (289, 5, 5.00000000000000000000e-01) (289, 5, 5.00000000000000000000e-01) (289, 5, 5.00000000000000000000e-01) (289, 5, 5.00000000000000000000e-01) (289, 5, 5.00000000000000000000e-01) (289, 5, 5.00000000000000000000e-01) (289, 5, 5.00000000000000000000e-01) (289, 5, 5.00000000000000000000e-01) (289, 5, 5.00000000000000000000e-01) (289, 5, 5.00000000000000000000e-01) (289, 5, 5.00000000000000000000e-01) (289, 5, 5.00000000000000000000e-01) (289, 5, 5.00000000000000000000e-01) (289, 5, 5.00000000000000000000e-01) (289, 5, 5.00000000000000000000e-01) (289, 5, 5.00000000000000000000e-01) (289, 5, 5.00000000000000000000e-01) (289, 5, 5.00000000000000000000e-01) (289, 5, 5.00000000000000000000e-01) (289, 5, 5.00000000000000000000e-01) (289, 5, 5.00000000000000000000e-01) (289, 5, 5.00000000000000000000e-01) (289, 5, 5.00000000000000000000e-01) (289, 5, 5.00000000000000000000e-01) (289, 5, 5.00000000000000000000e-01) (289, 5, 5.00000000000000000000e-01) (289, 5, 5.00000000000000000000e-01) (289, 5, 5.00000000000000000000e-01) (289, 5, 5.00000000000000000000e-01) (289, 5, 5.00000000000000000000e-01) (289, 5, 5.00000000000000000000e-01) (289, 5, 5.00000000000000000000e-01) (289, 5, 5.00000000000000000000e-01) (289, 5, 5.00000000000000000000e-01) (289, 5, 5.00000000000000000000e-01) (289, 5, 5.00000000000000000000e-01) (289, 5, 5.00000000000000000000e-01) (289, 5, 5.00000000000000000000e-01) (289, 5, 5.00000000000000000000e-01) (289, 5, 5.00000000000000000000e-01) (289, 5, 5.00000000000000000000e-01) (289, 5, 5.00000000000000000000e-01) (289, 5, 5.00000000000000000000e-01) (289, 5, 5.00000000000000000000e-01) (289, 5, 5.00000000000000000000e-01) (289, 5, 5.00000000000000000000e-01) (289, 5, 5.00000000000000000000e-01) (289, 5, 5.00000000000000000000e-01) (289, 5, 5.00000000000000000000e-01) (289, 5, 5.00000000000000000000e-01) (289, 5, 5.00000000000000000000e-01) (289, 5, 5.00000000000000000000e-01) (289, 5, 5.00000000000000000000e-01) (289, 5, 5.00000000000000000000e-01) (289, 5, 5.00000000000000000000e-01) (289, 5, 5.00000000000000000000e-01) (289, 5, 5.00000000000000000000e-01) (289, 5, 5.00000000000000000000e-01) (289, 5, 5.00000000000000000000e-01) (289, 5, 5.00000000000000000000e-01) (289, 5, 5.00000000000000000000e-01) (289, 5, 5.00000000000000000000e-01) (289, 5, 5.00000000000000000000e-01) (289, 5, 5.00000000000000000000e-01) (289, 5, 5.00000000000000000000e-01) (289, 5, 5.00000000000000000000e-01) (289, 5, 5.00000000000000000000e-01) (289, 5, 5.00000000000000000000e-01) (289, 5, 5.00000000000000000000e-01) (289, 5, 5.00000000000000000000e-01) (289, 5, 5.00000000000000000000e-01) (289, 5, 5.00000000000000000000e-01) (289, 5, 5.00000000000000000000e-01) (289, 5, 5.00000000000000000000e-01) (289, 5, 5.00000000000000000000e-01) (289, 5, 5.00000000000000000000e-01) (289, 5, 5.00000000000000000000e-01) (289, 5, 5.00000000000000000000e-01) (289, 5, 5.00000000000000000000e-01) (289, 5, 5.00000000000000000000e-01) (289, 5, 5.00000000000000000000e-01) (289, 5, 5.00000000000000000000e-01) (289, 5, 5.00000000000000000000e-01) (289, 5, 5.00000000000000000000e-01) (289, 5, 5.00000000000000000000e-01) (289, 5, 5.00000000000000000000e-01) (289, 5, 5.00000000000000000000e-01) (289, 5, 5.00000000000000000000e-01) (289, 5, 5.00000000000000000000e-01) (289, 5, 5.00000000000000000000e-01) (289, 5, 5.00000000000000000000e-01) (289, 5, 5.00000000000000000000e-01) (289, 5, 5.00000000000000000000e-01) (289, 5, 5.00000000000000000000e-01) (289, 5, 5.00000000000000000000e-01) (289, 5, 5.00000000000000000000e-01) (289, 5, 5.00000000000000000000e-01) (289, 5, 5.00000000000000000000e-01) (289, 5, 5.00000000000000000000e-01) (289, 5, 5.00000000000000000000e-01) (289, 5, 5.00000000000000000000e-01) (289, 5, 5.00000000000000000000e-01) (289, 5, 5.00000000000000000000e-01) (289, 5, 5.00000000000000000000e-01) (289, 5, 5.00000000000000000000e-01) (289, 5, 5.00000000000000000000e-01) (289, 5, 5.00000000000000000000e-01) (289, 5, 5.00000000000000000000e-01) (289, 5, 5.00000000000000000000e-01) (289, 5, 5.00000000000000000000e-01) (289, 5, 5.00000000000000000000e-01) (289, 5, 5.00000000000000000000e-01) (289, 5, 5.00000000000000000000e-01) (289, 5, 5.00000000000000000000e-01) (289, 5, 5.00000000000000000000e-01) (289, 5, 5.00000000000000000000e-01) (289, 5, 5.00000000000000000000e-01) (289, 5, 5.00000000000000000000e-01) (289, 5, 5.00000000000000000000e-01) (289, 5, 5.00000000000000000000e-01) (289, 5, 5.00000000000000000000e-01) (289, 5, 5.00000000000000000000e-01) (289, 5, 5.00000000000000000000e-01) (289, 5, 5.00000000000000000000e-01) (0, 5, 0.00000000000000000000e+00) (325, 5, 5.00000000000000000000e-01) (0, 5, 0.00000000000000000000e+00) 
connections (connected_to_neuron, weight)=(0, 1.50000000000000000000e+03) (1, -7.04985916614532470703e-01) (2, 5.26836216449737548828e-01) (3, -6.78251683712005615234e-01) (4, -8.02422285079956054688e-01) (5, -6.28628730773925781250e-01) (6, 4.12133067846298217773e-01) (7, -7.92548000812530517578e-01) (8, -7.30534851551055908203e-01) (9, -7.44314432144165039062e-01) (10, 5.14620482921600341797e-01) (11, 5.17862319946289062500e-01) (12, 4.90757226943969726562e-01) (13, 4.15627509355545043945e-01) (14, 1.90529331564903259277e-01) (15, -6.37153208255767822266e-01) (16, -6.51065647602081298828e-01) (17, 1.60434648394584655762e-01) (18, 3.95133197307586669922e-01) (19, -7.20547437667846679688e-01) (20, 2.07965403795242309570e-01) (21, 2.61430025100708007812e-01) (22, 4.17761772871017456055e-01) (23, -7.29036629199981689453e-01) (24, 8.98733064532279968262e-02) (25, -7.73717045783996582031e-01) (26, -6.81835055351257324219e-01) (27, -7.28361427783966064453e-01) (28, 3.40571939945220947266e-01) (29, 1.47356450557708740234e-01) (30, -7.30014026165008544922e-01) (31, -6.82668268680572509766e-01) (32, -7.66465902328491210938e-01) (33, -7.48859286308288574219e-01) (34, 4.33297008275985717773e-01) (35, -7.44764626026153564453e-01) (36, -7.51524865627288818359e-01) (37, -6.26145184040069580078e-01) (38, -7.21052825450897216797e-01) (39, -6.51971042156219482422e-01) (40, -7.64660418033599853516e-01) (41, -6.88770087435841560364e-03) (42, -6.27583503723144531250e-01) (43, -6.27563953399658203125e-01) (44, -6.70155704021453857422e-01) (45, -7.92378544807434082031e-01) (46, 3.16250354051589965820e-01) (47, 4.80950087308883666992e-01) (48, -7.84963965415954589844e-01) (49, 4.05890494585037231445e-01) (50, 3.18919122219085693359e-01) (51, -7.30147242546081542969e-01) (52, -7.33450412750244140625e-01) (53, -7.60794639587402343750e-01) (54, -6.46342635154724121094e-01) (55, -8.04283916950225830078e-01) (56, -7.24955379962921142578e-01) (57, -7.11496055126190185547e-01) (58, -7.18401968479156494141e-01) (59, 2.38952785730361938477e-01) (60, -7.69322872161865234375e-01) (61, 3.45263421535491943359e-01) (62, 1.41143584623932838440e-02) (63, -7.12279617786407470703e-01) (64, 6.70688524842262268066e-02) (65, 7.91801959276199340820e-02) (66, 5.25460302829742431641e-01) (67, -6.85808300971984863281e-01) (68, -6.90867364406585693359e-01) (69, -7.49496161937713623047e-01) (70, -7.27165699005126953125e-01) (71, 1.81471958756446838379e-01) (72, -7.00205743312835693359e-01) (73, -7.62688457965850830078e-01) (74, -6.47681891918182373047e-01) (75, -7.52773761749267578125e-01) (76, -7.26395428180694580078e-01) (77, -6.89798295497894287109e-01) (78, 4.95483219623565673828e-01) (79, 2.73016452789306640625e-01) (80, 3.19893896579742431641e-01) (81, 5.16717322170734405518e-02) (82, -8.07089686393737792969e-01) (83, -7.67578601837158203125e-01) (84, -7.89070963859558105469e-01) (85, 4.08567309379577636719e-01) (86, 1.73193048685789108276e-02) (87, 4.21620368957519531250e-01) (88, 8.49175602197647094727e-02) (89, 2.96369463205337524414e-01) (90, -7.72196829319000244141e-01) (91, -6.99553012847900390625e-01) (92, 3.34821820259094238281e-01) (93, -7.01676487922668457031e-01) (94, 4.43461328744888305664e-01) (95, -4.45013456046581268311e-02) (96, 3.67533862590789794922e-01) (97, -6.17143452167510986328e-01) (98, -6.69385790824890136719e-01) (99, -6.39978587627410888672e-01) (100, -7.53665447235107421875e-01) (101, -7.78814494609832763672e-01) (102, -6.61042511463165283203e-01) (103, 2.18361929059028625488e-01) (104, -7.11474061012268066406e-01) (105, -6.92080974578857421875e-01) (106, -7.77809441089630126953e-01) (107, -6.16891145706176757812e-01) (108, -7.66210556030273437500e-01) (109, -3.26912514865398406982e-02) (110, -6.92650079727172851562e-01) (111, -7.93398022651672363281e-01) (112, -6.29202365875244140625e-01) (113, -6.91637456417083740234e-01) (114, -7.49006807804107666016e-01) (115, -8.00453722476959228516e-01) (116, -7.16721653938293457031e-01) (117, -6.84283912181854248047e-01) (118, -6.92786455154418945312e-01) (119, -6.45020842552185058594e-01) (120, -7.26238191127777099609e-01) (121, -6.39750421047210693359e-01) (122, -7.12613523006439208984e-01) (123, 3.42197567224502563477e-01) (124, 4.46526587009429931641e-01) (125, -6.76148176193237304688e-01) (126, -7.58495330810546875000e-01) (127, -8.89307484030723571777e-02) (128, -6.86681866645812988281e-01) (129, -6.17431879043579101562e-01) (130, 2.15808674693107604980e-01) (131, 1.42148032784461975098e-01) (132, 1.84595301747322082520e-01) (133, 7.09288939833641052246e-02) (134, 3.15728306770324707031e-01) (135, 1.61248236894607543945e-01) (136, 2.42562904953956604004e-01) (137, 6.18928344920277595520e-03) (138, 1.79258540272712707520e-01) (139, 2.11277797818183898926e-01) (140, 1.57805189490318298340e-01) (141, -7.62345969676971435547e-01) (142, -7.65057146549224853516e-01) (143, 2.05478936433792114258e-01) (144, -6.33312761783599853516e-01) (145, -7.03741788864135742188e-01) (146, -7.99545228481292724609e-01) (147, -8.09535086154937744141e-01) (148, -7.75837004184722900391e-01) (149, -6.71060204505920410156e-01) (150, -7.54199981689453125000e-01) (151, -6.89031004905700683594e-01) (152, -6.99570417404174804688e-01) (153, -6.54512166976928710938e-01) (154, -6.55079007148742675781e-01) (155, -8.14086019992828369141e-01) (156, -7.27340459823608398438e-01) (157, 6.17604292929172515869e-02) (158, -6.74869835376739501953e-01) (159, -8.02056550979614257812e-01) (160, 1.34053200483322143555e-01) (161, 2.07988411188125610352e-01) (162, 4.98108953237533569336e-01) (163, 2.31551855802536010742e-01) (164, 4.47833061218261718750e-01) (165, -6.48987472057342529297e-01) (166, 3.48789632320404052734e-01) (167, 2.52044588327407836914e-01) (168, 4.91427123546600341797e-01) (169, -6.99271917343139648438e-01) (170, -6.76476180553436279297e-01) (171, -6.34926915168762207031e-01) (172, -6.53210461139678955078e-01) (173, -6.30981504917144775391e-01) (174, -6.34331285953521728516e-01) (175, -6.64495110511779785156e-01) (176, -7.12239086627960205078e-01) (177, -6.20275974273681640625e-01) (178, -7.83263504505157470703e-01) (179, 2.79549241065979003906e-01) (180, -6.80413067340850830078e-01) (181, 2.97388851642608642578e-01) (182, 7.95715674757957458496e-02) (183, -7.60731279850006103516e-01) (184, -4.52993184328079223633e-01) (185, 1.46958023309707641602e-01) (186, -7.53173232078552246094e-01) (187, 2.49460712075233459473e-01) (188, -7.68151283264160156250e-01) (189, 5.12666344642639160156e-01) (190, -6.70588254928588867188e-01) (191, -7.52166569232940673828e-01) (192, -7.61462152004241943359e-01) (193, -6.62676334381103515625e-01) (194, -7.06484735012054443359e-01) (195, -6.42592072486877441406e-01) (196, -7.05108225345611572266e-01) (197, -7.25872874259948730469e-01) (198, 1.81120261549949645996e-01) (199, -3.97602081298828125000e-01) (200, -3.56049537658691406250e-02) (201, 2.88067042827606201172e-01) (202, 2.45615541934967041016e-01) (203, 4.93956774473190307617e-01) (204, -6.19739770889282226562e-01) (205, 1.52818396687507629395e-01) (206, -6.86682879924774169922e-01) (207, -7.21420705318450927734e-01) (208, -7.88439214229583740234e-01) (209, -6.57034218311309814453e-01) (210, -7.81131982803344726562e-01) (211, -6.92866444587707519531e-01) (212, -7.70919620990753173828e-01) (213, -7.22318589687347412109e-01) (214, -8.00488948822021484375e-01) (215, -7.25703775882720947266e-01) (216, -6.89135491847991943359e-01) (217, -7.45437443256378173828e-01) (218, -7.84350097179412841797e-01) (219, -6.48344516754150390625e-01) (220, -7.42690503597259521484e-01) (221, 2.01257094740867614746e-01) (222, -7.78426527976989746094e-01) (223, 4.09815996885299682617e-01) (224, -6.92753732204437255859e-01) (225, -6.65634751319885253906e-01) (226, 1.07234105467796325684e-01) (227, -7.32080698013305664062e-01) (228, 3.72148483991622924805e-01) (229, 1.79353758692741394043e-01) (230, 2.63499319553375244141e-01) (231, 3.74651670455932617188e-01) (232, -6.23147964477539062500e-01) (233, -6.50295019149780273438e-01) (234, -7.87838876247406005859e-01) (235, -6.25793576240539550781e-01) (236, -8.08035314083099365234e-01) (237, 2.99353837966918945312e-01) (238, -7.48403966426849365234e-01) (239, 3.54054093360900878906e-01) (240, 2.67562508583068847656e-01) (241, 4.75526630878448486328e-01) (242, -1.36918711662292480469e+00) (243, 3.04624587297439575195e-01) (244, 1.26252278685569763184e-01) (245, -7.91422128677368164062e-01) (246, 1.04335211217403411865e-01) (247, 9.82042551040649414062e-02) (248, 4.11890983581542968750e-01) (249, -7.38690078258514404297e-01) (250, -6.98868334293365478516e-01) (251, -6.38589560985565185547e-01) (252, -7.61706650257110595703e-01) (253, -6.66057169437408447266e-01) (254, -7.06573545932769775391e-01) (255, -6.82202339172363281250e-01) (256, -7.17307388782501220703e-01) (257, -8.05042505264282226562e-01) (258, -8.94047737121582031250e-01) (259, -6.83649837970733642578e-01) (260, -6.29228651523590087891e-01) (261, -6.89244270324707031250e-01) (262, -6.28809332847595214844e-01) (263, -6.37173593044281005859e-01) (264, -7.14770555496215820312e-01) (265, -8.05313348770141601562e-01) (266, -6.42321288585662841797e-01) (267, -7.09676444530487060547e-01) (268, -6.59131526947021484375e-01) (269, -7.57104098796844482422e-01) (270, -6.67328655719757080078e-01) (271, 3.96705389022827148438e-01) (272, -6.38123035430908203125e-01) (273, 4.44095045328140258789e-01) (274, 1.75823941826820373535e-01) (275, -6.17446482181549072266e-01) (276, -6.39120995998382568359e-01) (277, -7.48572707176208496094e-01) (278, -6.75066411495208740234e-01) (279, -7.35352993011474609375e-01) (280, -6.74623310565948486328e-01) (281, -7.54450917243957519531e-01) (282, -7.59980559349060058594e-01) (283, -6.23727858066558837891e-01) (284, -8.09235751628875732422e-01) (285, -6.52694582939147949219e-01) (286, -6.53850018978118896484e-01) (287, -7.10316359996795654297e-01) (288, 5.62841445207595825195e-02) (0, 1.50000000000000000000e+03) (1, -6.64170086383819580078e-01) (2, 4.40200895071029663086e-01) (3, -5.99781453609466552734e-01) (4, -6.79898560047149658203e-01) (5, -5.75040102005004882812e-01) (6, 5.06933867931365966797e-01) (7, -6.67667686939239501953e-01) (8, -6.22318625450134277344e-01) (9, -5.90895116329193115234e-01) (10, 4.94652628898620605469e-01) (11, 6.71779394149780273438e-01) (12, 3.48915159702301025391e-01) (13, 3.99116903543472290039e-01) (14, 3.17497313022613525391e-01) (15, -5.02655029296875000000e-01) (16, -6.17204129695892333984e-01) (17, 3.14993083477020263672e-01) (18, 4.41829234361648559570e-01) (19, -5.46552002429962158203e-01) (20, 2.56759315729141235352e-01) (21, 4.86145764589309692383e-01) (22, 3.88884097337722778320e-01) (23, -5.73630452156066894531e-01) (24, 4.09480214118957519531e-01) (25, -6.11786246299743652344e-01) (26, -5.60622334480285644531e-01) (27, -6.47909879684448242188e-01) (28, 3.57597470283508300781e-01) (29, 5.83831593394279479980e-02) (30, -6.79942309856414794922e-01) (31, -6.89710080623626708984e-01) (32, -6.26613914966583251953e-01) (33, -5.40514349937438964844e-01) (34, 3.74904334545135498047e-01) (35, -5.82221090793609619141e-01) (36, -5.90114593505859375000e-01) (37, -5.84496617317199707031e-01) (38, -5.48781812191009521484e-01) (39, -6.77569389343261718750e-01) (40, -6.97948694229125976562e-01) (41, 3.85539948940277099609e-01) (42, -5.12149453163146972656e-01) (43, -6.36078715324401855469e-01) (44, -6.90622210502624511719e-01) (45, -5.74144303798675537109e-01) (46, 1.42240017652511596680e-01) (47, 3.89371514320373535156e-01) (48, -6.34658515453338623047e-01) (49, 3.27436059713363647461e-01) (50, 3.05658698081970214844e-01) (51, -5.52458465099334716797e-01) (52, -6.14240467548370361328e-01) (53, -5.64755022525787353516e-01) (54, -6.23277187347412109375e-01) (55, -5.10964572429656982422e-01) (56, -6.83394670486450195312e-01) (57, -6.74411535263061523438e-01) (58, -6.62013411521911621094e-01) (59, 4.26549941301345825195e-01) (60, -6.27562701702117919922e-01) (61, 2.62792110443115234375e-01) (62, 3.80456715822219848633e-01) (63, -5.33191084861755371094e-01) (64, 3.24366420507431030273e-01) (65, 4.95796710252761840820e-01) (66, 3.73926341533660888672e-01) (67, -5.24867117404937744141e-01) (68, -5.97240686416625976562e-01) (69, -6.64166808128356933594e-01) (70, -5.03981828689575195312e-01) (71, 1.25723272562026977539e-01) (72, -5.17885208129882812500e-01) (73, -5.69845557212829589844e-01) (74, -5.12077987194061279297e-01) (75, -5.01129269599914550781e-01) (76, -6.09988093376159667969e-01) (77, -6.65261685848236083984e-01) (78, 3.59978020191192626953e-01) (79, 3.39088618755340576172e-01) (80, 2.55150318145751953125e-01) (81, 1.89221054315567016602e-01) (82, -5.85302174091339111328e-01) (83, -5.42087972164154052734e-01) (84, -6.36126339435577392578e-01) (85, 4.89883124828338623047e-01) (86, 4.01428043842315673828e-01) (87, 4.05046939849853515625e-01) (88, 1.94430053234100341797e-01) (89, 1.83995619416236877441e-01) (90, -5.66165447235107421875e-01) (91, -6.30665600299835205078e-01) (92, 3.15676242113113403320e-01) (93, -6.80739223957061767578e-01) (94, 3.09024274349212646484e-01) (95, 3.92069846391677856445e-01) (96, 2.77028828859329223633e-01) (97, -5.65672218799591064453e-01) (98, -5.69886386394500732422e-01) (99, -5.80110251903533935547e-01) (100, -5.35077333450317382812e-01) (101, -5.76072096824645996094e-01) (102, -6.63848638534545898438e-01) (103, 4.32489931583404541016e-01) (104, -5.99528789520263671875e-01) (105, -6.72910332679748535156e-01) (106, -5.54069399833679199219e-01) (107, -6.95584237575531005859e-01) (108, -6.31906270980834960938e-01) (109, 2.80366390943527221680e-01) (110, -5.23783028125762939453e-01) (111, -5.47398209571838378906e-01) (112, -5.30712664127349853516e-01) (113, -6.25318646430969238281e-01) (114, -5.86001038551330566406e-01) (115, -6.57474160194396972656e-01) (116, -6.33401393890380859375e-01) (117, -6.16839706897735595703e-01) (118, -5.92471480369567871094e-01) (119, -6.33927106857299804688e-01) (120, -6.16966664791107177734e-01) (121, -6.35353028774261474609e-01) (122, -5.22828876972198486328e-01) (123, 4.28272306919097900391e-01) (124, 3.85140508413314819336e-01) (125, -6.52912497520446777344e-01) (126, -5.69789230823516845703e-01) (127, -3.51558744907379150391e-01) (128, -5.31078815460205078125e-01) (129, -6.41505539417266845703e-01) (130, 3.52084934711456298828e-01) (131, 3.80769461393356323242e-01) (132, 3.70386451482772827148e-01) (133, 2.35367238521575927734e-01) (134, 2.64589875936508178711e-01) (135, 1.95891827344894409180e-01) (136, 2.12993606925010681152e-01) (137, 2.16208308935165405273e-01) (138, 3.78349870443344116211e-01) (139, 3.63967061042785644531e-01) (140, 4.15346026420593261719e-01) (141, -6.31076097488403320312e-01) (142, -6.04148328304290771484e-01) (143, 2.30797603726387023926e-01) (144, -5.39759039878845214844e-01) (145, -7.00529932975769042969e-01) (146, -6.00888967514038085938e-01) (147, -8.39242041110992431641e-01) (148, -6.13833546638488769531e-01) (149, -6.78056180477142333984e-01) (150, -5.81036627292633056641e-01) (151, -5.41600525379180908203e-01) (152, -6.18654549121856689453e-01) (153, -6.07477366924285888672e-01) (154, -5.76940596103668212891e-01) (155, -5.40771424770355224609e-01) (156, -5.77699482440948486328e-01) (157, 3.30426186323165893555e-01) (158, -6.38101220130920410156e-01) (159, -6.07812702655792236328e-01) (160, 2.53490775823593139648e-01) (161, 2.62279659509658813477e-01) (162, 5.02215862274169921875e-01) (163, 3.65891605615615844727e-01) (164, 4.15500491857528686523e-01) (165, -5.73477089405059814453e-01) (166, 2.18191578984260559082e-01) (167, 1.84360980987548828125e-01) (168, 4.36063349246978759766e-01) (169, -5.90363502502441406250e-01) (170, -5.30955314636230468750e-01) (171, -6.55950665473937988281e-01) (172, -5.36149859428405761719e-01) (173, -6.44244611263275146484e-01) (174, -6.01462364196777343750e-01) (175, -5.59113323688507080078e-01) (176, -6.25183343887329101562e-01) (177, -5.05292475223541259766e-01) (178, -5.29350221157073974609e-01) (179, 4.37734425067901611328e-01) (180, -6.91728591918945312500e-01) (181, 3.30839246511459350586e-01) (182, 3.03836762905120849609e-01) (183, -5.98992049694061279297e-01) (184, 1.35368362069129943848e-01) (185, 1.67407721281051635742e-01) (186, -6.32271051406860351562e-01) (187, 3.07359129190444946289e-01) (188, -5.96812486648559570312e-01) (189, 3.95582675933837890625e-01) (190, -5.19765198230743408203e-01) (191, -6.71043515205383300781e-01) (192, -6.82682454586029052734e-01) (193, -6.74019634723663330078e-01) (194, -5.60417652130126953125e-01) (195, -5.43699085712432861328e-01) (196, -5.60184001922607421875e-01) (197, -5.54246604442596435547e-01) (198, 5.14585435390472412109e-01) (199, 7.77866616845130920410e-02) (200, 3.07801783084869384766e-01) (201, 5.93050777912139892578e-01) (202, 3.30416977405548095703e-01) (203, 3.12716126441955566406e-01) (204, -7.03506827354431152344e-01) (205, 3.91563385725021362305e-01) (206, -5.08038640022277832031e-01) (207, -6.35591089725494384766e-01) (208, -6.65974676609039306641e-01) (209, -5.40074050426483154297e-01) (210, -6.86739265918731689453e-01) (211, -6.49761795997619628906e-01) (212, -6.61783397197723388672e-01) (213, -5.94525635242462158203e-01) (214, -5.57869613170623779297e-01) (215, -6.92868530750274658203e-01) (216, -5.42719662189483642578e-01) (217, -6.92775428295135498047e-01) (218, -5.76846599578857421875e-01) (219, -6.54157936573028564453e-01) (220, -5.50289034843444824219e-01) (221, 3.83011907339096069336e-01) (222, -6.06588542461395263672e-01) (223, 6.32910668849945068359e-01) (224, -5.69386065006256103516e-01) (225, -6.53242945671081542969e-01) (226, 3.10611397027969360352e-01) (227, -6.37807905673980712891e-01) (228, 4.71927672624588012695e-01) (229, 2.80537635087966918945e-01) (230, 3.57877999544143676758e-01) (231, 3.31760287284851074219e-01) (232, -6.41031682491302490234e-01) (233, -5.73529124259948730469e-01) (234, -5.89361965656280517578e-01) (235, -6.37268245220184326172e-01) (236, -5.12336015701293945312e-01) (237, 2.28133708238601684570e-01) (238, -6.13182008266448974609e-01) (239, 3.70138615369796752930e-01) (240, 1.95893004536628723145e-01) (241, 4.54048991203308105469e-01) (242, -8.50473582744598388672e-01) (243, 2.31443956494331359863e-01) (244, 4.07648891210556030273e-01) (245, -6.53404891490936279297e-01) (246, 2.43567317724227905273e-01) (247, 2.69538849592208862305e-01) (248, 3.30028802156448364258e-01) (249, -6.70502543449401855469e-01) (250, -6.11764669418334960938e-01) (251, -6.69284582138061523438e-01) (252, -5.56287765502929687500e-01) (253, -5.27236759662628173828e-01) (254, -6.83308839797973632812e-01) (255, -6.30149781703948974609e-01) (256, -6.84079229831695556641e-01) (257, -5.47248125076293945312e-01) (258, -5.00175952911376953125e-01) (259, -7.05520331859588623047e-01) (260, -6.39106571674346923828e-01) (261, -5.55305004119873046875e-01) (262, -6.29996120929718017578e-01) (263, -5.90249657630920410156e-01) (264, -6.10758483409881591797e-01) (265, -5.27252078056335449219e-01) (266, -5.03603875637054443359e-01) (267, -6.22884631156921386719e-01) (268, -6.43209040164947509766e-01) (269, -5.70771753787994384766e-01) (270, -5.79393744468688964844e-01) (271, 3.94407033920288085938e-01) (272, -6.19496583938598632812e-01) (273, 4.85182791948318481445e-01) (274, 1.90316975116729736328e-01) (275, -5.43450951576232910156e-01) (276, -6.36359035968780517578e-01) (277, -5.82203507423400878906e-01) (278, -5.21542549133300781250e-01) (279, -5.57164907455444335938e-01) (280, -5.56330680847167968750e-01) (281, -6.25544726848602294922e-01) (282, -5.32772600650787353516e-01) (283, -6.15271568298339843750e-01) (284, -6.56454384326934814453e-01) (285, -5.17860949039459228516e-01) (286, -5.47015488147735595703e-01) (287, -6.33296191692352294922e-01) (288, -3.49605455994606018066e-02) (0, 1.50000000000000000000e+03) (1, 5.13000845909118652344e-01) (2, -1.44238457083702087402e-01) (3, 4.84835982322692871094e-01) (4, 5.61910927295684814453e-01) (5, 5.33068895339965820312e-01) (6, -2.23946899175643920898e-01) (7, 5.39395511150360107422e-01) (8, 5.47935128211975097656e-01) (9, 4.63213950395584106445e-01) (10, -1.96344286203384399414e-01) (11, -3.48013371229171752930e-01) (12, -2.27659463882446289062e-01) (13, -2.90603935718536376953e-01) (14, -2.28427231311798095703e-01) (15, 5.93043744564056396484e-01) (16, 5.41217982769012451172e-01) (17, -2.55140423774719238281e-01) (18, -3.18409711122512817383e-01) (19, 4.66676592826843261719e-01) (20, -2.84773886203765869141e-01) (21, -5.45611046254634857178e-02) (22, -1.97630733251571655273e-01) (23, 5.60780227184295654297e-01) (24, -2.06763669848442077637e-01) (25, 4.29824203252792358398e-01) (26, 4.21594947576522827148e-01) (27, 5.35319209098815917969e-01) (28, -3.28275948762893676758e-01) (29, -1.94350361824035644531e-01) (30, 4.65333938598632812500e-01) (31, 5.96007943153381347656e-01) (32, 5.60438692569732666016e-01) (33, 4.45811927318572998047e-01) (34, -3.38323593139648437500e-01) (35, 5.27632415294647216797e-01) (36, 5.83082735538482666016e-01) (37, 6.04207396507263183594e-01) (38, 4.47848767042160034180e-01) (39, 5.05696356296539306641e-01) (40, 4.25375849008560180664e-01) (41, -3.37899684906005859375e-01) (42, 5.60874998569488525391e-01) (43, 5.96987783908843994141e-01) (44, 5.51949679851531982422e-01) (45, 4.93735432624816894531e-01) (46, -1.93608567118644714355e-01) (47, -3.35915654897689819336e-01) (48, 5.86692750453948974609e-01) (49, -2.01468288898468017578e-01) (50, -2.59582519531250000000e-01) (51, 4.67928588390350341797e-01) (52, 5.87232351303100585938e-01) (53, 5.06520330905914306641e-01) (54, 6.12719178199768066406e-01) (55, 5.16903877258300781250e-01) (56, 5.95468521118164062500e-01) (57, 4.25355225801467895508e-01) (58, 4.44242298603057861328e-01) (59, -3.60886305570602416992e-01) (60, 5.01232028007507324219e-01) (61, -2.62082785367965698242e-01) (62, -1.72098577022552490234e-01) (63, 4.62051540613174438477e-01) (64, -1.88518747687339782715e-01) (65, -3.43912482261657714844e-01) (66, -2.43858098983764648438e-01) (67, 5.30782818794250488281e-01) (68, 6.07253491878509521484e-01) (69, 5.99028229713439941406e-01) (70, 6.20463967323303222656e-01) (71, -2.60508120059967041016e-01) (72, 3.98032218217849731445e-01) (73, 5.90213954448699951172e-01) (74, 6.18688762187957763672e-01) (75, 5.59457540512084960938e-01) (76, 4.16310548782348632812e-01) (77, 5.58151781558990478516e-01) (78, -1.61750674247741699219e-01) (79, -1.91162407398223876953e-01) (80, -2.23487004637718200684e-01) (81, -2.60221183300018310547e-01) (82, 4.44265395402908325195e-01) (83, 5.09662926197052001953e-01) (84, 5.93629598617553710938e-01) (85, -3.34937691688537597656e-01) (86, -3.25543075799942016602e-01) (87, -2.12580099701881408691e-01) (88, -3.35007220506668090820e-01) (89, -6.91661775112152099609e-01) (90, 5.82118630409240722656e-01) (91, 5.05073130130767822266e-01) (92, -2.06127464771270751953e-01) (93, 5.81714272499084472656e-01) (94, -2.23517656326293945312e-01) (95, -2.47901618480682373047e-01) (96, -1.84996098279953002930e-01) (97, 5.07658839225769042969e-01) (98, 4.41397875547409057617e-01) (99, 5.93434035778045654297e-01) (100, 4.78177815675735473633e-01) (101, 4.35785531997680664062e-01) (102, 6.01763844490051269531e-01) (103, -4.07083928585052490234e-01) (104, 5.72945356369018554688e-01) (105, 6.00031018257141113281e-01) (106, 4.22093570232391357422e-01) (107, 5.83189010620117187500e-01) (108, 5.49638748168945312500e-01) (109, -1.54254123568534851074e-01) (110, 5.65047204494476318359e-01) (111, 4.93917137384414672852e-01) (112, 5.02969384193420410156e-01) (113, 5.73225617408752441406e-01) (114, 6.01593494415283203125e-01) (115, 4.87384170293807983398e-01) (116, 5.92949986457824707031e-01) (117, 4.40760403871536254883e-01) (118, 4.24441665410995483398e-01) (119, 4.00058597326278686523e-01) (120, 4.97950166463851928711e-01) (121, 6.14792048931121826172e-01) (122, 5.24927496910095214844e-01) (123, -2.29969114065170288086e-01) (124, -2.29548081755638122559e-01) (125, 4.73246604204177856445e-01) (126, 5.72706282138824462891e-01) (127, 8.01914274692535400391e-01) (128, 5.59535861015319824219e-01) (129, 5.98938167095184326172e-01) (130, -2.82611995935440063477e-01) (131, -3.38907629251480102539e-01) (132, -3.67541849613189697266e-01) (133, -2.59723216295242309570e-01) (134, -2.80817717313766479492e-01) (135, -1.57185554504394531250e-01) (136, -2.15103045105934143066e-01) (137, -2.66642332077026367188e-01) (138, -2.46199399232864379883e-01) (139, -3.70669394731521606445e-01) (140, -2.96166747808456420898e-01) (141, 4.92440015077590942383e-01) (142, 4.99156773090362548828e-01) (143, -1.81042894721031188965e-01) (144, 4.63178873062133789062e-01) (145, 4.71451431512832641602e-01) (146, 4.69010204076766967773e-01) (147, 5.97982406616210937500e-01) (148, 4.93311226367950439453e-01) (149, 4.89984422922134399414e-01) (150, 4.41206723451614379883e-01) (151, 5.64707815647125244141e-01) (152, 4.81078118085861206055e-01) (153, 5.45898377895355224609e-01) (154, 6.00230991840362548828e-01) (155, 4.32499706745147705078e-01) (156, 5.96082150936126708984e-01) (157, -3.72713655233383178711e-01) (158, 5.72259068489074707031e-01) (159, 5.44097602367401123047e-01) (160, -2.17687815427780151367e-01) (161, -2.95532315969467163086e-01) (162, -2.39633798599243164062e-01) (163, -2.40359485149383544922e-01) (164, -1.87822952866554260254e-01) (165, 4.49279755353927612305e-01) (166, -4.08796966075897216797e-01) (167, -3.00412386655807495117e-01) (168, -2.33410805463790893555e-01) (169, 4.62665677070617675781e-01) (170, 4.68491941690444946289e-01) (171, 4.30026710033416748047e-01) (172, 5.21925389766693115234e-01) (173, 5.39098441600799560547e-01) (174, 6.09853506088256835938e-01) (175, 5.81886231899261474609e-01) (176, 6.11119270324707031250e-01) (177, 4.55588668584823608398e-01) (178, 6.02286279201507568359e-01) (179, -3.25560182332992553711e-01) (180, 5.18197357654571533203e-01) (181, -3.79713267087936401367e-01) (182, -1.37891799211502075195e-01) (183, 5.89383661746978759766e-01) (184, -1.76514342427253723145e-01) (185, -1.59732133150100708008e-01) (186, 6.10660910606384277344e-01) (187, -2.60566711425781250000e-01) (188, 5.57479321956634521484e-01) (189, -2.15557098388671875000e-01) (190, 4.34231907129287719727e-01) (191, 4.91639345884323120117e-01) (192, 4.32221472263336181641e-01) (193, 5.81782877445220947266e-01) (194, 4.28158253431320190430e-01) (195, 5.93540370464324951172e-01) (196, 6.09566450119018554688e-01) (197, 5.34474551677703857422e-01) (198, -3.72472435235977172852e-01) (199, -1.76781892776489257812e-01) (200, -1.85560852289199829102e-01) (201, -3.42597663402557373047e-01) (202, -2.33437210321426391602e-01) (203, -2.69028753042221069336e-01) (204, 5.98253846168518066406e-01) (205, -3.14950495958328247070e-01) (206, 4.76826995611190795898e-01) (207, 5.83339154720306396484e-01) (208, 5.61563193798065185547e-01) (209, 4.56975549459457397461e-01) (210, 4.38283711671829223633e-01) (211, 4.68076020479202270508e-01) (212, 4.49537694454193115234e-01) (213, 4.23401594161987304688e-01) (214, 4.30895686149597167969e-01) (215, 5.69484770298004150391e-01) (216, 4.27449047565460205078e-01) (217, 4.17695671319961547852e-01) (218, 4.90096837282180786133e-01) (219, 5.52566707134246826172e-01) (220, 5.77392518520355224609e-01) (221, -3.95852118730545043945e-01) (222, 4.43303495645523071289e-01) (223, -2.12731122970581054688e-01) (224, 4.82086509466171264648e-01) (225, 4.66694623231887817383e-01) (226, -2.05630287528038024902e-01) (227, 4.62741017341613769531e-01) (228, -2.27226734161376953125e-01) (229, -1.93116053938865661621e-01) (230, -1.93544164299964904785e-01) (231, -2.19804733991622924805e-01) (232, 4.54693973064422607422e-01) (233, 5.08351027965545654297e-01) (234, 4.43588078022003173828e-01) (235, 4.40765798091888427734e-01) (236, 4.34617727994918823242e-01) (237, -2.83193618059158325195e-01) (238, 6.47972941398620605469e-01) (239, -2.43039891123771667480e-01) (240, -2.94508218765258789062e-01) (241, -5.10118186473846435547e-01) (242, 5.21777033805847167969e-01) (243, -2.09975659847259521484e-01) (244, -3.52562963962554931641e-01) (245, 4.67202693223953247070e-01) (246, -1.91266342997550964355e-01) (247, -3.15388560295104980469e-01) (248, -2.98326671123504638672e-01) (249, 5.88274359703063964844e-01) (250, 5.94783186912536621094e-01) (251, 4.55465227365493774414e-01) (252, 4.87539380788803100586e-01) (253, 4.20443832874298095703e-01) (254, 4.46225643157958984375e-01) (255, 5.44646680355072021484e-01) (256, 4.65572208166122436523e-01) (257, 6.03769063949584960938e-01) (258, 6.55943036079406738281e-01) (259, 4.11644518375396728516e-01) (260, 5.70427238941192626953e-01) (261, 5.87497591972351074219e-01) (262, 5.56863784790039062500e-01) (263, 5.94561636447906494141e-01) (264, 4.88736689090728759766e-01) (265, 5.74711680412292480469e-01) (266, 4.30983632802963256836e-01) (267, 5.06588399410247802734e-01) (268, 4.42347228527069091797e-01) (269, 4.27243262529373168945e-01) (270, 4.84739243984222412109e-01) (271, -2.08577588200569152832e-01) (272, 4.44365024566650390625e-01) (273, -2.82935172319412231445e-01) (274, -2.78090924024581909180e-01) (275, 4.82265472412109375000e-01) (276, 5.69966614246368408203e-01) (277, 5.98066866397857666016e-01) (278, 5.14344990253448486328e-01) (279, 4.41892862319946289062e-01) (280, 5.66330671310424804688e-01) (281, 5.08071303367614746094e-01) (282, 4.70399528741836547852e-01) (283, 4.26456958055496215820e-01) (284, 4.99043792486190795898e-01) (285, 4.97156560420989990234e-01) (286, 5.59640944004058837891e-01) (287, 5.64374268054962158203e-01) (288, 3.68147611618041992188e-01) (0, 1.50000000000000000000e+03) (1, 5.89963972568511962891e-01) (2, -3.23664009571075439453e-01) (3, 5.34565031528472900391e-01) (4, 5.10074377059936523438e-01) (5, 4.20543044805526733398e-01) (6, -1.87142848968505859375e-01) (7, 4.73906636238098144531e-01) (8, 4.60142672061920166016e-01) (9, 5.14680743217468261719e-01) (10, -2.96246469020843505859e-01) (11, -3.53932470083236694336e-01) (12, -2.26032525300979614258e-01) (13, -3.67995798587799072266e-01) (14, -2.96676605939865112305e-01) (15, 4.78946685791015625000e-01) (16, 5.37088334560394287109e-01) (17, -2.24952057003974914551e-01) (18, -3.44972670078277587891e-01) (19, 5.28577864170074462891e-01) (20, -3.20605218410491943359e-01) (21, -4.24974441528320312500e-01) (22, -3.29299122095108032227e-01) (23, 5.42944312095642089844e-01) (24, -2.60286092758178710938e-01) (25, 5.09143710136413574219e-01) (26, 4.51782077550888061523e-01) (27, 5.80358147621154785156e-01) (28, -3.40445190668106079102e-01) (29, -8.56259167194366455078e-02) (30, 4.40666913986206054688e-01) (31, 6.08458399772644042969e-01) (32, 5.45665562152862548828e-01) (33, 4.42007362842559814453e-01) (34, -2.76144802570343017578e-01) (35, 4.61021870374679565430e-01) (36, 4.66752111911773681641e-01) (37, 5.03190457820892333984e-01) (38, 5.15464127063751220703e-01) (39, 5.01575052738189697266e-01) (40, 5.75825572013854980469e-01) (41, -1.70186966657638549805e-01) (42, 5.50834655761718750000e-01) (43, 5.49063742160797119141e-01) (44, 4.42296117544174194336e-01) (45, 4.22500103712081909180e-01) (46, -1.55859529972076416016e-01) (47, -2.49409869313240051270e-01) (48, 5.61621963977813720703e-01) (49, -3.90864402055740356445e-01) (50, -3.11464458703994750977e-01) (51, 6.06278359889984130859e-01) (52, 4.56186741590499877930e-01) (53, 5.23488461971282958984e-01) (54, 5.33231973648071289062e-01) (55, 5.32651305198669433594e-01) (56, 6.12717628479003906250e-01) (57, 5.76056122779846191406e-01) (58, 5.04715144634246826172e-01) (59, -3.55806469917297363281e-01) (60, 5.59792697429656982422e-01) (61, -2.26277604699134826660e-01) (62, -3.52843344211578369141e-01) (63, 5.06242692470550537109e-01) (64, -1.57031893730163574219e-01) (65, -2.64491409063339233398e-01) (66, -2.66277223825454711914e-01) (67, 4.46453005075454711914e-01) (68, 5.85945427417755126953e-01) (69, 4.44223165512084960938e-01) (70, 5.32013297080993652344e-01) (71, -1.31367087364196777344e-01) (72, 4.10652190446853637695e-01) (73, 4.91722404956817626953e-01) (74, 4.99904721975326538086e-01) (75, 4.62999701499938964844e-01) (76, 4.47191536426544189453e-01) (77, 4.77346897125244140625e-01) (78, -1.71702250838279724121e-01) (79, -1.86708420515060424805e-01) (80, -2.92329907417297363281e-01) (81, -3.21766704320907592773e-01) (82, 5.67710936069488525391e-01) (83, 5.09230673313140869141e-01) (84, 5.49052178859710693359e-01) (85, -2.71621793508529663086e-01) (86, -3.10542374849319458008e-01) (87, -2.39908352494239807129e-01) (88, -3.21279197931289672852e-01) (89, -1.57389968633651733398e-01) (90, 5.59870243072509765625e-01) (91, 5.78340947628021240234e-01) (92, -2.94849902391433715820e-01) (93, 5.74692368507385253906e-01) (94, -3.02690476179122924805e-01) (95, -3.04335266351699829102e-01) (96, -3.10005396604537963867e-01) (97, 6.02410554885864257812e-01) (98, 5.00347852706909179688e-01) (99, 4.47116225957870483398e-01) (100, 4.18125182390213012695e-01) (101, 6.06284618377685546875e-01) (102, 5.84587693214416503906e-01) (103, -4.54516589641571044922e-01) (104, 4.44952577352523803711e-01) (105, 4.64070856571197509766e-01) (106, 4.78491842746734619141e-01) (107, 4.85469698905944824219e-01) (108, 5.32875299453735351562e-01) (109, -3.08095753192901611328e-01) (110, 4.72155243158340454102e-01) (111, 6.07997417449951171875e-01) (112, 4.87869679927825927734e-01) (113, 4.22763317823410034180e-01) (114, 5.15010356903076171875e-01) (115, 4.27996009588241577148e-01) (116, 5.05804359912872314453e-01) (117, 5.69178760051727294922e-01) (118, 5.37437975406646728516e-01) (119, 5.26590287685394287109e-01) (120, 5.01841306686401367188e-01) (121, 5.05538880825042724609e-01) (122, 5.24777531623840332031e-01) (123, -2.10017800331115722656e-01) (124, -3.43519508838653564453e-01) (125, 5.90267896652221679688e-01) (126, 4.31152701377868652344e-01) (127, 7.62934267520904541016e-01) (128, 5.71308255195617675781e-01) (129, 5.16334295272827148438e-01) (130, -2.67909020185470581055e-01) (131, -1.87187701463699340820e-01) (132, -2.79647022485733032227e-01) (133, -2.62829929590225219727e-01) (134, -1.76242485642433166504e-01) (135, -1.97282999753952026367e-01) (136, -1.53535619378089904785e-01) (137, -3.07449817657470703125e-01) (138, -1.84015318751335144043e-01) (139, -3.25865298509597778320e-01) (140, -2.88343578577041625977e-01) (141, 4.60757017135620117188e-01) (142, 4.57810074090957641602e-01) (143, -1.88721790909767150879e-01) (144, 4.81636643409729003906e-01) (145, 5.43522477149963378906e-01) (146, 6.01655602455139160156e-01) (147, 7.29294359683990478516e-01) (148, 4.93799149990081787109e-01) (149, 5.35625517368316650391e-01) (150, 4.99388992786407470703e-01) (151, 5.68798124790191650391e-01) (152, 4.17465537786483764648e-01) (153, 6.03930652141571044922e-01) (154, 5.19777536392211914062e-01) (155, 4.54916059970855712891e-01) (156, 5.71135222911834716797e-01) (157, -3.94720107316970825195e-01) (158, 5.55695295333862304688e-01) (159, 5.30922949314117431641e-01) (160, -3.22298556566238403320e-01) (161, -2.97393113374710083008e-01) (162, -3.01088899374008178711e-01) (163, -2.57075250148773193359e-01) (164, -1.92156866192817687988e-01) (165, 4.92399871349334716797e-01) (166, -4.65379536151885986328e-01) (167, -2.43178576231002807617e-01) (168, -2.29317337274551391602e-01) (169, 4.68036770820617675781e-01) (170, 5.70530176162719726562e-01) (171, 4.41540062427520751953e-01) (172, 4.95811760425567626953e-01) (173, 5.99789321422576904297e-01) (174, 6.13688111305236816406e-01) (175, 5.74634373188018798828e-01) (176, 5.43880581855773925781e-01) (177, 5.92069089412689208984e-01) (178, 5.26346385478973388672e-01) (179, -1.92310839891433715820e-01) (180, 5.00316739082336425781e-01) (181, -1.97470635175704956055e-01) (182, -2.02030122280120849609e-01) (183, 5.07890939712524414062e-01) (184, -1.36239454150199890137e-01) (185, -3.02558243274688720703e-01) (186, 5.51584422588348388672e-01) (187, -2.45008096098899841309e-01) (188, 5.92647016048431396484e-01) (189, -1.92701280117034912109e-01) (190, 4.36385303735733032227e-01) (191, 4.22196686267852783203e-01) (192, 5.54721057415008544922e-01) (193, 5.22481501102447509766e-01) (194, 5.42001008987426757812e-01) (195, 5.11705458164215087891e-01) (196, 5.93385100364685058594e-01) (197, 5.91503322124481201172e-01) (198, -1.97073832154273986816e-01) (199, -1.89169660210609436035e-01) (200, -3.23449313640594482422e-01) (201, -2.64931082725524902344e-01) (202, -2.34011560678482055664e-01) (203, -2.32338368892669677734e-01) (204, 5.36381244659423828125e-01) (205, -3.11690330505371093750e-01) (206, 5.06266117095947265625e-01) (207, 4.54226970672607421875e-01) (208, 5.01302719116210937500e-01) (209, 6.10474765300750732422e-01) (210, 4.42421346902847290039e-01) (211, 5.89936256408691406250e-01) (212, 5.85567235946655273438e-01) (213, 5.65167605876922607422e-01) (214, 4.71262216567993164062e-01) (215, 5.45270204544067382812e-01) (216, 4.26388323307037353516e-01) (217, 5.99390029907226562500e-01) (218, 4.81440573930740356445e-01) (219, 5.86673676967620849609e-01) (220, 4.83041733503341674805e-01) (221, -4.02355015277862548828e-01) (222, 6.07968270778656005859e-01) (223, -3.84582430124282836914e-01) (224, 6.16282880306243896484e-01) (225, 5.43774485588073730469e-01) (226, -2.59316504001617431641e-01) (227, 5.81358373165130615234e-01) (228, -2.91691929101943969727e-01) (229, -2.71403938531875610352e-01) (230, -2.87617772817611694336e-01) (231, -2.21869915723800659180e-01) (232, 4.53612327575683593750e-01) (233, 4.13702517747879028320e-01) (234, 4.77370679378509521484e-01) (235, 5.78042447566986083984e-01) (236, 5.43545424938201904297e-01) (237, -2.19730660319328308105e-01) (238, 4.55906510353088378906e-01) (239, -3.94687950611114501953e-01) (240, -2.76946425437927246094e-01) (241, -4.97340023517608642578e-01) (242, 6.91988170146942138672e-01) (243, -2.56673425436019897461e-01) (244, -1.97634056210517883301e-01) (245, 4.77492600679397583008e-01) (246, -6.48034572601318359375e-01) (247, -1.61885023117065429688e-01) (248, -3.06458592414855957031e-01) (249, 5.08936524391174316406e-01) (250, 5.81896781921386718750e-01) (251, 5.52695930004119873047e-01) (252, 6.01066052913665771484e-01) (253, 5.72222352027893066406e-01) (254, 5.71604967117309570312e-01) (255, 5.92168748378753662109e-01) (256, 4.95856344699859619141e-01) (257, 4.75434750318527221680e-01) (258, 6.22312426567077636719e-01) (259, 5.77464282512664794922e-01) (260, 5.64120471477508544922e-01) (261, 4.59792912006378173828e-01) (262, 5.20905673503875732422e-01) (263, 5.87403595447540283203e-01) (264, 4.66384917497634887695e-01) (265, 5.73320984840393066406e-01) (266, 5.61102271080017089844e-01) (267, 5.92849135398864746094e-01) (268, 5.04187464714050292969e-01) (269, 5.65295994281768798828e-01) (270, 4.19351965188980102539e-01) (271, -3.28573703765869140625e-01) (272, 5.95411062240600585938e-01) (273, -3.81297022104263305664e-01) (274, -2.44495794177055358887e-01) (275, 5.86918234825134277344e-01) (276, 4.85367864370346069336e-01) (277, 5.60692250728607177734e-01) (278, 5.71773171424865722656e-01) (279, 5.49163758754730224609e-01) (280, 4.49617713689804077148e-01) (281, 5.52843511104583740234e-01) (282, 4.75417822599411010742e-01) (283, 4.23903852701187133789e-01) (284, 4.95593726634979248047e-01) (285, 4.27380830049514770508e-01) (286, 6.05443060398101806641e-01) (287, 5.91208398342132568359e-01) (288, 3.70583057403564453125e-01) (0, 1.50000000000000000000e+03) (1, 1.07574664056301116943e-01) (2, 2.03248524665832519531e+00) (3, 1.52215778827667236328e-01) (4, 1.26187633723020553589e-02) (5, 1.58920183777809143066e-01) (6, 1.35951459407806396484e+00) (7, -2.91629210114479064941e-02) (8, 1.17377184331417083740e-01) (9, -1.31744071841239929199e-02) (10, 1.35026299953460693359e+00) (11, 1.52575480937957763672e+00) (12, 1.30158102512359619141e+00) (13, 1.32678520679473876953e+00) (14, 9.33794498443603515625e-01) (15, 6.00196747109293937683e-03) (16, 8.43442138284444808960e-03) (17, 9.08061802387237548828e-01) (18, 1.16415762901306152344e+00) (19, 1.48983329534530639648e-01) (20, 8.65484297275543212891e-01) (21, 9.23613548278808593750e-01) (22, 1.32451415061950683594e+00) (23, 9.51880589127540588379e-02) (24, 1.30288732051849365234e+00) (25, 6.51272712275385856628e-04) (26, 5.86479296907782554626e-03) (27, 7.96288326382637023926e-02) (28, 1.30794429779052734375e+00) (29, 4.47584271430969238281e-01) (30, 1.36171936988830566406e-01) (31, -3.03024500608444213867e-02) (32, 1.20748236775398254395e-01) (33, 1.38223350048065185547e-01) (34, 1.08740592002868652344e+00) (35, -1.71808712184429168701e-02) (36, 1.47161945700645446777e-01) (37, 1.16536142304539680481e-02) (38, -3.80862876772880554199e-03) (39, 8.41637253761291503906e-02) (40, 4.43742312490940093994e-02) (41, 1.37897372245788574219e+00) (42, -2.14067641645669937134e-02) (43, 9.37354937195777893066e-02) (44, 3.98503541946411132812e-02) (45, 7.11148008704185485840e-02) (46, 1.06557559967041015625e+00) (47, 1.40146553516387939453e+00) (48, 1.26888081431388854980e-01) (49, 1.37487435340881347656e+00) (50, 1.33812129497528076172e+00) (51, 1.36143028736114501953e-01) (52, 1.08912527561187744141e-01) (53, 1.20292350649833679199e-01) (54, 9.18745249509811401367e-02) (55, 1.26598041970282793045e-03) (56, -2.41438429802656173706e-02) (57, 1.36348441243171691895e-01) (58, 1.20453745126724243164e-01) (59, 9.20232176780700683594e-01) (60, -3.56215126812458038330e-02) (61, 1.00047850608825683594e+00) (62, 1.28309607505798339844e+00) (63, 1.37180641293525695801e-01) (64, 2.24091625213623046875e+00) (65, 1.29071283340454101562e+00) (66, 1.24997591972351074219e+00) (67, 8.42753946781158447266e-02) (68, 1.17288090288639068604e-01) (69, 2.50531709752976894379e-03) (70, 2.01742928475141525269e-02) (71, 4.49110686779022216797e-01) (72, 1.56917795538902282715e-01) (73, 7.42052048444747924805e-02) (74, 1.39380082488059997559e-01) (75, 3.19684818387031555176e-02) (76, -1.99177265167236328125e-02) (77, 1.41149088740348815918e-01) (78, 1.21954143047332763672e+00) (79, 1.08111035823822021484e+00) (80, 9.29570019245147705078e-01) (81, 1.02861046791076660156e+00) (82, 1.22402608394622802734e-01) (83, -2.24519390612840652466e-02) (84, 6.36163502931594848633e-02) (85, 1.41714501380920410156e+00) (86, 1.26934421062469482422e+00) (87, 1.38802683353424072266e+00) (88, 7.01210677623748779297e-01) (89, 9.39445018768310546875e-01) (90, -3.46256159245967864990e-02) (91, 4.39877398312091827393e-02) (92, 1.26105594635009765625e+00) (93, 4.11813519895076751709e-02) (94, 9.46501195430755615234e-01) (95, 1.35519170761108398438e+00) (96, 1.38926303386688232422e+00) (97, 4.36863824725151062012e-02) (98, 4.60984297096729278564e-02) (99, 8.90759676694869995117e-02) (100, 9.66626629233360290527e-02) (101, 1.09918080270290374756e-01) (102, 1.42436176538467407227e-01) (103, 1.16719758510589599609e+00) (104, 7.97690637409687042236e-03) (105, 1.24423936009407043457e-01) (106, -2.68427152186632156372e-02) (107, 2.35834810882806777954e-02) (108, 1.04716151952743530273e-01) (109, 1.19359016418457031250e+00) (110, 4.27769776433706283569e-03) (111, -1.89291872084140777588e-02) (112, 1.25086069107055664062e-01) (113, -1.85547433793544769287e-02) (114, 2.02212836593389511108e-02) (115, 2.40679029375314712524e-02) (116, 8.76626893877983093262e-02) (117, 1.09497234225273132324e-01) (118, 1.42116621136665344238e-01) (119, -3.64370793104171752930e-02) (120, -1.66910775005817413330e-02) (121, 1.51861965656280517578e-01) (122, 6.58608004450798034668e-02) (123, 1.14333641529083251953e+00) (124, 1.33008801937103271484e+00) (125, 1.36890560388565063477e-01) (126, -3.27144451439380645752e-02) (127, -1.09202638268470764160e-01) (128, 2.91658602654933929443e-02) (129, 5.98415173590183258057e-02) (130, 1.05515360832214355469e+00) (131, 1.18851423263549804688e+00) (132, 8.98795843124389648438e-01) (133, 8.11498820781707763672e-01) (134, 9.82392191886901855469e-01) (135, 1.40969848632812500000e+00) (136, 1.43425869941711425781e+00) (137, 7.71246552467346191406e-01) (138, 7.85485744476318359375e-01) (139, 1.07914066314697265625e+00) (140, 1.02682948112487792969e+00) (141, -2.52277515828609466553e-02) (142, 8.04176405072212219238e-02) (143, 7.78267979621887207031e-01) (144, -1.04995034635066986084e-02) (145, 1.55525907874107360840e-01) (146, -3.03837265819311141968e-02) (147, 1.98363602161407470703e-01) (148, 1.03424079716205596924e-01) (149, -3.62822264432907104492e-02) (150, 1.36504918336868286133e-01) (151, 1.40560612082481384277e-01) (152, -3.45874689519405364990e-02) (153, 4.85828034579753875732e-02) (154, -4.81158494949340820312e-03) (155, 5.15054315328598022461e-02) (156, 3.54606844484806060791e-02) (157, 6.27684414386749267578e-01) (158, 1.10070899128913879395e-01) (159, 1.02408304810523986816e-01) (160, 1.06254422664642333984e+00) (161, 9.93580818176269531250e-01) (162, 1.52540016174316406250e+00) (163, 9.34407174587249755859e-01) (164, 1.74619257450103759766e+00) (165, 4.98879440128803253174e-02) (166, 9.20786261558532714844e-01) (167, 9.42797541618347167969e-01) (168, 1.31756126880645751953e+00) (169, 2.27783415466547012329e-02) (170, 1.27138391137123107910e-01) (171, -4.53332113102078437805e-03) (172, 3.54133509099483489990e-02) (173, 6.04068152606487274170e-02) (174, 1.42809495329856872559e-01) (175, 7.46236965060234069824e-02) (176, 4.09774258732795715332e-02) (177, -4.07330915331840515137e-02) (178, 4.34263497591018676758e-02) (179, 9.30375754833221435547e-01) (180, -2.42708176374435424805e-02) (181, 9.67201173305511474609e-01) (182, 6.37648820877075195312e-01) (183, -2.49582845717668533325e-02) (184, 1.06210732460021972656e+00) (185, 9.85929965972900390625e-01) (186, 6.63294345140457153320e-02) (187, 9.83773708343505859375e-01) (188, 6.91565275192260742188e-02) (189, 1.02316403388977050781e+00) (190, 1.57270148396492004395e-01) (191, 1.64649356156587600708e-02) (192, -3.21503877639770507812e-02) (193, 1.07490688562393188477e-01) (194, 1.81441921740770339966e-02) (195, 9.32897403836250305176e-02) (196, 1.12748453393578529358e-02) (197, 1.22820712625980377197e-01) (198, 8.71495544910430908203e-01) (199, 9.78938162326812744141e-01) (200, 1.19997346401214599609e+00) (201, 1.22441673278808593750e+00) (202, 8.75875771045684814453e-01) (203, 1.33423507213592529297e+00) (204, 4.55084554851055145264e-02) (205, 8.85098159313201904297e-01) (206, -1.08331805095076560974e-02) (207, 1.42504274845123291016e-01) (208, 1.05337962508201599121e-01) (209, 8.10859128832817077637e-02) (210, -8.47034342586994171143e-03) (211, 1.18541188538074493408e-01) (212, -3.91223616898059844971e-02) (213, 1.54927670955657958984e-02) (214, 1.28845006227493286133e-01) (215, 1.30431741476058959961e-01) (216, 9.34638977050781250000e-02) (217, 4.75140921771526336670e-02) (218, -3.50611694157123565674e-02) (219, 5.08985831402242183685e-04) (220, 1.24446623027324676514e-01) (221, 1.04808878898620605469e+00) (222, 6.54645413160324096680e-02) (223, 1.57359933853149414062e+00) (224, 1.20114393532276153564e-01) (225, 1.18798367679119110107e-01) (226, 7.38651394844055175781e-01) (227, -7.25092962384223937988e-02) (228, 1.37372720241546630859e+00) (229, 6.94702506065368652344e-01) (230, 9.87570345401763916016e-01) (231, 1.36414754390716552734e+00) (232, 5.87010793387889862061e-02) (233, 2.07277070730924606323e-02) (234, 2.02166270464658737183e-02) (235, 1.43216162919998168945e-01) (236, -2.84187942743301391602e-02) (237, 1.33941161632537841797e+00) (238, 1.41847655177116394043e-01) (239, 1.35724329948425292969e+00) (240, 1.28820002079010009766e+00) (241, 1.12226319313049316406e+00) (242, 6.72480389475822448730e-02) (243, 1.29552602767944335938e+00) (244, 9.83433425426483154297e-01) (245, 5.81331439316272735596e-02) (246, 1.28859877586364746094e+00) (247, 1.19653499126434326172e+00) (248, 1.18803918361663818359e+00) (249, -2.07465421408414840698e-02) (250, 2.75224167853593826294e-02) (251, 1.20452336966991424561e-01) (252, -1.31104597821831703186e-02) (253, 1.36116653680801391602e-01) (254, 8.77995938062667846680e-02) (255, 1.53668031096458435059e-01) (256, 1.03568062186241149902e-01) (257, -2.40177987143397331238e-03) (258, 7.52746239304542541504e-02) (259, 2.08391286432743072510e-02) (260, 1.23136527836322784424e-01) (261, 8.69607478380203247070e-02) (262, -1.62872858345508575439e-02) (263, 1.38332080096006393433e-02) (264, -3.71756814420223236084e-02) (265, 5.75011447072029113770e-02) (266, 4.79214312508702278137e-03) (267, -2.16688457876443862915e-02) (268, -3.01443617790937423706e-02) (269, -2.71356236189603805542e-02) (270, 1.28750458359718322754e-01) (271, 1.25545716285705566406e+00) (272, -2.48362272977828979492e-02) (273, 1.50158703327178955078e+00) (274, 9.37104582786560058594e-01) (275, 4.33851890265941619873e-02) (276, 1.43706053495407104492e-01) (277, 5.04731088876724243164e-02) (278, 5.72415478527545928955e-02) (279, 1.39193698763847351074e-01) (280, 7.46288299560546875000e-02) (281, 1.17009222507476806641e-01) (282, 1.07963517308235168457e-01) (283, 9.65717881917953491211e-02) (284, 7.97701179981231689453e-02) (285, 4.07533794641494750977e-02) (286, 1.03157311677932739258e-01) (287, 3.97550538182258605957e-02) (288, 2.32377842068672180176e-01) (0, 1.50000000000000000000e+03) (1, 1.00008748471736907959e-01) (2, 2.23856389522552490234e-01) (3, 2.98111699521541595459e-02) (4, 1.31432428956031799316e-01) (5, 1.02983176708221435547e-01) (6, 1.79314598441123962402e-01) (7, 3.33670713007450103760e-02) (8, -5.79816214740276336670e-02) (9, 5.47877289354801177979e-02) (10, 1.72422111034393310547e-01) (11, 9.18809175491333007812e-02) (12, 1.55961081385612487793e-01) (13, 2.50258058309555053711e-01) (14, 1.38968586921691894531e-01) (15, 1.07580587267875671387e-01) (16, -3.64946685731410980225e-02) (17, 2.24782228469848632812e-01) (18, 2.56654828786849975586e-01) (19, 5.51051385700702667236e-02) (20, 1.22325330972671508789e-01) (21, 1.42393887042999267578e-01) (22, 9.86341461539268493652e-02) (23, 1.21288456022739410400e-01) (24, 1.98831409215927124023e-01) (25, 1.15999117493629455566e-01) (26, 5.91348633170127868652e-02) (27, 1.12052336335182189941e-01) (28, 1.97837874293327331543e-01) (29, 3.34628134965896606445e-01) (30, 4.39979247748851776123e-02) (31, -1.22595997527241706848e-03) (32, 8.90055894851684570312e-02) (33, 1.33301064372062683105e-01) (34, 2.36813142895698547363e-01) (35, 8.39348882436752319336e-02) (36, 9.90983098745346069336e-02) (37, -2.67331022769212722778e-02) (38, -2.99591720104217529297e-02) (39, 1.09449453651905059814e-01) (40, 7.19613134860992431641e-02) (41, 2.25553765892982482910e-01) (42, 1.32688775658607482910e-01) (43, -4.73517812788486480713e-02) (44, -7.99830188043415546417e-04) (45, -3.27945202589035034180e-02) (46, 2.86558061838150024414e-01) (47, 1.45269483327865600586e-01) (48, 8.92031118273735046387e-02) (49, 1.82601004838943481445e-01) (50, 2.79085814952850341797e-01) (51, 1.06079578399658203125e-01) (52, -7.45151843875646591187e-03) (53, 1.41448751091957092285e-01) (54, 8.28195884823799133301e-02) (55, 6.99416026473045349121e-02) (56, 1.08840800821781158447e-01) (57, -1.15136278327554464340e-03) (58, 3.97668927907943725586e-02) (59, 1.51128888130187988281e-01) (60, -7.89951533079147338867e-03) (61, 1.09198026359081268311e-01) (62, 2.31517195701599121094e-01) (63, 1.42754271626472473145e-01) (64, 3.28269571065902709961e-01) (65, 1.66503846645355224609e-01) (66, 2.05045446753501892090e-01) (67, 9.65537205338478088379e-02) (68, 2.85372268408536911011e-02) (69, 1.03226937353610992432e-01) (70, 5.96049614250659942627e-02) (71, 1.43154963850975036621e-01) (72, 2.02018022537231445312e-02) (73, 2.27595064789056777954e-02) (74, -3.22365723550319671631e-02) (75, 7.56563395261764526367e-02) (76, 5.80061748623847961426e-02) (77, 1.27708613872528076172e-01) (78, 3.09298038482666015625e-01) (79, 1.60012021660804748535e-01) (80, 2.01459258794784545898e-01) (81, 2.90222942829132080078e-01) (82, -3.35427783429622650146e-02) (83, 8.84722918272018432617e-02) (84, 1.13148823380470275879e-01) (85, 2.70706892013549804688e-01) (86, 1.89294025301933288574e-01) (87, 2.30164557695388793945e-01) (88, 1.16248048841953277588e-01) (89, 3.38731646537780761719e-01) (90, 1.39726787805557250977e-01) (91, -8.12005344778299331665e-03) (92, 2.68824547529220581055e-01) (93, 6.47315531969070434570e-02) (94, 1.45192936062812805176e-01) (95, 2.78482764959335327148e-01) (96, 2.82350152730941772461e-01) (97, 1.24634586274623870850e-01) (98, 6.73498734831809997559e-02) (99, 6.62543205544352531433e-03) (100, 7.93795958161354064941e-02) (101, -2.07216981798410415649e-02) (102, 1.81552562862634658813e-02) (103, 1.56253799796104431152e-01) (104, 7.47768208384513854980e-02) (105, 4.04602624475955963135e-02) (106, 8.09241682291030883789e-02) (107, -7.49748898670077323914e-03) (108, 2.32216306030750274658e-02) (109, 2.45568826794624328613e-01) (110, 5.22015355527400970459e-02) (111, 1.23121052980422973633e-01) (112, 4.88611534237861633301e-02) (113, 6.48737475275993347168e-02) (114, 6.54048696160316467285e-02) (115, 1.89686827361583709717e-02) (116, 2.08235532045364379883e-02) (117, 1.45213603973388671875e-01) (118, -5.93786835670471191406e-02) (119, 2.12979912757873535156e-02) (120, 1.14400193095207214355e-01) (121, 1.42970681190490722656e-01) (122, 8.19384381175041198730e-02) (123, 2.38743662834167480469e-01) (124, 1.92552536725997924805e-01) (125, 1.22020468115806579590e-01) (126, 6.00345097482204437256e-02) (127, -1.25533178448677062988e-01) (128, 1.07853919267654418945e-01) (129, -1.88776887953281402588e-02) (130, 2.26555138826370239258e-01) (131, 2.10704863071441650391e-01) (132, 1.80256590247154235840e-01) (133, 1.31935298442840576172e-01) (134, 2.04327017068862915039e-01) (135, 3.41979175806045532227e-01) (136, 2.85849362611770629883e-01) (137, 1.44906759262084960938e-01) (138, 2.59288191795349121094e-01) (139, 2.75909304618835449219e-01) (140, 2.50058770179748535156e-01) (141, 9.45354327559471130371e-02) (142, 1.09825082123279571533e-01) (143, 1.82841554284095764160e-01) (144, 1.98576897382736206055e-02) (145, 2.39789541810750961304e-02) (146, 9.44531708955764770508e-02) (147, 2.38591525703668594360e-02) (148, 1.77992489188909530640e-02) (149, 9.47725847363471984863e-02) (150, -2.19777487218379974365e-02) (151, -1.27612529322504997253e-02) (152, 8.83054658770561218262e-02) (153, 1.12000696361064910889e-01) (154, 1.26117408275604248047e-01) (155, -1.80408754386007785797e-03) (156, 9.40276309847831726074e-02) (157, 2.92523413896560668945e-01) (158, 8.99469703435897827148e-02) (159, 5.75350672006607055664e-02) (160, 2.49957799911499023438e-01) (161, 1.99762061238288879395e-01) (162, 9.56695675849914550781e-02) (163, 1.01016290485858917236e-01) (164, 2.33674481511116027832e-01) (165, 6.09785057604312896729e-02) (166, 1.38891026377677917480e-01) (167, 1.19075380265712738037e-01) (168, 2.66121298074722290039e-01) (169, -5.06822345778346061707e-03) (170, -3.65462079644203186035e-02) (171, 7.04695731401443481445e-02) (172, 1.35929644107818603516e-01) (173, 1.22071921825408935547e-01) (174, 1.44436970353126525879e-01) (175, 1.49845452979207038879e-02) (176, 6.98810629546642303467e-03) (177, 9.07125845551490783691e-02) (178, -3.79070937633514404297e-02) (179, 2.20260664820671081543e-01) (180, 3.45206931233406066895e-02) (181, 1.30202859640121459961e-01) (182, 2.98426479101181030273e-01) (183, -1.92907378077507019043e-02) (184, 1.72096028923988342285e-01) (185, 2.71368205547332763672e-01) (186, 3.49528342485427856445e-02) (187, 2.58155345916748046875e-01) (188, -1.57270696945488452911e-03) (189, 1.34472295641899108887e-01) (190, 8.52542649954557418823e-03) (191, 1.31234392523765563965e-01) (192, 7.22721368074417114258e-02) (193, 2.21818313002586364746e-02) (194, 1.31762653589248657227e-01) (195, -1.32578080520033836365e-02) (196, 1.30956828594207763672e-01) (197, 1.32315650582313537598e-01) (198, 1.46919637918472290039e-01) (199, 3.12102615833282470703e-01) (200, 1.50454074144363403320e-01) (201, 1.46392688155174255371e-01) (202, 1.67527690529823303223e-01) (203, 1.40811428427696228027e-01) (204, 3.85614437982439994812e-03) (205, 1.49869278073310852051e-01) (206, 4.99591529369354248047e-02) (207, 6.07865564525127410889e-02) (208, -5.48689700663089752197e-02) (209, 6.37105181813240051270e-02) (210, -7.88094662129878997803e-03) (211, 3.63170430064201354980e-02) (212, 1.04669861495494842529e-01) (213, -4.29432578384876251221e-02) (214, 6.57694116234779357910e-02) (215, 1.09670139849185943604e-01) (216, 1.16664737462997436523e-01) (217, -4.85981367528438568115e-02) (218, 7.19596147537231445312e-02) (219, -4.00337688624858856201e-02) (220, -1.12832160666584968567e-02) (221, 3.31958860158920288086e-01) (222, -4.61337678134441375732e-02) (223, 2.43015050888061523438e-01) (224, 9.30515863001346588135e-03) (225, 1.44188433885574340820e-01) (226, 1.15909986197948455811e-01) (227, -9.62513126432895660400e-03) (228, 3.03944796323776245117e-01) (229, 1.79181054234504699707e-01) (230, 2.85763531923294067383e-01) (231, 1.36627346277236938477e-01) (232, 1.10356695950031280518e-01) (233, -1.01495450362563133240e-02) (234, 1.94600317627191543579e-03) (235, -2.99468804150819778442e-02) (236, 5.33033646643161773682e-02) (237, 2.63522624969482421875e-01) (238, 6.72517269849777221680e-02) (239, 2.22650051116943359375e-01) (240, 1.90185144543647766113e-01) (241, 3.30617010593414306641e-01) (242, -1.94014888256788253784e-02) (243, 1.43663451075553894043e-01) (244, 8.73889774084091186523e-02) (245, 7.30290934443473815918e-02) (246, 3.69256645441055297852e-01) (247, 2.86052584648132324219e-01) (248, 2.39675313234329223633e-01) (249, 6.68604150414466857910e-02) (250, 1.40869244933128356934e-01) (251, 1.31768390536308288574e-01) (252, 5.72980120778083801270e-02) (253, 1.44169405102729797363e-01) (254, 1.07454814016819000244e-01) (255, 1.18826568126678466797e-01) (256, 1.39657273888587951660e-01) (257, 1.19673475623130798340e-01) (258, -1.01275350898504257202e-02) (259, 1.16375677287578582764e-01) (260, -2.46375263668596744537e-03) (261, -4.02557998895645141602e-02) (262, 1.43474772572517395020e-01) (263, -4.37384061515331268311e-02) (264, 1.01863769814372062683e-02) (265, -4.68009663745760917664e-03) (266, -1.06138344854116439819e-02) (267, 1.16439551115036010742e-01) (268, -5.37643395364284515381e-02) (269, 1.28512844443321228027e-01) (270, 2.94025726616382598877e-02) (271, 1.90141320228576660156e-01) (272, 1.15772858262062072754e-01) (273, 1.66117027401924133301e-01) (274, 2.07508131861686706543e-01) (275, 1.21494568884372711182e-01) (276, -4.10211384296417236328e-02) (277, 4.08425666391849517822e-02) (278, 9.20262783765792846680e-02) (279, 1.00076109170913696289e-01) (280, -3.95393371582031250000e-02) (281, 8.84353071451187133789e-02) (282, 8.22949409484863281250e-02) (283, 6.80641829967498779297e-02) (284, 8.36539492011070251465e-02) (285, 4.17100340127944946289e-02) (286, 4.17700968682765960693e-02) (287, 8.00843536853790283203e-02) (288, -9.36174914240837097168e-02) (0, 1.50000000000000000000e+03) (1, 5.42413055896759033203e-01) (2, -2.21699729561805725098e-01) (3, 5.56677103042602539062e-01) (4, 5.18648445606231689453e-01) (5, 5.45276224613189697266e-01) (6, -1.77996367216110229492e-01) (7, 5.70715606212615966797e-01) (8, 6.07330918312072753906e-01) (9, 5.97174704074859619141e-01) (10, -2.31132596731185913086e-01) (11, -2.39005610346794128418e-01) (12, -3.33134353160858154297e-01) (13, -3.71560692787170410156e-01) (14, -2.35161632299423217773e-01) (15, 5.56614100933074951172e-01) (16, 5.51211118698120117188e-01) (17, -2.59738802909851074219e-01) (18, -2.07662984728813171387e-01) (19, 4.52889323234558105469e-01) (20, -3.11624944210052490234e-01) (21, -3.57473909854888916016e-01) (22, -3.44334095716476440430e-01) (23, 6.01652920246124267578e-01) (24, -3.14113229513168334961e-01) (25, 5.19206106662750244141e-01) (26, 5.50276100635528564453e-01) (27, 5.42371451854705810547e-01) (28, -3.04053992033004760742e-01) (29, -2.01973497867584228516e-01) (30, 6.08915269374847412109e-01) (31, 6.24170780181884765625e-01) (32, 5.82227766513824462891e-01) (33, 5.12534320354461669922e-01) (34, -2.38320276141166687012e-01) (35, 5.06159007549285888672e-01) (36, 4.62011158466339111328e-01) (37, 5.50161123275756835938e-01) (38, 4.57407563924789428711e-01) (39, 4.43559825420379638672e-01) (40, 5.05290091037750244141e-01) (41, -1.62840873003005981445e-01) (42, 6.07746720314025878906e-01) (43, 5.71426451206207275391e-01) (44, 4.45762842893600463867e-01) (45, 5.34379899501800537109e-01) (46, -2.55600094795227050781e-01) (47, -2.32223704457283020020e-01) (48, 4.38483715057373046875e-01) (49, -3.53755682706832885742e-01) (50, -1.69678002595901489258e-01) (51, 4.92638528347015380859e-01) (52, 5.61315298080444335938e-01) (53, 4.49720948934555053711e-01) (54, 4.78300720453262329102e-01) (55, 5.83663761615753173828e-01) (56, 4.28050249814987182617e-01) (57, 6.19618892669677734375e-01) (58, 5.17740905284881591797e-01) (59, -3.04082036018371582031e-01) (60, 4.87467825412750244141e-01) (61, -2.45474368333816528320e-01) (62, -2.85406619310379028320e-01) (63, 4.70480233430862426758e-01) (64, -3.04718375205993652344e-01) (65, -3.59230279922485351562e-01) (66, -2.57133364677429199219e-01) (67, 4.93799984455108642578e-01) (68, 5.38177311420440673828e-01) (69, 5.95542430877685546875e-01) (70, 5.21057903766632080078e-01) (71, -2.49670550227165222168e-01) (72, 5.69605827331542968750e-01) (73, 5.37679731845855712891e-01) (74, 6.03964626789093017578e-01) (75, 4.25131082534790039062e-01) (76, 6.04420900344848632812e-01) (77, 4.80808138847351074219e-01) (78, -1.92384660243988037109e-01) (79, -3.51806581020355224609e-01) (80, -2.51216351985931396484e-01) (81, -2.00950652360916137695e-01) (82, 5.08646726608276367188e-01) (83, 4.55837219953536987305e-01) (84, 5.96101045608520507812e-01) (85, -2.04974502325057983398e-01) (86, -3.13262075185775756836e-01) (87, -1.77526280283927917480e-01) (88, -2.11069136857986450195e-01) (89, -1.47083878517150878906e-01) (90, 4.73976045846939086914e-01) (91, 4.16225790977478027344e-01) (92, -3.03270131349563598633e-01) (93, 5.56235730648040771484e-01) (94, -3.00566762685775756836e-01) (95, -2.61243581771850585938e-01) (96, -2.23200738430023193359e-01) (97, 6.14817976951599121094e-01) (98, 5.90786397457122802734e-01) (99, 4.86152380704879760742e-01) (100, 5.80942332744598388672e-01) (101, 4.86458629369735717773e-01) (102, 5.05550742149353027344e-01) (103, -3.33323359489440917969e-01) (104, 5.70393085479736328125e-01) (105, 4.89323467016220092773e-01) (106, 5.62105178833007812500e-01) (107, 5.68746209144592285156e-01) (108, 5.61756014823913574219e-01) (109, -2.45165184140205383301e-01) (110, 5.90648114681243896484e-01) (111, 4.78823930025100708008e-01) (112, 4.71615850925445556641e-01) (113, 4.63147670030593872070e-01) (114, 5.31586885452270507812e-01) (115, 4.58790987730026245117e-01) (116, 6.12521409988403320312e-01) (117, 5.83035647869110107422e-01) (118, 4.30614203214645385742e-01) (119, 5.43856620788574218750e-01) (120, 5.26004135608673095703e-01) (121, 5.12822568416595458984e-01) (122, 5.79590082168579101562e-01) (123, -1.94275140762329101562e-01) (124, -3.54692637920379638672e-01) (125, 4.47433918714523315430e-01) (126, 4.90505546331405639648e-01) (127, 8.39141428470611572266e-01) (128, 4.39972221851348876953e-01) (129, 4.65894818305969238281e-01) (130, -3.53241682052612304688e-01) (131, -1.56167402863502502441e-01) (132, -2.50288128852844238281e-01) (133, -2.28141292929649353027e-01) (134, -2.23510563373565673828e-01) (135, -2.43112951517105102539e-01) (136, -6.79994225502014160156e-01) (137, -2.71105229854583740234e-01) (138, -3.46485793590545654297e-01) (139, -2.36792325973510742188e-01) (140, -1.89471617341041564941e-01) (141, 4.17297601699829101562e-01) (142, 6.17192208766937255859e-01) (143, -3.12604188919067382812e-01) (144, 4.77959036827087402344e-01) (145, 5.19480347633361816406e-01) (146, 5.15471637248992919922e-01) (147, 6.32333815097808837891e-01) (148, 4.83613908290863037109e-01) (149, 5.42618453502655029297e-01) (150, 6.19356334209442138672e-01) (151, 5.83063900470733642578e-01) (152, 4.31742042303085327148e-01) (153, 5.78709542751312255859e-01) (154, 5.49498021602630615234e-01) (155, 4.58019435405731201172e-01) (156, 6.02850258350372314453e-01) (157, -5.05876660346984863281e-01) (158, 4.34429317712783813477e-01) (159, 4.31071549654006958008e-01) (160, -2.83894509077072143555e-01) (161, -3.03991109132766723633e-01) (162, -3.69976848363876342773e-01) (163, -1.77723050117492675781e-01) (164, -1.63354888558387756348e-01) (165, 5.77119290828704833984e-01) (166, -4.43676888942718505859e-01) (167, -1.54184758663177490234e-01) (168, -3.08840930461883544922e-01) (169, 5.27961254119873046875e-01) (170, 5.48596858978271484375e-01) (171, 4.61291491985321044922e-01) (172, 5.12161552906036376953e-01) (173, 5.37237465381622314453e-01) (174, 5.16146063804626464844e-01) (175, 5.86902678012847900391e-01) (176, 4.57285881042480468750e-01) (177, 6.08657300472259521484e-01) (178, 4.41653639078140258789e-01) (179, -2.89090216159820556641e-01) (180, 5.23898243904113769531e-01) (181, -3.62196594476699829102e-01) (182, -4.46017593145370483398e-01) (183, 5.45748770236968994141e-01) (184, -1.26474380493164062500e-01) (185, -1.55638992786407470703e-01) (186, 5.92545509338378906250e-01) (187, -2.03239873051643371582e-01) (188, 4.28408026695251464844e-01) (189, -1.71501487493515014648e-01) (190, 5.79547166824340820312e-01) (191, 4.96362507343292236328e-01) (192, 4.68048572540283203125e-01) (193, 5.95799028873443603516e-01) (194, 4.83614534139633178711e-01) (195, 4.53604519367218017578e-01) (196, 5.51174223423004150391e-01) (197, 5.55050671100616455078e-01) (198, -3.66180211305618286133e-01) (199, -1.11243702471256256104e-01) (200, -3.00208628177642822266e-01) (201, -2.55970835685729980469e-01) (202, -3.36334317922592163086e-01) (203, -1.93491235375404357910e-01) (204, 4.82788801193237304688e-01) (205, -3.11785370111465454102e-01) (206, 5.57720839977264404297e-01) (207, 5.14041960239410400391e-01) (208, 5.18340706825256347656e-01) (209, 5.77237546443939208984e-01) (210, 6.05457246303558349609e-01) (211, 4.30554538965225219727e-01) (212, 5.87316155433654785156e-01) (213, 4.45400357246398925781e-01) (214, 5.49740016460418701172e-01) (215, 5.57590544223785400391e-01) (216, 4.53540861606597900391e-01) (217, 5.18424808979034423828e-01) (218, 5.35299539566040039062e-01) (219, 4.45649653673171997070e-01) (220, 5.22176384925842285156e-01) (221, -4.06579196453094482422e-01) (222, 5.45336663722991943359e-01) (223, -2.32820913195610046387e-01) (224, 4.85375493764877319336e-01) (225, 6.24372839927673339844e-01) (226, -3.65184992551803588867e-01) (227, 4.07298207283020019531e-01) (228, -2.49449700117111206055e-01) (229, -3.46973359584808349609e-01) (230, -1.83148697018623352051e-01) (231, -1.56387180089950561523e-01) (232, 5.87828814983367919922e-01) (233, 4.15848761796951293945e-01) (234, 5.82883000373840332031e-01) (235, 4.58435475826263427734e-01) (236, 5.45827090740203857422e-01) (237, -2.62718081474304199219e-01) (238, 5.96345424652099609375e-01) (239, -3.75054061412811279297e-01) (240, -3.54059457778930664062e-01) (241, -3.93600195646286010742e-01) (242, 5.52241563796997070312e-01) (243, -3.31749439239501953125e-01) (244, -2.14496761560440063477e-01) (245, 4.16510850191116333008e-01) (246, -1.25404343008995056152e-01) (247, -3.51255774497985839844e-01) (248, -2.48290032148361206055e-01) (249, 4.99808043241500854492e-01) (250, 4.55728024244308471680e-01) (251, 4.50285464525222778320e-01) (252, 5.87714016437530517578e-01) (253, 5.82615852355957031250e-01) (254, 6.21139049530029296875e-01) (255, 4.48741972446441650391e-01) (256, 5.85175454616546630859e-01) (257, 6.19415521621704101562e-01) (258, 5.04596471786499023438e-01) (259, 5.09024739265441894531e-01) (260, 4.32810574769973754883e-01) (261, 4.46905016899108886719e-01) (262, 5.17949044704437255859e-01) (263, 5.90079843997955322266e-01) (264, 4.61310774087905883789e-01) (265, 4.76959854364395141602e-01) (266, 4.44920271635055541992e-01) (267, 5.84344387054443359375e-01) (268, 5.62024414539337158203e-01) (269, 5.88804185390472412109e-01) (270, 4.30481225252151489258e-01) (271, -3.47849965095520019531e-01) (272, 5.21931886672973632812e-01) (273, -3.09914618730545043945e-01) (274, -3.38848441839218139648e-01) (275, 4.97203111648559570312e-01) (276, 4.95795011520385742188e-01) (277, 6.03641927242279052734e-01) (278, 4.92629915475845336914e-01) (279, 6.19327843189239501953e-01) (280, 4.83550459146499633789e-01) (281, 5.47851026058197021484e-01) (282, 4.41729605197906494141e-01) (283, 4.44085627794265747070e-01) (284, 5.02114593982696533203e-01) (285, 4.42959219217300415039e-01) (286, 4.81365382671356201172e-01) (287, 4.85320985317230224609e-01) (288, 3.29366266727447509766e-01) (0, 1.50000000000000000000e+03) (1, 7.94945299625396728516e-01) (2, 1.11407113075256347656e+00) (3, 7.75386631488800048828e-01) (4, 7.19508230686187744141e-01) (5, 6.75380587577819824219e-01) (6, 9.63318943977355957031e-01) (7, 7.76337802410125732422e-01) (8, 6.80394291877746582031e-01) (9, 7.82426536083221435547e-01) (10, 8.48916292190551757812e-01) (11, 8.64438295364379882812e-01) (12, 9.37347829341888427734e-01) (13, 8.28380644321441650391e-01) (14, 1.75482594966888427734e+00) (15, 6.93834006786346435547e-01) (16, 7.50050365924835205078e-01) (17, 1.64095401763916015625e+00) (18, 8.04069995880126953125e-01) (19, 7.31614530086517333984e-01) (20, 1.72133791446685791016e+00) (21, 1.67769491672515869141e+00) (22, 9.51112389564514160156e-01) (23, 6.52535676956176757812e-01) (24, 8.90281915664672851562e-01) (25, 6.27669811248779296875e-01) (26, 7.80331969261169433594e-01) (27, 8.35377931594848632812e-01) (28, 8.50850224494934082031e-01) (29, 8.05131971836090087891e-01) (30, 6.47914528846740722656e-01) (31, 6.49569571018218994141e-01) (32, 7.97908365726470947266e-01) (33, 6.60856842994689941406e-01) (34, 8.61050188541412353516e-01) (35, 6.95511758327484130859e-01) (36, 7.16891467571258544922e-01) (37, 7.62257456779479980469e-01) (38, 8.36002171039581298828e-01) (39, 7.54889249801635742188e-01) (40, 7.16676473617553710938e-01) (41, 8.36510062217712402344e-01) (42, 7.75149464607238769531e-01) (43, 7.09547519683837890625e-01) (44, 8.25504422187805175781e-01) (45, 7.40045607089996337891e-01) (46, 1.68287539482116699219e+00) (47, 8.66043210029602050781e-01) (48, 7.74518072605133056641e-01) (49, 8.31042408943176269531e-01) (50, 7.48503565788269042969e-01) (51, 6.71254694461822509766e-01) (52, 6.42251610755920410156e-01) (53, 8.34646940231323242188e-01) (54, 7.24002838134765625000e-01) (55, 7.78452336788177490234e-01) (56, 6.47512316703796386719e-01) (57, 6.57451510429382324219e-01) (58, 7.57585287094116210938e-01) (59, 6.31924808025360107422e-01) (60, 6.73106729984283447266e-01) (61, 1.74924921989440917969e+00) (62, 8.50232839584350585938e-01) (63, 6.57292842864990234375e-01) (64, 1.30134797096252441406e+00) (65, 8.03761303424835205078e-01) (66, 8.41808915138244628906e-01) (67, 6.97795093059539794922e-01) (68, 6.63068830966949462891e-01) (69, 7.12707400321960449219e-01) (70, 8.25055241584777832031e-01) (71, 8.46390187740325927734e-01) (72, 8.16376090049743652344e-01) (73, 8.43994021415710449219e-01) (74, 8.09557616710662841797e-01) (75, 7.85000443458557128906e-01) (76, 7.26985692977905273438e-01) (77, 7.77336776256561279297e-01) (78, 8.07680368423461914062e-01) (79, 1.73191070556640625000e+00) (80, 1.79738795757293701172e+00) (81, 1.08854997158050537109e+00) (82, 6.83894813060760498047e-01) (83, 8.19668889045715332031e-01) (84, 7.17406451702117919922e-01) (85, 2.73342204093933105469e+00) (86, 8.84521722793579101562e-01) (87, 8.48908662796020507812e-01) (88, 8.99736046791076660156e-01) (89, 8.64866614341735839844e-01) (90, 6.49535298347473144531e-01) (91, 6.23634517192840576172e-01) (92, 8.05749118328094482422e-01) (93, 7.54113256931304931641e-01) (94, 6.28588855266571044922e-01) (95, 7.78560519218444824219e-01) (96, 9.33179378509521484375e-01) (97, 7.60524690151214599609e-01) (98, 7.46940433979034423828e-01) (99, 6.37460649013519287109e-01) (100, 6.53320074081420898438e-01) (101, 7.40041613578796386719e-01) (102, 7.54114389419555664062e-01) (103, 8.46709966659545898438e-01) (104, 7.02141642570495605469e-01) (105, 7.31241583824157714844e-01) (106, 7.87443399429321289062e-01) (107, 7.74928212165832519531e-01) (108, 6.63411855697631835938e-01) (109, 7.38135814666748046875e-01) (110, 7.75693714618682861328e-01) (111, 6.43395900726318359375e-01) (112, 7.41362154483795166016e-01) (113, 6.56035423278808593750e-01) (114, 6.53927683830261230469e-01) (115, 8.05432796478271484375e-01) (116, 8.02132964134216308594e-01) (117, 8.05673658847808837891e-01) (118, 6.81256532669067382812e-01) (119, 7.45781660079956054688e-01) (120, 7.30810105800628662109e-01) (121, 7.02775299549102783203e-01) (122, 7.74907350540161132812e-01) (123, 9.10990297794342041016e-01) (124, 9.45228993892669677734e-01) (125, 8.26907038688659667969e-01) (126, 8.39485824108123779297e-01) (127, 9.07940566539764404297e-01) (128, 7.32634186744689941406e-01) (129, 7.47010886669158935547e-01) (130, 7.16138303279876708984e-01) (131, 8.23287844657897949219e-01) (132, 1.59951901435852050781e+00) (133, 8.49461555480957031250e-01) (134, 1.66347992420196533203e+00) (135, 2.60047769546508789062e+00) (136, 2.52988123893737792969e+00) (137, 7.59162843227386474609e-01) (138, 7.31900691986083984375e-01) (139, 7.41245090961456298828e-01) (140, 5.67211925983428955078e-01) (141, 7.92578935623168945312e-01) (142, 6.84074103832244873047e-01) (143, 8.90907227993011474609e-01) (144, 7.84159064292907714844e-01) (145, 7.24414587020874023438e-01) (146, 7.42572903633117675781e-01) (147, 9.33267056941986083984e-01) (148, 6.86919033527374267578e-01) (149, 8.04746091365814208984e-01) (150, 6.78730785846710205078e-01) (151, 7.97138273715972900391e-01) (152, 6.86096131801605224609e-01) (153, 8.21135699748992919922e-01) (154, 7.59708642959594726562e-01) (155, 6.85032784938812255859e-01) (156, 7.95189440250396728516e-01) (157, 8.08456897735595703125e-01) (158, 6.61551237106323242188e-01) (159, 6.75956308841705322266e-01) (160, 8.17248046398162841797e-01) (161, 1.61243581771850585938e+00) (162, 9.50425744056701660156e-01) (163, 1.35704946517944335938e+00) (164, 8.44740033149719238281e-01) (165, 6.53527319431304931641e-01) (166, 1.62662446498870849609e+00) (167, 1.77036690711975097656e+00) (168, 8.01209867000579833984e-01) (169, 7.28304266929626464844e-01) (170, 7.85480260848999023438e-01) (171, 7.41886854171752929688e-01) (172, 6.67488574981689453125e-01) (173, 6.51930510997772216797e-01) (174, 6.83208584785461425781e-01) (175, 6.29658401012420654297e-01) (176, 6.93467617034912109375e-01) (177, 8.01239311695098876953e-01) (178, 7.50010311603546142578e-01) (179, 7.54368007183074951172e-01) (180, 7.90646314620971679688e-01) (181, 6.88147485256195068359e-01) (182, 8.32740485668182373047e-01) (183, 8.22071611881256103516e-01) (184, 9.11282420158386230469e-01) (185, 8.29825341701507568359e-01) (186, 6.62017464637756347656e-01) (187, 9.49573099613189697266e-01) (188, 7.75129914283752441406e-01) (189, 8.20730805397033691406e-01) (190, 8.21806967258453369141e-01) (191, 7.95753717422485351562e-01) (192, 7.01468408107757568359e-01) (193, 7.50218808650970458984e-01) (194, 8.26714396476745605469e-01) (195, 8.13154757022857666016e-01) (196, 7.91239261627197265625e-01) (197, 7.29041874408721923828e-01) (198, 6.19928896427154541016e-01) (199, 7.33394145965576171875e-01) (200, 8.94722640514373779297e-01) (201, 7.10959315299987792969e-01) (202, 1.43020582199096679688e+00) (203, 7.60504424571990966797e-01) (204, 7.00758934020996093750e-01) (205, 6.53146982192993164062e-01) (206, 6.52873158454895019531e-01) (207, 7.89244592189788818359e-01) (208, 7.93518722057342529297e-01) (209, 7.78940379619598388672e-01) (210, 7.38484323024749755859e-01) (211, 7.36971616744995117188e-01) (212, 7.69803345203399658203e-01) (213, 6.27479970455169677734e-01) (214, 7.05148637294769287109e-01) (215, 7.40300714969635009766e-01) (216, 6.78179085254669189453e-01) (217, 7.48326957225799560547e-01) (218, 6.40348792076110839844e-01) (219, 8.01541984081268310547e-01) (220, 8.32977533340454101562e-01) (221, 8.49806249141693115234e-01) (222, 7.74461150169372558594e-01) (223, 8.62866997718811035156e-01) (224, 7.43645846843719482422e-01) (225, 7.42653727531433105469e-01) (226, 7.65564978122711181641e-01) (227, 6.68578207492828369141e-01) (228, 7.54120051860809326172e-01) (229, 8.03841650485992431641e-01) (230, 1.70909941196441650391e+00) (231, 