FANN_FLO_2.1
num_layers=3
learning_rate=0.700000
connection_rate=1.000000
network_type=0
learning_momentum=0.100000
training_algorithm=2
train_error_function=1
train_stop_function=0
cascade_output_change_fraction=0.010000
quickprop_decay=-0.000100
quickprop_mu=1.750000
rprop_increase_factor=1.200000
rprop_decrease_factor=0.500000
rprop_delta_min=0.000000
rprop_delta_max=50.000000
rprop_delta_zero=0.100000
cascade_output_stagnation_epochs=12
cascade_candidate_change_fraction=0.010000
cascade_candidate_stagnation_epochs=12
cascade_max_out_epochs=150
cascade_min_out_epochs=50
cascade_max_cand_epochs=150
cascade_min_cand_epochs=50
cascade_num_candidate_groups=2
bit_fail_limit=3.49999994039535522461e-01
cascade_candidate_limit=1.00000000000000000000e+03
cascade_weight_multiplier=4.00000005960464477539e-01
cascade_activation_functions_count=10
cascade_activation_functions=3 5 7 8 10 11 14 15 16 17 
cascade_activation_steepnesses_count=4
cascade_activation_steepnesses=2.50000000000000000000e-01 5.00000000000000000000e-01 7.50000000000000000000e-01 1.00000000000000000000e+00 
layer_sizes=289 325 2 
scale_included=0
neurons (num_inputs, activation_function, activation_steepness)=(0, 0, 0.00000000000000000000e+00) (0, 0, 0.00000000000000000000e+00) (0, 0, 0.00000000000000000000e+00) (0, 0, 0.00000000000000000000e+00) (0, 0, 0.00000000000000000000e+00) (0, 0, 0.00000000000000000000e+00) (0, 0, 0.00000000000000000000e+00) (0, 0, 0.00000000000000000000e+00) (0, 0, 0.00000000000000000000e+00) (0, 0, 0.00000000000000000000e+00) (0, 0, 0.00000000000000000000e+00) (0, 0, 0.00000000000000000000e+00) (0, 0, 0.00000000000000000000e+00) (0, 0, 0.00000000000000000000e+00) (0, 0, 0.00000000000000000000e+00) (0, 0, 0.00000000000000000000e+00) (0, 0, 0.00000000000000000000e+00) (0, 0, 0.00000000000000000000e+00) (0, 0, 0.00000000000000000000e+00) (0, 0, 0.00000000000000000000e+00) (0, 0, 0.00000000000000000000e+00) (0, 0, 0.00000000000000000000e+00) (0, 0, 0.00000000000000000000e+00) (0, 0, 0.00000000000000000000e+00) (0, 0, 0.00000000000000000000e+00) (0, 0, 0.00000000000000000000e+00) (0, 0, 0.00000000000000000000e+00) (0, 0, 0.00000000000000000000e+00) (0, 0, 0.00000000000000000000e+00) (0, 0, 0.00000000000000000000e+00) (0, 0, 0.00000000000000000000e+00) (0, 0, 0.00000000000000000000e+00) (0, 0, 0.00000000000000000000e+00) (0, 0, 0.00000000000000000000e+00) (0, 0, 0.00000000000000000000e+00) (0, 0, 0.00000000000000000000e+00) (0, 0, 0.00000000000000000000e+00) (0, 0, 0.00000000000000000000e+00) (0, 0, 0.00000000000000000000e+00) (0, 0, 0.00000000000000000000e+00) (0, 0, 0.00000000000000000000e+00) (0, 0, 0.00000000000000000000e+00) (0, 0, 0.00000000000000000000e+00) (0, 0, 0.00000000000000000000e+00) (0, 0, 0.00000000000000000000e+00) (0, 0, 0.00000000000000000000e+00) (0, 0, 0.00000000000000000000e+00) (0, 0, 0.00000000000000000000e+00) (0, 0, 0.00000000000000000000e+00) (0, 0, 0.00000000000000000000e+00) (0, 0, 0.00000000000000000000e+00) (0, 0, 0.00000000000000000000e+00) (0, 0, 0.00000000000000000000e+00) (0, 0, 0.00000000000000000000e+00) (0, 0, 0.00000000000000000000e+00) (0, 0, 0.00000000000000000000e+00) (0, 0, 0.00000000000000000000e+00) (0, 0, 0.00000000000000000000e+00) (0, 0, 0.00000000000000000000e+00) (0, 0, 0.00000000000000000000e+00) (0, 0, 0.00000000000000000000e+00) (0, 0, 0.00000000000000000000e+00) (0, 0, 0.00000000000000000000e+00) (0, 0, 0.00000000000000000000e+00) (0, 0, 0.00000000000000000000e+00) (0, 0, 0.00000000000000000000e+00) (0, 0, 0.00000000000000000000e+00) (0, 0, 0.00000000000000000000e+00) (0, 0, 0.00000000000000000000e+00) (0, 0, 0.00000000000000000000e+00) (0, 0, 0.00000000000000000000e+00) (0, 0, 0.00000000000000000000e+00) (0, 0, 0.00000000000000000000e+00) (0, 0, 0.00000000000000000000e+00) (0, 0, 0.00000000000000000000e+00) (0, 0, 0.00000000000000000000e+00) (0, 0, 0.00000000000000000000e+00) (0, 0, 0.00000000000000000000e+00) (0, 0, 0.00000000000000000000e+00) (0, 0, 0.00000000000000000000e+00) (0, 0, 0.00000000000000000000e+00) (0, 0, 0.00000000000000000000e+00) (0, 0, 0.00000000000000000000e+00) (0, 0, 0.00000000000000000000e+00) (0, 0, 0.00000000000000000000e+00) (0, 0, 0.00000000000000000000e+00) (0, 0, 0.00000000000000000000e+00) (0, 0, 0.00000000000000000000e+00) (0, 0, 0.00000000000000000000e+00) (0, 0, 0.00000000000000000000e+00) (0, 0, 0.00000000000000000000e+00) (0, 0, 0.00000000000000000000e+00) (0, 0, 0.00000000000000000000e+00) (0, 0, 0.00000000000000000000e+00) (0, 0, 0.00000000000000000000e+00) (0, 0, 0.00000000000000000000e+00) (0, 0, 0.00000000000000000000e+00) (0, 0, 0.00000000000000000000e+00) (0, 0, 0.00000000000000000000e+00) (0, 0, 0.00000000000000000000e+00) (0, 0, 0.00000000000000000000e+00) (0, 0, 0.00000000000000000000e+00) (0, 0, 0.00000000000000000000e+00) (0, 0, 0.00000000000000000000e+00) (0, 0, 0.00000000000000000000e+00) (0, 0, 0.00000000000000000000e+00) (0, 0, 0.00000000000000000000e+00) (0, 0, 0.00000000000000000000e+00) (0, 0, 0.00000000000000000000e+00) (0, 0, 0.00000000000000000000e+00) (0, 0, 0.00000000000000000000e+00) (0, 0, 0.00000000000000000000e+00) (0, 0, 0.00000000000000000000e+00) (0, 0, 0.00000000000000000000e+00) (0, 0, 0.00000000000000000000e+00) (0, 0, 0.00000000000000000000e+00) (0, 0, 0.00000000000000000000e+00) (0, 0, 0.00000000000000000000e+00) (0, 0, 0.00000000000000000000e+00) (0, 0, 0.00000000000000000000e+00) (0, 0, 0.00000000000000000000e+00) (0, 0, 0.00000000000000000000e+00) (0, 0, 0.00000000000000000000e+00) (0, 0, 0.00000000000000000000e+00) (0, 0, 0.00000000000000000000e+00) (0, 0, 0.00000000000000000000e+00) (0, 0, 0.00000000000000000000e+00) (0, 0, 0.00000000000000000000e+00) (0, 0, 0.00000000000000000000e+00) (0, 0, 0.00000000000000000000e+00) (0, 0, 0.00000000000000000000e+00) (0, 0, 0.00000000000000000000e+00) (0, 0, 0.00000000000000000000e+00) (0, 0, 0.00000000000000000000e+00) (0, 0, 0.00000000000000000000e+00) (0, 0, 0.00000000000000000000e+00) (0, 0, 0.00000000000000000000e+00) (0, 0, 0.00000000000000000000e+00) (0, 0, 0.00000000000000000000e+00) (0, 0, 0.00000000000000000000e+00) (0, 0, 0.00000000000000000000e+00) (0, 0, 0.00000000000000000000e+00) (0, 0, 0.00000000000000000000e+00) (0, 0, 0.00000000000000000000e+00) (0, 0, 0.00000000000000000000e+00) (0, 0, 0.00000000000000000000e+00) (0, 0, 0.00000000000000000000e+00) (0, 0, 0.00000000000000000000e+00) (0, 0, 0.00000000000000000000e+00) (0, 0, 0.00000000000000000000e+00) (0, 0, 0.00000000000000000000e+00) (0, 0, 0.00000000000000000000e+00) (0, 0, 0.00000000000000000000e+00) (0, 0, 0.00000000000000000000e+00) (0, 0, 0.00000000000000000000e+00) (0, 0, 0.00000000000000000000e+00) (0, 0, 0.00000000000000000000e+00) (0, 0, 0.00000000000000000000e+00) (0, 0, 0.00000000000000000000e+00) (0, 0, 0.00000000000000000000e+00) (0, 0, 0.00000000000000000000e+00) (0, 0, 0.00000000000000000000e+00) (0, 0, 0.00000000000000000000e+00) (0, 0, 0.00000000000000000000e+00) (0, 0, 0.00000000000000000000e+00) (0, 0, 0.00000000000000000000e+00) (0, 0, 0.00000000000000000000e+00) (0, 0, 0.00000000000000000000e+00) (0, 0, 0.00000000000000000000e+00) (0, 0, 0.00000000000000000000e+00) (0, 0, 0.00000000000000000000e+00) (0, 0, 0.00000000000000000000e+00) (0, 0, 0.00000000000000000000e+00) (0, 0, 0.00000000000000000000e+00) (0, 0, 0.00000000000000000000e+00) (0, 0, 0.00000000000000000000e+00) (0, 0, 0.00000000000000000000e+00) (0, 0, 0.00000000000000000000e+00) (0, 0, 0.00000000000000000000e+00) (0, 0, 0.00000000000000000000e+00) (0, 0, 0.00000000000000000000e+00) (0, 0, 0.00000000000000000000e+00) (0, 0, 0.00000000000000000000e+00) (0, 0, 0.00000000000000000000e+00) (0, 0, 0.00000000000000000000e+00) (0, 0, 0.00000000000000000000e+00) (0, 0, 0.00000000000000000000e+00) (0, 0, 0.00000000000000000000e+00) (0, 0, 0.00000000000000000000e+00) (0, 0, 0.00000000000000000000e+00) (0, 0, 0.00000000000000000000e+00) (0, 0, 0.00000000000000000000e+00) (0, 0, 0.00000000000000000000e+00) (0, 0, 0.00000000000000000000e+00) (0, 0, 0.00000000000000000000e+00) (0, 0, 0.00000000000000000000e+00) (0, 0, 0.00000000000000000000e+00) (0, 0, 0.00000000000000000000e+00) (0, 0, 0.00000000000000000000e+00) (0, 0, 0.00000000000000000000e+00) (0, 0, 0.00000000000000000000e+00) (0, 0, 0.00000000000000000000e+00) (0, 0, 0.00000000000000000000e+00) (0, 0, 0.00000000000000000000e+00) (0, 0, 0.00000000000000000000e+00) (0, 0, 0.00000000000000000000e+00) (0, 0, 0.00000000000000000000e+00) (0, 0, 0.00000000000000000000e+00) (0, 0, 0.00000000000000000000e+00) (0, 0, 0.00000000000000000000e+00) (0, 0, 0.00000000000000000000e+00) (0, 0, 0.00000000000000000000e+00) (0, 0, 0.00000000000000000000e+00) (0, 0, 0.00000000000000000000e+00) (0, 0, 0.00000000000000000000e+00) (0, 0, 0.00000000000000000000e+00) (0, 0, 0.00000000000000000000e+00) (0, 0, 0.00000000000000000000e+00) (0, 0, 0.00000000000000000000e+00) (0, 0, 0.00000000000000000000e+00) (0, 0, 0.00000000000000000000e+00) (0, 0, 0.00000000000000000000e+00) (0, 0, 0.00000000000000000000e+00) (0, 0, 0.00000000000000000000e+00) (0, 0, 0.00000000000000000000e+00) (0, 0, 0.00000000000000000000e+00) (0, 0, 0.00000000000000000000e+00) (0, 0, 0.00000000000000000000e+00) (0, 0, 0.00000000000000000000e+00) (0, 0, 0.00000000000000000000e+00) (0, 0, 0.00000000000000000000e+00) (0, 0, 0.00000000000000000000e+00) (0, 0, 0.00000000000000000000e+00) (0, 0, 0.00000000000000000000e+00) (0, 0, 0.00000000000000000000e+00) (0, 0, 0.00000000000000000000e+00) (0, 0, 0.00000000000000000000e+00) (0, 0, 0.00000000000000000000e+00) (0, 0, 0.00000000000000000000e+00) (0, 0, 0.00000000000000000000e+00) (0, 0, 0.00000000000000000000e+00) (0, 0, 0.00000000000000000000e+00) (0, 0, 0.00000000000000000000e+00) (0, 0, 0.00000000000000000000e+00) (0, 0, 0.00000000000000000000e+00) (0, 0, 0.00000000000000000000e+00) (0, 0, 0.00000000000000000000e+00) (0, 0, 0.00000000000000000000e+00) (0, 0, 0.00000000000000000000e+00) (0, 0, 0.00000000000000000000e+00) (0, 0, 0.00000000000000000000e+00) (0, 0, 0.00000000000000000000e+00) (0, 0, 0.00000000000000000000e+00) (0, 0, 0.00000000000000000000e+00) (0, 0, 0.00000000000000000000e+00) (0, 0, 0.00000000000000000000e+00) (0, 0, 0.00000000000000000000e+00) (0, 0, 0.00000000000000000000e+00) (0, 0, 0.00000000000000000000e+00) (0, 0, 0.00000000000000000000e+00) (0, 0, 0.00000000000000000000e+00) (0, 0, 0.00000000000000000000e+00) (0, 0, 0.00000000000000000000e+00) (0, 0, 0.00000000000000000000e+00) (0, 0, 0.00000000000000000000e+00) (0, 0, 0.00000000000000000000e+00) (0, 0, 0.00000000000000000000e+00) (0, 0, 0.00000000000000000000e+00) (0, 0, 0.00000000000000000000e+00) (0, 0, 0.00000000000000000000e+00) (0, 0, 0.00000000000000000000e+00) (0, 0, 0.00000000000000000000e+00) (0, 0, 0.00000000000000000000e+00) (0, 0, 0.00000000000000000000e+00) (0, 0, 0.00000000000000000000e+00) (0, 0, 0.00000000000000000000e+00) (0, 0, 0.00000000000000000000e+00) (0, 0, 0.00000000000000000000e+00) (0, 0, 0.00000000000000000000e+00) (0, 0, 0.00000000000000000000e+00) (0, 0, 0.00000000000000000000e+00) (0, 0, 0.00000000000000000000e+00) (0, 0, 0.00000000000000000000e+00) (0, 0, 0.00000000000000000000e+00) (0, 0, 0.00000000000000000000e+00) (0, 0, 0.00000000000000000000e+00) (0, 0, 0.00000000000000000000e+00) (0, 0, 0.00000000000000000000e+00) (0, 0, 0.00000000000000000000e+00) (289, 5, 5.00000000000000000000e-01) (289, 5, 5.00000000000000000000e-01) (289, 5, 5.00000000000000000000e-01) (289, 5, 5.00000000000000000000e-01) (289, 5, 5.00000000000000000000e-01) (289, 5, 5.00000000000000000000e-01) (289, 5, 5.00000000000000000000e-01) (289, 5, 5.00000000000000000000e-01) (289, 5, 5.00000000000000000000e-01) (289, 5, 5.00000000000000000000e-01) (289, 5, 5.00000000000000000000e-01) (289, 5, 5.00000000000000000000e-01) (289, 5, 5.00000000000000000000e-01) (289, 5, 5.00000000000000000000e-01) (289, 5, 5.00000000000000000000e-01) (289, 5, 5.00000000000000000000e-01) (289, 5, 5.00000000000000000000e-01) (289, 5, 5.00000000000000000000e-01) (289, 5, 5.00000000000000000000e-01) (289, 5, 5.00000000000000000000e-01) (289, 5, 5.00000000000000000000e-01) (289, 5, 5.00000000000000000000e-01) (289, 5, 5.00000000000000000000e-01) (289, 5, 5.00000000000000000000e-01) (289, 5, 5.00000000000000000000e-01) (289, 5, 5.00000000000000000000e-01) (289, 5, 5.00000000000000000000e-01) (289, 5, 5.00000000000000000000e-01) (289, 5, 5.00000000000000000000e-01) (289, 5, 5.00000000000000000000e-01) (289, 5, 5.00000000000000000000e-01) (289, 5, 5.00000000000000000000e-01) (289, 5, 5.00000000000000000000e-01) (289, 5, 5.00000000000000000000e-01) (289, 5, 5.00000000000000000000e-01) (289, 5, 5.00000000000000000000e-01) (289, 5, 5.00000000000000000000e-01) (289, 5, 5.00000000000000000000e-01) (289, 5, 5.00000000000000000000e-01) (289, 5, 5.00000000000000000000e-01) (289, 5, 5.00000000000000000000e-01) (289, 5, 5.00000000000000000000e-01) (289, 5, 5.00000000000000000000e-01) (289, 5, 5.00000000000000000000e-01) (289, 5, 5.00000000000000000000e-01) (289, 5, 5.00000000000000000000e-01) (289, 5, 5.00000000000000000000e-01) (289, 5, 5.00000000000000000000e-01) (289, 5, 5.00000000000000000000e-01) (289, 5, 5.00000000000000000000e-01) (289, 5, 5.00000000000000000000e-01) (289, 5, 5.00000000000000000000e-01) (289, 5, 5.00000000000000000000e-01) (289, 5, 5.00000000000000000000e-01) (289, 5, 5.00000000000000000000e-01) (289, 5, 5.00000000000000000000e-01) (289, 5, 5.00000000000000000000e-01) (289, 5, 5.00000000000000000000e-01) (289, 5, 5.00000000000000000000e-01) (289, 5, 5.00000000000000000000e-01) (289, 5, 5.00000000000000000000e-01) (289, 5, 5.00000000000000000000e-01) (289, 5, 5.00000000000000000000e-01) (289, 5, 5.00000000000000000000e-01) (289, 5, 5.00000000000000000000e-01) (289, 5, 5.00000000000000000000e-01) (289, 5, 5.00000000000000000000e-01) (289, 5, 5.00000000000000000000e-01) (289, 5, 5.00000000000000000000e-01) (289, 5, 5.00000000000000000000e-01) (289, 5, 5.00000000000000000000e-01) (289, 5, 5.00000000000000000000e-01) (289, 5, 5.00000000000000000000e-01) (289, 5, 5.00000000000000000000e-01) (289, 5, 5.00000000000000000000e-01) (289, 5, 5.00000000000000000000e-01) (289, 5, 5.00000000000000000000e-01) (289, 5, 5.00000000000000000000e-01) (289, 5, 5.00000000000000000000e-01) (289, 5, 5.00000000000000000000e-01) (289, 5, 5.00000000000000000000e-01) (289, 5, 5.00000000000000000000e-01) (289, 5, 5.00000000000000000000e-01) (289, 5, 5.00000000000000000000e-01) (289, 5, 5.00000000000000000000e-01) (289, 5, 5.00000000000000000000e-01) (289, 5, 5.00000000000000000000e-01) (289, 5, 5.00000000000000000000e-01) (289, 5, 5.00000000000000000000e-01) (289, 5, 5.00000000000000000000e-01) (289, 5, 5.00000000000000000000e-01) (289, 5, 5.00000000000000000000e-01) (289, 5, 5.00000000000000000000e-01) (289, 5, 5.00000000000000000000e-01) (289, 5, 5.00000000000000000000e-01) (289, 5, 5.00000000000000000000e-01) (289, 5, 5.00000000000000000000e-01) (289, 5, 5.00000000000000000000e-01) (289, 5, 5.00000000000000000000e-01) (289, 5, 5.00000000000000000000e-01) (289, 5, 5.00000000000000000000e-01) (289, 5, 5.00000000000000000000e-01) (289, 5, 5.00000000000000000000e-01) (289, 5, 5.00000000000000000000e-01) (289, 5, 5.00000000000000000000e-01) (289, 5, 5.00000000000000000000e-01) (289, 5, 5.00000000000000000000e-01) (289, 5, 5.00000000000000000000e-01) (289, 5, 5.00000000000000000000e-01) (289, 5, 5.00000000000000000000e-01) (289, 5, 5.00000000000000000000e-01) (289, 5, 5.00000000000000000000e-01) (289, 5, 5.00000000000000000000e-01) (289, 5, 5.00000000000000000000e-01) (289, 5, 5.00000000000000000000e-01) (289, 5, 5.00000000000000000000e-01) (289, 5, 5.00000000000000000000e-01) (289, 5, 5.00000000000000000000e-01) (289, 5, 5.00000000000000000000e-01) (289, 5, 5.00000000000000000000e-01) (289, 5, 5.00000000000000000000e-01) (289, 5, 5.00000000000000000000e-01) (289, 5, 5.00000000000000000000e-01) (289, 5, 5.00000000000000000000e-01) (289, 5, 5.00000000000000000000e-01) (289, 5, 5.00000000000000000000e-01) (289, 5, 5.00000000000000000000e-01) (289, 5, 5.00000000000000000000e-01) (289, 5, 5.00000000000000000000e-01) (289, 5, 5.00000000000000000000e-01) (289, 5, 5.00000000000000000000e-01) (289, 5, 5.00000000000000000000e-01) (289, 5, 5.00000000000000000000e-01) (289, 5, 5.00000000000000000000e-01) (289, 5, 5.00000000000000000000e-01) (289, 5, 5.00000000000000000000e-01) (289, 5, 5.00000000000000000000e-01) (289, 5, 5.00000000000000000000e-01) (289, 5, 5.00000000000000000000e-01) (289, 5, 5.00000000000000000000e-01) (289, 5, 5.00000000000000000000e-01) (289, 5, 5.00000000000000000000e-01) (289, 5, 5.00000000000000000000e-01) (289, 5, 5.00000000000000000000e-01) (289, 5, 5.00000000000000000000e-01) (289, 5, 5.00000000000000000000e-01) (289, 5, 5.00000000000000000000e-01) (289, 5, 5.00000000000000000000e-01) (289, 5, 5.00000000000000000000e-01) (289, 5, 5.00000000000000000000e-01) (289, 5, 5.00000000000000000000e-01) (289, 5, 5.00000000000000000000e-01) (289, 5, 5.00000000000000000000e-01) (289, 5, 5.00000000000000000000e-01) (289, 5, 5.00000000000000000000e-01) (289, 5, 5.00000000000000000000e-01) (289, 5, 5.00000000000000000000e-01) (289, 5, 5.00000000000000000000e-01) (289, 5, 5.00000000000000000000e-01) (289, 5, 5.00000000000000000000e-01) (289, 5, 5.00000000000000000000e-01) (289, 5, 5.00000000000000000000e-01) (289, 5, 5.00000000000000000000e-01) (289, 5, 5.00000000000000000000e-01) (289, 5, 5.00000000000000000000e-01) (289, 5, 5.00000000000000000000e-01) (289, 5, 5.00000000000000000000e-01) (289, 5, 5.00000000000000000000e-01) (289, 5, 5.00000000000000000000e-01) (289, 5, 5.00000000000000000000e-01) (289, 5, 5.00000000000000000000e-01) (289, 5, 5.00000000000000000000e-01) (289, 5, 5.00000000000000000000e-01) (289, 5, 5.00000000000000000000e-01) (289, 5, 5.00000000000000000000e-01) (289, 5, 5.00000000000000000000e-01) (289, 5, 5.00000000000000000000e-01) (289, 5, 5.00000000000000000000e-01) (289, 5, 5.00000000000000000000e-01) (289, 5, 5.00000000000000000000e-01) (289, 5, 5.00000000000000000000e-01) (289, 5, 5.00000000000000000000e-01) (289, 5, 5.00000000000000000000e-01) (289, 5, 5.00000000000000000000e-01) (289, 5, 5.00000000000000000000e-01) (289, 5, 5.00000000000000000000e-01) (289, 5, 5.00000000000000000000e-01) (289, 5, 5.00000000000000000000e-01) (289, 5, 5.00000000000000000000e-01) (289, 5, 5.00000000000000000000e-01) (289, 5, 5.00000000000000000000e-01) (289, 5, 5.00000000000000000000e-01) (289, 5, 5.00000000000000000000e-01) (289, 5, 5.00000000000000000000e-01) (289, 5, 5.00000000000000000000e-01) (289, 5, 5.00000000000000000000e-01) (289, 5, 5.00000000000000000000e-01) (289, 5, 5.00000000000000000000e-01) (289, 5, 5.00000000000000000000e-01) (289, 5, 5.00000000000000000000e-01) (289, 5, 5.00000000000000000000e-01) (289, 5, 5.00000000000000000000e-01) (289, 5, 5.00000000000000000000e-01) (289, 5, 5.00000000000000000000e-01) (289, 5, 5.00000000000000000000e-01) (289, 5, 5.00000000000000000000e-01) (289, 5, 5.00000000000000000000e-01) (289, 5, 5.00000000000000000000e-01) (289, 5, 5.00000000000000000000e-01) (289, 5, 5.00000000000000000000e-01) (289, 5, 5.00000000000000000000e-01) (289, 5, 5.00000000000000000000e-01) (289, 5, 5.00000000000000000000e-01) (289, 5, 5.00000000000000000000e-01) (289, 5, 5.00000000000000000000e-01) (289, 5, 5.00000000000000000000e-01) (289, 5, 5.00000000000000000000e-01) (289, 5, 5.00000000000000000000e-01) (289, 5, 5.00000000000000000000e-01) (289, 5, 5.00000000000000000000e-01) (289, 5, 5.00000000000000000000e-01) (289, 5, 5.00000000000000000000e-01) (289, 5, 5.00000000000000000000e-01) (289, 5, 5.00000000000000000000e-01) (289, 5, 5.00000000000000000000e-01) (289, 5, 5.00000000000000000000e-01) (289, 5, 5.00000000000000000000e-01) (289, 5, 5.00000000000000000000e-01) (289, 5, 5.00000000000000000000e-01) (289, 5, 5.00000000000000000000e-01) (289, 5, 5.00000000000000000000e-01) (289, 5, 5.00000000000000000000e-01) (289, 5, 5.00000000000000000000e-01) (289, 5, 5.00000000000000000000e-01) (289, 5, 5.00000000000000000000e-01) (289, 5, 5.00000000000000000000e-01) (289, 5, 5.00000000000000000000e-01) (289, 5, 5.00000000000000000000e-01) (289, 5, 5.00000000000000000000e-01) (289, 5, 5.00000000000000000000e-01) (289, 5, 5.00000000000000000000e-01) (289, 5, 5.00000000000000000000e-01) (289, 5, 5.00000000000000000000e-01) (289, 5, 5.00000000000000000000e-01) (289, 5, 5.00000000000000000000e-01) (289, 5, 5.00000000000000000000e-01) (289, 5, 5.00000000000000000000e-01) (289, 5, 5.00000000000000000000e-01) (289, 5, 5.00000000000000000000e-01) (289, 5, 5.00000000000000000000e-01) (289, 5, 5.00000000000000000000e-01) (289, 5, 5.00000000000000000000e-01) (289, 5, 5.00000000000000000000e-01) (289, 5, 5.00000000000000000000e-01) (289, 5, 5.00000000000000000000e-01) (289, 5, 5.00000000000000000000e-01) (289, 5, 5.00000000000000000000e-01) (289, 5, 5.00000000000000000000e-01) (289, 5, 5.00000000000000000000e-01) (289, 5, 5.00000000000000000000e-01) (289, 5, 5.00000000000000000000e-01) (289, 5, 5.00000000000000000000e-01) (289, 5, 5.00000000000000000000e-01) (289, 5, 5.00000000000000000000e-01) (289, 5, 5.00000000000000000000e-01) (289, 5, 5.00000000000000000000e-01) (289, 5, 5.00000000000000000000e-01) (289, 5, 5.00000000000000000000e-01) (289, 5, 5.00000000000000000000e-01) (289, 5, 5.00000000000000000000e-01) (289, 5, 5.00000000000000000000e-01) (289, 5, 5.00000000000000000000e-01) (289, 5, 5.00000000000000000000e-01) (289, 5, 5.00000000000000000000e-01) (289, 5, 5.00000000000000000000e-01) (289, 5, 5.00000000000000000000e-01) (289, 5, 5.00000000000000000000e-01) (289, 5, 5.00000000000000000000e-01) (289, 5, 5.00000000000000000000e-01) (289, 5, 5.00000000000000000000e-01) (289, 5, 5.00000000000000000000e-01) (289, 5, 5.00000000000000000000e-01) (289, 5, 5.00000000000000000000e-01) (289, 5, 5.00000000000000000000e-01) (289, 5, 5.00000000000000000000e-01) (289, 5, 5.00000000000000000000e-01) (289, 5, 5.00000000000000000000e-01) (289, 5, 5.00000000000000000000e-01) (289, 5, 5.00000000000000000000e-01) (289, 5, 5.00000000000000000000e-01) (289, 5, 5.00000000000000000000e-01) (289, 5, 5.00000000000000000000e-01) (289, 5, 5.00000000000000000000e-01) (289, 5, 5.00000000000000000000e-01) (289, 5, 5.00000000000000000000e-01) (289, 5, 5.00000000000000000000e-01) (289, 5, 5.00000000000000000000e-01) (289, 5, 5.00000000000000000000e-01) (289, 5, 5.00000000000000000000e-01) (289, 5, 5.00000000000000000000e-01) (289, 5, 5.00000000000000000000e-01) (289, 5, 5.00000000000000000000e-01) (289, 5, 5.00000000000000000000e-01) (289, 5, 5.00000000000000000000e-01) (289, 5, 5.00000000000000000000e-01) (289, 5, 5.00000000000000000000e-01) (289, 5, 5.00000000000000000000e-01) (289, 5, 5.00000000000000000000e-01) (289, 5, 5.00000000000000000000e-01) (289, 5, 5.00000000000000000000e-01) (289, 5, 5.00000000000000000000e-01) (289, 5, 5.00000000000000000000e-01) (289, 5, 5.00000000000000000000e-01) (289, 5, 5.00000000000000000000e-01) (289, 5, 5.00000000000000000000e-01) (289, 5, 5.00000000000000000000e-01) (289, 5, 5.00000000000000000000e-01) (289, 5, 5.00000000000000000000e-01) (289, 5, 5.00000000000000000000e-01) (289, 5, 5.00000000000000000000e-01) (289, 5, 5.00000000000000000000e-01) (289, 5, 5.00000000000000000000e-01) (289, 5, 5.00000000000000000000e-01) (289, 5, 5.00000000000000000000e-01) (0, 5, 0.00000000000000000000e+00) (325, 5, 5.00000000000000000000e-01) (0, 5, 0.00000000000000000000e+00) 
connections (connected_to_neuron, weight)=(0, 1.50000000000000000000e+03) (1, 3.54978859424591064453e-01) (2, -2.56028801202774047852e-01) (3, 3.87356013059616088867e-01) (4, -2.12593019008636474609e-01) (5, 4.15802210569381713867e-01) (6, 4.54891234636306762695e-01) (7, -2.25628897547721862793e-01) (8, -2.42435082793235778809e-01) (9, 3.99586707353591918945e-01) (10, 3.15526306629180908203e-01) (11, -2.77971327304840087891e-01) (12, -2.21266880631446838379e-01) (13, -2.19264984130859375000e-01) (14, -1.73946738243103027344e-01) (15, 4.47643905878067016602e-01) (16, -1.12755283713340759277e-01) (17, 3.28976392745971679688e-01) (18, 2.92623579502105712891e-01) (19, -1.15737020969390869141e-01) (20, -2.59045153856277465820e-01) (21, -1.35336399078369140625e-01) (22, -1.03009894490242004395e-01) (23, -2.10720926523208618164e-01) (24, -1.33711531758308410645e-01) (25, 3.26856553554534912109e-01) (26, 4.26029086112976074219e-01) (27, -2.61931389570236206055e-01) (28, -8.77224430441856384277e-02) (29, 3.21758210659027099609e-01) (30, 3.97434443235397338867e-01) (31, -2.42261454463005065918e-01) (32, 4.00129020214080810547e-01) (33, 4.21495646238327026367e-01) (34, 4.37442362308502197266e-01) (35, -9.59683731198310852051e-02) (36, 3.66061657667160034180e-01) (37, 4.05631214380264282227e-01) (38, 3.41702848672866821289e-01) (39, 3.90398293733596801758e-01) (40, 3.17513734102249145508e-01) (41, -2.04900816082954406738e-01) (42, 4.03693944215774536133e-01) (43, -1.92587181925773620605e-01) (44, 4.36601042747497558594e-01) (45, 3.22838485240936279297e-01) (46, 3.46914798021316528320e-01) (47, -1.70626893639564514160e-01) (48, -2.06054195761680603027e-01) (49, -2.16671630740165710449e-01) (50, -2.05946087837219238281e-01) (51, -1.83639183640480041504e-01) (52, -2.75936782360076904297e-01) (53, -2.24412634968757629395e-01) (54, -1.14580877125263214111e-01) (55, -1.33871421217918395996e-01) (56, -1.80644556879997253418e-01) (57, -1.75963267683982849121e-01) (58, -1.07267506420612335205e-01) (59, -1.75396397709846496582e-01) (60, -1.35464698076248168945e-01) (61, -1.90719410777091979980e-01) (62, -1.22236475348472595215e-01) (63, -2.20297887921333312988e-01) (64, -2.44769230484962463379e-01) (65, 3.89985978603363037109e-01) (66, 3.24421316385269165039e-01) (67, -1.68730288743972778320e-01) (68, 3.08791637420654296875e-01) (69, 4.03566658496856689453e-01) (70, 3.04702281951904296875e-01) (71, -2.25901141762733459473e-01) (72, -8.97800400853157043457e-02) (73, 4.35894221067428588867e-01) (74, -1.35571300983428955078e-01) (75, 4.39056128263473510742e-01) (76, -1.05651147663593292236e-01) (77, -2.76398152112960815430e-01) (78, -2.19159796833992004395e-01) (79, -2.21953690052032470703e-01) (80, 3.53203505277633666992e-01) (81, 4.39173310995101928711e-01) (82, -1.29437863826751708984e-01) (83, -2.13549807667732238770e-01) (84, -2.45315209031105041504e-01) (85, 4.14277911186218261719e-01) (86, 3.04958373308181762695e-01) (87, -1.55036121606826782227e-01) (88, -2.40625977516174316406e-01) (89, -2.79327094554901123047e-01) (90, -2.55869716405868530273e-01) (91, -8.69278088212013244629e-02) (92, -1.76529645919799804688e-01) (93, 4.71940577030181884766e-01) (94, -2.19298779964447021484e-01) (95, -1.49390637874603271484e-01) (96, -1.86799257993698120117e-01) (97, -1.61907568573951721191e-01) (98, 3.33539396524429321289e-01) (99, 4.01576757431030273438e-01) (100, 3.12033176422119140625e-01) (101, 3.54670345783233642578e-01) (102, -1.04765050113201141357e-01) (103, 3.18486005067825317383e-01) (104, 3.09137374162673950195e-01) (105, 4.25121247768402099609e-01) (106, 4.74370062351226806641e-01) (107, 4.79628801345825195312e-01) (108, 4.34701889753341674805e-01) (109, -2.16632857918739318848e-01) (110, 3.37648153305053710938e-01) (111, 3.05144578218460083008e-01) (112, 3.03879916667938232422e-01) (113, -2.74359226226806640625e-01) (114, 3.91202151775360107422e-01) (115, -2.49678149819374084473e-01) (116, 4.24703657627105712891e-01) (117, 4.02717113494873046875e-01) (118, 4.62614148855209350586e-01) (119, -9.81272682547569274902e-02) (120, -1.63907259702682495117e-01) (121, -8.52059796452522277832e-02) (122, -1.00047789514064788818e-01) (123, -2.59532839059829711914e-01) (124, -9.68918353319168090820e-02) (125, 3.39432567358016967773e-01) (126, -1.19070626795291900635e-01) (127, -2.11192592978477478027e-01) (128, 4.64207500219345092773e-01) (129, 3.15691530704498291016e-01) (130, -9.32521522045135498047e-02) (131, -2.64678746461868286133e-01) (132, -1.99390545487403869629e-01) (133, -1.04949936270713806152e-01) (134, -2.29994595050811767578e-01) (135, -1.75186157226562500000e-01) (136, -1.56455814838409423828e-01) (137, -2.28809937834739685059e-01) (138, -1.78568124771118164062e-01) (139, -2.03516960144042968750e-01) (140, -1.71022564172744750977e-01) (141, -1.36323317885398864746e-01) (142, 3.86115193367004394531e-01) (143, 4.15673553943634033203e-01) (144, -1.22267574071884155273e-01) (145, -8.55317562818527221680e-02) (146, -1.13587975502014160156e-01) (147, -1.76261499524116516113e-01) (148, -1.80979385972023010254e-01) (149, 4.24450099468231201172e-01) (150, 3.87051463127136230469e-01) (151, 3.28686177730560302734e-01) (152, 4.25595879554748535156e-01) (153, 3.76541048288345336914e-01) (154, 3.45187634229660034180e-01) (155, 4.14554685354232788086e-01) (156, 4.24179285764694213867e-01) (157, 3.14670175313949584961e-01) (158, 2.85044997930526733398e-01) (159, 4.02409553527832031250e-01) (160, 3.30937564373016357422e-01) (161, 2.87069529294967651367e-01) (162, -1.35329887270927429199e-01) (163, -1.55781999230384826660e-01) (164, -1.01609520614147186279e-01) (165, 2.87623852491378784180e-01) (166, -2.53051549196243286133e-01) (167, 3.93413394689559936523e-01) (168, 3.31114381551742553711e-01) (169, -1.84940651059150695801e-01) (170, 4.64023858308792114258e-01) (171, -1.09885938465595245361e-01) (172, 3.81597638130187988281e-01) (173, 3.60205262899398803711e-01) (174, -1.75784245133399963379e-01) (175, -2.25696116685867309570e-01) (176, 3.45240950584411621094e-01) (177, 3.57136785984039306641e-01) (178, -1.22748799622058868408e-01) (179, -1.10525168478488922119e-01) (180, -2.63478875160217285156e-01) (181, -2.20310315489768981934e-01) (182, -2.71424144506454467773e-01) (183, -1.34714081883430480957e-01) (184, -1.28645017743110656738e-01) (185, 3.61760437488555908203e-01) (186, -2.03643709421157836914e-01) (187, -1.93985611200332641602e-01) (188, -1.71886950731277465820e-01) (189, -1.99786335229873657227e-01) (190, 2.88092374801635742188e-01) (191, 4.38212931156158447266e-01) (192, 3.65691363811492919922e-01) (193, 4.43074971437454223633e-01) (194, 3.69765102863311767578e-01) (195, 3.58493715524673461914e-01) (196, -1.28858119249343872070e-01) (197, -1.57777324318885803223e-01) (198, -1.12098783254623413086e-01) (199, -2.60891884565353393555e-01) (200, -2.26974695920944213867e-01) (201, -1.22725822031497955322e-01) (202, -1.05613254010677337646e-01) (203, -1.43862754106521606445e-01) (204, -2.53233879804611206055e-01) (205, -2.07409486174583435059e-01) (206, 4.81077790260314941406e-01) (207, 3.94347637891769409180e-01) (208, 4.33283746242523193359e-01) (209, 4.41339850425720214844e-01) (210, 3.65361988544464111328e-01) (211, 4.51991647481918334961e-01) (212, 3.04584383964538574219e-01) (213, 3.79291921854019165039e-01) (214, 4.04827088117599487305e-01) (215, 4.61299479007720947266e-01) (216, 4.55513924360275268555e-01) (217, 3.00251752138137817383e-01) (218, 3.52021098136901855469e-01) (219, -2.10469156503677368164e-01) (220, -1.93092957139015197754e-01) (221, 3.76051664352416992188e-01) (222, 3.12921315431594848633e-01) (223, -9.10471901297569274902e-02) (224, 3.35871905088424682617e-01) (225, 3.99177342653274536133e-01) (226, 3.32993954420089721680e-01) (227, -2.73944288492202758789e-01) (228, 3.25901240110397338867e-01) (229, -2.49566644430160522461e-01) (230, -2.54395216703414916992e-01) (231, -1.93895861506462097168e-01) (232, -1.06728725135326385498e-01) (233, -2.63799160718917846680e-01) (234, 3.25890094041824340820e-01) (235, 2.98586487770080566406e-01) (236, 3.66563498973846435547e-01) (237, -2.50475794076919555664e-01) (238, -1.70730128884315490723e-01) (239, 3.34493935108184814453e-01) (240, -8.68959799408912658691e-02) (241, 2.83860057592391967773e-01) (242, -2.88628369569778442383e-01) (243, -2.75671541690826416016e-01) (244, -1.89760297536849975586e-01) (245, -1.55648246407508850098e-01) (246, -9.79453250765800476074e-02) (247, -2.23739847540855407715e-01) (248, -1.44931614398956298828e-01) (249, 3.52428913116455078125e-01) (250, 4.40349876880645751953e-01) (251, 3.06857049465179443359e-01) (252, 4.40555125474929809570e-01) (253, 4.00792807340621948242e-01) (254, 2.88998693227767944336e-01) (255, 2.84922480583190917969e-01) (256, 3.84785622358322143555e-01) (257, 3.38802188634872436523e-01) (258, 2.98276722431182861328e-01) (259, 4.26586866378784179688e-01) (260, 3.68072032928466796875e-01) (261, 3.23674917221069335938e-01) (262, 3.23106944561004638672e-01) (263, 3.55780303478240966797e-01) (264, 3.27344059944152832031e-01) (265, 3.60396146774291992188e-01) (266, 3.79260748624801635742e-01) (267, 4.03679937124252319336e-01) (268, 4.04045104980468750000e-01) (269, 2.87812292575836181641e-01) (270, 4.42255824804306030273e-01) (271, 3.93400847911834716797e-01) (272, 2.98598945140838623047e-01) (273, -1.27532139420509338379e-01) (274, -1.57327771186828613281e-01) (275, 3.98124217987060546875e-01) (276, 3.71936142444610595703e-01) (277, 3.90112608671188354492e-01) (278, 4.79050219058990478516e-01) (279, 2.98836231231689453125e-01) (280, 4.51304197311401367188e-01) (281, 4.28431183099746704102e-01) (282, 3.31802845001220703125e-01) (283, 4.03535932302474975586e-01) (284, 4.11872088909149169922e-01) (285, 3.35343867540359497070e-01) (286, 4.08506602048873901367e-01) (287, 3.20029646158218383789e-01) (288, -2.50714838504791259766e-01) (0, 1.50000000000000000000e+03) (1, -2.32637345790863037109e-01) (2, 5.59832334518432617188e-01) (3, -2.33257055282592773438e-01) (4, 3.76161992549896240234e-01) (5, -3.39672952890396118164e-01) (6, -3.98554772138595581055e-01) (7, 4.55058604478836059570e-01) (8, 5.24045825004577636719e-01) (9, -2.54968702793121337891e-01) (10, -3.91491353511810302734e-01) (11, 5.29226958751678466797e-01) (12, 4.65720593929290771484e-01) (13, 4.76828604936599731445e-01) (14, 5.42092323303222656250e-01) (15, -3.55912774801254272461e-01) (16, 4.02344822883605957031e-01) (17, -3.14718663692474365234e-01) (18, -2.42772221565246582031e-01) (19, 5.11988878250122070312e-01) (20, 4.45800364017486572266e-01) (21, 5.26854753494262695312e-01) (22, 4.81704026460647583008e-01) (23, 3.90427410602569580078e-01) (24, 3.64603817462921142578e-01) (25, -3.61943840980529785156e-01) (26, -2.54182547330856323242e-01) (27, 4.16526198387145996094e-01) (28, 5.20366489887237548828e-01) (29, -2.25940898060798645020e-01) (30, -2.35395431518554687500e-01) (31, 4.52320337295532226562e-01) (32, -2.23638996481895446777e-01) (33, -2.54905074834823608398e-01) (34, -3.36162209510803222656e-01) (35, 5.49849987030029296875e-01) (36, -3.60076814889907836914e-01) (37, -3.29695045948028564453e-01) (38, -3.12457829713821411133e-01) (39, -2.23917096853256225586e-01) (40, -3.92399370670318603516e-01) (41, 4.54631537199020385742e-01) (42, -2.51287162303924560547e-01) (43, 4.81161773204803466797e-01) (44, -3.98257553577423095703e-01) (45, -2.55718171596527099609e-01) (46, -2.14296996593475341797e-01) (47, 4.08802300691604614258e-01) (48, 3.99057894945144653320e-01) (49, 5.01176953315734863281e-01) (50, 5.57367384433746337891e-01) (51, 4.82543259859085083008e-01) (52, 4.52723562717437744141e-01) (53, 4.77176010608673095703e-01) (54, 5.07805466651916503906e-01) (55, 4.53073710203170776367e-01) (56, 5.18855154514312744141e-01) (57, 4.62700039148330688477e-01) (58, 5.04521191120147705078e-01) (59, 4.81542915105819702148e-01) (60, 4.56536531448364257812e-01) (61, 4.68822717666625976562e-01) (62, 3.76038968563079833984e-01) (63, 4.29377138614654541016e-01) (64, 4.32215392589569091797e-01) (65, -3.28606545925140380859e-01) (66, -2.92917370796203613281e-01) (67, 4.65187221765518188477e-01) (68, -2.64782369136810302734e-01) (69, -2.50233262777328491211e-01) (70, -3.15711230039596557617e-01) (71, 5.33478379249572753906e-01) (72, 3.99952769279479980469e-01) (73, -3.34079563617706298828e-01) (74, 4.52413648366928100586e-01) (75, -3.50403338670730590820e-01) (76, 3.63051235675811767578e-01) (77, 4.33117359876632690430e-01) (78, 4.59668815135955810547e-01) (79, 4.02036577463150024414e-01) (80, -2.12027221918106079102e-01) (81, -3.09067785739898681641e-01) (82, 5.18669307231903076172e-01) (83, 4.48855727910995483398e-01) (84, 3.87272745370864868164e-01) (85, -3.06796431541442871094e-01) (86, -2.34871357679367065430e-01) (87, 5.38329720497131347656e-01) (88, 3.70570063591003417969e-01) (89, 4.85574305057525634766e-01) (90, 4.54387158155441284180e-01) (91, 4.68686938285827636719e-01) (92, 3.97402852773666381836e-01) (93, -2.96235769987106323242e-01) (94, 5.39560556411743164062e-01) (95, 4.62883174419403076172e-01) (96, 5.38627862930297851562e-01) (97, 3.97822618484497070312e-01) (98, -4.03669267892837524414e-01) (99, -2.78477191925048828125e-01) (100, -2.15089380741119384766e-01) (101, -3.11192512512207031250e-01) (102, 4.70638245344161987305e-01) (103, -3.86195778846740722656e-01) (104, -2.28642150759696960449e-01) (105, -4.03584688901901245117e-01) (106, -3.34871739149093627930e-01) (107, -2.46579751372337341309e-01) (108, -3.35861384868621826172e-01) (109, 5.39012253284454345703e-01) (110, -2.11453318595886230469e-01) (111, -3.35941851139068603516e-01) (112, -3.23180973529815673828e-01) (113, 5.17342865467071533203e-01) (114, -2.23509073257446289062e-01) (115, 4.52935606241226196289e-01) (116, -3.55711609125137329102e-01) (117, -2.57211714982986450195e-01) (118, -3.17798525094985961914e-01) (119, 4.35098737478256225586e-01) (120, 4.29168671369552612305e-01) (121, 5.26719152927398681641e-01) (122, 5.43582141399383544922e-01) (123, 4.63198542594909667969e-01) (124, 4.33380424976348876953e-01) (125, -2.42788732051849365234e-01) (126, 3.66516292095184326172e-01) (127, 4.13321703672409057617e-01) (128, -2.45425492525100708008e-01) (129, -3.76771003007888793945e-01) (130, 5.49098670482635498047e-01) (131, 5.42158603668212890625e-01) (132, 4.70070183277130126953e-01) (133, 4.60823535919189453125e-01) (134, 3.63093972206115722656e-01) (135, 4.31484133005142211914e-01) (136, 4.68614131212234497070e-01) (137, 4.42133635282516479492e-01) (138, 3.91392350196838378906e-01) (139, 5.37735164165496826172e-01) (140, 4.15896594524383544922e-01) (141, 3.85066807270050048828e-01) (142, -3.40092152357101440430e-01) (143, -2.80199974775314331055e-01) (144, 5.43337583541870117188e-01) (145, 3.86644333600997924805e-01) (146, 3.85246157646179199219e-01) (147, 4.07953053712844848633e-01) (148, 5.24623572826385498047e-01) (149, -3.09478819370269775391e-01) (150, -2.83401995897293090820e-01) (151, -3.55083882808685302734e-01) (152, -3.46908807754516601562e-01) (153, -2.90946424007415771484e-01) (154, -2.72163450717926025391e-01) (155, -2.63616263866424560547e-01) (156, -3.49023520946502685547e-01) (157, -2.60259479284286499023e-01) (158, -2.25123971700668334961e-01) (159, -3.41709583997726440430e-01) (160, -2.49602764844894409180e-01) (161, -2.25249767303466796875e-01) (162, 4.10768955945968627930e-01) (163, 4.22221034765243530273e-01) (164, 4.38544154167175292969e-01) (165, -3.52713227272033691406e-01) (166, 4.89243328571319580078e-01) (167, -2.14460566639900207520e-01) (168, -2.94222772121429443359e-01) (169, 5.03309667110443115234e-01) (170, -2.41102188825607299805e-01) (171, 5.47988951206207275391e-01) (172, -2.06498563289642333984e-01) (173, -3.46314013004302978516e-01) (174, 4.69956070184707641602e-01) (175, 5.29048442840576171875e-01) (176, -3.61161261796951293945e-01) (177, -2.70179331302642822266e-01) (178, 3.73396277427673339844e-01) (179, 3.71268957853317260742e-01) (180, 3.99592071771621704102e-01) (181, 4.95605975389480590820e-01) (182, 4.06399220228195190430e-01) (183, 4.54924523830413818359e-01) (184, 4.02737915515899658203e-01) (185, -2.22063422203063964844e-01) (186, 3.89559805393218994141e-01) (187, 4.65831011533737182617e-01) (188, 4.90093320608139038086e-01) (189, 3.75533342361450195312e-01) (190, -2.13028654456138610840e-01) (191, -3.20324003696441650391e-01) (192, -2.25102394819259643555e-01) (193, -3.94414186477661132812e-01) (194, -2.32363343238830566406e-01) (195, -3.26136022806167602539e-01) (196, 4.27003890275955200195e-01) (197, 4.34849202632904052734e-01) (198, 4.09838229417800903320e-01) (199, 5.53804159164428710938e-01) (200, 3.90043050050735473633e-01) (201, 3.78118038177490234375e-01) (202, 5.40469527244567871094e-01) (203, 3.70110481977462768555e-01) (204, 3.96692872047424316406e-01) (205, 4.53391104936599731445e-01) (206, -2.28029817342758178711e-01) (207, -3.12913894653320312500e-01) (208, -3.80037844181060791016e-01) (209, -2.23721951246261596680e-01) (210, -3.20701867341995239258e-01) (211, -3.43819588422775268555e-01) (212, -2.89817720651626586914e-01) (213, -2.75635808706283569336e-01) (214, -2.50073462724685668945e-01) (215, -2.36211210489273071289e-01) (216, -2.96362102031707763672e-01) (217, -1.97506368160247802734e-01) (218, -3.45880985260009765625e-01) (219, 4.03487324714660644531e-01) (220, 3.68816465139389038086e-01) (221, -3.62561553716659545898e-01) (222, -2.92062371969223022461e-01) (223, 5.57838439941406250000e-01) (224, -3.42600196599960327148e-01) (225, -3.47140878438949584961e-01) (226, -3.48810791969299316406e-01) (227, 4.86830085515975952148e-01) (228, -2.60916680097579956055e-01) (229, 4.82225120067596435547e-01) (230, 4.84321683645248413086e-01) (231, 5.22683203220367431641e-01) (232, 4.90682959556579589844e-01) (233, 4.67940241098403930664e-01) (234, -2.28375881910324096680e-01) (235, -2.46016010642051696777e-01) (236, -2.14077204465866088867e-01) (237, 5.09183764457702636719e-01) (238, 4.06333148479461669922e-01) (239, -3.59058767557144165039e-01) (240, 4.97534930706024169922e-01) (241, -2.74702608585357666016e-01) (242, 4.51627463102340698242e-01) (243, 4.13784742355346679688e-01) (244, 4.33122843503952026367e-01) (245, 4.20003503561019897461e-01) (246, 3.76089543104171752930e-01) (247, 5.49306213855743408203e-01) (248, 4.05872851610183715820e-01) (249, -3.08534324169158935547e-01) (250, -3.70965033769607543945e-01) (251, -3.44745993614196777344e-01) (252, -2.72328525781631469727e-01) (253, -2.20149204134941101074e-01) (254, -3.54794740676879882812e-01) (255, -2.21491187810897827148e-01) (256, -3.92600327730178833008e-01) (257, -2.97801613807678222656e-01) (258, -2.98800408840179443359e-01) (259, -2.49545380473136901855e-01) (260, -3.76577109098434448242e-01) (261, -3.66380810737609863281e-01) (262, -2.80052036046981811523e-01) (263, -2.23037466406822204590e-01) (264, -2.81609505414962768555e-01) (265, -3.15549045801162719727e-01) (266, -2.52887517213821411133e-01) (267, -3.03213834762573242188e-01) (268, -3.48578810691833496094e-01) (269, -2.20141753554344177246e-01) (270, -2.72692680358886718750e-01) (271, -2.18837961554527282715e-01) (272, -2.77177304029464721680e-01) (273, 3.93400132656097412109e-01) (274, 3.96955460309982299805e-01) (275, -4.71304744482040405273e-01) (276, -3.04356008768081665039e-01) (277, -3.71630102396011352539e-01) (278, -1.99836447834968566895e-01) (279, -2.73840218782424926758e-01) (280, -2.88125693798065185547e-01) (281, -3.79470169544219970703e-01) (282, -1.94817930459976196289e-01) (283, -3.59392851591110229492e-01) (284, -2.14604079723358154297e-01) (285, -3.46374779939651489258e-01) (286, -3.64165484905242919922e-01) (287, -3.90955507755279541016e-01) (288, 4.82953488826751708984e-01) (0, 1.50000000000000000000e+03) (1, 4.56151366233825683594e-01) (2, -2.65583485364913940430e-01) (3, 4.44096416234970092773e-01) (4, -1.93639934062957763672e-01) (5, 4.76578712463378906250e-01) (6, 3.65395694971084594727e-01) (7, -9.57126617431640625000e-02) (8, -1.42117723822593688965e-01) (9, 2.90245741605758666992e-01) (10, 3.26218724250793457031e-01) (11, -1.65933787822723388672e-01) (12, -1.32903531193733215332e-01) (13, -2.70456343889236450195e-01) (14, -2.36154913902282714844e-01) (15, 4.56855624914169311523e-01) (16, -2.26910516619682312012e-01) (17, 3.34024012088775634766e-01) (18, 3.58452618122100830078e-01) (19, -1.81095063686370849609e-01) (20, -2.35244452953338623047e-01) (21, -2.72063732147216796875e-01) (22, -2.53444224596023559570e-01) (23, -2.04910397529602050781e-01) (24, -2.85208970308303833008e-01) (25, 3.69898915290832519531e-01) (26, 3.46862137317657470703e-01) (27, -2.37893342971801757812e-01) (28, -1.73169001936912536621e-01) (29, 3.60001683235168457031e-01) (30, 3.16715508699417114258e-01) (31, -2.41082414984703063965e-01) (32, 3.39917659759521484375e-01) (33, 3.31222027540206909180e-01) (34, 2.96173036098480224609e-01) (35, -1.37599304318428039551e-01) (36, 3.36564570665359497070e-01) (37, 3.74055176973342895508e-01) (38, 4.29988205432891845703e-01) (39, 4.61218684911727905273e-01) (40, 3.76911133527755737305e-01) (41, -1.05923160910606384277e-01) (42, 3.86551529169082641602e-01) (43, -2.45056733489036560059e-01) (44, 2.84733235836029052734e-01) (45, 4.43017601966857910156e-01) (46, 3.03656905889511108398e-01) (47, -2.36995622515678405762e-01) (48, -2.80357360839843750000e-01) (49, -1.94428429007530212402e-01) (50, -1.37673079967498779297e-01) (51, -2.34141454100608825684e-01) (52, -1.90420463681221008301e-01) (53, -1.06573916971683502197e-01) (54, -1.59272491931915283203e-01) (55, -1.99982687830924987793e-01) (56, -2.19763383269309997559e-01) (57, -1.00292578339576721191e-01) (58, -1.49341017007827758789e-01) (59, -9.99621078372001647949e-02) (60, -2.21079915761947631836e-01) (61, -1.13793797791004180908e-01) (62, -2.45622754096984863281e-01) (63, -1.66844248771667480469e-01) (64, -2.57516235113143920898e-01) (65, 3.24518978595733642578e-01) (66, 3.36591035127639770508e-01) (67, -2.11293309926986694336e-01) (68, 4.12151813507080078125e-01) (69, 3.04021656513214111328e-01) (70, 3.32959532737731933594e-01) (71, -2.63777375221252441406e-01) (72, -9.03472378849983215332e-02) (73, 4.46721136569976806641e-01) (74, -2.25916862487792968750e-01) (75, 4.86275553703308105469e-01) (76, -1.73598662018775939941e-01) (77, -2.10001498460769653320e-01) (78, -2.38092139363288879395e-01) (79, -1.64492189884185791016e-01) (80, 4.41843181848526000977e-01) (81, 2.88297086954116821289e-01) (82, -1.22478649020195007324e-01) (83, -2.39394038915634155273e-01) (84, -7.83526673913002014160e-02) (85, 3.76859843730926513672e-01) (86, 4.13749307394027709961e-01) (87, -2.27192282676696777344e-01) (88, -2.02620416879653930664e-01) (89, -2.13356003165245056152e-01) (90, -2.52591401338577270508e-01) (91, -1.34134158492088317871e-01) (92, -2.33351260423660278320e-01) (93, 3.51832449436187744141e-01) (94, -2.12704539299011230469e-01) (95, -2.19278186559677124023e-01) (96, -1.72374397516250610352e-01) (97, -1.43143758177757263184e-01) (98, 4.21088784933090209961e-01) (99, 3.18676680326461791992e-01) (100, 4.47465926408767700195e-01) (101, 4.71082061529159545898e-01) (102, -2.25259095430374145508e-01) (103, 4.42219078540802001953e-01) (104, 4.39140826463699340820e-01) (105, 4.14281308650970458984e-01) (106, 4.40711617469787597656e-01) (107, 3.29782068729400634766e-01) (108, 2.89787918329238891602e-01) (109, -2.69911050796508789062e-01) (110, 4.53795611858367919922e-01) (111, 4.49340671300888061523e-01) (112, 2.99725651741027832031e-01) (113, -1.51252478361129760742e-01) (114, 3.09554040431976318359e-01) (115, -2.86869943141937255859e-01) (116, 3.09801697731018066406e-01) (117, 4.29113447666168212891e-01) (118, 3.53542417287826538086e-01) (119, -1.74344226717948913574e-01) (120, -2.70562350749969482422e-01) (121, -1.91275328397750854492e-01) (122, -2.23471194505691528320e-01) (123, -2.23986983299255371094e-01) (124, -1.23069524765014648438e-01) (125, 4.22603279352188110352e-01) (126, -1.53412356972694396973e-01) (127, -2.22945377230644226074e-01) (128, 3.66142064332962036133e-01) (129, 3.66586238145828247070e-01) (130, -1.87622979283332824707e-01) (131, -2.43525102734565734863e-01) (132, -2.30376407504081726074e-01) (133, -1.19815252721309661865e-01) (134, -9.01895910501480102539e-02) (135, -7.92507007718086242676e-02) (136, -1.82161033153533935547e-01) (137, -1.23133718967437744141e-01) (138, -2.23946541547775268555e-01) (139, -1.73985928297042846680e-01) (140, -1.18624411523342132568e-01) (141, -2.65554517507553100586e-01) (142, 3.59848380088806152344e-01) (143, 4.64278161525726318359e-01) (144, -1.28706276416778564453e-01) (145, -1.93132385611534118652e-01) (146, -1.02535702288150787354e-01) (147, -9.70118194818496704102e-02) (148, -2.62183934450149536133e-01) (149, 3.26154530048370361328e-01) (150, 3.90084147453308105469e-01) (151, 3.39849054813385009766e-01) (152, 4.21230792999267578125e-01) (153, 4.56150203943252563477e-01) (154, 3.92429083585739135742e-01) (155, 3.84012013673782348633e-01) (156, 3.86959165334701538086e-01) (157, 3.25675338506698608398e-01) (158, 4.43219989538192749023e-01) (159, 4.67438399791717529297e-01) (160, 3.96511733531951904297e-01) (161, 3.50403100252151489258e-01) (162, -2.49462068080902099609e-01) (163, -1.21193803846836090088e-01) (164, -2.53141283988952636719e-01) (165, 3.13296943902969360352e-01) (166, -1.22527517378330230713e-01) (167, 4.16766971349716186523e-01) (168, 4.62124407291412353516e-01) (169, -2.99795448780059814453e-01) (170, 3.16638141870498657227e-01) (171, -1.26138120889663696289e-01) (172, 3.37512016296386718750e-01) (173, 3.86590868234634399414e-01) (174, -1.44378319382667541504e-01) (175, -2.75906234979629516602e-01) (176, 4.73706662654876708984e-01) (177, 4.00180637836456298828e-01) (178, -9.37089473009109497070e-02) (179, -2.72668778896331787109e-01) (180, -1.18730545043945312500e-01) (181, -1.88237801194190979004e-01) (182, -2.22404494881629943848e-01) (183, -1.94330826401710510254e-01) (184, -2.16963276267051696777e-01) (185, 4.57488417625427246094e-01) (186, -9.38033312559127807617e-02) (187, -1.19524113833904266357e-01) (188, -2.63792604207992553711e-01) (189, -1.32241308689117431641e-01) (190, 4.44951891899108886719e-01) (191, 4.11567330360412597656e-01) (192, 2.96570003032684326172e-01) (193, 4.68409538269042968750e-01) (194, 3.78022134304046630859e-01) (195, 3.37840646505355834961e-01) (196, -2.78141319751739501953e-01) (197, -2.18996360898017883301e-01) (198, -1.09988734126091003418e-01) (199, -7.88253843784332275391e-02) (200, -2.03048318624496459961e-01) (201, -2.68001466989517211914e-01) (202, -1.39799118041992187500e-01) (203, -1.64021909236907958984e-01) (204, -1.71847671270370483398e-01) (205, -2.09603831171989440918e-01) (206, 4.10708695650100708008e-01) (207, 3.94794553518295288086e-01) (208, 4.74133253097534179688e-01) (209, 4.00240898132324218750e-01) (210, 4.03665423393249511719e-01) (211, 4.37589436769485473633e-01) (212, 2.95327544212341308594e-01) (213, 4.66614812612533569336e-01) (214, 3.30808073282241821289e-01) (215, 3.63724350929260253906e-01) (216, 4.37900990247726440430e-01) (217, 3.35578680038452148438e-01) (218, 3.29310715198516845703e-01) (219, -1.19323782622814178467e-01) (220, -8.97265225648880004883e-02) (221, 2.92850792407989501953e-01) (222, 3.77735644578933715820e-01) (223, -2.76561528444290161133e-01) (224, 4.75856691598892211914e-01) (225, 4.72248703241348266602e-01) (226, 3.46586138010025024414e-01) (227, -2.82121032476425170898e-01) (228, 3.37753504514694213867e-01) (229, -2.33864456415176391602e-01) (230, -8.05055126547813415527e-02) (231, -1.58117249608039855957e-01) (232, -2.36302137374877929688e-01) (233, -1.60681724548339843750e-01) (234, 3.42040240764617919922e-01) (235, 4.50675070285797119141e-01) (236, 3.04072916507720947266e-01) (237, -1.05225458741188049316e-01) (238, -2.18785166740417480469e-01) (239, 3.11875730752944946289e-01) (240, -1.82974830269813537598e-01) (241, 4.73926097154617309570e-01) (242, -1.24671645462512969971e-01) (243, -1.81007191538810729980e-01) (244, -1.11874781548976898193e-01) (245, -2.65710741281509399414e-01) (246, -1.00856296718120574951e-01) (247, -1.61967098712921142578e-01) (248, -2.19172298908233642578e-01) (249, 3.26404333114624023438e-01) (250, 3.92431974411010742188e-01) (251, 3.35982918739318847656e-01) (252, 3.30592840909957885742e-01) (253, 3.07980120182037353516e-01) (254, 3.53197574615478515625e-01) (255, 3.16348344087600708008e-01) (256, 4.74753350019454956055e-01) (257, 4.32788670063018798828e-01) (258, 3.21244060993194580078e-01) (259, 3.28406870365142822266e-01) (260, 4.60737526416778564453e-01) (261, 3.20531904697418212891e-01) (262, 4.62057054042816162109e-01) (263, 3.18872272968292236328e-01) (264, 4.64993417263031005859e-01) (265, 3.14514279365539550781e-01) (266, 2.93441861867904663086e-01) (267, 4.77750033140182495117e-01) (268, 3.02513480186462402344e-01) (269, 3.55060160160064697266e-01) (270, 2.94406384229660034180e-01) (271, 3.95790278911590576172e-01) (272, 3.56613576412200927734e-01) (273, -1.11146382987499237061e-01) (274, -2.59942203760147094727e-01) (275, 3.33736479282379150391e-01) (276, 4.78600263595581054688e-01) (277, 2.88518249988555908203e-01) (278, 4.75599050521850585938e-01) (279, 3.30919027328491210938e-01) (280, 3.18507820367813110352e-01) (281, 3.76774102449417114258e-01) (282, 3.93299460411071777344e-01) (283, 3.61691743135452270508e-01) (284, 3.77399384975433349609e-01) (285, 4.61844116449356079102e-01) (286, 3.97806435823440551758e-01) (287, 3.76465469598770141602e-01) (288, -2.49171450734138488770e-01) (0, 1.50000000000000000000e+03) (1, 4.17870342731475830078e-01) (2, -1.92661806941032409668e-01) (3, 4.64906781911849975586e-01) (4, -1.78473770618438720703e-01) (5, 4.10926848649978637695e-01) (6, 4.41318005323410034180e-01) (7, -1.45761415362358093262e-01) (8, -1.46255612373352050781e-01) (9, 4.48381483554840087891e-01) (10, 4.43043828010559082031e-01) (11, -2.81247973442077636719e-01) (12, -1.03594571352005004883e-01) (13, -2.23062604665756225586e-01) (14, -2.08565756678581237793e-01) (15, 4.29681390523910522461e-01) (16, -1.94558337330818176270e-01) (17, 4.09826874732971191406e-01) (18, 4.32344466447830200195e-01) (19, -1.91907644271850585938e-01) (20, -1.67910069227218627930e-01) (21, -8.80684778094291687012e-02) (22, -1.56216323375701904297e-01) (23, -2.75180220603942871094e-01) (24, -1.94549247622489929199e-01) (25, 2.93064355850219726562e-01) (26, 3.83495330810546875000e-01) (27, -2.26030945777893066406e-01) (28, -1.71615526080131530762e-01) (29, 4.73238527774810791016e-01) (30, 4.62231606245040893555e-01) (31, -2.29303881525993347168e-01) (32, 4.15528595447540283203e-01) (33, 3.49941164255142211914e-01) (34, 3.29049944877624511719e-01) (35, -2.46822148561477661133e-01) (36, 4.89631801843643188477e-01) (37, 2.82566338777542114258e-01) (38, 4.70716536045074462891e-01) (39, 4.11097645759582519531e-01) (40, 4.43839937448501586914e-01) (41, -1.48055329918861389160e-01) (42, 4.21398431062698364258e-01) (43, -1.48876562714576721191e-01) (44, 2.89994537830352783203e-01) (45, 3.06238353252410888672e-01) (46, 3.72950941324234008789e-01) (47, -1.99094191193580627441e-01) (48, -1.41803905367851257324e-01) (49, -2.50638723373413085938e-01) (50, -1.10584303736686706543e-01) (51, -2.28253796696662902832e-01) (52, -2.62635648250579833984e-01) (53, -1.82257249951362609863e-01) (54, -2.23654687404632568359e-01) (55, -1.81407973170280456543e-01) (56, -1.72281369566917419434e-01) (57, -1.27571076154708862305e-01) (58, -1.18903942406177520752e-01) (59, -2.50926792621612548828e-01) (60, -1.35251522064208984375e-01) (61, -1.37276932597160339355e-01) (62, -1.84808775782585144043e-01) (63, -2.05057904124259948730e-01) (64, -2.62881368398666381836e-01) (65, 4.17921900749206542969e-01) (66, 3.88807415962219238281e-01) (67, -2.63272166252136230469e-01) (68, 4.14065957069396972656e-01) (69, 3.96966397762298583984e-01) (70, 4.31141674518585205078e-01) (71, -1.94703891873359680176e-01) (72, -2.39534661173820495605e-01) (73, 3.79750072956085205078e-01) (74, -2.60375380516052246094e-01) (75, 3.42349320650100708008e-01) (76, -1.77819326519966125488e-01) (77, -1.75165921449661254883e-01) (78, -1.44116982817649841309e-01) (79, -2.30159610509872436523e-01) (80, 4.20120298862457275391e-01) (81, 4.09361153841018676758e-01) (82, -1.82258293032646179199e-01) (83, -1.36747911572456359863e-01) (84, -2.32972025871276855469e-01) (85, 4.52383458614349365234e-01) (86, 3.37706089019775390625e-01) (87, -1.34329766035079956055e-01) (88, -1.54531419277191162109e-01) (89, -2.57933974266052246094e-01) (90, -1.10693059861660003662e-01) (91, -2.00648620724678039551e-01) (92, -1.01694174110889434814e-01) (93, 3.54544579982757568359e-01) (94, -1.17347851395606994629e-01) (95, -9.26669612526893615723e-02) (96, -2.76259630918502807617e-01) (97, -1.95570483803749084473e-01) (98, 2.95721322298049926758e-01) (99, 4.16705876588821411133e-01) (100, 4.87983852624893188477e-01) (101, 4.43291664123535156250e-01) (102, -2.58156925439834594727e-01) (103, 3.28468114137649536133e-01) (104, 3.41285616159439086914e-01) (105, 3.46585899591445922852e-01) (106, 3.85652005672454833984e-01) (107, 4.31405067443847656250e-01) (108, 4.57267671823501586914e-01) (109, -2.28531643748283386230e-01) (110, 2.89751172065734863281e-01) (111, 3.95445793867111206055e-01) (112, 4.62169021368026733398e-01) (113, -1.74673363566398620605e-01) (114, 3.62069606781005859375e-01) (115, -2.79046058654785156250e-01) (116, 3.62091660499572753906e-01) (117, 4.06614124774932861328e-01) (118, 4.54228937625885009766e-01) (119, -2.74241477251052856445e-01) (120, -1.38617128133773803711e-01) (121, -1.48690819740295410156e-01) (122, -1.89450770616531372070e-01) (123, -1.59406810998916625977e-01) (124, -2.77772814035415649414e-01) (125, 3.63822221755981445312e-01) (126, -1.62220820784568786621e-01) (127, -2.81533867120742797852e-01) (128, 4.42669540643692016602e-01) (129, 4.34723138809204101562e-01) (130, -1.48182228207588195801e-01) (131, -1.26056790351867675781e-01) (132, -1.91737666726112365723e-01) (133, -1.13271877169609069824e-01) (134, -2.81390875577926635742e-01) (135, -1.34768187999725341797e-01) (136, -2.42973640561103820801e-01) (137, -1.66930630803108215332e-01) (138, -1.77841186523437500000e-01) (139, -2.67318934202194213867e-01) (140, -1.21042124927043914795e-01) (141, -1.83493360877037048340e-01) (142, 4.12934720516204833984e-01) (143, 4.23943102359771728516e-01) (144, -2.70155161619186401367e-01) (145, -8.78447443246841430664e-02) (146, -1.34366005659103393555e-01) (147, -1.86761096119880676270e-01) (148, -1.79076135158538818359e-01) (149, 3.94343763589859008789e-01) (150, 4.00149762630462646484e-01) (151, 3.54569405317306518555e-01) (152, 3.32351326942443847656e-01) (153, 3.00524204969406127930e-01) (154, 4.71690982580184936523e-01) (155, 3.40429097414016723633e-01) (156, 3.59186291694641113281e-01) (157, 3.98519963026046752930e-01) (158, 3.40578347444534301758e-01) (159, 3.18488866090774536133e-01) (160, 3.33818852901458740234e-01) (161, 2.85368382930755615234e-01) (162, -8.12919512391090393066e-02) (163, -1.45247831940650939941e-01) (164, -1.09328255057334899902e-01) (165, 2.90265887975692749023e-01) (166, -2.02099144458770751953e-01) (167, 2.99176841974258422852e-01) (168, 3.95296275615692138672e-01) (169, 5.33036649227142333984e-01) (170, 3.05443167686462402344e-01) (171, -1.95383861660957336426e-01) (172, 3.84124040603637695312e-01) (173, 4.29306656122207641602e-01) (174, -2.53012955188751220703e-01) (175, -1.69074654579162597656e-01) (176, 4.12526071071624755859e-01) (177, 4.58809971809387207031e-01) (178, -2.76627033948898315430e-01) (179, -2.41682142019271850586e-01) (180, -1.91564962267875671387e-01) (181, -1.60802200436592102051e-01) (182, -1.75805285573005676270e-01) (183, -1.56377166509628295898e-01) (184, -1.45153686404228210449e-01) (185, 3.84007215499877929688e-01) (186, -9.93883311748504638672e-02) (187, -2.73963302373886108398e-01) (188, -2.65790730714797973633e-01) (189, -2.39709496498107910156e-01) (190, 3.23034226894378662109e-01) (191, 3.46876323223114013672e-01) (192, 3.26371371746063232422e-01) (193, 3.31296473741531372070e-01) (194, 2.88613855838775634766e-01) (195, 3.57373684644699096680e-01) (196, -2.36739203333854675293e-01) (197, -1.87313154339790344238e-01) (198, -2.53374040126800537109e-01) (199, -1.04251638054847717285e-01) (200, -2.05383032560348510742e-01) (201, -2.21719264984130859375e-01) (202, -2.34027147293090820312e-01) (203, -1.17210514843463897705e-01) (204, -2.83126026391983032227e-01) (205, -2.13496133685111999512e-01) (206, 3.64627569913864135742e-01) (207, 4.31243866682052612305e-01) (208, 3.29146385192871093750e-01) (209, 3.71500104665756225586e-01) (210, 4.70906734466552734375e-01) (211, 4.19491797685623168945e-01) (212, 2.93194204568862915039e-01) (213, 3.79132181406021118164e-01) (214, 3.50714445114135742188e-01) (215, 4.33694392442703247070e-01) (216, 4.77612286806106567383e-01) (217, 3.50469827651977539062e-01) (218, 4.44841742515563964844e-01) (219, -2.81610727310180664062e-01) (220, -1.82072967290878295898e-01) (221, 3.04644465446472167969e-01) (222, 3.50757807493209838867e-01) (223, -1.19577616453170776367e-01) (224, 3.53204697370529174805e-01) (225, 3.56525868177413940430e-01) (226, 4.57148760557174682617e-01) (227, -1.64492502808570861816e-01) (228, 4.53432023525238037109e-01) (229, -2.66411095857620239258e-01) (230, -1.88303321599960327148e-01) (231, -2.43939965963363647461e-01) (232, -2.22566425800323486328e-01) (233, -1.63151741027832031250e-01) (234, 3.02498251199722290039e-01) (235, 3.52856576442718505859e-01) (236, 2.97710597515106201172e-01) (237, -1.90593868494033813477e-01) (238, -2.79564023017883300781e-01) (239, 3.60250502824783325195e-01) (240, -9.76186916232109069824e-02) (241, 4.79798287153244018555e-01) (242, -9.43945348262786865234e-02) (243, -9.78937819600105285645e-02) (244, -1.92810028791427612305e-01) (245, -2.15245202183723449707e-01) (246, -1.47369489073753356934e-01) (247, -2.03713059425354003906e-01) (248, -1.53815835714340209961e-01) (249, 3.94697040319442749023e-01) (250, 3.88920962810516357422e-01) (251, 3.20930033922195434570e-01) (252, 4.11749929189682006836e-01) (253, 4.77773100137710571289e-01) (254, 4.64137136936187744141e-01) (255, 4.73818421363830566406e-01) (256, 3.28265517950057983398e-01) (257, 4.36608046293258666992e-01) (258, 3.95910382270812988281e-01) (259, 2.97550469636917114258e-01) (260, 4.49033498764038085938e-01) (261, 2.87400305271148681641e-01) (262, 3.44631493091583251953e-01) (263, 3.20307701826095581055e-01) (264, 4.28000688552856445312e-01) (265, 3.58214497566223144531e-01) (266, 3.98251265287399291992e-01) (267, 4.34103995561599731445e-01) (268, 4.62335646152496337891e-01) (269, 4.00494933128356933594e-01) (270, 3.00817281007766723633e-01) (271, 4.40692663192749023438e-01) (272, 4.05881941318511962891e-01) (273, -2.74458467960357666016e-01) (274, -1.31522968411445617676e-01) (275, 3.01533877849578857422e-01) (276, 3.62674117088317871094e-01) (277, 3.67170155048370361328e-01) (278, 4.02123481035232543945e-01) (279, 2.82838344573974609375e-01) (280, 4.69431430101394653320e-01) (281, 2.98880547285079956055e-01) (282, 3.16092342138290405273e-01) (283, 3.92982721328735351562e-01) (284, 4.67340499162673950195e-01) (285, 2.93069005012512207031e-01) (286, 3.85794609785079956055e-01) (287, 3.22421938180923461914e-01) (288, -1.93035572767257690430e-01) (0, 1.50000000000000000000e+03) (1, -3.58676582574844360352e-01) (2, 4.98471736907958984375e-01) (3, -3.94144624471664428711e-01) (4, 4.71647620201110839844e-01) (5, -2.36148118972778320312e-01) (6, -2.59767025709152221680e-01) (7, 5.48677325248718261719e-01) (8, 4.47737723588943481445e-01) (9, -2.83323705196380615234e-01) (10, -2.39544019103050231934e-01) (11, 3.62943857908248901367e-01) (12, 4.96587157249450683594e-01) (13, 4.75753277540206909180e-01) (14, 4.82804477214813232422e-01) (15, -2.71502077579498291016e-01) (16, 4.26742196083068847656e-01) (17, -2.70060807466506958008e-01) (18, -3.64885151386260986328e-01) (19, 5.12434661388397216797e-01) (20, 4.14115905761718750000e-01) (21, 3.89333873987197875977e-01) (22, 5.01192033290863037109e-01) (23, 4.30683732032775878906e-01) (24, 4.13581848144531250000e-01) (25, -3.52565556764602661133e-01) (26, -3.55232328176498413086e-01) (27, 4.20565068721771240234e-01) (28, 5.07817685604095458984e-01) (29, -3.24368268251419067383e-01) (30, -3.68865936994552612305e-01) (31, 5.15478372573852539062e-01) (32, -2.48424246907234191895e-01) (33, -2.50099897384643554688e-01) (34, -2.33930379152297973633e-01) (35, 4.20869112014770507812e-01) (36, -2.50866860151290893555e-01) (37, -2.88250863552093505859e-01) (38, -3.47820013761520385742e-01) (39, -3.90006750822067260742e-01) (40, -3.76288414001464843750e-01) (41, 3.70902091264724731445e-01) (42, -3.85766178369522094727e-01) (43, 5.27976512908935546875e-01) (44, -2.83532679080963134766e-01) (45, -2.49196305871009826660e-01) (46, -2.83072113990783691406e-01) (47, 5.48395574092864990234e-01) (48, 4.50237423181533813477e-01) (49, 5.10289609432220458984e-01) (50, 4.97405469417572021484e-01) (51, 5.02038836479187011719e-01) (52, 5.24598896503448486328e-01) (53, 4.37145859003067016602e-01) (54, 3.67844432592391967773e-01) (55, 3.73329907655715942383e-01) (56, 4.87758815288543701172e-01) (57, 4.21920031309127807617e-01) (58, 4.33942347764968872070e-01) (59, 4.37898069620132446289e-01) (60, 5.17644584178924560547e-01) (61, 4.64773833751678466797e-01) (62, 3.95551741123199462891e-01) (63, 4.65703964233398437500e-01) (64, 4.33336317539215087891e-01) (65, -2.07999423146247863770e-01) (66, -1.85382187366485595703e-01) (67, 3.75241786241531372070e-01) (68, -2.99385577440261840820e-01) (69, -3.78249406814575195312e-01) (70, -3.73277306556701660156e-01) (71, 5.14038085937500000000e-01) (72, 3.88207554817199707031e-01) (73, -3.26124668121337890625e-01) (74, 4.79327976703643798828e-01) (75, -2.46953338384628295898e-01) (76, 3.77527773380279541016e-01) (77, 3.91716331243515014648e-01) (78, 5.02711474895477294922e-01) (79, 4.67692643404006958008e-01) (80, -2.44315713644027709961e-01) (81, -3.26745152473449707031e-01) (82, 4.03820097446441650391e-01) (83, 4.88159924745559692383e-01) (84, 5.29879868030548095703e-01) (85, -3.61605823040008544922e-01) (86, -2.75324821472167968750e-01) (87, 4.50586587190628051758e-01) (88, 4.74692702293395996094e-01) (89, 3.75100970268249511719e-01) (90, 5.22253930568695068359e-01) (91, 4.34222608804702758789e-01) (92, 4.82650309801101684570e-01) (93, -2.09929451346397399902e-01) (94, 5.40725946426391601562e-01) (95, 5.49252033233642578125e-01) (96, 5.48108756542205810547e-01) (97, 5.06699740886688232422e-01) (98, -4.08088773488998413086e-01) (99, -3.03913891315460205078e-01) (100, -2.73100972175598144531e-01) (101, -3.72623622417449951172e-01) (102, 4.25088852643966674805e-01) (103, -2.25636199116706848145e-01) (104, -2.83033072948455810547e-01) (105, -2.21113950014114379883e-01) (106, -2.63948172330856323242e-01) (107, -2.85239070653915405273e-01) (108, -3.94765436649322509766e-01) (109, 4.54620152711868286133e-01) (110, -3.85510146617889404297e-01) (111, -2.26349279284477233887e-01) (112, -2.24721923470497131348e-01) (113, 4.29481953382492065430e-01) (114, -2.74843156337738037109e-01) (115, 4.94231730699539184570e-01) (116, -2.98384249210357666016e-01) (117, -3.20524811744689941406e-01) (118, -3.64991456270217895508e-01) (119, 3.96507412195205688477e-01) (120, 4.26451474428176879883e-01) (121, 5.47622799873352050781e-01) (122, 4.69790637493133544922e-01) (123, 5.45729279518127441406e-01) (124, 5.41433036327362060547e-01) (125, -3.14646393060684204102e-01) (126, 5.35415649414062500000e-01) (127, 5.30855238437652587891e-01) (128, -3.66201579570770263672e-01) (129, -2.11737260222434997559e-01) (130, 4.41194772720336914062e-01) (131, 5.60326695442199707031e-01) (132, 3.73960554599761962891e-01) (133, 5.08043348789215087891e-01) (134, 5.50090253353118896484e-01) (135, 4.81898337602615356445e-01) (136, 4.98330414295196533203e-01) (137, 5.01695334911346435547e-01) (138, 4.02806818485260009766e-01) (139, 5.16780436038970947266e-01) (140, 3.91066074371337890625e-01) (141, 4.23137664794921875000e-01) (142, -2.59882271289825439453e-01) (143, -4.06571537256240844727e-01) (144, 4.93215233087539672852e-01) (145, 4.14375633001327514648e-01) (146, 5.00401496887207031250e-01) (147, 4.14829522371292114258e-01) (148, 4.60341066122055053711e-01) (149, -2.68446952104568481445e-01) (150, -3.13621491193771362305e-01) (151, -2.22083076834678649902e-01) (152, -2.58273720741271972656e-01) (153, -3.96714925765991210938e-01) (154, -2.56632655858993530273e-01) (155, -2.66929149627685546875e-01) (156, -3.25983405113220214844e-01) (157, -2.76300430297851562500e-01) (158, -3.11374396085739135742e-01) (159, -2.81179755926132202148e-01) (160, -2.99852102994918823242e-01) (161, -2.18933254480361938477e-01) (162, 4.88708585500717163086e-01) (163, 4.75862354040145874023e-01) (164, 4.92356061935424804688e-01) (165, -2.87777900695800781250e-01) (166, 3.93298864364624023438e-01) (167, -3.31077843904495239258e-01) (168, -3.69123756885528564453e-01) (169, 4.18779194355010986328e-01) (170, -3.88178229331970214844e-01) (171, 4.47654962539672851562e-01) (172, -2.52957910299301147461e-01) (173, -2.55698889493942260742e-01) (174, 4.43757086992263793945e-01) (175, 4.31589782238006591797e-01) (176, -4.00034099817276000977e-01) (177, -3.81029099225997924805e-01) (178, 4.83692049980163574219e-01) (179, 4.68171507120132446289e-01) (180, 5.56234419345855712891e-01) (181, 3.74742776155471801758e-01) (182, 4.36532706022262573242e-01) (183, 5.00201582908630371094e-01) (184, 3.76216351985931396484e-01) (185, -3.77309054136276245117e-01) (186, 4.31523799896240234375e-01) (187, 4.62349623441696166992e-01) (188, 5.20187914371490478516e-01) (189, 5.31718194484710693359e-01) (190, -3.56451094150543212891e-01) (191, -3.41007411479949951172e-01) (192, -2.63554751873016357422e-01) (193, -2.60366976261138916016e-01) (194, -2.30769753456115722656e-01) (195, -3.10099631547927856445e-01) (196, 4.26456838846206665039e-01) (197, 3.72390568256378173828e-01) (198, 5.09127080440521240234e-01) (199, 4.85986053943634033203e-01) (200, 4.43054527044296264648e-01) (201, 5.31471073627471923828e-01) (202, 3.64084720611572265625e-01) (203, 3.76662820577621459961e-01) (204, 4.83729422092437744141e-01) (205, 4.50863778591156005859e-01) (206, -3.18340331315994262695e-01) (207, -2.63782858848571777344e-01) (208, -2.95444041490554809570e-01) (209, -4.03685420751571655273e-01) (210, -3.75117272138595581055e-01) (211, -2.91828423738479614258e-01) (212, -3.90184611082077026367e-01) (213, -2.99917727708816528320e-01) (214, -3.62334609031677246094e-01) (215, -3.63884687423706054688e-01) (216, -2.74979799985885620117e-01) (217, -2.67489254474639892578e-01) (218, -2.76936650276184082031e-01) (219, 4.54963386058807373047e-01) (220, 4.54703539609909057617e-01) (221, -2.35683590173721313477e-01) (222, -2.60741800069808959961e-01) (223, 4.06225502490997314453e-01) (224, -2.81537711620330810547e-01) (225, -2.82334387302398681641e-01) (226, -2.84072279930114746094e-01) (227, 5.45586168766021728516e-01) (228, -2.58850604295730590820e-01) (229, 4.45623219013214111328e-01) (230, 4.67665106058120727539e-01) (231, 3.78537684679031372070e-01) (232, 4.07748103141784667969e-01) (233, 4.74899321794509887695e-01) (234, -3.66778701543807983398e-01) (235, -2.41914257407188415527e-01) (236, -2.10606426000595092773e-01) (237, 4.81066435575485229492e-01) (238, 4.58886623382568359375e-01) (239, -3.12513679265975952148e-01) (240, 4.89685505628585815430e-01) (241, -2.77881354093551635742e-01) (242, 3.84009450674057006836e-01) (243, 5.04784047603607177734e-01) (244, 4.06978875398635864258e-01) (245, 4.40124422311782836914e-01) (246, 5.39415657520294189453e-01) (247, 5.44256687164306640625e-01) (248, 5.55697083473205566406e-01) (249, -2.76363402605056762695e-01) (250, -3.24532449245452880859e-01) (251, -3.09505641460418701172e-01) (252, -3.13614398241043090820e-01) (253, -4.32405412197113037109e-01) (254, -2.70377129316329956055e-01) (255, -2.04316556453704833984e-01) (256, -2.50322699546813964844e-01) (257, -3.08130532503128051758e-01) (258, -2.23339959979057312012e-01) (259, -3.04670423269271850586e-01) (260, -2.64911919832229614258e-01) (261, -3.06384444236755371094e-01) (262, -2.79973596334457397461e-01) (263, -3.94076794385910034180e-01) (264, -2.15591266751289367676e-01) (265, -2.53088533878326416016e-01) (266, -2.19485163688659667969e-01) (267, -2.34575584530830383301e-01) (268, -3.13958853483200073242e-01) (269, -3.34186494350433349609e-01) (270, -3.10833454132080078125e-01) (271, -3.91873240470886230469e-01) (272, -3.93083721399307250977e-01) (273, 4.87033128738403320312e-01) (274, 5.14694035053253173828e-01) (275, -3.48959684371948242188e-01) (276, -3.90602171421051025391e-01) (277, -2.90346294641494750977e-01) (278, -3.46648514270782470703e-01) (279, -4.09067869186401367188e-01) (280, -3.74461382627487182617e-01) (281, -2.80086100101470947266e-01) (282, -2.97364294528961181641e-01) (283, -2.88808763027191162109e-01) (284, -2.51230955123901367188e-01) (285, -3.63452762365341186523e-01) (286, -2.76046156883239746094e-01) (287, -2.71342903375625610352e-01) (288, 4.14862871170043945312e-01) (0, 1.50000000000000000000e+03) (1, 3.21805417537689208984e-01) (2, -2.21438631415367126465e-01) (3, 4.69417244195938110352e-01) (4, -1.27122566103935241699e-01) (5, 3.50023537874221801758e-01) (6, 4.57947999238967895508e-01) (7, -1.66734591126441955566e-01) (8, -2.35270842909812927246e-01) (9, 4.53847348690032958984e-01) (10, 2.88982659578323364258e-01) (11, -1.73131406307220458984e-01) (12, -2.07769051194190979004e-01) (13, -2.80639976263046264648e-01) (14, -1.59573391079902648926e-01) (15, 4.74871605634689331055e-01) (16, -1.19888916611671447754e-01) (17, 4.68869566917419433594e-01) (18, 4.90369915962219238281e-01) (19, -1.92966282367706298828e-01) (20, -2.47210755944252014160e-01) (21, -2.75964856147766113281e-01) (22, -1.52325391769409179688e-01) (23, -1.16974383592605590820e-01) (24, -1.89951762557029724121e-01) (25, 3.41601610183715820312e-01) (26, 4.12735760211944580078e-01) (27, -1.59119337797164916992e-01) (28, -1.13346993923187255859e-01) (29, 3.46313774585723876953e-01) (30, 3.27398926019668579102e-01) (31, -2.16211929917335510254e-01) (32, 3.92538964748382568359e-01) (33, 3.86049956083297729492e-01) (34, 3.46364319324493408203e-01) (35, -2.18460604548454284668e-01) (36, 4.64837163686752319336e-01) (37, 3.16798716783523559570e-01) (38, 4.78104919195175170898e-01) (39, 2.95707970857620239258e-01) (40, 2.83307701349258422852e-01) (41, -9.44846868515014648438e-02) (42, 4.14473384618759155273e-01) (43, -2.12963134050369262695e-01) (44, 2.85988152027130126953e-01) (45, 3.48305702209472656250e-01) (46, 3.54525208473205566406e-01) (47, -1.28431111574172973633e-01) (48, -2.40693762898445129395e-01) (49, -2.11378321051597595215e-01) (50, -2.40979701280593872070e-01) (51, -2.06444457173347473145e-01) (52, -2.11271539330482482910e-01) (53, -1.08761973679065704346e-01) (54, -2.43639335036277770996e-01) (55, -1.25446617603302001953e-01) (56, -2.50248908996582031250e-01) (57, -1.18315376341342926025e-01) (58, -1.96030706167221069336e-01) (59, -2.70625442266464233398e-01) (60, -2.52920657396316528320e-01) (61, -1.49518206715583801270e-01) (62, -1.91415533423423767090e-01) (63, -1.45716562867164611816e-01) (64, -2.38694503903388977051e-01) (65, 4.28917527198791503906e-01) (66, 2.76510328054428100586e-01) (67, -2.64199256896972656250e-01) (68, 4.58890676498413085938e-01) (69, 2.92023658752441406250e-01) (70, 3.15173208713531494141e-01) (71, -1.10008209943771362305e-01) (72, -9.08728018403053283691e-02) (73, 4.56856578588485717773e-01) (74, -2.39942312240600585938e-01) (75, 2.87004858255386352539e-01) (76, -2.58645653724670410156e-01) (77, -1.73942118883132934570e-01) (78, -1.27895846962928771973e-01) (79, -2.09875583648681640625e-01) (80, 4.60604369640350341797e-01) (81, 2.94284373521804809570e-01) (82, -1.40165016055107116699e-01) (83, -2.41605982184410095215e-01) (84, -7.45534673333168029785e-02) (85, 4.74492132663726806641e-01) (86, 2.85515546798706054688e-01) (87, -2.53878504037857055664e-01) (88, -1.23167142271995544434e-01) (89, -1.87251135706901550293e-01) (90, -2.49940559267997741699e-01) (91, -8.65212753415107727051e-02) (92, -2.43252709507942199707e-01) (93, 4.08690452575683593750e-01) (94, -1.44310951232910156250e-01) (95, -2.10358053445816040039e-01) (96, -2.11117893457412719727e-01) (97, -1.34830728173255920410e-01) (98, 3.77103060483932495117e-01) (99, 3.27075332403182983398e-01) (100, 4.37130212783813476562e-01) (101, 4.08704876899719238281e-01) (102, -2.63091653585433959961e-01) (103, 4.33731913566589355469e-01) (104, 3.83805423974990844727e-01) (105, 3.61640185117721557617e-01) (106, 4.35322433710098266602e-01) (107, 3.93098711967468261719e-01) (108, 4.73545759916305541992e-01) (109, -1.64064303040504455566e-01) (110, 4.71728801727294921875e-01) (111, 4.52207952737808227539e-01) (112, 4.11559581756591796875e-01) (113, -1.50602504611015319824e-01) (114, 3.10679733753204345703e-01) (115, -1.71236589550971984863e-01) (116, 4.08271253108978271484e-01) (117, 3.03033769130706787109e-01) (118, 4.42489504814147949219e-01) (119, -1.96697279810905456543e-01) (120, -1.71514838933944702148e-01) (121, -9.96776744723320007324e-02) (122, -1.98211282491683959961e-01) (123, -1.33863300085067749023e-01) (124, -1.74613639712333679199e-01) (125, 3.28098535537719726562e-01) (126, -2.54368811845779418945e-01) (127, -1.13233111798763275146e-01) (128, 4.68108683824539184570e-01) (129, 4.23553943634033203125e-01) (130, -2.69512325525283813477e-01) (131, -1.45209565758705139160e-01) (132, -2.37090423703193664551e-01) (133, -2.39536479115486145020e-01) (134, -1.96338474750518798828e-01) (135, -1.37601137161254882812e-01) (136, -1.54183983802795410156e-01) (137, -2.32122689485549926758e-01) (138, -2.18980461359024047852e-01) (139, -1.62251085042953491211e-01) (140, -1.22086025774478912354e-01) (141, -2.42654949426651000977e-01) (142, 3.74248325824737548828e-01) (143, 3.72590214014053344727e-01) (144, -1.05245843529701232910e-01) (145, -1.77404567599296569824e-01) (146, -2.78530180454254150391e-01) (147, -1.75672248005867004395e-01) (148, -1.72216355800628662109e-01) (149, 4.38760310411453247070e-01) (150, 2.88782536983489990234e-01) (151, 3.29522430896759033203e-01) (152, 4.26100313663482666016e-01) (153, 3.80396515130996704102e-01) (154, 4.70914721488952636719e-01) (155, 3.37018042802810668945e-01) (156, 4.03334915637969970703e-01) (157, 3.04516345262527465820e-01) (158, 3.05467933416366577148e-01) (159, 3.87653619050979614258e-01) (160, 4.30410861968994140625e-01) (161, 3.28928053379058837891e-01) (162, -2.31279864907264709473e-01) (163, -9.40086916089057922363e-02) (164, -1.92033141851425170898e-01) (165, 4.25618022680282592773e-01) (166, -1.53692871332168579102e-01) (167, 3.05261462926864624023e-01) (168, 4.65137183666229248047e-01) (169, -1.26282602548599243164e-01) (170, 4.17457967996597290039e-01) (171, -1.26586884260177612305e-01) (172, 3.32822561264038085938e-01) (173, 3.02288860082626342773e-01) (174, -2.35869154334068298340e-01) (175, -2.56060302257537841797e-01) (176, 3.95451605319976806641e-01) (177, 3.32109630107879638672e-01) (178, -1.52523338794708251953e-01) (179, -2.51870810985565185547e-01) (180, -2.73848950862884521484e-01) (181, -1.48065969347953796387e-01) (182, -2.11933150887489318848e-01) (183, -1.44898906350135803223e-01) (184, -2.52545207738876342773e-01) (185, 3.47756922245025634766e-01) (186, -9.16532874107360839844e-02) (187, -1.37205958366394042969e-01) (188, -1.94682806730270385742e-01) (189, -2.67488300800323486328e-01) (190, 3.28725814819335937500e-01) (191, 3.12038302421569824219e-01) (192, 3.42555701732635498047e-01) (193, 3.86139214038848876953e-01) (194, 3.07153522968292236328e-01) (195, 4.90852922201156616211e-01) (196, -2.45453253388404846191e-01) (197, -1.19968235492706298828e-01) (198, -1.13810151815414428711e-01) (199, -2.43124574422836303711e-01) (200, -1.30770981311798095703e-01) (201, -1.70717000961303710938e-01) (202, -1.04103356599807739258e-01) (203, -9.44930687546730041504e-02) (204, -1.59427344799041748047e-01) (205, -2.66428679227828979492e-01) (206, 3.01006317138671875000e-01) (207, 3.38364630937576293945e-01) (208, 3.49513828754425048828e-01) (209, 4.32589083909988403320e-01) (210, 3.68309617042541503906e-01) (211, 3.57575505971908569336e-01) (212, 3.65766078233718872070e-01) (213, 4.40779119729995727539e-01) (214, 3.00226062536239624023e-01) (215, 3.98874819278717041016e-01) (216, 3.03323060274124145508e-01) (217, 3.07434678077697753906e-01) (218, 3.46779406070709228516e-01) (219, -1.85106247663497924805e-01) (220, -2.52483874559402465820e-01) (221, 4.12504136562347412109e-01) (222, 4.14961606264114379883e-01) (223, -1.73803687095642089844e-01) (224, 3.16998153924942016602e-01) (225, 4.39668446779251098633e-01) (226, 3.36677879095077514648e-01) (227, -2.09413066506385803223e-01) (228, 4.04201596975326538086e-01) (229, -2.47594088315963745117e-01) (230, -1.72096997499465942383e-01) (231, -2.18840166926383972168e-01) (232, -1.53033405542373657227e-01) (233, -2.17021465301513671875e-01) (234, 3.50315541028976440430e-01) (235, 3.46088111400604248047e-01) (236, 3.90908539295196533203e-01) (237, -2.07044571638107299805e-01) (238, -1.79525852203369140625e-01) (239, 4.73078936338424682617e-01) (240, -2.54233866930007934570e-01) (241, 4.77553457021713256836e-01) (242, -2.42745429277420043945e-01) (243, -1.81936979293823242188e-01) (244, -1.33407920598983764648e-01) (245, -2.14366421103477478027e-01) (246, -2.66232371330261230469e-01) (247, -1.19228638708591461182e-01) (248, -1.95972174406051635742e-01) (249, 3.77771824598312377930e-01) (250, 3.70223999023437500000e-01) (251, 4.08363193273544311523e-01) (252, 3.02036195993423461914e-01) (253, 3.22191447019577026367e-01) (254, 2.95580476522445678711e-01) (255, 3.28114181756973266602e-01) (256, 4.57191139459609985352e-01) (257, 3.49067956209182739258e-01) (258, 4.05220925807952880859e-01) (259, 3.76687675714492797852e-01) (260, 3.80310237407684326172e-01) (261, 3.13413918018341064453e-01) (262, 4.48868513107299804688e-01) (263, 3.21117550134658813477e-01) (264, 4.00144577026367187500e-01) (265, 3.10928702354431152344e-01) (266, 3.91972571611404418945e-01) (267, 2.95122236013412475586e-01) (268, 3.97663176059722900391e-01) (269, 2.92535722255706787109e-01) (270, 4.79724377393722534180e-01) (271, 4.19681072235107421875e-01) (272, 2.97742903232574462891e-01) (273, -2.43902280926704406738e-01) (274, -2.36909955739974975586e-01) (275, 4.53620612621307373047e-01) (276, 3.96046519279479980469e-01) (277, 3.43612939119338989258e-01) (278, 4.38473463058471679688e-01) (279, 4.72983330488204956055e-01) (280, 4.29058879613876342773e-01) (281, 3.16533595323562622070e-01) (282, 3.93737405538558959961e-01) (283, 4.42337393760681152344e-01) (284, 3.28480869531631469727e-01) (285, 4.02987420558929443359e-01) (286, 2.86926805973052978516e-01) (287, 3.14231425523757934570e-01) (288, -1.70657336711883544922e-01) (0, 1.50000000000000000000e+03) (1, -2.87729918956756591797e-01) (2, 4.52126741409301757812e-01) (3, -2.53504335880279541016e-01) (4, 4.46831226348876953125e-01) (5, -2.82196462154388427734e-01) (6, -3.45991760492324829102e-01) (7, 4.75914746522903442383e-01) (8, 3.95831048488616943359e-01) (9, -3.05197715759277343750e-01) (10, -3.77017140388488769531e-01) (11, 4.05843883752822875977e-01) (12, 4.53620254993438720703e-01) (13, 5.17583847045898437500e-01) (14, 4.17853415012359619141e-01) (15, -2.83912926912307739258e-01) (16, 5.63517749309539794922e-01) (17, -3.83460640907287597656e-01) (18, -3.45573186874389648438e-01) (19, 4.25291270017623901367e-01) (20, 5.37872791290283203125e-01) (21, 3.97636264562606811523e-01) (22, 3.73205751180648803711e-01) (23, 3.71574938297271728516e-01) (24, 4.98595833778381347656e-01) (25, -2.30459630489349365234e-01) (26, -3.51238787174224853516e-01) (27, 4.20309424400329589844e-01) (28, 5.34742772579193115234e-01) (29, -3.28795641660690307617e-01) (30, -3.51555377244949340820e-01) (31, 4.57029640674591064453e-01) (32, -3.81905108690261840820e-01) (33, -2.79134571552276611328e-01) (34, -3.52837681770324707031e-01) (35, 4.62572038173675537109e-01) (36, -3.25436621904373168945e-01) (37, -2.89432257413864135742e-01) (38, -3.78879338502883911133e-01) (39, -3.16070109605789184570e-01) (40, -4.03505325317382812500e-01) (41, 4.02684181928634643555e-01) (42, -2.68641591072082519531e-01) (43, 4.58111464977264404297e-01) (44, -4.09450352191925048828e-01) (45, -3.96782904863357543945e-01) (46, -3.65347653627395629883e-01) (47, 5.58782339096069335938e-01) (48, 3.88201296329498291016e-01) (49, 4.47037488222122192383e-01) (50, 4.19985711574554443359e-01) (51, 3.63474220037460327148e-01) (52, 4.69649583101272583008e-01) (53, 4.31960165500640869141e-01) (54, 3.69883507490158081055e-01) (55, 4.03394728899002075195e-01) (56, 4.05122876167297363281e-01) (57, 4.27722305059432983398e-01) (58, 4.58939462900161743164e-01) (59, 3.82187277078628540039e-01) (60, 5.19019424915313720703e-01) (61, 5.07081806659698486328e-01) (62, 4.81392741203308105469e-01) (63, 5.33598303794860839844e-01) (64, 4.46609556674957275391e-01) (65, -2.38471150398254394531e-01) (66, -2.74975538253784179688e-01) (67, 5.14265239238739013672e-01) (68, -3.19962322711944580078e-01) (69, -2.99279630184173583984e-01) (70, -3.60925048589706420898e-01) (71, 4.50149238109588623047e-01) (72, 4.98527407646179199219e-01) (73, -1.97477012872695922852e-01) (74, 5.46034812927246093750e-01) (75, -2.63021618127822875977e-01) (76, 5.58890700340270996094e-01) (77, 3.75687867403030395508e-01) (78, 4.96697872877120971680e-01) (79, 3.87226432561874389648e-01) (80, -3.23595970869064331055e-01) (81, -4.08424139022827148438e-01) (82, 3.85104179382324218750e-01) (83, 5.53930997848510742188e-01) (84, 4.42700594663619995117e-01) (85, -3.77053856849670410156e-01) (86, -3.77932220697402954102e-01) (87, 4.80025142431259155273e-01) (88, 4.63818073272705078125e-01) (89, 4.95703399181365966797e-01) (90, 4.96727555990219116211e-01) (91, 4.24390792846679687500e-01) (92, 4.45064872503280639648e-01) (93, -3.48829597234725952148e-01) (94, 3.99119853973388671875e-01) (95, 5.25665700435638427734e-01) (96, 3.84344279766082763672e-01) (97, 4.74690854549407958984e-01) (98, -2.92971402406692504883e-01) (99, -3.12556147575378417969e-01) (100, -3.87229353189468383789e-01) (101, -2.44865640997886657715e-01) (102, 5.52282512187957763672e-01) (103, -2.62410968542098999023e-01) (104, -2.25798338651657104492e-01) (105, -2.27673605084419250488e-01) (106, -3.23167413473129272461e-01) (107, -2.46641829609870910645e-01) (108, -2.17077150940895080566e-01) (109, 3.89719456434249877930e-01) (110, -2.26075574755668640137e-01) (111, -3.26084971427917480469e-01) (112, -3.72394174337387084961e-01) (113, 3.69211226701736450195e-01) (114, -3.10664296150207519531e-01) (115, 4.59714621305465698242e-01) (116, -3.32781463861465454102e-01) (117, -2.59725511074066162109e-01) (118, -3.69323521852493286133e-01) (119, 5.08686125278472900391e-01) (120, 4.07298713922500610352e-01) (121, 5.18168151378631591797e-01) (122, 3.72468769550323486328e-01) (123, 4.89716529846191406250e-01) (124, 3.71889889240264892578e-01) (125, -3.48549276590347290039e-01) (126, 4.55816328525543212891e-01) (127, 3.90169709920883178711e-01) (128, -2.34521284699440002441e-01) (129, -3.75930726528167724609e-01) (130, 4.91358339786529541016e-01) (131, 5.35920083522796630859e-01) (132, 5.37237703800201416016e-01) (133, 4.85675871372222900391e-01) (134, 4.82532083988189697266e-01) (135, 5.02179384231567382812e-01) (136, 4.69423234462738037109e-01) (137, 3.74918073415756225586e-01) (138, 4.61080402135848999023e-01) (139, 4.65817570686340332031e-01) (140, 3.99388611316680908203e-01) (141, 4.40690696239471435547e-01) (142, -2.11651682853698730469e-01) (143, -3.45587104558944702148e-01) (144, 4.50497537851333618164e-01) (145, 4.26000088453292846680e-01) (146, 5.26868700981140136719e-01) (147, 4.95483547449111938477e-01) (148, 5.31980395317077636719e-01) (149, -2.45559051632881164551e-01) (150, -3.22316020727157592773e-01) (151, -3.69597017765045166016e-01) (152, -2.65996247529983520508e-01) (153, -3.01197528839111328125e-01) (154, -2.60158628225326538086e-01) (155, -2.44194075465202331543e-01) (156, -2.69719928503036499023e-01) (157, -3.59198957681655883789e-01) (158, -2.28345945477485656738e-01) (159, -2.95852154493331909180e-01) (160, -3.47457915544509887695e-01) (161, -2.86758720874786376953e-01) (162, 4.49353426694869995117e-01) (163, 3.91532868146896362305e-01) (164, 4.01417315006256103516e-01) (165, -3.94414544105529785156e-01) (166, 5.29480636119842529297e-01) (167, -2.50051230192184448242e-01) (168, -4.02537226676940917969e-01) (169, 4.14068460464477539062e-01) (170, -3.57313692569732666016e-01) (171, 4.22563910484313964844e-01) (172, -2.40115374326705932617e-01) (173, -3.35460126399993896484e-01) (174, 4.79374378919601440430e-01) (175, 4.02117669582366943359e-01) (176, -3.10318022966384887695e-01) (177, -3.18668395280838012695e-01) (178, 5.34152150154113769531e-01) (179, 4.28605049848556518555e-01) (180, 4.40729826688766479492e-01) (181, 4.16889935731887817383e-01) (182, 4.49452549219131469727e-01) (183, 3.76974761486053466797e-01) (184, 5.14379858970642089844e-01) (185, -3.67063134908676147461e-01) (186, 5.31032800674438476562e-01) (187, 4.56776171922683715820e-01) (188, 4.46456283330917358398e-01) (189, 5.12767374515533447266e-01) (190, -3.73502254486083984375e-01) (191, -2.60124742984771728516e-01) (192, -3.49005877971649169922e-01) (193, -3.19221436977386474609e-01) (194, -2.35991686582565307617e-01) (195, -2.88008600473403930664e-01) (196, 4.60495263338088989258e-01) (197, 5.03278553485870361328e-01) (198, 4.11904603242874145508e-01) (199, 4.86611008644104003906e-01) (200, 3.68859261274337768555e-01) (201, 4.63973104953765869141e-01) (202, 5.39619147777557373047e-01) (203, 5.15310466289520263672e-01) (204, 4.93401825428009033203e-01) (205, 4.61959034204483032227e-01) (206, -2.08287939429283142090e-01) (207, -3.65995317697525024414e-01) (208, -2.19869986176490783691e-01) (209, -2.44453772902488708496e-01) (210, -3.16216856241226196289e-01) (211, -3.42602938413619995117e-01) (212, -3.88274878263473510742e-01) (213, -2.28097483515739440918e-01) (214, -3.27277004718780517578e-01) (215, -2.23517969250679016113e-01) (216, -3.93765687942504882812e-01) (217, -3.32949608564376831055e-01) (218, -3.42242568731307983398e-01) (219, 4.62446689605712890625e-01) (220, 3.70318800210952758789e-01) (221, -3.22590976953506469727e-01) (222, -3.74594986438751220703e-01) (223, 4.34594452381134033203e-01) (224, -2.26315259933471679688e-01) (225, -4.01853561401367187500e-01) (226, -2.33612254261970520020e-01) (227, 4.35484796762466430664e-01) (228, -2.47854143381118774414e-01) (229, 3.98424983024597167969e-01) (230, 5.57551324367523193359e-01) (231, 5.14843761920928955078e-01) (232, 4.93488311767578125000e-01) (233, 5.40319502353668212891e-01) (234, -2.91016161441802978516e-01) (235, -3.45006763935089111328e-01) (236, -3.32288265228271484375e-01) (237, 4.65286463499069213867e-01) (238, 4.52766060829162597656e-01) (239, -3.18503588438034057617e-01) (240, 4.33136790990829467773e-01) (241, -2.23784506320953369141e-01) (242, 4.92672264575958251953e-01) (243, 4.50438499450683593750e-01) (244, 5.32023549079895019531e-01) (245, 3.84101420640945434570e-01) (246, 4.25436586141586303711e-01) (247, 5.50070822238922119141e-01) (248, 4.34239774942398071289e-01) (249, -2.55548924207687377930e-01) (250, -3.10953110456466674805e-01) (251, -3.15347194671630859375e-01) (252, -3.79070162773132324219e-01) (253, -2.42669880390167236328e-01) (254, -2.48508185148239135742e-01) (255, -2.13371962308883666992e-01) (256, -2.70397812128067016602e-01) (257, -2.76291877031326293945e-01) (258, -3.42026501893997192383e-01) (259, -3.13434600830078125000e-01) (260, -2.38398671150207519531e-01) (261, -3.36377769708633422852e-01) (262, -3.51780652999877929688e-01) (263, -2.81171441078186035156e-01) (264, -3.82572531700134277344e-01) (265, -2.49917626380920410156e-01) (266, -2.11704298853874206543e-01) (267, -3.19645345211029052734e-01) (268, -3.26568126678466796875e-01) (269, -3.29480618238449096680e-01) (270, -2.49111399054527282715e-01) (271, -2.61501580476760864258e-01) (272, -3.39046686887741088867e-01) (273, 4.58585262298583984375e-01) (274, 3.91190439462661743164e-01) (275, -4.35176372528076171875e-01) (276, -2.76529222726821899414e-01) (277, -3.26157659292221069336e-01) (278, -3.61832261085510253906e-01) (279, -2.15309888124465942383e-01) (280, -3.91359061002731323242e-01) (281, -2.81496763229370117188e-01) (282, -3.06084334850311279297e-01) (283, -3.32321405410766601562e-01) (284, -3.33920240402221679688e-01) (285, -3.51042568683624267578e-01) (286, -3.65469813346862792969e-01) (287, -3.93058180809020996094e-01) (288, 4.98608142137527465820e-01) (0, 1.50000000000000000000e+03) (1, -3.03347766399383544922e-01) (2, 5.35234451293945312500e-01) (3, -2.61846572160720825195e-01) (4, 5.18189311027526855469e-01) (5, -3.22092473506927490234e-01) (6, -2.42847725749015808105e-01) (7, 4.81150120496749877930e-01) (8, 4.35851544141769409180e-01) (9, -3.24828922748565673828e-01) (10, -2.12540999054908752441e-01) (11, 5.07282435894012451172e-01) (12, 4.02364015579223632812e-01) (13, 4.85406905412673950195e-01) (14, 3.72786998748779296875e-01) (15, -2.81215220689773559570e-01) (16, 5.16720950603485107422e-01) (17, -3.59723687171936035156e-01) (18, -3.34138691425323486328e-01) (19, 4.07296150922775268555e-01) (20, 4.43452060222625732422e-01) (21, 4.15721148252487182617e-01) (22, 4.33412283658981323242e-01) (23, 3.71965587139129638672e-01) (24, 4.95404422283172607422e-01) (25, -2.88739114999771118164e-01) (26, -3.38889479637145996094e-01) (27, 5.44979333877563476562e-01) (28, 5.01880884170532226562e-01) (29, -3.34199994802474975586e-01) (30, -2.23680615425109863281e-01) (31, 3.90048325061798095703e-01) (32, -2.02607974410057067871e-01) (33, -2.67788112163543701172e-01) (34, -2.26591348648071289062e-01) (35, 5.12908160686492919922e-01) (36, -3.54351133108139038086e-01) (37, -2.63719022274017333984e-01) (38, -3.23308140039443969727e-01) (39, -3.06171506643295288086e-01) (40, -3.94238620996475219727e-01) (41, 4.22887474298477172852e-01) (42, -3.57029050588607788086e-01) (43, 4.15577054023742675781e-01) (44, -2.21547991037368774414e-01) (45, -3.30246448516845703125e-01) (46, -2.05089375376701354980e-01) (47, 5.00011861324310302734e-01) (48, 4.79002714157104492188e-01) (49, 4.08795386552810668945e-01) (50, 5.43884932994842529297e-01) (51, 5.60662031173706054688e-01) (52, 4.59375590085983276367e-01) (53, 4.15845662355422973633e-01) (54, 3.67461591958999633789e-01) (55, 3.89929383993148803711e-01) (56, 5.30285596847534179688e-01) (57, 4.37937706708908081055e-01) (58, 3.69630306959152221680e-01) (59, 4.74487692117691040039e-01) (60, 5.23542523384094238281e-01) (61, 5.46442449092864990234e-01) (62, 5.06712019443511962891e-01) (63, 5.17099201679229736328e-01) (64, 4.96669799089431762695e-01) (65, -2.89212584495544433594e-01) (66, -2.42946818470954895020e-01) (67, 5.35091757774353027344e-01) (68, -3.41157644987106323242e-01) (69, -2.10303530097007751465e-01) (70, -3.29086214303970336914e-01) (71, 4.38429474830627441406e-01) (72, 4.08138513565063476562e-01) (73, -2.53507405519485473633e-01) (74, 4.91076171398162841797e-01) (75, -3.65383416414260864258e-01) (76, 3.69924426078796386719e-01) (77, 4.81107681989669799805e-01) (78, 5.35898387432098388672e-01) (79, 4.89376515150070190430e-01) (80, -2.46534779667854309082e-01) (81, -2.47078821063041687012e-01) (82, 4.84127283096313476562e-01) (83, 4.20717686414718627930e-01) (84, 3.87842208147048950195e-01) (85, -2.81367123126983642578e-01) (86, -3.26167553663253784180e-01) (87, 5.51009118556976318359e-01) (88, 3.70634615421295166016e-01) (89, 4.60229039192199707031e-01) (90, 4.59735065698623657227e-01) (91, 5.35442829132080078125e-01) (92, 4.49395090341567993164e-01) (93, -3.60502988100051879883e-01) (94, 4.93672430515289306641e-01) (95, 3.79329741001129150391e-01) (96, 5.23770868778228759766e-01) (97, 4.03080105781555175781e-01) (98, -2.17930465936660766602e-01) (99, -3.94142806529998779297e-01) (100, -3.69432121515274047852e-01) (101, -3.38216960430145263672e-01) (102, 4.59521025419235229492e-01) (103, -3.33962887525558471680e-01) (104, -3.74265372753143310547e-01) (105, -3.75202983617782592773e-01) (106, -2.98120826482772827148e-01) (107, -3.84230643510818481445e-01) (108, -2.59462982416152954102e-01) (109, 4.53634291887283325195e-01) (110, -2.62587189674377441406e-01) (111, -2.94050961732864379883e-01) (112, -3.45811605453491210938e-01) (113, 4.31722909212112426758e-01) (114, -2.10032358765602111816e-01) (115, 4.31277722120285034180e-01) (116, -4.16218936443328857422e-01) (117, -3.05726319551467895508e-01) (118, -3.27053278684616088867e-01) (119, 3.74326676130294799805e-01) (120, 5.26608943939208984375e-01) (121, 5.23445904254913330078e-01) (122, 5.49162447452545166016e-01) (123, 4.12630379199981689453e-01) (124, 3.65494310855865478516e-01) (125, -2.82328188419342041016e-01) (126, 4.32394802570343017578e-01) (127, 5.22345960140228271484e-01) (128, -2.37946435809135437012e-01) (129, -3.24829995632171630859e-01) (130, 5.42456984519958496094e-01) (131, 5.53352177143096923828e-01) (132, 4.95274841785430908203e-01) (133, 4.43467736244201660156e-01) (134, 4.27372694015502929688e-01) (135, 5.11066436767578125000e-01) (136, 4.79666441679000854492e-01) (137, 5.44805645942687988281e-01) (138, 5.31911969184875488281e-01) (139, 4.33418571949005126953e-01) (140, 4.33634579181671142578e-01) (141, 4.74489033222198486328e-01) (142, -2.10160106420516967773e-01) (143, -2.85766929388046264648e-01) (144, 5.46808302402496337891e-01) (145, 5.29739320278167724609e-01) (146, 5.58251976966857910156e-01) (147, 5.50906896591186523438e-01) (148, 3.90502721071243286133e-01) (149, -3.45728099346160888672e-01) (150, -4.00514990091323852539e-01) (151, -1.91764488816261291504e-01) (152, -3.87064933776855468750e-01) (153, -2.03805059194564819336e-01) (154, -3.59412342309951782227e-01) (155, -3.70848655700683593750e-01) (156, -3.01005005836486816406e-01) (157, -2.82100319862365722656e-01) (158, -2.25637570023536682129e-01) (159, -3.27214270830154418945e-01) (160, -2.19025984406471252441e-01) (161, -2.30909913778305053711e-01) (162, 4.35699552297592163086e-01) (163, 4.78284209966659545898e-01) (164, 4.15804207324981689453e-01) (165, -2.63227880001068115234e-01) (166, 4.24888253211975097656e-01) (167, -2.26424291729927062988e-01) (168, -2.98523157835006713867e-01) (169, 3.79786074161529541016e-01) (170, -3.66467416286468505859e-01) (171, 5.57163715362548828125e-01) (172, -2.40599423646926879883e-01) (173, -3.42279851436614990234e-01) (174, 4.73794311285018920898e-01) (175, 4.98622983694076538086e-01) (176, -2.14236184954643249512e-01) (177, -2.92996108531951904297e-01) (178, 4.85400378704071044922e-01) (179, 3.83304715156555175781e-01) (180, 5.40187180042266845703e-01) (181, 4.89203006029129028320e-01) (182, 3.83521050214767456055e-01) (183, 5.55363297462463378906e-01) (184, 4.84449803829193115234e-01) (185, -3.32824349403381347656e-01) (186, 3.81955921649932861328e-01) (187, 3.95849376916885375977e-01) (188, 5.58596611022949218750e-01) (189, 3.68911087512969970703e-01) (190, -2.68985867500305175781e-01) (191, -2.22066760063171386719e-01) (192, -2.38776892423629760742e-01) (193, -2.25910440087318420410e-01) (194, -2.77383327484130859375e-01) (195, -3.61434489488601684570e-01) (196, 4.85187023878097534180e-01) (197, 5.25918781757354736328e-01) (198, 3.62576097249984741211e-01) (199, 4.12100493907928466797e-01) (200, 5.57589769363403320312e-01) (201, 4.06342923641204833984e-01) (202, 4.00151908397674560547e-01) (203, 5.03556191921234130859e-01) (204, 4.29746448993682861328e-01) (205, 5.17088949680328369141e-01) (206, -3.25542449951171875000e-01) (207, -3.31661075353622436523e-01) (208, -3.41343522071838378906e-01) (209, -4.09363895654678344727e-01) (210, -3.25519293546676635742e-01) (211, -3.63304287195205688477e-01) (212, -2.80817836523056030273e-01) (213, -3.04080158472061157227e-01) (214, -3.69119882583618164062e-01) (215, -3.45814108848571777344e-01) (216, -2.33927860856056213379e-01) (217, -3.24156790971755981445e-01) (218, -3.25465321540832519531e-01) (219, 5.33764183521270751953e-01) (220, 4.35543984174728393555e-01) (221, -3.98102551698684692383e-01) 