FANN_FLO_2.1
num_layers=3
learning_rate=0.700000
connection_rate=1.000000
network_type=0
learning_momentum=0.100000
training_algorithm=2
train_error_function=1
train_stop_function=0
cascade_output_change_fraction=0.010000
quickprop_decay=-0.000100
quickprop_mu=1.750000
rprop_increase_factor=1.200000
rprop_decrease_factor=0.500000
rprop_delta_min=0.000000
rprop_delta_max=50.000000
rprop_delta_zero=0.100000
cascade_output_stagnation_epochs=12
cascade_candidate_change_fraction=0.010000
cascade_candidate_stagnation_epochs=12
cascade_max_out_epochs=150
cascade_min_out_epochs=50
cascade_max_cand_epochs=150
cascade_min_cand_epochs=50
cascade_num_candidate_groups=2
bit_fail_limit=3.49999994039535522461e-01
cascade_candidate_limit=1.00000000000000000000e+03
cascade_weight_multiplier=4.00000005960464477539e-01
cascade_activation_functions_count=10
cascade_activation_functions=3 5 7 8 10 11 14 15 16 17 
cascade_activation_steepnesses_count=4
cascade_activation_steepnesses=2.50000000000000000000e-01 5.00000000000000000000e-01 7.50000000000000000000e-01 1.00000000000000000000e+00 
layer_sizes=289 325 2 
scale_included=0
neurons (num_inputs, activation_function, activation_steepness)=(0, 0, 0.00000000000000000000e+00) (0, 0, 0.00000000000000000000e+00) (0, 0, 0.00000000000000000000e+00) (0, 0, 0.00000000000000000000e+00) (0, 0, 0.00000000000000000000e+00) (0, 0, 0.00000000000000000000e+00) (0, 0, 0.00000000000000000000e+00) (0, 0, 0.00000000000000000000e+00) (0, 0, 0.00000000000000000000e+00) (0, 0, 0.00000000000000000000e+00) (0, 0, 0.00000000000000000000e+00) (0, 0, 0.00000000000000000000e+00) (0, 0, 0.00000000000000000000e+00) (0, 0, 0.00000000000000000000e+00) (0, 0, 0.00000000000000000000e+00) (0, 0, 0.00000000000000000000e+00) (0, 0, 0.00000000000000000000e+00) (0, 0, 0.00000000000000000000e+00) (0, 0, 0.00000000000000000000e+00) (0, 0, 0.00000000000000000000e+00) (0, 0, 0.00000000000000000000e+00) (0, 0, 0.00000000000000000000e+00) (0, 0, 0.00000000000000000000e+00) (0, 0, 0.00000000000000000000e+00) (0, 0, 0.00000000000000000000e+00) (0, 0, 0.00000000000000000000e+00) (0, 0, 0.00000000000000000000e+00) (0, 0, 0.00000000000000000000e+00) (0, 0, 0.00000000000000000000e+00) (0, 0, 0.00000000000000000000e+00) (0, 0, 0.00000000000000000000e+00) (0, 0, 0.00000000000000000000e+00) (0, 0, 0.00000000000000000000e+00) (0, 0, 0.00000000000000000000e+00) (0, 0, 0.00000000000000000000e+00) (0, 0, 0.00000000000000000000e+00) (0, 0, 0.00000000000000000000e+00) (0, 0, 0.00000000000000000000e+00) (0, 0, 0.00000000000000000000e+00) (0, 0, 0.00000000000000000000e+00) (0, 0, 0.00000000000000000000e+00) (0, 0, 0.00000000000000000000e+00) (0, 0, 0.00000000000000000000e+00) (0, 0, 0.00000000000000000000e+00) (0, 0, 0.00000000000000000000e+00) (0, 0, 0.00000000000000000000e+00) (0, 0, 0.00000000000000000000e+00) (0, 0, 0.00000000000000000000e+00) (0, 0, 0.00000000000000000000e+00) (0, 0, 0.00000000000000000000e+00) (0, 0, 0.00000000000000000000e+00) (0, 0, 0.00000000000000000000e+00) (0, 0, 0.00000000000000000000e+00) (0, 0, 0.00000000000000000000e+00) (0, 0, 0.00000000000000000000e+00) (0, 0, 0.00000000000000000000e+00) (0, 0, 0.00000000000000000000e+00) (0, 0, 0.00000000000000000000e+00) (0, 0, 0.00000000000000000000e+00) (0, 0, 0.00000000000000000000e+00) (0, 0, 0.00000000000000000000e+00) (0, 0, 0.00000000000000000000e+00) (0, 0, 0.00000000000000000000e+00) (0, 0, 0.00000000000000000000e+00) (0, 0, 0.00000000000000000000e+00) (0, 0, 0.00000000000000000000e+00) (0, 0, 0.00000000000000000000e+00) (0, 0, 0.00000000000000000000e+00) (0, 0, 0.00000000000000000000e+00) (0, 0, 0.00000000000000000000e+00) (0, 0, 0.00000000000000000000e+00) (0, 0, 0.00000000000000000000e+00) (0, 0, 0.00000000000000000000e+00) (0, 0, 0.00000000000000000000e+00) (0, 0, 0.00000000000000000000e+00) (0, 0, 0.00000000000000000000e+00) (0, 0, 0.00000000000000000000e+00) (0, 0, 0.00000000000000000000e+00) (0, 0, 0.00000000000000000000e+00) (0, 0, 0.00000000000000000000e+00) (0, 0, 0.00000000000000000000e+00) (0, 0, 0.00000000000000000000e+00) (0, 0, 0.00000000000000000000e+00) (0, 0, 0.00000000000000000000e+00) (0, 0, 0.00000000000000000000e+00) (0, 0, 0.00000000000000000000e+00) (0, 0, 0.00000000000000000000e+00) (0, 0, 0.00000000000000000000e+00) (0, 0, 0.00000000000000000000e+00) (0, 0, 0.00000000000000000000e+00) (0, 0, 0.00000000000000000000e+00) (0, 0, 0.00000000000000000000e+00) (0, 0, 0.00000000000000000000e+00) (0, 0, 0.00000000000000000000e+00) (0, 0, 0.00000000000000000000e+00) (0, 0, 0.00000000000000000000e+00) (0, 0, 0.00000000000000000000e+00) (0, 0, 0.00000000000000000000e+00) (0, 0, 0.00000000000000000000e+00) (0, 0, 0.00000000000000000000e+00) (0, 0, 0.00000000000000000000e+00) (0, 0, 0.00000000000000000000e+00) (0, 0, 0.00000000000000000000e+00) (0, 0, 0.00000000000000000000e+00) (0, 0, 0.00000000000000000000e+00) (0, 0, 0.00000000000000000000e+00) (0, 0, 0.00000000000000000000e+00) (0, 0, 0.00000000000000000000e+00) (0, 0, 0.00000000000000000000e+00) (0, 0, 0.00000000000000000000e+00) (0, 0, 0.00000000000000000000e+00) (0, 0, 0.00000000000000000000e+00) (0, 0, 0.00000000000000000000e+00) (0, 0, 0.00000000000000000000e+00) (0, 0, 0.00000000000000000000e+00) (0, 0, 0.00000000000000000000e+00) (0, 0, 0.00000000000000000000e+00) (0, 0, 0.00000000000000000000e+00) (0, 0, 0.00000000000000000000e+00) (0, 0, 0.00000000000000000000e+00) (0, 0, 0.00000000000000000000e+00) (0, 0, 0.00000000000000000000e+00) (0, 0, 0.00000000000000000000e+00) (0, 0, 0.00000000000000000000e+00) (0, 0, 0.00000000000000000000e+00) (0, 0, 0.00000000000000000000e+00) (0, 0, 0.00000000000000000000e+00) (0, 0, 0.00000000000000000000e+00) (0, 0, 0.00000000000000000000e+00) (0, 0, 0.00000000000000000000e+00) (0, 0, 0.00000000000000000000e+00) (0, 0, 0.00000000000000000000e+00) (0, 0, 0.00000000000000000000e+00) (0, 0, 0.00000000000000000000e+00) (0, 0, 0.00000000000000000000e+00) (0, 0, 0.00000000000000000000e+00) (0, 0, 0.00000000000000000000e+00) (0, 0, 0.00000000000000000000e+00) (0, 0, 0.00000000000000000000e+00) (0, 0, 0.00000000000000000000e+00) (0, 0, 0.00000000000000000000e+00) (0, 0, 0.00000000000000000000e+00) (0, 0, 0.00000000000000000000e+00) (0, 0, 0.00000000000000000000e+00) (0, 0, 0.00000000000000000000e+00) (0, 0, 0.00000000000000000000e+00) (0, 0, 0.00000000000000000000e+00) (0, 0, 0.00000000000000000000e+00) (0, 0, 0.00000000000000000000e+00) (0, 0, 0.00000000000000000000e+00) (0, 0, 0.00000000000000000000e+00) (0, 0, 0.00000000000000000000e+00) (0, 0, 0.00000000000000000000e+00) (0, 0, 0.00000000000000000000e+00) (0, 0, 0.00000000000000000000e+00) (0, 0, 0.00000000000000000000e+00) (0, 0, 0.00000000000000000000e+00) (0, 0, 0.00000000000000000000e+00) (0, 0, 0.00000000000000000000e+00) (0, 0, 0.00000000000000000000e+00) (0, 0, 0.00000000000000000000e+00) (0, 0, 0.00000000000000000000e+00) (0, 0, 0.00000000000000000000e+00) (0, 0, 0.00000000000000000000e+00) (0, 0, 0.00000000000000000000e+00) (0, 0, 0.00000000000000000000e+00) (0, 0, 0.00000000000000000000e+00) (0, 0, 0.00000000000000000000e+00) (0, 0, 0.00000000000000000000e+00) (0, 0, 0.00000000000000000000e+00) (0, 0, 0.00000000000000000000e+00) (0, 0, 0.00000000000000000000e+00) (0, 0, 0.00000000000000000000e+00) (0, 0, 0.00000000000000000000e+00) (0, 0, 0.00000000000000000000e+00) (0, 0, 0.00000000000000000000e+00) (0, 0, 0.00000000000000000000e+00) (0, 0, 0.00000000000000000000e+00) (0, 0, 0.00000000000000000000e+00) (0, 0, 0.00000000000000000000e+00) (0, 0, 0.00000000000000000000e+00) (0, 0, 0.00000000000000000000e+00) (0, 0, 0.00000000000000000000e+00) (0, 0, 0.00000000000000000000e+00) (0, 0, 0.00000000000000000000e+00) (0, 0, 0.00000000000000000000e+00) (0, 0, 0.00000000000000000000e+00) (0, 0, 0.00000000000000000000e+00) (0, 0, 0.00000000000000000000e+00) (0, 0, 0.00000000000000000000e+00) (0, 0, 0.00000000000000000000e+00) (0, 0, 0.00000000000000000000e+00) (0, 0, 0.00000000000000000000e+00) (0, 0, 0.00000000000000000000e+00) (0, 0, 0.00000000000000000000e+00) (0, 0, 0.00000000000000000000e+00) (0, 0, 0.00000000000000000000e+00) (0, 0, 0.00000000000000000000e+00) (0, 0, 0.00000000000000000000e+00) (0, 0, 0.00000000000000000000e+00) (0, 0, 0.00000000000000000000e+00) (0, 0, 0.00000000000000000000e+00) (0, 0, 0.00000000000000000000e+00) (0, 0, 0.00000000000000000000e+00) (0, 0, 0.00000000000000000000e+00) (0, 0, 0.00000000000000000000e+00) (0, 0, 0.00000000000000000000e+00) (0, 0, 0.00000000000000000000e+00) (0, 0, 0.00000000000000000000e+00) (0, 0, 0.00000000000000000000e+00) (0, 0, 0.00000000000000000000e+00) (0, 0, 0.00000000000000000000e+00) (0, 0, 0.00000000000000000000e+00) (0, 0, 0.00000000000000000000e+00) (0, 0, 0.00000000000000000000e+00) (0, 0, 0.00000000000000000000e+00) (0, 0, 0.00000000000000000000e+00) (0, 0, 0.00000000000000000000e+00) (0, 0, 0.00000000000000000000e+00) (0, 0, 0.00000000000000000000e+00) (0, 0, 0.00000000000000000000e+00) (0, 0, 0.00000000000000000000e+00) (0, 0, 0.00000000000000000000e+00) (0, 0, 0.00000000000000000000e+00) (0, 0, 0.00000000000000000000e+00) (0, 0, 0.00000000000000000000e+00) (0, 0, 0.00000000000000000000e+00) (0, 0, 0.00000000000000000000e+00) (0, 0, 0.00000000000000000000e+00) (0, 0, 0.00000000000000000000e+00) (0, 0, 0.00000000000000000000e+00) (0, 0, 0.00000000000000000000e+00) (0, 0, 0.00000000000000000000e+00) (0, 0, 0.00000000000000000000e+00) (0, 0, 0.00000000000000000000e+00) (0, 0, 0.00000000000000000000e+00) (0, 0, 0.00000000000000000000e+00) (0, 0, 0.00000000000000000000e+00) (0, 0, 0.00000000000000000000e+00) (0, 0, 0.00000000000000000000e+00) (0, 0, 0.00000000000000000000e+00) (0, 0, 0.00000000000000000000e+00) (0, 0, 0.00000000000000000000e+00) (0, 0, 0.00000000000000000000e+00) (0, 0, 0.00000000000000000000e+00) (0, 0, 0.00000000000000000000e+00) (0, 0, 0.00000000000000000000e+00) (0, 0, 0.00000000000000000000e+00) (0, 0, 0.00000000000000000000e+00) (0, 0, 0.00000000000000000000e+00) (0, 0, 0.00000000000000000000e+00) (0, 0, 0.00000000000000000000e+00) (0, 0, 0.00000000000000000000e+00) (0, 0, 0.00000000000000000000e+00) (0, 0, 0.00000000000000000000e+00) (0, 0, 0.00000000000000000000e+00) (0, 0, 0.00000000000000000000e+00) (0, 0, 0.00000000000000000000e+00) (0, 0, 0.00000000000000000000e+00) (0, 0, 0.00000000000000000000e+00) (0, 0, 0.00000000000000000000e+00) (0, 0, 0.00000000000000000000e+00) (0, 0, 0.00000000000000000000e+00) (0, 0, 0.00000000000000000000e+00) (0, 0, 0.00000000000000000000e+00) (0, 0, 0.00000000000000000000e+00) (0, 0, 0.00000000000000000000e+00) (0, 0, 0.00000000000000000000e+00) (0, 0, 0.00000000000000000000e+00) (0, 0, 0.00000000000000000000e+00) (0, 0, 0.00000000000000000000e+00) (0, 0, 0.00000000000000000000e+00) (0, 0, 0.00000000000000000000e+00) (0, 0, 0.00000000000000000000e+00) (0, 0, 0.00000000000000000000e+00) (0, 0, 0.00000000000000000000e+00) (0, 0, 0.00000000000000000000e+00) (0, 0, 0.00000000000000000000e+00) (0, 0, 0.00000000000000000000e+00) (0, 0, 0.00000000000000000000e+00) (0, 0, 0.00000000000000000000e+00) (0, 0, 0.00000000000000000000e+00) (0, 0, 0.00000000000000000000e+00) (0, 0, 0.00000000000000000000e+00) (0, 0, 0.00000000000000000000e+00) (0, 0, 0.00000000000000000000e+00) (0, 0, 0.00000000000000000000e+00) (0, 0, 0.00000000000000000000e+00) (0, 0, 0.00000000000000000000e+00) (289, 5, 5.00000000000000000000e-01) (289, 5, 5.00000000000000000000e-01) (289, 5, 5.00000000000000000000e-01) (289, 5, 5.00000000000000000000e-01) (289, 5, 5.00000000000000000000e-01) (289, 5, 5.00000000000000000000e-01) (289, 5, 5.00000000000000000000e-01) (289, 5, 5.00000000000000000000e-01) (289, 5, 5.00000000000000000000e-01) (289, 5, 5.00000000000000000000e-01) (289, 5, 5.00000000000000000000e-01) (289, 5, 5.00000000000000000000e-01) (289, 5, 5.00000000000000000000e-01) (289, 5, 5.00000000000000000000e-01) (289, 5, 5.00000000000000000000e-01) (289, 5, 5.00000000000000000000e-01) (289, 5, 5.00000000000000000000e-01) (289, 5, 5.00000000000000000000e-01) (289, 5, 5.00000000000000000000e-01) (289, 5, 5.00000000000000000000e-01) (289, 5, 5.00000000000000000000e-01) (289, 5, 5.00000000000000000000e-01) (289, 5, 5.00000000000000000000e-01) (289, 5, 5.00000000000000000000e-01) (289, 5, 5.00000000000000000000e-01) (289, 5, 5.00000000000000000000e-01) (289, 5, 5.00000000000000000000e-01) (289, 5, 5.00000000000000000000e-01) (289, 5, 5.00000000000000000000e-01) (289, 5, 5.00000000000000000000e-01) (289, 5, 5.00000000000000000000e-01) (289, 5, 5.00000000000000000000e-01) (289, 5, 5.00000000000000000000e-01) (289, 5, 5.00000000000000000000e-01) (289, 5, 5.00000000000000000000e-01) (289, 5, 5.00000000000000000000e-01) (289, 5, 5.00000000000000000000e-01) (289, 5, 5.00000000000000000000e-01) (289, 5, 5.00000000000000000000e-01) (289, 5, 5.00000000000000000000e-01) (289, 5, 5.00000000000000000000e-01) (289, 5, 5.00000000000000000000e-01) (289, 5, 5.00000000000000000000e-01) (289, 5, 5.00000000000000000000e-01) (289, 5, 5.00000000000000000000e-01) (289, 5, 5.00000000000000000000e-01) (289, 5, 5.00000000000000000000e-01) (289, 5, 5.00000000000000000000e-01) (289, 5, 5.00000000000000000000e-01) (289, 5, 5.00000000000000000000e-01) (289, 5, 5.00000000000000000000e-01) (289, 5, 5.00000000000000000000e-01) (289, 5, 5.00000000000000000000e-01) (289, 5, 5.00000000000000000000e-01) (289, 5, 5.00000000000000000000e-01) (289, 5, 5.00000000000000000000e-01) (289, 5, 5.00000000000000000000e-01) (289, 5, 5.00000000000000000000e-01) (289, 5, 5.00000000000000000000e-01) (289, 5, 5.00000000000000000000e-01) (289, 5, 5.00000000000000000000e-01) (289, 5, 5.00000000000000000000e-01) (289, 5, 5.00000000000000000000e-01) (289, 5, 5.00000000000000000000e-01) (289, 5, 5.00000000000000000000e-01) (289, 5, 5.00000000000000000000e-01) (289, 5, 5.00000000000000000000e-01) (289, 5, 5.00000000000000000000e-01) (289, 5, 5.00000000000000000000e-01) (289, 5, 5.00000000000000000000e-01) (289, 5, 5.00000000000000000000e-01) (289, 5, 5.00000000000000000000e-01) (289, 5, 5.00000000000000000000e-01) (289, 5, 5.00000000000000000000e-01) (289, 5, 5.00000000000000000000e-01) (289, 5, 5.00000000000000000000e-01) (289, 5, 5.00000000000000000000e-01) (289, 5, 5.00000000000000000000e-01) (289, 5, 5.00000000000000000000e-01) (289, 5, 5.00000000000000000000e-01) (289, 5, 5.00000000000000000000e-01) (289, 5, 5.00000000000000000000e-01) (289, 5, 5.00000000000000000000e-01) (289, 5, 5.00000000000000000000e-01) (289, 5, 5.00000000000000000000e-01) (289, 5, 5.00000000000000000000e-01) (289, 5, 5.00000000000000000000e-01) (289, 5, 5.00000000000000000000e-01) (289, 5, 5.00000000000000000000e-01) (289, 5, 5.00000000000000000000e-01) (289, 5, 5.00000000000000000000e-01) (289, 5, 5.00000000000000000000e-01) (289, 5, 5.00000000000000000000e-01) (289, 5, 5.00000000000000000000e-01) (289, 5, 5.00000000000000000000e-01) (289, 5, 5.00000000000000000000e-01) (289, 5, 5.00000000000000000000e-01) (289, 5, 5.00000000000000000000e-01) (289, 5, 5.00000000000000000000e-01) (289, 5, 5.00000000000000000000e-01) (289, 5, 5.00000000000000000000e-01) (289, 5, 5.00000000000000000000e-01) (289, 5, 5.00000000000000000000e-01) (289, 5, 5.00000000000000000000e-01) (289, 5, 5.00000000000000000000e-01) (289, 5, 5.00000000000000000000e-01) (289, 5, 5.00000000000000000000e-01) (289, 5, 5.00000000000000000000e-01) (289, 5, 5.00000000000000000000e-01) (289, 5, 5.00000000000000000000e-01) (289, 5, 5.00000000000000000000e-01) (289, 5, 5.00000000000000000000e-01) (289, 5, 5.00000000000000000000e-01) (289, 5, 5.00000000000000000000e-01) (289, 5, 5.00000000000000000000e-01) (289, 5, 5.00000000000000000000e-01) (289, 5, 5.00000000000000000000e-01) (289, 5, 5.00000000000000000000e-01) (289, 5, 5.00000000000000000000e-01) (289, 5, 5.00000000000000000000e-01) (289, 5, 5.00000000000000000000e-01) (289, 5, 5.00000000000000000000e-01) (289, 5, 5.00000000000000000000e-01) (289, 5, 5.00000000000000000000e-01) (289, 5, 5.00000000000000000000e-01) (289, 5, 5.00000000000000000000e-01) (289, 5, 5.00000000000000000000e-01) (289, 5, 5.00000000000000000000e-01) (289, 5, 5.00000000000000000000e-01) (289, 5, 5.00000000000000000000e-01) (289, 5, 5.00000000000000000000e-01) (289, 5, 5.00000000000000000000e-01) (289, 5, 5.00000000000000000000e-01) (289, 5, 5.00000000000000000000e-01) (289, 5, 5.00000000000000000000e-01) (289, 5, 5.00000000000000000000e-01) (289, 5, 5.00000000000000000000e-01) (289, 5, 5.00000000000000000000e-01) (289, 5, 5.00000000000000000000e-01) (289, 5, 5.00000000000000000000e-01) (289, 5, 5.00000000000000000000e-01) (289, 5, 5.00000000000000000000e-01) (289, 5, 5.00000000000000000000e-01) (289, 5, 5.00000000000000000000e-01) (289, 5, 5.00000000000000000000e-01) (289, 5, 5.00000000000000000000e-01) (289, 5, 5.00000000000000000000e-01) (289, 5, 5.00000000000000000000e-01) (289, 5, 5.00000000000000000000e-01) (289, 5, 5.00000000000000000000e-01) (289, 5, 5.00000000000000000000e-01) (289, 5, 5.00000000000000000000e-01) (289, 5, 5.00000000000000000000e-01) (289, 5, 5.00000000000000000000e-01) (289, 5, 5.00000000000000000000e-01) (289, 5, 5.00000000000000000000e-01) (289, 5, 5.00000000000000000000e-01) (289, 5, 5.00000000000000000000e-01) (289, 5, 5.00000000000000000000e-01) (289, 5, 5.00000000000000000000e-01) (289, 5, 5.00000000000000000000e-01) (289, 5, 5.00000000000000000000e-01) (289, 5, 5.00000000000000000000e-01) (289, 5, 5.00000000000000000000e-01) (289, 5, 5.00000000000000000000e-01) (289, 5, 5.00000000000000000000e-01) (289, 5, 5.00000000000000000000e-01) (289, 5, 5.00000000000000000000e-01) (289, 5, 5.00000000000000000000e-01) (289, 5, 5.00000000000000000000e-01) (289, 5, 5.00000000000000000000e-01) (289, 5, 5.00000000000000000000e-01) (289, 5, 5.00000000000000000000e-01) (289, 5, 5.00000000000000000000e-01) (289, 5, 5.00000000000000000000e-01) (289, 5, 5.00000000000000000000e-01) (289, 5, 5.00000000000000000000e-01) (289, 5, 5.00000000000000000000e-01) (289, 5, 5.00000000000000000000e-01) (289, 5, 5.00000000000000000000e-01) (289, 5, 5.00000000000000000000e-01) (289, 5, 5.00000000000000000000e-01) (289, 5, 5.00000000000000000000e-01) (289, 5, 5.00000000000000000000e-01) (289, 5, 5.00000000000000000000e-01) (289, 5, 5.00000000000000000000e-01) (289, 5, 5.00000000000000000000e-01) (289, 5, 5.00000000000000000000e-01) (289, 5, 5.00000000000000000000e-01) (289, 5, 5.00000000000000000000e-01) (289, 5, 5.00000000000000000000e-01) (289, 5, 5.00000000000000000000e-01) (289, 5, 5.00000000000000000000e-01) (289, 5, 5.00000000000000000000e-01) (289, 5, 5.00000000000000000000e-01) (289, 5, 5.00000000000000000000e-01) (289, 5, 5.00000000000000000000e-01) (289, 5, 5.00000000000000000000e-01) (289, 5, 5.00000000000000000000e-01) (289, 5, 5.00000000000000000000e-01) (289, 5, 5.00000000000000000000e-01) (289, 5, 5.00000000000000000000e-01) (289, 5, 5.00000000000000000000e-01) (289, 5, 5.00000000000000000000e-01) (289, 5, 5.00000000000000000000e-01) (289, 5, 5.00000000000000000000e-01) (289, 5, 5.00000000000000000000e-01) (289, 5, 5.00000000000000000000e-01) (289, 5, 5.00000000000000000000e-01) (289, 5, 5.00000000000000000000e-01) (289, 5, 5.00000000000000000000e-01) (289, 5, 5.00000000000000000000e-01) (289, 5, 5.00000000000000000000e-01) (289, 5, 5.00000000000000000000e-01) (289, 5, 5.00000000000000000000e-01) (289, 5, 5.00000000000000000000e-01) (289, 5, 5.00000000000000000000e-01) (289, 5, 5.00000000000000000000e-01) (289, 5, 5.00000000000000000000e-01) (289, 5, 5.00000000000000000000e-01) (289, 5, 5.00000000000000000000e-01) (289, 5, 5.00000000000000000000e-01) (289, 5, 5.00000000000000000000e-01) (289, 5, 5.00000000000000000000e-01) (289, 5, 5.00000000000000000000e-01) (289, 5, 5.00000000000000000000e-01) (289, 5, 5.00000000000000000000e-01) (289, 5, 5.00000000000000000000e-01) (289, 5, 5.00000000000000000000e-01) (289, 5, 5.00000000000000000000e-01) (289, 5, 5.00000000000000000000e-01) (289, 5, 5.00000000000000000000e-01) (289, 5, 5.00000000000000000000e-01) (289, 5, 5.00000000000000000000e-01) (289, 5, 5.00000000000000000000e-01) (289, 5, 5.00000000000000000000e-01) (289, 5, 5.00000000000000000000e-01) (289, 5, 5.00000000000000000000e-01) (289, 5, 5.00000000000000000000e-01) (289, 5, 5.00000000000000000000e-01) (289, 5, 5.00000000000000000000e-01) (289, 5, 5.00000000000000000000e-01) (289, 5, 5.00000000000000000000e-01) (289, 5, 5.00000000000000000000e-01) (289, 5, 5.00000000000000000000e-01) (289, 5, 5.00000000000000000000e-01) (289, 5, 5.00000000000000000000e-01) (289, 5, 5.00000000000000000000e-01) (289, 5, 5.00000000000000000000e-01) (289, 5, 5.00000000000000000000e-01) (289, 5, 5.00000000000000000000e-01) (289, 5, 5.00000000000000000000e-01) (289, 5, 5.00000000000000000000e-01) (289, 5, 5.00000000000000000000e-01) (289, 5, 5.00000000000000000000e-01) (289, 5, 5.00000000000000000000e-01) (289, 5, 5.00000000000000000000e-01) (289, 5, 5.00000000000000000000e-01) (289, 5, 5.00000000000000000000e-01) (289, 5, 5.00000000000000000000e-01) (289, 5, 5.00000000000000000000e-01) (289, 5, 5.00000000000000000000e-01) (289, 5, 5.00000000000000000000e-01) (289, 5, 5.00000000000000000000e-01) (289, 5, 5.00000000000000000000e-01) (289, 5, 5.00000000000000000000e-01) (289, 5, 5.00000000000000000000e-01) (289, 5, 5.00000000000000000000e-01) (289, 5, 5.00000000000000000000e-01) (289, 5, 5.00000000000000000000e-01) (289, 5, 5.00000000000000000000e-01) (289, 5, 5.00000000000000000000e-01) (289, 5, 5.00000000000000000000e-01) (289, 5, 5.00000000000000000000e-01) (289, 5, 5.00000000000000000000e-01) (289, 5, 5.00000000000000000000e-01) (289, 5, 5.00000000000000000000e-01) (289, 5, 5.00000000000000000000e-01) (289, 5, 5.00000000000000000000e-01) (289, 5, 5.00000000000000000000e-01) (289, 5, 5.00000000000000000000e-01) (289, 5, 5.00000000000000000000e-01) (289, 5, 5.00000000000000000000e-01) (289, 5, 5.00000000000000000000e-01) (289, 5, 5.00000000000000000000e-01) (289, 5, 5.00000000000000000000e-01) (289, 5, 5.00000000000000000000e-01) (289, 5, 5.00000000000000000000e-01) (289, 5, 5.00000000000000000000e-01) (289, 5, 5.00000000000000000000e-01) (289, 5, 5.00000000000000000000e-01) (289, 5, 5.00000000000000000000e-01) (289, 5, 5.00000000000000000000e-01) (289, 5, 5.00000000000000000000e-01) (289, 5, 5.00000000000000000000e-01) (289, 5, 5.00000000000000000000e-01) (289, 5, 5.00000000000000000000e-01) (289, 5, 5.00000000000000000000e-01) (289, 5, 5.00000000000000000000e-01) (289, 5, 5.00000000000000000000e-01) (289, 5, 5.00000000000000000000e-01) (289, 5, 5.00000000000000000000e-01) (289, 5, 5.00000000000000000000e-01) (289, 5, 5.00000000000000000000e-01) (289, 5, 5.00000000000000000000e-01) (289, 5, 5.00000000000000000000e-01) (289, 5, 5.00000000000000000000e-01) (289, 5, 5.00000000000000000000e-01) (289, 5, 5.00000000000000000000e-01) (289, 5, 5.00000000000000000000e-01) (289, 5, 5.00000000000000000000e-01) (289, 5, 5.00000000000000000000e-01) (289, 5, 5.00000000000000000000e-01) (289, 5, 5.00000000000000000000e-01) (289, 5, 5.00000000000000000000e-01) (289, 5, 5.00000000000000000000e-01) (289, 5, 5.00000000000000000000e-01) (289, 5, 5.00000000000000000000e-01) (289, 5, 5.00000000000000000000e-01) (289, 5, 5.00000000000000000000e-01) (289, 5, 5.00000000000000000000e-01) (289, 5, 5.00000000000000000000e-01) (289, 5, 5.00000000000000000000e-01) (289, 5, 5.00000000000000000000e-01) (0, 5, 0.00000000000000000000e+00) (325, 5, 5.00000000000000000000e-01) (0, 5, 0.00000000000000000000e+00) 
connections (connected_to_neuron, weight)=(0, 1.50000000000000000000e+03) (1, 3.21834832429885864258e-01) (2, 4.54364717006683349609e-01) (3, 4.61104422807693481445e-01) (4, 4.87791538238525390625e-01) (5, -6.30311816930770874023e-02) (6, 5.00546813011169433594e-01) (7, 4.22915548086166381836e-01) (8, 3.35398763418197631836e-01) (9, -1.17715455591678619385e-01) (10, -1.96035459637641906738e-01) (11, -2.07198008894920349121e-01) (12, -1.84543743729591369629e-01) (13, 4.14995729923248291016e-01) (14, 4.63781923055648803711e-01) (15, -2.06746757030487060547e-01) (16, 3.91011655330657958984e-01) (17, 3.85637253522872924805e-01) (18, 3.85018765926361083984e-01) (19, -9.06744524836540222168e-02) (20, 4.13206875324249267578e-01) (21, 4.27466273307800292969e-01) (22, -2.53909260034561157227e-01) (23, -1.30203902721405029297e-01) (24, 3.92005652189254760742e-01) (25, -1.07946008443832397461e-01) (26, 3.22753757238388061523e-01) (27, 3.61181080341339111328e-01) (28, -1.27003997564315795898e-01) (29, 3.68666201829910278320e-01) (30, 4.40410912036895751953e-01) (31, 3.72878968715667724609e-01) (32, 3.75066876411437988281e-01) (33, 4.01370286941528320312e-01) (34, -2.48378038406372070312e-01) (35, 3.67876380681991577148e-01) (36, 4.00830149650573730469e-01) (37, 3.08491736650466918945e-01) (38, 4.72354620695114135742e-01) (39, 4.29388672113418579102e-01) (40, 4.64979529380798339844e-01) (41, 3.35822582244873046875e-01) (42, -8.68270695209503173828e-02) (43, 3.18522065877914428711e-01) (44, 4.29653882980346679688e-01) (45, -1.27257555723190307617e-01) (46, -2.05581933259963989258e-01) (47, 3.17789852619171142578e-01) (48, -2.56038576364517211914e-01) (49, -9.31582823395729064941e-02) (50, -9.01976153254508972168e-02) (51, -1.49771213531494140625e-01) (52, 4.43807631731033325195e-01) (53, 4.94267582893371582031e-01) (54, 3.58931809663772583008e-01) (55, -9.46667864918708801270e-02) (56, -1.20865598320960998535e-01) (57, 3.69270533323287963867e-01) (58, -7.45093598961830139160e-02) (59, -1.86710759997367858887e-01) (60, -1.03964127600193023682e-01) (61, -1.34098604321479797363e-01) (62, -1.28807380795478820801e-01) (63, 3.19005310535430908203e-01) (64, 3.31997215747833251953e-01) (65, -1.08869135379791259766e-01) (66, 3.70286762714385986328e-01) (67, 4.09393131732940673828e-01) (68, 4.78046625852584838867e-01) (69, 3.28001916408538818359e-01) (70, 3.35497319698333740234e-01) (71, 4.29999709129333496094e-01) (72, -2.23896741867065429688e-01) (73, 3.13786923885345458984e-01) (74, 4.36374813318252563477e-01) (75, 4.74791288375854492188e-01) (76, 4.38490867614746093750e-01) (77, 4.89925444126129150391e-01) (78, -9.54602137207984924316e-02) (79, 4.54822957515716552734e-01) (80, -1.32419794797897338867e-01) (81, -1.21316559612751007080e-01) (82, -2.02029541134834289551e-01) (83, -6.62160366773605346680e-02) (84, -1.38033762574195861816e-01) (85, 4.16998773813247680664e-01) (86, 4.43338483572006225586e-01) (87, -1.92267194390296936035e-01) (88, -9.18540954589843750000e-02) (89, -1.35096579790115356445e-01) (90, -1.21168382465839385986e-01) (91, 4.05941694974899291992e-01) (92, 3.80968570709228515625e-01) (93, 3.97703528404235839844e-01) (94, -1.59314423799514770508e-01) (95, -1.91343963146209716797e-01) (96, 3.55373233556747436523e-01) (97, 4.52257126569747924805e-01) (98, 4.93146598339080810547e-01) (99, 3.14758867025375366211e-01) (100, 4.74276632070541381836e-01) (101, 3.28173846006393432617e-01) (102, 4.37441319227218627930e-01) (103, 3.21533173322677612305e-01) (104, 3.35113465785980224609e-01) (105, 3.64173293113708496094e-01) (106, 4.51727122068405151367e-01) (107, 4.55555170774459838867e-01) (108, 3.52666378021240234375e-01) (109, -1.28030434250831604004e-01) (110, 4.02313470840454101562e-01) (111, 4.81486469507217407227e-01) (112, -1.86134219169616699219e-01) (113, -1.02085508406162261963e-01) (114, -9.82426479458808898926e-02) (115, 3.19511413574218750000e-01) (116, 3.84387016296386718750e-01) (117, -1.68397948145866394043e-01) (118, 3.82971078157424926758e-01) (119, 3.53714704513549804688e-01) (120, 3.32238078117370605469e-01) (121, 3.28070461750030517578e-01) (122, 4.49402123689651489258e-01) (123, 3.85414600372314453125e-01) (124, -1.67956605553627014160e-01) (125, 3.52561205625534057617e-01) (126, 4.58943426609039306641e-01) (127, 4.53629553318023681641e-01) (128, 5.10270655155181884766e-01) (129, -1.17243900895118713379e-01) (130, 4.68971580266952514648e-01) (131, 4.64183747768402099609e-01) (132, -1.06165453791618347168e-01) (133, -1.44653454422950744629e-01) (134, -9.28080379962921142578e-02) (135, -8.84672477841377258301e-02) (136, -1.18700385093688964844e-01) (137, -1.20822131633758544922e-01) (138, -1.30413800477981567383e-01) (139, -6.67308568954467773438e-02) (140, -2.04306304454803466797e-01) (141, -2.35329911112785339355e-01) (142, -1.05598032474517822266e-01) (143, -1.22768454253673553467e-01) (144, -2.60673969984054565430e-01) (145, -1.37330144643783569336e-01) (146, 4.63815271854400634766e-01) (147, 3.86034399271011352539e-01) (148, 3.35219293832778930664e-01) (149, 3.27710509300231933594e-01) (150, 4.32507067918777465820e-01) (151, 3.80018919706344604492e-01) (152, 3.60042780637741088867e-01) (153, 3.60692948102951049805e-01) (154, 4.61992412805557250977e-01) (155, 4.66993033885955810547e-01) (156, 4.21991795301437377930e-01) (157, 4.27432000637054443359e-01) (158, 4.19458836317062377930e-01) (159, 4.09383833408355712891e-01) (160, 3.71261715888977050781e-01) (161, 3.79862457513809204102e-01) (162, -1.96749314665794372559e-01) (163, 3.24540495872497558594e-01) (164, -9.50152277946472167969e-02) (165, -2.26564720273017883301e-01) (166, -7.49866068363189697266e-02) (167, 4.12184804677963256836e-01) (168, 4.80939924716949462891e-01) (169, 4.29084092378616333008e-01) (170, 4.02343660593032836914e-01) (171, 3.52418184280395507812e-01) (172, 4.58533614873886108398e-01) (173, 3.69591474533081054688e-01) (174, -6.68594464659690856934e-02) (175, 4.71955955028533935547e-01) (176, -7.05473870038986206055e-02) (177, -1.13291956484317779541e-01) (178, 3.44171971082687377930e-01) (179, 3.35737705230712890625e-01) (180, -9.00648608803749084473e-02) (181, 4.56850558519363403320e-01) (182, -1.57249197363853454590e-01) (183, 3.38913738727569580078e-01) (184, 3.30710798501968383789e-01) (185, 3.66100996732711791992e-01) (186, -7.75662958621978759766e-02) (187, 4.37464416027069091797e-01) (188, 4.86692160367965698242e-01) (189, -1.62640675902366638184e-01) (190, 3.28203290700912475586e-01) (191, 3.51330578327178955078e-01) (192, 4.76974606513977050781e-01) (193, 4.04785931110382080078e-01) (194, 3.70457708835601806641e-01) (195, 4.45190608501434326172e-01) (196, 4.36811685562133789062e-01) (197, 3.45184683799743652344e-01) (198, -2.10808992385864257812e-01) (199, -1.61773726344108581543e-01) (200, 4.75001662969589233398e-01) (201, -1.01310566067695617676e-01) (202, 4.53999549150466918945e-01) (203, -1.35267168283462524414e-01) (204, -2.53431022167205810547e-01) (205, -1.33221939206123352051e-01) (206, -1.78005352616310119629e-01) (207, 3.18974256515502929688e-01) (208, 3.96435916423797607422e-01) (209, 4.27147626876831054688e-01) (210, 3.51095467805862426758e-01) (211, 3.74137163162231445312e-01) (212, 3.99527639150619506836e-01) (213, 4.66410905122756958008e-01) (214, 3.95851880311965942383e-01) (215, 4.07097339630126953125e-01) (216, 3.25975239276885986328e-01) (217, 3.86174350976943969727e-01) (218, 3.44295054674148559570e-01) (219, 4.97879356145858764648e-01) (220, 4.90525960922241210938e-01) (221, -2.09975659847259521484e-01) (222, 3.34284514188766479492e-01) (223, 4.66830462217330932617e-01) (224, -1.21667958796024322510e-01) (225, -1.68005272746086120605e-01) (226, 3.95856529474258422852e-01) (227, 3.88599365949630737305e-01) (228, 4.43908691406250000000e-01) (229, -1.16664379835128784180e-01) (230, 4.87876772880554199219e-01) (231, -1.68298617005348205566e-01) (232, 3.98943960666656494141e-01) (233, -1.37305304408073425293e-01) (234, -2.26849436759948730469e-01) (235, 4.25684720277786254883e-01) (236, 3.76006931066513061523e-01) (237, 4.35206562280654907227e-01) (238, 4.48677599430084228516e-01) (239, -9.79205444455146789551e-02) (240, -2.15035483241081237793e-01) (241, 5.03975272178649902344e-01) (242, 3.42050194740295410156e-01) (243, -1.27465352416038513184e-01) (244, -1.08528435230255126953e-01) (245, -1.35888025164604187012e-01) (246, -2.13682964444160461426e-01) (247, -9.59816873073577880859e-02) (248, -2.52486228942871093750e-01) (249, 3.77255797386169433594e-01) (250, 4.73510354757308959961e-01) (251, 4.83321130275726318359e-01) (252, 4.41044807434082031250e-01) (253, 3.01500141620635986328e-01) (254, 4.39899533987045288086e-01) (255, 3.83022457361221313477e-01) (256, 3.90727102756500244141e-01) (257, 3.37882220745086669922e-01) (258, 4.74498897790908813477e-01) (259, 3.31721544265747070312e-01) (260, 4.68892991542816162109e-01) (261, 4.40145492553710937500e-01) (262, 4.36823368072509765625e-01) (263, 3.78676623106002807617e-01) (264, 3.72889906167984008789e-01) (265, 4.71473902463912963867e-01) (266, 4.96537715196609497070e-01) (267, 4.50563520193099975586e-01) (268, 4.06022489070892333984e-01) (269, 4.23235148191452026367e-01) (270, 4.03780341148376464844e-01) (271, -1.13317102193832397461e-01) (272, 4.28898006677627563477e-01) (273, -1.34885713458061218262e-01) (274, -1.75919800996780395508e-01) (275, -1.92115873098373413086e-01) (276, 3.52836072444915771484e-01) (277, 4.40626591444015502930e-01) (278, 3.45631718635559082031e-01) (279, 3.58607083559036254883e-01) (280, 3.06237965822219848633e-01) (281, 3.06705325841903686523e-01) (282, 3.50107610225677490234e-01) (283, 4.47439283132553100586e-01) (284, 3.05099308490753173828e-01) (285, 4.90951627492904663086e-01) (286, 3.32693189382553100586e-01) (287, 4.05617922544479370117e-01) (288, 3.97236168384552001953e-01) (0, 1.50000000000000000000e+03) (1, 6.99775397777557373047e-01) (2, 7.40813195705413818359e-01) (3, 6.98630094528198242188e-01) (4, 6.38132870197296142578e-01) (5, 2.55761384963989257812e-01) (6, 7.65138745307922363281e-01) (7, 6.06637418270111083984e-01) (8, 6.03848934173583984375e-01) (9, 3.15915793180465698242e-01) (10, 3.34556728601455688477e-01) (11, 3.50296676158905029297e-01) (12, 3.22783291339874267578e-01) (13, 6.37338161468505859375e-01) (14, 6.43924117088317871094e-01) (15, 3.37597072124481201172e-01) (16, 7.35711455345153808594e-01) (17, 7.13502347469329833984e-01) (18, 5.76216697692871093750e-01) (19, 2.80598402023315429688e-01) (20, 7.52485573291778564453e-01) (21, 6.24388754367828369141e-01) (22, 2.84853696823120117188e-01) (23, 3.69353681802749633789e-01) (24, 6.77711129188537597656e-01) (25, 2.51359760761260986328e-01) (26, 7.66941487789154052734e-01) (27, 6.57931387424468994141e-01) (28, 2.78637468814849853516e-01) (29, 6.67429447174072265625e-01) (30, 6.61013364791870117188e-01) (31, 6.25268161296844482422e-01) (32, 5.83005249500274658203e-01) (33, 6.47996962070465087891e-01) (34, 3.67081761360168457031e-01) (35, 6.52351140975952148438e-01) (36, 6.91149830818176269531e-01) (37, 7.40742266178131103516e-01) (38, 6.91067099571228027344e-01) (39, 7.25529670715332031250e-01) (40, 6.76624655723571777344e-01) (41, 6.12445056438446044922e-01) (42, 3.12547594308853149414e-01) (43, 7.00901091098785400391e-01) (44, 6.99500322341918945312e-01) (45, 3.57540369033813476562e-01) (46, 2.82676577568054199219e-01) (47, 6.57757401466369628906e-01) (48, 3.21168273687362670898e-01) (49, 3.79732698202133178711e-01) (50, 3.74211639165878295898e-01) (51, 3.03579866886138916016e-01) (52, 6.59712851047515869141e-01) (53, 6.55924975872039794922e-01) (54, 6.54274046421051025391e-01) (55, 3.50812882184982299805e-01) (56, 3.26453000307083129883e-01) (57, 6.46725118160247802734e-01) (58, 3.30187916755676269531e-01) (59, 4.37572956085205078125e-01) (60, 4.47158604860305786133e-01) (61, 2.53205865621566772461e-01) (62, 2.46333271265029907227e-01) (63, 7.62581288814544677734e-01) (64, 6.87301039695739746094e-01) (65, 2.33696728944778442383e-01) (66, 6.35439395904541015625e-01) (67, 5.99959909915924072266e-01) (68, 5.74859321117401123047e-01) (69, 7.46801435947418212891e-01) (70, 7.57274687290191650391e-01) (71, 6.79912269115447998047e-01) (72, 2.14833065867424011230e-01) (73, 6.61127746105194091797e-01) (74, 6.09667241573333740234e-01) (75, 7.27139472961425781250e-01) (76, 6.32503032684326171875e-01) (77, 6.83404505252838134766e-01) (78, 2.27566465735435485840e-01) (79, 7.57141292095184326172e-01) (80, 2.12508663535118103027e-01) (81, 2.38288357853889465332e-01) (82, 2.66256451606750488281e-01) (83, 3.67937326431274414062e-01) (84, 3.04410398006439208984e-01) (85, 7.36214399337768554688e-01) (86, 5.96822619438171386719e-01) (87, 2.47313350439071655273e-01) (88, 2.46567010879516601562e-01) (89, 3.70520114898681640625e-01) (90, 2.21588253974914550781e-01) (91, 7.66003191471099853516e-01) (92, 7.54679501056671142578e-01) (93, 6.40076756477355957031e-01) (94, 3.83735209703445434570e-01) (95, 3.07720839977264404297e-01) (96, 6.68248891830444335938e-01) (97, 6.01116955280303955078e-01) (98, 7.20238029956817626953e-01) (99, 6.78761065006256103516e-01) (100, 5.89640200138092041016e-01) (101, 6.99307858943939208984e-01) (102, 5.79920768737792968750e-01) (103, 6.45355224609375000000e-01) (104, 5.89746534824371337891e-01) (105, 6.15630924701690673828e-01) (106, 5.96903085708618164062e-01) (107, 6.58555328845977783203e-01) (108, 7.39062547683715820312e-01) (109, 2.36288309097290039062e-01) (110, 6.46244108676910400391e-01) (111, 7.46978998184204101562e-01) (112, 2.84616082906723022461e-01) (113, 3.53033185005187988281e-01) (114, 3.27511578798294067383e-01) (115, 7.49884307384490966797e-01) (116, 6.78002476692199707031e-01) (117, 3.28786760568618774414e-01) (118, 5.84511816501617431641e-01) (119, 7.21787214279174804688e-01) (120, 6.65658473968505859375e-01) (121, 6.07615053653717041016e-01) (122, 7.11981058120727539062e-01) (123, 6.65431797504425048828e-01) (124, 2.97855138778686523438e-01) (125, 6.86484813690185546875e-01) (126, 5.79695463180541992188e-01) (127, 5.66192567348480224609e-01) (128, 7.18789875507354736328e-01) (129, 3.73318880796432495117e-01) (130, 6.75270438194274902344e-01) (131, 7.35579669475555419922e-01) (132, 2.81417548656463623047e-01) (133, 3.34947109222412109375e-01) (134, 2.01980262994766235352e-01) (135, 3.05501490831375122070e-01) (136, 3.48948270082473754883e-01) (137, 2.31252729892730712891e-01) (138, 2.13352069258689880371e-01) (139, 2.96479344367980957031e-01) (140, 2.55565822124481201172e-01) (141, 2.70540803670883178711e-01) (142, 2.86307752132415771484e-01) (143, 3.25539380311965942383e-01) (144, 2.28892490267753601074e-01) (145, 2.21094295382499694824e-01) (146, 6.98305606842041015625e-01) (147, 7.25343763828277587891e-01) (148, 7.33380734920501708984e-01) (149, 7.01565504074096679688e-01) (150, 6.75966799259185791016e-01) (151, 6.36048197746276855469e-01) (152, 7.46088027954101562500e-01) (153, 6.09122395515441894531e-01) (154, 7.38792240619659423828e-01) (155, 6.47390544414520263672e-01) (156, 7.27953791618347167969e-01) (157, 7.47700631618499755859e-01) (158, 6.47601425647735595703e-01) (159, 6.74718618392944335938e-01) (160, 7.14275360107421875000e-01) (161, 7.47572898864746093750e-01) (162, 2.69235491752624511719e-01) (163, 6.05175554752349853516e-01) (164, 2.84229040145874023438e-01) (165, 2.60671347379684448242e-01) (166, 3.47307831048965454102e-01) (167, 6.02606534957885742188e-01) (168, 6.66661202907562255859e-01) (169, 7.35057771205902099609e-01) (170, 7.14789092540740966797e-01) (171, 7.31797814369201660156e-01) (172, 6.10803723335266113281e-01) (173, 5.98676264286041259766e-01) (174, 3.05625140666961669922e-01) (175, 6.58063471317291259766e-01) (176, 2.51783579587936401367e-01) (177, 2.02501252293586730957e-01) (178, 6.15271985530853271484e-01) (179, 5.82805335521697998047e-01) (180, 3.50614249706268310547e-01) (181, 7.07351386547088623047e-01) (182, 2.62012422084808349609e-01) (183, 6.98709070682525634766e-01) (184, 7.59530425071716308594e-01) (185, 6.16711616516113281250e-01) (186, 1.88834443688392639160e-01) (187, 7.10120975971221923828e-01) (188, 5.91169238090515136719e-01) (189, 2.80249744653701782227e-01) (190, 6.06039464473724365234e-01) (191, 7.25884675979614257812e-01) (192, 6.29688143730163574219e-01) (193, 6.80990159511566162109e-01) (194, 7.50743746757507324219e-01) (195, 7.05420911312103271484e-01) (196, 7.63205766677856445312e-01) (197, 7.09406077861785888672e-01) (198, 3.51707398891448974609e-01) (199, 2.64888197183609008789e-01) (200, 6.73198819160461425781e-01) (201, 3.36788177490234375000e-01) (202, 6.07130110263824462891e-01) (203, 3.29772919416427612305e-01) (204, 3.38679522275924682617e-01) (205, 3.23321878910064697266e-01) (206, 2.24382415413856506348e-01) (207, 7.65039980411529541016e-01) (208, 7.21443235874176025391e-01) (209, 6.34439527988433837891e-01) (210, 5.81682622432708740234e-01) (211, 6.75418078899383544922e-01) (212, 5.78247010707855224609e-01) (213, 6.66348040103912353516e-01) (214, 5.90644061565399169922e-01) (215, 7.59356558322906494141e-01) (216, 7.07489013671875000000e-01) (217, 6.03199303150177001953e-01) (218, 7.06770837306976318359e-01) (219, 7.31199085712432861328e-01) (220, 6.74807369709014892578e-01) (221, 3.69535505771636962891e-01) (222, 6.73946201801300048828e-01) (223, 7.22661733627319335938e-01) (224, 2.67798364162445068359e-01) (225, 2.79936045408248901367e-01) (226, 6.60352349281311035156e-01) (227, 6.42853200435638427734e-01) (228, 6.08280897140502929688e-01) (229, 2.37552195787429809570e-01) (230, 7.20875859260559082031e-01) (231, 3.20967316627502441406e-01) (232, 7.24457144737243652344e-01) (233, 3.69438707828521728516e-01) (234, 2.63267427682876586914e-01) (235, 6.84011161327362060547e-01) (236, 6.79664850234985351562e-01) (237, 6.81844770908355712891e-01) (238, 6.85005605220794677734e-01) (239, 2.61407434940338134766e-01) (240, 3.81667286157608032227e-01) (241, 6.91658258438110351562e-01) (242, 7.19395697116851806641e-01) (243, 3.82825553417205810547e-01) (244, 2.37992927432060241699e-01) (245, 3.77483606338500976562e-01) (246, 6.49968147277832031250e-01) (247, 3.56045126914978027344e-01) (248, 2.18433618545532226562e-01) (249, 6.82224869728088378906e-01) (250, 6.92885577678680419922e-01) (251, 6.73623800277709960938e-01) (252, 6.65649116039276123047e-01) (253, 5.90662777423858642578e-01) (254, 6.24796688556671142578e-01) (255, 7.43240952491760253906e-01) (256, 6.88495159149169921875e-01) (257, 7.23534286022186279297e-01) (258, 6.38631999492645263672e-01) (259, 7.21558272838592529297e-01) (260, 5.69226443767547607422e-01) (261, 7.59646832942962646484e-01) (262, 6.72863364219665527344e-01) (263, 7.37686932086944580078e-01) (264, 7.45261549949645996094e-01) (265, 7.36809372901916503906e-01) (266, 6.50504469871520996094e-01) (267, 6.80959701538085937500e-01) (268, 6.55653059482574462891e-01) (269, 7.71079599857330322266e-01) (270, 7.01216220855712890625e-01) (271, 2.90516018867492675781e-01) (272, 6.88790678977966308594e-01) (273, 2.82688528299331665039e-01) (274, 2.58327275514602661133e-01) (275, 3.20265114307403564453e-01) (276, 6.18103921413421630859e-01) (277, 6.05494201183319091797e-01) (278, 6.70944392681121826172e-01) (279, 6.20841860771179199219e-01) (280, 7.19513654708862304688e-01) (281, 5.78111290931701660156e-01) (282, 7.37187862396240234375e-01) (283, 6.19523704051971435547e-01) (284, 6.06159925460815429688e-01) (285, 5.98333954811096191406e-01) (286, 5.89875280857086181641e-01) (287, 7.30984330177307128906e-01) (288, 5.20542740821838378906e-01) (0, 1.50000000000000000000e+03) (1, 2.41419419646263122559e-01) (2, 3.10841590166091918945e-01) (3, 1.72924175858497619629e-01) (4, 1.37606918811798095703e-01) (5, 7.91310012340545654297e-01) (6, 1.53863191604614257812e-01) (7, 3.01484107971191406250e-01) (8, 1.41325369477272033691e-01) (9, 7.30907082557678222656e-01) (10, 7.04540014266967773438e-01) (11, 8.40156555175781250000e-01) (12, 7.66939818859100341797e-01) (13, 2.32837438583374023438e-01) (14, 2.40464359521865844727e-01) (15, 7.33190178871154785156e-01) (16, 2.95717269182205200195e-01) (17, 1.79057791829109191895e-01) (18, 2.86589026451110839844e-01) (19, 8.31150174140930175781e-01) (20, 2.75840073823928833008e-01) (21, 1.29420578479766845703e-01) (22, 7.74881958961486816406e-01) (23, 7.88239896297454833984e-01) (24, 2.99026399850845336914e-01) (25, 8.46744954586029052734e-01) (26, 3.28494429588317871094e-01) (27, 3.19898128509521484375e-01) (28, 6.57056987285614013672e-01) (29, 2.86615252494812011719e-01) (30, 2.80334591865539550781e-01) (31, 1.91862598061561584473e-01) (32, 1.86855420470237731934e-01) (33, 2.60618567466735839844e-01) (34, 7.47060477733612060547e-01) (35, 1.94380983710289001465e-01) (36, 1.91078126430511474609e-01) (37, 2.61483997106552124023e-01) (38, 1.71943753957748413086e-01) (39, 2.05772906541824340820e-01) (40, 1.65822267532348632812e-01) (41, 2.18329250812530517578e-01) (42, 7.28620827198028564453e-01) (43, 1.91231116652488708496e-01) (44, 1.44231900572776794434e-01) (45, 8.16997528076171875000e-01) (46, 8.18342983722686767578e-01) (47, 3.06207001209259033203e-01) (48, 6.91745579242706298828e-01) (49, 8.62861514091491699219e-01) (50, 8.17922055721282958984e-01) (51, 8.36230874061584472656e-01) (52, 3.23713749647140502930e-01) (53, 2.50679939985275268555e-01) (54, 2.69307762384414672852e-01) (55, 8.44699382781982421875e-01) (56, 7.54205286502838134766e-01) (57, 2.64196485280990600586e-01) (58, 7.25674688816070556641e-01) (59, 7.35155880451202392578e-01) (60, 8.20350348949432373047e-01) (61, 7.11896181106567382812e-01) (62, 8.11102867126464843750e-01) (63, 2.90951967239379882812e-01) (64, 3.09999197721481323242e-01) (65, 7.31426656246185302734e-01) (66, 1.48647159337997436523e-01) (67, 1.67005002498626708984e-01) (68, 1.48271024227142333984e-01) (69, 1.86345741152763366699e-01) (70, 2.48888790607452392578e-01) (71, 1.88019752502441406250e-01) (72, 7.93593168258666992188e-01) (73, 3.22263240814208984375e-01) (74, 2.50204473733901977539e-01) (75, 3.04898709058761596680e-01) (76, 3.01024883985519409180e-01) (77, 2.12757438421249389648e-01) (78, 7.87551701068878173828e-01) (79, 1.44684001803398132324e-01) (80, 6.60961031913757324219e-01) (81, 7.88534760475158691406e-01) (82, 8.25229644775390625000e-01) (83, 8.01163077354431152344e-01) (84, 6.93726062774658203125e-01) (85, 2.61140733957290649414e-01) (86, 1.79696157574653625488e-01) (87, 8.10532391071319580078e-01) (88, 7.21565365791320800781e-01) (89, 7.98898994922637939453e-01) (90, 7.03605592250823974609e-01) (91, 2.77660369873046875000e-01) (92, 3.30463856458663940430e-01) (93, 1.56198680400848388672e-01) (94, 7.61316359043121337891e-01) (95, 8.28856587409973144531e-01) (96, 2.37996146082878112793e-01) (97, 2.41839930415153503418e-01) (98, 1.55711501836776733398e-01) (99, 2.65432387590408325195e-01) (100, 3.11882227659225463867e-01) (101, 2.66044527292251586914e-01) (102, 3.16284894943237304688e-01) (103, 2.71859198808670043945e-01) (104, 2.60441094636917114258e-01) (105, 2.36818879842758178711e-01) (106, 2.37003967165946960449e-01) (107, 2.41178363561630249023e-01) (108, 3.29660654067993164062e-01) (109, 7.14885115623474121094e-01) (110, 2.59423077106475830078e-01) (111, 1.41114667057991027832e-01) (112, 6.67844533920288085938e-01) (113, 7.69748330116271972656e-01) (114, 7.98580229282379150391e-01) (115, 1.89398273825645446777e-01) (116, 1.77755355834960937500e-01) (117, 6.38781309127807617188e-01) (118, 1.50058761239051818848e-01) (119, 2.52231270074844360352e-01) (120, 2.70871371030807495117e-01) (121, 2.11261257529258728027e-01) (122, 2.00357601046562194824e-01) (123, 2.70940005779266357422e-01) (124, 7.50425159931182861328e-01) (125, 2.99832671880722045898e-01) (126, 2.49474614858627319336e-01) (127, 1.40822604298591613770e-01) (128, 2.15555056929588317871e-01) (129, 8.07571768760681152344e-01) (130, 2.78461188077926635742e-01) (131, 1.99315324425697326660e-01) (132, 7.28540837764739990234e-01) (133, 8.11967194080352783203e-01) (134, 6.53428971767425537109e-01) (135, 6.69783949851989746094e-01) (136, 6.94174826145172119141e-01) (137, 8.02392601966857910156e-01) (138, 8.07410597801208496094e-01) (139, 6.85691237449645996094e-01) (140, 6.61639392375946044922e-01) (141, 7.20794022083282470703e-01) (142, 7.03445255756378173828e-01) (143, 6.87375068664550781250e-01) (144, 6.50604188442230224609e-01) (145, 6.64472818374633789062e-01) (146, 2.29992344975471496582e-01) (147, 2.01913446187973022461e-01) (148, 1.48637190461158752441e-01) (149, 2.40530416369438171387e-01) (150, 3.23089450597763061523e-01) (151, 2.98192709684371948242e-01) (152, 3.29520225524902343750e-01) (153, 1.86782866716384887695e-01) (154, 2.48474925756454467773e-01) (155, 2.37134337425231933594e-01) (156, 1.64183676242828369141e-01) (157, 1.72776117920875549316e-01) (158, 2.57875114679336547852e-01) (159, 2.54673242568969726562e-01) (160, 3.33642482757568359375e-01) (161, 2.09623366594314575195e-01) (162, 8.45810174942016601562e-01) (163, 2.25144624710083007812e-01) (164, 6.67145073413848876953e-01) (165, 6.43363058567047119141e-01) (166, 7.78224289417266845703e-01) (167, 1.93631216883659362793e-01) (168, 2.85868018865585327148e-01) (169, 2.19753161072731018066e-01) (170, 2.38791465759277343750e-01) (171, 3.08063805103302001953e-01) (172, 2.99014449119567871094e-01) (173, 2.94519454240798950195e-01) (174, 6.66009604930877685547e-01) (175, 3.21907520294189453125e-01) (176, 8.34983587265014648438e-01) (177, 7.37409591674804687500e-01) (178, 1.96225076913833618164e-01) (179, 1.35232254862785339355e-01) (180, 6.68148219585418701172e-01) (181, 1.79882586002349853516e-01) (182, 8.11196863651275634766e-01) (183, 1.56568884849548339844e-01) (184, 2.53583252429962158203e-01) (185, 2.29208514094352722168e-01) (186, 7.65781760215759277344e-01) (187, 2.84090280532836914062e-01) (188, 2.72995561361312866211e-01) (189, 7.11630463600158691406e-01) (190, 2.01022997498512268066e-01) (191, 2.67614096403121948242e-01) (192, 2.74400293827056884766e-01) (193, 2.05687046051025390625e-01) (194, 1.55780702829360961914e-01) (195, 2.86797493696212768555e-01) (196, 2.24216386675834655762e-01) (197, 2.96851783990859985352e-01) (198, 6.56216084957122802734e-01) (199, 6.82715535163879394531e-01) (200, 1.90681040287017822266e-01) (201, 7.65880346298217773438e-01) (202, 1.54187053442001342773e-01) (203, 6.71384096145629882812e-01) (204, 7.52315402030944824219e-01) (205, 6.71805083751678466797e-01) (206, 6.75087869167327880859e-01) (207, 2.27822273969650268555e-01) (208, 2.71286755800247192383e-01) (209, 2.17423364520072937012e-01) (210, 2.45733559131622314453e-01) (211, 2.96562075614929199219e-01) (212, 2.80030786991119384766e-01) (213, 2.28235751390457153320e-01) (214, 3.11084985733032226562e-01) (215, 1.96594908833503723145e-01) (216, 3.27786982059478759766e-01) (217, 2.57435828447341918945e-01) (218, 1.62907063961029052734e-01) (219, 2.74975329637527465820e-01) (220, 3.14746081829071044922e-01) (221, 7.57123053073883056641e-01) (222, 2.04043954610824584961e-01) (223, 2.62636035680770874023e-01) (224, 8.31103920936584472656e-01) (225, 7.47772932052612304688e-01) (226, 2.15650632977485656738e-01) (227, 2.09468528628349304199e-01) (228, 2.17639163136482238770e-01) (229, 7.41151571273803710938e-01) (230, 2.57323503494262695312e-01) (231, 7.85302877426147460938e-01) (232, 1.74281910061836242676e-01) (233, 7.81798958778381347656e-01) (234, 8.13593864440917968750e-01) (235, 2.93194472789764404297e-01) (236, 3.06289494037628173828e-01) (237, 1.45417481660842895508e-01) (238, 2.01066076755523681641e-01) (239, 7.77021586894989013672e-01) (240, 7.63332068920135498047e-01) (241, 3.17173182964324951172e-01) (242, 2.06950709223747253418e-01) (243, 7.05885350704193115234e-01) (244, 7.46926188468933105469e-01) (245, 7.16680526733398437500e-01) (246, 7.83799469470977783203e-01) (247, 7.27889537811279296875e-01) (248, 8.52048873901367187500e-01) (249, 2.91010856628417968750e-01) (250, 1.55783832073211669922e-01) (251, 3.00423830747604370117e-01) (252, 2.10672110319137573242e-01) (253, 2.28665664792060852051e-01) (254, 2.24577888846397399902e-01) (255, 1.91562995314598083496e-01) (256, 1.44925236701965332031e-01) (257, 3.19244831800460815430e-01) (258, 2.76196509599685668945e-01) (259, 2.31619790196418762207e-01) (260, 2.22691044211387634277e-01) (261, 1.93539693951606750488e-01) (262, 1.80526793003082275391e-01) (263, 2.76817172765731811523e-01) (264, 1.47309631109237670898e-01) (265, 1.65968820452690124512e-01) (266, 2.41462156176567077637e-01) (267, 3.15370619297027587891e-01) (268, 1.88830822706222534180e-01) (269, 3.16471010446548461914e-01) (270, 2.38649785518646240234e-01) (271, 8.23033094406127929688e-01) (272, 2.98170953989028930664e-01) (273, 8.37032616138458251953e-01) (274, 6.92933738231658935547e-01) (275, 6.81896030902862548828e-01) (276, 1.76393628120422363281e-01) (277, 3.05018186569213867188e-01) (278, 2.68277436494827270508e-01) (279, 1.69310957193374633789e-01) (280, 2.69689857959747314453e-01) (281, 2.87486612796783447266e-01) (282, 1.53060823678970336914e-01) (283, 1.59451156854629516602e-01) (284, 1.91321104764938354492e-01) (285, 2.62461513280868530273e-01) (286, 2.25723087787628173828e-01) (287, 2.28560194373130798340e-01) (288, -9.35812219977378845215e-02) (0, 1.50000000000000000000e+03) (1, 5.81719398498535156250e-01) (2, 5.83325862884521484375e-01) (3, 6.88870906829833984375e-01) (4, 6.42729341983795166016e-01) (5, 3.81059408187866210938e-01) (6, 7.06704139709472656250e-01) (7, 6.85701906681060791016e-01) (8, 6.56256794929504394531e-01) (9, 3.15920650959014892578e-01) (10, 3.80966365337371826172e-01) (11, 2.59820252656936645508e-01) (12, 3.34001004695892333984e-01) (13, 7.10864067077636718750e-01) (14, 6.04166865348815917969e-01) (15, 2.10638225078582763672e-01) (16, 7.61754274368286132812e-01) (17, 6.59653365612030029297e-01) (18, 6.53789997100830078125e-01) (19, 3.51940929889678955078e-01) (20, 5.99745810031890869141e-01) (21, 6.91807806491851806641e-01) (22, 2.94619113206863403320e-01) (23, 3.78029733896255493164e-01) (24, 7.26530909538269042969e-01) (25, 3.45635861158370971680e-01) (26, 6.43336236476898193359e-01) (27, 6.55406415462493896484e-01) (28, 2.42851316928863525391e-01) (29, 7.43965864181518554688e-01) (30, 5.69995224475860595703e-01) (31, 6.46861612796783447266e-01) (32, 7.41485655307769775391e-01) (33, 5.99491536617279052734e-01) (34, 3.78915846347808837891e-01) (35, 6.15427970886230468750e-01) (36, 7.68026351928710937500e-01) (37, 6.94513738155364990234e-01) (38, 7.33208298683166503906e-01) (39, 6.54814004898071289062e-01) (40, 6.29464864730834960938e-01) (41, 7.01079905033111572266e-01) (42, 3.51355552673339843750e-01) (43, 6.65362298488616943359e-01) (44, 6.61661148071289062500e-01) (45, 3.56591045856475830078e-01) (46, 3.19456368684768676758e-01) (47, 6.45961046218872070312e-01) (48, 2.66767561435699462891e-01) (49, 2.94085860252380371094e-01) (50, 2.34978601336479187012e-01) (51, 2.96819597482681274414e-01) (52, 6.41485035419464111328e-01) (53, 7.25550830364227294922e-01) (54, 6.55412018299102783203e-01) (55, 3.80734294652938842773e-01) (56, 2.90731161832809448242e-01) (57, 7.24257886409759521484e-01) (58, 3.58254909515380859375e-01) (59, 3.03975135087966918945e-01) (60, 4.01227802038192749023e-01) (61, 3.90254706144332885742e-01) (62, 3.95666211843490600586e-01) (63, 6.75601303577423095703e-01) (64, 5.75844407081604003906e-01) (65, 3.95517885684967041016e-01) (66, 7.10595369338989257812e-01) (67, 5.65379798412322998047e-01) (68, 6.89802110195159912109e-01) (69, 6.64569079875946044922e-01) (70, 6.52266919612884521484e-01) (71, 7.48390853404998779297e-01) (72, 2.21235617995262145996e-01) (73, 5.94639956951141357422e-01) (74, 6.37181699275970458984e-01) (75, 6.95366859436035156250e-01) (76, 7.64595508575439453125e-01) (77, 7.52530097961425781250e-01) (78, 1.84333458542823791504e-01) (79, 6.36052906513214111328e-01) (80, 3.95128071308135986328e-01) (81, 2.54424721002578735352e-01) (82, 3.36107105016708374023e-01) (83, 3.32683444023132324219e-01) (84, 3.91018271446228027344e-01) (85, 6.07579052448272705078e-01) (86, 5.92160701751708984375e-01) (87, 2.97468870878219604492e-01) (88, 3.95464301109313964844e-01) (89, 3.93384397029876708984e-01) (90, 1.99859589338302612305e-01) (91, 6.68969929218292236328e-01) (92, 7.15133368968963623047e-01) (93, 7.68429160118103027344e-01) (94, 3.99251490831375122070e-01) (95, 3.56718122959136962891e-01) (96, 7.57772684097290039062e-01) (97, 6.92259728908538818359e-01) (98, 7.35617935657501220703e-01) (99, 6.83227479457855224609e-01) (100, 5.98550617694854736328e-01) (101, 6.08429253101348876953e-01) (102, 6.52170300483703613281e-01) (103, 6.60668253898620605469e-01) (104, 6.32380187511444091797e-01) (105, 7.19721496105194091797e-01) (106, 7.80942559242248535156e-01) (107, 6.33751809597015380859e-01) (108, 7.11773872375488281250e-01) (109, 3.76329123973846435547e-01) (110, 6.98937952518463134766e-01) (111, 7.02664375305175781250e-01) (112, 2.42263138294219970703e-01) (113, 2.76656270027160644531e-01) (114, 2.47943013906478881836e-01) (115, 5.93408644199371337891e-01) (116, 6.72554850578308105469e-01) (117, 2.44556367397308349609e-01) (118, 6.78191840648651123047e-01) (119, 6.65237069129943847656e-01) (120, 6.04833006858825683594e-01) (121, 6.79566442966461181641e-01) (122, 7.58397579193115234375e-01) (123, 7.65060245990753173828e-01) (124, 2.97786951065063476562e-01) (125, 7.48229444026947021484e-01) (126, 7.28321313858032226562e-01) (127, 6.55648171901702880859e-01) (128, 6.71865403652191162109e-01) (129, 3.40251624584197998047e-01) (130, 7.69192457199096679688e-01) (131, 6.97565615177154541016e-01) (132, 3.54113370180130004883e-01) (133, 3.01494598388671875000e-01) (134, 3.78583908081054687500e-01) (135, 2.20675468444824218750e-01) (136, 2.19210371375083923340e-01) (137, 3.92307102680206298828e-01) (138, 3.02304685115814208984e-01) (139, 3.39452803134918212891e-01) (140, 3.57263475656509399414e-01) (141, 2.13496416807174682617e-01) (142, 2.84966528415679931641e-01) (143, 3.84628862142562866211e-01) (144, 2.94352382421493530273e-01) (145, 3.37748825550079345703e-01) (146, 6.00919485092163085938e-01) (147, 5.86039364337921142578e-01) (148, 7.68576443195343017578e-01) (149, 6.97859287261962890625e-01) (150, 6.80582582950592041016e-01) (151, 6.10082507133483886719e-01) (152, 6.14333152770996093750e-01) (153, 6.59684300422668457031e-01) (154, 6.12455070018768310547e-01) (155, 7.15834677219390869141e-01) (156, 6.40448451042175292969e-01) (157, 7.69989192485809326172e-01) (158, 6.04204237461090087891e-01) (159, 7.39969611167907714844e-01) (160, 6.99606895446777343750e-01) (161, 5.99127411842346191406e-01) (162, 2.96791702508926391602e-01) (163, 6.62671387195587158203e-01) (164, 3.02243053913116455078e-01) (165, 2.65526503324508666992e-01) (166, 3.19601625204086303711e-01) (167, 6.90594553947448730469e-01) (168, 6.32691681385040283203e-01) (169, 5.97644388675689697266e-01) (170, 6.46228492259979248047e-01) (171, 5.99646866321563720703e-01) (172, 6.15884184837341308594e-01) (173, 7.28717684745788574219e-01) (174, 2.32563644647598266602e-01) (175, 7.29450404644012451172e-01) (176, 3.00493896007537841797e-01) (177, 2.32053518295288085938e-01) (178, 7.46840655803680419922e-01) (179, 6.66375458240509033203e-01) (180, 3.76460373401641845703e-01) (181, 6.43767476081848144531e-01) (182, 3.19616913795471191406e-01) (183, 5.92800319194793701172e-01) (184, 7.46320247650146484375e-01) (185, 7.47291564941406250000e-01) (186, 3.50726544857025146484e-01) (187, 6.09405457973480224609e-01) (188, 7.44254648685455322266e-01) (189, 4.00150418281555175781e-01) (190, 5.70894241333007812500e-01) (191, 6.64772033691406250000e-01) (192, 6.01143300533294677734e-01) (193, 6.73401176929473876953e-01) (194, 7.47127056121826171875e-01) (195, 6.94602072238922119141e-01) (196, 7.60471940040588378906e-01) (197, 6.78083121776580810547e-01) (198, 2.28876665234565734863e-01) (199, 2.28745251893997192383e-01) (200, 7.03693628311157226562e-01) (201, 3.44918847084045410156e-01) (202, 6.38275682926177978516e-01) (203, 3.65860879421234130859e-01) (204, 2.76551336050033569336e-01) (205, 2.81405955553054809570e-01) (206, 3.31423789262771606445e-01) (207, 7.51971542835235595703e-01) (208, 7.09079682826995849609e-01) (209, 6.73647463321685791016e-01) (210, 6.51714026927947998047e-01) (211, 6.88900649547576904297e-01) (212, 7.54153311252593994141e-01) (213, 5.93983948230743408203e-01) (214, 6.98217928409576416016e-01) (215, 7.22052633762359619141e-01) (216, 7.66392111778259277344e-01) (217, 6.73041403293609619141e-01) (218, 7.68751442432403564453e-01) (219, 7.43658006191253662109e-01) (220, 6.64550006389617919922e-01) (221, 1.96806102991104125977e-01) (222, 6.25292479991912841797e-01) (223, 6.84699296951293945312e-01) (224, 2.86138743162155151367e-01) (225, 2.27665811777114868164e-01) (226, 6.10731244087219238281e-01) (227, 6.59365713596343994141e-01) (228, 7.24687337875366210938e-01) (229, 2.63511121273040771484e-01) (230, 7.00685024261474609375e-01) (231, 2.68714934587478637695e-01) (232, 5.60135900974273681641e-01) (233, 3.79095464944839477539e-01) (234, 2.45868578553199768066e-01) (235, 6.57911121845245361328e-01) (236, 6.48703813552856445312e-01) (237, 5.73021113872528076172e-01) (238, 6.44896447658538818359e-01) (239, 2.18082845211029052734e-01) (240, 3.12833309173583984375e-01) (241, 7.21580505371093750000e-01) (242, 6.90881192684173583984e-01) (243, 2.90704965591430664062e-01) (244, 3.94532561302185058594e-01) (245, 2.55901873111724853516e-01) (246, 2.76378005743026733398e-01) (247, 3.72851848602294921875e-01) (248, 3.66007357835769653320e-01) (249, 6.13662600517272949219e-01) (250, 7.19583511352539062500e-01) (251, 6.10940217971801757812e-01) (252, 6.23922169208526611328e-01) (253, 5.70375919342041015625e-01) (254, 7.23578155040740966797e-01) (255, 7.20240831375122070312e-01) (256, 6.16490960121154785156e-01) (257, 7.72427499294281005859e-01) (258, 6.32233440876007080078e-01) (259, 5.64497292041778564453e-01) (260, 6.45667731761932373047e-01) (261, 7.33487784862518310547e-01) (262, 6.64637327194213867188e-01) (263, 6.49806916713714599609e-01) (264, 7.29498028755187988281e-01) (265, 7.12163925170898437500e-01) (266, 7.36054062843322753906e-01) (267, 6.34794354438781738281e-01) (268, 7.22184002399444580078e-01) (269, 6.16520106792449951172e-01) (270, 6.11726284027099609375e-01) (271, 2.87901759147644042969e-01) (272, 7.64153361320495605469e-01) (273, 3.63356500864028930664e-01) (274, 3.62762063741683959961e-01) (275, 3.52468460798263549805e-01) (276, 5.76340496540069580078e-01) (277, 5.79098045825958251953e-01) (278, 7.20326244831085205078e-01) (279, 7.26815342903137207031e-01) (280, 6.24718427658081054688e-01) (281, 6.56413197517395019531e-01) (282, 5.79311251640319824219e-01) (283, 6.82838141918182373047e-01) (284, 6.64728045463562011719e-01) (285, 7.40405380725860595703e-01) (286, 6.30976438522338867188e-01) (287, 7.17548370361328125000e-01) (288, 5.11239945888519287109e-01) (0, 1.50000000000000000000e+03) (1, 2.72385627031326293945e-01) (2, 1.77780061960220336914e-01) (3, 1.81630864739418029785e-01) (4, 1.60347104072570800781e-01) (5, 7.70568549633026123047e-01) (6, 1.47365570068359375000e-01) (7, 2.99578845500946044922e-01) (8, 2.06133440136909484863e-01) (9, 6.78244113922119140625e-01) (10, 7.69568920135498046875e-01) (11, 7.50074386596679687500e-01) (12, 8.24786841869354248047e-01) (13, 2.94580817222595214844e-01) (14, 2.26075619459152221680e-01) (15, 6.71405673027038574219e-01) (16, 2.61875331401824951172e-01) (17, 1.97322443127632141113e-01) (18, 1.83503910899162292480e-01) (19, 7.70321667194366455078e-01) (20, 1.43753975629806518555e-01) (21, 1.32308840751647949219e-01) (22, 8.19685459136962890625e-01) (23, 7.34455645084381103516e-01) (24, 1.45204544067382812500e-01) (25, 7.49068617820739746094e-01) (26, 3.32847952842712402344e-01) (27, 3.07880520820617675781e-01) (28, 8.06008875370025634766e-01) (29, 2.77963221073150634766e-01) (30, 2.58747041225433349609e-01) (31, 1.75491958856582641602e-01) (32, 2.09169670939445495605e-01) (33, 3.06248724460601806641e-01) (34, 7.39584743976593017578e-01) (35, 2.39435449242591857910e-01) (36, 2.16154873371124267578e-01) (37, 2.47510746121406555176e-01) (38, 2.15092927217483520508e-01) (39, 2.95657634735107421875e-01) (40, 2.99185752868652343750e-01) (41, 1.26103982329368591309e-01) (42, 7.28754341602325439453e-01) (43, 1.82441815733909606934e-01) (44, 3.14017951488494873047e-01) (45, 8.02742242813110351562e-01) (46, 7.48068630695343017578e-01) (47, 2.42151528596878051758e-01) (48, 6.96022212505340576172e-01) (49, 8.89501810073852539062e-01) (50, 6.93628370761871337891e-01) (51, 7.08421468734741210938e-01) (52, 3.53242337703704833984e-01) (53, 1.71189770102500915527e-01) (54, 2.87714093923568725586e-01) (55, 9.19892430305480957031e-01) (56, 7.82439053058624267578e-01) (57, 2.87386864423751831055e-01) (58, 7.89363920688629150391e-01) (59, 7.12735474109649658203e-01) (60, 8.34888637065887451172e-01) (61, 7.54265069961547851562e-01) (62, 7.72499918937683105469e-01) (63, 3.27804565429687500000e-01) (64, 1.98186397552490234375e-01) (65, 6.85348093509674072266e-01) (66, 2.30554163455963134766e-01) (67, 2.80268758535385131836e-01) (68, 2.88219004869461059570e-01) (69, 3.12120527029037475586e-01) (70, 2.52037614583969116211e-01) (71, 2.61331379413604736328e-01) (72, 8.26424121856689453125e-01) (73, 3.25545489788055419922e-01) (74, 3.14726769924163818359e-01) (75, 3.07515949010848999023e-01) (76, 2.90051817893981933594e-01) (77, 2.07005411386489868164e-01) (78, 7.25719273090362548828e-01) (79, 1.37987643480300903320e-01) (80, 6.81849360466003417969e-01) (81, 8.02288770675659179688e-01) (82, 6.89385175704956054688e-01) (83, 8.51580023765563964844e-01) (84, 8.27299356460571289062e-01) (85, 1.45760908722877502441e-01) (86, 3.05819928646087646484e-01) (87, 7.73937761783599853516e-01) (88, 8.28535377979278564453e-01) (89, 7.88711965084075927734e-01) (90, 6.44944906234741210938e-01) (91, 1.99289813637733459473e-01) (92, 1.62645816802978515625e-01) (93, 2.58580625057220458984e-01) (94, 7.19079971313476562500e-01) (95, 7.48831748962402343750e-01) (96, 2.94032186269760131836e-01) (97, 2.82228529453277587891e-01) (98, 1.89344614744186401367e-01) (99, 2.61683821678161621094e-01) (100, 2.77327150106430053711e-01) (101, 3.02826523780822753906e-01) (102, 1.86785802245140075684e-01) (103, 2.70135194063186645508e-01) (104, 3.00505310297012329102e-01) (105, 1.70904427766799926758e-01) (106, 2.37897202372550964355e-01) (107, 2.70269423723220825195e-01) (108, 2.57994085550308227539e-01) (109, 6.54218971729278564453e-01) (110, 2.81550556421279907227e-01) (111, 2.90336340665817260742e-01) (112, 8.21567177772521972656e-01) (113, 6.57637476921081542969e-01) (114, 7.98219025135040283203e-01) (115, 2.77898401021957397461e-01) (116, 1.49225845932960510254e-01) (117, 7.64150023460388183594e-01) (118, 2.01964437961578369141e-01) (119, 1.30948781967163085938e-01) (120, 1.86148703098297119141e-01) (121, 2.04151913523674011230e-01) (122, 2.00867459177970886230e-01) (123, 2.18518123030662536621e-01) (124, 6.45697891712188720703e-01) (125, 2.58824288845062255859e-01) (126, 3.17601293325424194336e-01) (127, 2.92398601770401000977e-01) (128, 2.14935585856437683105e-01) (129, 7.09331631660461425781e-01) (130, 2.26759329438209533691e-01) (131, 1.64140865206718444824e-01) (132, 6.67082726955413818359e-01) (133, 8.29712450504302978516e-01) (134, 8.16530406475067138672e-01) (135, 6.48389995098114013672e-01) (136, 6.45160138607025146484e-01) (137, 7.66387224197387695312e-01) (138, 8.15107703208923339844e-01) (139, 7.65501141548156738281e-01) (140, 7.65088856220245361328e-01) (141, 7.50886023044586181641e-01) (142, 7.32178509235382080078e-01) (143, 7.44547128677368164062e-01) (144, 7.68585264682769775391e-01) (145, 6.92749381065368652344e-01) (146, 1.75501555204391479492e-01) (147, 2.91684150695800781250e-01) (148, 3.03070336580276489258e-01) (149, 2.38108500838279724121e-01) (150, 2.92211204767227172852e-01) (151, 1.68201744556427001953e-01) (152, 3.19988965988159179688e-01) (153, 1.55944168567657470703e-01) (154, 2.66241401433944702148e-01) (155, 3.22875618934631347656e-01) (156, 2.91866213083267211914e-01) (157, 2.58669376373291015625e-01) (158, 2.95192658901214599609e-01) (159, 1.82206854224205017090e-01) (160, 3.21132659912109375000e-01) (161, 1.94298222661018371582e-01) (162, 7.38169074058532714844e-01) (163, 1.51339843869209289551e-01) (164, 6.69681131839752197266e-01) (165, 6.98162138462066650391e-01) (166, 6.82658851146697998047e-01) (167, 1.47643551230430603027e-01) (168, 3.05323034524917602539e-01) (169, 1.32251560688018798828e-01) (170, 2.72135525941848754883e-01) (171, 2.30968341231346130371e-01) (172, 2.41604939103126525879e-01) (173, 1.57373607158660888672e-01) (174, 8.46086084842681884766e-01) (175, 1.82479068636894226074e-01) (176, 7.25609660148620605469e-01) (177, 6.62466049194335937500e-01) (178, 1.46567389369010925293e-01) (179, 1.81189998984336853027e-01) (180, 7.91275203227996826172e-01) (181, 2.98876106739044189453e-01) (182, 7.27163493633270263672e-01) (183, 2.70364463329315185547e-01) (184, 1.41738206148147583008e-01) (185, 1.59930214285850524902e-01) (186, 7.65318989753723144531e-01) (187, 3.00398170948028564453e-01) (188, 2.92422026395797729492e-01) (189, 7.48816013336181640625e-01) (190, 1.44864290952682495117e-01) (191, 2.74894088506698608398e-01) (192, 2.96400308609008789062e-01) (193, 2.41887271404266357422e-01) (194, 2.89255768060684204102e-01) (195, 3.11333566904067993164e-01) (196, 3.15876990556716918945e-01) (197, 1.35128200054168701172e-01) (198, 6.34370505809783935547e-01) (199, 7.93831110000610351562e-01) (200, 1.41455769538879394531e-01) (201, 7.78250932693481445312e-01) (202, 1.88207104802131652832e-01) (203, 7.64749169349670410156e-01) (204, 8.27539920806884765625e-01) (205, 6.85901701450347900391e-01) (206, 8.29450726509094238281e-01) (207, 1.94571271538734436035e-01) (208, 2.11132287979125976562e-01) (209, 3.21702212095260620117e-01) (210, 2.58440017700195312500e-01) (211, 1.59734815359115600586e-01) (212, 3.03303420543670654297e-01) (213, 1.56909137964248657227e-01) (214, 2.88053244352340698242e-01) (215, 3.08022379875183105469e-01) (216, 1.90193712711334228516e-01) (217, 2.33941510319709777832e-01) (218, 2.90211796760559082031e-01) (219, 1.57008767127990722656e-01) (220, 3.27943265438079833984e-01) (221, 8.28699648380279541016e-01) (222, 2.93357014656066894531e-01) (223, 2.97996461391448974609e-01) (224, 7.27960944175720214844e-01) (225, 7.70261883735656738281e-01) (226, 2.75546908378601074219e-01) (227, 2.08905979990959167480e-01) (228, 2.78703719377517700195e-01) (229, 7.78831362724304199219e-01) (230, 1.66904330253601074219e-01) (231, 7.97142148017883300781e-01) (232, 2.25097373127937316895e-01) (233, 7.25978016853332519531e-01) (234, 7.18200445175170898438e-01) (235, 2.19234600663185119629e-01) (236, 2.64959216117858886719e-01) (237, 2.04558640718460083008e-01) (238, 2.93854922056198120117e-01) (239, 6.74906790256500244141e-01) (240, 7.26452648639678955078e-01) (241, 2.22401633858680725098e-01) (242, 1.68151825666427612305e-01) (243, 6.91970050334930419922e-01) (244, 7.80184864997863769531e-01) (245, 6.55069410800933837891e-01) (246, 7.06474721431732177734e-01) (247, 8.24465155601501464844e-01) (248, 7.67210602760314941406e-01) (249, 3.16866427659988403320e-01) (250, 1.34392678737640380859e-01) (251, 2.29146301746368408203e-01) (252, 3.08104127645492553711e-01) (253, 2.96587586402893066406e-01) (254, 1.88460379838943481445e-01) (255, 1.96772083640098571777e-01) (256, 2.35635638236999511719e-01) (257, 1.43658399581909179688e-01) (258, 2.80842989683151245117e-01) (259, 1.83394849300384521484e-01) (260, 2.84914642572402954102e-01) (261, 3.08739125728607177734e-01) (262, 1.44141271710395812988e-01) (263, 1.89856559038162231445e-01) (264, 2.07082346081733703613e-01) (265, 2.34787747263908386230e-01) (266, 2.80541211366653442383e-01) (267, 1.33813053369522094727e-01) (268, 3.17304581403732299805e-01) (269, 2.48339146375656127930e-01) (270, 1.55607461929321289062e-01) (271, 7.15122222900390625000e-01) (272, 1.35534897446632385254e-01) (273, 7.15678155422210693359e-01) (274, 7.71306097507476806641e-01) (275, 7.53428876399993896484e-01) (276, 1.93695366382598876953e-01) (277, 2.81211256980895996094e-01) (278, 2.36386150121688842773e-01) (279, 3.01774322986602783203e-01) (280, 2.71738588809967041016e-01) (281, 2.34204173088073730469e-01) (282, 2.14046388864517211914e-01) (283, 2.58931905031204223633e-01) (284, 2.06363782286643981934e-01) (285, 2.87799954414367675781e-01) (286, 1.30413040518760681152e-01) (287, 1.34208559989929199219e-01) (288, -4.49341125786304473877e-02) (0, 1.50000000000000000000e+03) (1, -8.77496525645256042480e-02) (2, -3.37374024093151092529e-02) (3, -1.61702521145343780518e-02) (4, -7.31552988290786743164e-02) (5, 3.99220436811447143555e-01) (6, -1.43702402710914611816e-01) (7, -1.49313718080520629883e-01) (8, -1.62849873304367065430e-02) (9, 2.35518813133239746094e-01) (10, 4.00582224130630493164e-01) (11, 2.60558634996414184570e-01) (12, 2.88801550865173339844e-01) (13, -9.11522507667541503906e-02) (14, -9.24114286899566650391e-02) (15, 3.29736083745956420898e-01) (16, 1.60693507641553878784e-02) (17, 2.89124306291341781616e-02) (18, 3.46961505711078643799e-02) (19, 3.29658448696136474609e-01) (20, -5.83159327507019042969e-02) (21, 1.20678590610623359680e-02) (22, 2.79749274253845214844e-01) (23, 2.15430110692977905273e-01) (24, -8.62916260957717895508e-02) (25, 2.05206677317619323730e-01) (26, -6.32353797554969787598e-02) (27, -1.34791433811187744141e-01) (28, 2.06857085227966308594e-01) (29, -5.92714175581932067871e-02) (30, 2.01752465218305587769e-02) (31, -6.64078304544091224670e-03) (32, 5.60062192380428314209e-03) (33, -4.00820001959800720215e-02) (34, 3.00327152013778686523e-01) (35, -8.88367220759391784668e-02) (36, -4.32904660701751708984e-02) (37, -5.22276535630226135254e-02) (38, -8.85879546403884887695e-02) (39, -9.84159633517265319824e-02) (40, -1.00186150521039962769e-02) (41, -9.54089984297752380371e-02) (42, 3.21444928646087646484e-01) (43, -1.51130691170692443848e-01) (44, -4.09568510949611663818e-02) (45, 3.92152190208435058594e-01) (46, 3.28954488039016723633e-01) (47, -5.85872195661067962646e-02) (48, 3.74530434608459472656e-01) (49, 3.57466101646423339844e-01) (50, 2.23104342818260192871e-01) (51, 2.77091205120086669922e-01) (52, -1.18089675903320312500e-01) (53, -6.19257241487503051758e-02) (54, -7.19058588147163391113e-02) (55, 3.99076521396636962891e-01) (56, 3.05409997701644897461e-01) (57, 2.10779756307601928711e-02) (58, 3.91627460718154907227e-01) (59, 3.06226044893264770508e-01) (60, 3.22589308023452758789e-01) (61, 3.81082653999328613281e-01) (62, 2.54752814769744873047e-01) (63, -8.99833515286445617676e-02) (64, -5.96642121672630310059e-02) (65, 3.55698674917221069336e-01) (66, -2.74149458855390548706e-02) (67, -1.58389076590538024902e-01) (68, -8.61047208309173583984e-02) (69, 3.65507714450359344482e-02) (70, -9.20894742012023925781e-02) (71, -1.41426056623458862305e-01) (72, 2.57283657789230346680e-01) (73, 2.61520426720380783081e-02) (74, -1.36427849531173706055e-01) (75, 1.76812391728162765503e-02) (76, 3.02425911650061607361e-03) (77, -1.99813190847635269165e-02) (78, 2.74412840604782104492e-01) (79, -1.72901414334774017334e-02) (80, 2.81527012586593627930e-01) (81, 2.97474950551986694336e-01) (82, 2.21918120980262756348e-01) (83, 3.83879065513610839844e-01) (84, 3.91902983188629150391e-01) (85, -5.75887300074100494385e-02) (86, -1.49883069097995758057e-02) (87, 2.97222971916198730469e-01) (88, 2.89917588233947753906e-01) (89, 3.40098530054092407227e-01) (90, 3.92334491014480590820e-01) (91, 1.13631561398506164551e-02) (92, -5.03340922296047210693e-02) (93, -1.09232917428016662598e-01) (94, 2.40295127034187316895e-01) (95, 2.00451239943504333496e-01) (96, -1.54995128512382507324e-01) (97, -1.30122154951095581055e-02) (98, -1.43920361995697021484e-01) (99, -9.17612910270690917969e-02) (100, -1.33611960336565971375e-02) (101, -6.78010061383247375488e-02) (102, -7.22287818789482116699e-02) (103, -1.52880102396011352539e-01) (104, -8.05357024073600769043e-02) (105, -5.02995848655700683594e-02) (106, 2.74559091776609420776e-02) (107, -1.27650439739227294922e-01) (108, -1.00073233246803283691e-01) (109, 2.45742470026016235352e-01) (110, 1.55008928850293159485e-02) (111, -2.50758193433284759521e-02) (112, 3.40107321739196777344e-01) (113, 2.01442331075668334961e-01) (114, 3.12941372394561767578e-01) (115, -2.95217875391244888306e-02) (116, -5.42267374694347381592e-02) (117, 2.50791341066360473633e-01) (118, -1.45367294549942016602e-01) (119, 2.89750676602125167847e-02) (120, 2.27490626275539398193e-02) (121, -1.54361501336097717285e-01) (122, -1.96209922432899475098e-03) (123, -6.96185156702995300293e-02) (124, 2.46045529842376708984e-01) (125, 3.39055769145488739014e-02) (126, -6.36671707034111022949e-02) (127, -1.10108070075511932373e-01) (128, -5.28298271819949150085e-03) (129, 3.26595842838287353516e-01) (130, -3.26901227235794067383e-02) (131, -7.13355988264083862305e-02) (132, 2.08705559372901916504e-01) (133, 2.47078567743301391602e-01) (134, 3.00223290920257568359e-01) (135, 2.78094768524169921875e-01) (136, 3.26583266258239746094e-01) (137, 2.77127861976623535156e-01) (138, 3.20458918809890747070e-01) (139, 3.88725250959396362305e-01) (140, 3.02700012922286987305e-01) (141, 2.96116322278976440430e-01) (142, 3.17072480916976928711e-01) (143, 2.42832154035568237305e-01) (144, 3.08791458606719970703e-01) (145, 2.27820247411727905273e-01) (146, 1.25999748706817626953e-02) (147, -1.50459170341491699219e-01) (148, -8.27549919486045837402e-02) (149, 1.68622564524412155151e-02) (150, 3.89527641236782073975e-02) (151, -7.84547850489616394043e-02) (152, 3.49924825131893157959e-02) (153, -1.48538844659924507141e-02) (154, 1.76723264157772064209e-02) (155, -1.11656852066516876221e-01) (156, -4.92847757413983345032e-03) (157, -7.25715681910514831543e-02) (158, -5.58595508337020874023e-02) (159, -6.79929330945014953613e-02) (160, -1.55648037791252136230e-01) (161, -1.29416882991790771484e-01) (162, 3.96968573331832885742e-01) (163, -1.53616905212402343750e-01) (164, 2.55680054426193237305e-01) (165, 2.92900145053863525391e-01) (166, 2.80029863119125366211e-01) (167, 4.74889716133475303650e-03) (168, -5.88212069123983383179e-03) (169, 3.40741612017154693604e-02) (170, -1.19256880134344100952e-02) (171, -9.42792072892189025879e-02) (172, -7.15936124324798583984e-02) (173, -9.04608443379402160645e-02) (174, 3.18063080310821533203e-01) (175, -1.56981870532035827637e-01) (176, 3.01891595125198364258e-01) (177, 2.89039194583892822266e-01) (178, -1.53029471635818481445e-01) (179, 2.30989027768373489380e-02) (180, 2.70127475261688232422e-01) (181, -1.65123865008354187012e-01) (182, 2.75417745113372802734e-01) (183, -9.40847024321556091309e-02) (184, 1.18912488687783479691e-03) (185, -1.12955667078495025635e-01) (186, 3.15015166997909545898e-01) (187, -5.08887134492397308350e-02) (188, -2.46885549277067184448e-02) (189, 2.23250463604927062988e-01) (190, 3.34077291190624237061e-02) (191, -1.68309994041919708252e-02) (192, -1.13247148692607879639e-01) (193, 3.57082188129425048828e-02) (194, -7.00860982760787010193e-03) (195, -6.18361942470073699951e-02) (196, -8.08013752102851867676e-02) (197, -1.42987295985221862793e-01) (198, 2.79539823532104492188e-01) (199, 2.38633081316947937012e-01) (200, -1.40180438756942749023e-01) (201, 2.39385381340980529785e-01) (202, -6.15894570946693420410e-02) (203, 3.22045743465423583984e-01) (204, 2.97804266214370727539e-01) (205, 2.05880105495452880859e-01) (206, 3.19470435380935668945e-01) (207, -1.60064876079559326172e-01) (208, -6.48988634347915649414e-02) (209, -4.11305353045463562012e-02) (210, 2.76410579681396484375e-02) (211, 5.21198008209466934204e-03) (212, -2.21730638295412063599e-02) (213, -9.11829024553298950195e-02) (214, -1.37334853410720825195e-01) (215, -7.67154693603515625000e-02) (216, -4.29956801235675811768e-02) (217, -2.24309265613555908203e-02) (218, 3.90719100832939147949e-02) (219, -1.15024849772453308105e-01) (220, -1.88221238204278051853e-04) (221, 3.93501222133636474609e-01) (222, 2.17973385006189346313e-02) (223, -1.57053023576736450195e-01) (224, 3.82227420806884765625e-01) (225, 3.46631139516830444336e-01) (226, -5.63108623027801513672e-02) (227, -9.31808575987815856934e-02) (228, 1.10305775888264179230e-03) (229, 3.89440268278121948242e-01) (230, -6.22424967586994171143e-02) (231, 3.78099709749221801758e-01) (232, -1.59273251891136169434e-01) (233, 4.02804762125015258789e-01) (234, 3.10191214084625244141e-01) (235, -4.45061512291431427002e-02) (236, -1.47822961211204528809e-01) (237, -1.34695842862129211426e-01) (238, -3.26103679835796356201e-02) (239, 3.19389700889587402344e-01) (240, 3.52095633745193481445e-01) (241, -3.18122915923595428467e-02) (242, -7.57651254534721374512e-02) (243, 2.85683065652847290039e-01) (244, 4.02366459369659423828e-01) (245, 3.17744076251983642578e-01) (246, 3.84210377931594848633e-01) (247, 3.13942074775695800781e-01) (248, 2.60540246963500976562e-01) (249, 3.53540014475584030151e-03) (250, 3.35850520059466362000e-03) (251, -1.60484790802001953125e-01) (252, 4.68250876292586326599e-03) (253, -1.28365233540534973145e-02) (254, -1.50349810719490051270e-01) (255, -1.68276689946651458740e-02) (256, -7.72696211934089660645e-02) (257, -3.62587086856365203857e-02) (258, -1.39324516057968139648e-01) (259, -1.10445424914360046387e-01) (260, -6.68670758605003356934e-02) (261, -5.46484962105751037598e-02) (262, -1.13035887479782104492e-01) (263, -4.30561788380146026611e-02) (264, -4.94413971900939941406e-02) (265, -2.23442390561103820801e-02) (266, -1.27705976366996765137e-01) (267, -2.44768280535936355591e-02) (268, 1.30516318604350090027e-02) (269, -1.26191787421703338623e-02) (270, -1.23142935335636138916e-01) (271, 3.25468808412551879883e-01) (272, -7.49584883451461791992e-02) (273, 3.25009614229202270508e-01) (274, 2.09377944469451904297e-01) (275, 2.81756222248077392578e-01) (276, -1.37045413255691528320e-01) (277, 2.03967615962028503418e-02) (278, 2.59979758411645889282e-02) (279, -8.68385583162307739258e-02) (280, -2.02647428959608078003e-02) (281, -1.53566971421241760254e-02) (282, -7.16178417205810546875e-02) (283, -4.77460250258445739746e-02) (284, -6.03076927363872528076e-02) (285, -5.28466105461120605469e-02) (286, -9.49386432766914367676e-02) (287, 3.58935892581939697266e-02) (288, -1.90785542130470275879e-01) (0, 1.50000000000000000000e+03) (1, -1.02004565298557281494e-01) (2, -3.83794717490673065186e-02) (3, 3.68028990924358367920e-02) (4, -6.85742124915122985840e-02) (5, 2.44616791605949401855e-01) (6, -5.61581812798976898193e-02) (7, -1.14140741527080535889e-01) (8, -9.32381898164749145508e-02) (9, 2.37070724368095397949e-01) (10, 2.13404834270477294922e-01) (11, 2.25679710507392883301e-01) (12, 3.02208125591278076172e-01) (13, -2.45724935084581375122e-02) (14, -5.18264174461364746094e-02) (15, 3.94888699054718017578e-01) (16, -3.03402487188577651978e-02) (17, 1.84984076768159866333e-02) (18, -1.44776806235313415527e-01) (19, 3.09751033782958984375e-01) (20, 1.04182399809360504150e-02) (21, -6.71604126691818237305e-02) (22, 2.60366231203079223633e-01) (23, 3.21200340986251831055e-01) (24, 3.72623875737190246582e-02) (25, 3.74646276235580444336e-01) (26, -1.39756396412849426270e-01) (27, -6.18418455123901367188e-02) (28, 2.42037221789360046387e-01) (29, -1.42302766442298889160e-01) (30, -4.99750189483165740967e-02) (31, -4.33005876839160919189e-02) (32, -9.14096236228942871094e-02) (33, -1.14874325692653656006e-01) (34, 3.16308289766311645508e-01) (35, 1.76956448704004287720e-02) (36, -7.29628428816795349121e-02) (37, -1.48701980710029602051e-01) (38, -1.46422713994979858398e-01) (39, -5.04156062379479408264e-03) (40, -1.05428211390972137451e-01) (41, -1.40421301126480102539e-01) (42, 3.79940271377563476562e-01) (43, -3.31338644027709960938e-02) (44, -1.93893834948539733887e-02) (45, 2.91232526302337646484e-01) (46, 3.12104016542434692383e-01) (47, -8.34293961524963378906e-02) (48, 2.63196706771850585938e-01) (49, 3.61142456531524658203e-01) (50, 3.77539187669754028320e-01) (51, 2.34491720795631408691e-01) (52, -1.93641468882560729980e-01) (53, -1.26873865723609924316e-01) (54, -7.96678196638822555542e-03) (55, 2.47538343071937561035e-01) (56, 2.09901407361030578613e-01) (57, 8.49592313170433044434e-03) (58, 3.12579274177551269531e-01) (59, 2.46238425374031066895e-01) (60, 4.26975697278976440430e-01) (61, 2.31608256697654724121e-01) (62, 3.57432395219802856445e-01) (63, -8.28833654522895812988e-02) (64, -8.42072144150733947754e-02) (65, 2.73612886667251586914e-01) (66, -1.13322950899600982666e-01) (67, -1.30078559741377830505e-02) (68, -6.39185160398483276367e-02) (69, -1.06788881123065948486e-01) (70, -5.29305711388587951660e-02) (71, -1.46496389061212539673e-02) (72, 2.68528431653976440430e-01) (73, -7.61936753988265991211e-02) (74, -9.16544273495674133301e-02) (75, -1.49174153804779052734e-01) (76, -2.41182468016631901264e-04) (77, 7.94181227684020996094e-03) (78, 2.81729191541671752930e-01) (79, -1.31889104843139648438e-01) (80, 3.13126415014266967773e-01) (81, 2.59879708290100097656e-01) (82, 2.64719337224960327148e-01) (83, 3.41265559196472167969e-01) (84, 2.90785163640975952148e-01) (85, -1.50848045945167541504e-01) (86, -1.09387077391147613525e-02) (87, 2.99170851707458496094e-01) (88, 3.84076029062271118164e-01) (89, 2.65099942684173583984e-01) (90, 3.33614379167556762695e-01) (91, 9.90790873765945434570e-03) (92, -7.48072564601898193359e-02) (93, -6.49339407682418823242e-02) (94, 2.45939835906028747559e-01) (95, 3.51435065269470214844e-01) (96, 8.24058894068002700806e-03) (97, -9.32753980159759521484e-02) (98, -4.68760617077350616455e-02) (99, -1.06615304946899414062e-01) (100, -3.73672880232334136963e-02) (101, -1.31873592734336853027e-01) (102, 3.96938771009445190430e-02) (103, 3.43584492802619934082e-02) (104, -4.69542257487773895264e-02) (105, -9.36034247279167175293e-02) (106, 4.75067347288131713867e-02) (107, -9.73344817757606506348e-02) (108, -1.15453951060771942139e-01) (109, 2.73763298988342285156e-01) (110, -6.87820762395858764648e-02) (111, -8.85714963078498840332e-03) (112, 3.30532968044281005859e-01) (113, 3.59960615634918212891e-01) (114, 2.84931391477584838867e-01) (115, -1.41639724373817443848e-01) (116, 1.07176546007394790649e-02) (117, 2.27107077836990356445e-01) (118, -5.55375218391418457031e-02) (119, -1.16077736020088195801e-02) (120, -7.59338662028312683105e-02) (121, -1.22912235558032989502e-01) (122, -4.40001785755157470703e-02) (123, 7.22537981346249580383e-03) (124, 3.21793973445892333984e-01) (125, -2.21169297583401203156e-03) (126, -3.58395315706729888916e-02) (127, -7.13999345898628234863e-02) (128, -1.21939539909362792969e-01) (129, 2.51191824674606323242e-01) (130, -8.43271613121032714844e-03) (131, -1.19982492178678512573e-02) (132, 2.69228607416152954102e-01) (133, 3.82855266332626342773e-01) (134, 3.46799284219741821289e-01) (135, 3.72199475765228271484e-01) (136, 2.19056367874145507812e-01) (137, 3.43754708766937255859e-01) (138, 2.44879618287086486816e-01) (139, 2.65817403793334960938e-01) (140, 1.97347640991210937500e-01) (141, 3.36254000663757324219e-01) (142, 2.10383445024490356445e-01) (143, 3.27552855014801025391e-01) (144, 3.07106882333755493164e-01) (145, 2.93396890163421630859e-01) (146, -1.44446194171905517578e-02) (147, -8.63142088055610656738e-02) (148, -4.08624969422817230225e-02) (149, -1.20352305471897125244e-01) (150, -1.37715220451354980469e-01) (151, -1.34924799203872680664e-01) (152, -7.07727521657943725586e-02) (153, -3.35600376129150390625e-02) (154, 3.77259105443954467773e-02) (155, -1.41397327184677124023e-01) (156, -6.00279681384563446045e-02) (157, -2.44141984730958938599e-02) (158, -4.71682325005531311035e-02) (159, -3.97490523755550384521e-02) (160, 1.70594155788421630859e-02) (161, -9.68714877963066101074e-02) (162, 2.84549802541732788086e-01) (163, -1.20386332273483276367e-01) (164, 2.24002391099929809570e-01) (165, 2.27685943245887756348e-01) (166, 2.07135021686553955078e-01) (167, -1.34455710649490356445e-01) (168, -5.09808119386434555054e-03) (169, -1.14399932324886322021e-01) (170, -7.40382298827171325684e-02) (171, 1.15246430505067110062e-03) (172, 1.97937022894620895386e-02) (173, -5.92626929283142089844e-02) (174, 2.98568069934844970703e-01) (175, -6.66624456644058227539e-02) (176, 3.98666739463806152344e-01) (177, 2.42499679327011108398e-01) (178, 1.20465480722486972809e-03) (179, -3.82334627211093902588e-02) (180, 2.86373227834701538086e-01) (181, 1.24421576038002967834e-02) (182, 3.57295125722885131836e-01) (183, 1.63957960903644561768e-02) (184, -3.99508289992809295654e-02) (185, -1.10248681157827377319e-02) (186, 3.95478934049606323242e-01) (187, -1.47128120064735412598e-01) (188, -7.46460333466529846191e-02) (189, 3.12405437231063842773e-01) (190, -3.45878936350345611572e-02) (191, -9.45416912436485290527e-02) (192, 8.45346879214048385620e-03) (193, -1.44706040620803833008e-01) (194, -5.17190098762512207031e-02) (195, 2.81867478042840957642e-02) (196, -1.27058520913124084473e-01) (197, -6.05928339064121246338e-02) (198, 2.30710625648498535156e-01) (199, 3.93159866333007812500e-01) (200, -6.26027304679155349731e-03) (201, 3.27738434076309204102e-01) (202, -1.16309821605682373047e-02) (203, 3.47629606723785400391e-01) (204, 2.17708230018615722656e-01) (205, 2.36343652009963989258e-01) (206, 2.35649973154067993164e-01) (207, -1.43083393573760986328e-01) (208, -8.09749513864517211914e-02) (209, 2.90070977061986923218e-02) (210, -1.70123167335987091064e-02) (211, 5.65775251016020774841e-03) (212, 2.55307387560606002808e-02) (213, -5.39589896798133850098e-02) (214, -2.66848150640726089478e-02) (215, -7.01516270637512207031e-02) (216, -1.03840872645378112793e-01) (217, -3.13169099390506744385e-02) (218, -5.03734201192855834961e-02) (219, -2.60579269379377365112e-02) (220, -1.19919195771217346191e-01) (221, 2.35829815268516540527e-01) (222, -1.66946426033973693848e-01) (223, -1.55083328485488891602e-01) (224, 2.44834899902343750000e-01) (225, 3.13176900148391723633e-01) (226, 3.56817618012428283691e-02) (227, -7.75238052010536193848e-02) (228, -1.49956271052360534668e-01) (229, 2.32565566897392272949e-01) (230, -9.09137278795242309570e-02) (231, 3.60960572957992553711e-01) (232, -2.77569182217121124268e-02) (233, 2.23299711942672729492e-01) (234, 3.18635940551757812500e-01) (235, 6.91406475380063056946e-03) (236, -9.72171947360038757324e-02) (237, -1.03477984666824340820e-02) (238, 3.54888439178466796875e-02) (239, 3.53919506072998046875e-01) (240, 3.46581399440765380859e-01) (241, -8.59689619392156600952e-03) (242, -4.10656221210956573486e-02) (243, 3.26483070850372314453e-01) (244, 2.63588339090347290039e-01) (245, 2.63396292924880981445e-01) (246, 2.32963994145393371582e-01) (247, 3.14042747020721435547e-01) (248, 3.97003889083862304688e-01) (249, -3.73867601156234741211e-02) (250, -1.08126088976860046387e-01) (251, -1.43752098083496093750e-01) (252, 6.08893996104598045349e-03) (253, -1.12788744270801544189e-01) (254, -1.31647422909736633301e-01) (255, -1.53783008456230163574e-01) (256, -1.06761567294597625732e-02) (257, -1.25866025686264038086e-01) (258, -6.03468827903270721436e-02) (259, 5.08842524141073226929e-03) (260, -1.13361231982707977295e-01) (261, -5.48689253628253936768e-03) (262, -1.46411927416920661926e-02) (263, 4.19660992920398712158e-02) (264, 1.98625754565000534058e-02) (265, -1.15504756569862365723e-01) (266, 8.73628165572881698608e-03) (267, -1.04566931724548339844e-01) (268, 4.42391745746135711670e-02) (269, -6.04381365701556205750e-03) (270, 3.12968268990516662598e-02) (271, 3.51142168045043945312e-01) (272, -4.69709746539592742920e-02) (273, 3.14148873090744018555e-01) (274, 2.77240782976150512695e-01) (275, 3.70689600706100463867e-01) (276, -2.55663925781846046448e-03) (277, -6.29867985844612121582e-02) (278, -8.55202376842498779297e-02) (279, -1.58859267830848693848e-02) (280, -1.44110828638076782227e-01) (281, -3.80834229290485382080e-02) (282, 1.60674918442964553833e-02) (283, 2.93546188622713088989e-02) (284, 1.70132834464311599731e-02) (285, -1.46458625793457031250e-01) (286, -1.54517203569412231445e-01) (287, -2.01919972896575927734e-02) (288, -1.73702731728553771973e-01) (0, 1.50000000000000000000e+03) (1, -4.25562858581542968750e-02) (2, -6.77907392382621765137e-02) (3, -9.46363434195518493652e-02) (4, -1.10731177031993865967e-01) (5, 3.00227463245391845703e-01) (6, -1.18293426930904388428e-01) (7, -4.94583845138549804688e-02) (8, -1.01184740662574768066e-01) (9, 2.94844985008239746094e-01) (10, 3.09274733066558837891e-01) (11, 2.22274884581565856934e-01) (12, 3.14422488212585449219e-01) (13, -1.03029072284698486328e-01) (14, -2.72436700761318206787e-02) (15, 3.96242260932922363281e-01) (16, -4.09338995814323425293e-02) (17, -6.82616084814071655273e-02) (18, -8.93439725041389465332e-03) (19, 2.15251922607421875000e-01) (20, 1.21399797499179840088e-02) (21, -6.03652521967887878418e-02) (22, 2.42083281278610229492e-01) (23, 3.00195425748825073242e-01) (24, -6.82569891214370727539e-02) (25, 2.33463838696479797363e-01) (26, -8.34405124187469482422e-02) (27, -6.09734728932380676270e-02) (28, 2.41723775863647460938e-01) (29, -1.42072215676307678223e-01) (30, -3.22999842464923858643e-02) (31, -2.46628094464540481567e-02) (32, -3.20069529116153717041e-02) (33, -1.26334294676780700684e-01) (34, 2.03506827354431152344e-01) (35, 3.52175123989582061768e-02) (36, -2.88120228797197341919e-02) (37, -1.23638950288295745850e-01) (38, -6.42184913158416748047e-02) (39, 3.11627257615327835083e-02) (40, -2.25905533879995346069e-02) (41, 3.73503640294075012207e-02) (42, 2.12740004062652587891e-01) (43, -1.38081684708595275879e-01) (44, -1.19771659374237060547e-01) (45, 3.48614722490310668945e-01) (46, 2.08509653806686401367e-01) (47, 5.59465028345584869385e-03) (48, 2.33818992972373962402e-01) (49, 3.93390655517578125000e-01) (50, 3.72585982084274291992e-01) (51, 2.06835612654685974121e-01) (52, -1.54598072171211242676e-01) (53, -1.50110140442848205566e-01) (54, -5.66277801990509033203e-02) (55, 3.80602657794952392578e-01) (56, 2.45482534170150756836e-01) (57, 1.61509215831756591797e-02) (58, 2.46971800923347473145e-01) (59, 2.81058102846145629883e-01) (60, 2.34861254692077636719e-01) (61, 3.83951663970947265625e-01) (62, 2.10890188813209533691e-01) (63, -1.53190139681100845337e-02) (64, -1.43323689699172973633e-01) (65, 2.14269280433654785156e-01) (66, -2.82367747277021408081e-02) (67, -2.79736444354057312012e-02) (68, -9.81991589069366455078e-02) (69, -1.39498353004455566406e-01) (70, -3.16921360790729522705e-02) (71, 3.39074656367301940918e-02) (72, 2.13893443346023559570e-01) (73, -2.21557486802339553833e-02) (74, -1.48045152425765991211e-01) (75, -1.04191750288009643555e-01) (76, -8.88210162520408630371e-02) (77, -1.52043417096138000488e-01) (78, 2.16389551758766174316e-01) (79, -4.98469918966293334961e-02) (80, 3.85389447212219238281e-01) (81, 3.88933211565017700195e-01) (82, 3.19105535745620727539e-01) (83, 2.53124147653579711914e-01) (84, 3.95176649093627929688e-01) (85, -1.45122900605201721191e-01) (86, 3.38916890323162078857e-02) (87, 2.40569368004798889160e-01) (88, 3.97456198930740356445e-01) (89, 2.44323059916496276855e-01) (90, 3.10172080993652343750e-01) (91, 3.11736501753330230713e-02) (92, -1.43240883946418762207e-01) (93, -3.52580547332763671875e-02) (94, 3.34769904613494873047e-01) (95, 2.23884776234626770020e-01) (96, -2.14273277670145034790e-02) (97, -1.19359150528907775879e-01) (98, 1.06079252436757087708e-02) (99, 2.94360425323247909546e-02) (100, -9.61604341864585876465e-02) (101, -5.31512834131717681885e-02) (102, 2.43023373186588287354e-02) (103, -7.90699049830436706543e-02) (104, -1.14193730056285858154e-01) (105, 3.46141532063484191895e-02) (106, -2.09390129894018173218e-02) (107, -5.31538426876068115234e-02) (108, -1.47221401333808898926e-01) (109, 3.39324206113815307617e-01) (110, -1.42559036612510681152e-01) (111, 3.16383019089698791504e-02) (112, 3.25147390365600585938e-01) (113, 3.40569704771041870117e-01) (114, 2.36355811357498168945e-01) (115, -4.12081032991409301758e-02) (116, -2.63362331315875053406e-03) (117, 2.23739326000213623047e-01) (118, -1.37075744569301605225e-02) (119, -1.18932202458381652832e-02) (120, -1.00078798830509185791e-01) (121, -1.04864217340946197510e-01) (122, -2.30199545621871948242e-02) (123, -8.53532478213310241699e-02) (124, 3.69518011808395385742e-01) (125, -9.24013108015060424805e-02) (126, -5.59683628380298614502e-02) (127, -5.33438362181186676025e-02) (128, -3.82129326462745666504e-02) (129, 2.88546919822692871094e-01) (130, -5.47284558415412902832e-02) (131, 1.29351522773504257202e-02) (132, 3.85306239128112792969e-01) (133, 3.21571260690689086914e-01) (134, 2.58304357528686523438e-01) (135, 2.21037596464157104492e-01) (136, 2.85989850759506225586e-01) (137, 3.86814028024673461914e-01) (138, 3.37898403406143188477e-01) (139, 3.00983488559722900391e-01) (140, 3.05967956781387329102e-01) (141, 3.55156302452087402344e-01) (142, 2.86044806241989135742e-01) (143, 2.31140151619911193848e-01) (144, 3.06957721710205078125e-01) (145, 3.20860236883163452148e-01) (146, -1.10544748604297637939e-02) (147, -1.00129000842571258545e-01) (148, -1.67668312788009643555e-02) (149, -7.48561546206474304199e-02) (150, -1.52091577649116516113e-01) (151, -1.35294318199157714844e-01) (152, -7.22847413271665573120e-03) (153, -2.66800466924905776978e-02) (154, -5.49020990729331970215e-02) (155, -3.01292631775140762329e-02) (156, -1.43337622284889221191e-01) (157, -1.37170836329460144043e-01) (158, -1.17843814194202423096e-01) (159, -3.93321178853511810303e-02) (160, -5.85727170109748840332e-02) (161, -1.34396180510520935059e-02) (162, 3.09900134801864624023e-01) (163, -7.99408406019210815430e-02) (164, 2.46150240302085876465e-01) (165, 3.63912761211395263672e-01) (166, 2.96648979187011718750e-01) (167, -4.53743971884250640869e-02) (168, -2.51833703368902206421e-02) (169, -1.31866917014122009277e-01) (170, -1.49790614843368530273e-01) (171, -1.10312484204769134521e-01) (172, 2.18444522470235824585e-02) (173, -5.93535900115966796875e-02) (174, 2.90337830781936645508e-01) (175, -6.50369673967361450195e-02) (176, 2.26039335131645202637e-01) (177, 2.38663136959075927734e-01) (178, -1.09847374260425567627e-02) (179, 1.32346302270889282227e-02) (180, 3.27305465936660766602e-01) (181, -1.38474879786372184753e-02) (182, 2.08713814616203308105e-01) (183, -7.91276469826698303223e-02) (184, -5.93605525791645050049e-02) (185, -4.95395623147487640381e-02) (186, 2.11223915219306945801e-01) (187, -4.98475991189479827881e-02) (188, -2.88425181061029434204e-02) (189, 2.57474690675735473633e-01) (190, -1.36890172958374023438e-01) (191, -1.23909480869770050049e-01) (192, 3.69544923305511474609e-02) (193, -2.16582715511322021484e-02) (194, -4.04108166694641113281e-02) (195, -1.21164202690124511719e-01) (196, -6.71552494168281555176e-02) (197, -1.59770414233207702637e-01) (198, 3.69566619396209716797e-01) (199, 2.32977971434593200684e-01) (200, -1.22905142605304718018e-01) (201, 3.91716480255126953125e-01) (202, -8.32778066396713256836e-02) (203, 2.32759311795234680176e-01) (204, 2.81595200300216674805e-01) (205, 3.56466412544250488281e-01) (206, 3.22128981351852416992e-01) (207, -5.21264560520648956299e-02) (208, 3.45839820802211761475e-02) (209, -9.64270457625389099121e-02) (210, -7.42846354842185974121e-02) (211, -3.81272360682487487793e-02) (212, -1.26193016767501831055e-01) (213, -5.98126426339149475098e-02) (214, -1.65716916322708129883e-01) (215, -4.12851870059967041016e-02) (216, -1.50903671979904174805e-01) (217, -1.54604271054267883301e-01) (218, -1.23950116336345672607e-01) (219, -2.70870607346296310425e-02) (220, -9.81374159455299377441e-02) (221, 2.59674549102783203125e-01) (222, 2.65655387192964553833e-03) (223, -1.04800552129745483398e-01) (224, 3.91374886035919189453e-01) (225, 2.94088155031204223633e-01) (226, -6.33864030241966247559e-02) (227, -7.07278624176979064941e-02) (228, -6.82229772210121154785e-02) (229, 2.72913336753845214844e-01) (230, -4.51301895081996917725e-02) (231, 3.26618164777755737305e-01) (232, -1.20914347469806671143e-01) (233, 3.97914260625839233398e-01) (234, 3.68854343891143798828e-01) (235, -2.45585069060325622559e-02) (236, -2.12720665149390697479e-03) (237, -7.33742341399192810059e-02) (238, 