FANN_FLO_2.1
num_layers=3
learning_rate=0.700000
connection_rate=1.000000
network_type=0
learning_momentum=0.100000
training_algorithm=2
train_error_function=1
train_stop_function=0
cascade_output_change_fraction=0.010000
quickprop_decay=-0.000100
quickprop_mu=1.750000
rprop_increase_factor=1.200000
rprop_decrease_factor=0.500000
rprop_delta_min=0.000000
rprop_delta_max=50.000000
rprop_delta_zero=0.100000
cascade_output_stagnation_epochs=12
cascade_candidate_change_fraction=0.010000
cascade_candidate_stagnation_epochs=12
cascade_max_out_epochs=150
cascade_min_out_epochs=50
cascade_max_cand_epochs=150
cascade_min_cand_epochs=50
cascade_num_candidate_groups=2
bit_fail_limit=3.49999994039535522461e-01
cascade_candidate_limit=1.00000000000000000000e+03
cascade_weight_multiplier=4.00000005960464477539e-01
cascade_activation_functions_count=10
cascade_activation_functions=3 5 7 8 10 11 14 15 16 17 
cascade_activation_steepnesses_count=4
cascade_activation_steepnesses=2.50000000000000000000e-01 5.00000000000000000000e-01 7.50000000000000000000e-01 1.00000000000000000000e+00 
layer_sizes=289 325 2 
scale_included=0
neurons (num_inputs, activation_function, activation_steepness)=(0, 0, 0.00000000000000000000e+00) (0, 0, 0.00000000000000000000e+00) (0, 0, 0.00000000000000000000e+00) (0, 0, 0.00000000000000000000e+00) (0, 0, 0.00000000000000000000e+00) (0, 0, 0.00000000000000000000e+00) (0, 0, 0.00000000000000000000e+00) (0, 0, 0.00000000000000000000e+00) (0, 0, 0.00000000000000000000e+00) (0, 0, 0.00000000000000000000e+00) (0, 0, 0.00000000000000000000e+00) (0, 0, 0.00000000000000000000e+00) (0, 0, 0.00000000000000000000e+00) (0, 0, 0.00000000000000000000e+00) (0, 0, 0.00000000000000000000e+00) (0, 0, 0.00000000000000000000e+00) (0, 0, 0.00000000000000000000e+00) (0, 0, 0.00000000000000000000e+00) (0, 0, 0.00000000000000000000e+00) (0, 0, 0.00000000000000000000e+00) (0, 0, 0.00000000000000000000e+00) (0, 0, 0.00000000000000000000e+00) (0, 0, 0.00000000000000000000e+00) (0, 0, 0.00000000000000000000e+00) (0, 0, 0.00000000000000000000e+00) (0, 0, 0.00000000000000000000e+00) (0, 0, 0.00000000000000000000e+00) (0, 0, 0.00000000000000000000e+00) (0, 0, 0.00000000000000000000e+00) (0, 0, 0.00000000000000000000e+00) (0, 0, 0.00000000000000000000e+00) (0, 0, 0.00000000000000000000e+00) (0, 0, 0.00000000000000000000e+00) (0, 0, 0.00000000000000000000e+00) (0, 0, 0.00000000000000000000e+00) (0, 0, 0.00000000000000000000e+00) (0, 0, 0.00000000000000000000e+00) (0, 0, 0.00000000000000000000e+00) (0, 0, 0.00000000000000000000e+00) (0, 0, 0.00000000000000000000e+00) (0, 0, 0.00000000000000000000e+00) (0, 0, 0.00000000000000000000e+00) (0, 0, 0.00000000000000000000e+00) (0, 0, 0.00000000000000000000e+00) (0, 0, 0.00000000000000000000e+00) (0, 0, 0.00000000000000000000e+00) (0, 0, 0.00000000000000000000e+00) (0, 0, 0.00000000000000000000e+00) (0, 0, 0.00000000000000000000e+00) (0, 0, 0.00000000000000000000e+00) (0, 0, 0.00000000000000000000e+00) (0, 0, 0.00000000000000000000e+00) (0, 0, 0.00000000000000000000e+00) (0, 0, 0.00000000000000000000e+00) (0, 0, 0.00000000000000000000e+00) (0, 0, 0.00000000000000000000e+00) (0, 0, 0.00000000000000000000e+00) (0, 0, 0.00000000000000000000e+00) (0, 0, 0.00000000000000000000e+00) (0, 0, 0.00000000000000000000e+00) (0, 0, 0.00000000000000000000e+00) (0, 0, 0.00000000000000000000e+00) (0, 0, 0.00000000000000000000e+00) (0, 0, 0.00000000000000000000e+00) (0, 0, 0.00000000000000000000e+00) (0, 0, 0.00000000000000000000e+00) (0, 0, 0.00000000000000000000e+00) (0, 0, 0.00000000000000000000e+00) (0, 0, 0.00000000000000000000e+00) (0, 0, 0.00000000000000000000e+00) (0, 0, 0.00000000000000000000e+00) (0, 0, 0.00000000000000000000e+00) (0, 0, 0.00000000000000000000e+00) (0, 0, 0.00000000000000000000e+00) (0, 0, 0.00000000000000000000e+00) (0, 0, 0.00000000000000000000e+00) (0, 0, 0.00000000000000000000e+00) (0, 0, 0.00000000000000000000e+00) (0, 0, 0.00000000000000000000e+00) (0, 0, 0.00000000000000000000e+00) (0, 0, 0.00000000000000000000e+00) (0, 0, 0.00000000000000000000e+00) (0, 0, 0.00000000000000000000e+00) (0, 0, 0.00000000000000000000e+00) (0, 0, 0.00000000000000000000e+00) (0, 0, 0.00000000000000000000e+00) (0, 0, 0.00000000000000000000e+00) (0, 0, 0.00000000000000000000e+00) (0, 0, 0.00000000000000000000e+00) (0, 0, 0.00000000000000000000e+00) (0, 0, 0.00000000000000000000e+00) (0, 0, 0.00000000000000000000e+00) (0, 0, 0.00000000000000000000e+00) (0, 0, 0.00000000000000000000e+00) (0, 0, 0.00000000000000000000e+00) (0, 0, 0.00000000000000000000e+00) (0, 0, 0.00000000000000000000e+00) (0, 0, 0.00000000000000000000e+00) (0, 0, 0.00000000000000000000e+00) (0, 0, 0.00000000000000000000e+00) (0, 0, 0.00000000000000000000e+00) (0, 0, 0.00000000000000000000e+00) (0, 0, 0.00000000000000000000e+00) (0, 0, 0.00000000000000000000e+00) (0, 0, 0.00000000000000000000e+00) (0, 0, 0.00000000000000000000e+00) (0, 0, 0.00000000000000000000e+00) (0, 0, 0.00000000000000000000e+00) (0, 0, 0.00000000000000000000e+00) (0, 0, 0.00000000000000000000e+00) (0, 0, 0.00000000000000000000e+00) (0, 0, 0.00000000000000000000e+00) (0, 0, 0.00000000000000000000e+00) (0, 0, 0.00000000000000000000e+00) (0, 0, 0.00000000000000000000e+00) (0, 0, 0.00000000000000000000e+00) (0, 0, 0.00000000000000000000e+00) (0, 0, 0.00000000000000000000e+00) (0, 0, 0.00000000000000000000e+00) (0, 0, 0.00000000000000000000e+00) (0, 0, 0.00000000000000000000e+00) (0, 0, 0.00000000000000000000e+00) (0, 0, 0.00000000000000000000e+00) (0, 0, 0.00000000000000000000e+00) (0, 0, 0.00000000000000000000e+00) (0, 0, 0.00000000000000000000e+00) (0, 0, 0.00000000000000000000e+00) (0, 0, 0.00000000000000000000e+00) (0, 0, 0.00000000000000000000e+00) (0, 0, 0.00000000000000000000e+00) (0, 0, 0.00000000000000000000e+00) (0, 0, 0.00000000000000000000e+00) (0, 0, 0.00000000000000000000e+00) (0, 0, 0.00000000000000000000e+00) (0, 0, 0.00000000000000000000e+00) (0, 0, 0.00000000000000000000e+00) (0, 0, 0.00000000000000000000e+00) (0, 0, 0.00000000000000000000e+00) (0, 0, 0.00000000000000000000e+00) (0, 0, 0.00000000000000000000e+00) (0, 0, 0.00000000000000000000e+00) (0, 0, 0.00000000000000000000e+00) (0, 0, 0.00000000000000000000e+00) (0, 0, 0.00000000000000000000e+00) (0, 0, 0.00000000000000000000e+00) (0, 0, 0.00000000000000000000e+00) (0, 0, 0.00000000000000000000e+00) (0, 0, 0.00000000000000000000e+00) (0, 0, 0.00000000000000000000e+00) (0, 0, 0.00000000000000000000e+00) (0, 0, 0.00000000000000000000e+00) (0, 0, 0.00000000000000000000e+00) (0, 0, 0.00000000000000000000e+00) (0, 0, 0.00000000000000000000e+00) (0, 0, 0.00000000000000000000e+00) (0, 0, 0.00000000000000000000e+00) (0, 0, 0.00000000000000000000e+00) (0, 0, 0.00000000000000000000e+00) (0, 0, 0.00000000000000000000e+00) (0, 0, 0.00000000000000000000e+00) (0, 0, 0.00000000000000000000e+00) (0, 0, 0.00000000000000000000e+00) (0, 0, 0.00000000000000000000e+00) (0, 0, 0.00000000000000000000e+00) (0, 0, 0.00000000000000000000e+00) (0, 0, 0.00000000000000000000e+00) (0, 0, 0.00000000000000000000e+00) (0, 0, 0.00000000000000000000e+00) (0, 0, 0.00000000000000000000e+00) (0, 0, 0.00000000000000000000e+00) (0, 0, 0.00000000000000000000e+00) (0, 0, 0.00000000000000000000e+00) (0, 0, 0.00000000000000000000e+00) (0, 0, 0.00000000000000000000e+00) (0, 0, 0.00000000000000000000e+00) (0, 0, 0.00000000000000000000e+00) (0, 0, 0.00000000000000000000e+00) (0, 0, 0.00000000000000000000e+00) (0, 0, 0.00000000000000000000e+00) (0, 0, 0.00000000000000000000e+00) (0, 0, 0.00000000000000000000e+00) (0, 0, 0.00000000000000000000e+00) (0, 0, 0.00000000000000000000e+00) (0, 0, 0.00000000000000000000e+00) (0, 0, 0.00000000000000000000e+00) (0, 0, 0.00000000000000000000e+00) (0, 0, 0.00000000000000000000e+00) (0, 0, 0.00000000000000000000e+00) (0, 0, 0.00000000000000000000e+00) (0, 0, 0.00000000000000000000e+00) (0, 0, 0.00000000000000000000e+00) (0, 0, 0.00000000000000000000e+00) (0, 0, 0.00000000000000000000e+00) (0, 0, 0.00000000000000000000e+00) (0, 0, 0.00000000000000000000e+00) (0, 0, 0.00000000000000000000e+00) (0, 0, 0.00000000000000000000e+00) (0, 0, 0.00000000000000000000e+00) (0, 0, 0.00000000000000000000e+00) (0, 0, 0.00000000000000000000e+00) (0, 0, 0.00000000000000000000e+00) (0, 0, 0.00000000000000000000e+00) (0, 0, 0.00000000000000000000e+00) (0, 0, 0.00000000000000000000e+00) (0, 0, 0.00000000000000000000e+00) (0, 0, 0.00000000000000000000e+00) (0, 0, 0.00000000000000000000e+00) (0, 0, 0.00000000000000000000e+00) (0, 0, 0.00000000000000000000e+00) (0, 0, 0.00000000000000000000e+00) (0, 0, 0.00000000000000000000e+00) (0, 0, 0.00000000000000000000e+00) (0, 0, 0.00000000000000000000e+00) (0, 0, 0.00000000000000000000e+00) (0, 0, 0.00000000000000000000e+00) (0, 0, 0.00000000000000000000e+00) (0, 0, 0.00000000000000000000e+00) (0, 0, 0.00000000000000000000e+00) (0, 0, 0.00000000000000000000e+00) (0, 0, 0.00000000000000000000e+00) (0, 0, 0.00000000000000000000e+00) (0, 0, 0.00000000000000000000e+00) (0, 0, 0.00000000000000000000e+00) (0, 0, 0.00000000000000000000e+00) (0, 0, 0.00000000000000000000e+00) (0, 0, 0.00000000000000000000e+00) (0, 0, 0.00000000000000000000e+00) (0, 0, 0.00000000000000000000e+00) (0, 0, 0.00000000000000000000e+00) (0, 0, 0.00000000000000000000e+00) (0, 0, 0.00000000000000000000e+00) (0, 0, 0.00000000000000000000e+00) (0, 0, 0.00000000000000000000e+00) (0, 0, 0.00000000000000000000e+00) (0, 0, 0.00000000000000000000e+00) (0, 0, 0.00000000000000000000e+00) (0, 0, 0.00000000000000000000e+00) (0, 0, 0.00000000000000000000e+00) (0, 0, 0.00000000000000000000e+00) (0, 0, 0.00000000000000000000e+00) (0, 0, 0.00000000000000000000e+00) (0, 0, 0.00000000000000000000e+00) (0, 0, 0.00000000000000000000e+00) (0, 0, 0.00000000000000000000e+00) (0, 0, 0.00000000000000000000e+00) (0, 0, 0.00000000000000000000e+00) (0, 0, 0.00000000000000000000e+00) (0, 0, 0.00000000000000000000e+00) (0, 0, 0.00000000000000000000e+00) (0, 0, 0.00000000000000000000e+00) (0, 0, 0.00000000000000000000e+00) (0, 0, 0.00000000000000000000e+00) (0, 0, 0.00000000000000000000e+00) (0, 0, 0.00000000000000000000e+00) (0, 0, 0.00000000000000000000e+00) (0, 0, 0.00000000000000000000e+00) (0, 0, 0.00000000000000000000e+00) (0, 0, 0.00000000000000000000e+00) (0, 0, 0.00000000000000000000e+00) (0, 0, 0.00000000000000000000e+00) (0, 0, 0.00000000000000000000e+00) (0, 0, 0.00000000000000000000e+00) (0, 0, 0.00000000000000000000e+00) (0, 0, 0.00000000000000000000e+00) (0, 0, 0.00000000000000000000e+00) (0, 0, 0.00000000000000000000e+00) (0, 0, 0.00000000000000000000e+00) (0, 0, 0.00000000000000000000e+00) (0, 0, 0.00000000000000000000e+00) (0, 0, 0.00000000000000000000e+00) (0, 0, 0.00000000000000000000e+00) (0, 0, 0.00000000000000000000e+00) (0, 0, 0.00000000000000000000e+00) (0, 0, 0.00000000000000000000e+00) (0, 0, 0.00000000000000000000e+00) (0, 0, 0.00000000000000000000e+00) (0, 0, 0.00000000000000000000e+00) (0, 0, 0.00000000000000000000e+00) (0, 0, 0.00000000000000000000e+00) (0, 0, 0.00000000000000000000e+00) (0, 0, 0.00000000000000000000e+00) (0, 0, 0.00000000000000000000e+00) (0, 0, 0.00000000000000000000e+00) (0, 0, 0.00000000000000000000e+00) (0, 0, 0.00000000000000000000e+00) (0, 0, 0.00000000000000000000e+00) (0, 0, 0.00000000000000000000e+00) (0, 0, 0.00000000000000000000e+00) (0, 0, 0.00000000000000000000e+00) (289, 5, 5.00000000000000000000e-01) (289, 5, 5.00000000000000000000e-01) (289, 5, 5.00000000000000000000e-01) (289, 5, 5.00000000000000000000e-01) (289, 5, 5.00000000000000000000e-01) (289, 5, 5.00000000000000000000e-01) (289, 5, 5.00000000000000000000e-01) (289, 5, 5.00000000000000000000e-01) (289, 5, 5.00000000000000000000e-01) (289, 5, 5.00000000000000000000e-01) (289, 5, 5.00000000000000000000e-01) (289, 5, 5.00000000000000000000e-01) (289, 5, 5.00000000000000000000e-01) (289, 5, 5.00000000000000000000e-01) (289, 5, 5.00000000000000000000e-01) (289, 5, 5.00000000000000000000e-01) (289, 5, 5.00000000000000000000e-01) (289, 5, 5.00000000000000000000e-01) (289, 5, 5.00000000000000000000e-01) (289, 5, 5.00000000000000000000e-01) (289, 5, 5.00000000000000000000e-01) (289, 5, 5.00000000000000000000e-01) (289, 5, 5.00000000000000000000e-01) (289, 5, 5.00000000000000000000e-01) (289, 5, 5.00000000000000000000e-01) (289, 5, 5.00000000000000000000e-01) (289, 5, 5.00000000000000000000e-01) (289, 5, 5.00000000000000000000e-01) (289, 5, 5.00000000000000000000e-01) (289, 5, 5.00000000000000000000e-01) (289, 5, 5.00000000000000000000e-01) (289, 5, 5.00000000000000000000e-01) (289, 5, 5.00000000000000000000e-01) (289, 5, 5.00000000000000000000e-01) (289, 5, 5.00000000000000000000e-01) (289, 5, 5.00000000000000000000e-01) (289, 5, 5.00000000000000000000e-01) (289, 5, 5.00000000000000000000e-01) (289, 5, 5.00000000000000000000e-01) (289, 5, 5.00000000000000000000e-01) (289, 5, 5.00000000000000000000e-01) (289, 5, 5.00000000000000000000e-01) (289, 5, 5.00000000000000000000e-01) (289, 5, 5.00000000000000000000e-01) (289, 5, 5.00000000000000000000e-01) (289, 5, 5.00000000000000000000e-01) (289, 5, 5.00000000000000000000e-01) (289, 5, 5.00000000000000000000e-01) (289, 5, 5.00000000000000000000e-01) (289, 5, 5.00000000000000000000e-01) (289, 5, 5.00000000000000000000e-01) (289, 5, 5.00000000000000000000e-01) (289, 5, 5.00000000000000000000e-01) (289, 5, 5.00000000000000000000e-01) (289, 5, 5.00000000000000000000e-01) (289, 5, 5.00000000000000000000e-01) (289, 5, 5.00000000000000000000e-01) (289, 5, 5.00000000000000000000e-01) (289, 5, 5.00000000000000000000e-01) (289, 5, 5.00000000000000000000e-01) (289, 5, 5.00000000000000000000e-01) (289, 5, 5.00000000000000000000e-01) (289, 5, 5.00000000000000000000e-01) (289, 5, 5.00000000000000000000e-01) (289, 5, 5.00000000000000000000e-01) (289, 5, 5.00000000000000000000e-01) (289, 5, 5.00000000000000000000e-01) (289, 5, 5.00000000000000000000e-01) (289, 5, 5.00000000000000000000e-01) (289, 5, 5.00000000000000000000e-01) (289, 5, 5.00000000000000000000e-01) (289, 5, 5.00000000000000000000e-01) (289, 5, 5.00000000000000000000e-01) (289, 5, 5.00000000000000000000e-01) (289, 5, 5.00000000000000000000e-01) (289, 5, 5.00000000000000000000e-01) (289, 5, 5.00000000000000000000e-01) (289, 5, 5.00000000000000000000e-01) (289, 5, 5.00000000000000000000e-01) (289, 5, 5.00000000000000000000e-01) (289, 5, 5.00000000000000000000e-01) (289, 5, 5.00000000000000000000e-01) (289, 5, 5.00000000000000000000e-01) (289, 5, 5.00000000000000000000e-01) (289, 5, 5.00000000000000000000e-01) (289, 5, 5.00000000000000000000e-01) (289, 5, 5.00000000000000000000e-01) (289, 5, 5.00000000000000000000e-01) (289, 5, 5.00000000000000000000e-01) (289, 5, 5.00000000000000000000e-01) (289, 5, 5.00000000000000000000e-01) (289, 5, 5.00000000000000000000e-01) (289, 5, 5.00000000000000000000e-01) (289, 5, 5.00000000000000000000e-01) (289, 5, 5.00000000000000000000e-01) (289, 5, 5.00000000000000000000e-01) (289, 5, 5.00000000000000000000e-01) (289, 5, 5.00000000000000000000e-01) (289, 5, 5.00000000000000000000e-01) (289, 5, 5.00000000000000000000e-01) (289, 5, 5.00000000000000000000e-01) (289, 5, 5.00000000000000000000e-01) (289, 5, 5.00000000000000000000e-01) (289, 5, 5.00000000000000000000e-01) (289, 5, 5.00000000000000000000e-01) (289, 5, 5.00000000000000000000e-01) (289, 5, 5.00000000000000000000e-01) (289, 5, 5.00000000000000000000e-01) (289, 5, 5.00000000000000000000e-01) (289, 5, 5.00000000000000000000e-01) (289, 5, 5.00000000000000000000e-01) (289, 5, 5.00000000000000000000e-01) (289, 5, 5.00000000000000000000e-01) (289, 5, 5.00000000000000000000e-01) (289, 5, 5.00000000000000000000e-01) (289, 5, 5.00000000000000000000e-01) (289, 5, 5.00000000000000000000e-01) (289, 5, 5.00000000000000000000e-01) (289, 5, 5.00000000000000000000e-01) (289, 5, 5.00000000000000000000e-01) (289, 5, 5.00000000000000000000e-01) (289, 5, 5.00000000000000000000e-01) (289, 5, 5.00000000000000000000e-01) (289, 5, 5.00000000000000000000e-01) (289, 5, 5.00000000000000000000e-01) (289, 5, 5.00000000000000000000e-01) (289, 5, 5.00000000000000000000e-01) (289, 5, 5.00000000000000000000e-01) (289, 5, 5.00000000000000000000e-01) (289, 5, 5.00000000000000000000e-01) (289, 5, 5.00000000000000000000e-01) (289, 5, 5.00000000000000000000e-01) (289, 5, 5.00000000000000000000e-01) (289, 5, 5.00000000000000000000e-01) (289, 5, 5.00000000000000000000e-01) (289, 5, 5.00000000000000000000e-01) (289, 5, 5.00000000000000000000e-01) (289, 5, 5.00000000000000000000e-01) (289, 5, 5.00000000000000000000e-01) (289, 5, 5.00000000000000000000e-01) (289, 5, 5.00000000000000000000e-01) (289, 5, 5.00000000000000000000e-01) (289, 5, 5.00000000000000000000e-01) (289, 5, 5.00000000000000000000e-01) (289, 5, 5.00000000000000000000e-01) (289, 5, 5.00000000000000000000e-01) (289, 5, 5.00000000000000000000e-01) (289, 5, 5.00000000000000000000e-01) (289, 5, 5.00000000000000000000e-01) (289, 5, 5.00000000000000000000e-01) (289, 5, 5.00000000000000000000e-01) (289, 5, 5.00000000000000000000e-01) (289, 5, 5.00000000000000000000e-01) (289, 5, 5.00000000000000000000e-01) (289, 5, 5.00000000000000000000e-01) (289, 5, 5.00000000000000000000e-01) (289, 5, 5.00000000000000000000e-01) (289, 5, 5.00000000000000000000e-01) (289, 5, 5.00000000000000000000e-01) (289, 5, 5.00000000000000000000e-01) (289, 5, 5.00000000000000000000e-01) (289, 5, 5.00000000000000000000e-01) (289, 5, 5.00000000000000000000e-01) (289, 5, 5.00000000000000000000e-01) (289, 5, 5.00000000000000000000e-01) (289, 5, 5.00000000000000000000e-01) (289, 5, 5.00000000000000000000e-01) (289, 5, 5.00000000000000000000e-01) (289, 5, 5.00000000000000000000e-01) (289, 5, 5.00000000000000000000e-01) (289, 5, 5.00000000000000000000e-01) (289, 5, 5.00000000000000000000e-01) (289, 5, 5.00000000000000000000e-01) (289, 5, 5.00000000000000000000e-01) (289, 5, 5.00000000000000000000e-01) (289, 5, 5.00000000000000000000e-01) (289, 5, 5.00000000000000000000e-01) (289, 5, 5.00000000000000000000e-01) (289, 5, 5.00000000000000000000e-01) (289, 5, 5.00000000000000000000e-01) (289, 5, 5.00000000000000000000e-01) (289, 5, 5.00000000000000000000e-01) (289, 5, 5.00000000000000000000e-01) (289, 5, 5.00000000000000000000e-01) (289, 5, 5.00000000000000000000e-01) (289, 5, 5.00000000000000000000e-01) (289, 5, 5.00000000000000000000e-01) (289, 5, 5.00000000000000000000e-01) (289, 5, 5.00000000000000000000e-01) (289, 5, 5.00000000000000000000e-01) (289, 5, 5.00000000000000000000e-01) (289, 5, 5.00000000000000000000e-01) (289, 5, 5.00000000000000000000e-01) (289, 5, 5.00000000000000000000e-01) (289, 5, 5.00000000000000000000e-01) (289, 5, 5.00000000000000000000e-01) (289, 5, 5.00000000000000000000e-01) (289, 5, 5.00000000000000000000e-01) (289, 5, 5.00000000000000000000e-01) (289, 5, 5.00000000000000000000e-01) (289, 5, 5.00000000000000000000e-01) (289, 5, 5.00000000000000000000e-01) (289, 5, 5.00000000000000000000e-01) (289, 5, 5.00000000000000000000e-01) (289, 5, 5.00000000000000000000e-01) (289, 5, 5.00000000000000000000e-01) (289, 5, 5.00000000000000000000e-01) (289, 5, 5.00000000000000000000e-01) (289, 5, 5.00000000000000000000e-01) (289, 5, 5.00000000000000000000e-01) (289, 5, 5.00000000000000000000e-01) (289, 5, 5.00000000000000000000e-01) (289, 5, 5.00000000000000000000e-01) (289, 5, 5.00000000000000000000e-01) (289, 5, 5.00000000000000000000e-01) (289, 5, 5.00000000000000000000e-01) (289, 5, 5.00000000000000000000e-01) (289, 5, 5.00000000000000000000e-01) (289, 5, 5.00000000000000000000e-01) (289, 5, 5.00000000000000000000e-01) (289, 5, 5.00000000000000000000e-01) (289, 5, 5.00000000000000000000e-01) (289, 5, 5.00000000000000000000e-01) (289, 5, 5.00000000000000000000e-01) (289, 5, 5.00000000000000000000e-01) (289, 5, 5.00000000000000000000e-01) (289, 5, 5.00000000000000000000e-01) (289, 5, 5.00000000000000000000e-01) (289, 5, 5.00000000000000000000e-01) (289, 5, 5.00000000000000000000e-01) (289, 5, 5.00000000000000000000e-01) (289, 5, 5.00000000000000000000e-01) (289, 5, 5.00000000000000000000e-01) (289, 5, 5.00000000000000000000e-01) (289, 5, 5.00000000000000000000e-01) (289, 5, 5.00000000000000000000e-01) (289, 5, 5.00000000000000000000e-01) (289, 5, 5.00000000000000000000e-01) (289, 5, 5.00000000000000000000e-01) (289, 5, 5.00000000000000000000e-01) (289, 5, 5.00000000000000000000e-01) (289, 5, 5.00000000000000000000e-01) (289, 5, 5.00000000000000000000e-01) (289, 5, 5.00000000000000000000e-01) (289, 5, 5.00000000000000000000e-01) (289, 5, 5.00000000000000000000e-01) (289, 5, 5.00000000000000000000e-01) (289, 5, 5.00000000000000000000e-01) (289, 5, 5.00000000000000000000e-01) (289, 5, 5.00000000000000000000e-01) (289, 5, 5.00000000000000000000e-01) (289, 5, 5.00000000000000000000e-01) (289, 5, 5.00000000000000000000e-01) (289, 5, 5.00000000000000000000e-01) (289, 5, 5.00000000000000000000e-01) (289, 5, 5.00000000000000000000e-01) (289, 5, 5.00000000000000000000e-01) (289, 5, 5.00000000000000000000e-01) (289, 5, 5.00000000000000000000e-01) (289, 5, 5.00000000000000000000e-01) (289, 5, 5.00000000000000000000e-01) (289, 5, 5.00000000000000000000e-01) (289, 5, 5.00000000000000000000e-01) (289, 5, 5.00000000000000000000e-01) (289, 5, 5.00000000000000000000e-01) (289, 5, 5.00000000000000000000e-01) (289, 5, 5.00000000000000000000e-01) (289, 5, 5.00000000000000000000e-01) (289, 5, 5.00000000000000000000e-01) (289, 5, 5.00000000000000000000e-01) (289, 5, 5.00000000000000000000e-01) (289, 5, 5.00000000000000000000e-01) (289, 5, 5.00000000000000000000e-01) (289, 5, 5.00000000000000000000e-01) (289, 5, 5.00000000000000000000e-01) (289, 5, 5.00000000000000000000e-01) (289, 5, 5.00000000000000000000e-01) (289, 5, 5.00000000000000000000e-01) (289, 5, 5.00000000000000000000e-01) (289, 5, 5.00000000000000000000e-01) (289, 5, 5.00000000000000000000e-01) (289, 5, 5.00000000000000000000e-01) (289, 5, 5.00000000000000000000e-01) (289, 5, 5.00000000000000000000e-01) (289, 5, 5.00000000000000000000e-01) (289, 5, 5.00000000000000000000e-01) (289, 5, 5.00000000000000000000e-01) (289, 5, 5.00000000000000000000e-01) (289, 5, 5.00000000000000000000e-01) (289, 5, 5.00000000000000000000e-01) (289, 5, 5.00000000000000000000e-01) (289, 5, 5.00000000000000000000e-01) (289, 5, 5.00000000000000000000e-01) (289, 5, 5.00000000000000000000e-01) (289, 5, 5.00000000000000000000e-01) (289, 5, 5.00000000000000000000e-01) (289, 5, 5.00000000000000000000e-01) (289, 5, 5.00000000000000000000e-01) (289, 5, 5.00000000000000000000e-01) (289, 5, 5.00000000000000000000e-01) (289, 5, 5.00000000000000000000e-01) (289, 5, 5.00000000000000000000e-01) (289, 5, 5.00000000000000000000e-01) (289, 5, 5.00000000000000000000e-01) (289, 5, 5.00000000000000000000e-01) (289, 5, 5.00000000000000000000e-01) (289, 5, 5.00000000000000000000e-01) (289, 5, 5.00000000000000000000e-01) (289, 5, 5.00000000000000000000e-01) (289, 5, 5.00000000000000000000e-01) (289, 5, 5.00000000000000000000e-01) (289, 5, 5.00000000000000000000e-01) (289, 5, 5.00000000000000000000e-01) (289, 5, 5.00000000000000000000e-01) (289, 5, 5.00000000000000000000e-01) (289, 5, 5.00000000000000000000e-01) (289, 5, 5.00000000000000000000e-01) (289, 5, 5.00000000000000000000e-01) (289, 5, 5.00000000000000000000e-01) (289, 5, 5.00000000000000000000e-01) (289, 5, 5.00000000000000000000e-01) (289, 5, 5.00000000000000000000e-01) (289, 5, 5.00000000000000000000e-01) (289, 5, 5.00000000000000000000e-01) (0, 5, 0.00000000000000000000e+00) (325, 5, 5.00000000000000000000e-01) (0, 5, 0.00000000000000000000e+00) 
connections (connected_to_neuron, weight)=(0, 1.50000000000000000000e+03) (1, 5.81829905509948730469e-01) (2, 5.62833428382873535156e-01) (3, 4.02216240763664245605e-02) (4, 5.62379240989685058594e-01) (5, 6.13796651363372802734e-01) (6, 5.78137278556823730469e-01) (7, 6.90167903900146484375e-01) (8, 5.60353815555572509766e-01) (9, 6.17078244686126708984e-01) (10, 7.40708470344543457031e-01) (11, 6.81770503520965576172e-01) (12, 5.69237709045410156250e-01) (13, 5.58102369308471679688e-01) (14, 5.61177372932434082031e-01) (15, 6.51372551918029785156e-01) (16, 5.67307114601135253906e-01) (17, 7.43532419204711914062e-01) (18, 5.87931215763092041016e-01) (19, 6.64319217205047607422e-01) (20, 5.68005263805389404297e-01) (21, 7.19996571540832519531e-01) (22, 7.30607748031616210938e-01) (23, 6.81199789047241210938e-01) (24, 6.47165656089782714844e-01) (25, 6.02973222732543945312e-01) (26, 6.02409243583679199219e-01) (27, 5.48056125640869140625e-01) (28, 5.57704091072082519531e-01) (29, 5.85299491882324218750e-01) (30, -4.69637326896190643311e-02) (31, 7.53633201122283935547e-01) (32, -6.38626664876937866211e-02) (33, -2.54640355706214904785e-02) (34, 1.39135029166936874390e-02) (35, -5.31135313212871551514e-02) (36, 4.48379665613174438477e-02) (37, 4.92290295660495758057e-02) (38, -9.72878858447074890137e-02) (39, -9.93366166949272155762e-02) (40, 5.96637248992919921875e-01) (41, 6.00418806076049804688e-01) (42, 7.28690087795257568359e-01) (43, 6.17222607135772705078e-01) (44, 6.12291932106018066406e-01) (45, 7.19727396965026855469e-01) (46, 7.33470439910888671875e-01) (47, 6.32130920886993408203e-01) (48, 7.10864186286926269531e-01) (49, 5.67360639572143554688e-01) (50, 5.26795923709869384766e-01) (51, 7.28431463241577148438e-01) (52, 5.66250026226043701172e-01) (53, 7.39684641361236572266e-01) (54, 6.61695659160614013672e-01) (55, 6.89617991447448730469e-01) (56, 5.73685288429260253906e-01) (57, 7.27240264415740966797e-01) (58, 6.86326503753662109375e-01) (59, 5.61880588531494140625e-01) (60, 5.58323860168457031250e-01) (61, 5.90088009834289550781e-01) (62, -1.30717918276786804199e-01) (63, 5.90761303901672363281e-01) (64, 6.63114964962005615234e-01) (65, 6.99084222316741943359e-01) (66, 7.12080180644989013672e-01) (67, 1.42736816778779029846e-02) (68, 6.83527827262878417969e-01) (69, 5.62841951847076416016e-01) (70, 4.69257347285747528076e-02) (71, 7.26809859275817871094e-01) (72, 6.00007653236389160156e-01) (73, 6.99699640274047851562e-01) (74, 5.96682727336883544922e-01) (75, 6.69619441032409667969e-01) (76, 6.53678715229034423828e-01) (77, 5.73967814445495605469e-01) (78, 5.25477349758148193359e-01) (79, 6.20109200477600097656e-01) (80, 5.94581723213195800781e-01) (81, 5.57736396789550781250e-01) (82, 6.20947122573852539062e-01) (83, 6.07343971729278564453e-01) (84, 8.05489838123321533203e-01) (85, 7.38374710083007812500e-01) (86, 7.49137878417968750000e-01) (87, 5.67795693874359130859e-01) (88, 7.11770176887512207031e-01) (89, 6.85872018337249755859e-01) (90, 6.07395410537719726562e-01) (91, 7.28887319564819335938e-01) (92, 7.29789793491363525391e-01) (93, 6.10297501087188720703e-01) (94, 5.65539062023162841797e-01) (95, 6.85060679912567138672e-01) (96, 5.41449427604675292969e-01) (97, 5.51491439342498779297e-01) (98, 6.36578142642974853516e-01) (99, 8.56891740113496780396e-03) (100, 5.65928101539611816406e-01) (101, 6.18627250194549560547e-01) (102, 6.74950599670410156250e-01) (103, 6.24751448631286621094e-01) (104, 5.78151106834411621094e-01) (105, 4.69798147678375244141e-02) (106, 7.45160952210426330566e-02) (107, 3.17092239856719970703e-02) (108, 7.18137979507446289062e-01) (109, 7.21438765525817871094e-01) (110, 6.00573539733886718750e-01) (111, -8.66421535611152648926e-02) (112, -1.36224552989006042480e-01) (113, 6.15956246852874755859e-01) (114, 6.45175278186798095703e-01) (115, 7.48252749443054199219e-01) (116, 6.50125265121459960938e-01) (117, 6.42479777336120605469e-01) (118, 5.49125552177429199219e-01) (119, 6.40935182571411132812e-01) (120, 5.59798061847686767578e-01) (121, 6.23826324939727783203e-01) (122, 5.88019907474517822266e-01) (123, 5.59081852436065673828e-01) (124, 6.91395401954650878906e-01) (125, 6.21356248855590820312e-01) (126, 7.00686156749725341797e-01) (127, 7.11562514305114746094e-01) (128, 6.31403267383575439453e-01) (129, 6.11574470996856689453e-01) (130, 6.61849737167358398438e-01) (131, 6.44718408584594726562e-01) (132, 6.61582946777343750000e-01) (133, 5.47839581966400146484e-01) (134, 7.12795436382293701172e-01) (135, 6.86747789382934570312e-01) (136, 7.27255105972290039062e-01) (137, 6.51048064231872558594e-01) (138, 6.15039348602294921875e-01) (139, 7.36949861049652099609e-01) (140, 6.89358592033386230469e-01) (141, 6.63304388523101806641e-01) (142, 5.83407402038574218750e-01) (143, 1.35429734364151954651e-02) (144, 6.03951573371887207031e-01) (145, 6.80156946182250976562e-01) (146, 6.92199945449829101562e-01) (147, 1.74741018563508987427e-02) (148, 5.47645211219787597656e-01) (149, 7.31424868106842041016e-01) (150, 5.86141705513000488281e-01) (151, 6.08891069889068603516e-01) (152, -8.19023624062538146973e-02) (153, -6.82759433984756469727e-02) (154, -6.39324858784675598145e-02) (155, 7.36436486244201660156e-01) (156, 3.93760111182928085327e-03) (157, 5.76945602893829345703e-01) (158, 7.07039713859558105469e-01) (159, 5.59847533702850341797e-01) (160, 6.23634994029998779297e-01) (161, 5.95694780349731445312e-01) (162, 6.57700717449188232422e-01) (163, 7.32899904251098632812e-01) (164, 6.24793589115142822266e-01) (165, 6.29464507102966308594e-01) (166, 6.74723982810974121094e-01) (167, 5.96499025821685791016e-01) (168, 5.68789541721343994141e-01) (169, 5.65600454807281494141e-01) (170, -5.47957159578800201416e-02) (171, 7.19377636909484863281e-01) (172, 7.19209969043731689453e-01) (173, -3.11299487948417663574e-02) (174, 7.64360368251800537109e-01) (175, -1.26018643379211425781e-01) (176, 5.82429766654968261719e-01) (177, -8.03481489419937133789e-02) (178, 7.08992481231689453125e-01) (179, 5.88679969310760498047e-01) (180, 5.72948873043060302734e-01) (181, 7.18854367733001708984e-01) (182, 6.49336159229278564453e-01) (183, 5.68016767501831054688e-01) (184, 6.00023448467254638672e-01) (185, 8.23235690593719482422e-01) (186, 6.02115690708160400391e-01) (187, 6.66802585124969482422e-01) (188, 5.70388197898864746094e-01) (189, 7.42830336093902587891e-01) (190, -1.35355740785598754883e-01) (191, 6.08277559280395507812e-01) (192, 5.96628367900848388672e-01) (193, 6.57789826393127441406e-01) (194, 6.24968409538269042969e-01) (195, -2.58879596367478370667e-03) (196, 7.35792398452758789062e-01) (197, 6.21582448482513427734e-01) (198, 5.52996933460235595703e-01) (199, 5.42267143726348876953e-01) (200, 5.71238756179809570312e-01) (201, 5.99270641803741455078e-01) (202, 7.41309881210327148438e-01) (203, 7.20309436321258544922e-01) (204, 7.32850372791290283203e-01) (205, 6.54998600482940673828e-01) (206, 7.31677889823913574219e-01) (207, 5.61466693878173828125e-01) (208, 6.91642940044403076172e-01) (209, 1.74822732806205749512e-02) (210, -6.17056787014007568359e-02) (211, 7.44938075542449951172e-01) (212, 6.85202419757843017578e-01) (213, 6.59126937389373779297e-02) (214, -7.62370377779006958008e-02) (215, 5.37062287330627441406e-02) (216, 5.16977608203887939453e-02) (217, 6.71596288681030273438e-01) (218, 3.57848443090915679932e-02) (219, 5.61789691448211669922e-01) (220, 6.50130331516265869141e-01) (221, 7.22510159015655517578e-01) (222, 6.50798559188842773438e-01) (223, 7.35200822353363037109e-01) (224, 6.33206367492675781250e-01) (225, 7.27861404418945312500e-01) (226, 6.28147900104522705078e-01) (227, 6.28112673759460449219e-01) (228, 7.30762839317321777344e-01) (229, 6.31638169288635253906e-01) (230, 6.40366435050964355469e-01) (231, 5.52418231964111328125e-01) (232, 7.16195166110992431641e-01) (233, 6.06573104858398437500e-01) (234, 7.38788902759552001953e-01) (235, 7.09565699100494384766e-01) (236, 7.86406934261322021484e-01) (237, 7.14196026325225830078e-01) (238, 2.60542072355747222900e-02) (239, 6.87853097915649414062e-01) (240, 6.57615423202514648438e-01) (241, 5.91325163841247558594e-01) (242, 7.19738900661468505859e-01) (243, 5.86056172847747802734e-01) (244, 5.62243163585662841797e-01) (245, 5.88514447212219238281e-01) (246, 5.92126607894897460938e-01) (247, 5.74168980121612548828e-01) (248, 6.73382401466369628906e-01) (249, -1.20872139930725097656e-01) (250, -9.87917557358741760254e-02) (251, -7.45736882090568542480e-02) (252, 6.08268342912197113037e-02) (253, 6.94219112396240234375e-01) (254, -7.50862658023834228516e-02) (255, -5.39930686354637145996e-02) (256, 4.58825379610061645508e-02) (257, -9.83412377536296844482e-04) (258, 1.84588637202978134155e-02) (259, 1.11437579616904258728e-02) (260, -1.03482283651828765869e-01) (261, -7.84301683306694030762e-02) (262, -1.82260666042566299438e-02) (263, -1.02708443999290466309e-01) (264, 1.05724101886153221130e-02) (265, 6.60337865352630615234e-01) (266, 7.56670460104942321777e-02) (267, -1.22125446796417236328e-03) (268, -6.87384754419326782227e-02) (269, 2.90028862655162811279e-02) (270, -4.76861745119094848633e-02) (271, 7.35368311405181884766e-01) (272, 6.39320373535156250000e-01) (273, 5.93008339405059814453e-01) (274, 5.82691311836242675781e-01) (275, 5.95429897308349609375e-01) (276, 6.09994590282440185547e-01) (277, 6.27737224102020263672e-01) (278, -6.53344914317131042480e-02) (279, -1.09293498098850250244e-01) (280, 6.57219648361206054688e-01) (281, 6.23560436069965362549e-02) (282, 7.46669201180338859558e-03) (283, -4.22730259597301483154e-02) (284, -5.72734102606773376465e-02) (285, 1.80851835757493972778e-02) (286, 5.26045225560665130615e-02) (287, 1.63617134094238281250e-02) (288, 5.63851356506347656250e-01) (0, 1.50000000000000000000e+03) (1, 6.35030508041381835938e-01) (2, 6.50470912456512451172e-01) (3, -1.31137326359748840332e-01) (4, 5.29358565807342529297e-01) (5, 6.70338094234466552734e-01) (6, 6.84462308883666992188e-01) (7, 6.51064693927764892578e-01) (8, 6.26519381999969482422e-01) (9, 6.15845322608947753906e-01) (10, 7.17675209045410156250e-01) (11, 6.18252217769622802734e-01) (12, 6.93281531333923339844e-01) (13, 6.75731062889099121094e-01) (14, 6.20788872241973876953e-01) (15, 7.30168461799621582031e-01) (16, 7.34423995018005371094e-01) (17, 6.64002299308776855469e-01) (18, 5.96151232719421386719e-01) (19, 6.09893977642059326172e-01) (20, 7.21761643886566162109e-01) (21, 5.84537208080291748047e-01) (22, 7.11236715316772460938e-01) (23, 6.24938070774078369141e-01) (24, 6.59116506576538085938e-01) (25, 6.26938998699188232422e-01) (26, 6.71825528144836425781e-01) (27, 5.99327027797698974609e-01) (28, 5.93723714351654052734e-01) (29, 6.52251720428466796875e-01) (30, -3.93831878900527954102e-02) (31, 7.72343575954437255859e-01) (32, 5.52688725292682647705e-02) (33, -1.30613803863525390625e-01) (34, 5.98515868186950683594e-02) (35, 3.33880856633186340332e-02) (36, 6.43852725625038146973e-03) (37, 9.99509124085307121277e-04) (38, -5.85202798247337341309e-02) (39, -8.23515579104423522949e-02) (40, 7.47282147407531738281e-01) (41, 6.16153180599212646484e-01) (42, 6.83773458003997802734e-01) (43, 6.91911339759826660156e-01) (44, 5.47572493553161621094e-01) (45, 7.35930323600769042969e-01) (46, 6.86955213546752929688e-01) (47, 7.32610881328582763672e-01) (48, 6.44881844520568847656e-01) (49, 7.29065418243408203125e-01) (50, 5.71977198123931884766e-01) (51, 6.16945207118988037109e-01) (52, 5.91185271739959716797e-01) (53, 5.66054046154022216797e-01) (54, 6.93451583385467529297e-01) (55, 7.22641706466674804688e-01) (56, 6.23549997806549072266e-01) (57, 6.32743120193481445312e-01) (58, 5.70301890373229980469e-01) (59, 6.46719455718994140625e-01) (60, 7.25977897644042968750e-01) (61, 6.81643724441528320312e-01) (62, -2.79299411922693252563e-02) (63, 6.25702917575836181641e-01) (64, 6.69450998306274414062e-01) (65, 6.48532092571258544922e-01) (66, 6.86166584491729736328e-01) (67, -4.89400066435337066650e-02) (68, 5.85593342781066894531e-01) (69, 5.73097050189971923828e-01) (70, 1.16672634612768888474e-03) (71, 5.76592862606048583984e-01) (72, 6.28596127033233642578e-01) (73, 6.08347415924072265625e-01) (74, 7.24081933498382568359e-01) (75, 6.31890237331390380859e-01) (76, 5.75403869152069091797e-01) (77, 6.54851913452148437500e-01) (78, 5.87909042835235595703e-01) (79, 6.75851643085479736328e-01) (80, 6.37170732021331787109e-01) (81, 6.65236055850982666016e-01) (82, 5.64463615417480468750e-01) (83, 6.74868047237396240234e-01) (84, 7.39404618740081787109e-01) (85, 7.13176727294921875000e-01) (86, 6.49685859680175781250e-01) (87, 5.51035761833190917969e-01) (88, 5.86761295795440673828e-01) (89, 6.70395433902740478516e-01) (90, 6.76013708114624023438e-01) (91, 5.58839440345764160156e-01) (92, 6.05869114398956298828e-01) (93, 5.82071125507354736328e-01) (94, 6.96281790733337402344e-01) (95, 5.47328352928161621094e-01) (96, 6.62670791149139404297e-01) (97, 6.56320810317993164062e-01) (98, 6.35344088077545166016e-01) (99, 3.15678082406520843506e-02) (100, 6.83611452579498291016e-01) (101, 5.74962496757507324219e-01) (102, 7.50947833061218261719e-01) (103, 5.71023225784301757812e-01) (104, 6.39335215091705322266e-01) (105, 4.57437895238399505615e-02) (106, -3.68865467607975006104e-02) (107, 1.27525590360164642334e-02) (108, 6.02418839931488037109e-01) (109, 6.92093670368194580078e-01) (110, 6.39225244522094726562e-01) (111, 4.17252033948898315430e-02) (112, -5.65926916897296905518e-02) (113, 5.98124444484710693359e-01) (114, 6.39569222927093505859e-01) (115, 5.60838282108306884766e-01) (116, 6.07565879821777343750e-01) (117, 7.37421512603759765625e-01) (118, 5.45884549617767333984e-01) (119, 6.73409223556518554688e-01) (120, 6.39263093471527099609e-01) (121, 6.88809514045715332031e-01) (122, 6.63652002811431884766e-01) (123, 7.13862538337707519531e-01) (124, 7.28152394294738769531e-01) (125, 6.27731263637542724609e-01) (126, 7.18209922313690185547e-01) (127, 6.70403122901916503906e-01) (128, 7.42607533931732177734e-01) (129, 6.27864062786102294922e-01) (130, 6.42645597457885742188e-01) (131, 6.73606157302856445312e-01) (132, 6.31150841712951660156e-01) (133, 6.05102241039276123047e-01) (134, 6.87955081462860107422e-01) (135, 7.17228293418884277344e-01) (136, 5.87914466857910156250e-01) (137, 5.34532070159912109375e-01) (138, 6.28428936004638671875e-01) (139, 6.82399213314056396484e-01) (140, 7.43715763092041015625e-01) (141, 7.15345680713653564453e-01) (142, 6.55217170715332031250e-01) (143, -5.32551966607570648193e-02) (144, 6.38161063194274902344e-01) (145, 7.46763825416564941406e-01) (146, 6.37494206428527832031e-01) (147, 6.01866561919450759888e-03) (148, 7.08790659904479980469e-01) (149, 6.73084080219268798828e-01) (150, 6.09795629978179931641e-01) (151, 6.49501621723175048828e-01) (152, -7.52598568797111511230e-02) (153, 3.13559249043464660645e-02) (154, -6.71413913369178771973e-02) (155, 5.79836130142211914062e-01) (156, -8.82673263549804687500e-02) (157, 5.90624213218688964844e-01) (158, 7.08417654037475585938e-01) (159, 5.76712965965270996094e-01) (160, 6.53603136539459228516e-01) (161, 5.78338086605072021484e-01) (162, 7.03453898429870605469e-01) (163, 7.32164502143859863281e-01) (164, 6.64699435234069824219e-01) (165, 6.50377392768859863281e-01) (166, 7.04469084739685058594e-01) (167, 6.94851636886596679688e-01) (168, 7.43783056735992431641e-01) (169, 6.09023213386535644531e-01) (170, -9.29041672497987747192e-03) (171, 6.77711486816406250000e-01) (172, 6.14386081695556640625e-01) (173, -1.12577706575393676758e-01) (174, 6.53870522975921630859e-01) (175, 3.76165774650871753693e-03) (176, 5.65948545932769775391e-01) (177, -4.40115928649902343750e-02) (178, 6.29961013793945312500e-01) (179, 5.32774150371551513672e-01) (180, 5.50944447517395019531e-01) (181, 6.63073480129241943359e-01) (182, 6.34611189365386962891e-01) (183, 5.53125321865081787109e-01) (184, 6.43528521060943603516e-01) (185, 7.23066627979278564453e-01) (186, 6.31152153015136718750e-01) (187, 6.61800384521484375000e-01) (188, 5.66098988056182861328e-01) (189, 5.72246015071868896484e-01) (190, 3.06757502257823944092e-02) (191, 6.33354187011718750000e-01) (192, 6.08687222003936767578e-01) (193, 6.69574737548828125000e-01) (194, 6.49309575557708740234e-01) (195, 4.94336113333702087402e-02) (196, 5.68490207195281982422e-01) (197, 6.75668835639953613281e-01) (198, 7.05003499984741210938e-01) (199, 6.78114056587219238281e-01) (200, 6.68459832668304443359e-01) (201, 5.97306132316589355469e-01) (202, 6.36637449264526367188e-01) (203, 7.12706506252288818359e-01) (204, 6.48201048374176025391e-01) (205, 6.40965282917022705078e-01) (206, 6.53460502624511718750e-01) (207, 6.60336196422576904297e-01) (208, 7.14349269866943359375e-01) (209, 5.98300024867057800293e-02) (210, -1.75641532987356185913e-02) (211, 7.44937956333160400391e-01) (212, 6.71769320964813232422e-01) (213, -1.05623975396156311035e-01) (214, -9.18835178017616271973e-02) (215, -1.15743674337863922119e-01) (216, 6.19364902377128601074e-02) (217, 6.84973835945129394531e-01) (218, 1.50231197476387023926e-02) (219, 5.67136824131011962891e-01) (220, 6.92923486232757568359e-01) (221, 6.68099343776702880859e-01) (222, 6.81222319602966308594e-01) (223, 5.90153694152832031250e-01) (224, 5.90664267539978027344e-01) (225, 5.82727313041687011719e-01) (226, 5.35240828990936279297e-01) (227, 6.17865204811096191406e-01) (228, 6.40655875205993652344e-01) (229, 6.90985202789306640625e-01) (230, 5.67431867122650146484e-01) (231, 5.58893740177154541016e-01) (232, 5.83271920680999755859e-01) (233, 6.28646671772003173828e-01) (234, 7.37258255481719970703e-01) (235, 6.82298839092254638672e-01) (236, 7.95703530311584472656e-01) (237, 6.35473191738128662109e-01) (238, -9.05937775969505310059e-02) (239, 7.19002962112426757812e-01) (240, 6.22566938400268554688e-01) (241, 7.06932067871093750000e-01) (242, 7.51590669155120849609e-01) (243, 5.35222649574279785156e-01) (244, 7.05835342407226562500e-01) (245, 6.06196522712707519531e-01) (246, 5.71365177631378173828e-01) (247, 7.28353083133697509766e-01) (248, 7.03951835632324218750e-01) (249, 3.70573736727237701416e-02) (250, 6.13377988338470458984e-02) (251, -1.64533779025077819824e-03) (252, -3.58155593276023864746e-02) (253, 6.84174180030822753906e-01) (254, 6.11714310944080352783e-02) (255, 6.80841971188783645630e-03) (256, 9.06025543808937072754e-02) (257, 3.40483039617538452148e-02) (258, -1.31382480263710021973e-01) (259, -3.39496769011020660400e-02) (260, -8.80391150712966918945e-03) (261, -1.00726656615734100342e-01) (262, -6.00189529359340667725e-02) (263, 4.89251054823398590088e-02) (264, 1.10496785491704940796e-02) (265, 6.18450999259948730469e-01) (266, -2.55410131067037582397e-02) (267, 6.59624580293893814087e-03) (268, 1.25338807702064514160e-02) (269, 2.93203238397836685181e-02) (270, -6.83623133227229118347e-03) (271, 5.74559330940246582031e-01) (272, 7.50554084777832031250e-01) (273, 6.63528978824615478516e-01) (274, 5.72822391986846923828e-01) (275, 6.50609016418457031250e-01) (276, 6.97585463523864746094e-01) (277, 5.97106873989105224609e-01) (278, -4.83901537954807281494e-02) (279, 7.94934481382369995117e-03) (280, 5.84550023078918457031e-01) (281, 3.12508307397365570068e-02) (282, -5.90186566114425659180e-04) (283, -8.78586154431104660034e-03) (284, -1.07365600764751434326e-01) (285, -6.17569275200366973877e-02) (286, -5.77272959053516387939e-02) (287, 1.99315678328275680542e-02) (288, 5.19040942192077636719e-01) (0, 1.50000000000000000000e+03) (1, 5.92171669006347656250e-01) (2, 7.00039327144622802734e-01) (3, -1.15531515330076217651e-02) (4, 6.45355701446533203125e-01) (5, 6.71667873859405517578e-01) (6, 6.04085505008697509766e-01) (7, 7.25962579250335693359e-01) (8, 5.52746832370758056641e-01) (9, 7.42546021938323974609e-01) (10, 6.71306788921356201172e-01) (11, 7.40173518657684326172e-01) (12, 6.59689426422119140625e-01) (13, 6.69958531856536865234e-01) (14, 6.53944015502929687500e-01) (15, 5.67865967750549316406e-01) (16, 7.18782544136047363281e-01) (17, 7.52336621284484863281e-01) (18, 7.21389055252075195312e-01) (19, 5.63622057437896728516e-01) (20, 6.19459569454193115234e-01) (21, 6.28036320209503173828e-01) (22, 5.92811524868011474609e-01) (23, 6.91530525684356689453e-01) (24, 6.94474875926971435547e-01) (25, 7.40106761455535888672e-01) (26, 6.97267770767211914062e-01) (27, 5.55246412754058837891e-01) (28, 5.98241031169891357422e-01) (29, 6.81263923645019531250e-01) (30, -1.28274038434028625488e-01) (31, 7.21239387989044189453e-01) (32, 4.22215275466442108154e-02) (33, 2.98459623008966445923e-02) (34, -7.10335820913314819336e-02) (35, -5.07869496941566467285e-02) (36, -3.12398169189691543579e-02) (37, -1.79931595921516418457e-02) (38, -7.98463523387908935547e-02) (39, 5.47996163368225097656e-03) (40, 6.63005530834197998047e-01) (41, 7.47252345085144042969e-01) (42, 6.93526327610015869141e-01) (43, 5.74759900569915771484e-01) (44, 6.70981764793395996094e-01) (45, 5.78838467597961425781e-01) (46, 6.06834471225738525391e-01) (47, 6.42296254634857177734e-01) (48, 5.75485825538635253906e-01) (49, 5.73762655258178710938e-01) (50, 6.35390579700469970703e-01) (51, 6.45885407924652099609e-01) (52, 6.79700672626495361328e-01) (53, 7.10127770900726318359e-01) (54, 5.88984429836273193359e-01) (55, 6.47238016128540039062e-01) (56, 6.79259240627288818359e-01) (57, 7.52930283546447753906e-01) (58, 6.50498390197753906250e-01) (59, 6.66967093944549560547e-01) (60, 6.75965428352355957031e-01) (61, 6.72949314117431640625e-01) (62, -1.56998727470636367798e-02) (63, 6.14487051963806152344e-01) (64, 6.21434092521667480469e-01) (65, 7.29522526264190673828e-01) (66, 7.25245893001556396484e-01) (67, -1.34949609637260437012e-01) (68, 6.55370473861694335938e-01) (69, 5.90012669563293457031e-01) (70, 3.22851282544434070587e-03) (71, 5.64718484878540039062e-01) (72, 5.76611042022705078125e-01) (73, 6.19451642036437988281e-01) (74, 5.91512143611907958984e-01) (75, 7.05551147460937500000e-01) (76, 6.29886448383331298828e-01) (77, 6.41741156578063964844e-01) (78, 5.70936024188995361328e-01) (79, 6.61576747894287109375e-01) (80, 6.68757021427154541016e-01) (81, 7.11676537990570068359e-01) (82, 5.79128980636596679688e-01) (83, 5.94969928264617919922e-01) (84, 7.30833351612091064453e-01) (85, 6.23374998569488525391e-01) (86, 6.94064617156982421875e-01) (87, 6.00620567798614501953e-01) (88, 6.17934584617614746094e-01) (89, 5.94970643520355224609e-01) (90, 5.89317202568054199219e-01) (91, 7.53206133842468261719e-01) (92, 7.21749722957611083984e-01) (93, 7.06778764724731445312e-01) (94, 6.13902926445007324219e-01) (95, 6.15192174911499023438e-01) (96, 6.69194817543029785156e-01) (97, 6.12701892852783203125e-01) (98, 6.17198109626770019531e-01) (99, -9.24021527171134948730e-02) (100, 6.56908214092254638672e-01) (101, 5.58638274669647216797e-01) (102, 6.12044215202331542969e-01) (103, 6.92334830760955810547e-01) (104, 6.34585738182067871094e-01) (105, -2.41539403796195983887e-02) (106, -4.00477312505245208740e-02) (107, 3.91645245254039764404e-02) (108, 7.17834413051605224609e-01) (109, 6.69773995876312255859e-01) (110, 6.74683451652526855469e-01) (111, -1.12727656960487365723e-02) (112, -3.24718505144119262695e-02) (113, 6.48248016834259033203e-01) (114, 7.06672966480255126953e-01) (115, 5.76387941837310791016e-01) (116, 5.67417204380035400391e-01) (117, 6.48904204368591308594e-01) (118, 6.10624969005584716797e-01) (119, 6.64904356002807617188e-01) (120, 6.75320863723754882812e-01) (121, 6.67247414588928222656e-01) (122, 6.36307895183563232422e-01) (123, 6.66564762592315673828e-01) (124, 6.31551921367645263672e-01) (125, 7.17688798904418945312e-01) (126, 7.38012373447418212891e-01) (127, 5.80898523330688476562e-01) (128, 5.88946282863616943359e-01) (129, 6.29520595073699951172e-01) (130, 6.29508495330810546875e-01) (131, 6.93241477012634277344e-01) (132, 6.16211771965026855469e-01) (133, 6.52591705322265625000e-01) (134, 6.28902077674865722656e-01) (135, 6.97811245918273925781e-01) (136, 5.63930511474609375000e-01) (137, 6.70132160186767578125e-01) (138, 6.58745050430297851562e-01) (139, 5.73830962181091308594e-01) (140, 6.56996369361877441406e-01) (141, 5.81120252609252929688e-01) (142, 6.93650841712951660156e-01) (143, -1.16823397576808929443e-01) (144, 5.54059088230133056641e-01) (145, 6.52301430702209472656e-01) (146, 5.90445280075073242188e-01) (147, -1.16808682680130004883e-01) (148, 5.25810778141021728516e-01) (149, 6.91169440746307373047e-01) (150, 6.77510440349578857422e-01) (151, 7.02579557895660400391e-01) (152, -7.87366405129432678223e-02) (153, -1.29246741533279418945e-01) (154, -6.31994754076004028320e-02) (155, 6.80330634117126464844e-01) (156, 4.00158986449241638184e-02) (157, 6.15443229675292968750e-01) (158, 7.19407558441162109375e-01) (159, 5.53380012512207031250e-01) (160, 6.80078804492950439453e-01) (161, 5.75721323490142822266e-01) (162, 6.99756324291229248047e-01) (163, 7.43972420692443847656e-01) (164, 7.10347414016723632812e-01) (165, 5.87626814842224121094e-01) (166, 6.96859955787658691406e-01) (167, 7.15740561485290527344e-01) (168, 5.46889126300811767578e-01) (169, 6.31442308425903320312e-01) (170, -9.78641510009765625000e-02) (171, 6.63841724395751953125e-01) (172, 7.02397167682647705078e-01) (173, 3.68819050490856170654e-02) (174, 7.78934538364410400391e-01) (175, 8.14128573983907699585e-03) (176, 6.22240424156188964844e-01) (177, 3.21256853640079498291e-02) (178, 7.08831489086151123047e-01) (179, 6.20875477790832519531e-01) (180, 6.45512759685516357422e-01) (181, 6.11388087272644042969e-01) (182, 5.61001241207122802734e-01) (183, 6.43746316432952880859e-01) (184, 6.32213890552520751953e-01) (185, 6.54473245143890380859e-01) (186, 6.22738301753997802734e-01) (187, 5.80814242362976074219e-01) (188, 7.22597777843475341797e-01) (189, 5.74822008609771728516e-01) (190, -7.36434012651443481445e-02) (191, 6.16055309772491455078e-01) (192, 6.08646512031555175781e-01) (193, 5.61845958232879638672e-01) (194, 6.43818676471710205078e-01) (195, -1.05388686060905456543e-01) (196, 5.97722887992858886719e-01) (197, 6.62568807601928710938e-01) (198, 5.71248054504394531250e-01) (199, 5.80484509468078613281e-01) (200, 6.78066909313201904297e-01) (201, 5.75347721576690673828e-01) (202, 7.24849939346313476562e-01) (203, 6.10795199871063232422e-01) (204, 5.76996922492980957031e-01) (205, 6.53112828731536865234e-01) (206, 5.55928707122802734375e-01) (207, 6.45423948764801025391e-01) (208, 6.02576673030853271484e-01) (209, 4.28977161645889282227e-02) (210, 4.05475348234176635742e-02) (211, 7.27733671665191650391e-01) (212, 6.03151500225067138672e-01) (213, -1.20834328234195709229e-01) (214, -1.79962851107120513916e-02) (215, 3.84577037766575813293e-03) (216, -2.18672621995210647583e-02) (217, 5.50447285175323486328e-01) (218, 5.41043020784854888916e-02) (219, 6.39558792114257812500e-01) (220, 5.60972988605499267578e-01) (221, 6.02861464023590087891e-01) (222, 7.36345291137695312500e-01) (223, 6.58061563968658447266e-01) (224, 6.17006421089172363281e-01) (225, 6.32258653640747070312e-01) (226, 6.47805571556091308594e-01) (227, 6.73843145370483398438e-01) (228, 6.76465630531311035156e-01) (229, 6.69546902179718017578e-01) (230, 7.24557161331176757812e-01) (231, 6.05032861232757568359e-01) (232, 7.30526626110076904297e-01) (233, 6.74919545650482177734e-01) (234, 6.81486070156097412109e-01) (235, 5.67798972129821777344e-01) (236, -2.23946105688810348511e-02) (237, 6.82169020175933837891e-01) (238, -3.15417684614658355713e-02) (239, 6.65566802024841308594e-01) (240, 6.50763392448425292969e-01) (241, 6.35919630527496337891e-01) (242, 6.80630981922149658203e-01) (243, 6.96368396282196044922e-01) (244, 6.19864940643310546875e-01) (245, 6.07894062995910644531e-01) (246, 6.52578473091125488281e-01) (247, 5.58225750923156738281e-01) (248, 5.72746813297271728516e-01) (249, -4.25352491438388824463e-02) (250, -3.69659401476383209229e-02) (251, -6.44611492753028869629e-02) (252, 1.92409604787826538086e-02) (253, 6.41075611114501953125e-01) (254, 5.79564496874809265137e-02) (255, -1.11389838159084320068e-01) (256, 9.71999391913414001465e-02) (257, -4.86520566046237945557e-02) (258, 6.79268687963485717773e-03) (259, 1.01172002032399177551e-02) (260, -1.13242127001285552979e-01) (261, -1.86992436647415161133e-03) (262, 3.11383232474327087402e-02) (263, -9.89735051989555358887e-02) (264, -4.79406639933586120605e-02) (265, 6.52399361133575439453e-01) (266, -8.83089154958724975586e-02) (267, 5.61512447893619537354e-03) (268, -1.09131038188934326172e-01) (269, 3.34508940577507019043e-02) (270, -6.23441003262996673584e-02) (271, 6.84967339038848876953e-01) (272, 6.87791645526885986328e-01) (273, 7.39242494106292724609e-01) (274, 6.44376218318939208984e-01) (275, 7.01522827148437500000e-01) (276, 5.76028883457183837891e-01) (277, 5.49873948097229003906e-01) (278, 3.71940769255161285400e-02) (279, -4.16245795786380767822e-02) (280, 6.58127784729003906250e-01) (281, 1.43315754830837249756e-02) (282, 1.31149396300315856934e-01) (283, -6.89465329051017761230e-02) (284, 4.20745909214019775391e-02) (285, 2.58956830948591232300e-02) (286, -4.83481585979461669922e-02) (287, -3.25207225978374481201e-02) (288, 5.23993134498596191406e-01) (0, 1.50000000000000000000e+03) (1, -1.35520100593566894531e-01) (2, -1.05882242321968078613e-01) (3, 4.33129429817199707031e-01) (4, 3.81624586880207061768e-02) (5, -8.57090428471565246582e-02) (6, -1.13105043768882751465e-01) (7, -7.18011111021041870117e-02) (8, -2.08392776548862457275e-02) (9, 1.74530427902936935425e-02) (10, -4.29627336561679840088e-02) (11, -7.28441923856735229492e-02) (12, -1.08810149133205413818e-01) (13, -1.07643209397792816162e-01) (14, -2.41351071745157241821e-02) (15, -1.22063994407653808594e-01) (16, -1.35038644075393676758e-02) (17, -7.77179300785064697266e-02) (18, -9.74328145384788513184e-02) (19, -6.87918812036514282227e-03) (20, -1.22542083263397216797e-01) (21, -2.45858095586299896240e-02) (22, -1.11480489373207092285e-01) (23, -6.83783590793609619141e-02) (24, -7.24487379193305969238e-02) (25, -6.57141879200935363770e-02) (26, -1.14108756184577941895e-01) (27, -1.48778900504112243652e-01) (28, 3.21574434638023376465e-02) (29, 6.20152708142995834351e-03) (30, 2.92320191860198974609e-01) (31, -1.73592612147331237793e-01) (32, 2.51244395971298217773e-01) (33, 3.40920150279998779297e-01) (34, 4.52095121145248413086e-01) (35, 4.59743976593017578125e-01) (36, 4.24966990947723388672e-01) (37, 3.00555139780044555664e-01) (38, 3.54024410247802734375e-01) (39, 3.55552166700363159180e-01) (40, -1.52273967862129211426e-01) (41, -1.63400471210479736328e-01) (42, 1.59261953085660934448e-02) (43, -9.56233292818069458008e-02) (44, -1.01466849446296691895e-01) (45, -3.42983677983283996582e-02) (46, -7.29366615414619445801e-02) (47, -1.59807145595550537109e-01) (48, -1.56223237514495849609e-01) (49, -8.89894366264343261719e-03) (50, -6.68063387274742126465e-03) (51, -1.12915284931659698486e-01) (52, -7.63555839657783508301e-02) (53, 2.98115704208612442017e-02) (54, -1.69290192425251007080e-02) (55, 1.26056391745805740356e-02) (56, -5.50882220268249511719e-02) (57, 2.80454512685537338257e-02) (58, 2.78193484991788864136e-02) (59, -6.43658787012100219727e-02) (60, -1.49450656026601791382e-02) (61, -1.47229745984077453613e-01) (62, 3.85751307010650634766e-01) (63, -9.35033150017261505127e-03) (64, -6.29208907485008239746e-02) (65, -4.48971614241600036621e-02) (66, -5.00515848398208618164e-03) (67, 3.29119026660919189453e-01) (68, -1.52073809877038002014e-02) (69, -1.19908265769481658936e-01) (70, 4.23252999782562255859e-01) (71, 7.16196931898593902588e-03) (72, -1.16454392671585083008e-01) (73, -2.85790488123893737793e-02) (74, -1.31137475371360778809e-01) (75, -6.62735328078269958496e-02) (76, -9.51227918267250061035e-02) (77, -3.49293909966945648193e-02) (78, -5.03916442394256591797e-02) (79, -9.22592505812644958496e-02) (80, -7.84168913960456848145e-02) (81, -1.09426237642765045166e-01) (82, -4.63693849742412567139e-02) (83, 1.51477698236703872681e-02) (84, -1.04715071618556976318e-01) (85, -1.05019718408584594727e-01) (86, -1.11060300841927528381e-02) (87, -4.85892407596111297607e-03) (88, -1.21162705123424530029e-01) (89, -2.55209039896726608276e-02) (90, -1.16126999258995056152e-01) (91, 3.18812727928161621094e-02) (92, -1.49620324373245239258e-02) (93, 9.76524129509925842285e-03) (94, -1.48540139198303222656e-02) (95, -1.11512839794158935547e-01) (96, -7.36890882253646850586e-02) (97, -6.49606510996818542480e-02) (98, -5.29930815100669860840e-02) (99, 3.02255541086196899414e-01) (100, -2.22959350794553756714e-02) (101, -9.71316993236541748047e-02) (102, -1.60629168152809143066e-01) (103, 2.12355945259332656860e-02) (104, -1.63656651973724365234e-01) (105, 3.03819179534912109375e-01) (106, 3.48949044942855834961e-01) (107, 3.24182391166687011719e-01) (108, 8.33256915211677551270e-03) (109, 2.68184263259172439575e-02) (110, -2.80980728566646575928e-02) (111, 3.08445870876312255859e-01) (112, 3.03683280944824218750e-01) (113, -1.23563669621944427490e-01) (114, -1.40872955322265625000e-01) (115, -7.64205306768417358398e-02) (116, -5.76812475919723510742e-02) (117, 7.45955994352698326111e-03) (118, -1.22907921671867370605e-01) (119, -2.68152523785829544067e-02) (120, -5.73747791349887847900e-02) (121, -7.53906592726707458496e-02) (122, -3.62089276313781738281e-02) (123, -1.11533552408218383789e-01) (124, -1.04014798998832702637e-01) (125, -8.41006338596343994141e-02) (126, -7.16172829270362854004e-02) (127, -3.29341441392898559570e-02) (128, 6.79796049371361732483e-03) (129, 4.59375418722629547119e-02) (130, 1.48050452116876840591e-03) (131, -5.53825981914997100830e-02) (132, -9.52091440558433532715e-02) (133, 2.26313285529613494873e-02) (134, -6.99832141399383544922e-02) (135, -9.34942364692687988281e-02) (136, -1.47151499986648559570e-01) (137, 1.40415527857840061188e-03) (138, -2.53558717668056488037e-02) (139, 1.56485699117183685303e-02) (140, -2.82519031316041946411e-03) (141, -9.43068861961364746094e-02) (142, -1.40516623854637145996e-01) (143, 4.58187043666839599609e-01) (144, -5.20442463457584381104e-02) (145, -1.19657337665557861328e-01) (146, -8.04534703493118286133e-02) (147, 2.77480185031890869141e-01) (148, -1.46088212728500366211e-01) (149, -5.20762018859386444092e-02) (150, -3.77016910351812839508e-03) (151, -5.01762069761753082275e-02) (152, 4.62895601987838745117e-01) (153, 3.49908590316772460938e-01) (154, 4.16777491569519042969e-01) (155, -1.15911886096000671387e-01) (156, 4.21708762645721435547e-01) (157, -1.13765001296997070312e-01) (158, 6.82552019134163856506e-03) (159, -2.81040575355291366577e-02) (160, -1.21007472276687622070e-01) (161, -7.79812084510922431946e-03) (162, -1.24119132757186889648e-01) (163, -5.61983622610569000244e-02) (164, -3.41083332896232604980e-02) (165, -4.89855408668518066406e-02) (166, 1.23632941395044326782e-02) (167, -1.82495173066854476929e-02) (168, -6.15357831120491027832e-02) (169, -5.61331585049629211426e-02) (170, 3.77302676439285278320e-01) (171, -1.08929492533206939697e-01) (172, 7.93440776760689914227e-05) (173, 3.96997094154357910156e-01) (174, -1.80276483297348022461e-01) (175, 3.48658502101898193359e-01) (176, 9.76481661200523376465e-03) (177, 3.95347326993942260742e-01) (178, -6.39904811978340148926e-02) (179, 2.39775478839874267578e-02) (180, -1.25807046890258789062e-01) (181, -1.14031441509723663330e-01) (182, -6.79290369153022766113e-02) (183, -1.33289337158203125000e-01) (184, -3.28654199838638305664e-02) (185, -1.11513219773769378662e-01) (186, -8.26425999402999877930e-02) (187, -7.46312513947486877441e-02) (188, -6.66707307100296020508e-02) (189, -1.00339412689208984375e-01) (190, 2.80421555042266845703e-01) (191, -1.01685523986816406250e-02) (192, -1.50741472840309143066e-01) (193, -1.18944875895977020264e-01) (194, -1.08798086643218994141e-01) (195, 4.05278354883193969727e-01) (196, 1.53439305722713470459e-03) (197, -1.19011640548706054688e-01) (198, -8.77469927072525024414e-02) (199, -1.02740854024887084961e-01) (200, -3.15171033143997192383e-02) (201, 2.84774061292409896851e-02) (202, -6.63219690322875976562e-02) (203, -5.77878281474113464355e-02) (204, -4.93678860366344451904e-02) (205, -1.56733710318803787231e-02) (206, 1.98303870856761932373e-02) (207, -6.93112313747406005859e-02) (208, -9.00989249348640441895e-02) (209, 3.38142126798629760742e-01) (210, 3.41699808835983276367e-01) (211, -6.12353645265102386475e-02) (212, -4.65963780879974365234e-02) (213, 4.28128510713577270508e-01) (214, 4.05137121677398681641e-01) (215, 3.07696223258972167969e-01) (216, 2.77923136949539184570e-01) (217, -1.40576437115669250488e-01) (218, 3.95349591970443725586e-01) (219, -5.20364567637443542480e-02) (220, -7.51322209835052490234e-02) (221, -2.02017128467559814453e-02) (222, -1.09153307974338531494e-01) (223, -7.14361742138862609863e-02) (224, 1.66648067533969879150e-02) (225, -5.81324286758899688721e-02) (226, -1.24354958534240722656e-01) (227, -2.79141310602426528931e-02) (228, -3.30254547297954559326e-02) (229, -5.05458973348140716553e-02) (230, 3.10971122235059738159e-02) (231, -1.02414354681968688965e-01) (232, -7.25818052887916564941e-02) (233, -6.19705058634281158447e-02) (234, -6.31401175633072853088e-03) (235, -1.49823829531669616699e-01) (236, 2.81288862228393554688e-01) (237, -2.71400045603513717651e-02) (238, 3.68449836969375610352e-01) (239, -5.50080388784408569336e-02) (240, -1.52251780033111572266e-01) (241, 1.96562632918357849121e-02) (242, -1.60438224673271179199e-01) (243, -4.23530042171478271484e-02) (244, -1.07183922082185745239e-02) (245, -2.46085356920957565308e-02) (246, -1.50400807615369558334e-03) (247, -5.23007288575172424316e-03) (248, 1.16612790152430534363e-02) (249, 3.53392720222473144531e-01) (250, 3.28334987163543701172e-01) (251, 3.15296411514282226562e-01) (252, 2.99848437309265136719e-01) (253, -4.23836335539817810059e-02) (254, 4.22566980123519897461e-01) (255, 2.69687771797180175781e-01) (256, 2.37365707755088806152e-01) (257, 4.51965630054473876953e-01) (258, 4.15337383747100830078e-01) (259, 4.31762635707855224609e-01) (260, 3.66879194974899291992e-01) (261, 4.04538571834564208984e-01) (262, 4.68190699815750122070e-01) (263, 4.55737203359603881836e-01) (264, 3.04516166448593139648e-01) (265, -4.09296975703909993172e-04) (266, 2.70551025867462158203e-01) (267, 3.45634013414382934570e-01) (268, 3.54451715946197509766e-01) (269, 3.75967413187026977539e-01) (270, 4.52001243829727172852e-01) (271, -6.25948011875152587891e-02) (272, -3.87320891022682189941e-02) (273, 2.99947932362556457520e-02) (274, -1.37915492057800292969e-01) (275, -1.30190566182136535645e-01) (276, -1.83252152055501937866e-02) (277, 2.68800090998411178589e-02) (278, 4.64014500379562377930e-01) (279, 3.78771334886550903320e-01) (280, -6.86105340719223022461e-02) (281, 3.07475596666336059570e-01) (282, 4.07501250505447387695e-01) (283, 3.80040407180786132812e-01) (284, 4.48910802602767944336e-01) (285, 3.90029937028884887695e-01) (286, 3.97359400987625122070e-01) (287, 4.55623626708984375000e-01) (288, -2.19359010457992553711e-01) (0, 1.50000000000000000000e+03) (1, -2.57634650915861129761e-02) (2, -1.53083279728889465332e-01) (3, 3.01335692405700683594e-01) (4, -1.83446574956178665161e-02) (5, 3.12042217701673507690e-02) (6, -8.27093571424484252930e-02) (7, -6.49902522563934326172e-02) (8, -1.44111558794975280762e-01) (9, -5.89504698291420936584e-03) (10, 2.83997170627117156982e-02) (11, -4.47538122534751892090e-02) (12, -1.59756094217300415039e-02) (13, -7.18186721205711364746e-02) (14, -1.53287306427955627441e-01) (15, -2.00841240584850311279e-02) (16, -5.24425134062767028809e-02) (17, -1.12633690237998962402e-01) (18, -8.03452357649803161621e-02) (19, -5.55986724793910980225e-02) (20, -1.15838989615440368652e-01) (21, 3.18780168890953063965e-02) (22, 2.77598891407251358032e-02) (23, -5.41880764067173004150e-02) (24, -1.10420945566147565842e-03) (25, -6.08585551381111145020e-02) (26, -6.67379051446914672852e-02) (27, -8.37308391928672790527e-02) (28, -1.13667294383049011230e-01) (29, -7.29227215051651000977e-02) (30, 4.46015477180480957031e-01) (31, -6.84825927019119262695e-02) (32, 2.81876832246780395508e-01) (33, 4.48225557804107666016e-01) (34, 4.25725489854812622070e-01) (35, 4.33869302272796630859e-01) (36, 4.49185729026794433594e-01) (37, 3.04267019033432006836e-01) (38, 3.34960579872131347656e-01) (39, 4.56968873739242553711e-01) (40, 2.80897300690412521362e-02) (41, -1.11101865768432617188e-01) (42, -5.50370104610919952393e-02) (43, -2.24249921739101409912e-02) (44, -1.33437551558017730713e-02) (45, -3.39434817433357238770e-02) (46, -9.74559262394905090332e-02) (47, -1.11050263047218322754e-01) (48, 9.21578239649534225464e-03) (49, -1.63306277245283126831e-02) (50, -6.21565803885459899902e-03) (51, -1.40773013234138488770e-01) (52, -2.73234210908412933350e-02) (53, -3.04829943925142288208e-02) (54, -3.05964872241020202637e-02) (55, -6.70175775885581970215e-02) (56, -1.10527090728282928467e-01) (57, -1.38251200318336486816e-01) (58, 1.32441725581884384155e-02) (59, -6.56296163797378540039e-02) (60, -6.03659786283969879150e-02) (61, -7.58643820881843566895e-03) (62, 2.89597511291503906250e-01) (63, -2.41388417780399322510e-02) (64, -1.56841799616813659668e-02) (65, 3.22652272880077362061e-02) (66, -4.50030490756034851074e-02) (67, 4.00574505329132080078e-01) (68, -1.34333074092864990234e-01) (69, 2.19577569514513015747e-02) (70, 3.95894885063171386719e-01) (71, -1.31231471896171569824e-01) (72, -1.23882889747619628906e-01) (73, -1.27140447497367858887e-01) (74, 3.29880928620696067810e-03) (75, 1.44211035221815109253e-02) (76, 6.20022881776094436646e-03) (77, -1.25012233853340148926e-01) (78, -1.20982840657234191895e-01) (79, -2.50266361981630325317e-02) (80, 2.40685902535915374756e-02) (81, 2.09179576486349105835e-02) (82, -6.99455570429563522339e-03) (83, -3.33346128463745117188e-02) (84, -3.46655063331127166748e-02) (85, -7.93123543262481689453e-02) (86, -1.39211624860763549805e-01) (87, 9.75172687321901321411e-03) (88, -6.17519505321979522705e-02) (89, 3.17982994019985198975e-02) (90, -1.02780148386955261230e-01) (91, -1.54128775000572204590e-01) (92, -1.77114754915237426758e-02) (93, -7.30416998267173767090e-02) (94, -1.56527087092399597168e-02) (95, -6.70255422592163085938e-02) (96, -7.93336480855941772461e-02) (97, -1.06422491371631622314e-01) (98, -1.37050211429595947266e-01) (99, 3.77485185861587524414e-01) (100, -1.23132333159446716309e-01) (101, -8.78708530217409133911e-03) (102, -2.41615455597639083862e-02) (103, -8.73817428946495056152e-02) (104, 2.61264666914939880371e-02) (105, 3.74723255634307861328e-01) (106, 3.19771140813827514648e-01) (107, 4.16543960571289062500e-01) (108, -1.04022398591041564941e-02) (109, -7.12250173091888427734e-02) (110, -6.92887082695960998535e-02) (111, 3.92981290817260742188e-01) (112, 3.36214363574981689453e-01) (113, -1.25379443168640136719e-01) (114, -1.06048777699470520020e-01) (115, 2.59297639131546020508e-02) (116, -3.37897539138793945312e-02) (117, -8.58217552304267883301e-02) (118, -6.55400427058339118958e-03) (119, -1.43512919545173645020e-01) (120, -9.33367982506752014160e-02) (121, -1.45082846283912658691e-01) (122, -1.38916671276092529297e-01) (123, -1.50245055556297302246e-01) (124, -5.65140284597873687744e-02) (125, 1.23927379027009010315e-02) (126, -6.58415332436561584473e-02) (127, 8.92209727317094802856e-03) (128, -1.38170376420021057129e-01) (129, -3.23439128696918487549e-02) (130, -8.16639959812164306641e-02) (131, -1.01539909839630126953e-01) (132, -8.51459726691246032715e-02) (133, -1.23815149068832397461e-01) (134, -2.47578974813222885132e-02) (135, -9.36477780342102050781e-02) (136, -2.26939823478460311890e-02) (137, 1.87067911028861999512e-02) (138, -1.33932784199714660645e-01) (139, -7.90726020932197570801e-02) (140, -8.35660099983215332031e-02) (141, -4.40745204687118530273e-02) (142, -1.51931211352348327637e-01) (143, 4.09746885299682617188e-01) (144, -3.62769165076315402985e-03) (145, -9.62475836277008056641e-02) (146, -2.65432670712471008301e-02) (147, 3.49788308143615722656e-01) (148, -1.59598868340253829956e-02) (149, -8.12051221728324890137e-02) (150, -4.86301667988300323486e-02) (151, -1.56009852886199951172e-01) (152, 3.64074438810348510742e-01) (153, 4.02580678462982177734e-01) (154, 2.72232294082641601562e-01) (155, 3.27676981687545776367e-02) (156, 3.71104657649993896484e-01) (157, -5.25344312191009521484e-02) (158, -2.63861962594091892242e-03) (159, -2.36765798181295394897e-02) (160, -1.38058200478553771973e-01) (161, -1.00176431238651275635e-01) (162, 3.41509170830249786377e-02) (163, -6.31859526038169860840e-02) (164, -7.25805088877677917480e-02) (165, -4.54901531338691711426e-02) (166, 5.22205140441656112671e-03) (167, -1.32616668939590454102e-01) (168, -4.07377518713474273682e-02) (169, 2.78607644140720367432e-02) (170, 3.68214279413223266602e-01) (171, 3.11277043074369430542e-02) (172, -6.54062703251838684082e-02) (173, 3.76494109630584716797e-01) (174, 2.88896262645721435547e-02) (175, 3.31589400768280029297e-01) (176, 1.26715563237667083740e-02) (177, 3.40874522924423217773e-01) (178, -8.75145941972732543945e-03) (179, -4.29873280227184295654e-02) (180, -9.40889306366443634033e-03) (181, -1.03182084858417510986e-01) (182, -4.07275892794132232666e-02) (183, -1.15712270140647888184e-01) (184, 3.08864563703536987305e-02) (185, -2.88569126278162002563e-02) (186, -1.15757048130035400391e-01) (187, -6.14835098385810852051e-02) (188, -1.22783891856670379639e-01) (189, -1.43546760082244873047e-01) (190, 2.97996819019317626953e-01) (191, -8.33323821425437927246e-02) (192, -8.63272324204444885254e-02) (193, -1.43099516630172729492e-01) (194, 1.06978220865130424500e-02) (195, 4.30867880582809448242e-01) (196, -1.91248673945665359497e-02) (197, -6.30446616560220718384e-03) (198, 2.34753079712390899658e-02) (199, -1.02602094411849975586e-01) (200, -3.45279797911643981934e-02) (201, -6.93886578083038330078e-02) (202, -1.26125916838645935059e-01) (203, -1.26284211874008178711e-01) (204, 3.22630517184734344482e-02) (205, 1.61395911127328872681e-02) (206, -6.57351836562156677246e-02) (207, 1.52264572679996490479e-02) (208, -1.12758733332157135010e-01) (209, 3.07815521955490112305e-01) (210, 3.58427435159683227539e-01) (211, 3.25031243264675140381e-02) (212, -6.60735443234443664551e-02) (213, 2.72117972373962402344e-01) (214, 3.15898239612579345703e-01) (215, 3.51970970630645751953e-01) (216, 4.05353754758834838867e-01) (217, -6.30041882395744323730e-02) (218, 4.52772051095962524414e-01) (219, 1.92810520529747009277e-02) (220, -4.07674387097358703613e-02) (221, -1.45203918218612670898e-01) (222, -1.11528158187866210938e-01) (223, 2.73429509252309799194e-02) (224, -1.32492020726203918457e-01) (225, -1.40130266547203063965e-01) (226, 1.37378956424072384834e-05) (227, 2.26965593174099922180e-03) (228, -2.31616734527051448822e-03) (229, -1.49549376219511032104e-02) (230, -1.38580232858657836914e-01) (231, -7.47158974409103393555e-02) (232, -1.34856730699539184570e-01) (233, -9.14519354701042175293e-02) (234, -4.71121780574321746826e-02) (235, -1.30467996001243591309e-01) (236, 2.83620387315750122070e-01) (237, -1.53258919715881347656e-01) (238, 2.83123016357421875000e-01) (239, -7.53363072872161865234e-02) (240, -1.08942143619060516357e-01) (241, -5.88773302733898162842e-02) (242, -8.70280861854553222656e-02) (243, -1.81661415845155715942e-02) (244, -4.44777086377143859863e-02) (245, -3.98827008903026580811e-02) (246, -1.27088934183120727539e-01) (247, -1.11088320612907409668e-01) (248, -1.26040667295455932617e-01) (249, 2.79642283916473388672e-01) (250, 2.93323814868927001953e-01) (251, 4.11959409713745117188e-01) (252, 3.00375878810882568359e-01) (253, -7.92411491274833679199e-02) (254, 4.17694717645645141602e-01) (255, 3.21058273315429687500e-01) (256, 3.67758095264434814453e-01) (257, 3.71776401996612548828e-01) (258, 2.96589195728302001953e-01) (259, 3.43616425991058349609e-01) (260, 3.22280913591384887695e-01) (261, 3.16415369510650634766e-01) (262, 4.07272547483444213867e-01) (263, 3.47608655691146850586e-01) (264, 3.87452989816665649414e-01) (265, -1.01655155420303344727e-01) (266, 3.85679513216018676758e-01) (267, 4.30360883474349975586e-01) (268, 3.26842069625854492188e-01) (269, 3.94113242626190185547e-01) (270, 3.15855056047439575195e-01) (271, -4.64243590831756591797e-02) (272, -1.00889585912227630615e-01) (273, -3.31046357750892639160e-02) (274, -9.83830243349075317383e-02) (275, -2.61072553694248199463e-02) (276, -9.57906022667884826660e-02) (277, -6.57945573329925537109e-02) (278, 4.61769074201583862305e-01) (279, 3.63258391618728637695e-01) (280, -3.54410856962203979492e-02) (281, 2.69376546144485473633e-01) (282, 2.87228047847747802734e-01) (283, 4.13737356662750244141e-01) (284, 3.74796718358993530273e-01) (285, 4.66648548841476440430e-01) (286, 2.81399309635162353516e-01) (287, 2.93199330568313598633e-01) (288, -2.22610458731651306152e-01) (0, 1.50000000000000000000e+03) (1, -3.71594727039337158203e-02) (2, 5.79718723893165588379e-02) (3, 8.14801335334777832031e-01) (4, -1.07718341052532196045e-01) (5, -5.32463267445564270020e-02) (6, -6.53959810733795166016e-02) (7, -4.43458966910839080811e-02) (8, 4.94083464145660400391e-02) (9, -9.91016551852226257324e-02) (10, 1.80231742560863494873e-02) (11, -6.84958184137940406799e-03) (12, -5.11661916971206665039e-02) (13, -7.73466452956199645996e-02) (14, 2.41778753697872161865e-02) (15, 8.08693841099739074707e-02) (16, -6.75274664536118507385e-03) (17, -3.16523835062980651855e-02) (18, -5.25599867105484008789e-02) (19, 9.08884629607200622559e-02) (20, -3.97321619093418121338e-02) (21, 3.71444337069988250732e-02) (22, 1.32134947925806045532e-02) (23, -1.33138755336403846741e-02) (24, 8.39713066816329956055e-02) (25, -2.30873282998800277710e-02) (26, 9.24824625253677368164e-02) (27, 8.96488502621650695801e-02) (28, -1.06706731021404266357e-02) (29, 1.00311294198036193848e-01) (30, 7.61251389980316162109e-01) (31, 5.98302669823169708252e-02) (32, 7.18721091747283935547e-01) (33, 7.53654122352600097656e-01) (34, 7.60297179222106933594e-01) (35, 7.49040365219116210938e-01) (36, 7.97560214996337890625e-01) (37, 7.81528294086456298828e-01) (38, 7.94306337833404541016e-01) (39, 7.50650465488433837891e-01) (40, -6.29614759236574172974e-03) (41, -6.17952719330787658691e-02) (42, 5.86895570158958435059e-02) (43, 4.18537035584449768066e-02) (44, -3.88304218649864196777e-02) (45, -2.63512190431356430054e-02) (46, 2.76975743472576141357e-02) (47, 5.40902949869632720947e-02) (48, 3.95434722304344177246e-02) (49, 7.32174590229988098145e-02) (50, 3.49237062036991119385e-02) (51, 9.78252813220024108887e-02) (52, 2.03381553292274475098e-02) (53, -3.92791219055652618408e-02) (54, -1.51656586676836013794e-02) (55, 1.27416821196675300598e-02) (56, 2.82977353781461715698e-02) (57, -2.27796398103237152100e-02) (58, -2.66253919107839465141e-05) (59, -9.02912020683288574219e-02) (60, -2.08755973726511001587e-02) (61, 9.49812605977058410645e-02) (62, 8.50202679634094238281e-01) (63, 2.54927184432744979858e-02) (64, -6.31572306156158447266e-02) (65, -8.15838575363159179688e-02) (66, 9.44378450512886047363e-02) (67, 8.38998377323150634766e-01) (68, 1.30112767219543457031e-02) (69, 9.89451073110103607178e-03) (70, 6.95266246795654296875e-01) (71, -9.78526994585990905762e-02) (72, 4.24012877047061920166e-02) (73, 6.00100792944431304932e-02) (74, 4.54240143299102783203e-02) (75, -9.43553447723388671875e-02) (76, -7.62876272201538085938e-02) (77, -3.01696248352527618408e-02) (78, 4.65128570795059204102e-02) (79, 6.28906264901161193848e-02) (80, -5.71053363382816314697e-02) (81, 2.75430758483707904816e-03) (82, 6.92174583673477172852e-02) (83, 5.90699315071105957031e-02) (84, 5.73241896927356719971e-02) (85, -4.60126176476478576660e-02) (86, -2.96047385782003402710e-02) (87, -1.12865809351205825806e-02) (88, 3.24354544281959533691e-02) (89, 7.20104649662971496582e-02) (90, 8.20731651037931442261e-03) (91, -9.03488844633102416992e-02) (92, 6.74978345632553100586e-02) (93, -2.99616362899541854858e-02) (94, 3.86717766523361206055e-02) (95, -8.64622443914413452148e-02) (96, -1.99046935886144638062e-02) (97, 4.47006933391094207764e-02) (98, 5.78269809484481811523e-02) (99, 6.89605891704559326172e-01) (100, -4.69310730695724487305e-02) (101, 6.22856952250003814697e-02) (102, -9.77839529514312744141e-02) (103, 9.58351865410804748535e-02) (104, 2.12153568863868713379e-02) (105, 8.51927936077117919922e-01) (106, 8.84872496128082275391e-01) (107, 8.69099199771881103516e-01) (108, -9.57838967442512512207e-02) (109, 4.66202497482299804688e-02) (110, 2.59022880345582962036e-02) (111, 7.77255952358245849609e-01) (112, 7.51833379268646240234e-01) (113, -1.43595859408378601074e-02) (114, -8.21144282817840576172e-02) (115, -7.95268490910530090332e-02) (116, 4.54611107707023620605e-02) (117, -1.00146131590008735657e-02) (118, 3.61492438241839408875e-03) (119, -9.95136611163616180420e-03) (120, -4.61895689368247985840e-02) (121, -8.22618678212165832520e-02) (122, -9.15942247956991195679e-03) (123, -7.07461610436439514160e-02) (124, -1.03100175037980079651e-02) (125, -6.42231553792953491211e-02) (126, -5.80310188233852386475e-02) (127, 8.08732286095619201660e-02) (128, 8.09371024370193481445e-02) (129, -1.03508576750755310059e-01) (130, 8.16607773303985595703e-02) (131, -6.77354112267494201660e-02) (132, 6.17414377629756927490e-02) (133, 6.91924020648002624512e-02) (134, -7.36105591058731079102e-02) (135, -1.81794539093971252441e-02) (136, 2.02949754893779754639e-02) (137, -8.07738378643989562988e-02) (138, -7.63103589415550231934e-02) (139, 4.50211912393569946289e-02) (140, 8.03015902638435363770e-02) (141, 4.76759485900402069092e-02) (142, -9.55053269863128662109e-02) (143, 7.57006525993347167969e-01) (144, -5.09948879480361938477e-02) (145, -7.78242573142051696777e-02) (146, -4.18797172605991363525e-02) (147, 8.75707507133483886719e-01) (148, -6.73319329507648944855e-04) (149, 7.48905539512634277344e-02) (150, -3.03606763482093811035e-02) (151, 7.19590187072753906250e-02) (152, 9.01988923549652099609e-01) (153, 8.64369153976440429688e-01) (154, 6.93024337291717529297e-01) (155, -2.26553380489349365234e-02) (156, 9.06534373760223388672e-01) (157, -5.55390864610671997070e-02) (158, -3.80457192659378051758e-02) (159, 7.46751576662063598633e-02) (160, -5.28637468814849853516e-02) (161, -6.62934556603431701660e-02) (162, -9.22902673482894897461e-02) (163, -9.28653255105018615723e-02) (164, -8.41770619153976440430e-02) (165, -6.15020021796226501465e-02) (166, -1.06941182166337966919e-02) (167, 3.21237184107303619385e-02) (168, -4.33054864406585693359e-02) (169, 2.22930703312158584595e-02) (170, 8.03887009620666503906e-01) (171, -6.06468580663204193115e-02) (172, -1.52194201946258544922e-02) (173, 7.94901549816131591797e-01) (174, -5.32158836722373962402e-02) (175, 8.22915256023406982422e-01) (176, 1.22616766020655632019e-02) (177, 8.15852582454681396484e-01) (178, 1.60334464162588119507e-02) (179, -8.58960449695587158203e-02) (180, 4.67712804675102233887e-03) (181, 8.10455679893493652344e-02) (182, 8.70639085769653320312e-02) (183, -1.48843936622142791748e-02) (184, 4.96138706803321838379e-02) (185, 9.55759882926940917969e-02) (186, 6.85101747512817382812e-02) (187, 3.78081090748310089111e-02) (188, -5.92256560921669006348e-02) (189, -7.66943842172622680664e-02) (190, 8.17224800586700439453e-01) (191, -2.83744614571332931519e-02) (192, -4.43275161087512969971e-02) (193, 2.98062991350889205933e-02) (194, -8.79216846078634262085e-03) (195, 7.81445086002349853516e-01) (196, 6.59241229295730590820e-02) (197, 6.21384121477603912354e-02) (198, -8.40201601386070251465e-02) (199, -8.37791636586189270020e-02) (200, 3.22918547317385673523e-03) (201, -5.49732800573110580444e-03) (202, -3.14186327159404754639e-02) (203, 7.92475864291191101074e-02) (204, 9.78713259100914001465e-02) (205, 4.47946786880493164062e-02) (206, 5.68261183798313140869e-03) (207, 7.51279899850487709045e-03) (208, -2.94744726270437240601e-02) (209, 7.38798201084136962891e-01) (210, 8.35893690586090087891e-01) (211, 8.54625701904296875000e-02) (212, -8.79546403884887695312e-02) (213, 8.43619287014007568359e-01) (214, 7.61935710906982421875e-01) (215, 8.67130935192108154297e-01) (216, 8.25193047523498535156e-01) (217, -5.53265810012817382812e-02) (218, 7.98828482627868652344e-01) (219, 6.22055903077125549316e-02) (220, -4.17234823107719421387e-02) (221, -6.93820714950561523438e-02) (222, -5.43875843286514282227e-02) (223, 2.95026954263448715210e-02) (224, 6.28148391842842102051e-02) (225, 3.81875559687614440918e-02) (226, 8.68857577443122863770e-02) (227, 3.06127183139324188232e-02) (228, 1.69660523533821105957e-02) (229, -9.71525236964225769043e-02) (230, 5.41123785078525543213e-02) (231, -8.13314765691757202148e-02) (232, 1.49970622733235359192e-02) (233, -9.00606065988540649414e-02) (234, 1.03164345026016235352e-01) (235, 1.07824243605136871338e-02) (236, 7.63550162315368652344e-01) (237, 5.27089647948741912842e-03) (238, 7.01544106006622314453e-01) (239, -6.28379732370376586914e-02) (240, 2.85956542938947677612e-02) (241, 4.68459650874137878418e-02) (242, -6.28590062260627746582e-02) (243, 4.30099181830883026123e-02) (244, -3.76018546521663665771e-02) (245, 1.78557932376861572266e-02) (246, 4.76405117660760879517e-03) (247, 9.07879099249839782715e-02) (248, 4.27965931594371795654e-02) (249, 6.90807342529296875000e-01) (250, 8.37640345096588134766e-01) (251, 6.88919186592102050781e-01) (252, 7.34387159347534179688e-01) (253, 9.75159853696823120117e-02) (254, 8.33324015140533447266e-01) (255, 6.83978259563446044922e-01) (256, 6.96105122566223144531e-01) (257, 8.07406663894653320312e-01) (258, 8.03724884986877441406e-01) (259, 6.66650116443634033203e-01) (260, 8.06174695491790771484e-01) (261, 7.84028053283691406250e-01) (262, 7.55045652389526367188e-01) (263, 7.61806130409240722656e-01) (264, 8.08387279510498046875e-01) (265, -3.27982045710086822510e-02) (266, 8.52674245834350585938e-01) (267, 7.74598419666290283203e-01) (268, 8.66482377052307128906e-01) (269, 8.86542439460754394531e-01) (270, 8.04890155792236328125e-01) (271, 1.13502098247408866882e-03) (272, 1.15001704543828964233e-02) (273, 4.55209873616695404053e-02) (274, -5.75200989842414855957e-02) (275, 1.01310908794403076172e-01) (276, -4.91306111216545104980e-02) (277, 4.44393232464790344238e-02) (278, 8.90473902225494384766e-01) (279, 7.30251491069793701172e-01) (280, 5.32700531184673309326e-02) (281, 7.66887426376342773438e-01) (282, 6.22841179370880126953e-01) (283, 8.67911458015441894531e-01) (284, 8.48946094512939453125e-01) (285, 8.21647644042968750000e-01) (286, 6.87990546226501464844e-01) (287, 8.00819993019104003906e-01) (288, -9.05431583523750305176e-02) (0, 1.50000000000000000000e+03) (1, 2.94177792966365814209e-02) (2, -6.70165345072746276855e-02) (3, 7.22019493579864501953e-01) (4, 8.94661471247673034668e-02) (5, -8.15132446587085723877e-03) (6, 2.41938866674900054932e-02) (7, -3.21011431515216827393e-02) (8, -5.86753450334072113037e-02) (9, 9.50532332062721252441e-02) (10, -5.75147792696952819824e-02) (11, -6.11990392208099365234e-02) (12, 7.01121147722005844116e-03) (13, 3.57211306691169738770e-02) (14, 6.71001598238945007324e-02) (15, -4.96572628617286682129e-02) (16, 8.73982012271881103516e-02) (17, 6.72832503914833068848e-02) (18, 2.95384577475488185883e-03) (19, 3.03970538079738616943e-02) (20, 5.36827929317951202393e-02) (21, -2.68844957463443279266e-03) (22, -1.34044568985700607300e-02) (23, -4.24246490001678466797e-03) (24, 1.45334927365183830261e-02) (25, -8.38081073015928268433e-03) (26, -6.39728307723999023438e-02) (27, -1.83231271803379058838e-02) (28, -1.47045347839593887329e-02) (29, 1.46804917603731155396e-02) (30, 8.40469777584075927734e-01) (31, 6.03636026382446289062e-01) (32, 6.99986755847930908203e-01) (33, 7.06830918788909912109e-01) (34, 7.42837905883789062500e-01) (35, 7.27171242237091064453e-01) (36, 7.95563101768493652344e-01) (37, 8.52956354618072509766e-01) (38, 7.82812774181365966797e-01) (39, 8.39235961437225341797e-01) (40, 5.96898943185806274414e-02) (41, 5.34363798797130584717e-02) (42, 9.45282801985740661621e-02) (43, -3.39828208088874816895e-02) (44, -1.00613087415695190430e-02) (45, 5.28130345046520233154e-02) (46, 2.21490785479545593262e-02) (47, -2.29896176606416702271e-02) (48, 1.92882791161537170410e-02) (49, -7.73333907127380371094e-02) (50, -1.02222874760627746582e-01) (51, -3.06598674505949020386e-02) (52, 2.99544520676136016846e-02) (53, -3.23082110844552516937e-03) (54, 6.54205381870269775391e-02) (55, -4.70798350870609283447e-02) (56, 7.93717131018638610840e-02) (57, -9.86487418413162231445e-02) (58, 3.21798659861087799072e-02) (59, -4.31942455470561981201e-02) (60, 1.76244806498289108276e-02) (61, 5.35303633660078048706e-03) (62, 7.72061944007873535156e-01) (63, 4.49391752481460571289e-02) (64, 3.91293870052322745323e-04) (65, 2.27206908166408538818e-02) (66, 9.29288566112518310547e-02) (67, 7.00818777084350585938e-01) (68, -1.11722340807318687439e-02) (69, -1.75849953666329383850e-03) (70, 8.47274839878082275391e-01) (71, -5.60501366853713989258e-02) (72, -5.40200397372245788574e-02) (73, 4.78573963046073913574e-02) (74, 1.19296023622155189514e-02) (75, 3.85319776833057403564e-02) (76, -9.27609577775001525879e-03) (77, -7.02682510018348693848e-02) (78, -9.66573655605316162109e-02) (79, -9.17306020855903625488e-02) (80, -4.72852177917957305908e-02) (81, -7.94124156236648559570e-02) (82, -1.41562325879931449890e-02) (83, 7.80366882681846618652e-02) (84, 1.12057607620954513550e-02) (85, -4.91145476698875427246e-02) (86, -7.04594999551773071289e-02) (87, -6.65019871667027473450e-03) (88, -4.62211556732654571533e-02) (89, 6.29589781165122985840e-02) (90, 5.95646463334560394287e-02) (91, 6.94945827126502990723e-02) (92, -3.07787116616964340210e-02) (93, -5.65929263830184936523e-02) (94, 1.79616697132587432861e-02) (95, 7.88097530603408813477e-02) (96, 5.71820512413978576660e-02) (97, 2.15679537504911422729e-02) (98, 8.49193707108497619629e-02) (99, 7.42459416389465332031e-01) (100, -8.17168354988098144531e-02) (101, 4.13867160677909851074e-02) (102, -3.07817431166768074036e-03) (103, -3.53719145059585571289e-02) (104, -1.18362763896584510803e-02) (105, 7.12599754333496093750e-01) (106, 8.85569036006927490234e-01) (107, 9.02499854564666748047e-01) (108, -7.52107426524162292480e-02) (109, -9.69712510704994201660e-02) (110, -9.50263962149620056152e-02) (111, 8.07179570198059082031e-01) (112, 7.23321318626403808594e-01) (113, -1.86619758605957031250e-02) (114, -3.32239717245101928711e-02) (115, 4.85965386033058166504e-02) (116, 3.91859859228134155273e-02) (117, -1.97891867719590663910e-03) (118, -6.36253282427787780762e-02) (119, 1.05241380631923675537e-01) (120, -4.68021854758262634277e-02) (121, -9.81448069214820861816e-02) (122, 6.49375692009925842285e-02) (123, 3.03647182881832122803e-02) (124, -5.27459755539894104004e-02) (125, -1.08362622559070587158e-02) (126, 8.35183076560497283936e-03) (127, -8.48216190934181213379e-02) (128, -8.88087004423141479492e-02) (129, -1.00333103910088539124e-02) (130, -3.12940441071987152100e-02) (131, -7.22669735550880432129e-02) (132, -6.56822472810745239258e-02) (133, 5.11065796017646789551e-02) (134, -9.34925302863121032715e-03) (135, 2.13451813906431198120e-02) (136, 6.28809407353401184082e-02) (137, -1.53719075024127960205e-02) (138, -2.82579916529357433319e-03) (139, -9.18197035789489746094e-02) (140, 2.11203237995505332947e-03) (141, 2.31845770031213760376e-04) (142, -2.42254696786403656006e-03) (143, 8.55481207370758056641e-01) (144, 9.76821184158325195312e-02) (145, 6.41489773988723754883e-02) (146, -1.77041795104742050171e-02) (147, 8.43978822231292724609e-01) (148, -5.06644397974014282227e-02) (149, 3.19890566170215606689e-02) (150, 2.50565856695175170898e-02) (151, 2.09521092474460601807e-02) (152, 8.43041360378265380859e-01) (153, 7.93883442878723144531e-01) (154, 7.38623499870300292969e-01) (155, 7.56154060363769531250e-02) (156, 8.93638134002685546875e-01) (157, 6.13508932292461395264e-02) (158, 9.45302248001098632812e-02) (159, 8.78305286169052124023e-02) (160, -4.24984879791736602783e-02) (161, -4.65091280639171600342e-02) (162, -8.33704024553298950195e-02) (163, -9.92374960333108901978e-03) (164, -8.24785977602005004883e-02) (165, 1.13830650225281715393e-02) (166, -8.82279202342033386230e-02) (167, 7.67273306846618652344e-02) (168, 9.49815288186073303223e-02) (169, 1.82438157498836517334e-02) (170, 9.06965017318725585938e-01) (171, -5.49418036825954914093e-04) (172, -6.67127743363380432129e-02) (173, 7.95069754123687744141e-01) (174, -2.48520467430353164673e-02) (175, 7.19838619232177734375e-01) (176, -4.52387854456901550293e-02) (177, 7.96177804470062255859e-01) (178, 5.39573319256305694580e-02) (179, 6.61237677559256553650e-03) (180, -5.80623522400856018066e-02) (181, -2.56132949143648147583e-02) (182, -7.10313320159912109375e-02) (183, 6.35652765631675720215e-02) (184, 7.24692419171333312988e-02) (185, -1.20121361687779426575e-02) (186, 4.50938679277896881104e-02) (187, 4.35646437108516693115e-02) (188, -4.99238446354866027832e-02) (189, 3.24652455747127532959e-02) (190, 8.36136639118194580078e-01) (191, -8.70733335614204406738e-03) (192, 8.50104242563247680664e-02) (193, 5.73419891297817230225e-02) (194, 9.42104160785675048828e-02) (195, 7.12087512016296386719e-01) (196, -3.36551144719123840332e-02) (197, -1.12786732614040374756e-01) (198, 9.09067019820213317871e-02) (199, -4.50713858008384704590e-02) (200, 2.42547877132892608643e-02) (201, 7.68730938434600830078e-02) (202, 6.73865899443626403809e-02) (203, 4.87798787653446197510e-02) (204, -1.92318726330995559692e-02) (205, 9.97495353221893310547e-02) (206, 7.19750970602035522461e-02) (207, 3.29091176390647888184e-02) (208, 5.80566190183162689209e-03) (209, 8.43177795410156250000e-01) (210, 7.54709720611572265625e-01) (211, 5.80032616853713989258e-02) (212, -9.03971493244171142578e-02) (213, 8.02869617938995361328e-01) (214, 8.11670780181884765625e-01) (215, 8.86014997959136962891e-01) (216, 8.76576781272888183594e-01) (217, -2.78893839567899703979e-02) (218, 8.25317144393920898438e-01) (219, -7.62712806463241577148e-02) (220, -1.05126649141311645508e-01) (221, -2.43007428944110870361e-02) (222, 2.68026553094387054443e-02) (223, 9.50434729456901550293e-02) (224, -6.45681396126747131348e-02) (225, 2.19864454120397567749e-02) (226, 8.30690041184425354004e-02) (227, 3.65049252286553382874e-03) (228, 2.58398130536079406738e-02) (229, 7.34180286526679992676e-02) (230, 6.58579394221305847168e-02) (231, -5.14320805668830871582e-02) (232, 6.84775859117507934570e-02) (233, 2.04902309924364089966e-02) (234, 1.02696798741817474365e-01) (235, -5.28402589261531829834e-02) (236, 5.13484142720699310303e-02) (237, 7.09950327873229980469e-02) (238, 8.91634225845336914062e-01) (239, -6.20520822703838348389e-02) (240, -1.46384374238550662994e-03) (241, -7.34756588935852050781e-02) (242, -8.95325168967247009277e-02) (243, 9.96838323771953582764e-03) (244, 1.88601075205951929092e-03) (245, 3.97167429327964782715e-02) (246, -7.32506811618804931641e-03) (247, -1.75028741359710693359e-02) (248, -1.05999089777469635010e-01) (249, 7.04599678516387939453e-01) (250, 7.87690460681915283203e-01) (251, 6.77296519279479980469e-01) (252, 7.93548822402954101562e-01) (253, -6.77157789468765258789e-02) (254, 8.87410163879394531250e-01) (255, 8.15047860145568847656e-01) (256, 7.14326620101928710938e-01) (257, 8.57056856155395507812e-01) (258, 7.08541274070739746094e-01) (259, 6.92427933216094970703e-01) (260, 8.27223002910614013672e-01) (261, 6.99579656124114990234e-01) (262, 8.10953140258789062500e-01) (263, 8.33869397640228271484e-01) (264, 8.33963751792907714844e-01) (265, 2.25963480770587921143e-02) (266, 8.62744927406311035156e-01) (267, 7.66410529613494873047e-01) (268, 7.87989616394042968750e-01) (269, 8.56152236461639404297e-01) (270, 7.96936750411987304688e-01) (271, 9.32259559631347656250e-02) (272, 6.38582929968833923340e-02) (273, 1.25504843890666961670e-02) (274, 2.06888839602470397949e-03) (275, -5.82397030666470527649e-03) (276, -5.81188090145587921143e-02) (277, 9.19391885399818420410e-02) (278, 8.72384846210479736328e-01) (279, 7.72220551967620849609e-01) (280, -8.51497203111648559570e-02) (281, 7.02964663505554199219e-01) (282, 6.51381790637969970703e-01) (283, 7.86620438098907470703e-01) (284, 8.05218935012817382812e-01) (285, 7.05784559249877929688e-01) (286, 7.40280568599700927734e-01) (287, 7.90582954883575439453e-01) (288, -1.56107485294342041016e-01) (0, 1.50000000000000000000e+03) (1, -2.37749386578798294067e-02) (2, 2.95621529221534729004e-02) (3, 3.60951364040374755859e-01) (4, -8.92019644379615783691e-02) (5, -4.84113916754722595215e-02) (6, -1.31213843822479248047e-01) (7, 3.44345271587371826172e-02) (8, -5.35172894597053527832e-02) (9, -7.24890306591987609863e-02) (10, -6.54588192701339721680e-02) (11, -1.11369356513023376465e-01) (12, 3.92558798193931579590e-02) (13, -6.88107833266258239746e-02) (14, -1.31556928157806396484e-01) (15, -4.87184375524520874023e-02) (16, 3.03005352616310119629e-02) (17, -3.98343391716480255127e-02) (18, -9.79198515415191650391e-03) (19, 2.77785304933786392212e-02) (20, -6.72505199909210205078e-02) (21, 3.39751429855823516846e-02) (22, 3.97242046892642974854e-02) (23, 9.58788488060235977173e-03) (24, -1.15903653204441070557e-01) (25, -5.32318577170372009277e-02) (26, -7.13925510644912719727e-02) (27, -7.59818926453590393066e-02) (28, 1.28069939091801643372e-02) (29, -1.02907810360193252563e-02) (30, 3.71935009956359863281e-01) (31, -1.38992741703987121582e-01) (32, 3.61717313528060913086e-01) (33, 3.56293797492980957031e-01) (34, 4.14831012487411499023e-01) (35, 4.27632451057434082031e-01) (36, 2.77638375759124755859e-01) (37, 4.44868057966232299805e-01) (38, 4.28501129150390625000e-01) (39, 3.75545471906661987305e-01) (40, -9.79032367467880249023e-02) (41, -1.11419916152954101562e-01) (42, -2.60565779171884059906e-03) (43, -9.31865125894546508789e-02) (44, -1.06538590043783187866e-02) (45, 3.97478789091110229492e-02) (46, 3.14823933877050876617e-03) (47, -2.56173312664031982422e-02) (48, -4.42934669554233551025e-02) (49, -4.51732873916625976562e-02) (50, -3.74055914580821990967e-02) (51, -1.45693793892860412598e-01) (52, -5.35985156893730163574e-02) (53, -4.97086271643638610840e-02) (54, 2.82586850225925445557e-02) (55, -8.09213519096374511719e-03) (56, -1.22126020491123199463e-01) (57, -8.40505734086036682129e-02) (58, -1.19728930294513702393e-01) (59, -1.50754138827323913574e-01) (60, -1.43533319234848022461e-01) (61, -1.51367979124188423157e-02) (62, 3.33962857723236083984e-01) (63, -4.26858551800251007080e-02) (64, -1.15166313946247100830e-01) (65, -1.34263813495635986328e-01) (66, -6.97869062423706054688e-02) (67, 3.29254299402236938477e-01) (68, -1.60261213779449462891e-01) (69, -1.09285511076450347900e-01) (70, 4.43357884883880615234e-01) (71, -8.31526145339012145996e-02) (72, -5.54441809654235839844e-02) (73, -2.64516025781631469727e-02) (74, -1.93838533014059066772e-02) (75, -1.14450298249721527100e-01) (76, -1.96595974266529083252e-02) (77, -4.70907725393772125244e-02) (78, 3.55786308646202087402e-02) (79, -1.04395650327205657959e-01) (80, -1.26852482557296752930e-01) (81, -5.37105910480022430420e-02) (82, -9.12843495607376098633e-02) (83, -1.05308648198843002319e-02) (84, -1.28519475460052490234e-01) (85, -1.05015017092227935791e-01) (86, -5.74824884533882141113e-02) (87, -9.57012325525283813477e-02) (88, -3.33386100828647613525e-02) (89, -1.94455813616514205933e-02) (90, -9.33576077222824096680e-02) (91, -8.53048078715801239014e-03) (92, -7.65056684613227844238e-02) (93, -1.92538183182477951050e-02) (94, -8.86012837290763854980e-02) (95, -2.53019165247678756714e-02) (96, 7.92502891272306442261e-03) (97, -4.15490288287401199341e-03) (98, 3.36438044905662536621e-02) (99, 4.39111262559890747070e-01) (100, -1.52107968926429748535e-01) (101, 9.92447976022958755493e-03) (102, -1.14752113819122314453e-01) (103, -4.79187369346618652344e-02) (104, -5.47131858766078948975e-02) (105, 4.61450040340423583984e-01) (106, 4.31617945432662963867e-01) (107, 3.34589838981628417969e-01) (108, -4.61979992687702178955e-02) (109, -3.81625629961490631104e-03) (110, -5.53572550415992736816e-02) (111, 4.05479609966278076172e-01) (112, 3.28508496284484863281e-01) (113, 4.26210043951869010925e-03) (114, -6.95179253816604614258e-02) (115, -7.53997415304183959961e-02) (116, -1.29582613706588745117e-01) (117, 3.24382446706295013428e-02) (118, -1.33364787325263023376e-02) (119, -1.05400793254375457764e-02) (120, -2.63206977397203445435e-02) (121, -1.42442777752876281738e-01) (122, -6.03455230593681335449e-02) (123, -1.42023190855979919434e-01) (124, -8.60421205288730561733e-05) (125, 1.80154889822006225586e-02) (126, -1.56560596078634262085e-02) (127, -4.73913103342056274414e-02) (128, -3.02801225334405899048e-02) (129, -1.17042884230613708496e-02) (130, -7.64164328575134277344e-02) (131, -2.26252265274524688721e-02) (132, -4.57948856055736541748e-02) (133, -9.38853062689304351807e-03) (134, -1.06380194425582885742e-01) (135, -1.35136276483535766602e-01) (136, -2.15405728667974472046e-02) (137, -1.52323842048645019531e-01) (138, -8.21206867694854736328e-02) (139, -1.13270945847034454346e-01) (140, 1.25562679022550582886e-02) (141, 2.16691289097070693970e-02) (142, 2.75973957031965255737e-02) (143, 2.98393666744232177734e-01) (144, -8.24240315705537796021e-03) (145, -8.01880061626434326172e-02) (146, -3.92260141670703887939e-02) (147, 4.49380636215209960938e-01) (148, -8.16402509808540344238e-02) (149, -1.00317753851413726807e-01) (150, -1.55945997685194015503e-02) (151, -1.54674172401428222656e-01) (152, 3.47249358892440795898e-01) (153, 3.13426524400711059570e-01) (154, 2.81789839267730712891e-01) (155, -1.27629429101943969727e-01) (156, 2.89491474628448486328e-01) (157, 6.96866400539875030518e-03) (158, -1.87421664595603942871e-02) (159, 9.73043497651815414429e-04) (160, -5.79156726598739624023e-02) (161, -1.11869789659976959229e-01) (162, -6.22846931219100952148e-02) (163, -1.43692076206207275391e-01) (164, 2.95554473996162414551e-02) (165, -2.35480461269617080688e-02) (166, -1.16772674024105072021e-01) (167, -2.87300329655408859253e-02) (168, 1.01735508069396018982e-02) (169, -4.20339256525039672852e-02) (170, 4.37432199716567993164e-01) (171, -2.18387041240930557251e-02) (172, -6.98453262448310852051e-02) (173, 4.25711214542388916016e-01) (174, 6.45701065659523010254e-02) (175, 3.22823643684387207031e-01) (176, -1.22051768004894256592e-01) (177, 3.63872200250625610352e-01) (178, -1.18212915956974029541e-01) (179, -4.33909706771373748779e-02) (180, -5.87636651471257209778e-03) (181, 1.99217088520526885986e-02) (182, -3.97955514490604400635e-02) (183, -1.29004776477813720703e-01) (184, -1.34873181581497192383e-01) (185, -1.83672662824392318726e-02) (186, -8.94467830657958984375e-02) (187, -1.10483862459659576416e-01) (188, -5.27911931276321411133e-02) (189, -1.33947074413299560547e-01) (190, 2.73646056652069091797e-01) (191, -1.33197039365768432617e-01) (192, -8.84209051728248596191e-02) (193, -6.38858750462532043457e-02) (194, -1.19320541620254516602e-01) (195, 3.31507533788681030273e-01) (196, -1.17969207465648651123e-01) (197, -5.86700364947319030762e-02) (198, 2.80016250908374786377e-02) (199, -1.50535121560096740723e-01) (200, -1.57076030969619750977e-01) (201, 4.82598366215825080872e-03) (202, -2.70253941416740417480e-02) (203, -5.32715842127799987793e-02) (204, -4.43051867187023162842e-02) (205, -4.90793846547603607178e-02) (206, -1.77618069574236869812e-03) (207, 3.93494591116905212402e-03) (208, -1.54980093240737915039e-01) (209, 4.62313145399093627930e-01) (210, 3.47577482461929321289e-01) (211, -6.18563639000058174133e-03) (212, 1.15278866142034530640e-02) (213, 4.61354881525039672852e-01) (214, 4.63916897773742675781e-01) (215, 2.63812601566314697266e-01) (216, 4.05080348253250122070e-01) (217, -8.86753201484680175781e-02) (218, 3.15613299608230590820e-01) (219, -1.10999606549739837646e-01) (220, -5.81130459904670715332e-02) (221, -1.06713443994522094727e-01) (222, -9.11450758576393127441e-02) (223, 9.17789526283740997314e-03) (224, -1.47879663854837417603e-02) (225, -5.06466217339038848877e-02) (226, -1.17511749267578125000e-01) (227, 2.11294572800397872925e-02) (228, 3.48020642995834350586e-02) (229, 